{"biases": [[[-2.24739485166275], [-0.6242845373227379], [0.45763933492362874], [-4.453058623038176], [-0.5494241168346562], [-2.7486316363035193], [-3.220178935118965], [-1.1282829963004948], [-1.980310493616145], [0.06394777454012728], [-0.6643819826483284], [-2.939530306095026], [-0.8194318258558521], [-1.7111910301138447], [-1.7973713841898886], [-1.5093983323169797], [-2.69034201137156], [1.0777197500781686], [-2.2503089472034596], [-0.8508518088451948], [1.4594595349014097], [-0.368967240170092], [0.12896324731396436], [-0.14718467227714646], [-1.8187531146740552], [-1.333733845739999], [-2.5878107668002497], [-0.06688975882425424], [-0.3639007929963319], [-3.454082221924037], [0.0490934095346615], [2.186979219920682], [-2.9240454176240256], [-0.4328465978709422], [0.2646830790954453], [-0.06286192682345312], [-2.4161619041957083], [0.6795866675710156], [-1.8135349180976454], [-1.0476569752811804], [0.7158457172876672], [0.8274962858882537], [0.4722480332797915], [-0.8832095445325193], [-1.1115064505454586], [0.053398876210185325], [-0.4946037095032042], [-0.031203857402706793], [-0.05821542510574844], [-2.0600727593456103], [-1.0011645099070399], [-0.549065866403977], [-0.42265000729560365], [-1.6207702519194607], [-0.1492468920037691], [0.514643505629398], [0.6954710155583221], [-1.2439711856823372], [-0.8841680051163029], [-0.3865335112100512], [-0.8434130466993487], [-0.8688986135382839], [-1.1360041316823999], [-1.8767623036269363], [-0.7130264510065674], [-1.577227562956898], [-1.777710620782022], [-2.0738969925530943], [-0.6637141640431775], [-1.1116154710156367], [-0.09019787367679004], [-0.7922437849279249], [0.018485753507002628], [-3.4385383325037076], [-0.08943216534505002], [1.1232717587908092], [-0.8646884421485329], [0.06155724128536492], [-1.708067666273277], [-1.6069571227156365], [-0.8482627393514351], [-0.6981500761395989], [0.2307632900262345], [-2.899907542229467], [0.12136058953798325], [-1.4001543942232033], [1.0135440396204838], [-0.9971987542435197], [-0.9296317662063929], [-1.071236374637119], [-0.13225923552548144], [-0.6926212198667041], [-0.42349205150425556], [-1.0173847634404314], [-0.9051861066409238], [-2.4740710391327676], [-1.6784040317792206], [-0.46026348774797], [-0.9403425253448434], [-0.9270819068637787]], [[-1.5765907525316671], [-1.9889067271915906], [-0.9113135022631652], [0.2218466441920866], [-0.9167100669207211], [-1.888122652639731], [-5.385790907776095], [-0.942086996129794], [-0.6932859581538695], [-4.532984515315471]]], "weights": [[[-0.008818972076033316, 0.011474629030225043, -0.011449548130804411, 0.006279662742526519, 0.01782079566544071, 6.1169782290621465e-06, -0.015386311078712791, -0.01113490540983989, 0.06355375825779686, 0.014556848988636501, 0.017825801957529367, -0.025150584890801433, -0.005285056859714576, 0.04204993231263839, -0.028612890525192308, -0.03006391489844314, -0.024996471980271714, -0.024084949316890904, -0.03698288905258247, 0.012044228076696238, 0.07099367279736848, 0.10281093125710233, 0.01094977920757037, -0.05743337438680097, 0.04754181618759169, -0.00876048069966545, 0.008148809721600278, -0.03524915216264969, 0.01265138383923505, -0.009771296471127146, -0.04288456832938473, 0.00506216506308249, -0.012087196822865444, -0.0024447028854144154, -0.04826443640934023, 0.05037822945750458, -0.021792937829683265, -0.013379034193128227, -0.016128632652334152, 0.01997673654085908, 0.01223804187835075, -0.004162230107044929, 0.004091691256575218, 0.03692750849500387, 0.029196320613190985, -0.014384250581988074, -0.015685833059626796, 0.002299477583370625, -0.07362447245068351, -0.0917124220238085, 0.03726562287762015, 0.007171668687847215, -0.06471554917378786, 0.02222824567020885, 0.028666279771566185, -0.050647742852412324, 0.028461496754753898, 0.030313012493864887, 0.027098715289769218, 0.04208145846061594, 0.02062638078578977, 0.0018547525368048103, 0.01848706425170465, 0.03972564270225564, -0.019957221046894583, -0.0007504778586463591, 0.017582261300880968, 0.043842078769432996, 0.007585612746329494, -0.04895652877908517, -0.05901420468582522, -0.10309781184986654, 0.01493568125222673, 0.06648113597339796, 0.0853335930449825, 0.0003736606932965817, 0.029844666380071574, -0.07893967535174576, -0.007803544691204, -0.041980967963119134, 0.026064568177120172, 0.014041220452809783, 0.00039030590429312196, 0.008081693512092225, -0.006199767650962501, -0.031247836339059906, 0.04289788150258534, -0.007802362230339134, -0.08279175822804659, 0.031507184626775105, 0.08098594231642034, 0.12885131474553463, 0.1756361359570606, 0.2844319868877836, 0.4866920263016584, 0.47012343174763893, 0.5670703864607926, 0.5580253512515209, 0.35155716629229067, 0.43715877419472104, 0.0973822814339307, -0.22953888679772666, -0.16240286002952284, -0.3354131356269762, -0.203042307248274, -0.055522829372778436, -0.07690756586016623, -0.14472424314461993, -0.032715227231283325, 0.00378347941094897, -0.011074258944697287, 0.010323454740983985, 0.061045671278790695, -0.012321269042330878, -0.02041372773264036, -0.022735544345688967, -0.029616212474421335, 0.10181984774097995, 0.17321700627789413, 0.3815108372098948, 0.31544966997614826, 0.6783327605453514, 0.5257449643240312, 0.6721577747184612, 0.6540468677480722, -0.025747961394742617, 0.14358195329270768, 0.5387774341997564, 0.16511989921928644, -0.175362484897152, 0.08739253856522604, -0.17508496393012518, -0.19685450239818705, -0.10738650327170214, 0.04579862171239783, -0.010466303982046529, 0.07748298654926936, 0.053844412716939266, -0.032520317858918825, 0.002981203423096817, -0.01647893157463284, -0.0075623723997340405, 0.008140941321831973, -0.003046287999265151, 0.10175958424871613, 0.2038945485205093, 0.31299253648927455, 0.2717960569492236, 0.4478930615181676, 0.4102311031684376, 0.4610693010474256, 0.67459167461566, 0.3218091180846554, 0.21115571662356664, 0.07553698342264338, 0.06209268877032661, 0.5296705312435833, 0.4247873159175941, 0.3655769470220231, 0.14752790389958476, 0.3312525573069062, -0.05508588040642321, -0.051801095366634395, 0.0703079706039053, 0.09887958271597169, 0.053023455380981764, -0.013691410613946986, 0.00104431579478692, 0.022519835616228084, 0.000914160051075174, 0.009763161594265107, 0.06071586586309158, 0.048933106285733344, 0.10789312961115065, 0.2645342560674271, 0.15578521942189166, 0.40154820533942426, 0.5937286636197496, 0.2161990798733379, 0.013523587256495929, 0.2422587311128159, 0.4557396574342448, 0.3698767631564676, -0.10360089241026653, 0.03253806115222363, -0.40462617690999575, -0.08349075986040026, -0.018729628443877103, 0.010374457062272855, 0.03139390798964914, 0.10451992149304676, 0.40736560790130477, 0.4365115432636211, 0.21765581268720866, 0.012482329136131698, 0.014469466923845454, -0.0019429228964723906, -0.0015856995554297804, -0.009250147059668453, 0.01747923587385771, 0.18801352544055216, 0.23748049401063032, 0.15527487131723108, 0.1967677429363495, 0.5409624132337385, 0.13679339062288226, -0.16328402641684847, 0.15429889949426817, 0.0884179166492049, 0.05878936736755505, 0.22633566493538768, -0.2548614082110598, -0.058091509015847656, -0.1337406026998997, -0.4068739710858645, 0.18499817715588832, -0.002145881800923981, 0.1377054183985165, 0.23476277176027321, 0.044518883750396934, 0.20396742784104138, 0.09400065864934147, 0.07046895349227286, -0.025437498120510105, 0.0026982630171468393, -0.1098319780818912, 0.04826661397390216, -0.042600650311616625, 0.19884830935065478, 0.302584417476517, -0.1184111869280674, 0.01502314222876995, 0.35620237521302467, -0.17829255371449146, -0.162362645317961, 0.05434245838987358, -0.028069503387532484, -0.21717526974940124, 0.19736380089797673, 0.0682995863181106, -0.29392528341239477, -0.17301889356505487, -0.14297764127883575, 0.23331018337608223, -0.07121357797980336, 0.09012160637189419, 0.011042719516536039, -0.22495718446034763, -0.030526391222289683, -0.03372584637823715, 0.032877687585224795, -0.0008294387537336675, -0.004681734497845436, 0.018676527293066892, 0.00040597572455892505, -0.06761402746284008, 0.29235108908933605, 0.2913153920812661, -0.2767643605866938, -0.1522661630212453, 0.20194537391729753, -0.33635750710390816, -0.33419014327985436, -0.37179091957910454, -0.005842218220964977, -0.4651739867226304, -0.3672172251614514, 0.3934222283101087, -0.007465627267241645, -0.19616121519316757, -0.137119306563262, -0.14290216422616633, -0.39725703612567, -0.23319901352737388, -0.1960018668756017, -0.3043600599138089, -0.10370184648157106, 0.023629066225203697, 0.012242298035432123, -0.006665207795474784, -0.03765138142683105, 0.007130943317774711, 0.07427970570152, 0.05491903358540704, 0.11034919717804231, 0.0558014246775131, -0.34822470490122787, -0.27739974235130266, -0.1569312105879564, -0.5963103427855704, -0.4806343018856187, -0.3646249971286312, -0.3049544512188452, -0.16075341874233268, -0.3702793578572353, -0.15682072359517707, -0.3330867863247386, -0.2609179255857632, -0.2928852743105422, -0.41219787969808624, -0.5469639460757902, -0.542422954943095, -0.5311490462557137, -0.5555942439299256, -0.27941155538434637, -0.024789231156176404, -0.011228052848499915, 0.006523592628837665, -0.0005820630825857775, 0.008201874199743832, 0.023623098399125766, -0.046894280379500254, 0.14370195534126012, -0.09942022551417158, -0.5071386522691649, -0.6643484738247791, -0.53869585953252, -0.5248790963991277, -0.13550900078701755, 0.14912949358752742, 0.6280499369602005, -0.22008627959699698, 0.2103224917078235, -0.13791347392277936, -0.27757000134135507, 0.13013259797473842, 0.1261448231875916, -0.040321510932596234, -0.3239156181448253, -0.5452843837624962, -0.6510922819983938, -0.5846990016471711, -0.3671328382202189, -0.030969889293066356, -0.001491377389854536, -0.012371678780092295, -0.020218656965125818, 0.005780045425900035, 0.031290011912098147, -0.05531542667804787, 0.04712335169641539, -0.020473154286695137, -0.373131622362571, -0.37913404925223926, 0.06877566422606018, -0.21100490188867174, 0.38385465127469515, 0.5738305853725284, 0.38916484807233065, 0.1261889012708542, -0.08399860400689382, -0.21263319722610188, -0.1332857175417631, 0.01638549320005177, 0.11321030080405117, -0.12197258726190255, -0.12964915080374745, -0.31219591607779845, -0.39996883001565775, -0.5810757370866086, -0.4992712124007067, -0.11005181137743256, -0.0004866884683779211, 0.01726356102288068, -0.026340257859227466, -0.02016348824998827, -0.056205091584209575, -0.08915720486955046, -0.010221753272390902, 0.10949883036060497, -0.37512159522935845, -0.12506073594769487, 0.2948059334961948, 0.22448936346860346, 0.47069730098360996, 0.12443119337703126, 0.15500245304393023, 0.4772981321966056, 0.4248734580946674, -0.3172795210791232, -0.023749646905409018, 0.012817906114864108, 0.0987695950066079, -0.15289533932091232, 0.12531492765829294, -0.11110197465752311, -0.32300413920065985, -0.19216464680026096, -0.2210575902170366, -0.0326406946208345, 0.02512685735036676, 0.0776994776919664, 0.04047049001764253, 0.025727368085530698, -0.007176752245966192, -0.016095166826228437, -0.07452395616859879, -0.35338441443296703, -0.251882450980559, -0.2560173398659243, -0.3066920443861887, -0.09077896495042988, -0.10936787418705989, -0.14611132999783485, -0.08443062468953588, -0.11782620953964672, 0.30478898825826856, 0.027688906141438336, -0.18335921339047923, -0.2940401426718801, -0.3135271238599713, -0.22677547776513454, 0.017801236259041422, -0.008673209132710427, -0.2920315828375712, 0.038260792670681935, -0.16788692331511426, 0.05517422498624885, 0.07955302833069496, -0.001096306610809656, -0.02602441920983592, -0.002094847052215474, -0.0022952638147458425, 0.016466326374761277, -0.12035964843652534, -0.7223621856576331, -0.5420938047075391, -1.2743749434403633, -1.3596467595373183, -0.774930971112146, -0.19737493881974985, -0.12431422602131181, -0.044724480535386836, 0.18670125621474176, -0.047342710827214925, 0.15851269280037283, -0.1810548269477173, -0.49288963955184006, -0.4963005880119204, -0.04676596049597629, 0.08341643588059369, 0.24509027703654113, 0.052030795102258984, 0.03886806447498989, 0.0810191772845099, 0.06422969697488394, 0.09461371708089024, 0.017354394234263264, -0.018935181697382144, -0.03069666271725697, 0.0014200091498458775, -0.006118653022289119, -0.07886706294423643, -0.6074711996982688, -0.7774553803217102, -1.6044960701348834, -1.7792516978990365, -1.5298739877425191, -0.7678786506670988, -1.0840732333471303, -0.6438703273576638, -0.4311961016480725, -0.33472199091127836, -0.14880403217421767, -0.4015805071450645, -0.253622597998798, -0.18429004952380856, 0.18873801060385537, -0.060717140517376054, 0.22969650865452965, 0.48671785570399845, 0.27924191704122764, 0.12934953828913126, 0.15873729702267309, 0.014821110272683506, -0.052841187150954774, 0.05323311200637385, 0.009372812333568108, 0.08846823105557354, 0.13182498094267844, 0.005328279218887447, -0.3704522485436389, -0.5199804419921759, -1.3151887058516676, -1.0153093465357628, -1.392546377591995, -1.5621622094688767, -1.3500495744572865, -1.5704614759424738, -1.017878241590914, -0.7081341121285862, -0.2456447908638918, -0.33969113587376093, -0.03781473817543128, -0.10699143213076094, -0.054931445584417336, 0.09590294824118188, -0.16797498490554144, -0.1482705560764699, -0.0039754941901442775, -0.12007684023611816, 0.14503278489689791, 0.030203343449673705, -0.03156329490080238, 0.00921959034637753, -0.03677826549923179, 0.04578140124375862, 0.23745902057604895, 0.4104945657008724, -0.08449416056614915, -0.2564168826392252, -0.2841941575979364, -0.31872675540843726, -0.506021297373998, -0.4906397335213508, -0.7715024709006656, -1.2182682915002625, -0.7075326225424705, -0.366132042942222, -0.09948352229916518, 0.32550722937616056, 0.13521500182703505, -0.023174187655283607, 0.06316714273467981, 0.35739391914456625, 0.3457706965272837, 0.029635929254621326, -0.07083977526560267, 0.08204397895981043, 0.054596637678876174, 0.02320506122261889, -0.028222134911764077, 0.03371654485382071, 0.030126461338845747, 0.04891976556388377, 0.1936550420479168, 0.37218784557377627, 0.05533793833726108, 0.28866001147343745, 0.11611213656320238, 0.0873681827680063, 0.0926639333940576, 0.0665255578687673, 0.17296078421044098, 0.18666934760273068, 0.5124604818590408, 0.14570747432600767, 0.12184804328965605, 0.3424724955280426, 0.22840102579631538, 0.27019007309069315, 0.3042765656100197, 0.6496673650030136, 0.34946390511928543, 0.09799774139780999, -0.01663363642085857, 0.15555113268022835, 0.08748615675036751, 0.02195637333581901, -0.022223268379003416, -0.01442778971418685, 0.01405561480026155, 0.057504588797041574, 0.06890089516917948, -0.0006084761306361904, 0.1926659383975923, 0.7158155406573831, 0.5280661087088363, 0.4200702314684409, 0.38740904594302183, 0.4436332448073805, 0.8758408247011804, 0.9164006807231074, 0.5170464865090052, 0.11690994344818144, 0.014940432862722853, 0.35848745873909127, 0.4100742415873586, 0.18341069478921318, 0.13373880634583657, 0.43961359532543715, 0.1786872402412195, 0.6057115912379284, 0.32387714760624936, 0.07228253372729204, 0.053912345993960435, 0.030471430318698263, 0.029737962931806996, -0.03472078115265191, 0.006390930188584831, 0.014548097185091119, 0.0377323147240713, 0.1930633422166431, 0.1503876411826083, 0.2785260305495879, 0.8556574371307479, 0.7894381365715472, 1.0401464334969812, 0.7546943570432643, 0.9101894069148669, 0.6804699590538685, 0.27669882836542353, 0.14392959180145481, 0.1694817337366001, 0.009545266159391583, 0.19928409318937682, 0.6388087483241366, 0.41738325439443996, 0.12075950386713528, 0.41810217448759707, 0.46900159820166276, 0.35189617706240417, 0.10781444581477043, 0.02519615409820873, 0.023405424755645422, 0.038477185563170244, -0.05941096648782801, -0.027845686695953664, 0.05007091016460929, 0.06324496413058361, 0.1561217379384211, 0.16970968563059083, -0.06583812880653724, 0.23757136287299294, 0.405667802183964, 0.6902346098080647, 0.44982986634173033, 0.04678995889950599, -0.09854381652928365, -0.12036543053133435, 0.08864519170376223, -0.09900141272668458, 0.20570937783723509, 0.08863919867055856, 0.2291136389698195, 0.20025899554178503, 0.17130965642422263, -0.004108968428866892, 0.16145296884137264, 0.21946484184716816, 0.07524464899046053, 0.019125190369674996, 0.019278583867109934, 0.023428400586342386, -0.035585609105246996, 0.01935160851848229, -0.0027977237561548577, 0.14499903219231833, 0.12328912431695027, 0.2537462996598248, 0.1467831704276898, 0.03487100521581302, 0.27148718013972795, 0.2860274577130599, 0.19500002972197975, 0.42623490431360134, 0.023097274928995826, 0.40587222797524736, 0.25733643379754, 0.007331491116579022, -0.1876538798238363, -0.2842030453732714, -0.3346457150699162, -0.30065462356038636, 0.01819945508304167, 0.23207617959654026, 0.23602239061250302, 0.18099056416163828, 0.07130102745092873, -0.0020941452230631512, 0.030977845123726817, 0.003096069802070231, -0.034653316936486794, -0.025365463810951477, 0.05916381121126556, -0.01478176829328819, 0.014884200679856935, -0.04369406391812359, 0.02489094177328976, 0.12084863584932076, 0.3118962187647982, 0.42993114759721246, 0.447733003197071, 0.2744599525403836, 0.1084713702790515, 0.13199938042898124, 0.47897454780181087, 0.27507202369692124, 0.013894281685204993, 0.18629584845146893, -0.028717746651435904, -0.25122978811143193, 0.023608657814252445, 0.07289719770892437, 0.1899136567649462, 0.08879580431990129, 0.03001877037441558, -0.00410124576332226, 0.0637789392721848, -0.016329902459950776, 0.024900018678870147, -0.0015946733929180612, -0.015561032212840546, 0.00869536243259819, -0.08100471569209611, -0.11378898833310955, -0.20373972466331094, -0.16257415717965965, -0.07786214788053572, -0.11770046250299794, -0.043317358262976356, -0.18633380939425276, -0.08190616745347558, 0.01589531008039776, 0.031170565953903016, 0.09433435707346648, 0.17054814209691, 0.2529059407882862, 0.16999316612897986, 0.11712757711067961, 0.05803120191869009, 0.031796262067365785, -0.002220837848805702, -0.026284351861494838, 0.04025037551507309, -0.0401659085131949, -0.023611800545584198, 0.005311955616438045, -0.011130335549154914, -0.03355028309714747, -0.018868621900524768, 0.00615658733181524, 0.002673805374340373, 0.020114297638874838, -0.010359537470857062, 0.0010635036523204359, -0.004245464145871471, -0.046703836008387886, 0.06597802693859349, -0.05823576425301935, 0.05884745116434277, 0.07399280808163779, 0.03719931983620562, -0.07292418219603077, -0.05461291712222043, -0.039823965630799166, -0.09760298036432855, 0.03308696244357054, 0.030285962910069655, 0.02374053621529406, 0.0008361569142316092, -0.024180878993312657, -0.0009924792222061804, 0.06051920251804334, -0.03417808673113049, -0.057084122894951336, -0.04363113495685902, 0.03159598240226653, 0.02579016649779624, 0.01851503927592792, -0.03130310343919462, -0.027365397139278, 0.033843347649762996, -0.0197494177383753, 0.0038420690127338422, -0.01039011409079622, -0.010397550512212821, 0.06354593259204531, 0.017882716122034896, 0.006620260810191947, -0.027627643114331645, 0.04699507333652504, 0.06028682500712487, -0.004925903436184129, -0.01100193253587231, -0.056405934170281787, 0.0032687402098959015, -0.00401131202803624, -0.00023713371702037148, -0.0009017923579266393, -0.02922486999305143, 0.006342432580963769, 0.01161732452250746, -0.007002398513373567], [-0.004760736085713911, 0.039458013043473295, 0.04147415624637557, -0.026103468818519576, 0.04083288700152838, -0.010317375270807455, -0.042999633608420726, -0.03139597681166099, -0.022929155536015135, 0.014259156620471492, -0.009172021827316251, 0.055184073486034164, 0.02669660850617336, -0.040243183298124, -0.01698123178342502, -0.059650351993469845, -0.005458120461009002, 0.015893642838502944, -0.01518785384434666, -0.0020151381006327193, 0.007050327512612782, -0.0003198799541626868, -0.025531467989923888, -0.0017002462995508584, -0.0006814694303015652, -0.03451209530898671, -0.016190204750062033, -0.017639600510504477, 0.015986799654194674, -0.010882257798565397, -0.005070789490207229, -0.01752180528024074, -0.01878752626525049, -0.025928936018080585, 0.014493037013064168, 0.015888153546161812, 0.010830001432367243, 0.021962876914560836, 0.013397201698112097, -0.039089370655999905, -0.0397214754373299, -0.041586088584006385, 0.010325078980516437, 0.03507960171386469, -0.024700722446737374, -0.04735211834380053, 0.06570202034665162, -0.010337090296941426, -0.05311448760282926, 0.006928759827313963, -0.010388174604592675, 0.04477408206832597, -0.010658912732521673, -0.03961605527562048, 0.018277072543830288, 0.02337078636434462, 0.0005035101040196625, 0.010067701497426335, 0.036397275393474274, -0.035024971160344226, 0.023881074594578795, 0.04610237722138036, 0.016331325018433315, 0.0024439889844580275, -0.03867211271918868, -0.003867693100215887, -0.03535675508698541, 0.028437636655750546, -0.031486333031290774, 0.017306422726786397, -0.08769594919052076, -0.028783418280384734, -0.05385180068377189, 0.015699718663370704, -0.010786958768851442, -0.018622545480807863, -0.031358562167136485, -0.017384285994251143, -0.005924659629291662, -0.0029754856743604407, 0.005934610303300377, -0.01926168496527464, 0.05973550921545689, 0.017000909490631485, -0.019305356879437203, 0.07853949010001343, -0.0009839397913142785, -0.024260907385188452, 0.01913487214786956, -0.05006651536532627, 0.0005721796918224276, 0.044845751589750606, -0.026396408956682396, -0.020065061965591963, 0.03530687926227056, 0.015877939375339004, 0.00484156631144614, -0.07336109058516664, -0.09118912309489266, -0.06984907035396626, -0.03345971440031174, -0.042856600667625006, -0.0366229538026431, -0.1137672388793996, -0.06840457747695929, -0.06913596332279912, 0.011039999391963533, -0.03573053667348861, 0.011681807675921266, 0.013356712685424876, 0.01092860164947125, 0.02108199952977533, 0.03969651298271898, 0.0466390556803482, 0.03745264970005131, 0.02573414481940259, -0.0008579621460683923, 0.00475526253235854, -0.052372493620949326, -0.001631048153231149, 0.03861381612297534, 0.03763700444157794, -0.012291484066583378, -0.0609932622396164, -0.04258807981362208, -0.08210809762954374, -0.10905774788230807, -0.1390735790892184, -0.11281517156659604, -0.049325451603137435, -0.06658639473649511, 0.062274551318222994, -0.02690140529098929, -0.051237671308176025, -0.04562898200045846, 0.02316703427361542, 0.044672319718202215, -0.0213247205678706, -0.024323287425615108, -0.01613012410993668, -0.04597237740083487, -0.005257675439111889, 0.02092726625549931, -0.027741950675831004, -0.05297952991005356, -0.02438631205574053, -0.05808172527300853, 0.03160815943697664, 0.050315171209554074, 0.029775161343814527, -0.009195013442069471, -0.0582466938748707, -0.013700270795204954, -0.05703026321073038, -0.14501847019971015, -0.12983337473442305, -0.04790830484578709, -0.14035119096775392, -0.11066295532865436, -0.07075329598924571, -0.11602175235295399, -0.06875564646130573, 0.04376112727880599, 0.027391531502778572, -0.03849827923226258, -0.0496076492646406, 0.011076027907585436, -0.015093296788909447, 0.014083385194525263, -0.0409797904791842, -0.0053639435212104744, -6.727997581200851e-05, -0.05613087482472131, 0.027398103905764228, -0.02051943435368013, 0.004563537388473961, -0.06501340612894581, -0.019515589671150798, -0.041270326271661634, -0.026418080633843048, 0.04852423193601323, -0.018417740139350453, -0.017044548115589024, -0.10608624392457132, -0.08913696710386737, -0.0254005640091046, -0.09101284364894743, -0.11415300198813674, -0.05521121030022227, -0.07603340056392671, -0.008562547193641518, -0.02729304665948316, 0.02741477282108544, -0.01042357664636342, 0.06204253056195107, 0.0261408540891313, 0.08266068953591588, -0.014773446988893085, 0.03146069635049485, 0.007658245273861217, -0.03308703318017118, -0.030810479860239125, -0.026881851753541557, -0.031270074643546614, -0.06154528307188532, -0.04142210849487081, -0.09545918582715616, -0.0465193986151411, 0.042389187890874695, -0.004719534788166758, -0.08067537082821263, -0.11167903943866085, 0.02631347623735372, -0.12682221561813486, -0.20940210844616458, -0.09734804777873025, -0.11585950890946126, 0.001818676007287739, -0.013567084143671233, 0.07884978273017261, 0.02557252910780784, 0.04142331792421749, 0.05759319464749777, 0.019971810907563413, -0.06273529410155072, 0.015752348864685718, -0.0352057639407221, 0.012961579174875079, -0.022366193477646117, -0.05764374974661277, 0.05928790890677952, -0.0561891574022048, -0.0030959546412454, -0.005280108272336747, -0.028151426478621275, 0.06337008855375911, 0.1069665135487894, 0.06329863597268348, -0.012140837628405782, -0.07471259598812367, -0.09887514372768916, -0.12249832939411215, -0.055540676159085145, -0.11175364540343188, -0.1354130394706656, 0.01520303612528895, 0.008237525109473657, 0.057104171346600396, 0.05765436615469614, 0.04706246422682632, 0.0487918334248185, -0.019938911536747192, -0.020764705466959084, 0.01907083218011187, 0.02209339033119884, -0.008112403154743333, -0.021005023060267383, -0.019792377186999232, 0.03136537977573267, -0.07624779365547753, -0.09588284315014603, -0.018272893125265102, 0.041227078581299176, 0.024429247260102566, 0.10515946393906642, 0.08200993754612801, -0.06399082564841262, -0.1243453230466547, -0.08694989362545504, -0.0759651962718313, -0.06510867654633637, 0.008497794499127947, 0.011159099688471449, 0.02696544611670709, 0.03224800142918879, 0.07619870184152126, 0.007942869759576919, -0.030949086725832888, -0.01573071843387772, 0.04793299946625879, 0.012476081115164208, 0.010176448317552576, -0.022491368590054572, 0.006428919602223249, 0.004916439360766619, -0.005575278937699556, -0.039040291932202285, 0.004771815873932233, -0.07011249120417258, -0.014221876421494983, -0.020603527497514023, 0.013068963797706218, 0.14044696540211407, 0.05328045535477402, -0.06828209616508586, -0.11356296005975296, -0.14061584963411802, -0.13373217517171765, -0.0901101675997387, 0.03081122819779296, 0.044277935877500466, 0.01926628615717849, 0.06544095452893214, -0.01405000133430425, 0.02364397250082106, 0.03972260575260272, 0.019947058713319615, 0.03249356819483481, 0.0020576469167586436, -0.01877204739194973, -0.0387371870925182, 0.03574868453532194, 0.0009448985663717768, -0.023272837968498553, -0.037645973336627656, 0.01173393716294261, -0.06687988166248512, -0.023994554988040342, -0.012896915839127387, 0.06571474488646381, 0.0394717440758899, 0.06497473024497234, -0.057711834550816625, -0.1170336145393567, -0.16786727000341986, -0.029296318967030374, 0.01983187756107014, 0.07105284460540919, 0.1565040110569719, 0.051044568521434526, 0.11853806483611919, 0.052161005253761196, 0.010692723277883898, 0.06237813426760263, 0.004626789234486017, -0.056994034199054376, 0.005683512450352627, -0.056066651239849635, 0.013765890428980607, -0.027280727092491408, 0.06101740775930606, 0.04177486330744839, -0.02621052255893849, 0.037038574761301894, -0.04064052971574062, 0.024421373822716304, 0.01475768815860788, 0.027271730422816817, 0.07469256320306966, 0.09129917552487232, 0.005372984279766431, -0.044813339556653536, -0.03923984373257514, 0.021412350255366152, -0.02751438957986644, 0.09556604587561332, 0.102030750018466, 0.11707346898580408, 0.1705700931238472, -0.029560191107644875, -0.042787763954717346, -0.02204455155016314, 0.015214964286755384, 0.05902854891610422, -0.008216070781598863, 0.06715105597292056, 0.027622625309163894, 0.02468229027381913, 0.015139651255393452, -0.017080973244635495, -0.02085292890361327, -0.06914351735824777, -0.10850587155694245, -0.03887220639293364, 0.011743112038682042, 0.008689362034887167, 0.04514870859397061, 0.05630916537959599, 0.10060455191846311, 0.047709972026116425, 0.06657147857037961, 0.05659244299022177, 0.012650936592360095, -0.008520942756512493, 0.1619983931296324, 0.10833042235190031, 0.0010359147798800709, -0.0354346324479912, -0.009006386649472682, 0.019301574938107167, -0.010777765785470655, -0.0026154392134391667, -0.007975949224072599, -0.028962302487220558, 0.010583073614100094, 0.02416733045526044, 0.031787841554004825, -0.019755335270048174, -0.04459531822533833, -0.04667624088856606, -0.0727260992921576, -0.10913376698137736, 0.04516884338227772, 0.028010359672025597, 0.11869780608332492, 0.12929268955934517, 0.20041774389316133, -0.009484218669402186, -0.016480897023533243, -0.04894587639382703, -0.04527250547069112, 0.08174196429963237, 0.010841433457019087, 0.07899049998684075, 0.06214956999351733, 0.03831808710261503, 0.02691531053465776, 0.024584760306209177, -0.008466994185717195, 0.04889091729635425, 0.0008757993251045467, 0.025866551738858976, -0.018774391002897885, 0.038216351489551624, 0.02276717665024024, -0.07321785035894526, 0.017269422181698257, -0.13040165115044655, -0.15147183887000676, -0.11329385927975018, 0.000748111762860287, 0.2008290222225583, 0.1517669895195315, 0.1678496024025372, 0.18819318555506187, -0.047129150506015745, -0.044217479120865634, -0.03410164764330925, -0.027303344651020817, 0.016177971908726038, 0.060509566757481696, 0.005547405176087069, 0.07579811244602484, 0.05336996114485741, -0.023622634534694945, -0.03527568959523227, 0.03186539458149155, 0.04799908451194972, 0.02314353954611479, -0.02417815643005771, -0.002844633515972941, 0.006351254827235658, 0.04774400556518556, -0.012407587717989887, -0.02460201393679246, -0.052687057585616155, -0.046678121611224435, 0.04337368456421078, 0.04498171678672967, 0.17628871588001524, 0.09782982941589517, 0.11862345699293987, 0.10742112506241203, -0.011901575397572431, -0.04242275963293859, 0.04514097911317076, -0.07122569470672638, 0.01988804471523919, -0.0628473607978504, -0.010666826297295123, -0.0022128345746001777, -0.06828411364639887, -0.05129975605728172, -0.0030480941325976107, -0.020222497590252447, 0.0537874516891074, -0.007413054225727362, 0.014834362505034013, 0.0030690708751530227, -0.002209927757860754, -0.029516347115091345, -0.043139107331570024, -0.0715122904367448, -0.011231664827437949, 0.029642524696742615, 0.0723484071666259, 0.0862773028360659, 0.10461856868829077, -0.08655511024166677, -0.08540074806670606, -0.21968614366646746, -0.17199749624463975, -0.09247047829841905, -0.04831140018764517, -0.033048792369663356, -0.1517637335212301, -0.0567392603033783, -0.052329301661692064, -0.06846934088076691, -0.019516416363407497, 0.017461766115630297, -0.01075990321991109, -0.002302157186269356, -0.04871892940375379, 0.03847614098100018, -0.01327072918770939, -0.02321921025481165, 0.0049076537389898985, -0.04717119119374469, -0.05057162094929847, -0.05312397908915684, 0.028879352437231883, 0.032807626565269345, 0.16028945302818498, 0.19161579761986558, 0.11565706848947166, -0.07390067044099748, -0.22656375910827098, -0.2808656583385402, -0.19650137117670374, -0.1010917765233525, -0.1254474603916795, -0.03029701199989573, -0.06423327283237597, -0.09393690745793884, -0.09200269617170066, -0.11250205712712617, -0.05254607809283207, 0.02151078162142817, -0.02447544689567879, 0.027742606502377132, -0.007863595673578671, -0.03174086074771835, 0.035583636607297985, -0.09769112970802105, -0.07116205647135544, -0.005526922536250778, -0.09626984130060837, -0.07843257246644363, 0.00020606299536649666, -0.014471004106740895, 0.09974982182909232, 0.12362529433028653, 0.017306175986417306, -0.13296594538964868, -0.2542980570744237, -0.25875120668853546, -0.08696598085238115, -0.05496818154395429, -0.07318281884952768, -0.11331232312367258, -0.08372438363238686, -0.06686384890989504, -0.13035436433401448, -0.016373554393371677, 0.0219295043310355, -0.03642428171001546, 0.008423863724960177, -0.043386520504071054, -0.01850307091710122, 0.044862855349705105, -0.009032593005370992, -0.002191379337384726, -0.07852146060824153, -0.003642973450405572, 0.03695432727080754, 0.04288795366222925, 0.03268974823020877, 0.0832051605013274, 0.052914634499623164, 0.008898691670705098, -0.11357725550250151, -0.20387632475688056, -0.1592624546729319, -0.13430949781307677, -0.05623726037392394, -0.009922266332159637, -0.06983658945286889, -0.08334462670007302, -0.07598031982337623, -0.035187745637532686, -0.039589867382179574, -0.052076219840560954, -0.05590186219822744, -0.01355609166584847, 0.016479112282670596, -0.02320162625349029, -0.12431480155184033, -0.037976837725387666, 0.04896474711113471, -0.009370813908022598, 0.04558039858901314, 0.054838422034155634, 0.008026964447601481, -0.011519797294340179, 0.00876890491269643, 0.12419679572354614, 0.06511459440564386, 0.02557789946022501, -0.16705155220174656, -0.13888840291601728, -0.09128953162615784, -0.1508804454801952, -0.10604595801918568, 0.01460077199981357, -0.024627575788695018, -0.045448422457743796, -0.02146162251252484, -0.05268230771983194, -0.01758673441512915, -0.015098213781087517, -0.018195759462962535, 0.01750593259724357, 0.044424048615399836, -0.0085500499326482, 0.05060527798404344, -0.02054895129078315, -0.026236337146952452, 0.026035322252092943, -0.0352299396134201, -0.016661264277275475, 0.14237239991193332, 0.058737054317104936, 0.027519843878923707, 0.11139730569658936, 0.10379250677832721, -0.06893131638677018, -0.07493694744675312, -0.14774706174932886, -0.14236407616309277, -0.11546914668757584, -0.03281408249120453, -0.03861735123646518, -0.03274868181447048, 0.025035363121874866, -0.008199029751465293, 0.022654429990789215, 0.03834796642260458, 0.054107680753185006, -0.005740245635881716, 0.019931818160913575, -0.001258135526704812, -0.04008277212084874, -0.03670199630910143, -0.012744616499815935, 0.036365835160190645, 0.05352229086510108, -0.021980666045946378, -0.002891142829751018, 0.08573934791396606, 0.054176639178344456, -0.01359593357976813, 0.09101519310193402, 0.03734531356055189, -0.11686110276502233, -0.07887189329971313, -0.10288543420948873, -0.16444323583101972, -0.17986244937995968, 0.012268302501807056, -0.06600239450330848, 0.014370432832464168, 0.023272315192775936, 0.0026953413110413368, 0.08491873527069035, -0.011772700267945326, 0.013172629095531, 0.008139155059684041, -0.03634768816672374, 0.0029529846410192365, 0.021907082676312264, -0.028329290958204443, -0.01712744016765675, -0.007726356964282434, 0.03984145102539858, -0.009585292482528473, 0.018907746936719382, -0.03340079027383824, 0.0155031760512044, 0.04941534245400685, -0.00512005004856801, 0.042998974412453976, -0.11219082525518789, -0.05698531858334674, -0.11138359463626889, -0.16429224942871243, -0.07605781666858799, -0.09700788042123433, -0.005744093219419421, -0.009215428367001425, -0.04906890075336593, 0.02302455424471983, 0.014295784219731242, 0.015849733505247106, 0.004412403528481509, 0.050837540737606005, 0.0002918682011057841, 0.015080607037614517, 0.015562675422880496, -0.02849695770444225, -0.06274388148985267, -0.06659593663749551, 0.007773241221655202, 0.04068595138923901, -0.023111561998547952, -0.030369876071225058, -0.07329313769513197, -0.004054352082595493, 0.031878723271016464, -0.06324865922387322, -0.00026303868148201925, -0.05321170405889796, -0.12754744188088735, -0.04340313611237386, -0.00925786282537179, 0.04646039456532732, -0.003703138402417348, -0.024260679307607138, 0.020102450121828506, -0.12232547896783608, 0.030076551543711832, 0.027007028344727936, -0.007346973027586173, -0.013800494052978311, -0.016338759963694507, -0.02585901025823257, 0.06946706816632836, -0.03113823060569731, 0.013801058957732568, -0.015018540480503138, -0.0657465867787331, 0.03583527070574059, -0.0647336025689744, -0.009036730430116222, -0.06279510908086287, -0.03254574474723649, 0.048456793837543796, -0.04925310642442194, -0.012160392203835779, 0.015232349243722004, -0.0033979582573447744, -0.030820095525704673, -0.051772681608692674, 0.008163436048431274, -0.04624314881996822, 0.033188333200136755, -0.03835301241695341, 0.017312698137326953, -0.010992823494873778, 0.01294083608747574, -0.017399605045874244, -0.031962084571600755, -0.019108185625400956, -0.011149547655727952, -0.007170088993594974, 0.033641172025114095, -0.024161260280411188, -0.06648154983298177, -0.00010342347631120516, -0.03559344500391898, 0.13275367516427736, -0.003169330717639129, -0.017480006738896086, 0.030924667342887673, 0.010966137830877996, -0.016919128693936008, -0.05600348563105433, 0.057210786894340816, -0.04286864128404638, 0.016092627139881424, 0.015044198310304291, -0.03139201520601655, 0.03894329776672458, -0.014815572553136237, 0.02692030912255182, 0.053255587004196595, 0.01619710897929837, -0.051863550544726425, 0.01647118435783892, 0.02806501522787865, -0.04991164059350411, -0.0082877711719912, -0.019855559243739846, -0.01511305148909058], [-0.04927833053477343, 0.0007251710954891555, -0.0037050121475056953, -0.04689195722538087, 0.00997844061664824, -0.014733048634819751, 0.009571796407327395, -0.06266219998837193, -0.003119621305734121, 0.07567525530147928, -0.024546635106316703, -0.023401582046623574, -0.011424279008744384, 0.024728069931071465, -0.038989542220171425, 0.00452615573365537, 0.02550333450524774, 0.020411156835550125, -0.022506552980064067, 0.0049000384219885645, 0.0312556974703192, -0.007269908954283148, -0.05189758922865005, -0.026963304185674147, -0.06116285919349401, 0.0016393495307455304, -0.0020975522789590828, -0.041302680809041495, -0.042005456566342574, 0.06892759243545131, 0.016309654458035942, 0.02216135880625538, 0.04014077813880172, 0.0006228987131671743, -0.051044449493197704, -0.05355410915472316, 0.024466043908450103, -0.027999220933275573, 0.006794434649107873, -0.03933129715178977, 0.013285863925526062, 0.016540283075179702, -0.031371315504176975, 0.029875526598313877, 0.07771525551112633, 0.07913206927155333, -0.004097559355377059, 0.04839860904679514, 0.013284157521682815, 0.027890807384271566, 0.0025667249530524953, -0.03659345788976892, -0.020436195192929035, 0.03178562873372131, -0.025029707471540687, 0.07960749502348302, 0.03035023251640641, 0.014609995693827043, -0.046530602062234055, 0.008044259333119216, 0.03528444477273235, 0.03112148121147818, -0.05506298388068046, 0.013333812607884396, -0.029495058161066512, -0.0378771007329246, -0.15327286836983572, -0.020586827417540948, -0.09132226638882546, -0.06278277298274818, -0.09061047693562338, -0.02810395637491536, -0.030588377425404312, -0.006293644126684823, 0.015478052634598973, -0.02608669925894239, 0.005908093306009704, -0.013329480960057517, -0.017388107388414155, -0.0059053338913320486, 0.04138006892194364, 0.043744052085612696, -0.019758149424952368, 0.028416985034928365, -0.031027247012438215, 0.0013551598525026877, -0.004187563029756613, -0.004460604475808038, 0.07290672953571299, -0.0393936439351397, 0.002603552897052751, -0.04662960410435334, -0.1281987759986861, -0.10308272594774774, -0.17782393771946178, -0.2809298507704285, -0.14727259256124758, 0.010711058882516184, -0.019822848262335283, -0.180719201835008, 0.040435017115582, -0.009226495176421616, -0.009061031011697399, -0.0938579943671691, -0.12104012511988572, -0.13795444066846468, -0.07250536950154078, 0.008621554845500189, 0.01838095021626528, 0.015565693767667588, -0.02320417467689442, 0.009586683098868285, 0.04736867526498353, -0.06982627042670835, 0.014645334861497425, 0.07859310513642406, -0.05779269928307483, -0.039157770942617104, -0.05201630014321635, -0.05460365222434091, -0.12320447324323444, -0.27867290016011853, -0.4133419170552275, -0.2910553954200312, -0.15803825847554134, 0.02640956992454242, -0.016393407821685108, -0.072788331528792, 0.10880602702702336, 0.3026473368068496, 0.28772975854568245, 0.22271767518185595, -0.05786638610971399, -0.1788190286306085, -0.09598771481610663, -0.021028666986685908, 0.020774275763379323, -0.010050022759151006, -0.01836899481320374, -0.020766775610971653, -0.020923352283278105, 0.008474075626970296, -0.02176096145247104, -0.04702420562470784, 0.05301061960443097, 0.08477114970012285, 0.07096872136208514, -0.06791595275108328, -0.06469456311419607, -0.18293204473645608, -0.42878529965975365, -0.39097172841459066, -0.11726069303565444, 0.17096468927841418, -0.19097411404991196, -0.3735057102480304, -0.4365334831956502, -0.36584652934330214, -0.19581650547349438, -0.1253032202854488, -0.1284360886049633, -0.13862986015773798, 0.057422685995116, -0.019884085836958575, -0.04669366665610732, -0.1044280612614341, -0.015506492883977926, 0.04189260286607653, 0.00866238192238069, -0.0053190460923267435, -0.02672996552247322, 0.021565468795287444, 0.004055789047063659, 0.17318207799597787, 0.026636333825428345, -0.03778044410543111, -0.03893585940272882, -0.5219451239009537, -0.267536206040832, 0.2825183478231303, 0.5442673165062468, 0.4693353321707486, 0.41635312066587893, 0.046272044692145534, 0.21184243543662562, -0.04291324440975821, -0.17680648496538207, -0.05011646140350137, -0.1689717299547876, 0.07266326051565591, 0.09124252723692, 0.005313020537363616, -0.04323333799071308, -0.13080024925833802, -0.07883502483384709, -0.024652789405110415, 0.00879884427372588, -0.032604261498583184, 0.008735021102781973, 0.04932821421461578, -0.1202156108243522, -0.2664980992648628, -0.12318022847706822, -0.0594415277147472, -0.24635157308891117, 0.1148401809680374, 0.24440158680560653, 0.020452777721386924, 0.1049284683216198, 0.05512732125634898, -0.17890947772258262, -0.09546692071344873, 0.10287833690408187, 0.33696860709723264, 0.22674478661911598, -0.06550184516333561, -0.20215995558313307, -0.32319342854030936, 0.07363069298506772, 0.009842963788614193, 0.025761682047672114, -0.02481272124268697, -0.12910851125333395, -0.030093910637117555, -0.025795616390103887, 0.02759636569443438, 0.04243747442331802, -0.038088970972204796, -0.36059573609664, -0.4365068076224911, -0.3407905901055572, -0.37474753684476114, 0.05423959787606332, 0.02200989008910452, 0.01944486758997741, -0.43478749632829966, 0.27759077224802065, 0.10895638848807043, 0.46745803342903736, 0.6104288832238501, 0.24070033231100135, -0.14687514548448788, 0.26079094885107124, -0.4791951254110265, -0.0970311920775117, -0.059038049976659165, -0.03239271900963831, 0.15845789901224208, -0.025219498216705032, -0.06581231845932227, -0.03452666682307442, -0.07798313204361919, -0.03332038703103524, 0.05173137656819184, -0.03323136090232381, -0.025416282195947583, -0.15815637912699354, -0.18375131225149846, 0.0045983977856653025, -0.005324069713719764, 0.010065428667770306, 0.18235152169360264, -0.19766400155791763, -0.14862024042544383, -0.3325287881072873, -0.07878425393599241, 0.5209498457700862, 0.5625785173303383, 0.30870082910989277, 0.0010379468981091405, 0.31610175779397365, 0.2731365924205083, 0.30605952472907805, 0.12802340251471866, 0.24842729182797357, 0.2513384888492446, 0.009911577879380467, -0.0781757463469247, -0.07545438700802438, 0.033618614274796864, -0.007821402756523673, 0.05674430436853801, 0.03908105855035134, 0.02043367429217945, -0.05349359628210843, 0.0897666933504742, -0.030394147562570403, -0.03909651100130158, -0.25046074476494246, -0.18883226604780803, -0.13384213982750964, 0.0052269137800836744, -0.47259066531787425, -0.2990621125059427, -0.2267244825099353, -0.21867102927547685, 0.013278477098955412, 0.30528869792978197, 0.21054754551378865, 0.5706238802805997, 0.7081758366824672, 0.2593594574821951, 0.4218230993534892, 0.3990324004734386, -0.07338975960631056, -0.14515165893731752, -0.06685818952641859, 0.04401324212049048, -0.035146577806228964, 0.03180940364758336, 0.09890655155152184, 0.05696415962000442, -0.06947806178047286, -0.08086325444811393, 0.0535133653893496, -0.046724009771562505, -0.6336564216446098, 0.10296534319456337, 0.10374021860015573, -0.07141721904966068, -0.1655492299433254, -0.5127778610798978, -1.0800996644623881, -1.0627447776536578, -0.5133440527765949, 0.2238837224285119, 0.5299372477867672, 0.29907964416265675, 0.3701531866753985, 0.28573453101605806, 0.23491269148085986, 0.2699192466045764, 0.07886845096853103, -0.19244738968704175, 0.02834138076640517, 0.020798047909572945, 0.008894165723807539, 0.03706171864785351, 0.162439615758459, 0.0625962913802917, -0.09050795842150988, -0.11149710503696443, 0.05285504898940879, -0.15328176715351174, -0.036711918238281155, 0.22116246449536722, 0.5674976424914888, 0.31801642692665105, 0.1140130827090456, -0.5425049022378752, -1.2852103997978828, -1.375387928763796, -0.15209082232393806, 0.10733219355558592, 0.2688744350632191, 0.03185168448945724, 0.018422775370725175, 0.1820542775210578, 0.5144840420996744, 0.25503263438021895, 0.17551783371781648, -0.07196326447429872, -0.01616733726509916, -0.004173324830989772, -0.011099857029065791, -0.006583816955562156, 0.09230607870433423, 0.08721436823675556, -0.12308972516011257, -0.11606128799692479, 0.3539002404058145, -0.2827498442301751, 0.1903504705179707, 0.4375024678877499, 0.39613760080307053, 0.4153914405740813, 0.06895587137546846, -0.8530316685353754, -1.5230969012918651, -1.2628469803222664, -0.17434044957426806, -0.05899132872509218, -0.2623319679980804, -0.2239313715863949, 0.17423531181861376, 0.1833748997042329, 0.08811994744056702, -0.1052368231471597, 0.05708030964520758, 0.01856248224617389, 0.005723513205023537, -0.05894202418024688, 0.015434979311166113, 0.033703062881849974, 0.08260757928330364, 0.07932041950126067, -0.3402494414096325, 0.4603423240015112, 0.6701281291339598, 0.4236529281454146, 0.19839898005504591, 0.40293658845391, 0.7890196739493068, 0.48535537190416383, -0.5261780764798653, -1.6030284822186842, -1.6164276314922559, -0.7029748571402938, -0.3416804929767151, -0.19972071152742746, -0.24319293606147324, 0.18172549865794865, 0.06952823501826558, 0.1918831562571615, 0.29448148513015665, 0.3921050837222016, 0.15315297140692427, -0.03349293266284777, -0.014124192458515709, -0.0056099747784544365, 0.042083523829573484, -0.0018333346545188257, 0.07439304793862958, 0.09486006759896619, -0.12364691548885934, 0.312112652218473, 0.5068288113477126, 0.9399782988204058, 0.20525717892687678, 0.38464935521829385, 0.5903206155597218, -0.25215776555804587, -1.3530053679317815, -1.422138077003395, -0.9851985672713224, -0.03341049291291792, -0.12638615886398136, 0.3301383205478427, -0.2298204075232227, 0.07290531283915187, -0.3114718404485199, 0.024614421734993314, 0.04241341269125338, 0.114322922303658, 0.010644668898727994, -0.06831519115591705, -0.037885757373121186, 0.0015462205030952112, -0.01788078325603428, -0.0312632989898721, 0.002871526459757403, -0.06190335345421846, 0.23929141421515923, 0.22474182041394425, -0.14941262800843866, 0.5727933286555799, 0.3634315680353623, 0.15132353963388465, 0.0774381767407564, -0.8163019014728814, -1.4985923020714695, -1.0545200771937022, -0.22707453202670974, -0.010645156538359173, -0.15519811733628733, 0.11501550267208979, -0.2440974262896412, -0.39088494884509134, -0.23460057149892966, 0.041310466303625774, 0.017007991271173424, -0.1203155750251909, -0.11193800313564597, -0.18745916607172577, -0.07945246662436997, 0.006197263695564413, 0.02697868731426201, 0.07212966141587415, -0.02238700632477965, -0.01715537416232636, 0.4249040420796024, 0.3232053087419021, -0.1769866898632935, 0.09272295642281823, 0.11064229755719729, -0.24838764298625038, -0.39621196733896363, -1.1208926786469497, -1.1771414033464063, -0.5854102160146636, -0.08073724543538063, -0.5077586053161319, -0.23076575760291682, -0.02064362712825095, 0.043950224112610556, -0.5073741898132906, -0.011754359401246951, 0.2037192050226968, 0.20410002021148838, 0.024145558239125318, -0.05562189661685235, -0.11216269574214027, -0.07018639187095235, -0.04714786663620589, -0.002216200853877323, 0.02402345940660938, 0.01188068637623801, -0.1573920632991898, 0.22067110782549876, 0.23773572466147194, -0.021283070715553742, 0.15577340424962405, 0.3691203928433435, -0.29617747224158064, -0.8146312490366189, -0.9003209395174485, -0.7314872634286244, -0.4929601792288727, -0.30437628994198807, -0.49984298177709446, -0.2066534734288578, 0.12715156072211128, 0.05077407074651815, -0.4072088785200052, -0.01741990787424214, 0.5870944631497604, 0.4712572001814948, -0.15752875694104743, -0.12315362056599885, -0.10402481203007445, -0.0626828445913985, -0.023422668743695522, 0.02608720492881917, -0.020164532789866144, -0.0011480210500486494, -0.16510255939719645, 0.08840056061358978, 0.20368118449249303, 0.16718845916393849, 0.11518486760951248, 0.15436929226906101, -0.22421258130649216, -0.30657044881973705, -0.4454020434211135, -0.35378530590609986, -0.253422653386974, -0.21487552111178582, -0.6425851369122542, -0.30865633541301046, 0.28317581784970686, -0.09933609220485093, -0.21793247772981938, 0.024183721516219725, 0.24877202404394383, 0.15142290924821156, -0.37908979606702814, -0.2563591410154822, -0.008688457700145959, -0.047106227382155544, -0.04629836396059351, -0.026024314305695212, -0.06013240761980135, -0.04829984015626919, -0.1119142654599732, -0.002385093136247253, 0.1751028799954335, -0.025714774322747623, -0.08618231518649758, -0.04670958586184389, -0.22298917422088968, -0.00021960587451187673, 0.10331398818615417, 0.22630379923403282, 0.16531131405921204, -0.3171490854454149, -0.6884379989105539, -0.49055170362997197, -0.3315903844881586, -0.3786071158941064, -0.05146013324439387, -0.4245248153310162, -0.25174578184799695, -0.24009937098443718, -0.4214522049787236, -0.22303662341190497, -0.05389436361139318, -0.0066571929047072095, -0.009224618035225795, -0.0002110453849363924, -0.010031209691371503, -0.08668710429213346, -0.1307442942443171, -0.08589056281288418, 0.1313999529036757, 0.0007952797048072505, -0.06744273039148209, -0.17902636348055398, -0.09169441288321525, 0.36024005783699964, 0.36657862200725116, 0.09690349747484572, -0.4325241532972601, -0.5577625159541862, -0.16130657879384588, -0.14213262747569538, -0.3716196941905712, -0.21546280335149143, -0.3342027579363396, -0.5275620068541474, -0.14115598439594518, -0.14463878804256863, -0.1830457616350476, -0.09128806435572076, 0.002085987371883283, 0.05786877194463138, 0.05065507676597881, -0.029619252394264464, 0.05016628122412316, 0.01601554458323907, -0.04935873860438135, 0.08797242228556512, 0.0355970032390877, 0.05694313089374309, -0.10816055541673503, -0.10806911301299056, -0.04509735841271577, 0.09838350569583394, 0.2358116891654148, -0.009741000281478361, 0.3687892480991474, -0.00834384323936655, 0.4296889120070792, -0.33207678245899164, -0.2415618653075077, -0.17031981093866005, -0.29460494096574225, -0.6385047324934243, -0.26957302021375734, -0.13691064895381125, -0.1379781379928026, -0.08269424569083625, 0.056481346934426496, -0.00444153125781773, -0.005092134618006969, -0.007578250148236371, 0.047643315578082664, 0.07316214040535436, -0.01951130118238943, 0.13003372460337223, 0.1279617838466367, 0.2896043965729037, 0.09161612482712606, -0.15314022526068463, -0.26836214574081424, 0.01725499587255215, -0.022301082171936677, -0.00508381446501256, -0.17535835210751186, 0.02996063063204308, -0.09057936856391773, -0.42130091148699284, -0.15337453111088267, -0.2332728394346908, -0.39908207725545736, -0.7214701101482714, -0.28244681698018587, -0.13766006966273966, -0.1794520002802385, -0.1009404471790912, -0.020985969091764825, 0.027161196851179195, -0.03541573767058479, -0.012318877953024708, 0.0050120284015509, 0.08204446890323062, -0.013338638632163998, 0.187886671659957, 0.39380258046921734, 0.12251873884352359, -0.13036465850460363, -0.2720908884059481, -0.20815824046719375, -0.08721974404653608, -0.4253527548917465, -0.143116778757218, 0.03563447130473015, -0.29700540578596213, -0.41664567379180034, -0.6517769055779866, -0.1568806254012493, -0.32843628516521745, -0.49692960723943663, -0.6122841126941184, -0.2024344431323396, -0.0973613731452892, -0.0510578336856429, 0.013669042020471887, 0.05082384396021246, 0.02440275157445319, 0.016578906327774975, -0.028749737446434536, 0.041741395199164616, 0.04058443353189586, -0.040976509912457486, 0.1253301506166809, 0.03939065865314429, -0.2723208321785059, -0.17041383809331984, 0.05277867375258805, -0.05467517562848326, -0.2859692178884416, 0.05733357881630453, 0.3323135932008617, 0.11709373905610325, 0.04703283356249755, -0.17876697600068286, -0.07900194265179332, -0.10871600066098043, -0.15483921000648795, -0.23266009848881739, -0.418263343515256, -0.017964649807997068, 0.09698343660400456, -0.01789188481926673, 0.024875778292947945, 0.01529902033449161, -0.058084388215799955, 0.009834016700598889, 0.03519859735838887, 0.00048777551946589475, 0.054302452895994044, 0.013703228962306727, -0.022419397602751318, -0.08839320826508583, -0.17544803034092127, -0.1285144583125296, -0.06330886047740587, 0.062319719533338785, -0.09441850030391784, -0.14359467938662868, 0.035469157688337784, -0.027158520096086342, 0.09998455575794923, 0.14305419538037675, 0.14299467359986548, 0.07977188802030477, 0.275876943070384, 0.3495086070240894, -0.04061584966575231, 0.09054417747742818, 0.06207590923657759, 0.06393910186356912, -0.05068962169291341, 0.012197451526392808, 0.04698675502298716, -0.06888034889000527, 0.0004792554758733495, 0.008468334738920112, -0.04394687763249315, -0.027625045125459075, -0.0073398760649111975, -0.005701575994548735, 0.04877762641557793, -0.029027791399668622, 0.046109709573840856, -0.00625063757820668, -0.022616522960821388, -0.006639755355093407, -0.011459301931067216, 0.10693947989613196, 0.03570472003830808, -0.09533364680294713, 0.03786196848156487, 0.06842546541952808, -0.03087408327462349, 0.04226142863712646, 0.008822829768363908, 0.04319051071442028, 0.007841406936837516, 0.056266294076196585, -0.024662752684618348, -0.0023103849065311596, -0.005152635303310937, -0.034934728307441765], [0.001963519887825115, -0.0006423644949191265, -0.03729556212434575, -0.043830826457481216, 0.011034657509771343, -0.041219244828462356, -0.03618594367973287, -0.06044729353964413, -0.02022221770431642, -0.023601003864513005, 0.005061786701767939, -0.006810067942583712, 0.025116100880832683, -0.010096513618461514, 0.028644420688264654, -0.004660263315075861, 0.029024857130312345, 0.07919148269899035, -0.008649376300547905, -0.02951734966020674, 0.02664937402385688, -0.009169864790828342, -0.04836470826825597, -0.048388708694216805, 0.05632717212869684, 0.01271213158100383, 0.035962333973865244, -0.010485717367443054, -0.010342276907933049, 0.07449664914698798, 0.03139284048168266, 0.0379536187594197, -0.061120376599272386, -0.06864599574054327, 0.008796529140708116, -0.031619658863762494, 0.028572945518559868, 0.06135209343077294, 0.016463522900781163, 0.04602576181798793, 0.03042817267757858, 0.0009608000327716502, -0.013688995391179532, -0.015006626478318644, -0.013031308556181153, -0.04282455365671977, -0.01670529803084162, -0.02209112942810967, 0.011477795527612114, 0.004154838695504629, 0.004068943879259405, 0.016097306650385296, -0.07862235632609228, 0.02101969812589156, 0.026543422276265285, 0.011185215304273112, -0.09753932860187194, 0.025054181971326847, -0.049927831080021405, 0.0464607261884, -0.0019588732923906385, -0.04911570585559308, 0.027894331220447478, 0.029420418859331422, 0.028755838088606704, -0.023950229267836607, 0.03499439489567015, 0.028020203358101715, 0.043516752616189834, -0.028710031098926257, 0.02753627283307088, 0.021740788714681013, 0.02032819718428337, -0.06811248340307036, -0.059930754249265195, 0.13002070815248143, 0.041918065725027126, -0.03229787392505337, -0.011406878711878702, 0.029951197487188618, 0.042738730823230965, -0.006030514135039608, 0.027113381932961353, -0.0023376121058395105, 0.005761368820149232, -0.022405994787133152, 0.010579426983240542, -0.05608253632664346, -0.036755758994027006, 0.03296230120085788, 0.024494404881656662, 0.0321656424199302, 0.10215947087662787, 0.06155928553256372, -0.013107790259783751, -0.06520482547834015, -0.09266763045073362, -0.09347610274060333, 0.1325974053680035, 0.19231107255988975, 0.18681632137952428, 0.1588545176000314, 0.18010519910510128, -0.1025079967601525, -0.17153912022240586, -0.18833969482220048, -0.18424017543972904, -0.03994308864227751, 0.022225569061346873, 0.05281162266132593, 0.04902746938907827, 0.04474499450751164, 0.02292400701135109, 0.009478046661009295, -0.007880520146426808, 0.0469936948169554, -0.019107438996801104, 0.026146460818032433, 0.023412881038239214, 0.04165899646207208, 0.1283254179455775, 0.02271835112195869, 0.164192137789612, 0.05792362937781926, -0.010793181918798437, 0.06528761923130837, 0.09132395555369607, 0.4119494159964486, 0.7433852747655681, 0.24347906017874948, -0.13156766611177548, -0.11087214057777439, -0.09470162399888797, -0.35509159257542433, -0.1669117807739399, -0.20956186059229528, -0.06360441946401846, -0.09028053651049232, 0.04719228986425297, -0.02676648365329334, -0.014855716382367441, 0.0012274426091562166, -0.005429741861380844, -0.06272759199101856, -0.038089606930726314, 0.1013458810480223, 0.09674023396608135, 0.023199229490515023, 0.1464886870374881, 0.17169706185658332, 0.10032456783028401, -0.35808632099428744, -0.6978355268067487, -0.3392471935550411, 0.09056305681606229, 0.6207363893726641, 0.4050882710016057, 0.06199287955836836, 0.11804754112039118, 0.1837899032402198, 0.2639186480023686, -0.04179870657333952, -0.2691784452650443, -0.17230269129690795, -0.024370786174191805, 0.0991494797689846, 0.009747203179195418, -0.047394200912747673, -0.026627809204441338, -0.015862168965372514, -0.060617859534921804, 0.04256700242505912, -0.00868623969632978, 0.047122676134988384, 0.0506858226575426, -0.06056712474830591, 0.06338810398432938, -0.08255195126772596, -0.608432198152412, -0.8434178794119983, -0.6728016724033925, 0.11601239413874839, 0.4054002927822322, 0.32192682965162106, 0.39803876456268394, 0.4501811926380995, 0.4970019299153473, -0.22296621596279032, -0.0013479260129203238, 0.06442447137517372, -0.46544638117981313, -0.3726858828583154, -0.1534181386782993, 0.00304401959846728, -0.036857700923403854, -0.013800399183094206, -0.032969449471949484, 0.001568934300915709, -0.06259833211484092, -0.0012610780994467433, 0.028031638565099794, 0.0022253356557738247, -0.020940898083282942, -0.04397248040299196, -0.01274880931366189, -0.41660909443544003, -0.7245369555855484, -0.6158047679194198, -0.3551104525363266, -0.4566365444586147, -0.08059425026433531, -0.09938649411835132, 0.6911376824046368, 0.5263783212522167, 0.20340584778440748, 0.35309374998505594, 0.26505153634479833, -0.0009294985502153121, -0.23614723899851084, -0.18520963757186487, -0.30336892514134445, -0.034368961356007345, -0.03347443240164647, 0.004875850357449312, 0.011721540126881603, -0.021993541614192993, 0.002789357421651152, 0.04135952702426782, 0.06130175987831141, 0.04085257514355204, 0.016537298395526683, -0.21955793807472326, -0.12572118938473137, -0.2944835228035017, -0.5407205037027832, -0.29443748207234854, -0.8194554649186055, -0.6583066744284891, -0.354025933432055, -0.08397894670047372, 0.44377912092661376, 0.3709137742617562, 0.5568416732948254, 0.7223773677259598, 0.36207470538205305, 0.0047368965585338286, 0.10310381684566518, -0.29566603848205414, -0.37382863468005245, -0.07176641132170408, 0.04154847271085849, -0.004841423173906358, -0.017292299606385148, -0.025302917016527354, 0.010267542027669972, 0.05286148185585728, 0.04759215093436564, 0.042019741838684274, -0.015835865214431283, -0.04354163359839871, -0.10564843699360733, -0.20044179413469607, 0.15643456750055548, -0.33494372963057906, -0.5015663525239897, -0.5213904993427753, -0.519328736443537, 0.3509930177404584, 0.8638527261551109, 0.5342984449174145, 0.49511901996718627, 0.8827390665678074, 0.9474024386143214, 0.16277491954576506, 0.36706912665054015, -0.0014510327399247203, -0.3290888920201833, -0.08073977311634585, -0.0141607625499375, 0.034628156149578336, -0.035011508053850234, 0.006822103177215354, -0.000255158081742302, 0.03787164205978249, 0.051147997909237665, -0.05659637148581426, -0.07892240630803106, 0.010870383018931179, 0.0926752096613993, 0.13263018680639846, 0.004574626305434931, -0.014819871555722798, -0.09351920111086676, -0.6709652043276141, 0.006213081870840175, 0.6557108006276365, 0.7840432608746488, 0.24328354280797862, 0.16100978138109304, 0.5429053801377149, 0.9346912980681137, 0.9737855025164568, 0.9028560434541337, 0.23098973564713202, -0.2651024682098271, -0.16008315258306158, -0.012149637463861291, 0.017575590158586955, -0.07517404309991843, 0.02296411550485645, 0.02712475648248466, -0.04491637913041255, 0.15122454120444437, -0.17097545708465844, -0.18213049152396188, -0.06386726205066318, 0.13284691124831882, -0.11410221278618818, 0.21036523461769926, -0.05478226277018356, -0.27929238071075513, -0.41125010041546617, 0.29771183026324294, 0.5316142579348017, 0.37597772598514606, 0.4178388518371027, 0.46244291787517533, 0.36233522856299294, 0.8517362680388119, 0.7855031374414118, 0.7832080640763798, 0.07834120313311492, -0.18622098294004827, -0.05256548597697634, -0.020361776425321092, -0.02594241498266645, -0.03929261258220119, 0.007197064421471263, -0.03530611033121307, -0.08237949208743131, 0.26637999628027464, 0.009136515516239568, -0.047570393303949236, 0.036112759264968854, -0.02499450832767585, -0.032698283931346, 0.05646823829243296, -0.2306596398421871, -1.004776749064886, -1.1794160101545363, 0.2492301544922291, 0.5105580207945795, 0.4799611118627342, 0.28468419138197465, 0.14192372900590164, 0.05765254725064906, 0.3013794424111224, 0.3488499871733851, 0.4438636831664572, 0.13209957605452813, -0.18821694545499074, -0.03197247841694696, 0.022138524115957188, 0.015058771453769037, 0.006835795907472719, 0.0638001448711071, -0.06485006430308123, -0.049117179991033745, 0.2203269024228086, 0.1030560607975974, 0.1679905529133017, 0.15808757878129004, 0.1465634275137445, 0.036173342160706494, -0.09449529266504074, -0.4460571108432515, -0.8711983438978135, -0.5433304851478195, 0.5870387970975735, 0.25521679725534047, 0.2283678646127055, 0.46148677698666013, -0.040141755321181374, 0.22931052356758203, 0.023535273668806797, 0.004885122577270198, 0.009086259188759327, -0.11801563543588098, -0.09186228668102248, -0.07223088964024832, 0.00834763855944363, -0.05464904237759425, 0.016997306205831703, -0.013812775149848073, -0.035732061499744415, -0.01796659662405216, 0.08366335961687113, 0.03767822306026459, 0.5082658944679027, 0.07280148857701987, 0.4072207475089752, 0.11905957230161689, -0.13802732059126294, -0.6329827098171618, -0.5214639264863291, -0.043474186675974295, 0.36760162960460285, 0.09838484528311246, 0.39088570850915516, 0.29548907715896994, -0.013435283274025628, -0.14614977358320635, 0.14121118153393844, -0.06980926049846638, -0.06689771136871636, -0.15159013471629385, -0.029714533161512097, -0.02019840840005164, 0.0061780687537861395, -0.031223809625627416, 0.006403082157239862, -0.0052425099706917035, 0.04158550296980999, -0.047474829670520184, -0.03484497121073247, 0.16785922922810168, 0.243105017654373, -0.19104503376183884, 0.3740052974468334, 0.023088907779420426, -0.33958866679016797, -0.6011993092018051, -0.34692092788096573, -0.0029793921547087428, -0.5927868132740289, 0.11692632530811063, 0.6466194756143496, -0.1889966174053387, -0.176904707061315, -0.08576825886726666, -0.2293488748493887, -0.5626161055581449, -0.24677756512461024, -0.11189793569761099, 0.0870067308284593, -0.01467588090152484, -0.04808944593696378, -0.0369542517342781, 0.023917383117901887, -0.013594222268660035, 0.07119351655727993, 0.020236992544823727, -0.040975724977194185, 0.07458581997741122, -0.10996337365115826, -0.21793897172320945, -0.024655746736720358, -0.047626475815528375, -0.22531477954446383, -0.4474383475013282, -0.6010034368854327, -0.4350920566952444, -0.7814118602852212, -0.3058997526115057, 0.3389003807245506, 0.007339540338453823, 0.0309411131049908, -0.1931124350855794, -0.4604417289151017, -0.5878440016389229, -0.10920705317563413, -0.17861936470716636, 0.008072127315005487, -0.08010486818873794, -0.037382936094019714, 0.03285164800985292, 0.056957389602865005, -0.07228293746753384, 0.06343318125168494, 0.18575091182684828, 0.08071295500023837, -0.05929287264242958, -0.4155760692186408, -0.3548458797850755, 0.08884862114043122, -0.093318963569039, 0.10599389828065851, -0.20166495450943284, -0.4563082728287369, -0.2039661692285604, -0.48771163952102153, -0.03364929925246227, -0.101426272413003, -0.16488523700893484, -0.09683110537205594, 0.04293380413813786, -0.48729700094638945, -0.34395011768520173, -0.10210395536848779, -0.25939847236701413, 0.011561016147103179, 0.0198650035397804, -0.015548991807386657, 0.032706858322717865, 0.0074089959987172285, 0.04616509600777731, 0.055255733045951404, 0.24640916432626186, 0.08060449678640971, -0.05662278707729709, -0.5034579984468229, -0.4428295909829314, 0.2766330963447868, 0.43053316411653964, 0.2695853680270396, -0.195997068338983, -0.509196169553871, 0.04980958556779512, -0.01336956350114902, -0.05693966818818785, -0.3777803430649154, -0.34697852459582823, -0.3641637362847451, -0.14457073146833352, -0.4456570627623629, -0.34890195449007444, 0.03476259270616902, 0.022461436631729035, 0.02079199340778838, 0.0582656950873869, -0.014162084300558136, 0.01783901768803626, -0.0032171940246715084, -0.045300423431465946, 0.05287720954078552, 0.002133331166881403, 0.07011338900261989, 0.06602154247483047, 0.08354579047912342, -0.10608370530923553, 0.07501693206478535, 0.30685973398716027, -0.31929760121999096, -0.518530578064474, -0.03162590655248373, 0.009909041214105652, 0.0051315446898900705, -0.2399255559345968, 0.051125385354239015, -0.14062458363522107, -0.45922770807871527, -0.2846496386844967, -0.20634546466105813, -0.2737499295365306, -0.10454176476448676, -0.025076565307435694, -0.029122911453414998, -0.009279760162235058, -0.013375254107672352, 0.04235766390585754, 0.08671891657355159, 0.004418374501146428, 0.052644364029778214, 0.11041762793502542, 0.0490481095594432, -0.17286425186899246, 0.012011399642978919, 0.1301270375379867, -0.18220644264853703, -0.13466367191436218, -0.31747313009444805, -0.1834633760436745, -0.14008945856222405, 0.18418379692651937, 0.28402971620784107, -0.02153053490394958, 0.18694458635566424, -0.1667918118030006, -0.2737614477359353, -0.4216434509672079, -0.09278124703753561, -0.07017156356365244, -0.09966925518375563, -0.08400561937107981, 0.05069127060586236, 0.015965497451519973, -0.002530650256486577, 0.05411835325373198, -0.023253797297240964, 0.007226681781292087, 0.02850147590760992, 0.21649506876070634, 0.008622225479672228, -0.1259015748021982, 0.05339708258470617, 0.10513302420854483, 0.23589669550162032, 0.0008142448873169175, 0.003533892191416723, -0.364784859252224, -0.0373164390898838, 0.4814934792961164, 0.4403941676992909, 0.2922591459134844, 0.2534982046757923, -0.1140896399084586, -0.3541004777213652, -0.4601766540904064, -0.2309666696218829, -0.25854366146178326, -0.323838031325923, -0.10503495938087208, -0.02415552547526184, -0.045657023491562275, -0.03243011640641308, 0.005863557007025753, 0.032132188823378614, -0.007305167079985307, 0.0013559705526195488, 0.041326993782784614, -0.1038646487747097, 0.056071980575391915, 0.13760159026275698, 0.1727916564610397, 0.4367186752634141, 0.31458458133008516, 0.19291935091432377, -0.08961907459119227, -0.15162952154366174, 0.3875152509619065, 0.39323669567980146, 0.31582150684796156, 0.25636055137483604, -0.014594771708564533, -0.192340468544364, -0.37817936477860903, -0.10247057934429855, -0.12036645630889792, -0.27893554111468316, -0.13142363976303215, -0.0061994204885754325, 0.008441574234220725, 0.06788067149263692, 0.01682671011105585, -0.026686298343673944, 0.0015282032344068421, -0.0459526529866476, 0.03392911190035981, -0.13102853857680477, -0.05443936893216825, -0.04598766566641644, 0.16964864104363708, 0.09664312235527096, 0.04659881929138418, 0.13410725868403062, 0.22531740944371784, 0.1621170260400808, 0.2577476191141967, -0.03760688236032367, 0.05213405155211678, 0.1784470545231612, 0.20097905364188914, -0.012727368292341895, 0.0757713113637687, -0.003346968846936273, -0.07220081081726755, -0.16700194112566702, -0.11809495664310364, 0.0043096496740611155, -0.03586038529635108, 0.06572708126052239, -0.0506122127940701, -0.011859315855774096, 0.0010292936243595898, 0.0022451764736927345, 0.08279642762763628, 0.22952012931423865, 0.33026805578663, 0.49149998327524536, 0.3600228498956699, -0.01772363960796138, -0.08492120548392935, -0.08439443442259567, -0.03091798337081635, -0.1334285139775577, -0.611688992787062, -0.5820139462083739, 0.20049367231830595, 0.34251742302019333, 0.27561082351213445, -0.06553866648564236, -0.11040176956672436, 0.12920367928578302, 0.06139740916963866, 0.05335477447775131, 0.06550131005154965, -0.10538199842342719, 0.002974839567029859, 0.032106807084987345, 0.040849665622446164, 0.021371827739258005, 0.022359502102445607, -0.01457158500232114, -0.03386559733527688, 0.17462111240152633, 0.22890497633622697, 0.4459699096917768, 0.36613633504016535, 0.48681270061184007, 0.41089233426930305, -0.06597191427483207, 0.012701273764168056, -0.05174860260913741, -0.1713831442959929, 0.012771134976929664, 0.027378879939084222, 0.09390315238136748, -0.22104319485179758, -0.1569573488171783, 0.23414902576100427, 0.27102652250458825, 0.18211242338135822, 0.06880291240894532, 0.03335734858541037, -0.009820084182993561, 0.03452964967074783, -0.08845215396206901, -0.043861285822398864, -0.01395240011512329, -0.01698171436303173, -0.037116270075825075, 0.009514867626110918, 0.032693775085121446, 0.004157602001235487, 0.12925221422373695, 0.182808551555032, 0.12106576920419458, 0.16089551304853233, 0.198502901384741, 0.12997006988241408, -0.0537678994915547, 0.1955679864173229, 0.3805593837605751, 0.43473808440155637, 0.23594798206464948, -0.04459248036125476, -0.02420199245696858, 0.1487660104413164, 0.17389768921738552, 0.07055751992445451, -0.02753334445003146, -0.007311030283300269, 0.04498978821824506, -0.036050605859008114, 0.020530457845816894, 0.026571501850140348, -0.03405657102287211, -0.026062564662637577, 0.015930992819229016, -0.006962132124614372, 0.025216236985253083, -0.011065071760603682, -0.0027635218548818924, 0.029683136716382022, -0.017298545416221105, -0.04480203926648199, 0.10200206183379515, 0.04429805175874953, 0.03434034133495769, -0.0013797955130238767, 0.04834024935326688, 0.1015999069463465, 0.06564917742070767, 0.009727407727749835, -0.0025267471311791324, -0.02754922166484057, 0.043547241016044826, 0.010063102652184588, -0.039806167039669146, 0.01186850245008466, -0.020312794636300834, 0.03476225420956233, 0.019226281005412415, 0.034665463924498305], [0.04414630445580554, 0.028762923271483165, 0.017651609698898823, -0.03854374921347037, -0.03482228233060424, 0.01278480973175262, 0.06364815469461332, 0.002788421386353036, 0.013533928497081025, -0.006696390306678333, -0.011817363774864134, -0.012761998991188487, 0.049969045221370086, 0.017131219283478764, 0.043688450850931836, -0.0230632788096173, 0.00658852048192235, 0.0035192889692508113, -0.030785050265211403, 0.032443181846400396, -0.01635049141202947, -0.03482272161391849, -0.004913819364152406, -0.02700799224675808, 0.0032203170693825374, -0.05319965706826391, -0.010136636119571742, -0.010972889483144071, 0.04686996057281301, -0.04000043303937014, -0.015862365122034854, -0.013975767915903718, -0.0015726434165437753, -0.05342750804260234, -0.0021156458909290126, 0.0008477010445869606, 0.009755974399125294, -0.009016578453261566, 0.02009394087891883, 0.01772750363974249, -0.02156642108246687, -0.06646519308061946, 0.04393953745091331, 0.049934885985404465, 0.018250004004449018, -0.03723595765179163, 0.042169536156487344, -0.04768532122119665, -0.04510304661943223, -0.01826695829980711, 0.006760266337786141, 0.03527233735784765, -0.043963048161094545, -0.059767587995641615, 0.031039343522695596, -0.005477447700038597, -0.03299567951226841, 0.012954902224731146, 0.013322080131537475, -0.040607240716576926, 0.0022923432343443175, -0.012978154673261497, 0.011850489291210525, -0.01044460397246766, -0.037560616039270744, 0.011265944992771022, 0.012677387377671248, -0.031111158116654856, -0.08809631881743395, -0.008022175090215486, 0.033547080471777624, -0.01616065750308293, -0.038663524124222824, -0.05277915887726897, 0.09214408636685974, -0.0015336602897825324, 0.03170652890232966, 0.0227688806530963, 0.048259887060084314, -0.010235455132704978, -0.03208074381469726, 0.01655385121536775, 0.005185209588533183, 0.042225094728788624, -0.01670311553552293, -0.013613792070696252, 0.005090564856939412, -0.049386301413530474, 0.028829185913944, 0.08016026920298998, -0.03814656165917953, -0.011426629701632163, -0.01049057851936024, -0.12302488140927646, -0.14340063462116281, -0.20329187586084482, -0.30414129260993616, -0.4696782458560274, -0.6863457722434877, -0.6721112550975551, -0.5724955756532002, -0.17768461945029282, -0.08650725613166804, -0.22984676477251254, -0.22683922901459136, -0.15647473659694958, -0.013387222238493235, -0.073614439712987, -0.11631650785833923, -0.0057357278127371895, 0.08843601215649899, 0.01780337626263256, -0.014372066076109519, -0.02423126117895034, -0.016478552256475845, 0.04755961287595987, 0.030658164626240877, 0.038777609687145775, -0.0306732260078857, -0.04287932920138684, -0.14328897474112043, -0.26147569809942384, -0.3493473876091929, -0.4838659345367034, -0.6964740494619247, -0.4719999411242144, -0.4403664850680799, -0.48492205991789394, -0.13138998729460927, 0.07962673435620914, -0.15348377012468098, -0.42691971281867946, -0.29150486573551293, -0.03455309460259102, -0.03280546336927487, 0.22688846472434787, 0.06432384094715747, 0.08647654168633545, 0.06130519402902327, 0.03092142683398676, -0.014598435219531554, 0.04584507414946837, 0.06952040634009923, -0.00439107815842142, -0.006091128421847488, -0.035415006184106146, 0.0351111552111576, -0.08956583264555852, -0.24188648205953964, -0.40561062154763516, -0.7492460426688631, -0.992007690504521, -1.0720187799712015, -0.8317265344538723, -0.43181934300543034, -0.2659621579614654, -0.5129025280206788, -0.005380874260335389, -0.10013222255325019, -0.04262927580564797, 0.3032261324734924, 0.21825726550291155, 0.4028691347112567, 0.36122593377571033, 0.08331657928633868, -0.040579563280879076, -0.005580643581749076, -0.02713175472061712, 0.011326941265040143, -0.02594472440225628, -0.04601252116721021, 0.004205258230090999, -0.027100289227238488, -0.053087551137860185, -0.12039120683045941, -0.24284227848189047, -0.3965532814919827, -0.7310957207449854, -0.9772858705682205, -0.9615954690563465, -0.8026024138299673, -0.6554716662186106, -0.13291575202782777, -0.026441542082954645, -0.3267761777002233, -0.13427641910841967, 0.27246749007892007, 0.1357775209693533, 0.4630608419225206, -0.17026252081809035, -0.04819034163459312, 0.4491997201301552, 0.19709998676166315, -0.023427441436002474, 0.020341599785661035, -0.0020170751648345285, -0.020972323649462526, 0.03459760237979649, 0.07842304114985907, 0.030106160103272415, 0.010391962397831016, -0.054355535476971445, -0.22362175362689846, -0.31645130332173843, -0.35476284462130475, -0.6401105228570914, -0.9550097933968399, -0.9701360439379546, -0.17233003882807932, 0.05408584273711961, 0.22926157065113256, -0.21636898350970848, -0.3191256004536934, -0.26018648158028207, -0.2041402719152483, 0.0258603218782904, -0.07495662963943274, 0.03056099052116477, 0.012544998457672898, 0.38269943060017886, 0.1364792688504701, 0.002357301321681041, 0.12343560173938634, -0.03009634986266585, 0.02300550714734471, -0.02332408198771804, -0.0072705169527716605, -0.05455624238838639, -0.04119346038502282, -0.14325576033537843, -0.18327330893707838, -0.3459707303663325, -0.4727646235271021, -0.7485243652691629, -1.1482930777692983, -1.2663952209297713, -0.5544788957314979, 0.5464011118496792, 0.3707704389732647, -0.31892761343603676, -0.08486069044452385, -0.2864925028466511, -0.12240210547852533, -0.3025898420249186, -0.5810882363794125, 0.04572445290122429, 0.16941619403402028, 0.5176918538290305, 0.605496471590987, 0.24201870690175137, 0.06261797442642776, -0.0008515877109817344, 0.00573231398725095, 0.007388223172396615, 0.06179735178035133, -0.049089402339538166, 0.0013639079981478028, -0.051498597035426426, -0.1572858560001818, -0.32521030039791204, -0.5376978532476601, -0.7580897953607441, -1.0949791364476829, -1.006190166050539, -0.34341976536574254, 1.0536419011780431, 0.4617957994546772, 0.2571559381765402, 0.5145759731173866, -0.42019021224902203, -0.1282492774347962, -0.12286470407196101, -0.5492689060839097, 0.2554580425181245, 0.2817906084266867, 0.3017975266276265, 0.5072789094151159, 0.2593187712388578, 0.05076091691380488, -0.09261735845747487, 0.04026283340793081, -0.003282177465070762, 0.012395654472727951, -0.003463784249074514, -0.06959215554807682, -0.08474012095927096, -0.09890848647488147, -0.2719406403351096, -0.6149484569625424, -0.8013536409945331, -0.8917802944447744, -0.536341781938882, 0.35411527839274914, 1.0857592340917197, 0.7744876268109492, 0.35900399203937244, 0.42223644324279425, -0.10022528666862253, -0.2678023317455668, -0.1909916884100946, -0.404832586870671, 0.04282030507064131, 0.4372626940349796, 0.45689254470650287, 0.502016016052838, 0.42232533317539134, -0.004662834622348961, -0.02820848612587164, 0.008055084842488515, -0.00913537694688468, 0.0160033451463643, -0.07323017287482268, -0.0416664227129566, -0.07255642765438847, -0.12390177232399369, -0.3251510311589001, -0.6554560850380774, -1.025539717319924, -0.5874900831196969, 0.1338539369513716, 0.4529709073572354, 0.6700114538285431, -0.08349230077130171, 0.045772802115921433, 0.24888049884691035, -0.15024823433514786, -0.18806082931430118, -0.5263697529632582, -0.45480746738144856, 0.1443766760095172, 0.18574055885605006, 0.3452174921844056, 0.4489140392797689, 0.22545035567342736, 0.0655881719520161, -0.004121143798120987, 0.03327720896521317, 0.03379388201699381, 0.0007517526333746349, -0.09018197109624898, 0.058172109658227736, -0.07802697996372732, -0.14498180328834936, -0.22808552666063078, -0.5921414117598258, -0.5408557875906215, -0.07991542544030328, 0.5379032935639766, 0.4247325732989438, 0.40666920694806913, 0.3490835344463008, 0.5293828902739285, 0.5534873775518778, 0.4463638614745883, -0.008065216615652775, -0.41755729585958984, -0.46606806183893107, -0.3181170283348337, -0.3062916536488468, -0.32646041178068563, -0.18632858672621705, -0.02081382561483517, -0.036322083793484304, -0.007940903113043279, -0.07766551792099505, -0.021839519454787796, -0.08253415907277158, -0.026082406618640013, -0.027735361413957608, -0.13197050896092294, -0.23780793451803323, -0.14830062147283488, -0.22411747927679956, -0.2724503278942601, 0.1303030528241761, 0.5370331826997282, 0.5421542927763613, 0.04933656236645333, 0.5652841979881141, 0.4579215068180085, 0.2354251457279414, 0.24020744677482336, -0.40350668557768515, -0.4856206070858503, -0.7030826860405196, -0.6897124405273, -0.612287147337145, -0.497032240559604, -0.23481572963917696, -0.1108620333370283, -0.0725714511239377, -0.012609132531061431, 0.00943478841289018, -0.005816248953025821, -0.033933787727826174, 0.0966962740242314, -0.062017188748604464, -0.11196985376805234, -0.27021922030684303, -0.4606465728348183, -0.6298935669498831, -0.34013655905691265, -0.057712288867323214, -0.13228299961035087, -0.17524783491392348, 0.06586933307943768, 0.16761091227757258, 0.2787621864110446, 0.1977959419468717, -0.639137980842027, -0.23549249085625132, -0.1979996911622151, -0.5777079497882536, -0.6550235832311504, -0.5314404611114372, -0.4380632892827039, -0.22814930551902368, -0.062234977885239594, -0.10836218368796705, 0.01300503600095821, 0.014922435146275281, 0.03991303709312268, 0.040430735051546256, 0.08695571672789126, 0.07190302624885919, 0.08065361266479062, 0.0029900263814151328, -0.14426648190965966, -0.2566705921602983, -0.2732388546351051, -0.2835751797085322, -0.26754296433187835, -0.09234048796828978, 0.048703303304131765, 0.4596806038712356, 0.1894655991665636, -0.270205767374371, -0.459187725117438, -0.04140517201330783, -0.430455166719771, -0.5651751416690743, -0.4904161908456376, -0.4110008407188777, -0.2728204931240836, -0.15265638912554122, -0.04762614301883466, -0.007401154883846192, 0.06981475530199047, 0.007688764226978255, -0.010872634132621725, -0.011220926660940139, 0.06825590598135405, 0.15240165473120962, 0.49691341212193063, 0.08579513465512985, -0.20037878241736676, -0.3125786003224455, -0.39604539187925675, -0.1650904598666498, -0.04581297271086204, -0.05700645467821575, 0.28561668246657856, 0.5404538121733234, 0.02889935861610699, -0.5092578932343852, -0.5441667823792768, -0.2510106506373044, -0.4668408584486752, -0.3832558107616687, -0.2737089733520954, -0.23401995540064072, -0.19609702021006567, -0.1302227872792234, -0.05517203237134414, -0.029593368534233992, 0.049338981443817896, -0.039037658570846276, 0.07017146799039187, -0.04880435699622448, 0.152579138274301, 0.25419726940670184, 0.22115966347352575, 0.19986392301326822, 2.0982582011658764e-05, 0.040149267453160505, 0.09163158882048646, 0.1842388235156825, 0.1324652733642974, -0.01540755995632888, -0.37419073985615803, 0.1681864240379797, -0.19816471992340023, -0.525645668010043, -0.5182128244447335, -0.2911654460327089, -0.24948872267944405, 0.02224315421715093, -0.23060851627269116, -0.2499967951324389, -0.18875221942911774, -0.05546673151282614, -0.012249990451830351, -0.023672108971373094, 0.030582706006744752, -0.023815454790993878, -0.02076146335628706, -0.0024855023441891977, -0.004088826202952146, 0.06783370470203477, -0.02019151438230578, -0.04995517476458636, 0.04258314931232775, -0.05675337930557994, -0.08694989433096438, -0.09839920151933743, -0.0013942484957525357, -0.3925119199657945, -0.1361049486781722, 0.5039129443003926, -0.14377288336462515, -0.42163030409973923, -0.18854446244953066, -0.10250192490011138, -0.018879825508159493, -0.10822460787710846, -0.22985193265208398, -0.3284499372427585, -0.17179322230059316, -0.03894401146918785, 0.026784149868089732, 0.033061860639750945, 0.058976130005746745, -0.014872147276931461, -0.023906981298375506, -0.09818385995675095, -0.1818347394664085, -0.08779714911612815, -0.1437474611972383, -0.191824752572019, -0.14852331911317201, -0.118631578044775, -0.27395394537081846, -0.3223011060574626, -0.16705700855057287, -0.3652702743933138, 0.13430446057970885, 0.20074101243444337, -0.16473696209381727, 0.22135559068197208, -0.24260273259808324, -0.10730419452732366, -0.08495050992042581, -0.2624919050287589, -0.2626208600777672, -0.23626295017344884, -0.1166724759460935, -0.02579246696179913, 0.010858311657586297, 0.0008323246180772809, 0.0010744792134961365, -0.011647394758030036, -0.062449287658961974, -0.053866212177587344, -0.2965745795582485, -0.26057891057882243, 0.02025270355119174, 0.11385052833525477, 0.008860215514904166, 0.007953335156550131, 0.055728476835092466, 0.04020963523397956, 0.17785744747824309, -0.15011038321678014, 0.08199457783185873, 0.26572437192445897, 0.14844100893695023, 0.09572798940428244, 0.08735539045344803, -0.10339170295851108, -0.09567018096293346, -0.13051732794491402, -0.2938178387520616, -0.24121148343348722, -0.19398002571409714, 0.004968022311910852, 0.0057484433292910924, 0.030286211887212602, 0.012578829227038369, -0.023683030443758274, -0.05200625906399376, -0.022981842748486126, -0.10690248209674429, -0.3508760043782255, -0.3511969086231889, 0.08993438881140337, 0.09741203132576698, 0.11068995026926617, 0.13732950327527674, 0.18774222756407036, 0.18002977487212182, -0.3162073891779582, 0.12782433796909085, 0.28694628137328326, -0.010157718676620539, 0.04906766524274278, -0.20328224665088926, -0.1389795025624315, -0.12040475599842444, 0.03700416173972963, -0.05921096637094579, -0.07642528425959871, -0.06165022505077554, 0.012999281870312846, -0.030683889240613164, 0.014156609537021324, -0.020235368026826725, 0.026273685610039108, 0.05426340515311756, -0.008982065728383424, -0.04246475707424264, -0.15213148760876882, -0.20418481800131213, -0.10677022396661918, 0.10652502988950192, 0.24872912891061363, 0.155994272727566, 0.30882868044351197, -0.11081357204966891, -0.2700882975320222, 0.12071339641349062, -0.1857049017734357, -0.2701359397925891, 0.1630563032386064, 0.06094883351129877, -0.10100346909398605, -0.109034189480829, -0.007911172519531403, -0.002869525880184994, 0.02370303315350645, 0.11579531317334221, -0.013992387091968232, -0.007723181187095696, 0.04078692611172501, -0.032465534187958216, 0.009407747902108783, 0.05907036312972547, 0.013588736945314229, -0.06470180332382376, -0.12128712630900408, -0.1590734418218656, -0.3220997250297274, -0.24089633568039853, 0.21437042992503674, 0.3493266550046165, 0.6824144843762824, 0.3152378262475601, 0.49039505186743715, 0.1704451430820086, -0.2688122835041763, -0.05631048282781574, 0.05514531013861449, 0.04441532339467607, 0.02372831390325299, -0.130965233370068, -0.10866153589957656, -0.1388602805833777, -0.04311805794814022, 0.004702982947504535, -0.010202701782301938, -0.042447188451864175, -0.016500099574365795, 0.037875505578684, -0.03948632570217799, 0.013315442847133718, 0.0006407835844471353, -0.05015175849229521, -0.11158317054212487, -0.23417297577494262, -0.5250255645580653, -0.42683664370611857, -0.26958147419321526, -0.06265597816221431, -0.15592190061420302, -0.22477103274161486, 0.10793439414043451, -0.14518094711533014, -0.30784671676119535, -0.08019843009536452, -0.033366130595215406, -0.04826165593277358, -0.012047220952036967, -0.11721763655119317, -0.026304951495404485, -0.05965325019696471, -0.05983107293291668, 0.00924668414116909, -0.006070954055023834, -0.011566811627095908, 0.0027857626502608202, 0.006515992346868998, -0.01493158651187588, 0.04803197123039178, -0.02450337213297194, -0.03443424029034362, -0.08603210276639787, -0.08083443708304457, -0.3324814985680371, -0.29008321271416065, -0.22305806075011264, -0.29332587015646877, -0.27668212587408464, -0.07160512555665384, 0.05827667879977186, 0.18362092447048997, 0.08718492994187091, -0.16081270406329873, 0.04092869451224739, 0.04369129802811471, -0.08177410202302479, 0.028222441066903414, 0.026291898065443065, -0.004910986536408532, 0.014512324866192604, -0.03233077281233528, 0.022676649909331822, 0.009465569788054365, 0.008035220469285368, 0.01934155277134087, 0.03097648109843175, -0.025809833066735184, 0.007986483861471147, 0.05008367599569347, 0.010515954201470395, 0.020339606666034116, -0.04194454188918554, 0.06648839645534253, -0.09105577832265174, -0.11045973357319465, -0.15434002571015054, 0.05580816366988222, 0.11597538781281372, -0.14052161706952404, 0.020058256634912754, 0.030888273805985078, 0.00822778980409917, 0.013577541625093182, 0.03306044427124973, 0.08486992619735821, 0.020641907697128786, 0.002406114525208765, 0.05322609866452166, 0.039828561883103734, -0.0005533330268285547, -0.013071865672957485, 0.04190808807600095, -0.00596864699490084, 0.019461937254856454, -0.028731958805151756, 0.014512603516676815, 0.03931717572607513, -0.005187311303769197, 0.040770651812199105, -0.03677648887372368, -0.01897520401971657, -0.0199795318114783, -0.02613019421378808, -0.030058594383938653, 0.07034776098777648, -0.03374632105255134, -0.03707102391026053, -0.04587464677599137, -0.062313047257088326, 0.0021423668479367457, -0.0373298812910542, -0.007561912764336381, -0.06451667391205759, 0.009135715053933463, 0.05735052156711333, 0.04644831040315345, 0.0023393582806611004, -0.06009774575426557, 0.012989132353024258, 0.014115218071294105, -0.023258225824847923], [-0.0034483590941116436, 0.021596874862640673, 0.02263822139942221, -0.01011482007769873, 0.010486700281347707, -0.011944186577302146, 0.0023977843565098347, -0.014131378753524673, -0.050250392508259835, 0.03482236091512309, 0.05758322013749387, 0.025507966148787413, -0.026739343698434264, -0.025667457134392613, -0.007369165436887427, -0.021276822992572882, 0.015930889584246544, -0.048284477690432634, -0.037122453132910224, -0.05755894868750628, 0.053682345424906894, 0.014785148698707493, 0.009194410754008474, 0.00645139974895922, 0.02388564330835714, 0.025499815632425208, 0.07727707152532459, 0.0003569208742035422, 0.009853777888137927, 0.0057687043811741855, 0.0256864796333116, -0.031081877190135443, -0.028259955838959416, 0.051509118802601936, 0.025254329744565995, -0.014427369762651186, 0.06369700745801861, 0.03168136215601378, 0.06744028974010055, 0.0033778544551354003, 0.07270386281319421, 0.05445913646148915, 0.005408983428604096, 0.05303927163894565, -0.016308276620248797, 0.019643341896105306, 0.028041908298893498, -0.0025884680385994713, 0.03995029599567602, 0.059671634472889666, -0.03185700333630188, 0.06035978996005064, 0.011804788859378863, 0.019632982288028837, -0.021936119893061046, -0.05894211041793684, -0.059342417393614504, -0.02207295257753483, 0.006886619270000472, -0.054601620200684695, -0.011753221477318498, -0.039522904022735963, 0.10956567441139847, 0.08116513959168971, 0.07952571324783156, 0.1432402279497107, 0.22077558459943314, 0.21469036022576155, 0.09720342935987453, 0.058314468017332054, 0.1237084786380953, 0.1277560405056392, 0.2001924165496701, 0.18512721141772193, 0.21593777844605483, 0.31125626885827984, 0.15693199944047817, 0.19622090532455713, 0.14536684089442728, 0.11055739746355674, 0.015377308346663064, -0.03972907547323034, 0.014127883874715958, -0.04583647056157782, 0.002364052577310094, -0.030303635306098482, 0.009971389835882666, 0.006311447232316227, 0.0025643160867027943, 0.01021456456465636, 0.022462450637531012, 0.030539961441283254, 0.13088239486835984, 0.2050725450289104, 0.24748063670341167, 0.12778918490009342, 0.19272112137413644, 0.1368604494512386, 0.2018356725825173, 0.1699630940014154, 0.24624265319471814, 0.14606664725092972, 0.21806321417400001, 0.2970473447698114, 0.4165238164327287, 0.35880807618806093, 0.34410802259513135, 0.2738669463922637, 0.14999567073028064, 0.01715161843014178, -0.0009313909262996473, 0.01312067236847179, 0.03578750428925907, -0.029303536999409064, -0.06967231833299953, 0.014846893028221382, 0.06534368657400015, 0.08657695732276571, 0.05028199371438074, 0.13030673083763739, 0.16859398469619266, 0.08482536604099762, 0.07071882345216256, -0.005371693994574388, -0.16535458525354357, -0.06829810337397804, 0.0660140413482065, 0.12871280045393788, 0.08409188271225111, 0.21492865799266808, 0.23259281281925717, 0.33727884515957257, 0.5182340331568667, 0.4817769165548277, 0.42553172063845446, 0.27610748149413883, 0.11839459354204286, 0.05318546839845793, 0.054792048623214885, 0.0940829277309076, -0.04159458780893961, 0.0016885624499663639, -0.008342062995900007, 0.03002161820442207, 0.013585212145573452, -0.003622908406648293, 0.0464209979589278, 0.04612799337407049, 0.08179248574944496, 0.10300380712011382, 0.21349303735554442, 0.19362346697677774, -0.052331513824390184, -0.17786011054013248, 0.13237546751646562, 0.08359368147398442, -0.1904488502367447, 0.1783233364260309, 0.19185522497209437, 0.3136251293680888, 0.4164564360820867, 0.43130685956288056, 0.24515981808211942, 0.05699106124076612, 0.1298793398436069, 0.18292441233886483, 0.12361275994954915, 0.08193536484358228, 0.025534725364116974, -0.018717194928532237, 0.028719608482259826, -0.01973084125988387, 0.09854555660927712, -0.0001343076358827464, -0.060853811939955746, -0.017888544781666838, 0.07547435192958982, 0.11752368215603114, 0.25432483748011386, 0.26287549137809696, -0.05079581730054358, 0.26499525525823175, 0.49453313187297665, 0.28171662382297896, -0.04979276492129045, 0.06474498690363452, 0.09945297011569144, 0.3176877807752999, 0.14916939202655893, -0.08108753900651611, -0.3050821155221159, -0.21116741138260864, -0.1036890430903875, 0.10893465296956927, 0.015118472378481547, -0.008147230620852602, 0.028333076342347194, 0.037007339336062435, -0.010296797648241169, 0.027737362678910565, 0.14500487531824577, 0.008523741941811236, 0.009722878947792904, 0.05400913062813628, 0.24446570132765497, 0.11878528445413042, 0.3760892262559812, 0.11933293224877935, 0.1263590039762207, 0.47266351209183266, 0.5477779864922332, 0.21417726165668388, -0.06812649071847092, 0.10144480500230209, 0.22223017481555526, 0.13598218586263375, 0.20079088796167138, -0.08420964885395785, -0.4259656258277512, -0.4600984971305782, -0.13955817873624743, 0.21817708109240902, -0.006782016553649825, -0.033301466481498336, 0.028265001520430915, -0.03918768337736911, -0.029980349660433663, 0.032882251312032436, 0.08110828005443428, 0.11837839729970834, 0.1396157309543929, 0.15444197325492962, 0.30932125060674026, 0.2544445823889595, 0.2693114957915486, 0.14850947481493113, 0.30087548907592593, 0.49454184655643485, 0.4408037769802446, -0.181082643077862, 0.1159208793557225, 0.13176475216650632, 0.16333951144421432, 0.3034316166794815, 0.23843945308154132, 0.12025940299577809, -0.19622817260514527, -0.157200615393763, 0.1185416484423749, 0.14886190305668923, 0.03035168557193581, -0.014849522907075627, -0.008143171801137558, -0.001111594350667403, -0.00237621205434399, 0.05904314482072201, 0.12149203636531872, 0.1397498315774945, 0.1291235957430713, 0.3244226165596884, 0.43429951001793393, 0.4437637390533662, 0.2764754912469875, 0.09476835689862041, 0.2673481032536761, 0.20415871529874335, 0.3651117935685017, 0.1199176403073765, 0.4331363352623773, 0.18359102517565778, 0.014768287860985135, 0.29590302702803445, 0.23957441311991323, 0.0821338408802606, -0.016669397776565672, 0.18050627718063705, 0.26355179870061624, -0.1186620014305275, -0.05408662300588425, -0.047125878078816644, 0.04435656311176088, 0.013657841996849582, -0.034977055812719, 0.06462034045809206, 0.2533058005048175, 0.24354694919592454, 0.1968798137366639, 0.12204930811618017, 0.19465064464993204, 0.30216404078772735, 0.2158401780451863, 0.1629595884876617, 0.04489792806821171, 0.1005405354775357, 0.2701091815634082, -0.29014668078384853, -0.15207768146584927, 0.11444054730796045, 0.002497046976851139, -0.08723788132617295, -0.2665169918633622, 0.021469412565677276, 0.04544209006852051, 0.16538477943439397, -0.09147438279646695, -0.2938945382174685, 0.025267624079982943, 0.05215293852117108, 0.007174633751203282, 0.004221779211246349, 0.020656422211734502, 0.033946080187545885, 0.2817488679442203, 0.20563651712865577, 0.17247665922804095, 0.29579447496339206, -0.06002058314495856, 0.14508983279512738, 0.24960299752568893, 0.09831529523767246, -0.10361012957338661, -0.029258451666467126, 0.14552174450538036, 0.03717829368642692, -0.027677136957215458, 0.005983438778133522, 0.1709217544743576, -0.09699548664938935, 0.05185007007360077, -0.16090847925298998, -0.1334685967206026, 0.027072436660945467, 0.13447643207330437, -0.08206463557564955, 0.015668889065470624, 0.024189959850465317, -0.006547523272719734, 0.020053267176515736, -0.02518660124391582, -0.014860587555472453, 0.26433905243222583, 0.27044441481935144, 0.1594447010865757, -0.007357849641674286, -0.3433811407082833, -0.12883499386662686, -0.2757855233499192, -0.2873718940693873, -0.5384432059186602, -0.2296061225814745, 0.10019805386707233, 0.25449569480768114, 0.19226321388243944, 0.3783218799229278, -0.08929435555130243, 0.024973877020336946, 0.09931509959495392, 0.03327427872949333, -0.1424909923127366, 0.21213202187392802, 0.19516555155047052, -0.1021101617088538, -0.05187847755541209, 0.05192911905671091, 0.0022152092311812648, 0.032683459836313655, 0.03558818938052351, -0.025809476800082273, 0.06499865906269721, -0.10813340819390332, -0.2031839362521836, -0.31958485230146455, -0.34572657932550066, -0.19983203034378688, -0.25028912790387164, -0.49881514131925697, -0.645426875539756, -0.2007278782940975, -0.1893597047939563, 0.2346388045252035, 0.5013433279411479, -0.07400720857267439, -0.025306691156255057, 0.4710425757342364, 0.20641815864605298, 0.2176373122701649, 0.022988488185173298, 0.07653066098613816, -0.10439903681025937, -0.1271733697476978, -0.062352688426609744, 0.03561001204294254, 0.013745533964447084, 0.00084757756190786, 0.053917871373023674, 0.05051980818067756, -0.11748708439471856, -0.3046686994293244, -0.23537053221909876, -0.17425292893882427, -0.17980035265659167, -0.3367344124500539, -0.18000057881534187, -0.2281178545106983, -0.44355084504151604, -0.2149185430532941, 0.18312955056664834, -0.05609005372434669, -0.04286154285104417, -0.08128384618644892, -0.05102816601085945, 0.20150780391148101, 0.29627350926696916, 0.29468899409533206, 0.07592987712270362, -0.18072935478279353, -0.3522456617851941, -0.07064680145231352, -0.1342138565385805, 0.010349966515714985, 0.04131135673190963, 0.01808637721093436, 0.006090631531391394, 0.003489806773836248, -0.32422822822896796, -0.41557031812974266, 0.12088334500345221, 0.005569047108431904, 0.04982543012552756, -0.4983067133239807, -0.20811406612348754, -0.2607597345681739, -0.3519364235239582, -0.05178485350844493, 0.2812714746769121, -0.32949579452390954, -0.23360863123485187, -0.2036029105976439, -0.08313940875767312, 0.33408640814258694, 0.19253712945099366, 0.09551593140894835, -0.05869583345905122, -0.23428637426453736, -0.37531169084192056, -0.03098721434962523, -0.1679141389222397, -0.007473845771410051, -0.016924978190522782, 0.013258132860699743, 0.015064215858163607, -0.13284978802705938, -0.2653434467730367, -0.04149039586407146, 0.3940595234231615, 0.12037594501443445, -0.3940604900183815, -0.4131405222006773, 0.09835331337708181, 0.029168208651559932, -0.09874753597962248, 0.03173627340113892, 0.11996527354108007, -0.31100071090095976, -0.33098526867066497, -0.19187582812474616, 0.15351168449772826, 0.19660029545927218, -0.05887152678623875, -0.09923912701763303, -0.013049171170320964, -0.19589920631115984, -0.25706851214201826, -0.024159099058160948, -0.06800033841613595, 0.003678201771940832, 0.006659557422048376, -0.004549931213608141, 0.010740870289034012, -0.08677236141437171, -0.2685834603753414, -0.11611114120465493, -0.007202265002617743, 0.02365739752280809, -0.19119088409976723, -0.32086911118463196, -0.3001218088879309, -0.25226869124449647, -0.19302337711846196, -0.04855995887473682, 0.033584478103166504, -0.5812993916316547, -0.5835629724070011, -0.07706725510143969, -0.18455394051380383, -0.09429674003613482, 0.05486923561731908, -0.14876146437308857, -0.08922238994675245, -0.2077570315914679, -0.10490260348849649, -0.07873654581037462, -0.0038498979996059264, -0.11269909232878444, -0.0009205102650638021, -0.0523701642755238, -0.024852817785798113, -0.020478137329179594, -0.25260706912978104, -0.15442772507581748, 0.06408900682359711, 0.08603651390676922, 0.024580380801467565, -0.07652567449847146, -0.3540940562603151, -0.38363366546220623, 0.09250626968579989, -0.0880244470978911, -0.09694639768231013, -0.1528636895386568, -0.2737643986530409, 0.1429258851818333, -0.11856626760600128, -0.07004646048513086, -0.1357561090245927, 0.01345964074041186, -0.11678177289213225, -0.12738898791418574, -0.06222770482752892, -0.05543097117361735, -0.12936202857228096, 0.03598260907973384, -0.015251377128575001, -0.004120963361365652, 0.02145504373618877, 0.10095321184665591, -0.15595820946149014, -0.0614710356045354, 0.1633630786823603, -0.0633803541836265, 0.057712038392469175, 0.20857298818729836, 0.20704018451992962, 0.5110110481247772, 1.0676668680953088, 0.02830213194592587, -0.143148315188002, -0.10059710245806007, -0.14200201632728626, 0.04649378224334073, -0.10278162906235247, -0.041967827685316476, 0.043051483843221765, 0.04717874175007771, -0.04589520225252124, 0.031700044439039184, 0.004472412484141265, -0.09353712524070261, -0.0065568496082459345, 0.02324165636315364, -0.05957000945230322, -0.040562178398300446, -0.08041316924919702, 0.030421751235318862, 0.046560913055115054, 0.10835304873762366, 0.29770109284788615, 0.21844052371809236, 0.11802137692743664, 0.1286963922934573, 0.39519852160580815, 0.7479575108594135, 0.732631520085758, 0.40264959795541105, 0.3552630726168412, 0.30126255756298226, 0.29899114418913786, 0.17419516755058068, -0.016741186186356973, 0.09392747242454873, 0.11595466167782022, 0.2126619401779675, 0.09704443467905088, -0.027639570125198135, -0.10645611481595665, -0.10336316367974446, 0.0022405461093596337, 