{"biases": [[[-1.737555889983105], [-0.7178062395872836], [-1.0112608148255808], [-2.1911827990813686], [1.199368911170969], [0.38419752422810116], [-1.074348187831511], [0.21917851931732232], [-0.4858137146437862], [-0.7965067613551959], [1.4452388475712323], [-1.55185542008423], [-1.1760410265198171], [-0.8920153287492572], [-1.2161451555908493], [-2.022091769092828], [-1.72049743926805], [-1.856359495455229], [-4.95628589355136], [-0.7631373818111254], [-2.810178226869253], [-1.3357002845536954], [0.7772799679153963], [-1.3257512217149392], [-0.2938628956852631], [0.45097576736928313], [-2.818523881220241], [-0.5837602202086857], [-1.2208883934063408], [0.7199791773011937], [-0.5270616616280851], [-0.9125593918908733], [-0.8199407017077219], [-2.119373082225013], [0.14053945903133688], [-3.406275105550036], [1.0471345665462424], [-2.9263468786703895], [1.3202733017692134], [-1.716219664072337], [-2.9674457287334954], [-0.5652905656857105], [-1.7728799240855218], [-1.0551314007182695], [-0.6656398082254891], [-0.7908714771657592], [1.318573847974362], [-2.483985397254469], [-1.0453815944747666], [-1.592683637864503], [-1.1801526926635526], [0.3672808003188936], [-0.2086437667039234], [-0.4588307486258667], [-2.4558294730789596], [-0.41588979338697324], [-0.7665936363919575], [-1.0052438004732953], [-2.810702284915825], [0.21264464749732795], [0.5381992431897157], [-1.00932484341737], [-3.5331636812189324], [-0.4142784366095963], [-0.6254075774428484], [-1.0622517483176896], [0.21935570655540854], [-0.25062352912253044], [2.998367028361572], [-1.005978235204893], [0.8404911213249007], [-1.8326802095919343], [0.5922257254723283], [-0.8498995602386492], [-0.270911880984985], [-1.119776711617683], [0.6921832367782424], [-1.2355408378878991], [0.0038657638652953557], [-0.647009947760702], [0.16306840447242998], [0.19320115172952815], [0.15042578328491643], [-1.9373560371619583], [-0.4009946501686411], [-0.6266165449396416], [0.8504176085379356], [1.374242342381673], [-1.0395878190888426], [-2.83843086740491], [-0.8659741817532957], [0.9280503473284148], [-1.3814803069661405], [-2.438043199895622], [0.13791241954199798], [-1.3317701718541295], [0.9855625612089515], [-1.7531178971199959], [-0.511907738902014], [-0.4707845945889513]], [[0.8854667854458231], [-1.4842228378678077], [-3.427755663649715], [-1.8575086917411274], [-1.3126353300029792], [-1.3556189666101015], [-1.9257591473819764], [-2.0551544832970947], [-0.22024054641603127], [0.16623799125202302]]], "weights": [[[-0.013659015759141947, 0.006941167225173568, -0.007920080784744587, 0.0013299551170700221, 0.0003332498701277923, -0.018793536821087288, -0.03384158127312865, 0.020049902165270535, 0.028936457130164527, 0.020298479929960585, 0.029147510861616835, -0.05620749211949921, 0.009998361112428232, 0.0019248067113176075, 0.0325854035819725, -0.05949928293819119, 0.04101797424720865, 0.029074249828001983, -0.044756625967820124, -0.04744084522806423, 0.03778671861105483, -0.05035199897935132, 0.024453418647023255, -0.006302136874163826, -0.02680805368529751, 0.029555806266912097, -0.003767792141451703, 0.0042762505892387235, 0.0030276260362810297, -0.11045507846657986, -0.01915483620033557, -0.011888048551362855, -0.02942398512473988, -0.04508180031438261, -0.0683088581604107, 0.047588578373316155, 0.052919245619966936, -0.014016242337545727, 0.049235976830232155, 0.03091520756981392, 0.06876428172536071, 0.04536446123655949, 0.024452365007847532, -0.01458737965913879, -0.003192854538408146, 0.03211122332043996, 0.13612539155907377, 0.09398028214769776, -0.003628511915299539, 0.05177092542653655, 0.04474977309292946, -0.00995114481054156, 0.036612575231122914, 0.0269605640380167, -0.06417312040727557, -0.022740193111376764, -0.030640237283667937, -0.004618497220921016, -0.044383415969551976, 0.05178605214949153, 0.014850671696029617, 0.04247766082678209, 0.009929450677617553, 0.07828232383255139, 0.07170740978289046, 0.0393864831318387, 0.07951007080976456, 0.07961972663310138, 0.18403010668759406, 0.16354514991384894, 0.2641394282967406, 0.30616384289433884, 0.33949271489334715, 0.23869042825419282, 0.17837580737665687, 0.33847288373746015, 0.17636591039259314, 0.1286852925993206, 0.17052029123541704, 0.07267084651230854, -0.036608084966145336, -0.025294994397286434, 0.008871467638404334, -0.009074240630326354, -0.008496208140806268, 0.01859073123405716, -0.018091648726919797, 0.030314243662402304, -0.01610813821587874, 0.01976416874340546, 0.09253702277315273, 0.11612395032246299, 0.11315125866333152, 0.04439315073075467, 0.0522893048024178, 0.10505384168722567, 0.1575756124314327, 0.5992806579826105, 0.6465814533225736, 0.3440860393614911, 0.08774481678634861, -0.003043934477296009, -0.08658482681334156, 0.009625034999634572, 0.09113070425687626, -0.05227011166116273, -0.03259380305603997, 0.005341932435475262, -0.06123933074138173, -0.11713134653850983, -0.05134026632233738, -0.03335933725319196, 0.033506367452476656, 0.04100203739140269, -0.02451396393123702, -0.019020413708124496, 0.01930190032198746, 0.027666664505996755, 0.13954090730021798, 0.03669320629609936, 0.1051595987545309, -0.06256820260713578, 0.15580543190755672, 0.0924521577478861, -0.26361808221367505, -0.08012362420715778, -0.2994864486639717, 0.15016936321941723, 0.23429007042926583, 0.20601627760017382, -0.18306428753641016, -0.1570814940375979, -0.12103336199028436, -0.16844937836946539, -0.10721691279718315, -0.31722145103713467, -0.3059036836093307, -0.22338541183875765, 0.04549179850984099, -0.06792205221107837, 0.008146576335022446, 0.018477770014022787, -0.05244414026429593, -0.00019653131520507567, 0.09932156074489645, 0.18653624070384098, 0.20310789260838014, 0.07777058365003435, 0.24261006889801895, 0.12150944498034703, 0.36312703732085216, -0.10647382461574459, -0.27663955421974457, -0.07144537419926354, -0.13556502394874176, -0.006824596506141622, 0.39403309598680164, 0.31269877061457346, 0.1946118544325105, 0.3671427688814541, -0.25196069005185723, -0.22703463943451346, -0.19299360307810326, -0.13595161008009268, -0.2787198446503333, -0.129531477795532, -0.023980007919505705, -0.03275438967732984, -0.0022666351334486457, -0.015016498047767826, 0.007634730674432088, 0.03238021143152259, 0.1476860940282932, 0.24946012917289764, 0.07702801129390432, 0.01749300736338124, 0.0743358420272596, -0.05332774876254269, 0.17763054411615656, 0.05836937264134066, -0.01190264470866106, -0.08523551266465662, 0.1276421766375914, 0.12990058218669948, 0.02631518083557075, -0.11771665555673576, 0.15608951693819714, -0.41918406221487237, -0.20964955622467854, 0.044009073244171464, 0.04415327912516567, 0.005991679852072204, -0.08830709132886382, -0.18481044595603993, -0.062275480953760357, -0.010913689497030372, 0.07513459548259013, -0.006758009299665615, 0.005510173982529131, -0.0802263655201252, 0.060210383164840106, 0.10532733836908538, -0.050744681429327906, -0.04602748476808518, -0.3188384247738735, -0.17416706144131547, -0.0061773750689621265, 0.296696778494324, -0.3916685047828841, -0.25873990316817097, -0.3128413205369562, -0.1724507379954501, -0.5316893731167025, -0.40496032496927803, -0.3327856375463977, -0.647961081673788, -0.5609733195208707, -0.05407340926836765, 0.09994304701558769, 0.1912811969106078, -0.03842851848632254, -0.25314335433234114, -0.09105495092892021, 0.02075272628899658, 0.022693125508779857, 0.11534996215629235, -0.015713762029987127, -0.0523309427120479, -0.018385074006907507, -0.18665326111445532, -0.3175249001890193, -0.4261752566812528, -0.37793193688668053, -0.3658603677347181, -0.10093109123091432, -0.3223092866060423, 0.3069105257439793, 0.27088317799990064, -0.1414139284106383, -0.4817260630552061, -0.7813442678643078, -0.7623481315130816, -0.5683686273006262, -0.24804130257469745, -0.2845954777334174, 0.2587775286015457, 0.07883793319725581, 0.006519370658007471, -0.006715623171210825, -0.2310447796885531, -0.020882343238738967, -0.013912223002845977, -0.039788768859711006, 0.01326957968479181, 0.04883931240638192, -0.04098181620057557, -0.00689327863192027, -0.24876423188762192, -0.1835348734110566, -0.10562283357105885, -0.3067619639972443, -0.6826834189179651, -0.19020260539290507, -0.04995413843196884, 0.5044997791110406, 0.4191180820039675, 0.02102741326143562, -0.6765369900362331, -0.878913700260523, -0.7887677066746186, -0.2226422626674558, 0.27371866318295424, 0.3280826821810898, 0.18289287348203007, -0.21716508162486112, -0.04265684261125961, -0.05651847439718725, -0.2168358227371239, -0.1354378541549984, 0.07099403120309133, 0.0024859186618170727, 0.007875795235179797, -0.03645911763416456, -0.032657301857137104, -0.05725785002250671, -0.14776714599736354, -0.11707682303004592, 0.016628571037930272, -0.3181598150419243, 0.05768512178339045, 0.22138582226025416, 0.23302713517135978, 0.16112332531557017, 0.2271775747210861, -0.5852621061665254, -0.6632170731171968, -0.6493160130693605, -0.4148372454634333, -0.2208475759394596, 0.14859670398572825, 0.06419558079395689, -0.244210274191617, -0.26634640389368436, 0.029873495046939164, -0.02296221187593616, -0.19974513704740887, -0.11419944714578474, 0.03757419203016185, -0.02050405058740363, -0.04067633707762817, 0.016016632177105496, 0.01819270400399595, -0.08788271438274306, -0.32499769597099315, -0.2565936272446431, -0.15821878621506144, -0.0420435829960687, 0.30948724967825386, 0.7558055287190844, 0.6685622936739092, 0.2557130538635501, -0.5380942350565621, -0.8985853877535231, -0.5032611589534451, 0.09430761823742692, -0.07540444743482778, 0.14888662444327236, 0.043006519636651634, -0.12993503129837958, -0.13112055650296567, -0.20732178821091918, 0.0008759437835326339, -0.17227221575732435, -0.342388992833674, -0.09219317242117323, 0.035887349742490214, -0.021375885437170707, 0.02213257720961873, 0.04281158625995478, -0.029132182418869203, -0.19331089510174232, -0.061521074347226826, 0.24003805916838974, -0.06795534282275907, -0.3169735745612865, 0.4552272725900693, 0.695285150352896, 0.2407919184689899, -0.36988866198802844, -1.023922713981324, -0.5118846696708333, -0.1246031126462371, 0.32674702533203165, -0.16163069584515233, 0.2968272727429792, -0.40664615397335596, 0.16546043847223982, 0.20279888714181613, 0.23473010726700036, 0.4735246804676973, -0.007514797316558126, -0.24960636808807427, -0.0391981403197538, -0.0008222116056537797, -0.024427742956996144, 0.011113438599717534, 0.040577200628581965, -0.046006319038530724, -0.10922981645910777, 0.12595263868212797, 0.6395620974644391, 0.07986929756305093, -0.008784376269354481, 0.25572501281731536, 0.023494977875953324, -0.3864035948904685, -0.38922039404385583, -0.6843289958651421, -0.3884916352661283, -0.19781956751147992, -0.0796252745559443, -0.13916434816889614, -0.10318745173888709, 0.10646232460627365, 0.21519084884280246, 0.37351988752076426, 0.4323902035998674, 0.8139975456065317, 0.3703113966574566, -0.06707842662429324, -0.10071494528287912, -0.07491142483653465, 0.03208113427667361, -0.012755388630398467, 0.04672814670733843, -0.16938280557630683, -0.31225868689556024, 0.09145520315068179, 0.22336325311637473, -0.1452293665526987, -0.013230551520703706, -0.14954573202696456, -0.04095564885741128, 0.05285016227347057, -0.11283721779956177, -0.6024327534899269, -0.3276529195776513, -0.39875783707706014, -0.6401774331464909, -0.6809760400749175, -0.4970150695273223, -0.19144406342041448, 0.10848475032286593, 0.3794295376824018, 0.7296592748126811, 0.85566159252509, 0.44347459014578444, -0.09552624129972716, -0.16599139642636218, -0.03785875051273033, 0.0030093292184377955, -0.0004437011986206488, -0.02308637623663027, -0.0804589698219073, -0.26255416315119795, -0.026211497921321294, 0.3042967049745293, 0.5564601031517494, -0.07518639201293494, -0.6213320364956222, -0.30716390932361803, -0.2470363726510481, -0.37351966449997376, -0.913226983874396, -0.2845290005287726, -0.3118183617883952, -0.6242234231600143, -0.3028015243746289, -0.417304688573767, -0.1495334841559951, 0.28215458202124505, 0.7019974082880786, 0.8251237429675614, 0.6448203356787153, 0.17615820407662325, -0.21825654189517982, -0.2636231472676973, -0.022649361577574995, -0.04499238413454525, -0.01973806420095214, -0.02941871967641943, -0.01901951038255317, -0.07550040875850678, 0.21126261934269483, 0.2416956689406873, 0.5183178241069011, 0.5259313113133152, -0.03249685319035523, -0.32691612922048974, -0.15372425218271157, -0.7927034898496329, -0.6822948958939699, -0.24650394300942344, -0.5785626584874213, -1.0472475012058617, -0.6123629382585632, 0.05966247799814882, 0.31992137596539755, 0.31590759176576266, 0.3711271706012985, 0.6564234458270242, 0.3743452731664176, -0.07939877738501157, -0.3545790721593362, -0.22029906966359594, -0.014908329173837054, 0.007277772101108493, 0.019589365493044256, 0.014270081387508906, 0.045841383130639395, 0.02816385269941334, 0.3014082265586868, 0.2655177911521842, 0.39163454167295103, 0.8759748293835354, 0.34449831501832406, 0.04985187130647773, -0.0007588150631022294, -0.17027887599532662, -0.380369684473923, 0.10634675357171802, -0.9418481189074165, -1.045137207203973, -0.26235500843382115, 0.3509329923860896, 0.6351507256345698, 0.26261706513641014, 0.35560302461663224, 0.6908636788391744, 0.17496250038745734, -0.33542419733685463, -0.28384781475896087, -0.08473021779314648, -0.024154691213356096, -0.03197897654451104, 0.012934817556438338, 0.021919397786793828, 0.05619683684073246, -0.09368966210321605, 0.2810545608909618, -0.15484685535064724, 0.206817872139762, 0.9471011125814706, 0.9077147634748288, 0.29298298690268, 0.5403660375726981, 0.6551221254912717, -0.12254567405913994, -0.457375477828314, -0.7804864967349889, -0.37650613248195747, 0.29022895062972826, 0.5464270584062458, 0.40009401976595277, -0.06172925026501628, 0.2356184580842688, 0.473686590717439, -0.02975210123136961, -0.3517940349931216, -0.07196346710498144, -0.0705188326671188, -0.01822038606967469, 0.061793356920483385, 0.009952037423096043, -0.008493387970244435, -0.03773242242535986, -0.20532141497012618, 0.266465002988532, -0.13305097205856983, 0.1368681658369607, 0.4989579528482067, 0.6809594407410746, 0.5097513157891423, 0.7657238930456677, 0.9375014274350312, 0.05680074904479117, -0.17217482691670585, -0.24182199101823965, 0.14405776260891537, 0.6431017412681951, 0.46062206184624865, 0.24613364035612947, 0.1339607202673951, 0.4441965234409588, 0.27728946203061383, -0.05828692619736572, -0.12657720584502946, -0.22522518162479602, -0.08790628840331488, 0.0402000230617602, -0.0594104443475314, 0.001167310074860092, -0.08672623874221642, -0.1947754831867699, -0.23254040961492045, -0.07624968993538978, -0.4061253633317261, 0.02351150291065394, -0.015372498381828388, 0.36786757363747413, 0.22690354367383003, 0.4844877982270103, 0.7242508233248617, 0.6042639573286851, 0.34680074172115644, -0.05802824600701758, 0.08945679646230317, 0.20725535048956753, 0.20899029947602946, 0.16437139661335426, 0.3598252582808234, 0.6746833742352836, 0.2939734070946926, -0.007843373613362107, -0.1738926054111809, -0.10154874174445112, 2.4356523781227943e-05, 0.029882388973467754, 0.04402144923848488, -0.05180881555003775, 0.00031594795348246536, -0.12891658425158364, -0.3089960482360502, -0.45759668017230837, -0.42674028326360697, -0.25392867324476454, -0.3475487413807027, 0.0005503798791377717, -0.18233041007116116, 0.17177732781545998, 0.11657819910469805, -0.09612487519982366, -0.036901087121376346, -0.24721431030732494, -0.08695442575730168, -0.225460318752641, -0.10889344567911872, -0.1685324993442447, -0.03868945004753214, -0.245319012268189, -0.04987208364969622, -0.19857106573163227, -0.1596667750349955, 0.017904575860100778, -0.0785540575962608, -0.01039694402063336, -0.04013094211583907, -0.0021242342262583857, 0.0023369488094633546, -0.045421064871967655, -0.14569252013627976, -0.4112097553147673, -0.3551049409299935, -0.3497713011725171, -0.3640475736699378, -0.24163302833140934, -0.3293197227241846, -0.3209993362219333, 0.1171794279315908, 0.5971180854219985, 0.3961655564917802, 0.3872287510643985, 0.2781478908824142, 0.1452750190713552, -0.1119684669399315, -0.2147734764829229, -0.20236467578163747, -0.3625380322091616, -0.3526945604225581, -0.17763602509370555, -0.21904209483836676, -0.04132502336023978, -0.020980260786258986, -0.03648215093983783, -0.026362648898671917, -0.007004303377595904, 0.008802952854551573, -0.054627367578956816, 0.007402387066161971, -0.09553809877690757, -0.09509659398322076, -0.13610847136878212, -0.2615646058878982, -0.10828006451891015, -0.2212485226185784, -0.1174030592566798, -0.2863620004735016, 0.4546540141559426, 0.8513854465802736, 0.5660219405899888, 0.40206074754207566, 0.5098472964776192, 0.33359154437780314, 0.04929528955942919, -0.048697560731050776, -0.19133954640737222, -0.235444108476292, -0.19436765398418585, -0.03366679845306486, -0.012617767051548703, 0.04954585899565865, 0.04258075570427049, 0.025627686824837268, 0.06453515045133947, -0.013645966435087288, -0.050530513290442676, 0.03661100427606695, -0.026680115105491, -0.09419790138209724, -0.06712645041539261, -0.15701530266211916, -0.2114734263573745, -0.22550537416622993, -0.021571825165931625, 0.08840083584838401, 0.06390918926233267, 0.3653003051031093, 0.5961150270005315, 0.6119864631088221, 0.3310851399709835, 0.1495311229775572, 0.011680302757752949, 0.01302774689216978, 0.10581923291869899, -0.037850071408751226, -0.08799588555152331, -0.04997804217884099, 0.04596816232636013, -0.019422644061315178, 0.05215053113148125, 0.02804453610150863, -0.043065472825158754, 0.004910740298229085, 0.0386958313472361, -0.001859569360464054, -0.048577341497543905, -0.006471465828440185, -0.004444267381429934, 0.02354248149083394, -0.005917466163652132, -0.09941058407442864, -0.16991797522872745, -0.07460683867925345, -0.057264047260569224, -0.061314229261414825, -0.09821709509680239, -0.09658705322270476, -0.014871198339201279, 0.01011507583998013, -0.00816008195784527, -0.06354052654486926, -6.533265643593805e-05, -0.012255203605587139, 0.07968961898968234, 0.0010053829280620252, -0.01797270435489783, -0.04534658180352406, -0.01074605868894837, 0.03220389647064196, 0.020790031598788273, -0.010495438782140307, -0.013497306823215245, -0.05179709973858206, 0.04661662109198412, -0.006853231196757588, -0.014987169143265361, -0.010393142242290824, 0.04653986070710422, -0.028112187442139447, -0.059488150820236986, -0.057310924838996136, 0.016622532414884317, 0.038839721735262164, -0.0021290340211048055, -0.05463914933752676, -0.024122934288271912, -0.025828415244458804, 0.0036794794024613314, 0.0022823266769172908, -0.0007245153054695004, 0.06966314936750223, -0.024373702340073133, 0.04785768079605121, -0.009929046024468839, -0.04743132600368618, 0.014386772293573819, 0.005487952732761946, 0.0021619019419988755, -0.002257883291146298, 0.008757024628391485, -0.04127648601615415, 0.02459593536544229, 0.02805493660071932, -0.0529797753352824, -0.015203629980561007, -0.0029155898060455204, 0.000672445755764161, -0.040365598014842075, 0.001552409284232354, -0.008060433330586914, 0.056261162889612915, 0.028788215504602217, -0.03729083778793234, -0.06067574156692024, -0.020265522468556917, -0.08703040100847063, -0.01850820189081974, 0.010012453422396546, 0.020523875096841098, 0.016906473030362513, -0.024972952292799843, -0.025858035513188708, 0.04900275970267816, 0.005348926614899377], [0.08421693730297529, -0.025525853095627632, 0.021530874441300207, 0.07347004869356726, 0.02514557056127654, -0.031731177927528, -0.04596584680280998, -0.036576062412894524, 0.010131390158190305, -0.003496559273589179, 0.005731401587913849, 0.015601980577210904, -0.017312970263791003, 0.04701639123324095, -0.03826700330551046, 0.03954509538027226, -0.005293980930155733, 0.062214569541959794, 0.004332244349761415, 0.041200056900460115, 0.031783826154689825, 0.0030773196278938335, -0.024314214700032845, 0.001328008802554531, 0.004601274486267775, 0.07836746057366392, -0.0017554542770815752, 0.05043674452028207, -0.05146350636352219, -0.01667448898106035, 0.05111810064774625, -0.051124758926911915, -0.006170031568859598, 0.07293707129964713, -0.00206044661000708, 0.04515291851403541, 0.0021352945887639905, 0.004793658543629975, -0.042468247053162364, -0.059785566009831634, -0.052345088574869275, -0.05673509943284165, -0.025350067735110626, -0.02994332189990996, -0.022692863409707865, -0.013127433150926479, -0.07041098119002255, -0.018243459022576222, -0.03339632150295496, 0.014405380602990948, -0.02940729253639181, -0.0009107669717054449, -0.015980374337380462, 0.048590625924420365, 0.06607024294101631, -0.007745263727417223, -0.012585140680786304, -0.03238477103092542, -0.013673914409033415, -0.023777671747142515, 0.04336117836628913, -0.0006708004437715659, -0.049902437209435255, -0.01262739073271326, -0.1323237475319002, -0.10004309936442522, -0.015062059617996957, -0.07571574600514464, -0.03913958507930176, -0.024368475385021644, -0.12875940353766954, -0.11391592130954684, -0.19620911180473027, -0.1188448315382386, -0.03971668569565842, -0.03777473244576721, -0.013960743141809612, -0.0070941771486943495, -0.052511631407792185, -0.04253794467472924, -0.0022078925862523595, 0.014314249174131004, 0.019135976662281805, 0.00561313793430526, -0.004240370617769833, 0.005518372361737331, -0.0012747553669632471, -0.03431718079419905, -0.03695612224590559, -0.03723831780630086, -0.04663426481891324, 0.004217497851420605, 0.019582106946827788, -0.16758197319781304, -0.13951744100067054, -0.081857977767915, -0.20825943894530466, -0.38999080816425113, -0.5197314742365998, -0.4656176355308111, -0.36998931761731074, -0.14539022208487604, -0.09415766494282887, -0.04667508987513021, -0.03425947468138288, 0.11100995698348126, 0.06471340553994381, -0.011718106874493057, -0.0051982285038007486, 0.016686968202984202, -0.051843745008035264, 0.005209289617500542, -0.0011755430704038458, -0.03335988941664386, -0.013007831674399511, -0.01712101004359895, -0.0384212360108224, 0.08981052718327902, 0.040637240416960076, 0.09577086452758558, 0.09681629133083303, 0.0793480238644869, 0.20514280549981456, 0.2175418311905259, 0.23396036500828618, 0.06433169130972032, -0.24176277373507207, -0.5548911228022996, -0.19023662650435477, -0.45291074623692995, -0.2666855088104736, -0.06494970144221687, 0.11921838672260113, 0.18414511178962953, 0.2392424918444556, 0.24244581538725193, 0.192992175167562, 0.07099375223026426, 0.04092343115042963, 0.030108455015944214, 0.006246297912053958, -0.029627825894449077, -0.0189157273786239, 0.0030522671918968318, 0.022793048842804753, 0.04156001647886918, 0.025270358012217237, 0.17332759550502988, 0.04026175294381742, -0.024455656387535534, 0.0500065430294199, -0.10447046228292485, 0.4080904227197854, -0.2145877601171578, -0.1616250380142362, -0.05660926425310164, -0.28102952032725564, -1.0054877777694446, -0.8449299083347556, -0.19952658650293628, 0.3499074255098562, 0.24927991871064922, 0.3837352468826962, 0.41037432520739237, 0.19067612644960216, 0.05015674785592555, -0.06672308868416474, -0.008452264236095072, -0.023999827703982766, -0.01848281939182622, 0.010809152039331254, 0.008547998844500472, 0.04072036312223181, 0.06657393263769043, 0.08087636584633363, -0.0014146982904828017, 0.010114962600219334, 0.09300695433668976, 0.00012213466370575508, -0.17557847465477042, 0.22536674801825937, 0.1840795605998588, 0.11520320492165463, 0.05142829852112921, -0.8028298518763393, -1.3873287566043042, -1.289172602484671, -0.13287114591116983, 0.2503591085480135, 0.47593597144812305, 0.6615360232571376, 0.7293293840615886, 0.19533461119518458, 0.09118257278399144, -0.04882514503601917, 0.00800441589378751, 0.04476206295408191, 0.026186993974962238, 0.006580815751054827, 0.06189773649443693, 0.027965239331345017, 0.12199409726512322, -0.1021573273705204, 0.11892175908174088, 0.16240473064852223, 0.3196179084096414, 0.09307879825869872, 0.22148265725947625, 0.21974963422808946, 0.32605343028923484, 0.47256941328642865, -0.31132024966811944, -1.1645587289406802, -1.5087379369796812, -0.7314439716185963, -0.22211795135220772, -0.019433842956994463, 0.11253895407688103, 0.2585744614737405, 0.518091526401188, 0.25771306604716393, 0.10576306106609033, 0.04200460609484034, -0.005948740420483913, 0.019056429695404532, 0.04282228963353772, 0.04491942683380485, 0.024441151167582522, 0.010586014538967958, 0.0037438128962697208, -0.11078443902115781, 0.14726153524599842, 0.00042120685219965354, -0.12294601706547723, -0.1164214671588881, -0.04350107362483342, 0.6178899012857196, 0.5565247176152835, 0.5661436670315763, -0.12589573616113245, -1.5716176136965636, -1.269544761510817, -0.12232809733799922, 0.2245015383380358, 0.38489511099630247, 0.039881398791051875, 0.21252865043321947, 0.025023187598486315, 0.11918822575837215, 0.20999129055873933, 0.0812458600337472, -0.007354353527746669, -0.03138453347224295, 0.05995130476233011, -0.015222584382085588, -0.008965595939188635, 0.028963771305769475, -0.011326354424915794, -0.07245127701242086, 0.06999329236884665, 0.045702175854742066, -0.17245646346140783, -0.31503600524234004, 0.012881490757157943, 0.21782596854158975, 0.41857750322211823, 0.4956235919800533, -0.6944967454872687, -1.3204382494253948, -0.6508750985299487, 0.4306754382588692, 0.4444181941720215, 0.44812746992367236, 0.22237128274236978, -0.11201852868679606, 0.036554598125891735, 0.04749686381452683, 0.09714186387794672, -0.06762571458649955, -0.02339183379773914, -0.018394505293112567, 0.003797903774046529, 0.0002183540963944139, -0.04408979889364809, -0.04567983460621317, 0.03530442067018122, -0.07528662916798953, -0.06812418432143204, -0.023657296191989887, -0.20705416190828668, -0.12162201635197063, 0.15649309596992264, 0.2499213409633382, 0.6093682779330617, 0.08276723420435304, -1.2036603589735297, -1.1322084975901303, -0.06143472317635606, 0.605138400646048, 0.39599248793308733, 0.15234365877509598, 0.10535438513085307, 0.07158850636064408, 0.004621374255598873, -0.01736460023832799, -0.006476962114011901, -0.01707734529248901, -0.01843490761973635, -0.03559515250354171, -0.027752409198240322, -0.0823810448430049, -0.03815219516192474, 0.13635992161429566, 0.035114142745466474, -0.16742336679585787, -0.20546729285009263, 0.04354961977994038, -0.20580494887498083, -0.1178432193735073, 0.12839713234314618, 0.3919418012751816, 0.4596778272400508, -0.2158749874617265, -1.053167445343265, -0.9862223158880647, -0.11349287769673355, 0.2795174249927665, -0.0324670771983333, -0.1724275720476432, -0.06667413774145976, 0.12226324011905923, 0.13415034136899104, 0.06913212051657829, 0.03703018701970069, 0.04731427780194705, -0.0024927733212401068, -0.00641745901084792, -0.003090442884734377, 0.014185485983015337, -0.06498631795634163, 0.01896192661169122, -0.09578868732334413, -0.20857674771615753, -0.17337723965246643, -0.038170121731252456, -0.3026311817136219, -0.23378515901304503, -0.25357792099303306, 0.4203719463709389, 0.6123293824631518, -0.009402349735596234, -0.3934711907742105, -0.5124498343916054, 0.22408690258123543, 0.10393232814402618, 0.08467148762154669, 0.11762823484299825, 0.2910126164275396, 0.443652773359917, 0.0019043418244013143, 0.08263498934914117, 0.04814297179358444, -0.021780357701848416, -0.019897558652468717, -0.0065322199946260505, -0.04515167003826403, -0.04419480273532367, -0.029499357374520536, -0.08361318367836422, -0.06916437385863114, -0.1590677057359373, -0.11499125765594553, 0.11321292369883001, 0.11972590218815579, 0.04707117360792761, -0.09317983985326046, 0.05403364277159246, 0.11078529135851577, -0.14537499785451938, -0.27507028006814904, -0.09683264808738377, 0.43069489331609884, 0.5891186151728268, 0.21955005989135754, 0.43592527644944307, -0.047092422317336124, -0.010691612586655982, -0.21168628946587548, -0.21302514290550673, -0.15587199341957064, -0.07098121455622936, 0.003345550552892258, -0.04334182039236185, -0.034538050500293835, -0.02677428174877171, -0.027058650459192393, -0.04934101428179386, 0.10575750354560429, -0.082767079907215, -0.0019370233428812028, 0.03854186207761889, -0.050798546736875415, -0.03750864604105305, -0.21363180850580119, 0.13172696179657842, 0.03398305093086931, -0.06338730789089832, -0.2845906135728479, 0.11272901851813852, 0.4648909531320411, 0.3320149629372901, 0.23109547158008129, 0.07785174496850118, -0.03348352550249794, -0.12298880578274944, -0.21994667782803937, -0.2047758942553573, -0.20062866707846547, 0.016979186020235428, 0.013535663180282528, -0.03142636749000855, -0.019418148308536807, 0.03666982837081922, 0.09070517970487028, 0.033693837669617636, -0.12308754223627187, -0.09983449686872498, -0.12239359527341086, 0.026724386365890737, 0.06196395208922336, 0.02021529388965447, -0.2310411214439632, -0.21058117178486685, 0.09192789229842838, 0.04214071191558672, -0.02746768971504774, 0.28482294134827707, -0.040632735377755407, -0.13942017121985584, 0.030509091270871008, -0.179748338625636, -0.0276234383759284, 0.07319413648379508, -0.06084281552055379, -0.2349639691554182, -0.13316966339515662, -0.09590753165943194, -0.011621422988031626, -0.038820919646593864, -0.049485534409238884, -0.00958872437693044, 0.028303354028862755, -0.055791360822977996, -0.24947297079586217, -0.22746055604433058, 0.11522706705069281, 0.17088553465604425, -0.054408321529088775, -0.007849001554216696, 0.05790051819775187, 0.177970578587202, 0.2696236066502934, -0.09560379356365041, -0.14354295308552215, -0.235955958460027, -0.3880515897535364, -0.26960515277712965, -0.28344434457701106, -0.16004437862967807, 0.12708156150907368, 0.1529589947016452, 0.05402607033976965, -0.09236484356845859, -0.11561964657379628, -0.07616173145073517, -0.01701300001089016, -0.028477841079155238, -0.029849821406934603, 0.07294610288846426, -0.014381266119489092, -0.017327658924655747, -0.1284152400200967, 0.027190608107469, 0.264043161455077, 0.23209691407382788, -0.0073640498896094765, -0.2633725853307648, 0.09185307545970404, 0.24872353842601114, 0.027798926342891668, -0.11417404568121627, -0.3884385937957707, -0.2941506738730094, -0.35924237766809225, -0.14143241611355278, -0.15556916321880881, -0.17602226252172748, 0.22239676414460868, 0.10120184989419981, 0.04355646477727506, -0.11739931573983052, -0.04894516576267674, -0.010632078195246067, 0.013505872464646327, 0.007524868691887169, 0.019148804361240276, -0.008106330290028142, -0.001553134962546673, -0.0974519201630617, -0.09241144949615501, 0.09282878382078705, 0.07465779199193998, 0.2509787567951651, -0.10523668689066455, -0.2617730870531836, 0.2541945848632426, 0.2708540107296588, -0.051235989050547937, 0.005019672787745372, -0.36882614137287145, -0.3267940116008974, -0.24351621761811434, -0.08087269994036218, 0.13637927420716148, 0.22224062057904329, 0.13381307920906277, -0.030045100146143918, -0.07842739682174671, 0.02871040232112568, -0.05092952156398522, -0.061427657785377066, -0.015649184048315692, 0.05651173027180838, -0.04692806518485334, -0.015554012151273715, -0.009340019427343771, 0.06883533131380021, 0.0015252012448646341, -0.14606400793118796, -0.006505076078100324, 0.12078088956068381, 0.06800796640320804, -0.2911138241309234, -0.16712533148159078, 0.01058368084498442, 0.005992735252262373, -0.04831014221653532, -0.04495337921294943, -0.2281685569104409, -0.02638018416369368, 0.18897525403928725, -0.020277843638757388, -0.04535502422062449, 0.07701105933608274, 0.022953900937164918, 0.0326127757306013, 0.04802649277161181, -0.04146660294675746, -0.017569090307679936, 0.0017863273254101323, 0.012298605004685137, -0.0070532728843411465, -0.0012692452540129936, -0.05893949777346925, 0.08490716228877808, 0.06978614629616132, -0.0569784024841569, -0.03733843006800789, -0.183916968803197, -0.11031638822118774, -0.40320044652759174, -0.3141413974433777, 0.07193772465940479, -0.026475556019580872, 0.22461464367185963, -0.10462010420443695, 0.12642884987370567, -0.26707098363674325, -0.20459452615263177, 0.018678308818406132, -0.011109310145078075, 0.07975372920325985, 0.02434554699010446, 0.095786464239977, 0.025714364779616288, -0.03290768514087935, 0.057491436191921146, -0.043559116074275595, -0.00597784287041156, 0.004346552789320493, 0.009373288616437218, -0.03964332585610678, 0.04390960634152275, -0.056838572065966354, -0.1974664784526454, -0.1001931009506686, -0.22981935125438477, -0.20433996865116397, -0.24640282945351705, 0.11591177398063726, 0.1240749680426666, -0.08906727206680262, 0.10880804685721686, 0.3768131273040356, 0.05242891419652605, -0.4593209718955055, -0.18354391852225335, 0.1017293860597606, 0.18001886181853474, -0.025419317287396735, -0.04162406926688099, 0.1454455990320765, -0.026760378078795295, -0.056461196316858135, 0.005167402785446259, -0.022986282618365238, -0.10268095312169516, -0.02961093250798291, -0.023220109855775533, -0.10202427040083412, -0.05754985701641651, -0.03829604797339453, -0.12196046733647668, -0.09837243858122854, -0.14076428655316645, -0.159262181802921, -0.06045997441534499, 0.35474017813546116, 0.2005752917069832, -0.06596833441289296, -0.04582579432323455, -0.06634562760763763, -0.10585053090413184, -0.4625934067882564, -0.10676434145761958, 0.18641783451166805, 0.10742289858602516, -0.01678724573298457, 0.020106887343829715, 0.04162495164849021, -0.059148475847552395, -0.03985071092181868, -0.013115887581453295, -0.03049747404771775, -0.014012896123515858, -0.03381927822200949, 0.011552191511276002, 0.03055508549883653, -0.02661622740375437, -0.04025415769326294, -0.01730159490779838, -0.12022338561866057, 0.015304407988272643, 0.08030596108674476, 0.07091956461756908, 0.2336054423457866, 0.13614373749723577, 0.0005666811318464791, 0.2021184072659039, 0.17325098536056582, 0.13427528249066495, -0.22651652335793018, -0.22579572833259046, 0.06288497014720135, -0.1456285415193845, -0.06032159197139582, -0.02966735069223207, 0.015854372598077874, -0.10405464050124724, -0.06180648288191666, -0.008664554274105934, -0.0006529562313947827, 0.011509622986905046, -0.05265372119387739, 0.012874880547576179, 0.026805011553387048, 0.024744350984823006, -0.08502206777333839, -0.0353733558902772, -0.18504414418977844, -0.2179308635276831, -0.09095649947657955, -0.03344136284151346, 0.3547464869069325, -0.08211931465787492, -0.154657263447544, 0.25249021698526025, 0.10638171729151344, 0.14499621453136163, -0.1292871106109975, -0.33302630522300564, -0.16573115970502947, -0.173365490394953, -0.15392263095279715, 0.020734031041995615, 0.06605376790082058, 0.03220817391906143, -0.012661833815682793, -0.048339272563703746, 0.013657356690897477, -0.024992658426901532, 0.004846641659633866, -0.014625330726953637, 0.01614675300779715, -0.052685484074356824, -0.14348023743267574, -0.1440028018157224, -0.1737303703219836, -0.054087698688826694, -0.2037662619468668, -0.13301592097012188, -0.09229725950874954, -0.051724956047942576, 0.10617935207035324, 0.14534215694222005, 0.19932192975023616, 0.15780081679154645, -0.061665266726760024, -0.04001382852248027, -0.15495695253789757, -0.30170980016618165, -0.19502553585168192, -0.01666043494313089, 0.04115127429045563, 0.04485840609581219, -0.010681516992549843, -0.056241246939260914, -0.057577015773181396, 0.02015201127919458, -0.03311990414860388, -0.0024604930903431377, 0.01079823493982656, -0.03462993693418808, -0.11684364037155369, -0.1571702063468881, -0.11946634311367342, -0.13093290578320319, -0.03415992945504853, -0.2710390789066204, -0.14964964552413118, -0.14706516188412044, -0.140798035693166, -0.33767715569930284, -0.19875882019259727, -0.07019337865336507, -0.08180256016898732, -0.11495978228111312, -0.13333139584869727, -0.22781889430727603, -0.13600813302790357, -0.0829780318348091, 0.05645748744011545, -0.003413755424752959, -0.006754795430100367, 0.011860862324435643, 0.0057009835928824365, -0.013340332194225812, -0.007722288035387495, -0.057620378515077696, -0.0014834180959812752, 0.025335482439709792, 0.004877853542117807, -0.07395280235629044, -0.08484490933452586, -0.031198261394263616, 0.04884017326030295, -0.12170476655315644, -0.11183964271455492, 0.012114781621135957, 0.05168854892841385, -0.04818315087614351, -0.050384691236343496, -0.0067069006989078665, -0.040970990020226083, 0.003420175575102844, -0.023002033262300846, -0.03250312583098812, -0.007070343363704822, -0.021551066938558093, 0.0027553641775845098, -0.015969377378370866, 0.026221367940075808, -0.026167628268004266, -0.024941981550554732], [-0.047575779335792476, -0.027805626383857397, -0.00817319301791071, -0.009321706932294003, -0.03126355383312679, -0.01506449575971604, -0.03577452156100478, -0.013596233490758641, -0.02113526486184578, -0.0024472896123114577, -0.03217685695048358, -0.011063617107077076, 4.569309036360697e-05, 0.005927622856476692, 0.06629944543632448, 0.0374152177832449, 0.005232014601857009, 0.0022909298943660237, -0.018100487244495832, -0.016598661494342016, -0.0059063766006901275, -0.04987426957338608, -0.023001367298510492, 0.006716364059863541, 0.0055115586364613755, 0.010133812171456256, 0.009179659072154917, 0.00747427696734364, -0.017391730008704052, 0.02183071232658255, -0.0005774745706823794, 0.04745272258986224, -0.03251680312781141, -0.014708720615386903, -0.009874588232342288, 0.022745950936165004, -0.01300350819572375, -0.04798525632619423, -0.00829935841904942, -0.015136608350668391, -0.05079386942759608, -0.007092077813908419, -0.09999335224975678, -0.038629490050780126, -0.027679475187999313, -0.0002731991998589202, 0.06880931544835256, 0.024755677191986524, -0.0034734925186677007, -0.008496920055398718, 3.821984349859679e-05, 0.02575855528407805, -0.019228130104746374, 0.009537196914724664, -0.005487669552159609, 0.0003679123307574923, -0.030882924455572783, -0.0108020994654114, 0.0167331274243636, 0.03254165254783171, 0.005431991570392087, 0.013344614412754394, 0.027924661559639862, -0.02986873581985421, -0.03579431394591582, 0.04633506810222764, 0.07330591780599056, 0.09365952995431746, 0.05716596100594275, -0.014103278268144755, -0.11097458658010523, -0.08769837628220631, 0.061783726164259783, 0.00736219400645772, 0.13389967419259563, 0.06675229539319275, 0.1057594541473101, 0.051393872969944465, -0.047228667087977204, 0.0017038117065301345, 0.007868328232513955, -0.016554423033799094, -0.03138989375218916, 0.01823103154279684, -0.023076131962047657, 0.026781893551805658, -0.021893105241337096, -0.05529485924996011, -0.014402936108514473, 0.04191523089134152, -0.01466703117885917, 0.12065224690909239, 0.14471247284783875, 0.19311640599588922, 0.34589803144935505, 0.4720651713341247, 0.552914516832206, 0.5586004729505507, 0.48029560371458163, 0.44767752256764776, 0.3977956261311453, 0.1479357110277454, 0.15206875364049446, -0.0011181726810928355, -0.009876747714060065, -0.08066531410166028, -0.05948194536083587, -0.06006396493881004, -0.05311555137517951, 0.08128470220832282, 0.027727074992117132, -0.016245039545252544, -0.0075420375351695984, 0.019005629524249154, -0.0472847202680923, 0.002647676152852591, -0.04545923224848781, 0.07713495341709924, 0.27337581143691264, 0.3740222996036061, 0.2503438330581218, 0.48881395409437933, 0.4994876795915259, 0.5247443050754218, 0.5864622493812519, 0.3911500555860231, 0.32511564136818416, 0.2287374575325802, 0.10296642356691375, 0.03716209841994538, 0.40346933515186156, 0.12593740215072396, -0.12772469502366135, -0.050793571192669605, 0.11410225099119935, 0.103105888266563, 0.20202287943374117, 0.04795924317756169, 0.011886925208015644, 0.0385000946090486, 0.03292288573447232, 0.02245215183043579, -0.003755382066434905, -0.0011168909271352015, -0.014404894313808352, 0.247304476642497, 0.3281239423780193, 0.37457866005797275, 0.26086114696074764, 0.07433529285656162, 0.6115192043841932, 0.46235420968509516, 0.44921744682243575, 0.3317095841989133, 0.024091807497439607, -0.2567799361381843, 0.5087143102156626, 0.22222145603596694, 0.01804140540888627, 0.005263080974153627, 0.26833653317256534, 0.09905645960748359, 0.26759905003739787, 0.3080774695938494, 0.13592334240951093, 0.09143714729804926, 0.01661889436323471, 0.024099340225117897, -0.016673285262382105, -0.027415954224850957, 0.014704976516962754, -0.0002822078291862628, 0.08330943466153304, 0.15186741645638915, 0.4328418604894582, 0.15569623068989014, 0.1534525918641624, 0.12907336818994805, 0.3927540385553551, 0.43147359748233965, 0.3965289117995137, 0.4782706143193993, 0.5555604241103641, -0.16274446150336494, 0.09465304791586379, -0.02528612118122756, -0.0013180726009322957, 0.005893963182993825, -0.044923664944159544, 0.07294346730559528, 0.3364123331038263, 0.513278547641164, 0.27604995310315306, 0.14609994113621497, -0.02044265108568099, -0.014326833783701025, 0.014016177050677344, 0.0013379556601438877, 0.07238690413514909, 0.11619286140186244, 0.15986837418710576, 0.29849638281564794, 0.4125700999731014, 0.2754344147214942, 0.4850913736087438, 0.3134674056557782, 0.21116374066512156, 0.38396363361951036, 0.3610750204778974, 0.2087488066934298, 0.3391434198131719, 0.10417575449042493, 0.26863570991756547, 0.053417990611405994, 0.13809466678190624, 0.25112919253461624, -0.27457590837650087, -0.3071391792867967, 0.0870174419672981, 0.07091292188660522, 0.047632472573480834, 0.15448680804591397, 0.11446569147906617, -0.01586032765516869, -0.013538380216722514, 0.008941424911179684, 0.012767772907147907, 0.05789818748622809, 0.34181582474234035, 0.22911026851621186, -0.07487735099568688, 0.040628389060208055, 0.23041593780092479, -0.03695877139339372, -0.16319991263489117, -0.38719841395714627, -0.0593527837281157, -0.40967178189106085, 0.09661378587008441, -0.2542467295241919, -0.4480485212849686, -0.21357182141201078, -0.04585257484761867, -0.018620089070551724, -0.2004229411738214, -0.3628604833806335, -0.15474180613811228, -0.033007772587044376, 0.019688079973834535, 0.01893175432053129, -0.04489349342878839, 0.008076767506123255, -0.005890600483935829, 0.03723552286170232, 0.09353624284010632, 0.15820478588807696, 0.21540361010999837, 0.13204026623937803, -0.39688857777911263, -0.4076008154390631, -0.13847926926696258, -0.537837622120524, -0.9741879423029332, -0.9851357833432397, -0.39476628701310906, -0.9610428897020643, -0.9200701796992752, -0.11153459050215803, -0.018848872269184403, -0.19489815560898982, -0.3408114475768453, -0.3712915023926755, -0.35086116193046035, -0.4433586831714495, -0.3300548363232426, -0.22085371993110656, -0.1253390068768398, 0.011969468266708713, 0.021348369890487797, -0.016941790248448576, -0.025678419967740788, -0.019092536737402847, 0.08836513526836826, 0.039218239186311586, 0.10064671707310645, -0.025206982786523894, -0.567926984748932, -0.7488362265934863, -0.8241747566972855, -1.1479841898742849, -1.2765234339175846, -0.8805329239384225, -0.6076016506672915, -0.5771451176387429, -0.9523200901897645, -0.4031525390898792, -0.19170898427184418, -0.03760956443031948, -0.42891218178891516, -0.9180938659611939, -0.3526759042493876, -0.37433930790354286, -0.25554933565877885, -0.2551597110858837, -0.13809920706983395, 0.04825754312588498, 0.054033199979208024, 0.017961023377797463, -0.025537969709987767, 0.048941554249557595, -0.08283443950721277, 0.005697893340891977, 0.02150534353906876, -0.2267580429491652, -0.49090039641582445, -0.7648234886932178, -1.0113233636216892, -1.3537823575152732, -0.8407706260697297, -0.3280452177545926, 0.30965617868444656, -0.1798183688400473, 0.08213952266634547, -0.41338753688787033, -0.755121960171741, -0.15063727648986497, -0.3296988045861891, -0.5944127493380279, -0.40102061806691736, -0.5024543228021008, -0.4288607225707708, -0.3492492835558484, -0.12314686710045103, 0.06365092225026169, 0.027721228837628602, -0.034739045931965966, 0.007689911006253211, -0.012062402034394501, -0.01516437263242916, -0.10178910427597321, -0.017099990027927763, -0.23135270364015545, -0.36730033891925673, -0.4045864332019773, -0.269546511864279, -0.5007584406358674, 0.42671813957689797, 0.34209376764667326, 0.7097059950188058, 0.23837177412841312, 0.20780661971957357, -0.24310869632116533, -0.252666610584967, -0.1329405166261323, -0.251253464883019, -0.47961880243670274, -0.47131751649772585, -0.5331575779745412, -0.6585291720853984, -0.5165637098040609, -0.2832640008587881, -0.055594253712989546, -0.04866225390230965, 0.05118136581393265, -0.03251637262495101, -0.009021328375316363, 0.03730123163472736, -0.09376681576195077, -0.030382970735018944, 0.06064059521908457, -0.2925498056086518, -0.10245931847846651, 0.09234492911356745, 0.12955761674824268, 0.9507318777603685, 0.3946263047404074, -0.09916905164812716, 0.2985996001642798, 0.3997876551698633, -0.41040961107589763, -0.07520311454727363, -0.1512560763002415, -0.27882807407405485, -0.35700752457094964, -0.20582346522581324, -0.35067185492989106, -0.4020805185333211, -0.5957305303133277, -0.3540786546095615, -0.07936102193829529, 0.050380300598979404, 0.00012703701626549672, 0.008865485359080024, 0.013064249603656528, 0.04752416377267458, -0.018312695728610676, 0.0964284970251279, -0.031996284964081224, -0.1748563584170901, -0.1776720234969698, -0.049688040343653414, 0.08454378650903661, 0.04762618717321256, -0.3091840755872033, -0.4638452102121684, -0.2687293138232193, 0.11781555263190155, 0.09416524232732633, -0.40262589463996706, -0.43236934854255404, -0.3694642760127447, -0.3182291690014095, 0.09338527835648283, 0.12809352174983216, -0.29191546918982586, -0.24302309660772498, -0.3007450937976973, -0.045850007844333865, 0.11575103880396258, -0.0032462572701532273, -0.0233756022088018, -0.04702992882325684, 0.005800662100782482, -0.03408165278764036, 0.09888873634408495, -0.05542845845382466, -0.13240322231376053, -0.6274598428787429, -0.7540306731145909, -0.5540407463663186, -0.4076147057767754, -0.38605756511098366, -0.3659609866439965, -0.13587709661545677, -0.3680141319117926, 0.37225508129549073, 0.050610150908151436, -0.5063945524026031, -0.24058402611531496, 0.19185127781625777, 0.19464329271692568, 0.3622975396128331, 0.03911640551508219, -0.09090299520627322, -0.07083799970501557, -0.025612458505714693, 0.1400540824353575, -0.03823159633243816, -0.0031064840902266357, 0.002792746993608475, 0.014091196047519574, 0.027753687443257874, 0.03142745522456992, -0.1816640738878416, -0.5506661561162157, -0.8457219439015256, -1.3168080830302475, -0.9001245969580814, -0.7033440787199663, -0.6991319465553056, -0.16417399498798116, -0.21509984092883133, -0.47993428068231164, -0.04076710753186239, -0.2659410498568525, -0.1812062187957973, 0.2842040900720601, 0.5228528652090417, 0.15061722076444042, 0.06991042492919292, 0.23510211037064563, 0.21178068032314773, 0.06237069231438948, 0.10853026197635188, 0.032091174124043095, 0.018680125463547533, 0.042593098161901204, 0.004958518266794871, 0.016596154567717646, 0.05233012305571331, 0.105158387667411, -0.19247231103511478, -0.3617219749611612, -0.5852694334859478, -0.6255638486200977, -0.8409684575562666, -1.0548707967388498, -0.9538103142737542, -0.9447396132610828, -0.4946041781936482, -0.1750901450957513, -0.27266279071072536, -0.5028932979879163, -0.3632580003504878, -0.07106415506245006, 0.20424094532206022, -0.18063160011463997, -0.39068666391250617, -0.5562681321607341, -0.15532349584122448, -0.10264328425067669, 0.12433548001269136, 0.02024024808653998, 0.03296674350117934, 0.02737381435867936, -0.020283044768037016, 0.020753560452385543, 0.11559224344786063, 0.2249370270817409, -0.017615649828238628, -0.09218813432994954, 0.04940709601191043, -0.0156536249172064, -0.08532750161636234, -0.023126699651679142, -0.5698852609218983, -0.8373509771592297, -0.2755129944273123, -0.25167341250291286, 0.13136008491378445, 0.35666648318699484, -0.027950151593486322, -0.14380180513847365, -0.08026694871618303, -0.0439323015652698, 0.0770256890902997, -0.07664095432762362, 0.15471064292101547, 0.11111024573426888, 0.17931067615879945, 0.029779007250374464, 0.05760976175968637, -0.010753003314911965, 0.022939024150572244, 0.010961302977794756, 0.10165317392591937, 0.20789005015629725, 0.09471040988583124, 0.20001452628050298, 0.17804668713246127, 0.3267745650604281, 0.20310893763317608, 0.03174362973680567, 0.1994127214144496, 0.1815476222149037, 0.6820824172187961, 0.6252799571941474, 0.4594439111421633, 0.5454778733168485, 0.3215417767134886, 0.041792727932044735, -0.11476956715231967, 0.4227063246026286, 0.3352419475278527, -0.0023611468839148777, 0.16451145456410626, 0.09230292909327752, 0.0649720815156033, -0.026336482679457957, -0.016365932342399706, -0.001714745566640012, -0.05404247101292963, 0.02678978738599028, 0.21459748390056338, 0.08754603267033693, -0.019753754791824202, 0.38394315279056696, 0.5016490554195463, 0.49514469765715, 0.5005555588341294, 0.4560055233717416, 0.8697507684491139, 0.8405305168609304, 0.3703757211958254, 0.38646362920166705, 0.3832616588564316, 0.6976382065837383, 0.6078402598113949, 0.10877306146650442, -0.01548140201324286, 0.19748449668961152, 0.22171731063600952, 0.5260026134789271, 0.1611287706853316, 0.027296808216329096, 0.050471769910292855, 0.01734528119556549, -0.015475611999217626, 0.01949327193550253, -0.00026935735530639505, 0.08565135857215539, 0.1480597931444892, 0.1745784517368946, 0.03443775692017462, 0.3062976994825985, 0.9669368692358501, 0.6578110525671469, 0.6005709080456405, 0.9321116760925104, 0.6079691387212565, 0.493058750143213, 0.0363721206970792, -0.07804023710602347, 0.20815046533335174, 0.27423453016101723, 0.5578293331320174, 0.30069440023664695, 0.3524823901847146, 0.26027504607232, 0.10553552660724054, 0.3310159845287889, 0.3686151557701965, 0.050487941423881785, 0.0442623198531553, -0.0425906916094126, -0.008673227467293255, -0.025977973541695894, -0.004406721367915263, 0.010460244846579557, -0.032042314301186085, 0.19693012901624882, 0.03584534797887249, 0.06008771540064252, 0.2610312460314817, 0.19667739689891317, 0.4484775777080117, 0.3419852614528193, 0.13953935521907818, -0.13274280735792468, -0.21429846980763306, 0.05731002865286513, 0.05526218268736155, 0.08282800214966493, 0.0592866857791318, 0.20049465659567633, 0.32397598580324904, 0.33402780565282614, 0.16435507700110635, 0.24597971447078548, 0.40982119469588507, 0.15558373571183756, 0.07209268054500388, 0.04619168465284639, 0.01637732470793933, 0.023894087641761985, -0.0008736276239799744, 0.05464662540559065, 0.033759452971250985, 0.06642398140718707, 0.1760058548133707, -0.031064237942582135, -0.10751214418549301, 0.08970488167739102, 0.30234973809484955, 0.22318944456506723, 0.357478864932599, -0.3044102601638825, -0.06164973217174253, -0.08636001925791421, 0.03569688356989123, -0.08544954941447516, -0.1821927076161461, 0.07838920864833214, 0.11894930969293296, 0.2549404771386411, 0.31887219275865036, 0.3311037349296176, 0.22984937265921548, 0.19809051038770475, 0.05863015277814513, -0.052016898056142964, -0.012762564826890158, -0.016069894049095628, 0.05848099277520262, -0.014752246623902865, 0.04031517812740037, 0.07407565479186749, 0.06010485536722206, -0.019725922243898103, -0.05590271508295819, -0.02360458293547063, -0.03340717850735297, 0.11272544758511044, 0.3918731640577088, 0.055937379709376595, 0.2880615600713767, 0.4128190671503467, -0.011561872978168661, -0.049552663264959204, 0.25472405199076265, 0.315624466137198, -0.10511377291517211, -0.15481781609977915, -0.11548247373589453, 0.1060680119426809, 0.0711708207411482, 0.14575879468594416, 0.028244586959736338, -0.058949989893410486, -0.004581294229006542, 0.07087736307610412, 0.025652196834364732, 0.04751411203966341, 0.02865606746799518, -0.11283522152505762, -0.02199114660830766, -0.02915492039924255, 0.0025988681320092627, 0.0009147403932058028, 0.034388527250380545, 0.1740572122533483, 0.04481349595524769, 0.20882566066700184, 0.2633367200253253, -0.05861025276087441, -0.02435723245548945, 0.163769443429937, 0.22930683744318328, 0.27341325384220266, 0.13727029325252083, -0.04576686729684951, 0.008455638565041921, -0.024671281701951667, -0.009658076168862897, 0.0030980456876912098, 0.01074571340964787, 0.022775056504391895, -0.00990614308778095, -0.09145082169381519, -0.015522724694041597, 0.021772043087555554, -0.033876784846599, 0.02445960529328634, 0.006956758242141646, 0.025746550192473055, -0.006649696413102748, -0.027046679996740555, -0.02796901588046224, -0.030555924779370455, -0.07215574069621641, 0.03603763941253716, 0.04679141708182022, -0.03734548195843661, 0.012967117856902303, -0.06049567748426314, -0.05515467955091034, -0.019058962639896843, 0.023036192361919044, -0.009673682149175414, -0.00764637530725869, -0.004832388142793554, 0.014387171318198794, -0.0558542422673774, -0.00883861370639061, 0.010566353026469242, 0.06269263814693989, 0.02648559913404659, -0.0021100868303879647, -0.013223681070959488, 0.041097928774326414, -0.034935529581164367, -0.01952871424929764, -0.05341929936652638, -0.014545892721102526, -0.04611433902001042, -0.02617783040503697, -0.0130753809354169, 0.028871851878397504, -0.040335752300526294, -0.006962486499406499, -0.015008607855923605, 0.05676022410470753, -0.008424304934432332, -0.053500818783206415, 0.0006552359032481645, 0.02223697744748139, 0.007359522186215896, -0.01989889167309884, -0.009498604142455354, 0.020227236740726205, 0.09086049685543209, -0.008333097711911689, 0.047600998377192366, -0.060397453042375676], [-0.049117220899330155, 0.02719855091537857, 0.0245591338995503, -0.014074107009927379, 0.008768255706909431, 0.02788945760004276, 0.049959558404838476, -0.02560008029534657, 0.05091688295709156, 0.023186844916341088, 0.023574510523315485, 0.034658873273383586, 0.007899147156651768, -0.02254433083772059, 0.022278319064238154, -0.021870654630419085, 0.00582866479898685, -0.010522228706497418, -0.031928659044767695, 0.029732192004361124, 0.013762839689937998, 0.00542911045353, 0.0015167993967499657, 0.036086360460220505, 0.03216161475699043, 0.019426391707835028, 0.020015057152110906, -0.01753093974693846, -0.029738068711884374, 0.003999882637771948, -0.01683049707651062, 0.03040811600895963, 0.005191980250049044, -0.06649776500807576, -0.006109022277583242, 0.002611591185630715, 0.027241066938183237, 0.025686412677277892, -0.009734936991404276, 0.0094261522453915, -0.0055293434496179236, 0.015942596421397687, 0.0025914584626504007, 0.012827820911087886, 0.023565896482103648, -0.006020043222617386, 0.010190904160046524, 0.07459448121435255, 0.021803121907815963, -0.02996188036535048, 0.02854394748362846, -0.03648663498533781, 0.013530951605608977, -0.016111467211483696, 0.02243209788001537, -0.013475123818663554, -0.013298410112515488, -0.049196345295540886, -0.0009651115546766651, -0.04109534949841488, 0.020076847644158558, -0.05398124287158553, -0.02082039477204426, 0.04056428568602539, 0.06300875790982616, 0.013776458785213656, -0.020005308724587154, -0.05674862073418232, -0.031947229650615534, -0.0912495264032962, -0.04384204709345312, -0.009459811743862031, -0.002324774205710899, -0.018087421552837487, -0.0009136091278875793, -0.02360971552066188, -0.009514893349404988, 0.021618753356344726, 0.033752140879964095, 0.05199399034939955, -0.017554228115133474, -0.039176867533910364, -0.00023922707319511921, 0.02665629264338506, 0.005435556579784868, -0.017676379365544344, -0.0434902116242778, 0.027629711266330483, 0.014834586434721464, 0.018476524887260332, -0.0053267912702487765, 0.027468973626256884, -0.017803216039502873, -0.016208213781480137, -0.05894393780014784, -0.13779536652684796, -0.15032694352634976, -0.22777551244010333, -0.2592983191293049, -0.2876768618825675, -0.19696637204881212, -0.15879046582179168, -0.033129562298822635, -0.037399137973597466, -0.047257564641166566, -0.023950587725878613, 0.04718949256808868, 0.0848803965863937, 0.012805913242087845, -0.030895871596320977, -0.019480019452428603, 0.0218437503175676, 0.044384363954435894, -0.004999096151955426, -0.021035648007560994, -0.018905599620973094, 0.01732900447159504, -0.022648143824470047, -0.026215288186256822, -0.09790364135196623, -0.10632937586663439, -0.19906324803225975, -0.27857932741088137, -0.32886038017862096, -0.5847578347636195, -0.629940480146851, -0.5330287755937492, -0.273977793237326, -0.2579870640331157, 0.04621454904507738, -0.034924448994669226, -0.26176547491745356, -0.2002955621139102, 0.07683499192301571, 0.19318192360383876, 0.2552299716024136, 0.09284469628544154, 0.007371513173293804, 0.05564964537110486, -0.016083080792209183, 0.04791116728411724, 0.009116324561384153, 0.06821944736707117, -0.017612522495686313, -0.0006037951711105912, 0.00030251748635896214, -0.09686179834362717, -0.11068693103453817, -0.1515514256695252, -0.2695200506033271, -0.40058410719620857, -0.526236692978064, -0.7672902246947145, -0.44206974428157303, 0.013171042848156879, -0.18526075124958394, -0.10304494989860635, -0.013553517385066079, 0.009071098741876941, -0.16171800211332288, -0.27564787746753827, -0.18711817765766003, 0.09203106885745976, 0.12346118679194883, 0.03648920786123804, 0.015379907602123643, 0.013888049565718473, -0.013900083374354492, -0.01856493466134023, 0.0029673262013148404, -0.05266108043008005, 0.011526590406658292, 0.01525718536515658, -0.03191626051268282, -0.07698029709591749, -0.09472552279156192, -0.16475778427157345, -0.34663695183212995, -0.278690051822574, -0.4484635639884017, -0.47580594588432784, -0.07949612169498235, 0.30638105460713655, 0.016139266914902233, -0.0613105327213021, 0.0025707341987261027, 0.08197320434904289, 0.24460955418918282, 0.000987840698057216, 0.18596266412711512, 0.15954463129413082, 0.1638441600740267, 0.055343837334726045, 0.07156793482531879, 0.017505892582158622, 0.021527310346095955, 0.00633259909768039, 0.03681264813934779, -0.02993305409510205, 0.013419058754741153, -0.03468604888644124, -0.06970168062250968, -0.04470181698437487, 0.023991139028670613, -0.1573165341589694, -0.25425378530385445, -0.2640338995749562, -0.09128102718494632, -0.07871179057774412, 0.03997729936849014, -0.03438340030322556, -0.08916322811504054, 0.06627091728920433, 0.3050477387654741, 0.09563109457196607, 0.13255416499623776, 0.2332466203862253, 0.11867681390182246, 0.2464309684084421, 0.307976029463365, 0.21342096447297523, 0.19728206049243996, 0.008963895477525232, 0.020474591711370307, -0.012252861595439904, -0.04208009790505794, 0.05881621051345689, 0.04248871799647285, -0.06980997745237173, -0.018392054346822524, 0.0844420941075814, -0.03215927630459887, -0.2344866599208596, -0.4912327516039525, -0.5468957370989158, -0.30899892441526566, 0.15071119941441746, 0.2702470723346666, 0.19404766215081606, 0.0030839345730995665, 0.31633343985361456, 0.23329352069377915, 0.16237272736904784, 0.05132527212896786, 0.2054990592347654, 0.12894567549599073, 0.16439480420630195, 0.19362611394371196, 0.43672307319553316, 0.21580532399118316, 0.10098098387496073, 0.046267003886013514, -0.000694971654490001, -0.03638823443229369, 0.007647957611169325, -0.002142537586279966, -0.06384086488313645, -0.047605222878129225, 0.008081701997083223, -0.09228201421629159, -0.17898723486174206, -0.387626056975264, -0.37318833983721933, -0.029316198178593565, 0.2910234892342288, 0.2873352720632356, -0.06503315948325668, 0.032513872306875954, 0.131220093363366, 0.11116546294607088, 0.11157042218956136, 0.15048117849049683, 0.14211015373163804, 0.009129173196363733, 0.22849955034964536, 0.2738113771144521, 0.5346728487324113, 0.2815965424533188, 0.050660294349990025, 0.07851047138697483, -0.03669813804528442, -0.00426272367820878, 0.02000397350177322, 0.05144162255514501, -0.04303519848062796, -0.03691704144808008, 0.0876397427991649, 0.050537983381119894, -0.20087404424857364, -0.23281892528158377, -0.18569082338769605, 0.11863394105299499, 0.4287450129547731, 0.12803660457618862, 0.1458482199798734, 0.08847815679030319, -0.34730162486176164, -0.5636940407091691, -0.153397347439263, -0.18257659604798548, -0.024630864126114597, -0.08113081954945713, 0.2350289699433207, 0.21478654409999662, 0.27199714195227953, 0.11939907560695147, 0.03999177844182783, -0.02975137759087306, -0.02815198942312468, 0.03566266020451452, -0.023640418551099118, -0.0002241021669476127, -0.030027565563289983, -0.11959252488060185, -0.05246727254429622, 0.06638231230971746, -0.16708103892582396, -0.4239296244609618, -0.17765626022017766, 0.2534010689474568, 0.2135099867830345, 0.38773308687662433, 0.2970541146473719, -0.14135458762984102, -0.7876726208207078, -1.1326596250940768, -0.4960869978854995, -0.19589440762011912, -0.3721783283920622, -0.20603245658153446, -0.14524464898633174, 0.10037934843491703, 0.018018052972828345, 0.004338504105995957, 0.04560071520186246, -0.005963955490987423, 0.006609633584925231, 0.04055230775087335, 0.02551317408832211, 0.00956078445906611, -0.07459651062524303, -0.254207323300757, -0.028658162150427595, -0.10059107505995098, -0.18279963895576928, -0.05284444332940166, 0.05074003606045583, 0.19947070927942903, 0.3736984467209809, 0.5157230389884071, 0.4348704984252906, -0.1695559958413595, -0.700127840150835, -0.8022495709704017, -0.2088956961503986, -0.025413303227031184, -0.29417921584123624, -0.30518815726281295, 0.04059607610737399, 0.2153618389214201, -0.015543774381853686, -0.061030211695678356, -0.01798707724402454, -0.036270387946698526, 0.00734743083378118, 0.04276524367493417, 0.010314101350419904, 0.057008067973337496, -0.08485610698247563, -0.11526472054645068, -0.004030293970226815, 0.02916861321569648, 0.08979211807504842, 0.08537127288675908, 0.5859244497906688, 0.5672377739247991, 0.6293720653557826, 0.5266699342060591, 0.24563473252744325, -0.38254962599972064, -0.3060024613890918, -0.25798401355688033, -0.1616089730446278, -0.18792319716083483, -0.2844063556992718, -0.11828020304056316, 0.009529494888073992, 0.3034282086173604, 0.04926951712338065, -0.01978379279113087, -0.049061067638216375, -0.06816563038462226, -0.015858441100399974, -0.03520986961427172, 0.039175492629777355, 0.021314674911500426, -0.04511329466857375, 0.020104001155232115, -0.03515721094044113, 0.1967313865751753, 0.14243820245054362, 0.011166660513240362, 0.357348204130376, 0.33467849857918397, 0.13647083711079513, 0.13483398326384916, -0.25596696235710487, -0.5351848364739187, -0.5440605629779929, -0.20418507711718528, -0.3118458494575581, -0.4373952202223087, -0.18260997513144633, -0.051426947193255725, -0.0022466495779780247, 0.24419558904895852, 0.12414203946961412, -0.054275741659942825, -0.013004334930653439, 0.007264003518291842, 0.01150026664898554, -0.009571768293312254, 6.30242955641387e-05, -0.03880514710909892, 0.011019793369437645, 0.14009947380316393, 0.1819635091162299, 0.1467638320426075, -0.10034275569381354, -0.039522484916967617, -0.09517759029738364, -0.12503016940490957, -0.10721208729939266, -0.3315598855089212, -0.32952611963378653, -0.1417232159810679, -0.34290241391731363, 0.07301777088887641, -0.19550383195000626, -0.46520809636269245, -0.20037138768291304, -0.08053446921053435, -0.17367648368279556, 0.16969613530436706, 0.06605562143390052, -0.10592627047440673, -0.018435172841145965, -0.024733133826181124, 0.06518967961894478, -0.1260927498671105, 0.02340313422149349, -0.09683241286567891, 0.19568792972463028, 0.24362429986173792, 0.19610513510760688, -0.04691935714292472, 0.08783259430505863, -0.020468560790498882, -0.013223388963857264, -0.180728034211246, -0.37624249505866486, -0.4368565258402595, -0.08297700390265432, -0.01665001197425222, -0.2641971628582451, 0.007089106694892934, -0.32774249842204, -0.18708277731552703, 0.09708043168106519, -0.29840893409365143, -0.09782595208848281, 0.14509884478521573, -0.03676413196109606, -0.15732620375427742, -0.08093220551955116, 0.014524850216710121, -0.02711083551175232, -0.005632714505930975, -0.0234112253126265, 0.004572819046298146, 0.21900990312125743, 0.38747100792814154, 0.24050337892633428, -0.04783402616728859, 0.20067709688876673, 0.3366753048709999, 0.15010766442948803, -0.4912857562184332, -0.7155833220020509, -0.40425975797308744, 0.037394508040636015, 0.15568307257419817, -0.018600883344128794, 0.15228855397952998, -0.0198997058157572, -0.04195187334752331, 0.03865581353445249, -0.2446064404749911, -0.10587832592569271, -0.08306987664528899, -0.08831754376035265, -0.04834300050534252, -0.059710970119462234, -0.012846128956438052, -0.03207018312555339, -0.026705887392269707, 0.03869695583023032, -0.04394148060033175, 0.13370171097439748, 0.05843170201342144, 0.27364376990544664, 0.23423130374957163, 0.3127971798213851, 0.14608482598718905, -0.20329405624769337, -0.6408942368797123, -0.6879387316560305, -0.33935558766288704, -0.09819604848974675, 0.1940645373009804, 0.4214724184883479, 0.19663742981310792, -0.095304096592753, -0.04018730499107832, -0.14255496246684518, -0.1730954890050778, -0.02035169508869373, -0.010887052729559516, -0.14095763634740113, -0.06821970906269222, 0.006250750953107333, -0.01523205432528822, -0.023126153618384947, 0.025173768429667714, 0.016355486469336277, -0.07575046605780081, 0.20471614915267236, 0.11022319137766848, 0.24336096681246402, 0.004988952456741453, 0.41465493981220614, 0.11886774983066621, -0.3417371980952837, -0.45214081515113275, -0.28273090735326895, -0.3081047213065437, -0.11810509942607968, -0.010667846036235424, 0.14213942004167862, 0.15051830982432823, -0.20801129282503308, -0.22511865485304086, -0.27587726972644017, -0.2120767651901402, 0.018627977651595955, -0.04679743557072988, -0.1204328241486026, -0.06192138273852663, -0.02164616458103437, -0.02929554029122074, -0.012419402895266057, -0.026373406031638107, -0.00026226247963899094, -0.0687569654666225, 0.06282450484015514, 0.16317355780652934, 0.04290944273110234, 0.018788372563055804, 0.5026892223231035, 0.36168507294397634, 0.06087439978210763, -0.2893984815554423, -0.2602897433856181, -0.20403830488710728, -0.3509027968827048, -0.025949252552163935, 0.009017669137160258, 0.15675812217420806, -0.4048112014940584, -0.5600153527119638, -0.44285142727271126, -0.23398348164649485, -0.08148275409079234, -0.16711910609396266, -0.10290405065512072, -0.03815192867856759, 0.08758517970374612, -0.028636014729563203, -0.03042030342903942, 0.022559009960517306, -0.04148458507647458, -0.10227146898790336, -0.20158023624999466, -0.12538002423212385, -0.016421489503487152, 0.00812046310381184, 0.45872864596694884, 0.46553653659349825, 0.3857702756834354, -0.11147636182633797, -0.3163809806296492, -0.3649605081690972, -0.38005535797780865, -0.0004818968720143509, 0.06536984091271668, -0.2580384415205087, -0.4207101635092853, -0.5057105173699579, -0.3685190147763255, -0.22459498685293752, -0.21633009557472033, -0.11132526825254709, -0.09386697741060698, 0.09203033715754445, -0.05554968274624259, -0.003913695789032788, -0.03944403918409399, 0.03178902770563032, 0.0018942951145672537, -0.0016102299727626483, -0.1435804939439874, -0.02854222737804371, 0.013712235296483133, -0.024072649622421352, 0.2732187984206039, 0.2938228170483902, 0.34542585798974984, 0.19906397279950988, 0.024880678423390975, -0.1865549780420804, 0.04552462950791372, 0.10442476175336268, -0.24986156977023016, -0.25376189431394874, -0.30731031312799284, -0.3676390386801298, -0.42141723848439844, -0.23434459693953374, -0.060563184947459964, 0.01584329571070791, 0.021171414618293926, 0.05669404305899363, 0.01749756267837621, 0.023300810061330376, -0.003420707496878994, -0.03705702796310422, -0.047872064503423906, -0.023410178654938482, -0.11020227980786246, -0.047533376187771585, -0.06679738138236835, -0.011840998126419826, 0.28965187834115375, 0.1648978981568369, 0.5160000258465814, 0.4336078419312882, 0.09556233374875657, -0.1769494470804092, 0.14047922021978385, -0.16705835316833487, -0.15615019149920614, -0.12304086420078601, -0.2806287332437016, -0.2546464750006681, -0.22854417351061465, -0.17529240060519474, 0.027854344468283363, 0.04076556532939421, -0.02017933477466992, 0.022720119919839656, 0.01170636948617783, 0.02848661424838346, -0.026574675870398835, -0.05105846492611992, -0.03222576898688195, 0.010966139873177029, -0.06151307153827611, 0.07164110114919336, -0.16176667843593207, -0.20673903081504122, -0.11651099747997301, 0.10201489352112109, 0.1967601763941591, 0.1984345342916178, 0.3356156187294754, 0.10536412732358037, 0.008560645703372118, 0.013492160222272702, 0.013457014972044413, -0.06019503359889083, -0.09150160050633871, -0.1009151017300536, -0.019690975272363655, -0.06469159398204473, -0.01842134450640549, 0.047136657565663494, 0.059302159775923395, 0.02448816160059278, 0.005912574947370974, 0.05456376832778282, -0.06558141384230186, 0.017694069649084133, 0.04677086904669765, -0.0062361037487687915, -0.015745198443745542, -0.04995191122137363, -0.16582343781310802, -0.2333760602189808, -0.2544740728421351, -0.06766983517809949, -0.13607323572823518, 0.05607911011754779, 0.13009342414726466, -0.02918181186849478, -0.09079716917627027, -0.14438327455607383, 0.01283255151718998, 0.013425533610640437, -0.02657277638206187, -0.034593175684123935, -0.06780840693267282, -0.044962527965555, 0.027865999395099404, 0.0677649918005016, 0.03166640222111225, -0.0287248094775888, 0.009053300475238843, -0.04525424088668743, 0.005329328527233939, 0.0666098061375167, -0.014655503618309886, -0.020110773416605925, -0.021339740406500562, -0.08221690846375766, -0.06573042893855698, -0.08620586257959573, 0.020433851183081594, 0.0630606820303585, 0.034103195749302956, 0.13075906516834, 0.15248716474998963, 0.03770548517724403, -0.10828109391093517, -0.05935849420438005, -0.009492484174301211, 0.012748548193684822, 0.02444332840559788, -0.006784558101769676, 0.02109988795207311, -0.03967779297650603, -0.004487124174116783, -0.02068652637578229, 0.008615130201473914, -0.0037755069064089805, 0.09224178626955737, 0.04648091645354541, 0.0369657401176991, -0.020316424260180422, -0.0018175240606867478, -0.10278571320328124, -0.038486428838792, -0.010629177497445571, -0.022964509145560117, 0.028482244596558584, -0.002727905037159936, -0.0034035772541119317, -0.0478978322537941, 0.02911918011963846, -0.035362297749963675, 0.020285517805911115, -0.03267579064031437, 0.010046994624959713, -0.028276119427027797, -0.06510140794061839, 0.007709082863864487, -0.019273177785695074, 0.03206962187102013, 0.013068221138728396, 0.009126719466070398, 0.03624169487176446, -0.034198534601189046, -0.03394979286909364, 0.018233700398122055, 0.023239984053675923], [-0.03501798759159591, -0.00544710502428129, -0.019996017540265424, -0.07629001628590647, 0.08511032179829056, 0.06718178613780508, 0.03031606352256628, -0.019795083873430906, -0.023771962162503223, -0.03051894962734282, -0.014115135641070479, 0.0033859884804680147, -0.001686086981434606, -0.0059688482530487275, -0.05692628721136358, 0.0015499247313400333, -0.007094809516140549, 0.0007219483348615308, 0.07242717504774834, -0.00959157820900943, -0.06070057554029639, 0.04430514836808029, 0.023591605443428372, -0.057747216741319045, -0.0014913567265983343, -0.022627361382235922, -0.039543764425972, 0.024952865779322087, -0.03417647996062877, 0.0038818040518873065, -0.03592974512359979, -0.026568813281780845, -0.013159164571110191, -0.06523022570681801, 0.019797391858044026, 0.0030515746668249477, -0.00937576511316466, 0.004044011930904637, -0.044625950151103974, -0.02550288679887196, -0.0012830221737916419, 0.02200258272135088, -0.009551389720041166, 0.029899396549750757, 0.006381250088146163, 0.004392448517467659, -0.06679060788853393, 0.04727781025120915, 0.05420806996506859, -0.028495210295590094, 0.010780273531620267, 0.04148281860227347, -0.041305161338947946, -5.535299674631291e-05, 0.024385928456397504, 0.0020934796706814475, 0.03232421397290614, -0.012232277728624107, -0.008314480923201773, -0.07681643900784837, -0.025755806416633328, 0.02533024869421666, -0.02303658137853102, 0.018281074036538895, -0.005131815296002813, -0.013939292132688613, 0.021420922435607215, -0.003182940978824199, 0.009882854091605482, 0.1117999177532658, 0.05886181589447431, 0.21778106743287148, 0.09692280217605972, -0.012228793103019917, 0.010747652611623377, 0.01441528887622297, -0.04377997904326782, -0.04040755111162179, 0.039264968671441865, -0.005979836427565561, 0.0012850422397193797, 0.014230142551464901, 0.006971942784064888, -0.013941925328690282, -0.0024454688633516342, 0.04032952468363853, -0.00852243341714744, -0.0046006210947758365, 0.06839790714649811, 0.060409458854615766, 0.0867176384501863, 0.08723537019107212, -0.03270585399805103, 0.003583177566538652, -0.04530026576632466, -0.08144942089853038, 0.018060507581454426, 0.05448688487828497, 0.020855062178367544, 0.05381003354652388, 0.0016999663828421306, 0.01439567020347482, -0.07760022001480825, -0.018883074875594964, 0.003915552099888968, -0.07071142338883031, 0.009676995681695166, 0.021724717186322108, -0.003358006417580602, -0.024255273829877473, -0.0774167860069917, 0.02134499360616887, 0.06433024714492244, 0.07986774482311287, -0.026377175588818868, 0.026507454818112182, -0.0412907090084662, -0.03354289605199197, -0.08421624778531038, 0.013967632646922419, -0.05216013246138336, -0.07907152453310318, 0.034052940823176996, -0.04930899508227373, -0.0728915826630255, 0.13187188051668086, -0.2651475357398366, -0.3143553563789911, -0.16218449039030422, -0.1477356798658336, -0.18350008800148554, -0.2122380599128855, -0.11915541942402993, -0.062107423228843495, -0.026570319179181342, -0.014364774783974441, -0.04303139943688389, -0.04777723816353866, -0.060997520241583884, -0.023882616515833476, 0.0025790559746379153, 0.014430188006165905, -0.03376643872486418, -0.022675256573856172, -0.024307618478709058, 0.05403852726734093, 0.0853535289365826, 0.01818894850865447, -0.1486519649242366, -0.15501719981675993, -0.2437027525157414, -0.25732133027108905, -0.17044065109255005, -0.05712015697675732, -0.35067045757955806, -0.23124408036247063, -0.1022377000145529, -0.22634181533402456, -0.22944288409343783, -0.15679882643469392, -0.1893233956712399, -0.10828989946145398, -0.0343311489845373, 0.046169683608772924, -0.042428650104744135, -0.05394359858023521, -0.024340316257659325, 0.061582067546504304, -0.01879420150763347, 0.02267950976560028, 0.038992431769979706, -0.008605943452158718, 0.02757640927440761, -0.03475858413909015, -0.02332257136159207, -0.10627898705365069, -0.2936103313027351, -0.1696003670280679, -0.11621319317425767, -0.07551271640285177, -0.16184884463823163, -0.012340489446434061, -0.16082390365068233, -0.35066527872382997, -0.27456694672433396, -0.24936960297712454, -0.07034570137609594, -0.3127696097488355, -0.13961336361466486, -0.06139446547948313, 0.04009614253779293, 0.05534695755073822, -0.02213042031673686, -0.03666704276246091, -0.035516409035736225, 0.052024179844929276, 0.060533475321134705, -0.011635483294541891, 0.014415050335303273, 0.005475332509234864, -0.015483222220163947, -0.10082992075143478, -0.1191679932785341, -0.19772075772533487, -0.39622744151300915, -0.09236271718310315, 0.23092687614479296, 0.039125225406615685, 0.08750465761935719, 0.06485506386961726, 0.042441693789390264, -0.5011200949746628, -0.41981474468781477, -0.3495632366691625, -0.2581016084289791, -0.2568237436054913, -0.1267682668821856, -0.056660762280293646, -0.05886772022190577, -0.07940098019493942, -0.06365835635928375, -0.03843144779480186, -0.009828063943675042, 0.04315699974980547, 0.10639788010785296, -0.01441922297618163, 0.018122934168551996, -0.07879494199805187, -0.03696028830556238, -0.02784685014711607, -0.04643615265045402, -0.156340375655823, -0.20650013616756005, -0.1272563854298475, 0.18084298106240454, 0.1291628829130915, 0.33181253601423705, 0.264949001294056, -0.061533671989831756, -0.49205016170399657, -0.47602828477158987, -0.37358743506507847, -0.25272455629991647, -0.29853061661479746, -0.18871423895193135, -0.11551285788188123, -0.0962689741611075, -0.10914563146377121, -0.1531043460902375, -0.12940035607711745, -0.013368840428729264, 0.0771322124785053, 0.0233593350072682, 0.008273884221669804, 0.041730987988311194, -0.039291165231634416, -0.0032009334124821205, -0.0940153466476963, -0.19795784272523956, -0.05392393667423529, -0.08535520638076624, -0.14608453228088464, 0.01910507698262481, 0.11895298511700393, 0.09189513294347984, 0.21942914728988866, -0.17243670876059491, -0.4114110230722205, -0.42895661847014266, -0.31117849592174524, -0.2659960899685778, -0.3664016489937496, -0.18241374972639623, -0.07297212735895853, -0.05851282697324356, -0.18872006265211505, -0.13581465400227316, -0.04157045257121751, -0.07992929694140256, -0.0036375434942612314, -0.0330604253847223, -0.03146168115595583, -0.041462353074911355, -0.006464694636545467, -0.023976036963150264, -0.06541106446460893, -0.09902681822789455, -0.07156494334277191, -0.05420578394638138, -0.06527441736246223, 0.07800061269196851, 0.2987019529103385, 0.08015440978977442, 0.2270205807597026, -0.06292513437295176, -0.1886690131571923, -0.22783696213538926, -0.31117532207792564, -0.21574618836997966, -0.04696496899652441, -0.025892940862626418, -0.049232752378691784, -0.1121742957159448, -0.13314924686079802, -0.08772283189180805, -0.01836907304071084, 0.04689253127169609, -0.008809703711278698, 0.01649009581957048, -0.04244807203340961, 0.059563542137776454, -0.06069035959197355, 0.021631680772578384, -0.0025309928699896868, -0.10554410490705912, -0.1874727239691165, -0.2501261568947993, 0.00648187609395021, 0.1367008842754806, 0.03458206298733414, 0.01864901128338411, 0.07954960961895134, -0.01590192186838859, 0.041047930771108194, -0.27150301882949274, -0.19804382459362863, -0.04418279576322767, -0.01270682564699286, 0.11296438076355812, -0.12474311434457279, -0.12887677514729737, -0.13809572883378865, -0.1393914498937805, -0.04311167775421409, 0.02323321381387802, 0.012544706622090097, -0.009529783895749702, -0.01229830921636176, 0.014682052816817642, -0.04110987989529716, -0.0038076955537041245, 0.008880113121647812, -0.09246750028798939, -0.13707374560355587, -0.015959267494887342, 0.03599592562441397, 0.0075186354411067744, -0.03410956673199949, 0.10160494761912647, 0.10353248743187553, 0.3458136755198002, 0.2472852915095555, -0.03287739297898458, -0.12228779698508872, 0.1086821904894118, 0.2555871371611962, 0.13337189157743407, 0.035741057272603696, -0.10361212956055628, -0.13506354577660493, -0.07384233936348326, 0.04099219407940903, -0.01931996251864597, 0.012975067761327105, 0.057141481409870146, -0.026993807986957948, -0.014796435805585538, -0.06692766927132729, -0.03589479059771992, 0.05016567329881427, -0.040429351553826036, 0.042345540131321524, 0.0009207110488880724, -0.11649020418738178, -0.17568297837716157, -0.15028178559580804, 0.09855273585004685, 0.47572337025508254, 0.6032105707397694, 0.20197833016766636, -0.04781390289192535, 0.08475616592997245, 0.12718717204598468, 0.2687577922797883, 0.11885610941472032, 0.004830460493594356, -0.02951047778207142, -0.09819041516995326, 0.03401202913440456, -0.038004455289077956, -0.03476179402207942, -0.025153894717586882, -0.04131822304657164, -0.024210909828205892, -0.009476325201385236, 0.05104357522430104, 0.030866391177580166, 0.01733720508538336, 0.019557191467819732, 0.015699061730388267, -0.007662672674063968, -0.10559140094079703, -0.040070344980314025, -0.029338790655337583, 0.07424344400644801, 0.45970895986038196, 0.29111130709060323, -0.08647849819015935, -0.1875703493774341, -0.17900900960707447, -0.011686726089589204, 0.11170729437963454, 0.021890894320353883, 0.06229793150468698, -0.02711194007801057, 0.040611544869925915, 2.631352069519057e-05, -0.01844122633731518, 0.04919054723349693, -0.012968411348192658, -0.0007703463361227391, -0.030946766071443157, 0.021213483178795945, -0.00046896774655780785, 0.026430222564601903, -0.061079565620093916, -0.057746064585204565, -0.06619063855458038, -0.14741243877617952, -0.10323926171064497, -0.1713544612141128, -0.05519130602216467, 0.18552915897843475, 0.5100115140517173, 0.12069965258396666, -0.3724134423707666, -0.5073232415903461, -0.2608024457866017, -0.12374464228438958, 0.06325875818983138, 0.17371281088930488, -0.004008077277464625, 0.033255151610564256, 0.0782893496650991, 0.006749023773109394, 0.07223314744074055, 0.03036632765243303, -0.005635254886949597, 0.01287484161868014, 0.03361177371141069, -0.03185988910726246, 0.04101622378254018, -0.02698598510740614, -0.0696536793773261, -0.009791809534794726, -0.16180773399367393, -0.24775286957964154, -0.26357601695158617, -0.037391085617824865, 0.1500850256239896, 0.2770578171872352, 0.34334872846513564, 0.22222451458861056, -0.530073768965988, -0.4453294669150238, -0.18160523067719103, -0.1187799825469468, 0.009225055358812788, 0.04903197972399638, 0.11466966199279241, 0.03434532072087625, 0.07480109940732904, 0.03975888030796808, 0.006154464933203621, -0.00013834738124413246, -0.00980321488701265, -0.011902821257244492, -0.014406420004001384, -0.06141158862138721, 0.017090641865981703, 0.028525609522612776, -0.05331737494605623, -0.07493570572718643, -0.19202117183428943, -0.18885581197617776, -0.08452911695479728, 0.07450005778037562, 0.16658139377670003, 0.45416604879663997, 0.2642192906010732, -0.04992324625857929, -0.5296191348006705, -0.3414311711745929, -0.0696429492088219, 0.13412824371007437, 0.22586020216481476, 0.021716168612010926, 0.10830567190627192, 0.06842921636008875, 0.11054506536757537, 0.07626930200888117, 0.03815747181355312, 0.04468740911272349, 0.05006178300135049, -0.004517342285446218, 0.03378323071096645, -0.03731997514010035, 0.06043534517723095, -0.041587298294960044, -0.1755355867225776, -0.2477803919714351, -0.18835008067444248, -0.0009487971069513628, 0.09292381418577186, 0.25160426126231605, 0.16122779841545534, 0.28349674366886196, 0.10319106993653099, -0.13179413439947682, -0.23939829313682412, -0.1422067699510871, 0.05528817838791523, 0.21078145211165428, 0.17636670081894207, 0.09741701581351707, 0.06183532466399221, -0.08579310028328314, -0.116065383002335, -0.031537177115786914, 0.013756273953039109, 0.05372683960693248, -0.029122713465223844, 0.009996087243668001, -0.03476682029156337, -0.0480529356434727, -0.01933424850592607, -0.14678331680326878, -0.07379268964010705, -0.20361921341583855, -0.11270565739917948, -0.0030594656924997684, 0.10227221825534774, 0.11576896754156646, 0.16184372686544954, -0.11632954968988675, -0.4233061453624538, -0.2954179958203376, -0.10489152033563841, -0.10240371721589311, 0.05775299559055991, 0.029753513300434253, 0.014772125738968772, -0.014615506515563531, -0.1713618991348944, -0.15807005791757292, -0.11021076341937464, -0.00723370333576501, -0.024735298838258434, -0.039878921884771656, -0.003374928744067342, 0.03725137272058633, -0.06836812002232241, -0.01727778940409693, -0.0035438731768502154, -0.0009713760275231196, -0.041084553359894034, -0.10735718651795101, -0.17707223949590667, -0.04726191257922573, -0.1117856129240643, -0.09923826911945037, -0.15709843396945233, -0.483114486978122, -0.6478247715564082, -0.20785563140782123, -0.09445929492603429, 0.03470434121966468, 0.1578829137169119, -0.05425818105480283, 0.02683026021576264, -0.019481674594797785, -0.1770005736844001, -0.16140301076544075, -0.06978709502055407, -0.06493600731496672, -0.026259402388000903, -0.023174680976750104, -0.08055802554772432, 0.019220340534460877, 0.02151692158824011, -0.019727381173457265, 0.03501924042299792, 0.054596489696314116, 0.013146203026957376, -0.08533192028835479, -0.15755572833016393, 0.06559597859158584, -0.06126843827434204, -0.14084711581860765, -0.35516664526238073, -0.4056084254204974, -0.40767954674920553, -0.16575470470869566, -0.20807451685337017, -0.1985005454834464, -0.15268479790490364, -0.11268513202153557, -0.1465517795693868, -0.015306893448549295, -0.0106862433325368, -0.10735782024484936, -0.08845132150968496, 0.020311175518656813, 0.027188992145887145, 0.0022543891886307333, -0.01751200325872999, -0.0171480370571033, 0.02974053838887836, 0.038234805142220274, -0.013586623194442288, 0.04969609623460466, 0.1351294501761273, 0.0798280421729561, 0.05918400563619922, 0.019375071896324543, -0.007906553362988206, -0.26153282119796245, -0.38766322502860207, -0.28378633518761887, -0.3613001736908752, -0.37543921162131494, -0.12109405742874538, -0.26460079696678923, -0.08104990842683259, 0.0297900749336431, 0.0026559092904959816, 0.07603362882963254, 0.08321947613059107, 0.0007802089547014638, -0.10441040014300136, -0.07260556075605656, 0.038342009255867636, -0.006298780938905843, -0.02740288617664173, -0.05953079402763512, -0.030342187150995178, 0.03743652489575081, -0.012015838266849578, 0.05640852935900442, 0.19574702712244416, 0.16332983049059094, 0.06343347773257438, 0.013703054575133532, -0.0486758860629271, -0.22114549450679538, -0.39613512713274085, -0.39956942267469375, -0.37594197389457246, -0.42682263442394863, -0.15579400475352462, -0.11481827306375118, 0.10713032130364099, 0.1453646785559004, 0.12822015926132713, 0.15626021712899918, -0.04560448255253603, -0.05489548963168175, 0.009281176225016084, 0.024980308883322727, 0.00422071679863482, -0.06438615369238355, 0.009070061351285746, -0.0484512573632699, 0.0282301178371093, 0.019763522884344246, -0.00791950571433169, -0.021819922250588347, 0.020984127682551614, 0.020292038016904053, -0.007276757554423569, -0.06409328349019404, 0.05102889391739967, -0.09308067332365222, -0.11478179323503498, -0.22942352507971037, -0.32558375570790893, -0.3474081579323621, -0.13200774534944207, -0.10754905687799224, -0.024627370256295182, -0.014028706364414615, 0.057230536718077936, 0.049753872941710284, 0.08747344937371085, -0.01061161330046076, 0.02313692868199777, -0.025125421413572442, 0.03820924764277449, 0.0735414329620158, 0.05351929811954795, -0.007164691458947321, 0.03110349898003784, -0.03323435574327886, -0.014034324665420908, 9.459289118360856e-05, 0.02875593042730148, -0.056058695486723674, -0.06377935893110598, -0.013615257526721858, -0.01461915344878543, -0.10280953178477277, -0.14442087525990616, -0.13914615995439458, -0.08793485021536113, -0.24260715929628107, -0.21556021261684413, -0.05557099981422719, -0.012194363904347765, -0.07019115708160502, -0.057430422667204384, 0.00010605082127264322, -0.04047900401769054, -0.040331394051657414, 0.0430234886217669, 0.037776738780917564, -0.01850542482791792, 0.02095457898131745, -0.0021216903100926, 0.0037390177097361577, 0.016609667076116472, 0.010166797747407376, 0.04236661617209595, -0.022643828168360438, 0.022363986690112737, 0.08389017557135799, 0.02821580547238192, -0.04183894602019502, 0.009747231168477411, -0.04418347612943935, -0.09415772176950708, -0.05834641956659132, -0.02733368268026948, -0.061960733533332854, -0.10989935955959833, -0.04659055594427279, 0.022231941369903398, 0.054266140677195755, -0.021756322805842918, 0.021582081954115196, 0.025922951656978586, -0.04155743248048786, -0.031942215804946154, -0.06936072110308748, 0.009560795924751828, 7.183856219524477e-05, -0.040077958484116175, -0.013966821027873203, 0.019485534141889967, 0.05922845690982004, -0.03137394626044565, -0.024555907946837787, 0.00864622446582267, 0.02304944707430073, -0.0779627453707499, -0.026880703429098405, 0.006465904218051605, 0.037999424540149436, -0.02755712597908855, 0.009201436131719969, -0.029400729484805804, -0.0347339158023137, 0.030785183884524756, -0.01761180835118278, 0.005587681218437613, 0.04951051844320355, 0.006118109017440254, 0.027197166297738412, -0.004620004177247959, 0.026510841034085197, 0.044806241688980626, 0.02577202372238772, -0.01013023568342622, -0.07421083214498135, 0.016213098868376585], [-0.0018438734717535204, -0.005782560969539461, -0.03200803999902456, -0.05969203968438977, -0.014149272647999114, 0.03723280270159553, -0.02249182814869893, 0.04244236446659479, -0.008127684188507662, 0.03798796228744555, -0.022485035552008453, 0.03832909868642118, -0.052945563270233136, -0.02922069558134172, -0.04481523947354964, -0.016923874209158873, 0.056514632661389036, -0.007956120281687391, -0.04870341214566006, 0.006518966376260229, 0.05923877542999834, 0.028153308197090943, 0.006567586690749551, 0.006132020612432124, -0.08696272235018906, 0.08829583484054526, 0.03835718054942775, 0.05752556425465275, -0.02093153720039309, -0.03933992494963036, 0.042150600067268534, -0.01077592725533093, -0.06002679733446196, 0.0380267521588506, -0.050742990683188105, -0.03684276696112706, 0.0025155685589421436, 0.024510044231781283, 0.00916332433761967, -0.002720621834277797, 0.07860836924333515, -0.06753168858084868, -0.05494571114459156, -0.03729447293966565, 0.04516298058807238, 0.09984559291024124, -0.04449823822030004, 0.00031431207209905624, 0.06552258814920216, 0.020041634015659122, 0.027598306162059865, 0.01376363214441277, 0.013535167449440798, -0.02680724957133229, 0.015338713161952667, -0.047126602471785774, -0.06356105094521955, 0.03075732406655073, 0.03192310266882796, 0.06973271150953737, -0.04517695655327406, -0.007156759347725218, 0.020463442534247953, 0.09889602372244258, -0.0007678708305960155, -0.02277332408136996, 0.03153615237136873, 0.09672122496004555, 0.033421705414039826, -0.07203086328430566, -0.07394584491152642, -0.09821024214159223, -0.014623268968188349, 0.14216307547109283, 0.04668073650993847, 0.08401540125143465, 0.0444494958169627, 0.06347144011065739, -0.0001390217128247598, 0.04449624947483598, 0.004189461855905512, 0.05623772732129459, 0.014177869032797616, -0.008889081773493386, -0.03159933318305074, 0.02879451913137479, 0.03483087701037521, 0.05592929816841853, 0.05352900762662443, -0.009972409572306397, 0.02914872222811746, 0.03537336878239773, 0.030080246036627175, -0.015378872165233017, 0.11802969729337501, 0.09568151285269935, -0.007496662556693677, 0.11444797842976005, 0.23166770192479935, 0.1379527320316468, 0.08800651642101104, -0.07500442471476206, 0.03306008041314817, -0.10828619395697602, -0.017669409960339836, -0.06637163458441432, -0.10325258185028445, -0.013221432725227005, 0.02588133161867941, 0.048164410500508494, 0.009607925792989329, 0.0038961513820301085, 0.019257586560773345, 0.0379306208038304, -0.10201039375118551, -0.0505800771035583, 0.014614850934260333, 6.914214050277613e-05, 0.0073244305260760706, -0.08826888076610048, -0.10052362985996943, -0.07147341403259244, 0.06551820273591215, 0.03358954399425124, -0.19101069559600245, 0.02264072312004536, -0.02967216701002015, 0.1007308914202452, 0.12512431910237623, 0.03066276834115679, 0.28611477779805755, 0.14418276439311928, -0.019296700579449492, -0.008706592798181824, -0.0013078479959931432, -0.09118671824539117, -0.05433604982430299, -0.06664390746279762, -0.059777069530368106, -0.014555570193610723, 0.06294100399463104, 0.036410429502948684, 0.021055569695577907, 0.009008245721590927, 0.019984049916693804, 0.013314248610549667, -0.049848935257667475, -0.09159313360653253, -0.03467263646142867, 0.08628271664593556, 0.06598131730081475, -0.0341301914213534, -0.1374235855609424, 0.257786795380568, 0.3023100044593048, 0.22455344316231038, 0.2833145649684716, 0.12762421472043356, 0.2431194772484408, -0.047377149399052645, -0.02557227962932699, 0.07639154622527759, 0.14649985440686447, -0.1552197096352138, -0.1998255930145025, -0.13051209309914938, -0.06435670364337222, -0.0037119428768185997, 0.011565359163244766, 0.008618499077635625, -0.012398942856439629, 0.03495506365171163, 0.059219169285994355, -0.00465922144776559, -0.052038202435216466, -0.07176258972659921, -0.016286857399636038, 0.2327032747791019, 0.2831635336050358, -0.07996234265555582, -0.19616650479245715, -0.11158768404943757, -0.07939405291823504, -0.20600313738492976, -0.14340978939295507, -0.13388793947892272, -0.3212568399325972, -0.2300878410777419, -0.1684775137763866, -0.05552283792015924, 0.07402454720571018, -0.18045334423842982, -0.1866661227696956, -0.19661175199861836, -0.027786792002659957, 0.0060968665388020865, -0.01688674387360682, 0.00879354771654747, 0.005796153575926065, 0.0025554119519010723, -0.017657950233409984, -0.15358156856866362, -0.38009643966555384, -0.23037388158792552, 0.10327262354229423, 0.2188549946508057, 0.10303369695750483, -0.13727203154263062, -0.08078549119530828, -0.452254200090479, -0.37307573284745527, -0.6198421000078576, -0.6153096179908641, -0.3505286682866371, -0.46116046566638313, -0.614013347327214, -0.46727510889730134, -0.21794194715409607, -0.07816862183515345, -0.021409192017617103, -0.22539275145707355, -0.11175461312109443, 0.04525375651163772, 0.026832546405772213, 0.01803594415396482, 0.023480631984680093, -0.012970115698711666, -0.022819253428712865, -0.085282455528543, -0.3061559842602503, -0.321220015000629, -0.26201869144373274, 0.007879446445352739, -0.2457482696726231, -0.18823186676050715, -0.3013601885820791, -0.10060846976582713, -0.18423312691058844, -0.3518968144067411, -0.4810350595108873, -0.38408106581827867, -0.49586907112831796, -0.21643679549510514, -0.4641864228971908, -0.20630258761929704, -0.0008966708061986169, -0.15941897291475485, -0.10198115987487702, -0.03949259963106408, -0.060803305326791325, -0.004866329068271228, -0.03424176175286122, 0.009728971990407257, 0.01340267857760135, -0.04761877506406971, -0.10678341489874114, -0.050812115465455755, -0.21239273254295574, -0.06588474611078214, 0.03749742702962686, -0.1001657056305871, -0.29936583630573194, -0.2831647931713134, -0.08793680636782528, 0.17935399211120714, 0.05674059248120197, 0.30767842345840035, -0.15552462275784792, 0.06449469565444481, 0.22453021535529372, -0.06075022636627192, -0.05675395121430182, -0.1362178426487206, -0.28049592296294246, -0.012326972756992184, -0.06303499958513128, 0.11927990233148852, 0.02821483007074343, 0.04928616504665437, 0.06855726048249886, 0.0288105901992525, -0.03216981739089201, 0.02248472194523343, -0.02829010834612794, -0.051411074477944886, -0.17345346063265124, -0.09995591176934462, -0.2700621882068903, -0.18151523149605037, 0.04720285152450903, 0.22586377215437373, 0.32437374040288164, 0.06389748431759468, 0.4994005308224766, 0.16731217286824895, 0.2515690082567893, 0.23615275968299415, 0.35844177057410664, 0.11956902908347304, -0.07446187531344282, 0.02133138557202148, 0.2548782513308632, 0.23230264673619316, 0.183805515567808, 0.11887370460937313, 0.055925513650516616, -0.016261015065294166, 0.021342829482958313, -0.030814708933613592, -0.021878236044118034, 0.04192572462348752, -0.03158063128972134, -0.04944972703625917, -0.2287486128095234, -0.08702500869277047, -0.18620284814566618, -0.07639489857302237, 0.010926501253191586, 0.05008497255068847, 0.06181159129108443, -0.22068256890052795, -0.020208732542966134, 0.1355551525149451, 0.22132330229832003, -0.13019295664583996, 0.5934971359169918, 0.3550473474763563, 0.05540495124137775, 0.5236584371888058, 0.3092480480501295, 0.10015412351883277, 0.027482520697493233, 0.06048900823388133, 0.0239846050270636, 0.041048412203693964, 0.05501243441957912, -0.03336156787214326, -0.017424532962138216, -0.027691383589367936, -0.004525661813598975, -0.11011374367201739, -0.06860548451344115, 0.11473210929933397, 0.15395118363756471, -0.22893511484369397, -0.13853121887249015, -0.0016975892712207553, -0.19356663056471166, -0.3060172422436406, -0.09852383081521547, 0.28670566363192235, 0.1287709075150508, 0.06964498560796355, 0.5163064846713203, 0.74570433475518, 0.47932658131279665, 0.43074978653153, 0.12568494001702651, 0.18091870769913582, 0.1361352506391469, 0.016508781102417266, -0.010816913267399909, 0.007873723397084264, -0.037196006063093694, -0.026716599097842585, -0.010417005305600972, 0.015870365427071195, 0.023631117981229334, -0.05793069016350736, 0.1047487733178657, 0.3324186692218251, -0.005394363931386479, -0.16249997379827674, -0.4292660007718328, -0.463059867839693, -0.29525531904351715, 0.004531206603337013, -0.20090150814409097, -0.00286234040709458, -0.15826203013521745, 0.18549824203614795, 0.14517657636009682, 0.519335554238136, 0.553800497925255, 0.021005028542805247, 0.2675750570562884, 0.3490616591055519, 0.18841892133452212, 0.10629799036289928, -0.03656046428183489, -0.00028335171375787636, 0.010605725306616723, -0.018935311409292374, 0.019743341776143737, -0.0029289241297726083, 0.033214417101917734, -0.11928933033987395, 0.19791803608565747, 0.368123555934477, -0.08119421595331534, -0.29383663093923656, -0.3831607308783241, -0.3670518776492945, -0.11485687424688378, -0.22038233551202632, -0.24707015811401992, -0.6074878846452025, -0.4270130450548449, -0.4121686426226751, -0.003169633480265328, 0.24874610157397628, 0.17279829183060016, 0.013532702346657348, 0.24489463379800955, 0.19450411174695947, 0.17887861695839374, 0.13947479429224585, -0.09299676983232405, -0.019516377010264343, 0.011489686098156864, 0.012175872949400505, 0.021927033938222568, 0.0043641389359916315, -0.03531916473512359, 0.09164761463327552, 0.3038643717912846, 0.4422089682933816, 0.11874271183795897, -0.19600699194116877, -0.26838642636785703, -0.6196201366273195, -0.8164499651115454, -0.6784607114603091, -0.505265775397541, -0.5579961762527061, -0.20603046994108742, -0.2190850139534842, -0.12548289720091474, 0.3148664207506252, 0.1616064084559249, 0.05818662935196316, 0.03920573399900899, 0.0362429691796525, 0.2153122832095886, 0.37051819858231705, -0.08806122733587902, -0.04157335042922576, 0.001422993290856372, -0.013784564148446622, 0.0018248874642646767, -0.0052341535050447405, -0.07508329698268629, 0.0543317434637809, 0.22882658347348794, 0.2032995320196918, -0.07875008525066732, -0.03263948951973126, -0.0750010287240667, -0.15590787815439938, -0.39016561026743257, -0.47192389789988254, -0.5122043770474495, -0.25450936151302445, -0.03092912012132309, -0.4743318193334902, -0.17077617311768592, 0.10125744086859807, -0.029320351415592288, 0.024389523417242858, -0.3074182139333829, -0.13314672732736874, 0.16320587125298644, 0.35263293180741817, -0.12528309794388787, -0.06408950431130375, -0.009482222667183104, -0.05754448937592988, 0.0010280269669408657, -0.002069131073595297, -0.017287178314742545, -0.07065765339055369, 0.39025834299508405, 0.1663118802695264, 0.028106729018337055, 0.2600521516510077, 0.06780596138940179, 0.2685634656750697, 0.13167485624688685, -0.19324148366025662, 0.004785995200397604, -0.34242146209337765, -0.24955509356691402, -0.16114966802009506, -0.14990956558062402, -0.48438944275919427, -0.20577316271772425, -0.1838074897740602, -0.45661120702442853, -0.14687190081082413, 0.10204145758556962, 0.15057683409148165, -0.11868106740478707, -0.03840286905432341, 0.018576201278737138, 0.04315670721115716, -0.014447611564554663, -0.041432748532069484, 0.0472241697800452, -0.004827434769109225, 0.5810487938159995, 0.1887531584630182, -0.005261817816650341, 0.7243463198393084, 0.5419405378228725, 0.29276295294055854, 0.3479993647317611, 0.12893531857304516, 0.3939877356562041, 0.20593911865213094, 0.20407597363432375, -0.20493417061797775, -0.3350818541511531, -0.6663956579607727, -0.4596615776053393, -0.33919423027445844, -0.20338810037652402, -0.20018906456132815, -0.12798549909440854, -0.006622275408665344, -0.09569765357245763, 0.022623201894678743, -0.04443344154347527, 0.015496265986441306, 0.04811747524982734, -0.025081886105946544, 0.09630876302432821, -0.060758899809762956, 0.4258581506686474, 0.3129840957341572, 0.16743593539695972, 0.5504409425039894, 0.4332861185882242, 0.20648972933247986, 0.3375734274099955, 0.5845652487529248, 0.7090139520896708, 0.4011844384147055, 0.047372144091918464, -0.39273526631292477, -0.403495457280299, -0.4186741647515666, -0.23757445084836573, -0.1519671954691277, -0.118005174572379, -0.3226048728734884, -0.2874869564088523, -0.07249056493886545, -0.0713223461796796, -0.012130430624904723, -0.0018098621134770864, -0.009610786266390328, 0.0787586326583298, 8.491465735266481e-05, -0.02597184193721117, -0.05376212880575701, 0.010916762167388981, 0.09297242402586814, 0.0005956318421402619, 0.07059796862687027, 0.30147064878891244, 0.22019955689857698, 0.0683450135308875, 0.08635072332810466, 0.3008721694906269, -0.031353225154099294, -0.3027304034899932, -0.29384536656400123, -0.49552880189213, -0.440651046084583, -0.39670356713160965, -0.2789566215588736, -0.29118257003851444, -0.342227243715962, -0.2333574252378888, 