{"layerSizes": [784, 100, 10], "cost": "CrossEntropyCost", "biases": [[[0.715509593112693], [0.4289166828523144], [-1.2095499085357537], [0.2920897551285339], [-0.7174405980891808], [-0.21990209607308722], [-0.9549236725725497], [0.09262773991193501], [1.1752473390723661], [0.6249248724301316], [0.47883668815595315], [0.2778837721019481], [0.7035460310867906], [-0.4101711408506863], [0.5358481774447857], [-0.3806633575563209], [-0.8870239792327446], [0.6179499845839982], [-1.6482760914829029], [-0.8680964687348574], [0.5588260350390057], [-1.2273310241940953], [-0.30977693652454835], [0.2834313527135448], [0.8582138361393556], [0.7697910240807004], [0.47507539355239375], [-1.0394319062278645], [1.9152361572408778], [2.6055097833105836], [0.8936543082164005], [2.1042923941625293], [0.4151445971414931], [-1.368313733401026], [-0.7365096764677229], [-0.20812952094028775], [0.1484716137426019], [1.2496325779336714], [-1.695468417093172], [0.8208024788032444], [0.7552454660537187], [1.1676441708420284], [0.19834506611595484], [0.9373124186312419], [0.33627694771987027], [0.7904950003727209], [-0.34897558892234165], [0.2648322770083915], [0.8806875348803711], [0.6104715249807804], [-1.531182532874762], [0.488206496328784], [0.30519102619750565], [-0.7511753121246343], [1.8788309892151178], [0.2591083455483185], [1.7271980229130444], [-1.295353096428176], [0.6181434633316284], [1.5907269393583336], [-0.3185148490059579], [1.2142290384742085], [-0.509337182058734], [0.5695575404582951], [-0.7319501714247951], [0.3462895934778015], [0.566146444465245], [-1.3384795046738076], [-0.8816114448942465], [0.49577971181251645], [0.2658313180648068], [1.9909918004829221], [1.6492099659134967], [0.437327569328637], [-1.0037278977718884], [-0.4146482456151944], [0.09787165727634013], [-0.09004518162565843], [-0.431887636673009], [-0.652716878352251], [1.8795231955244172], [-0.24496929891350194], [-0.5857168239256113], [-0.7976886507446475], [-1.0885677798321742], [2.0300638477998945], [1.7875263882065064], [-0.5331720989024635], [-0.6236055811944498], [0.7629224041266663], [-1.913754782922824], [-0.8084531772512971], [-0.6646850038770308], [-0.27359394938991427], [-0.9916812310520896], [0.5061580982823364], [-0.8229606362605334], [-1.3250561904409104], [0.28790225339561226], [-1.91763185308965]], [[-0.6782521154883094], [-0.23905759529987028], [-1.3964525416023474], [-1.2689639643803108], [-0.6933912483139402], [-2.351929646395758], [0.7492195261244252], [-1.0992645111969088], [-0.19015048464835993], [0.20639393065570255]]], "weights": [[[0.0030230235590207604, -0.005988423583595457, -0.004763715190026009, -0.0628565191427836, -0.01819440613037352, -0.059556301723391276, 0.005964218810634448, 0.008576622613285923, 0.006327843890832464, -0.03097506828898643, -0.036024247261006885, -0.01575020092815688, 0.022189445135683546, 0.024170558800810867, -0.021415453225624357, 0.05870932155968376, 0.0017028215433450447, -0.0006554321896541221, -0.007414283082897208, -0.026655718322188996, -0.005555043364888501, -0.039225784540446736, -0.0024637640807432457, 0.0003865562246736562, 0.0028921105503974093, -0.023804867298978204, 0.047412365389659324, 0.026949858454663803, 0.024175886605310507, 0.02684535540054993, -0.0004194942802819579, -0.05288057723907529, -0.014194067007547478, -0.01592899477908597, -0.006811371496291782, 0.011742792088653994, 0.08750569876158006, 0.03552376530389612, 0.005778118798312837, 0.030203296113440692, -0.013575653591187804, -0.03623942308337915, 0.012776684535991087, -0.013116338011284529, 0.021230254657084804, 0.0005632269520586972, 0.018470086272618307, -0.0037296145875540462, -0.04852193977884677, -0.0245017711869543, -0.03567105289885995, -0.012807466406357507, 0.020495309861632772, 0.021461643912608897, -0.03904038127804627, 0.055240398578408186, 0.06738376355114158, -0.027139002719607844, -0.02139555676464436, 0.00984768542713564, -0.0059077139590126585, 0.004970699068122889, 0.010728003579201891, -0.04760383373029271, -0.00606365102656581, -0.028548243710692693, 0.053101377385211423, -0.01851533457351118, -0.02767652161316953, -0.07366871180425674, -0.012162094782280294, 0.0336096784644232, -0.01791756932059518, 0.04815715979021702, -0.012307109618585233, 0.039627809143363356, 0.0017607140781202174, 0.07751457062762925, 0.011534068571779466, 0.02609756825492873, 0.003154338687084868, 0.05979083662742913, -0.021236008431361798, -0.006261882441154639, -0.07129261365994702, -0.021719617874991198, 0.012853150390606574, -0.02911929534997539, 0.02900372074586814, 0.00753537788752976, -0.0052468639837753754, 0.07935493795308687, 0.0076341770442807525, 0.03850385621380264, -0.03349265720977702, 0.020733454304744634, -0.04641697492472415, 0.029768700522239448, -0.014905666944855912, 0.02254688536597299, -0.039785942491483574, 0.011835179608716514, -0.03755435986978332, -0.05321220513478902, -0.0022254145579061733, 0.07688347550624224, -0.03581519634636081, 0.06368098995479513, 0.018904298635683887, 0.0018552541113751452, -0.025508388271463046, 0.02126998223368795, -0.013842674539603328, -0.011870451460879209, 0.09095107493279365, 0.04117749110390832, -0.017287155348786075, 0.06955368022642539, 0.024855969119929256, -0.017814887830515883, -0.006445378740057334, 0.08595659395495894, -0.010454704808753722, 0.03187289420427032, 0.02073289313286528, 0.02859311758028175, -0.06962395903281995, 0.002335059076779979, -0.0490021527825286, 0.015520417958983863, 0.01312747023240744, 0.013039045086297437, 0.028792486159858157, -0.042241024737249576, -0.012496895536236846, -0.011062268017950556, 0.015404006615681318, 0.04310177649104175, -0.013687982762614822, -0.020569390765199872, -0.02060438256134903, -0.03019076722245508, -0.0053965942100969175, 0.007801856917468675, -0.029097207744226142, -0.06441413212196172, 0.09398321615458882, 0.006250521572882665, 0.008400617700007688, -0.038184100834808485, -0.044526163042043654, 0.0019276268339166384, 0.02500518336677233, -0.024197973962574632, -0.00141817534867824, -0.015093419580963618, 0.018051426140880282, 0.03924837649347905, 0.049096679097457976, 0.018341365944419128, -0.009315787898450114, -0.01758443299044756, 0.05767086576524592, -0.017326242035816408, 0.04164260863693422, 0.03348414183918024, 0.025424068975108516, 0.005055182364967167, 0.011430981373553029, -0.016513776961181163, 0.018379834219191916, 0.012366753244235822, -0.02180771120823255, 0.006732570980499715, 0.023382818797028165, -0.03934126864298203, 0.006467282354872502, 0.006077413091977986, -0.08941818748554993, 0.0033305621541501866, 0.03959031710413561, 0.029657551981178493, 0.0768953943611815, 0.007659354334951164, 0.04765842605454732, 0.04602805440809817, -0.021502121220396124, -0.042746067216232565, -0.018143232237170213, 0.01553967348744793, 0.023483179138681913, 0.007609946405352765, -0.03469461160812506, 0.01992738996117372, 0.01833252701267808, 0.005250594000420579, -0.006340700361003251, 0.00829387252224103, 0.06162062556569025, 0.028176944966381373, -0.01942014927479353, 0.0444578427202025, 0.006967642179726921, -0.0110947545381059, 0.0073306170620977265, 0.061700497148584846, 0.033378686062897664, 0.025997971667082346, 0.051851131246066044, -0.0069431439894727725, -0.016182342857402315, 0.013713883919746409, -0.026721411497029588, -0.0037935743599876383, -0.0008769230759951467, -0.015037222964312105, 0.0256837692340423, 0.0171338823424556, -0.06676543490881778, -0.010580746794981503, -0.011691104048227836, -0.02222909722166967, -0.027818306588804815, -0.051574797177319165, -0.017590614217054695, 0.04937564905717668, 0.0506386534632881, -0.03064867198812907, 0.00017639098927902592, -0.05206726684230382, -0.03633763426122417, -0.023610812036708412, -0.014990032696968855, 0.007256188002524618, 0.01611634667997077, 0.0232224721345334, -0.041252366797853206, -0.00010041097572275934, 0.024404532520129005, 0.05325064984327756, -0.09242710941333883, -0.008931193492596303, 0.016927028884070005, -0.0775364323711717, 0.020001793032559084, 0.031195332620445125, 0.029167668341954483, 0.02372036702734865, 0.04138643045292435, 0.015819676417403023, 0.01823037288495499, 0.06766818038292782, -0.05402527985129305, 0.006435765713029936, 0.025440089531869207, 0.05445066042488848, -0.018250417726247362, -0.03379151377319557, 0.03215746712960637, 0.021206632387713927, -0.006232508352619286, 0.005793510133035691, 0.03956526004259513, 0.007763239140913961, -0.016447884439180372, -0.007287135526062949, 0.022888157269482113, -0.06034523937187197, 0.03592760340424584, 0.04956275452949445, 0.07703400757751719, 0.03528506235344868, -0.026640842084472083, -0.009409445532132531, -0.009618362189758855, 0.04981752228164758, -0.00046534203485611256, -0.0018034436963019844, -0.00415215732447933, -0.015182829219888708, -0.04378063258664792, 0.03303915086490726, 0.00019054952953369305, -0.00955586208073574, -0.049546126710562126, 0.015906108447045757, 0.009693729680491318, -0.06143112027590218, -0.011057961884589757, -0.08444267331963044, -0.029764578096596023, -0.015875454775182683, -0.041123741760350774, -0.007769419579560706, 0.019269440179928165, 0.049337251153454297, 0.011023430555660312, -0.003412339520888519, -0.03945507684657399, -0.05398255269680717, -0.013393576578502172, 0.032358984341903256, -0.038189487898354454, -0.0038970260653792507, 0.03808294216836729, 0.03364395809855818, -0.033378132178759214, -0.06938623526527836, -0.05017390044565539, -0.007515605627925277, -0.009504935294589437, 0.007757461791630913, -0.010738972516633336, 0.0016209450554319042, 0.03515411263654622, 0.01708203738943535, -0.018798554897654345, 0.006930158200580358, 0.04858016360749371, 0.013842531091392067, -0.024774723701751145, 0.03140184176234355, 0.01751486670934917, -0.005047338455064227, -0.02135251050736296, 0.0006903068214722203, -0.0021050408526511917, 0.036452476449481075, -0.038152613729746036, 0.06045601192503797, 0.027265924549948722, 0.011725980384380146, -0.019486921587317404, -0.013308273806676582, -0.031229539707115624, -0.02733156970437155, 0.01919261871979397, 0.02587369272848188, -0.026791914642633953, 0.024975774665982883, -0.02550918789529144, -0.02175003813318088, -0.041307152496264564, -0.04133830102267794, -0.023606592569405806, 0.0025782456298075866, 0.011036108580261795, -0.011678083015347911, -0.011713361715844197, -0.049111496254436185, 0.02242708764887186, 0.008257111894065574, -0.012770156671726502, 0.02479012349086563, 0.007349633654786863, 0.039001162399896684, -0.022170383288048677, -0.019236975146157857, -0.023826900074460068, 0.030174809600098936, -0.023320365408753953, 0.05832521742720297, 0.05017916602383723, 0.018147684566873372, 0.06687930642886751, -0.018875208421300284, 0.00409606734790485, -0.0332992900997604, -0.0360892791288995, -0.009942153050234668, 0.013160242666194297, -0.037048082491756985, -0.06360905684453157, 0.06305208852451384, 0.04223163096734654, -0.0026508955998713096, 0.04488412486597145, 0.019773242274816447, 0.014715886538408557, -0.011550855702645284, -0.05156855468773778, 0.05710925241245817, 0.01092113894417861, 0.023894352400084886, 0.0233728829779373, 0.010145726158702864, 0.012654629650859327, 0.012017145594578033, 0.00919811791845224, -0.018386875051126832, -0.024862485670834787, -0.021378541164006643, -0.03090291093523089, -0.04524864033231495, 0.015580646978852152, -0.025031184078152625, -0.05476473699758222, -0.009368276048741403, -0.03825968925358951, -0.02788811943632943, -0.054424416816028116, -0.030867618152670546, -0.04463876126915548, -0.026825283924900793, 0.09756245979543408, 0.019809874797937797, 0.02733501560670925, -0.0150656651464337, 0.056420683157140265, -0.0172078509976438, -0.031624259335172655, 0.004418159055123392, 0.0303653748179939, 0.02421257017137373, -0.01589928219764464, -0.02162526721388586, -0.03091792488703834, 0.05915098867534483, -0.020028700007558364, 0.0025183469532098868, 0.013891748235644565, 0.05509186262895708, -0.018483484104222243, 0.016799656893584956, 0.03709439167710454, -0.021736254590792703, -0.027742664447979265, -0.01951193680619629, 0.0030011001107995705, -0.038196466814960285, -0.07386096906684625, -0.018633108733409492, 0.030790942316098104, -0.029127851105503342, -0.03086088370938354, -0.02276685706146154, 0.03906929944299796, -0.07594938663415293, -0.04789841840275714, -0.02897971432946558, 0.043920492690258064, 0.022234065555110694, -0.017188197376462554, 0.037662041535060135, 0.02809943255571406, -0.002798188561835942, -0.025027811222374106, 0.01203372751019787, 0.054374234905941156, 0.04033710728953376, 0.0018250386766764308, -0.02539457124739558, 0.02365622368437615, -0.06008816126846127, 0.01610693937478784, 0.021895801629062163, -0.01787466725303048, 0.031972734479911016, -0.015314544621632408, -0.037330691450069335, 0.02388911224072809, -0.012821037407917988, 0.004321662193981704, 0.0010371610252907033, -0.021123899686787136, -0.004475814077604549, -0.06696491061350178, -0.019060443693728748, -0.006476501089424561, 0.003790631825178413, -0.012366264011198959, 0.014113686286309535, 0.0554471817134311, -0.011844520239720418, -0.025853771514671917, 0.005212914096196534, -0.011239052602566958, -0.00669705692488857, 0.05362352426493448, 0.07052690575583453, 0.07073727948959282, -0.016138891059187668, 0.06132177111325806, -0.011622199538686637, -0.03763587943210988, 0.017612348437048106, -0.04150608048812244, 0.051876476488743654, 0.016324088999006385, -0.03248073678363537, 0.05180767101664716, 0.08456440509909734, -0.0016806852733913075, -0.027877602683534213, -0.011416076840222961, 0.007257404715445217, 0.0187830360635092, -0.018665713280535456, -0.002808885737909131, -0.02403989672189313, -0.03000627502389736, -0.006812073615403096, -0.01378984377812627, 0.03234008073536131, -0.011318410764188361, -0.04172726022315929, 0.02317417476730107, -0.048790993349118135, 0.03445497542290178, 0.04676384093207453, -0.04654771344436807, 0.016967661983296706, 0.0008969034073517364, -0.02148312152541255, -0.01823876019161028, 0.04254093466146037, -0.02117872417419544, -0.004131839528029606, 0.0036397496948314444, 0.026817385288253198, 0.02990598106115593, 0.0024192205512454435, 0.004982950833192948, 0.03969552033838714, -0.015931044771986272, 0.003290391653186149, 0.05518930323425628, 0.061657458460512245, 0.0013604137488028207, -0.07126559412934776, -0.00025535199167498834, 0.025585898425126475, 0.04948772256610914, -0.003154307643828217, -0.005953839272439407, -0.034599196808968245, -0.021894609472707226, -0.03409349618592671, -0.053963387476573775, -0.02481349331571778, -0.03825711955233122, 0.028982473915768265, -0.022728288982732794, -0.04936896234575711, -0.05307729290893622, 0.019824551616768347, -0.022151513391381352, 0.016688095852266393, 0.08721528760408402, 0.07785308328614214, 0.002396199224839807, 0.042513629327542955, -0.013217881375958725, 0.030151274447169314, 0.008184411802872249, 0.044750297094005194, 0.020734350274169172, 0.0022497770627436906, -0.05861516998758779, -0.024197703740189442, -0.009690982776689594, -0.009895014731144828, 0.016032938002485408, 0.015735520624056826, 0.033902588402030386, -0.019811428541245284, -0.0546521598660858, -0.004013413691185397, 0.013007148502750965, 0.025174157766153914, 0.010492265480690348, -0.015710782512626063, -0.026957806476637373, 0.0001854962174826263, -0.006382069172515393, 0.031343498972575136, 0.04181031882136503, -0.031005775623454274, 0.03401670527583591, -0.0734293883056705, 0.023883999825737558, 0.04156021826034181, 0.013406405610328997, -0.002093253292779937, -0.004655647292681256, -0.015489210262629177, 0.007476091706789976, -0.024225816295097586, -0.016294189337832422, 0.02226657095991202, -0.013019877497310485, 0.05952490627078382, 0.0170274574830316, -0.03769964620092569, 0.009146933189765494, 0.019365580142813806, 0.0077192387515327655, 0.011274691508808365, 0.006127881309669969, -0.013771357049743855, 0.04524401495063211, -0.026211954249532498, 0.07116499887069487, -0.019279745070011213, -0.08120218773220787, -0.042265253315405885, 0.015158140409220824, -0.00686434146706464, 0.012963988865898137, -0.04106772988491479, -0.004589118424028385, -0.010960445129865501, -0.02835434562800581, -0.05727647567569792, 0.02540934900559866, -0.014571647450910895, 0.034956497735256394, 0.0050635859246213385, -0.018321652712841217, -0.07687281191217542, 0.035485350093315125, -0.02346265171255141, -0.008743049411298541, -0.019189228551567798, 0.0068541229753648954, -0.036656436231891965, -0.04593855596808638, -0.011903475366037012, -0.001858184466025181, 0.0012422945731101309, 0.06519312470440092, 0.00960231460116219, 0.0001306317860117207, 0.006235648051380041, 0.007679195043705718, -0.007586697539468365, 0.02886440168370072, -0.022716355472992524, 0.00977853833390223, 0.06947876063495048, 0.010391145627055075, 0.03363308318033088, -0.0021270361816303094, 0.05685144913472894, -0.054755243314287105, 0.017677853554029007, 0.018429235502726626, 0.029088228593706293, 0.06706830879345922, -0.0075979687306236025, 0.0036103063735493, 0.02969069974027459, 0.04314248711686762, -0.02093118521251165, -0.014206015103048268, 0.0031256512174611924, -0.02941696386839087, -0.04087925782314512, -0.005209741426440385, 0.037959528572708165, -0.012375345346965662, 0.03573961793178385, 0.034373009924612306, 0.004147543861928075, 0.03539812266704371, -0.061154298100417136, 0.039543846092894, 0.004604275620828268, 0.050278454434897604, 0.016891368321560525, -0.04265262269828309, 0.04660860736633154, 0.032467319085341714, 0.028730334049766243, 0.027262873861173896, 0.09341280199733946, 0.05243733723050633, -0.011439849598658004, 0.05119247745083949, -0.020642320538713087, 0.06490240804444165, -0.04914046078777482, -0.04610659555435593, -0.00806860327317784, -0.0064356567972228005, -0.06549311642788222, -0.04986616034293994, -0.03754224379763481, 0.020236392709398275, 0.036086397232764474, 0.023738822753075425, 0.02157838358532916, -0.014202370113563501, -0.015369433644825613, -0.030610121317866123, -0.004620699684584635, 0.03447053412024543, -0.009330041370373545, 0.004144460369960942, -0.0006752723955138088, -0.07644941819761715, 0.0020807059057319326, 0.025717020937134693, 0.02260573085057252, -0.030735492625518248, 0.016934320227212227, 0.06149572258577328, -0.0421490715037519, -0.03396398848535802, 0.03671535368285374, -0.010127243364442044, -0.013367000257828276, 0.021765800082438013, 0.07019967845301146, -0.05236395881096097, 0.01016441064906609, 0.015267436602309994, -0.05126233343657335, 0.050716400215498225, -0.02143302608295373, -0.04136527727323446, 0.018603415071359014, 0.006533436737002285, 0.015528966098082676, -0.000881948068728011, -0.007437006547938057, 0.017521911338972216, 0.028984145700053005, -0.030093271281876572, 0.06372393605079246, 0.0139521922947332, 0.0030870517994378553, 0.03710184740496565, -0.013615192337969572, -0.03001388326682298, -0.01143105779112112, 0.06004002652297486, 0.07714625986439459, -0.005145176762161611, 0.0021232292525074636, -0.021898265631274925, -0.002899072226155729, 0.07274981882147154, 0.018140721001646733, -0.0028051775394299537, -0.023902606487488064, -0.023237760449309478, -0.04207645867298497, -0.03405814779205682, -0.004259439478782365, 0.0008973766144162544, 0.02007908522476614, -0.03476311217056699, -0.011086009879855882, -0.005421555492266118, 0.012891318062568958, 0.0017667537839241364, -0.013627126993609826, 0.010033245387032147, -0.019541474751760123, -0.015103696746698123, -0.019682844384688907, -0.016803751440563133, -0.04142430901124228, -0.04198701980122922, -0.0411172908260992, -0.05864639392258777, 0.042568884260074276, 0.02714449925904424, -0.01939043198034002, 0.0023629713305544997, 0.0021663473681454775, -0.025090782666872195, 0.018014497602788317, -0.036075080065725344, -0.07719605685773792, 0.013263396042153602, -0.023558848149287943, 0.0022475128522857013, -0.05295590985520904, -0.004442356800755688, 0.0376090376794621, 0.0025949960139876123, 0.02486436080069144], [0.002557930053054401, -0.005730245420216579, 0.003657326359727649, 0.017172609637916638, -0.05016593572860293, -0.00395181952023101, -0.03977297369095119, -0.018574961018380735, 0.0284397964556795, -0.053970479654589135, -0.018699806383751, 0.0017152977737993063, 0.0402044003953777, -0.011205399891001633, -0.0032817935523861137, 0.031685045901563444, -0.02596219828721183, 0.00028319390756855936, -0.06197659050418255, 0.055791271318525626, 0.03313229373427266, -0.011195150852932783, -0.003773873325712271, 0.07939489544344659, -0.031647239368818005, -0.020844134356242168, -0.01023087811984363, -0.016033270913023208, 0.024542813486583184, 0.009455621192151846, -0.03113976798079322, 0.002496135458865903, -0.06586882027485096, -0.07448094417971797, -0.02397620755478336, 0.007912779044028389, 0.02944323786342585, -0.05653999320130271, 0.03980863665378753, 0.004253108990044612, 0.001549872360064278, -0.05647025677764588, 0.008328733926841069, 0.021340532008564502, -0.0600535123636892, 0.03049371344735317, -0.0005167096683587789, 0.05572430062587232, 0.028755356776221385, -0.02548651866214339, -0.028638073946400507, -0.018340712127114963, 0.019837136011498162, 0.01206433747370147, 0.06148336628400504, 0.018522755414982692, -0.0009031019325932444, -0.007488327162791203, 0.003977421230730448, 0.02930210344236472, 0.01948752925930111, -0.016025402178953405, 0.005972117728346196, 0.011015372891145153, -0.06006720615846518, 0.033349863048278326, -0.04954604760098693, 0.04119198030376638, -0.0439635073040015, -0.00011220495193338466, -0.017813006072596067, -0.030143010525213808, -0.039327466132154286, 0.07098299845643014, -0.005891668692990593, -0.009006175492879371, -0.02333056759724799, -0.020307146646861892, -0.018259375441956847, -0.001667492415583155, 0.019762253470674864, -0.03180615934167836, 0.045157142394419356, 0.0053039825892869565, -0.0037643106527786795, -0.023528268295370885, -0.051131480382492815, -0.005169588638056764, 0.020426000301773748, -0.014824922988422737, 0.002863819721311454, -0.05327327020559193, 0.00010406286308261851, 0.004844332128886077, -0.03134146784709097, -0.0461378036136267, 0.00865643451300589, -0.027080034407029746, 0.034278007963438974, 0.03651965176446682, -0.01145584588800638, 0.0038328426574584713, 0.02947716258181687, -0.044634257193368276, -0.007944466119688628, -0.05205293808418904, -0.058165003226641684, -0.018115137158595036, -0.018518155129461568, -0.022802280342021846, -0.024045431317212266, 0.006507524283658276, -0.012015354845041046, -0.026449170248794646, -0.004837148511874537, -0.01201555989818757, -0.04395510013625731, 0.016116167986946397, -0.06041989431627152, -0.012151553318641576, -0.007093678881451118, 0.03577382733311614, -0.02908360415324993, -0.016349381868192542, 0.03570913197927144, -0.03124851486484056, 0.04217040138807458, 0.06082434846536945, -0.06476128938110948, -0.07071135957103807, 0.06417267855839762, 0.03077429032940567, 0.06306037110383354, -0.06531779678955361, 0.02172510072484638, -0.011121720670196846, -0.03733203887869927, -0.00985989778281769, -0.02555554062943901, 0.026495615030825207, -0.0013297584513574834, 0.03239311781589591, -0.06524756632674142, -0.050546842983040303, 0.004867762330070203, -0.006669569622378478, -0.10063860137660388, 0.029227342393376265, -0.03342246884733794, -0.028187651981721205, 0.05456457110900065, -0.006835741881463102, 0.0019954752944630664, -0.04062079185103562, 0.024917574107129876, 0.01304193152149483, -0.06767617363890342, 0.019515889227598875, -0.0024156522258056454, -0.00798968877534271, 0.0018922999202598922, -0.02830419751573934, 0.002885961108407785, 0.0048572197459750025, 0.06892740011545849, 0.005047176308783191, -0.04456983008391369, -0.05231170636845583, -0.015310448604502569, 0.03205474522092085, -0.0005010046701774535, 0.0439537193937576, -0.03294883221505544, -0.04261319056072032, -0.013587373099506223, 0.017690443621103013, -0.011222864285532945, 0.06867680709526618, -0.007277711598225036, -0.015030263738028965, 0.01865306798620283, 0.03202839886733191, 0.03454808063891474, 0.03944256552207316, 0.05258857484129221, 0.03306469907039886, 0.03146146404485258, 0.05777505224583444, 0.0011578874402039631, -0.035549836534180854, 0.0018390492049134258, -0.02599750129193362, 0.07752502471529625, -0.043724952936810516, 0.055963129451838005, -0.03911044760040824, -0.08152296570788055, 0.03935571747285419, -0.07444037400907452, -0.007934492266415705, 0.0027151824335748987, 0.018968497118378166, -0.006093765932311159, 0.008579261307740157, -0.020063965115715093, -0.025515307450406883, -0.07272032647699513, -0.018093789646753095, 0.0819015843119478, 0.013873952122867891, 0.010572952667479877, -0.03566957613575822, 0.02146692827866068, -0.0018738725017467147, 0.0005027491819930889, 0.03945680564438296, -0.0032998727824659463, -0.033221097381169934, 0.016734597736478382, -0.0018319796833264252, -0.01452816175744785, -0.04157222902102304, 0.002684452520348484, 0.04093758682112751, 0.06608547683989621, -0.02975300283144056, 0.021991294834706333, 0.006729662585386101, -0.031331015095672744, -0.08292664978426681, -0.06123396748592983, 0.033208032610236554, 0.04311450986110058, -0.004993642840722526, 0.03728876014049236, 0.022938720887646376, 0.011506190779746876, -0.05568986044447335, -0.012591287867011238, 0.09175898109571011, -0.053146919874543744, 0.018285264585223306, -0.010136537247761946, 0.022366422681466554, 0.0010399535956006052, 0.0014257696403982053, 0.056048331998159694, 0.02226580865054655, 0.05584812072100114, 0.024374554142959796, 0.01014060112218866, 0.051724515571091374, 0.04713666519597135, 0.008115303609857454, 0.02868665149413444, 0.006322485802654855, 0.004619721703984481, -0.017201761530246388, -0.07520838552411066, -0.04407005394819631, -0.05287522259619655, 0.02066606158985871, -0.06519707551844416, -0.07898184486665592, 0.0421736342418373, -0.011992101028087404, -0.0318002042424992, -0.10059994150933435, -0.04281461010820335, 0.05950067631852931, 0.021515949867025846, 0.03929768325472072, 0.010731117550723248, 0.03927319016245346, 0.09014326301078339, -0.01018107771438528, -0.0049019716359435545, -0.013780115372014885, 0.02046929310229333, 0.0007781398352564788, -0.004195866771206106, 0.009240652280301204, 0.036137873045017206, -0.019164189047499232, -0.00958304858751252, -0.021451059538735075, -0.01280896215487469, 0.0767712553543958, 0.09684573755652721, 0.004132326277218876, -0.010223351189904065, -0.027369880166372602, -0.006154614683555051, 0.04754284461091218, -0.027830425423526702, 0.00923046944531422, -0.04101482287005155, -0.028727750917688564, 0.007263452765783643, -0.02284074021998959, -0.01466104855237427, -0.06809000623391213, -0.04056657304086945, 0.033089558967283786, -0.057446347479456025, 0.04830471735316936, 0.003947202307967891, -0.032434418443575204, 0.04623342509721546, -0.04704507989069109, -0.06491773731292359, 0.05208177198578599, -0.025553277983530985, -0.0409932928579436, 0.001665070951386202, 0.03353868923497633, 0.035311224923650526, 0.039302370684439085, -0.032378509960744616, -0.032590363357053835, -0.030169972371474334, -0.008081857379262524, 0.025089341777702907, 0.0001412176602067275, 0.0012755876555214948, -0.017106304523997497, -0.05117174103590165, -0.012848781029496093, -0.039428791598146176, -0.10404203257350467, -0.048331650551785496, -0.04275444175405992, -0.027226148790411298, -0.033050909896026874, 0.010052584148000723, 0.008589771511588084, 0.013249510480706292, 0.002385013246014315, -0.03003898823745038, 0.027789665041679505, -0.03061342786215097, 0.009274286200893324, 0.023691393146076805, 0.026244153558166165, 0.0018695373324436864, -0.0177059064991154, -0.007511319697773882, 0.007070384360110614, -0.05796073360750886, 0.027059213433880323, 0.04228291567888503, -0.027306880817852756, -0.004021693973463253, 0.02375351497123786, 0.05869317839172048, 0.02900386151004943, -0.01663561616952003, 0.02169376936140258, -0.05985259661475066, -0.0010804660015675672, 0.02175652268826863, 0.02169538069404162, 0.01244701977611792, 0.010372159852945753, 0.037182035544861894, -0.006015482037668071, 0.043708886444804786, -0.016170413945598767, 0.015045314310314865, 0.04659489483457401, 0.07483854076536403, 0.09995645552553359, 0.008478689765646913, -0.00787251963424145, -0.00010705818774362585, -0.00029246052673771397, -0.0226128076980931, -0.07237917463684215, 0.0321342105479192, 0.03385509632349419, -0.08573216296061563, -0.05348743528453818, 0.01172191952633487, 0.07360998475652794, 0.03567764561326935, 0.029567136885094186, -0.041957317283025916, -0.06395024698254789, 0.015150870521224451, 0.0022898132639265095, -0.04715617299774228, -0.01419929485050704, 0.02593553227397003, 0.0059631763431439565, 0.004091806246421891, 0.009485139280914585, -0.01854942813237249, 0.02768822405486568, -0.042382389283162174, -0.026370124102453648, -0.046839041106969174, -0.007162283541517869, 0.05177593989264454, -0.017943382689569267, 0.06926703382928195, 0.02121017857226733, -0.030398401783896606, -0.004981531793950217, -0.008578994434167278, -0.0020463677639182692, 0.008511324548173552, -0.004073310022418334, -0.007961167178914314, 0.03598810666724818, -0.03109307425535292, 0.023810414148671882, -0.04702172222697132, 0.06189554152879443, 0.0023111979755890853, 0.03523631378431932, -0.0010719582758197815, 0.012498860675141027, 0.024815405253798932, 0.010969325363598103, -0.006200178372641926, 0.023965881742118476, -0.04488681482974365, 0.04623696273456951, -0.011402404108382365, 0.05531540846854838, 0.019538620227445312, 0.011304106037322742, 0.02139213350338303, -0.07136943747944961, 0.003123622073446398, -0.0005735662142907746, 0.028614218339352147, -0.010842562643088369, 0.04865997564489564, 0.03411004581798286, -0.0523141669262272, -0.0133410462356299, 0.017595145795412846, -0.03446097425950732, -0.030980866807106298, -0.024396727320528395, 0.009094120356910512, 0.02428645540487864, -0.044889340773514044, 0.012648833752754154, -0.021265004477042004, 0.0122718520629075, -0.0038045046762139045, 0.02684141747133346, -0.004246701140876599, -0.04640899263728019, 0.004968120653127564, -0.013526476882810676, 0.032349063926907944, -0.10502694601418205, -0.019872130049503788, 0.049047305209914405, 0.017737181532037342, 0.018638004612692705, 0.011959339013321926, -0.01333596698136533, -0.011376907437741422, 0.029074528725035183, 0.0005102098953930264, -0.016523113917427102, 0.08162223830355644, 0.0437928807551756, -0.002867191434933969, 0.009672298657118036, -0.00026195820170897094, -0.08756633628565187, 0.028416749820777597, -0.00014071433099332474, 0.02984119066369962, -0.06419894447632267, -0.02447744735062753, -0.023910205044047072, 0.002805969971196212, 0.0701970601428163, 0.06478469097696064, 0.02965170208704942, -0.0254943208871104, 0.007664960652456995, -0.03163473328268963, -0.008999344465913854, -0.02124874553913372, 0.008597635271861487, 0.016934809627159427, 0.056692681232436405, 0.047030667533154435, 0.04513454029317345, -0.01385959335591551, 0.0006759363654622218, -0.07568212245890003, 0.03971028674019156, 0.07135765337177458, -0.005640228796456536, -0.013618004414256982, -0.06626711678267343, 0.04253311271813879, -0.046051242626550734, -0.008855338823958147, 0.011930672911722727, -0.02228026734090421, 0.03254627231113547, 0.053311488790674585, -0.005949158682793423, -0.05855120690186999, -0.0022968183813542133, 0.022325975350741233, -0.052868875871789234, -0.012951806889922274, 0.05864509906869449, -0.013781894153574031, 0.029597350842248755, 0.01652250659290384, 0.07204225229893933, 0.05112633142892964, -0.012793431130776942, 0.06723063695107914, -0.012527435007694262, 0.014195469457177265, -0.010014899349819566, -0.05086607614949144, 0.04434680241809445, 0.007373534756242555, -0.0062623041290090845, 0.02751626592300782, -0.009017576911253867, -0.011658923624015173, -0.04310796734188227, 0.02806519797250815, 0.022815874783232833, 0.005497737372537553, -0.043767730508883516, -0.004885922755600889, -0.013266219911767421, -0.019121100161441706, -0.054786626523449934, 0.013571392053313574, 0.01908318658047076, -0.007789159086679769, 0.02974217975832045, -0.041627116137104236, 0.01950208919282262, -0.01978305421498911, 0.00629717931880488, -0.058846048920799525, -0.00916207427598437, 0.024219109152682137, -0.011662287653215279, -0.009021030048696555, 0.010261630112401988, 0.006294938533969433, -0.05595825568821012, 0.01463305684463156, -0.0033633497728606148, -0.01020340310570159, 0.022309970432754598, 0.003959233770109499, 0.019148629761822942, 0.0370506485724341, 0.02841534014410232, 0.01865703223778159, -0.02751959338357233, -0.017874175730067835, 0.03637666491245402, -0.035089135075492335, 0.004520008256112353, -0.04422573905998219, -0.006415611479220819, -0.025414033217341602, 0.011130600951667763, 0.056223190426400206, -0.05407091822278665, 0.10580902241952202, -0.02836179510796636, -0.010480506221058837, 0.0004202033341710026, 0.025000004427690268, 0.024325923363447848, -0.015231508324528997, -0.017921239423020856, 0.006587692905857867, 0.04618227406917523, -0.0030943165464776758, 0.0738552440148439, 0.03790401454966941, 0.008766935134764354, -0.010794254072780689, -0.004558404990313932, 0.03998066723854671, 0.03969571655953341, 0.013130489810286916, 0.004807828479458008, 0.02915078474033462, -0.02031966577552386, -0.006454321098359273, 0.0389780082496864, -0.021982955694089024, 0.008509220536096289, 0.00871734651076463, 0.04264646222420138, 0.009374345181041884, -0.006572987532310668, -0.02689343053599939, 0.008707365711874625, -0.08874783454110902, -0.004147925122100654, 0.017810096034881227, -0.006340011996088432, -0.06364708112891448, 0.0674323127885675, -0.02838120796308365, 0.03767957018100979, -0.031109794594393593, -0.013375940529891233, 0.020018860296883958, 0.0006698941675156179, -0.004841492493941159, 0.05325273260223149, -0.01616073234914401, -0.023809300986998287, 0.0322062085266253, -0.0069201418636316075, -0.001324661340505455, -0.03745688880227004, 0.022632850589091386, -0.0527026890445374, 0.009052614177265456, 0.02652291502481116, 0.007257933163810847, 0.03575862418564948, -0.02643291347213349, -0.010350965324006811, 0.03466067010035893, 0.030219092350656136, 0.06717595133669577, -0.03697267742119475, 0.0719642895977038, 0.003714228309213193, -0.06624971799885983, -0.06041120322831491, 0.09825565837575809, 0.0022925857460669406, -0.015244760615546091, -0.07999521462496571, -0.06672842927238412, -0.0015290549360360325, 0.0019906023006206618, 6.451286057420303e-05, -0.0051146997351231025, -0.008629915310806811, 0.04111251444619389, 0.004211364170391648, -0.01180905149600746, 0.03125718374009897, 0.012556396179658749, -0.024388796594079325, -0.03967092549669896, 0.05800496382700735, 0.007642698931542039, -0.0072046902821999844, 0.02586486418138193, -0.07445511230832692, -0.04453641896193922, -0.06005839806126725, 0.01805224369753941, -0.0011764764356852826, 0.03663277227192306, -0.006453549628199802, 0.008741087058980667, -0.002189747838591643, -0.03703375624839479, 0.030292840542252147, 0.0513847473471063, -0.059024748618719425, 0.018993561583935455, 0.01615901190279893, 0.0013356494675146574, 0.012869315652738089, 0.03728017541348735, -0.0329766671982193, 0.0734056214275053, -0.029810364180371803, 0.041473397405892246, 0.03168316245693221, -0.01588254182928973, 0.08411195963142905, 0.0060019758570739766, 0.011094817629854934, 0.0172067725573648, 0.07408683597197509, 0.01005634353238585, -0.02413099923699883, 0.025148943433158818, 0.01778330461851704, -0.017722272073259025, -0.006002734646320782, -0.031754323062850406, -0.03885319488138021, -0.03905285099625859, -0.060814965625884045, 0.026856755814404935, -0.008953607805985548, -0.0026166226581052286, 0.005569250734425374, 0.013220691536146125, -0.017361864527221063, -0.03413840087990288, -0.04281423199034644, -0.09636992718146954, -0.030495578824521426, -0.006918380664395695, 0.04359286593908796, -0.02215361777798633, -0.03436274242568584, 0.02047798115590398, -0.05260435183522806, -0.013364876717805155, 0.00306193719290565, 0.01498422552539659, -0.016439866224615404, 0.04783869585835828, -0.03822878840075602, -0.011224880954940926, -0.018365059810111824, 0.0654525486084219, 0.004898622857220308, 0.0028269894920186535, -0.04301148186283989, -0.05413691906988586, -0.0211841544704593, -0.03606974489176037, -0.06623587076014936, -0.05935639456153706, -0.023747226943282067, 0.047094659405111435, -0.029161549365508667, 0.04794305055956449, 0.1025731547937918, 0.037562228075645424, 0.09165454817141748, -0.0056825857131431404, 0.03386350061592996, 0.01801990369128617, -0.018791092980874783, 0.005968562347824553, 0.013097489576171033, -0.04338004687590843, -0.026392758900944842, -0.03419209246908244, -0.020800499318889307, -0.05575497866457974, -0.02579149928281598, 0.02698374474731921, 0.012818196523923367, 0.015231486339733718, 0.029380194526471396, 0.09158840071494163, -0.03901346100480544, 0.0049962983235136765, 0.0210941794724543, -0.04444621494768305, -0.004158524577993437, -0.0968158969683777, 0.017953037467284487, 0.0017215145659407176, 0.03136894686889439, 0.017159367110404698, 0.019324872855380298, 0.0016224108694469503, 0.05123172893462057, 0.030678485606518906, -0.019695839109809345, 0.06294645923603746, -0.027853929666707727, -0.016270828859602866, 0.09599005648110505], [0.0027552499077546947, 0.05717117590170506, -0.02941812509542944, -0.0100325550680573, -0.025754846542082658, -0.08059891569769394, -0.019897686964099374, 0.039873351368034514, -0.02758175891324275, 0.04549457123664759, 0.008932840338635941, 0.04811253998785158, -0.044129872534623006, 0.03290131797659886, 0.01902179585440892, -0.013120457418260146, -0.0286323599623923, -0.02674093934712714, 0.0007793874638715857, 0.04365956725288671, -0.008600697595238254, -0.019213781604965098, 0.035663109353661876, -0.04595129871739445, -0.024932119807067155, 0.08570233478252275, -0.014867161614252913, -0.03520175505545009, -0.035915628179435374, -0.009925721382174877, 0.014315682198253807, 0.03309546412367868, 0.028306972712554803, -0.009416144695159516, 0.031018776019761135, -0.009522229513818764, 0.024600800388970095, -0.03840499009841079, -0.030026869540667966, 0.014237256893640665, 0.05368539773959986, -0.009894599304368295, -0.06641444902051061, -0.03831035281156974, -0.02958828069857596, -0.020411435100853338, -0.02876824076288235, 0.07498237046820454, -0.006838558257119001, 0.09463733409111012, 0.03348129075880513, 0.0011526774344489759, -0.016473222413360085, 0.024460998354818953, 0.018156687332800642, 0.03736486447469749, -0.036836501583680514, 0.053373368723951244, 0.01913736842438674, 0.0695659758660963, 0.03400390819676446, 0.0009358041625485339, 0.05164656749009011, 0.01327970853977819, 0.02199116708786188, 0.02366439779549157, -0.008733878669526948, -0.04423530458933576, 0.010146279279182423, 0.02038307318285269, 0.044016594837939495, 0.030397073354332765, 0.016687834818242497, 0.0012332807985278513, -0.0028470792091794357, -0.011294468811683556, -0.011870225214694649, 0.04630513014607819, -0.00442430237059062, 0.07403989419903488, 0.05171143135775961, -0.04269653131750858, -0.08366162431452287, -0.009720215785652561, 0.034760616242553714, -0.013379690409598948, 0.054923301435828374, 0.036450318238925035, -0.02493275086841798, 0.00878741380974924, 0.006688800998375601, 0.02289755103979531, -0.02739932589727002, 0.024409888263778573, -0.01177293548137824, 0.03853035323120677, -0.02957550913785661, 0.04307276274228184, 0.04674149845549656, -0.006950846469684823, 0.04392309396164592, 0.03943453007949688, -0.027191190592169474, -0.04741425512088023, -0.026534507350530517, -0.006566867590808557, 0.003967746428376783, 0.028328272035584363, -0.024486153667541304, -0.005307803842281544, -0.03438811149771482, -0.040088153656472024, -0.007316083812760334, 0.009475275690517265, -0.007744943393796165, 0.000493722485609922, 0.024980562560247988, 0.012754198585319987, -0.015618086996428722, 0.0193522947826498, -0.043802888274983486, -0.017532054315732546, 0.020134397312647757, 0.02212217716176756, 0.061105027838150375, -0.00785941413440908, -0.038548550503298466, 0.05804123159606211, -0.0011432556598761662, 0.048795316956521693, -0.02108690257976467, -0.027261569160502923, -0.0015829333820743111, -0.04129330719265976, 0.0025458906753737256, -0.009324487623081074, 0.0002643059351173862, 0.001997371115824979, 0.0056030255817604785, -0.005797606350151725, 0.048393953527414546, -0.02201328910679583, -0.046597032675875096, -0.014349186017159664, 0.03426447223542239, 0.01996518272278292, 0.042401964310636704, 0.05988397249214753, 0.03167157456079467, 0.005113918837799893, 0.028283391430972867, 0.06009903632507727, 0.05650759024137714, -0.011399148594939745, -0.021436452252695783, 0.017416706745551493, -0.0007430766117367937, -0.06656774956879077, -0.08488354780540075, 0.04596889643935022, 0.0360288314591534, 0.062043767164549644, -0.03002946496209417, 0.08749558083074102, -0.02668460556445058, -0.028715076254694265, -0.02682424028053765, 0.0731625896439715, 0.04072716647943055, -0.009754918672602217, -0.02014257333237459, -0.03268316772544377, 0.05865435036503181, 0.01890559309440003, 0.03139222744480524, -0.12048756372775996, 0.053951522414413124, 0.05820388591330058, 0.04237137189007734, 0.014712090963601357, -0.002016229940329474, 0.03209678538874281, -0.03583424099548744, 0.0331227493359436, -0.007216191673319006, -0.1107035376398374, 0.020232449861463275, -0.03428676391109366, 0.032875379507167415, 0.008529713155659868, 0.031059516894849308, -0.02877705077732313, 0.008251262947528573, -0.008972002697134022, 0.011770350394140433, -0.0362766465697006, 0.025083378726147115, 0.011992871397900628, 0.00979116483175214, 0.0008622058948312624, -0.012489858434362384, 0.046800797728253164, -0.008455596609503494, 0.07206447712319676, 0.03258153829248995, -0.08286299665161093, -0.01541642852343433, 0.0004757760124310772, -0.08264034350672704, -0.009011440246596317, -0.04187469672615074, -0.04306054167609784, 0.03807659225753656, 0.008414128460633994, -0.003258982916574376, 0.0042027157252367475, 0.028100893979418413, 0.043326755381315606, -0.012970221594097258, 0.006362717837539475, 0.029116667860410804, 0.007202054752617477, -0.04488129135303244, 0.06193655494866092, 0.022763039052973378, -0.00404257596289501, 0.019917586708875855, -0.03304527873899453, -0.037850048696121234, 0.000497779761767564, 0.03160735982609533, -0.04932672333620269, -0.008818997257277118, -0.029963634934234464, -0.05058242311877565, -0.044050780071200564, -0.06567606191601776, 0.061731437569689754, -0.05486414943050736, 0.0037281923123104617, 0.023653813694463104, -0.04533288323580605, 0.005375595175045987, -0.10439164673048126, -0.030989827564766263, 0.0062131034245232275, 0.01196988218941938, 0.005159582570597526, -0.00305097018377503, 0.03144882631289737, 0.015107969752151406, 0.005069948988184775, 0.031846646382891176, -0.011956165055752187, 0.010347043904003676, 0.022199364046735382, -0.04523702409892215, 0.03420030243299133, -0.04824712399797206, -0.02653857285671294, -0.0748950726126935, -0.05445999510797321, -0.04506305341418634, 0.0075645989786718385, -0.013583741366975302, 0.016188925840019863, 0.042064771961323744, -0.004339742526793406, 0.01209404470763425, 0.03500113109805384, 0.041982275944438686, -0.008630703764587189, 0.02398561749332059, 0.0005122685672644822, -0.02142808573791139, 0.032730511664995764, 0.033272313690503805, -0.0062847979768458255, -0.05459271838547654, -0.06944973318194028, -0.04717461955640271, 0.07043555440747387, -0.060079733703480846, 0.027954762588067675, -0.05309811982936845, 0.008338733734854607, -0.0014740277572369627, 0.06725155065264572, -0.023904876231241153, 0.023367655227278385, 0.019327414951780048, -0.01011836723211273, -0.00978800525314695, 0.00750347658882055, -0.00387159029858134, -0.013393361545612667, 0.04142654232824738, -0.016817688617051824, -0.025322963419328465, 0.03427569212842837, 0.021850153274341942, -0.023501165723107707, -0.051894481458551515, 0.005896439480726727, 0.006036324670706591, 0.04682166867779123, 0.022264743006187127, 0.017508298255871517, 0.038163366328974824, -0.04837697678075529, 0.015583544698873344, 0.006565307279411605, -0.004577586613787839, 0.038458317061972294, 0.017629570579097337, -0.03050396339467585, -0.01704564806564369, 0.014130570805386104, -0.021804622876606068, -0.036190067792840896, 0.0032584836743431572, 0.02557334803042365, -0.04348829989572317, -0.022089541497423898, -0.08827345079930622, -0.006325671730772196, -0.026540634341911777, 0.030658018923597406, 0.0034923657488681236, -0.02472389173226296, -0.008262969234404215, -0.041701358394718724, -0.10023294694725031, -0.06508980831206994, -0.04455012683845361, -0.03875139735027947, 0.036082231235357684, 0.09069109951767293, -0.011263788865163807, 0.03528366087465593, -0.03203286782019311, 0.042427947215290814, 0.043156729556735794, 0.015306628169639958, 0.017413445461698884, 0.05100711684650485, 0.05307386559187514, 0.06359739931598636, -0.03856340787856986, -0.053625603773411835, -0.028150978077179874, 0.05404349736946273, 0.012061388490731394, 0.004552479383029518, -0.01727242156373051, 0.05365821773715842, -0.02855596417192822, -0.03561128851429033, 0.001936897383511239, -0.048813796100633015, 0.01664476872369185, -0.000981981005516086, 0.006417785782224937, -0.028987504029247265, -0.035350171120907825, -0.03285855526841772, 0.01160552383243729, 0.026571192489909894, 0.02518575114876481, -0.04417333415255075, 0.03645368150137153, -0.028366255013539027, -0.0018274443236070738, -0.021406957758927175, 0.07604239919011492, 0.018486635006103445, 0.012719002609695997, 0.06123445565503417, 0.05503367340067587, -0.016695618099148327, -0.06055045036963186, -0.037194735003420236, 0.007291445859947126, 0.0015853320646521973, -0.015741022494925396, -0.02999194177334414, 0.024878182664927646, -0.005915497387036201, -0.06896671868113279, -0.06844580330504947, -0.04796821226735449, -0.002671752392482948, -0.006365065073615284, -0.03728089487256296, -0.009776013567994348, 0.04692516530839313, 0.030419967385831203, -0.059804244166511054, -0.03811261264953052, -0.04635278522209495, -0.02028617696121815, 0.05239698123582825, -0.010970709673853959, 0.04305781619937855, 0.0013576149595451877, -0.03475949284837299, 0.044676404683800665, 0.004750927046216152, 0.0341202622331446, 0.0037682450529402975, 0.03172639482698246, -0.016972964566741026, 0.010952756743133552, 0.01066428359488707, -0.0017344610606641572, 0.013470162597467595, -0.014185840226445435, 0.022180214613216488, -0.005577212521011415, 0.046571514945777416, -0.03265976393118599, -0.010723106987105421, -0.03800897347141557, 0.03908543880677452, 0.042341808669684275, -0.06131098705134247, -0.04910443840154248, 0.018324031342043096, -0.008390210130215566, -0.02863661619940819, 0.06210314327768967, 0.02402444151234709, 0.03867346099740585, 0.0020241307442943625, 0.03932593513801468, -0.017012982252797872, -0.015834324069810907, 0.06527049723811951, -0.06053540952630508, -0.08775298231574091, -0.04967269182156384, -0.05221896371725566, 0.011002426000272352, 0.027627345805263125, 0.02034533154307656, -5.953226283607698e-05, 0.07446503242042248, 0.003768850665539629, 0.0487725256908318, -0.1079404063206761, -0.04407983294575462, -0.012067322062174424, -0.0302821142045805, 0.017385030581041617, 0.056897599575122096, 0.0007301889629782775, 0.01453431240121965, -0.01577158472451289, -0.05097371210154917, -0.04287457224884596, 0.021232816775179058, 0.018958699496354547, -0.028848866302902624, -0.004012685232541922, -0.020919985529075702, -0.038545440880631464, 0.02403122490803005, 0.003667625825775387, -0.004723099128976566, 0.019649996308642843, -0.04365128893101455, -0.03636169748603863, -0.028781949524827825, 0.028581030545008358, -0.07805252835153356, 0.030807129314423302, 0.004363290963391496, -0.057395800776360306, 0.04898166808000272, -0.03555407325296087, 0.03500547443960606, 0.0700085863191446, -0.04528136408052841, -0.037130850563348854, -0.014845633539880772, 0.021637033860416415, 0.06245341679563609, -0.034399607234068624, 0.010640055600360101, 0.026327900920850546, -0.0021899220208763757, 0.023297201527577728, 0.005673808804920595, 0.03734628214875207, 0.06258769819802827, -0.054893873198250884, 0.02636615811251292, 0.003640755302055547, -0.051276642159936985, 0.01744614468515493, 0.04389385501489158, 0.03631320415698098, 0.0168037196798615, -0.021198836451843332, -0.023105601912640227, -0.0014736041911849237, 0.03562418022972875, 0.0016459104636122011, -0.06340302505534244, -0.006130626469306558, 0.012057805135878358, -0.034965996763305175, -0.04951535478892237, 0.018460344912954372, -0.01796023152057916, 0.025036030024779648, 0.005407860466645575, -0.04617375136713754, 0.04614509197045732, -0.0218985253568669, -0.04344272178317323, 0.028709617820872595, 0.05857947560393518, -0.009868049980815143, 0.09040879671761293, -0.08045814803214353, -0.020340546403959398, 0.066042349074579, 0.006601682010207374, -0.022882094499568236, 0.025463623549066543, 0.01150849470724143, 0.0490983486897125, -0.04987703160804424, -0.027934599558587087, 0.013515232398608546, -0.07451731344000422, 0.09342809398786381, 0.018868689378288922, 0.02151339290661069, 0.02375605235153406, 0.062194248082367884, -0.06285639383080747, -0.04375331135275055, -0.012002708846267082, 0.006479646032552801, -0.09303304169549333, -0.034358842571660476, 0.03051031860170327, 0.043800307422969524, -0.006666247141303435, 0.042546413273670876, -0.024729474876572347, -0.002181780152782048, -0.0856111629295165, 0.015474205739131637, -0.04213870918980191, 0.03524482320250905, 0.03724740384670329, 0.018343195745679875, 0.03205039989685509, 0.02331447110940334, -0.10094992152031959, 0.0011913511044947538, -0.058384181389422626, 0.02944101142738231, -0.03239984457739129, -0.023408920186652665, 0.04021224793041804, 0.022967726622026955, 0.012827999121209254, -0.011242748507436753, 0.0024757969291457553, 0.03379758620890955, 0.016419176879642984, 0.06239991741119057, -0.0038405255890472047, -0.013282332779232285, 0.009269532633721132, -0.023978162739407807, -0.009011504404211777, -0.016661988146156388, 0.014324513744006331, -0.010273177764354277, 0.020183294107662387, 0.015225738021733862, -0.026874756061985, -0.021063894333340567, 0.020002476835643695, 0.014840355228378318, 0.008192287141487538, 0.025583284877505875, -0.008996426779314837, -0.008623493257503325, 0.02297908726749081, 0.000621909786893171, 0.05032453775581345, -0.03824904417290493, -0.01393153542423639, 0.034110730830188875, 0.0401852599217243, -0.01668936766151552, -0.024434776756476796, -0.021208219901739937, 0.0033728780319155177, -0.08336634266057234, 0.05666746970560887, -0.017097436782086962, -0.02494409208197234, -0.008306753548911305, 0.0028008292244801475, -0.03794503125087069, -0.013024279579227782, 0.012178080666760642, -0.05977443163622461, -0.022556263429563368, 0.001185597051965287, 0.0149624974535477, -0.016048269295092406, 0.012453982110295666, -0.019585711753386307, -0.009910729477169797, -0.013787331400122381, -0.04626528280744302, 0.01768876135783128, 0.048969953829290924, -0.03974959968435896, -0.01561355196780778, -0.05289128335493787, -0.008488641878593772, -0.027102151562082365, -0.04803832924052421, 0.03149540418969859, 0.037323505429539175, -0.023977093424140613, -0.027985905175986647, -0.04844945826789389, 0.03280717250724218, -0.022576873997350238, 0.05093403623236831, 0.04052313985165224, -0.012556062456505245, -0.06466724526688976, -0.0422107821545268, 0.02714326869759989, -0.03392863177337113, -0.0245192463155389, -0.034829805246755385, 0.01769816934662936, 0.03931761195120707, -0.03569251688732017, 0.010748322691748918, 0.04482703448006118, -0.024335540031393127, 0.02130921707864225, 0.02367352705334378, -0.02752944401560273, -0.0735678972152041, 0.031496501339216394, -0.04573236889907154, -0.06684093131523396, -0.028198293143671397, -0.008300279934614704, -0.0048619329405941766, -0.008190982821657648, -0.00488209310628087, -0.00815814081761598, 0.0631914709396281, -0.04412494937251153, 0.03466388176144651, -0.014824753614400735, -0.006184517565644677, 0.07742810465858939, -0.021812919883994083, -0.018925950910598555, -0.0009016285078178645, 0.004672254609816569, -0.054723531434679555, -0.020376192918374336, 0.0008175632206245456, 0.036477853017031894, -0.029021784156171425, -0.03979564635232509, 0.004579322285111472, -0.06654966533197203, -0.01177177640386977, -0.030791147688399634, -0.032560227758614876, -0.04249151669592894, -0.006253008196391352, 0.04283271874006352, 0.02818876667973347, 0.02737875193488127, -0.020708669755568947, 0.020968069882762973, 0.025488711031477325, 0.06624431159519904, 0.020418243328536482, 0.0335222191558111, -0.0045088137084361825, -0.0023562187174763064, -0.03928581452020576, -0.04957392295865547, -0.00027786397442579964, -0.020072050726516914, -0.024431940493564584, -0.029360952384706287, -0.02270966820250776, 0.005457722320988014, 0.000371027552566164, -0.024849018823834064, 0.01957826006075066, 0.035015941903641074, -0.044291555814836674, 0.018552748139342667, -0.0040064063044609145, -0.05154258839661365, 0.004013610081723028, 0.04856346648465996, 0.03351467383858867, 0.011138162364763499, 0.07539868236570775, 0.015301821828519883, -0.00018388991525909525, -0.0009322154347753623, -0.00889134006600022, -0.012499597850504782, -0.03890745531162828, -0.001100159183951047, 0.008938495939253598, -0.04267410023966983, 0.007690648274959249, 0.002744137113369096, 0.004995721343752177, -0.044214249694721576, -0.02973022915603349, -0.06257270757657186, -0.0592148735227758, -0.03289341291897207, -0.01383621170001228, -0.043434654686978304, 0.011997063513225398, -0.023776054917156206, -0.00297538598050612, -0.015597824934185805, -0.011496762893302984, -0.004088365345170072, -0.030236718451802123, -0.010798976134083333, 0.059246506390086925, -0.025149118158551746, 6.389774996977739e-05, -0.012729357234420882, -0.026425200596516853, -0.09872192428451622, 0.048606906745180235, -0.02922585769284706, 0.00479566284919897, -0.017590604066572486, 0.008595198681943991, 0.03916102626133399, -0.02613679688425897, 0.015102371490401152, 0.013988425796376018, -0.01503849257934738, -0.07635209902295705, -0.0022670308349506565, 0.026860362903881604, -0.030297918003808027, -0.017307757820288375, 0.007765027602233275, -0.027419794988946988, 0.01867239698618773, 0.03895998839745902, -0.028898986234487747, -0.0018724266745066911, 0.03435585730833001, 0.039324262932691985, 0.009774111823040502, 0.010532267435945918, -0.025501179775054294, 0.04789814346682005, -0.05658315617514106, 0.001280801653383233], [-0.03529605927531334, -0.023399924979190818, -0.004728165258759054, 0.021550475000960995, 0.028268488847184515, -0.006155809812381888, 0.06750032366152485, 0.05406223520485955, 0.016695161550291143, 0.015516105282638493, 0.028037773178331647, 0.006843162383901808, -0.004912752601147293, -0.03479678373363607, -0.013107220907407175, 0.014514899366049272, 0.013972084700255042, -0.038373504835486974, -0.03541474264513352, -0.07269475066965565, -0.00864452737598802, -0.03629048489351285, 0.12302526880163457, -0.017934486888094275, 0.0341024705321056, 0.008438900319636487, -0.02687838178955499, 0.00316243463931038, 0.0003950437974143618, -0.03910833744837088, -0.006967153543222013, 0.022284532241498824, 0.030113378688816857, -0.03946680419772997, 0.016535343983147783, -0.004217037118469576, 0.008970862577349196, -0.007507352841101528, -0.035377455486107746, 0.031277926178344496, -0.0038411697036772273, -0.016826908452594325, 0.01983494485568741, -0.030881272726304854, -0.009109505381330681, 0.05647688151701724, 0.04737151583248049, 0.024158625311149453, 0.06977896171872175, 0.02063891370501639, 0.0019264277704203778, 0.06567960235498059, -0.07745614405141459, 0.026247199979756757, 0.011006649271495824, -0.01115586221214281, 0.013624120603136957, -0.037429533891483256, 0.022177127796412906, -0.031980148599034044, 0.07276770467928594, -0.002390501475789647, 0.03668158213613439, -0.008313571106023893, 0.03250954966466881, -0.02227024874518243, 0.035031583799420125, 0.029586535224465534, 0.02502571800878373, 0.03152945485394326, -0.036217202564561075, -0.04679181343661667, -0.017012226581087423, 0.014001336359967824, -0.06568431370151401, 0.018876066851907673, 0.04370419317816766, 0.03493594573776842, -0.003444545465902266, 0.05765849085098034, -0.007227534226897167, 0.006360176441832467, -0.043397737276111556, 0.02601003434928994, -0.007134489561245514, -0.023214466468920503, -0.009289392320091351, 0.020058561518765193, 0.003665779192981864, 0.014620670040825153, 0.05275509954649715, 0.027195909244756948, 0.03806373558041674, -0.024450094600912707, 0.06519945718417812, -0.0347497390377278, 0.00448703573318842, -0.0047675741245504786, -0.023886989995388835, -0.027678956545766593, 0.08933140949650997, 0.04213351269630602, 0.02288068438151052, 0.004107924828621022, 0.03968603895225399, 0.041335690466126174, 0.02404409224886755, 0.02455752476865463, -0.046854276249114424, 0.053618807337121085, 0.0076143792966648135, 0.011456305077142293, -0.022945524201095132, 0.011413864127536075, 0.060589944149038774, -0.00017180721816405602, -0.020493747806444945, 0.03209305041516859, 0.002508197102289431, -0.08748639401701443, -0.0636519630989285, -0.05469111473735871, 0.01260724663597885, 0.025781885628761735, -0.006267375924687022, 0.020275258961371882, 0.017413802669570908, -0.08039329617006503, 0.013570487793389483, 0.002855987278638156, 0.03565610735096137, -0.061990464920148626, 0.08528256329554307, 0.008679883872512246, -0.012399595936315759, -0.05317858467059735, 0.040633375863353284, -0.050790250567449916, -0.02471028592183434, -0.014634734690446358, 0.04163035816018053, 0.026798208636156194, -0.045919668069505766, -0.0174434538020115, -0.03225508036449249, 0.005383300139885803, -0.01782904230133025, 0.01406974600789324, 0.012180414561537229, 0.01772751074390137, 0.009195136931207173, -0.023423046212330944, -0.038427812641659405, -0.014070297652704082, 0.012522456560504007, -0.01852402941128156, -0.026799606580451055, -0.018077512534860195, 0.09026179396141476, -0.021077784160066403, -0.01413296786704459, -0.006582611029157856, -0.0042227416608264295, -0.012533246565853385, 0.003692387820157511, 0.02399672026126523, -0.015235495532519835, 0.026568426909929947, -0.006056289714581756, 0.0018630124678791248, 0.040253147497386, 0.0030869459890942815, 0.03272012428323012, -0.012834167349765202, 0.0690662456562694, 0.015822052396660704, -0.0018213639639289344, -0.00867425702311057, 0.011096995490321228, -0.03548842455401016, 0.0040925845665316365, 0.037454452129483375, 0.029213893321141, -0.003896083707041405, -0.01305649491905145, 0.060508904440399795, 0.01337782375952443, 0.06536403585560244, -0.033880267174072776, 0.026818203035689017, 0.009205048463790711, -0.025619824815976282, -0.028279120522708413, 0.05351571884069277, 0.016976442094304607, -0.02856416723941584, -0.05217401957753399, 0.04413376141720441, 0.014773873258351446, 0.03172229902260924, -0.003371413894049028, -0.012267407106561734, -0.0272076045932577, 0.030503646419123977, -0.0190497335492471, -0.04566906955009299, -0.009299074656260117, 0.0190726511708989, -0.0370161870432466, 0.08900414029328184, 0.05648988950977157, 0.007792816223275207, 0.024125517524763825, 0.013115993600474935, 0.011956982637475673, 0.03113398685321823, -0.018767501960426706, 0.03953490732095815, 0.00912812321553311, 0.0323464974766897, 0.011241858756787303, -0.008531079608239902, 0.004766917723516173, -0.010366554400821052, 0.053478561293453804, -0.0061722490912587595, -0.0012671188199805227, -0.042214455062755854, 0.0540346293229258, 0.05313248871220032, 0.08665322878699878, 0.04428988278708725, 0.0012001175080234333, 0.03917604081275627, 0.006820406226470855, -0.0433894387465394, -0.0035666114961862955, -0.028007347907725234, -0.02783743067436128, 0.013837422946207602, -0.0691400541813572, -0.0043530284061602835, 0.012330257774656196, -0.025875058699936896, -0.05200347009848969, 0.04653294653495283, -0.002393119350870532, 0.04259734702658102, -0.04924254207118741, -0.014749457147366382, -0.013535732432518464, 0.0025279182127979877, -0.053874005821445026, -0.01606744036526068, 8.38896182834134e-05, 0.01680639953466596, -0.030568690050707007, 2.7133856607223155e-05, -0.05699081687555566, -0.0516755177155957, -0.022106680141555278, -0.03101597900433397, -0.003872158920731846, 0.0298863989230434, 0.0075597234242802186, 0.04724804010341345, -0.0037156293863079572, -0.029281847885655632, 0.03166843434199296, -0.002769245769901976, 0.00037772689743195334, -0.007666115886737409, 0.01455353435591976, -0.07040938291553749, -0.03205635908812562, 0.03167098337892197, 0.03481688623040476, -0.04936546648125699, -0.032248310055999464, 0.04900695459187176, 0.010773967334464136, -0.03337018693744059, 0.01842597279219541, 0.012379356721162036, -0.0321906021968333, 0.06587630764141227, -0.028554160736757477, 0.028869161394022458, 0.0786400469329908, -0.055787283713987834, 0.027132264872051785, 0.031344478115765864, -0.03830685347993049, -0.022499627096499383, 0.058806947263246936, 0.01753115275404461, 0.031043019119666566, -0.013376192066401523, -0.02403372521792025, -0.025497853750041186, 0.0289086665354357, -0.0377155322147677, 0.07892387235759664, 0.028414821628798742, -0.06052656089776234, 0.011225684449369324, -0.0035048492545396498, 0.01712464109196025, -0.02124744900859692, -0.016098965017177107, 0.005234521761758426, -0.017497400634037028, -0.02100726236045034, 0.0768692844785591, -0.059153468167585224, 0.03233605353953862, -0.04337845133813322, -0.020715360927928726, -0.08986378760657053, 0.019154301101331123, -0.0556970580192326, 0.0015124704622464587, -0.04718271460025386, 0.10004912776664389, 0.030294801454238525, -0.0012027702194173891, -0.01891668381090406, -0.04092720289340838, -0.01596548347463891, -0.060698399656040854, 0.008514891623669476, -0.016759138397541336, 0.011565138485034711, -0.048618366123039714, -0.03170689907286504, 0.00414171461297488, -0.04158577611579976, 0.04211066314328301, -0.035068864166051164, 0.022749813499256786, 0.04107958705351157, 0.049748568208571715, -0.021324423464979307, 0.028530559856170052, -0.015940918044400305, -0.003955997456754421, -0.015340080007378484, 0.03971765862410761, 0.061416215117798816, 0.05507884754780277, -0.0633348135874172, 0.05144103246847257, -0.013873623472388822, 0.021546531227312794, -0.034138463850988954, -0.06163638786617853, -0.011235029690901798, -0.050841710036930436, -0.03261631458914217, 0.02870185993842672, -0.01905374012509305, -0.0037969394400983133, 0.022165260071394365, 0.010102505952201373, 0.03907684995356516, -0.0021645545316236405, 0.032807961959797995, 0.003584365440050812, 0.008828238054585215, -0.0028705617502325725, -0.05922592013347011, -0.026516619979860805, -0.022130991388655465, 0.04814501592857028, -0.07451391938390269, -0.011550893469514567, -0.02494022815847172, -0.030395138550178648, 0.0094823777755827, -0.003860150040306931, 0.017756399728774193, 0.011375549848647222, 0.021173247043131598, -0.028952205190968104, 0.040383728661691765, -0.008041599090842438, 0.013656662492652455, 0.0362360262952273, 0.029859468168121444, 0.07496716009440588, 0.002760317937054058, -0.0007776500272775081, 0.040414343773841885, -0.0440864802706538, -0.018455981951727145, -0.0624373727578159, -0.03179465665351246, -0.011740488784806104, -0.07839706110340725, 0.03841736951461598, -0.023250313293199928, 0.025186664395696577, -0.01682267216211471, -0.03870054768440677, -0.022237834918233102, 0.0004937964313220511, 0.04545311505517226, -0.025064333781195432, -0.03830090792237482, 0.03813586410343745, 0.019695211727010387, -0.06393834369329522, 0.00834838083808273, 0.0314821101523884, -0.04118233268028552, -0.0026200255596276617, 0.013553679763126552, -0.04677182477674578, 0.04560245320184041, -0.04691513003560078, 0.005838985077148562, -0.010510915281747454, 0.007623760879762065, 0.0188435843144125, -0.03906830958480053, 0.05161605159615678, -0.047656670557390986, 0.002103176900237941, -0.02235347893975968, 0.04472751461144225, 0.04832631840418483, 0.01616986536820061, 0.05396366571017747, 0.06049209719172954, -0.014379784965627281, 0.051651535635541576, -0.01526900086678148, -0.03297681336584113, -0.06454684071674753, -0.007314310135807169, 0.010606927609111668, -0.0028153835436322042, -0.04203293337453826, 0.011450634489595922, 0.06098363341073937, -0.0019433623141038975, 0.08560871621348341, 0.009401142495589805, -0.018474183251215758, -8.804422628420966e-05, -0.02000510860057495, -0.020042301553108117, 0.03148537360324317, 0.07567709464816275, 0.020055686588858788, 0.06916134698621405, 0.05547860202754954, -0.03066528605887579, 0.02444567693091055, -0.02250829587248317, 0.02212403496939066, 0.03332945056634475, -0.013842494314419628, 0.016886665874959978, -0.052469569646095275, 0.019694153916772112, -0.009927161012003378, -0.02965117879530934, 0.01202106687797134, 0.023186999527910524, 0.051540386242760174, -0.010761887764713178, 0.0313785782420365, -0.014527319030593542, 0.035930151328492886, -0.03453112618188256, -0.03590515269625966, 0.01383619072456949, 0.03432498491514704, 0.0027031115083439223, 0.057055574447709596, 0.025057539594973286, 0.018111595358701747, 0.0023864435456052067, -0.02751402891554874, -0.01208785342556731, -0.059069847283599784, 0.05287118903775597, 0.002824164239914205, 0.0589481199188119, 0.12422221341037096, 0.04040471961652057, 0.018277495551191285, -0.034808800755140076, -0.02221348512101057, -0.007845450135349012, 0.025915869433120964, 0.028412128436990185, 0.03790855678026798, -0.0330457189130588, 0.02133521937095655, 0.020332757684161182, -0.003827483881059599, -0.06571539704227301, -0.030936986863298134, 0.08735569657965583, 0.018481992906102623, -0.01601711034892232, 0.021710622411707764, 0.04363875436867557, 0.02400264121607331, -0.009881269229075298, 0.08925846120600057, 0.021962180779989737, 0.030584638601243413, -0.006426018317182797, -0.011386403709844093, -0.07980641737215055, -0.12700613180675338, 0.021586830085365945, 0.011836824403429, 0.0008973189142425714, -0.0475869199818881, 0.04593922750116493, 0.0008773063439137901, -0.004065205532844627, -0.057652889489472114, -0.014970022960941754, -0.011523145685912537, -0.07388758484529803, -0.06964011666221294, 0.020599101665030203, -0.04048257973841429, -0.003470451235680166, 0.01937253608517939, 0.017232250328299222, 0.02393600111048187, 0.010749183812978813, 0.02656635617255525, -0.015096695098645621, -0.043306353026360545, -0.034666306342021065, -0.004908796163289825, -0.028149242318185535, -0.03099944355808924, 0.002368060541279605, -0.02799504077840877, -0.017740074034988472, -0.06620801347912483, -0.03542845009543183, 0.018828887887736283, 0.07654753719756034, -0.015035037107818483, -0.019471647161498875, 0.049431400272279054, 0.021656767669050003, 0.008373293507464574, -0.026148551118810825, -0.001858544888107241, 0.04418883183024614, -0.0441408355491677, -0.039553048356361246, -0.018408499341668254, 0.03030346566809041, 0.00799243874406456, -0.0252213552220314, -0.0010658733775732294, -0.07327835781235949, -0.043342076413162955, 0.0784439241067093, 0.03438210587524739, 0.033824047849596736, -0.022782359625971214, 0.0026348039547914107, -0.019860234601944495, 0.011205026629652242, -0.010487240643121972, -0.04166239502739547, -0.004118775896442154, -0.023447146901670744, -0.010142962392465376, 0.045248659379482414, 0.054286506741500144, 0.024454845155046676, -8.412906351206565e-05, 0.05552929839486404, -0.034956246937179594, -0.033029769970075194, 0.04028420639110845, -0.07015480965332237, -0.021084995510551634, 0.029342541674170407, -0.02290691766264367, 0.07047254371610526, -0.03968715373623109, -0.01320786768039754, -0.047379005962449774, 0.01663691610490676, 0.014317941826142355, 0.006949734731032817, 0.06741906198762398, -0.06101352979246678, -0.07569829001847565, -0.032185109338191534, -0.050045579007325036, 0.06467661175782387, 0.03688645847888748, -0.08454683291233747, -0.007312081996596818, 0.0461311277656911, -0.05860824900224328, -0.01625940588163813, -0.013677705075476058, -0.002963177056524028, -0.029234944846169487, -0.0274931681346595, -0.035655329474766455, 0.015441235243553406, 0.014030406040309303, 0.00041208731986990194, 0.030662857499779296, 0.015147977926261217, 0.0028128883364348964, 0.055310729449010464, -0.03945738289918259, 0.05478833344196431, -0.013459167997643516, 0.02428931762217554, -0.030448990882553737, -0.023618075503364835, -9.05251777418958e-05, 0.015070383195442181, -0.006484749305327881, 0.047354482698075115, -0.002844034875467037, -0.02070960070132743, 0.016873349215922807, 0.004342582454290679, -0.01809595824777674, -0.030418951702436962, -0.006615933483645993, -0.03476762482853589, -0.017995950742793344, -0.016424322841159102, 0.018231703367967506, 0.10624911586644749, 0.007058396968542714, -0.007950084753014756, 0.02385697064120207, 0.000494199468450964, 0.017231388243639147, 0.034129300162571825, -0.016406755140408156, -0.016038074606088977, -0.008235646551597798, -0.008797908171314818, 0.034375503026629096, 0.03358333541178453, -0.06996133111269436, -0.036466635649277386, -0.010857134380070604, -0.03957086001013716, -0.002961170695751121, 0.02656440341010936, 0.03744925016327582, 0.028555267679951778, 0.06826137409215474, 0.0006334827277332368, 0.05276853353552375, -0.005955362739607623, 0.025913122321834455, 0.017781609113173724, -0.013787561693407727, -0.027745919430108647, -0.028938768607305078, -0.02104225914541889, -0.0058321765339787324, 0.03576511523759982, -0.04200254770355928, -0.027621084869961957, -0.0169982015517352, -0.06986293959526976, -0.0012874383586600451, 0.032583617140206675, 0.06654347747232237, 0.022699866298445497, -0.01245768765959331, 0.004152450057610443, 0.007910996126932081, 0.042184565867868604, 0.016668259944682896, 0.06450230466120811, 0.03842646892211886, -0.010299119726519005, 0.053873758431559386, -0.01265550068864823, 0.021822783588895316, -0.018544843386566152, -0.024541732140099158, -0.034604782945606864, 0.021862131112091957, 0.023674472557716483, 0.005155422747730082, 0.03215953472976404, 0.024052689289856148, 0.020010646416363267, -0.0026547525480335216, -0.022548917475204534, 0.038753586378718806, 0.04624905567129649, 0.015121754535244013, 0.011599528277140727, -0.00850170129538959, -0.029465032693546687, 0.001703800070204219, 0.05134007400696118, 0.04980602380141789, 0.02235363230007925, 0.012125006201474315, -0.014007825460927678, -0.019540040389944866, 0.03757417689892629, -0.017848204883116968, 0.025145311851968166, 0.01173128141197321, -0.0037917732691935884, -0.0498385825924038, -0.008372922217677766, 0.03494634503312835, -0.01457182432586256, 0.016934025598272975, 0.017812370490518308, -0.040865100316412946, -0.07531527295468864, 0.024362183102157924, -0.04235694358850276, 0.04715821757629639, -0.004049004002722852, -0.061717725656609386, -0.009897054859369403, -0.013464351899191717, 0.08480416245373874, 0.06093856428195469, -0.02346554528820278, 0.031964635292819815, 0.024266429175951194, 0.03257516290489649, 0.013828500421508955, 0.021242912074053412, 0.02268895687127664, 0.009046577081952447, 0.014515134674206282, 0.024069233691813362, -0.06876230968898576, 0.00954296409178289, 0.020318460516927435, -0.005333706058524265, -0.021493177645143875, -0.013285307556249158, 0.02166931116400958, -0.029137506370326118, -0.0024490439025790403, -0.014156245974286236, 0.017779494320970514, 0.03404986512366718, -0.007483420521102156, 0.040094570035778355, 0.0583572153776144, 0.012040930493965285, 0.0004517211348602658, 0.027033877360937708, 0.028548436638246102, -0.004675768153614033, -0.01751849204077919, 0.00032967925823926535, 0.008771698158877806, -0.08813489427371941, 0.06404427619314096, -0.027494136200184014, -0.009728481848938481, 0.019770779399382106, -0.09774458411941554, 0.012925910907451084, 0.04454496606085046], [-0.017085129201080098, -0.0027873443941374364, 0.024622745930890318, -0.012787049462508642, 0.010653174627160011, -0.017260027691063336, -0.03109521707738957, -0.04660183821398079, -0.011514317402470413, 0.004353831271979792, 0.01999576376098214, 0.002109327843570896, -0.038803810582212765, 0.051236070757000964, 0.0044523096066938625, 0.031127668091275734, -0.04895238643554344, -0.06591199189227641, -0.004817439323113867, 0.016162938698870147, 0.012850409791346471, 0.020031700418158802, -0.016616931166744137, 0.0035469891417263403, 0.004732767249980828, 0.053890977789536706, 0.03426907153561914, -0.043922966001871774, -0.041943998328589374, 0.010627395611514068, 0.07007679581704226, -0.06742093231952809, 0.015410378250506274, 0.004891544539551791, -0.009156070235765396, -0.03416292541706871, 0.0716439085274391, 0.028476866468300728, -0.032272844858194594, -0.037790419916565586, 0.016060180164655862, 0.07508192705086685, -0.019478338073735415, -0.0027534425117707417, -0.006951712948193077, -0.0682603702376641, -0.055666067722079514, -0.0046321581385975205, 0.035809524874477215, -0.027405840118652075, 0.007785411004575366, -0.020813546132019956, 0.007417789330813515, -0.04495789741272889, 0.026589595114223385, -0.012514342412334694, -0.02957971236428101, -0.0005029582076705798, -0.03904040067474583, 0.0020718206414763836, 0.035191338061957476, -0.017029285174314977, 0.01298182306623705, -0.02913488222168081, -0.02538837974352574, 0.04822627697607962, 0.01797672947460059, 0.014792353062886131, -0.004946752780236036, -0.05819819505982659, 0.026727533603891688, -0.0012378057846015931, 0.007651696221286782, -0.0041078171155371854, 0.01161637621136248, 0.02923821233986937, -0.057016139878888504, -0.03743176748836812, 0.003941955314363557, 0.04038667088014206, -0.00792230178568742, 0.04713854606113914, -0.014975202687736602, 0.01092252590376951, -0.05681198139218229, 0.02311137520667631, -0.08358976066211325, 0.02728631500708421, 0.021020066209226914, 0.02218577310582146, 0.06213053980644928, 0.0076194484629468215, 0.020685125160813816, 0.06130132500756385, -0.05291397191770258, -0.0047515833565370605, 0.021942901151442828, -0.042267073345452634, -0.003545759746758816, -0.03552142125232147, 0.026381651357759127, -0.02114152274693677, 0.05670992422640904, 0.0025974835751289773, -0.0042527552283489365, 0.01344298187526975, -0.01006991121380862, 0.012858167010241334, -0.04814951739974156, 0.02061200823571212, 0.036002175935373436, -0.0032628047845851007, 0.014862850078953688, 0.000760776032799962, -0.013230954174674592, 0.02667088448693785, -0.021437174410750076, 0.015004893385556843, -0.0015805129945031823, -0.0350570638061301, 0.0537701203209018, -0.021823896170536563, 0.022532815436344274, -0.028802456823842162, 0.009912405132749574, 0.04298456669625555, -0.009950687484171685, 0.01047272561004983, -0.014010698792970363, -0.007045671455775756, 0.08458440571776406, -0.007330779454135099, -0.02333407948761006, -0.03740615200797418, 0.0475584289053798, -0.025306376228865193, -0.0335765188734633, 0.022876829068878203, 0.0635865037763371, 0.033183656563300114, -0.03431751772037472, 0.1027482096842108, -0.017070646783729392, -0.015010027934868898, 0.022146605132729986, 0.06794708946664167, 0.00860072374098713, 0.013851480386751876, 0.032459738527264595, -0.009649649217183141, 0.031514060526673715, -0.014373801633667109, 0.06490173345549276, 0.008844841010539891, 0.005057030528782572, -0.012530332187586495, 0.013217549946958135, -0.052391434303969184, 0.07241230703394931, -0.008349862877430177, -0.023256799606227358, 0.03309359408848957, 0.01561764253542554, -0.010015280745413413, -0.04672590560181652, 0.03534129650312317, -0.017081510133587878, 0.00020612913222385965, 0.0009885368886806158, 0.004772457254026342, -0.02586100729085792, -0.0313487917565038, 0.0038449942026189308, -0.01591809221945529, 0.039489494544214944, 0.052863675227378455, 0.0584596328103939, 0.001766690023896522, -0.00585902099294597, 0.012526509977788453, 0.04067209223775482, -0.04466904537507906, 0.00034457568831447704, -0.022241237496173495, 0.042471014369345084, -0.05349286132089751, 0.01227650503000531, -0.008895507432500642, 0.08868479934689147, 0.062365634658062184, 0.007862517400744182, 0.06651089938105322, -0.02415489181225691, -0.0568690566571503, -0.034400423536806175, -0.0029951954966897973, -0.07093504719279085, 0.022834183113931983, -0.0005593947339213522, -0.012573398067672924, -0.04884922617611035, -0.051894028152127, -0.003958207085616735, -0.028221673163815998, -0.0406552076695416, 0.030963085932220146, 0.00011996613362555158, -0.04247560751882635, 0.006513066672434007, 0.09637833013736385, -0.01917499946066824, 0.004075467436461852, 0.08064465172162709, 0.011310653696010085, 0.008448386695937402, -0.0021387653407754404, 0.027987213362014297, 0.050179435911142364, 0.13105058252942012, -0.06122086322943077, -0.036483911711026884, 0.02883660756741615, -0.022508658001930915, 0.009723700488179892, -0.029725656640107786, -0.01624715261426337, 0.011266495104287799, 0.03785749862694448, -0.010764421831162352, -0.028809742532712068, -0.014775002874892978, -0.08228354422408309, 0.026671123475293903, -0.09339098379748742, 0.027847161054990906, 0.0009488749871706533, -0.03807669923824254, -0.001546455467646924, -0.028261085289769814, 0.019573956244087455, 0.03746284012400703, 0.0430510285600998, 0.010676119188229565, -0.011241776608929695, -0.034481669058626985, -0.0514103609551003, -0.00024050407840626415, -0.038929342569243255, 0.028305401800872505, -0.011719024802108905, -0.038525449063259005, 0.03388873691843099, -0.023505272078416375, 0.006453735173262003, 0.015116493190462087, -0.04726918401798882, -0.020964895386496683, -0.001036321210722129, -0.03381829614161414, 0.034017154259562546, 0.03485938272429006, 0.021740665030720755, -0.014085256698285387, 0.025630492725837912, 0.0087998100875574, 0.019937923042591708, -0.04296135606093034, -0.011078482705579483, 0.05267966883448638, 0.040501406264277805, -0.07166385445845855, -0.01678013847087365, 0.010861465505714905, 0.014065241377639244, -0.0008518492619084162, -0.034669366498632344, 1.6444674670412432e-07, 0.05101731788925248, -0.007311324557913431, 0.06681927441895659, -0.025002951576838104, 0.04690052276784607, -0.03717006435219211, -0.020471664353521508, -0.08472928852932178, 0.010853250466692358, -0.03864724635045529, -0.052359916241909575, -0.040659240271621995, 0.034909090507468835, 0.01100052066673656, -0.07396426878214482, 0.036786510308045625, -0.006678662790807798, 0.01210788191845403, -0.020819253013056125, 0.027494988409286294, 0.06098216781318855, 0.005068286413078274, 0.0006144378350915541, 0.026564869713239358, 0.020124198726598656, 0.0070056922627216136, -0.10391952689729249, 0.014207276493972616, -0.016325109059933673, 0.022984944241942255, 0.041236729819002484, 0.015322450449767433, 0.03195113979078823, -0.06004258493800365, 0.019422639080811016, -0.07495335118066977, 0.018589568878759594, 0.045041743270815136, -0.0071988192003770626, -0.035464155723909485, 0.03709617884916771, -0.010877803506494952, -0.03878418281631683, 0.012020379202856118, -0.05406752293671012, 0.045491872131773047, 0.013399619109371147, 0.01038547387405642, 0.015005210855954954, 0.04937051226537244, 0.0382801028557958, 0.05191330863110736, 0.015656964627890235, 0.029242240934093885, -0.07416182774003317, 0.04048446936664986, -0.030944393340558714, -0.01791906956031122, 0.005302368979073794, -0.020231765581702057, -0.006467369372383571, -0.06168553810262451, 0.0016001388677986225, 0.058117511465626215, -0.045453540826419635, 0.051734137660936756, 0.0009764643136314201, 0.014146473473518993, 0.0019247505435122058, -0.0247299875477739, 0.0104593850805705, -0.08759592608812691, 0.012796144783651197, -0.07032863397452624, -0.0520633143555335, -0.0419458057594224, -0.03991830571183318, -0.021018702693462264, 0.007420527079568383, 0.020331422719255168, -0.026337550258498436, 0.006173405872573543, 0.011445962212451822, 0.028744474608895672, 0.01588718377049996, 0.013033275570906134, -0.0077637658206349, 0.03536685614116802, -0.021926685206208475, 0.04357470159242775, -0.026467987628610457, -0.07640177166843387, -0.058325102749725, -0.019229654977156254, 0.02002160568861935, -0.00046910581470188277, 0.017008696409888478, -0.037696145308996634, 0.012254838033619363, 0.014847809493572544, 0.02555391947750988, -0.003353554384041801, -0.00753793627637851, 0.0538250167632615, 0.0001861257724112399, -0.03188179036129486, 0.0032692341570283025, -0.010763302636587853, 0.04133173819927704, 0.013933521338996, -0.05457880176079586, -0.015047592538060785, 0.021872479659890604, -0.022208732378399088, 0.02165209432203418, 0.042286436442680264, -0.014870567468224403, 0.05022115359879218, -0.015642389343903242, -0.007010055791936547, 0.04232648482454878, -0.010677293269791176, -0.03022088121349409, 0.005424077163814039, -0.040516489036414124, -0.026622551423841605, -0.02430534305976953, 0.05124748236227166, 0.04253809837929157, -0.01934924043611121, -0.04817982076098338, -0.006084581859835312, -0.005798747480428356, 0.05054077901022308, -0.00022712196208740998, 0.023829190357262664, -0.02579403135845402, -0.05857235259700589, -0.06942286919283226, -0.034134833061948026, 0.03375973024562041, -0.042379669177117794, -0.012833941942605934, 0.009444474709029649, -0.053563127794506095, 0.004250059994486795, 0.08410156422212893, 0.03994908095345199, 0.054002082635562575, -0.022595068642420564, 0.004038009841042468, 0.013510164046588122, -0.03449973222268446, -0.09534853018605675, -0.018118361986149207, 0.05815991782168946, 0.002370815959103431, -0.031151937829125013, -0.042131469266324106, -0.047384923712729614, 0.016441574842745815, 0.007903368195043765, 0.028341335684497985, -0.006538874800945565, -0.0014899240917407265, -0.039516507768547184, 0.006409949819339721, 0.02301297534666536, 0.05342647413166369, 0.02078327242437786, 0.06699581651117374, 0.05615882901687546, -0.04328381962049227, 0.056921871687971935, 0.025367366183049717, -0.038485660469054404, -0.07408965078321231, 0.027054340966570507, -0.00281441901803955, -0.047066835926207314, 0.025824382775004734, -0.045747873231202114, -0.04482249254509, 0.04412096862273109, -0.025383889220263186, 0.02071024867406903, -0.011484545699323964, 0.03400214212031527, -0.06478951832569906, 0.02182343731486012, -0.014148586968133616, 0.010367086006741338, -0.0020458674582447696, -0.0026999637210324704, 0.026180914201077272, -0.061035671221268385, -0.019603051114259522, 0.01662982342255154, 0.02475714366084958, -0.029710943126908175, 0.02333182661568737, 0.00713684225381801, 0.06891782399746291, -0.03616365936057996, 0.06432706601951212, 0.06347041055788608, 0.026625753663602706, -0.041194490450946634, 0.013397899951538674, 0.07873117448941043, 0.028936413655727987, -0.03393452971176839, -0.02007447350941898, 0.0810645476593577, -0.053127329646009906, -0.012141229872255485, 0.022686298245677278, -0.028841163450699817, -0.0357723941758249, -0.02093464519895307, 0.03222919769902432, -0.030474502499696434, 0.06564687664824076, 0.03793730733618864, 0.0027052924690973553, -0.06678602803557317, -0.020216678210064818, 0.019724877124044683, -0.04206396754941937, -0.02560581171134874, 0.037974855165781925, 0.07297969985501788, 0.06885509098993238, -0.04829693221694109, 0.00967867479803684, -0.011349846330803506, 0.02287051289609437, -0.02191226883474933, 0.0038743880855449837, 0.05735213018302654, -0.0080099134293004, -0.03698724140164679, 0.013605513820855189, 0.0025522466955377006, 0.005042462073155806, 0.03751522080815787, -0.09049131113363394, -0.0032698998475962416, -0.033427638407491314, -0.0004933596210100648, 0.029607868619313943, -0.03667604781467253, -0.011752578965595546, 0.06128733003079001, 0.008497340266561172, -0.015129789026580168, -0.038920046025170886, -0.02573857646416831, -0.011493832475902544, -0.04622335534380143, -0.03688882233469729, 0.02219735707065673, 0.0004939122943500616, 0.05829685331707422, 0.012255383755018376, 0.0284624825757256, 0.056717917216302975, -0.043319160614164305, -0.009329276547639627, -0.01989894286749374, 0.0006491430001027533, -0.006170679895178874, 0.024602096804342246, -0.0008160154977269251, -0.017420429096689637, -0.08313422473023327, -0.0015653187324764538, -0.0497956171229423, -0.007345378744597923, -0.018595720237978428, -0.01992953605201375, 0.02836784722423038, 0.02754653930431989, -0.04186484679545672, 0.026437285311049854, -0.02275129456840739, -0.0035023993951809836, -0.01815621563052963, -0.003298123463615751, -0.05749490751386157, -0.01857255871348131, -0.046268006570058876, -0.03331742753573557, -0.03760028551505244, -0.005996579334148935, -0.02528808655293263, -0.017051747059383192, 0.021802521954156173, 0.01971592932798035, -0.03784114090983654, 0.03990899383469372, -0.012612705571451888, 0.007061909227534537, -0.050356310785891555, 0.03400384043824616, -0.008070754993637746, -0.004431036359534033, 0.03281209990314169, 0.018680412111231812, 0.057108022964038434, -0.02922002130258244, -0.02913567456434999, -0.02404783590362134, -0.03814536731837006, 0.04348928346619252, -0.018949272550174343, 0.013929673589537546, 0.00622271740125183, -0.028915271118285183, 0.005660924802331253, 0.02504585965052786, 0.010305462880407651, 0.025341830792604044, -0.012982420493770422, 0.0018161327745761819, -0.04263807036019794, 0.008802260945462574, 0.020213514394237814, -0.002410486198799921, 0.07223136915560321, 0.005361397141760313, -0.010361561747925, -0.03457725116790429, -0.0270370221355607, 0.02749001545361884, -0.05923685483435293, -0.07893626669703765, -0.027747951313626607, -0.04387849934331841, 0.005335292877522453, 0.007143123087955831, -0.01471156329275891, 0.005573203194804802, -0.063856179571378, -0.025067265365496954, -0.017328041962254195, -0.0037974647880355435, 0.05220877386563655, 0.01623217655542815, -0.0034471045985055605, 0.003309727953805756, -0.08123786760123783, -0.05612920145113087, -0.01587457293506703, -0.04212146613829156, 0.00039421267923643236, 0.017413765594981017, -0.06574707602341578, -0.011349196941954205, -0.0580990822994377, 0.03863847319498486, -0.012259786805020673, 0.0437484344717397, -0.05340280911202554, 0.046500793275165396, 0.00970781249917173, 0.006159614123079549, -0.0031089709769137144, 0.01460628647387566, 0.01974427320261831, 0.01390695352473711, -0.020643553919417138, -0.008980076181347782, 0.025311327765991203, -0.0018963587554762424, -0.03538889682650121, -0.05271915615680804, -0.007644977916470811, 0.02006890358259964, -0.009779996112383877, -0.032160508043237106, -0.06456386350798683, 0.05887556807320997, -0.027350664749248393, -0.0053941762836755515, 0.02379818046452419, -0.03189493346529824, -0.031099852464728992, 0.05587723104585251, -0.010357274941440635, -0.011116376621060445, -0.017240382385533083, -0.034506975880904345, 0.016966446270195615, 0.027103571659120612, 0.032174040812358855, 0.015086533452433062, 0.027214277033672147, 0.006442108590929133, -0.027568201457930347, -0.047448162400142324, -0.0069198838958902205, 0.011440036018440318, -0.004440547972342457, -0.03678463243636132, -0.04308076685917626, 0.06802379821810212, 0.01675112201884564, 0.05175117027552749, -0.04602608053052549, -0.02763567978130142, -0.002024334554466802, 0.0013372002324272385, -0.061268854351328804, 0.0014780747948085866, -0.048336779289681754, -0.026212884329516097, 0.028084502315823878, 0.04575627092064056, -0.01947088140569137, -0.031525402069731805, -0.0012755301295727319, -0.006178101781667305, -0.01621758975126677, -0.03791153641529022, -0.008325218909276953, 0.03662340378074262, 0.06585349145745646, -0.05371715735175118, 0.02029496581193505, 0.009307847230293877, 0.024747253541849232, 0.0033518132420841565, 0.01942416903042195, 0.02331845448252287, -0.04773977915708043, 0.022174431777288384, 0.04002012371986363, -0.058322400740640754, 0.03322968303878965, 0.02697301034890115, -0.0306439456567692, 0.0034243672657667283, -0.06775446454376856, -0.055470303192357726, 0.022095933678923322, -0.021968593731718174, 0.022202480843638715, -0.0012084690451556618, -0.008539122470353164, 0.023071383803140628, 0.08203547728405602, 0.028623215612504766, 0.027955779734971098, 0.002129173405043299, -0.005142197185533759, 0.055132778609015186, -0.042246906018641193, 0.026832248053424705, 0.05107953440809652, -0.020094863712225578, 0.0478317343824048, 0.00821306766851559, -0.01025124169859247, -0.030920830973022305, 0.0034594758389083742, 0.0316510213234674, -0.05185291611301441, -0.020280586692462705, 0.0048903075667067085, 0.046315233755308986, 0.0171200782972394, 0.04475927240409187, -0.019848993558058442, 0.06551859989186255, 0.036060436300665175, 0.012894028676914342, 0.03101210856814996, -0.04040241204840102, 0.01993782584628611, 0.034027791116254404, -0.018296226130440997, -0.0562377513212134, -0.05474106991695628, 0.052854554703490285, -0.03693915292257338, -0.07844729316300399, -0.02358828343671531, -0.0722631954846337, 0.030325748125220375, 0.007389641962356913, -0.01332055201843268, 0.0345791640741755, -0.026506377990740033, 0.039407357626494596, -0.00382078458900107, -0.0691925720709342, 0.008128809122143754, 0.02466827669158764, 0.0366127505585702, 0.042845891405248346, 0.04601488661134845, 0.03379254395335658, 0.04012981252551991, -0.02158217840668744, -0.0171216795156695, -0.030965349164815144], [-0.05457303731937393, -0.023745310829814216, -0.07317538344713971, -0.03912311746544918, -0.05917715161312718, 0.005658538389449877, 0.017337266317123325, -0.03136399450212863, -0.03910836291418868, 0.007024417655620647, -0.025982241488849457, 0.011280881692646256, 0.07647157007912507, -0.010436194813800922, -0.006099844739626331, -0.02359266474753515, -0.006042367582014265, 0.024805956200305377, 0.038744643857179954, -0.014507368123761522, 0.026494269073966355, -0.003554044293595833, -0.04940993488888267, 0.06406444387292938, -0.015437080531608536, 0.003333008095025917, 0.017963781930197646, 0.0030764717027213216, -0.006202362032399314, 0.017880265497192214, 0.032110147731267615, 0.0010095859204942259, -0.06269868634474625, 0.012941576744532304, 0.035780918534861504, 0.022011893502797256, -0.05955442898831303, 0.026579847952300034, -0.00151128794678162, -0.014266782626072578, -0.027106894333114223, -0.047157509660108524, 0.03888662763697624, 0.0639015333603567, -0.026835150232756958, 0.020410102224888343, -0.03675206128213092, -0.07072006123478189, -0.06295026373709776, 0.023543877784438838, -0.058958885574603756, 0.005711286646461725, -0.006375909404996598, -0.02952663429041291, -0.0018843008068084096, -0.08228707998326779, 0.053879710999739164, -0.05511046598213355, -0.0034317786233257924, -0.045941212742679774, -0.035588236496854934, -0.04916750730511788, 0.049066921780573224, -0.023689176937879638, -0.043592318450376456, -0.0023690068556096134, -0.04785433070491877, 0.040175533911702546, 0.012956833186757362, 0.041842586269191906, -0.0030887127270037384, 0.011284538528357492, -0.00497847350893887, 0.0010362576852260149, -0.03649685945781481, 0.03742382603101354, 0.06691216876938501, -0.021869822905697167, -0.023818520627404194, 0.010081785481310848, 0.006545316613251824, -0.05591979420400327, 0.035976087890294495, -0.011195316197588873, 0.012867610332929932, -0.01655967203255526, -0.033879125936828784, -0.009228096873786746, -0.018318772554006137, -0.028192907986407074, -0.010432655675931766, -0.10233888597448329, -0.014261814738297103, -0.0022641592687363634, -0.012586547086826595, -0.05747658861114132, 0.1296786592189799, -0.026766698663507015, -0.06730265812898774, 0.005895780070810236, 0.034416549124952026, 0.03879237034185033, 0.014962297565572788, 0.025786312209719126, 0.011745009151943353, -0.037410353080350636, 0.036941502454746415, -0.01898632934867892, -0.02912301845306402, 0.02339914525034506, -0.00045069744315931687, -0.01440787922077011, -0.030942045442983904, 0.010007366533419312, 0.006162171753793776, 0.0013347248262234916, 0.007164873337173145, -0.033521955178158716, -0.03921283846034387, -0.06586178958109454, -0.024041003438569627, 0.015156360203370661, 0.03517820175179289, 0.003181310090453312, 0.031580081674190755, 0.00875520446313837, 0.013894000415259719, -0.0038859018743859874, 0.04064941000849441, -0.016730095755066267, 0.01814832674889179, 0.021302109350624394, 0.00838954107111318, 0.007942938634713851, 0.03409823071674043, 0.031044961200694828, 0.02686923859682996, -0.04472195367592785, 0.055926861316611225, 0.04767925482311386, -0.03194468791100761, -0.013274143235648647, -0.038724882960886546, -0.008752844777736612, 0.003241526268997533, 0.03750802788682402, 0.012315799604133733, -0.06593628808586131, 0.05019958374104384, -0.011557764830317004, 0.030436863502186568, 0.006915400332890016, 0.011294620878652597, -0.048072003647151265, -0.008802367754547598, -0.02358473530499586, -0.01613925815296084, -0.09096074544157857, -0.02485972102331944, -0.04345225804423031, 0.05025669311324408, -0.0838918939445452, -0.06677490773265873, 0.03857632207495243, -0.026946931646215477, 0.005915744554491843, 0.0042845028295339545, 0.021029798068583825, 0.056963804179835674, 0.02963015277082914, -0.05820997940116004, -0.0020892834604363387, -0.03298659705294465, 0.012224830794469444, -0.045458615868170384, 0.021139332233807314, 0.02974453197510139, 0.06372431404013353, -0.006500960715294641, -0.02505672973886322, -0.03520298586612145, -0.015051722729252643, -0.005998974076015323, 0.059273987263115877, -0.006481226905212678, -0.002070994498200353, 0.058282528163560644, -0.008282080760757612, -0.035745796754431944, -0.02275439478008479, 0.024916284190343394, -0.07751897343220575, 0.01211399375457621, 0.059058638304144796, 0.007459034566668839, -0.005159204257764076, -0.016474324064163572, 0.0392537261291921, 0.0033949909596698137, 0.017821536866430825, 0.010395287610538474, 0.0020134255000127704, -0.05074097567931506, -0.0017787425264876244, -0.03308412398575255, 0.002585239143665969, 0.003535554154229701, -0.023125118728332065, 0.09854026565828577, -0.01072454923100175, -0.05459025332479106, 0.05606357669897212, 0.07708748367195455, 0.07594741700494145, -0.04707453550490422, 0.007839489147630387, 0.053405733491747785, 0.00015416186076887983, 0.042668199895920286, 0.03156187144628294, 0.0028346247588997863, 0.051253594480859845, 0.015316486267952333, 0.014444316567174164, 0.026154660079296035, -0.010368423616365849, 0.0058786603332466655, -0.06295232016361631, -0.025934548082884843, 0.0210626651098904, -0.0014486531041099117, 0.001563449713199609, -0.00042666064629955325, -0.06080518684666618, -0.01801021026669606, 0.03426678699897316, -0.02520986902175376, 0.002636531453670924, -0.03163293245359199, -0.010111799512321037, 0.06234465849177247, -0.030597576195647687, 0.004639359154427085, -0.03775294397082093, 0.008132678880261337, -0.006304687268050321, 0.022539006705936008, 0.023302521194317336, 0.056400172480377445, -0.04313685063683885, -0.013099411399058677, 0.10820965235146181, 0.07311652612718712, -0.01325073120550189, -0.01618696929244283, -0.0291849811974852, 0.05261200142159939, 0.00951066253409644, 0.002010938552679821, 0.062210383153523785, -0.0056868554037403166, -0.05144694429159008, -0.037641704990558085, 0.011160961997448714, 0.014690950918750842, 0.08692360262025135, -0.01124935987730599, 0.049106220083058476, -0.02426432853296102, 0.012120661240303008, -0.012108291549136053, -0.005972765199326179, -0.03439756273982875, 0.0031588493813639704, -0.022876905913493673, 0.007822262985395238, -0.02369927130229824, 0.02835067692572537, -0.013921488830430684, -0.031789278904510894, -0.004249212090022022, -0.023531043384048485, 0.023283932746869317, -0.016326785988542293, -0.03965653195241964, 0.03620881501259303, 0.11629675762934154, 0.005756472998072194, 0.012344053895857337, -0.04244298519021984, -0.07295483396382359, -0.014183153630018172, -0.08174218902757802, -0.04136830207692332, -0.011140040670836482, 0.03410171124946323, -0.03435773810884147, 0.029306154577185523, 0.07251578604284417, -0.008923143566963618, 0.02668697564789805, -0.020698088522101667, 0.04902853273805228, 0.03753508176869279, -0.0254429187637098, 0.017957010523979848, -0.019121159032143557, -0.006728815713730999, 0.04000616348525064, -0.013811282572497403, -0.028667965433038265, -0.018556578788549164, 0.059952274889940205, -0.04417352090989374, 0.07129941429655842, 0.055783489408531804, 0.02338118386290506, -0.0009401898298128167, -0.003998827262568364, -0.09346368791494562, -0.007492392517776248, -0.01868967584439599, -0.03193129386705208, 0.011059427777699622, -0.012660973548173448, -0.02988155275278137, -0.033920623701057674, 0.015658953962839943, -0.012453161255658176, -0.01833271870569176, -0.009544483149415006, 0.008034496945980135, -0.022516996716613582, -0.016911854919519197, 0.02360225688685372, -0.02774318226225036, 0.0037430314036034818, 0.030580673357357542, 0.011526729931821845, -0.016377337078943666, 0.05314491287249103, -0.05776448049470726, 0.008522055880801394, 0.02518102183444195, -0.008808881842316802, -0.004719572115094299, -0.03002662723249138, -0.009060091901879752, -0.030436976156362195, -0.01269960197601164, -0.04687572688677894, -0.0050753943271583755, 0.02376274259357371, 0.03270984035483242, -0.0016657944873413571, 0.011536992189302672, -0.028756035651905525, -0.03787227925347841, 0.032700171060782005, 0.0017472805442973205, -0.015775638101970513, -0.01252674058541676, -0.0013297802957409688, -0.043614106317375056, -0.012593241025077334, -0.02380420173238559, 0.015115277995321483, 0.040223099497632135, -0.008865730803757063, -0.046086476547637985, 0.05342432318454893, 0.03687074723514753, 0.03801614010998792, 0.011407323649516831, 0.014702061747499969, -0.008830436114425416, -0.0058724569117608325, -0.02022927010962928, 0.04167024386861824, -0.0034705013716346315, 0.018572268716066213, 0.009409729600477024, 0.027363959235012614, -0.0026206440902409476, -0.06034762726212167, -0.012075175669475387, -0.0354422797638499, 0.03378460411739522, 0.024137149918157776, -0.01164672871237612, 0.005900899767861766, -0.0014827219893845916, -0.026042544273067274, -0.0015403944523486263, -0.002206212114272479, -0.04525199011583841, -0.01841924955465827, 0.04327670695953154, 0.05071538317516248, -0.05524166401370084, 0.016024883326615225, -0.010446210324917032, -0.00036096134767772084, -0.039401547040726445, -0.05302929405626117, 0.06869315399017889, -0.029799385006915566, 0.021574978953155455, 0.013997479598384993, 0.00022243724660162906, -0.01075282871129007, -0.0724273141883609, -0.014777520303367068, -0.0086333824577671, 0.03201866761582519, 0.07551207102150552, -0.04601462426807799, -0.036733708949006426, -0.0026951413458212803, -0.024672043809788467, -0.00382238682232944, -0.04160011135029724, 0.024318220232127985, -0.027596429651836875, 0.03469458665508778, -0.0374622885153763, -0.002505194432188216, -0.01861346477705266, 0.02128342386703335, 0.021220022169867514, -0.018696627618705552, 0.05665990379480471, -0.011308444776790025, 0.025339436577054012, 0.017139722531861946, -0.0026786972831475994, -0.043834881984043665, -0.024243193907252974, 0.016191941614691677, -0.0032020582168913207, 0.02888750416375838, -0.009578205767700198, 0.017899138074315573, 0.025931199174823033, -0.019302881058674393, -0.056150777626496666, 0.029739975921107185, -0.03298811827436382, 0.018040184149229383, 0.0040377149129214975, -0.09541225840992322, 0.01619744683248806, 0.017707604154804612, -0.01008300977855727, 0.01029227486907658, 0.04164086371538194, 0.012728580035806713, 0.017235392069299183, -0.03151956068581317, 0.029523221993622513, 0.03936765761702328, 0.009104843694173945, 0.013633554372591778, -0.0020533415991255493, -0.005117778092364652, -0.06186708581327356, 0.001191214844786402, -0.0369436350090513, 0.008969522109849568, 0.026423706001536432, 0.043597336565299176, 0.0821881695553118, -0.025020365623205188, 0.025436551596843323, -0.01430790499198664, 0.026472721566421577, 0.012719457279321316, -0.002431291932240385, -0.07452145259488317, 0.017555491256724516, -0.0047184467726457974, -0.003688317543698464, 0.01416257275868471, -0.050849052219798754, -0.04223227889036578, 