{"biases": [[[-1.9928854214835914], [-0.6514162525961485], [-1.0037762387810676], [-2.387821041291774], [-0.7819552636976409], [-1.313230568969569], [-2.453649134302038], [-0.3612837153846553], [-0.2734297179787756], [-1.669605304158436], [-1.975911524191768], [-0.8638214109469834], [-2.445813872446039], [1.6584953105770097], [0.7067770518643305], [-0.15506664835890788], [1.3067238944431834], [-0.2977721144785364], [-0.9471176287719634], [-0.8387833063900852], [-2.021125053779792], [-1.6015163340304301], [-0.9444515681613589], [-0.22143503399149253], [1.398958503479091], [-3.327832277017442], [-0.592822734720061], [0.5507065185259372], [-2.4609424673801135], [-1.1007549469802038], [-0.8891574158376433], [-2.2870438303544507], [-0.22687376377510177], [-1.9377849600154227], [0.31735064265977175], [-0.3048146375646084], [-1.7431997456944526], [-0.0035564916733328623], [-1.7048122517634579], [0.24907123025748845], [1.5662876487995552], [-2.1527032296934268], [0.3852186574282483], [-0.039779815169350224], [-1.4500154418023172], [-0.9674292535670265], [0.5616845703389469], [-2.112211383343598], [-1.0342514226638164], [-0.28382083255864105], [-0.455846259561792], [-1.469216589718916], [-0.46185279608116064], [-1.8740422682600628], [-1.9431647479363459], [-1.475637923390839], [-2.5418314826363604], [-1.0305292610716743], [0.05922565582993209], [-1.1796816242797024], [-2.0308243576052147], [0.20547431794597812], [-1.38911065713441], [-1.122503242578663], [-0.6508484624202178], [1.4936497157620572], [-1.0450594506741104], [-2.126238590932591], [-1.718003414214984], [-0.898151321547158], [-0.6346232984241542], [-0.22486500484044683], [-0.18771134354274616], [0.016493544560978905], [-4.749672589374481], [-2.901517012156412], [-0.17894320121048554], [-0.14569784025470123], [-1.1095618820258968], [-2.372624518634974], [-0.9020509478169318], [-0.2638435763872248], [-1.383134532204697], [-1.804340490487399], [0.36118062541909807], [0.3908937639235756], [-0.31095945110384937], [-0.157314716702487], [-1.3308515136698629], [-0.9004958760598303], [-1.0952876925790014], [0.1156025154255102], [-0.44905828989152685], [-1.4637572726536145], [1.303283876745437], [-0.08059703415138816], [-1.229468612911971], [-1.706408317836052], [-0.1999452156948245], [-2.0719601900786406]], [[-2.3613318255167055], [-1.3798975713887693], [-1.7948507039675945], [-2.844147698610858], [-1.163141460107178], [-2.675542854349086], [-1.8505739948096955], [-1.199506914830112], [-1.0086356855884333], [-2.7617625729326893]]], "weights": [[[0.0398513583604273, 0.0006337254815042292, -0.09628559428750648, -0.022368037057743498, -0.011072157337554627, 0.0172127129587891, 0.01986465586948712, -0.06641929462147934, 0.0045938326417707875, 0.052527088559573526, 0.0381603869317997, -0.0778849855276512, 0.029899103675354144, -0.022153811745307273, -0.05779880226225447, 0.0447432353314971, -0.053935245452713124, -0.03511938531752689, 0.07904498214747463, 0.007739519720537913, -0.000924158632023131, 0.03184494657088134, -0.054488541530041394, 0.012532334998610716, 0.004323475202498587, -0.0012626588400926572, 0.008295339813112663, 0.04584589541805502, 0.035353779227973364, -0.09713945485383906, -0.009397523114578034, 0.03926382160088419, -0.01437862281552256, 0.009417740164745536, 0.019164710449092674, -0.013613490528142654, -0.07318830534512887, 0.00126463445750292, -0.022432612338568417, 0.02209573051504662, -0.05494316509442529, 0.0321306388325384, 0.09230095827049749, 0.05063177070422719, 0.04827530046592711, 0.026228942393800487, 0.03491519148668795, 0.03390055005441165, 0.006011788027150728, 0.05694151153634776, 0.030983425596363724, -0.003224698770543695, 0.021338287031110726, -0.04390509532009724, -0.05145035526706472, -0.0282074841310808, -0.05630013391093655, 0.0002571908425710409, 0.013188251036522249, -0.05034530449653292, 0.01941797403414698, 0.007558652518894954, 0.002389066551063132, -0.009746642321114697, -0.04501850570618289, -0.0529228359298148, -0.033312482841134326, -0.10737645487540487, -0.007868005530212437, -0.11132245695719306, -0.09624210064992449, 0.18135309830648227, 0.046623127325729395, -0.11798241483622518, -0.04363567199953738, 0.03726326869413016, 0.04954828533611686, -0.024146210196854038, 0.026646900117306707, -0.027432289582175536, -0.00961453197348083, -0.011729944262098536, -0.01976688274172254, 0.03489347960144504, 0.029066783640941035, 0.01751183685304268, -0.019017805738399098, -0.030509739895440997, -0.008550062080029728, -0.027453292037521067, -0.0036878835149440833, -0.01883854811332626, 0.01840536931959399, -0.133890543141673, -0.15801446956367743, -0.502903157615087, -0.25174169981811173, -0.054774774998945994, 0.18265392587200494, 0.1989660401878863, -0.07303541108525, -0.1525306299159849, -0.05984697004282099, 0.12013717331319193, 0.13429361919084726, 0.0069695736583378, 0.0714259189295464, 0.03987093556572152, 0.017710818904636636, -0.016474284473635067, 0.03548283098317175, 0.030188814732139486, -0.019629512171944117, -0.006880953031594379, 0.00532822157423837, -0.01478111723298534, 0.051047151592705176, -0.0013423020924467237, 0.044802814038929197, -0.015283228674917965, -0.06908552012279785, -0.18935504231440084, -0.2789538029916851, -0.2024408395329546, -0.004573475682156265, 0.19286298042802366, 0.34824002297867923, 0.5515415478826329, 0.51580722645215, -0.06589147781694552, -0.29478708270940995, 0.06821439288502569, -0.24897759143923925, 0.05168583611485114, 0.006765026731148319, -0.08696104792909776, 0.0026845151626871326, 0.02355113031781849, -0.02006434892958836, -0.008242267981601466, 0.019181209981862363, 0.014005210637364887, 0.019817134867808322, -0.08160222638519485, 0.03456012824390963, 0.11082396144683018, 0.1628934072541826, 0.005715816850849084, -0.30761185116292133, -0.43885958244573386, -0.4342236467195087, -0.7192771430594611, -0.3244511424434865, 0.07698331559211223, 0.3634289289898017, 0.15448066002730737, -0.08596414864757668, 0.5641628052483119, 0.3583369244586891, 0.3080100374481278, -0.21966314848984117, -0.19462834897154585, -0.047577506490287, -0.13756955354352512, 0.05134760584963779, -0.03292644488600058, 0.040658863704153884, -0.025584794734076165, 0.0027231170262912562, 0.03095869285856144, 0.0808080679290616, 0.0782872687086784, 0.03424176143210119, 0.13691721589046488, 0.07833259468213473, -0.10921103432025858, -0.20591504462606444, -0.4648162631110629, -0.25904915445892035, -0.25945594161289753, -0.24386283730773145, -0.03320629743910289, -0.3671981575169198, 0.013809764236943458, 0.2676934751579408, 0.5977043477672812, -0.027288646753611527, 0.309649198451602, 0.18843875609260757, -0.41345676340688087, -0.11934320601853472, -0.038610874369319044, -0.10289758138942687, -0.0166408476948415, -0.009769051937989704, -0.07526854992808622, -0.026274153290128575, 0.027743989395693166, 0.018641506485285963, 0.0423140443519804, 0.02064994581854284, -0.07528391303340418, -0.04992459736107818, -0.05559097469912174, -0.13999973261766624, -0.0281882406910809, 0.22621692957329498, -0.07093976488113807, 0.0633918948489485, -0.5645551304221624, 0.24369986576137792, 0.35975465981754734, 0.095048806385211, 0.5216191302517408, 0.012743852283767673, 0.1227769066882786, 0.06446962038778069, -0.31761455812433054, -0.2579791410377443, -0.03883364941385169, -0.09558265179359517, 0.10428156839232008, 0.005868749577172744, -0.013531206920530468, 0.03237148790092683, 0.0008792232805040814, -0.013555766743542093, -0.025169287610695094, 0.08882075942366877, 0.04376150314623166, -0.04702535478928801, 0.09728304318967354, -0.009254377188860371, 0.3547438860085944, 0.11178205946664076, -0.22378524472368508, -0.27182283890568776, 0.06689037477066799, 0.22534096257651462, 0.43801241215358055, 0.10446015768326378, -0.3008893860731114, -0.3444410164648402, -0.24225159024864526, 0.14571439235866057, -0.02982973883947239, 0.06412310828776488, -0.14022633180232, -0.11545879864177681, 0.06554573501719596, 0.03059054437389025, -0.06068821219722625, 0.02421981655776889, -0.037383298949110876, -0.01558625373010019, 0.09716910467437721, 0.12016801537213118, -0.23327825670859284, -0.009196823096145003, 0.08766210874580165, 0.1965725472922219, 0.216018549082239, 0.21573905761337056, 0.060155081667003604, -0.5330107391959793, 0.26341730744860725, 0.47234606133278, -0.017475556713188088, -0.1485256229405728, 0.10056781017686697, -0.2127951869153231, -0.3223964646182097, 0.24595754987382118, 0.1900423418040814, 0.2862697845167024, -0.12479749460699764, -0.1610755148737027, -0.10520223929071128, -0.03856223878406639, -0.022313687167578207, -0.006080397846474194, 0.052631337535570304, -0.023655732240244472, 0.1200623904692599, 0.18817911339443694, -0.26313052433460515, -0.4090875095066063, -0.14313239042467596, -0.1620273013567234, 0.02819533301181315, 0.1572127693710337, 0.006790915570705425, -0.25161352070108484, -0.043886337949851785, 0.28678731121006173, -0.14841877877040532, -0.09866343948782967, -0.057362591731133235, -0.08559867658886035, 0.1761114189009963, 0.5412644015122328, 0.34124026032294363, 0.1917419392136567, -0.025212343165235112, -0.2338495846196164, -0.14213635776398745, -0.005460933018957274, 0.02282974799856528, -0.005473169322952795, -0.019995693882981887, -0.010600005070873495, 0.011488760016204073, 0.043023666083823915, -0.16658050459075982, -0.285218152179523, -0.4365628663434718, -0.1648178397492797, -0.045137954671822716, -0.23848516693310176, -0.6326546925452823, -0.5589976969150116, 0.12403660527008539, 0.43459183173985183, 0.12433763122151865, 0.12081670462777692, 0.1977572461997802, 0.5086212782331361, 0.43278473162184466, 0.4561066830503635, 0.26406842205767966, 0.020790235878345727, -0.05725150216452735, -0.1271583274623755, -0.038208918937331006, -0.0004404986694534354, -0.005635550000925231, 0.0362544703899271, -0.029959444888879198, 0.001863660786693995, -0.027892124812921557, -0.03594343576686633, -0.22468644746994804, -0.20882302435059136, -0.29565236664457406, -0.4991787185055161, -0.4739234288434618, -0.2766180320492073, -0.30357864995216316, 0.14498726345139384, 0.5805646803911139, 0.6922358845052451, 0.3654728823978179, 0.34980281454304063, 0.1360493029448708, 0.3958376756043364, -0.0925719797613475, -0.09914845415933697, -0.0478618985706641, -0.10163039033483985, -0.06502182006845186, -0.010646108241166779, -0.06959985233202357, 0.010190299506174907, -0.0399812970362603, -0.055533953487100496, 0.012820856181192265, -0.021181199783768097, 0.003634741022195981, 0.013902878040757322, -0.22676610540906972, -0.3117561397542833, -0.48973951195856974, -0.3412606402390894, -0.5104285022635369, -0.6854530773479695, -0.4170431129362674, 0.14606813065509233, 0.5276844125474892, 1.0366379717164207, 0.4798599087652703, -0.14632002568588284, 0.27073671680650563, 0.03720651716560794, -0.34244595252546145, -0.2858126114336831, -0.4654630921454143, -0.3429379115729933, -0.20782439164486965, -0.0504556352122028, -0.010483534480829693, -0.04866136369058299, -0.010551458926460063, -0.06823331795236835, 0.041363730042885266, 0.029306220024926874, -0.05632120892793946, -0.053800441257087425, -0.27690147345544236, -0.4306924356243852, -0.5077900190633833, -0.29169965294213596, -0.2686260558764021, -0.7752314108917402, -0.6265122840597084, 0.013385964278354158, 1.0607545622641528, 1.0510044388473572, 0.4741684492660808, -0.05656230213325299, -0.16251623444584598, -0.6228435593155736, -0.6893058234449572, -0.5213137229123413, -0.5604882690607406, -0.313355674863486, -0.27046542365033327, -0.1393085484009786, -0.0578527168253646, -0.05570743867662367, 0.0032749396442246946, -0.0027972284133510822, 0.014631312343508757, 0.05892927142102596, -0.05580885400778999, -0.03561511400466221, -0.3626602311827585, -0.5428701781574383, -0.5326592523065555, -0.4399908957087977, -0.43504787810747464, -0.6224152319799383, -0.5912512225287812, 0.08889979968465382, 0.5952888917656162, 0.8741025917320235, 0.28471914394452935, 0.32573277445220894, -0.7693014986001343, -0.32786181301490297, -0.3362923041158002, -0.2535639937269748, -0.5320283634843033, -0.25300826749190475, -0.16602847507814675, -0.08451697141605678, 0.020517956958413748, -0.11401491944787728, 0.06107268637015283, -0.03290850318482911, 0.020837393868336593, 0.12270803119175137, -0.046795556285780575, -0.05550078777531352, -0.17184481695943202, -0.3714584357785261, -0.33714608155959813, -0.3842102390450706, -0.3760754485155443, -0.5247200882890496, -0.45388500630726863, -0.033583857945073854, 0.44405974630984285, 0.42910572664225394, 0.23904905750920977, 0.2497458859405036, -0.304065941860713, 0.0816966957031237, -0.04429711109236666, -0.3686085608836556, -0.4309964186403289, -0.3873649029880953, -0.32170959229353535, -0.15031372360722972, -0.008588402168147945, 0.041843424085127694, -0.028947361378901193, 0.03126754503504553, -0.004678260689934164, 0.07100998955635615, 0.04837970475352583, -0.05979480522590306, -0.3285419824860765, -0.29170054834472375, -0.26870503658495437, -0.6355620151697805, -0.6046237299155035, -0.506904363173018, -0.6031380096092852, -0.2622896831356724, -0.06419363324894903, 0.17383134856428653, 0.20239830137818351, 0.2715162151672648, 0.3064214318746699, 0.22667196840900936, 0.2709984781180264, -0.18490805277468653, -0.27627818355620215, -0.19043007970894885, -0.18810946583976443, -0.13930245140758327, -0.09286269838880445, -0.03370702155095346, 0.007317805520468891, 0.008812409514099373, -0.05393239744769196, 0.11937009940272011, 0.136440898551338, -0.012982359626919909, -0.369254479446545, -0.14778888595009657, -0.49386189598908775, -0.4822179151316962, -0.4137020077773495, -0.4290268410021373, -0.34553315894242503, -0.6155300497213596, -0.014238140009642008, 0.24385693445640977, 0.2824793732728204, 0.17604892084884277, 0.3852050268841342, 0.15880066999371123, -0.05677959150094144, -0.3256547178891114, -0.5280355248452784, -0.5995879711950896, -0.5388750987172429, -0.24585914087811175, -0.08645544908289667, -0.10011790632327427, 0.06791613632313331, 0.022963660234174343, -0.010856898343166442, 0.02067652299737789, 0.14237192681654715, 0.09942210574782706, 0.016239931415452515, 0.10092436178671302, 0.06694109577466553, 0.1610281585159861, -0.48796088089039374, -0.7285164548270288, -1.1077160571488018, -0.8000195166006235, -0.641094639165107, 0.0190114357024055, 0.12054302456753854, 0.16244332913430382, 0.512033467150987, 0.20151756228898704, -0.2710129033208197, -0.7749606298605144, -0.6771832690863127, -0.5136048104562021, -0.3109751222567387, -0.13278107419727395, 0.01348967531737083, 0.012937306479163647, 0.023454115001435176, -0.013264300231169916, 0.032503605175967364, -0.16086289917858484, -0.1577234076356678, 0.14373745028725346, 0.15670710732367416, 0.3447853821400009, 0.27202604680018533, -0.2374146866560875, -0.48752595680454996, -0.440966925780887, -0.3677030589631468, -0.587521906192581, -0.5465278250852579, 0.3145985775178734, 0.23728649984366207, 0.16239623484835544, 0.24479366163862337, 0.18450517796373067, -0.15674575021517032, -0.7534274955541798, -0.41842020399892454, -0.15940809398718267, -0.1468792710436449, -0.013669312030722507, 0.026784457292696223, -0.02711211320168042, -0.03370233336383938, -0.039800605541493624, 0.026089936577940474, -0.11864493549873836, 0.004003880087023823, -0.07038913195274961, 0.286916667972536, 0.5718238377697474, 0.20368563355277122, 0.1361553793541428, -0.29735419947743186, -0.051245698305823435, -0.014075633930641072, -0.6049999805218886, -0.5082324637274376, 0.13331842982075512, 0.0738699219985722, 0.1472808208550973, 0.14075057065596336, -0.1298233807452148, -0.44107961042411165, -0.36580374507214425, -0.2506078871783635, -0.3559242339754403, -0.3077486639305485, -0.02530607200790614, -0.05003949571608532, -0.003840909705172681, 0.035436688742785744, 0.021932156412363263, 0.00723644952691955, -0.04842013182603857, -0.05911225240556031, -0.21563237995903056, 0.10261284417147376, 0.39820462869458345, 0.2069761890978817, 0.12677213164931517, 0.038797948314275375, -0.08529932312156291, 0.10351631633245452, -0.39816179155785775, -0.3594463255412446, -0.16008299652436567, 0.2261940473408338, -0.048728786194683016, -0.0022134897979517653, -0.25842838253942446, -0.13212624224644598, -0.5029683134662667, -0.4704582523715128, -0.4717288209653431, -0.26828790968928506, -8.340977275129945e-05, -0.022764300186987083, -0.00881648218173236, 0.020065524024272308, -0.0026027679932113697, 0.04389475596190783, 0.036679081986285084, 0.02416226046491965, 0.0003142398021255226, 0.06366240698761678, -0.04118893645569109, -0.08216990119192163, -0.38907447683627994, -0.4715397124074131, -0.024682442521121818, -0.08365914327923357, 0.03801555489873493, 0.2371506926399831, 0.050981682412237425, 0.23085121971203187, -0.22528433046917146, -0.4399540517299374, -0.2788576214315588, -0.14415605860794128, -0.23462840579252184, -0.3756372302831633, -0.2996939751033527, -0.18343599204878475, 0.061381643117552474, 0.027516096152370904, 0.010824358413860135, -0.02521194368689347, -0.012836637799232603, -0.05444549255782175, 0.05114305497040717, 0.01877321689349445, 0.16759896211001493, 0.11453911213614455, 0.050285580485742144, 0.01164049874748168, -0.08872622982928607, 0.1361944541918133, 0.12192217016699339, -0.005438889960902576, 0.28620394877537336, 0.07511011804638064, 0.02919377725207075, 0.05370985478250302, -0.10764965147643792, -0.33393983328955884, -0.29473354511322075, -0.1314113357637456, -0.0691265340616858, -0.24032376236372138, -0.12124417223835214, -0.042878583105381035, -0.002901267205166815, 0.04019385756696166, 0.021880108046180225, 0.040727678956058694, -0.044781944431092895, 0.005880738717514947, -0.025652186498648782, -0.0598474979269799, -0.0362038317599641, -0.06626928152868539, 0.017932369762334872, 0.04904470208283749, 0.3705457696080237, 0.4891385477093726, 0.30647734782836905, 0.09925961816735175, 0.29041057557076944, 0.17510108532461388, -0.10266091584966301, -0.2013167761198816, -0.15843581814382476, -0.25895984277034967, -0.17244726306464092, 0.05294576314711936, 0.027111570185326755, -0.10177226865013189, 0.016495611850771086, -0.012371906085973428, -0.02546417008471703, -0.0035141409665280137, -0.007964313343340019, -0.001553609227026831, 0.07049718764734181, -0.045641152061902966, -0.011306052131476264, -0.0095582264684404, 0.01884149078862704, -0.006554915759842041, 0.09151964110437134, -0.040304166834167036, 0.002097866276511624, 0.002290026541289389, 0.1710397478029541, 0.1748578792930384, 0.012698945934079183, -0.04344019034764445, 0.14727872199451458, 0.20192748612896966, 0.04880322223841011, 0.07566024233798686, 0.0751477759280411, 0.0037446291881756623, -0.008713251787806908, 0.002723557462342758, -0.02418282000070176, -0.02417288058966406, -0.005719056265268225, 0.055094810753924, 0.02076876022209315, 0.04427922459629924, -0.024354145423211203, 0.06252034230095097, -0.007320838961014242, 0.005668443405052202, 0.06302599590415459, -0.016451803855478772, 0.009999954501142626, 0.015972428185399287, -0.021387924989449865, 0.03446030402076277, -0.0033950201635760723, -0.057485890686696114, -0.0009017490608322777, -0.016283973279638046, -0.005331050702304773, 0.05272425781535792, 0.010843640799603593, -0.009385452355088855, 0.02047202551480075, 0.034340335025135206, -0.036905231978271245, -0.013464290656188859, 0.011517429901866409, 0.0562847735489816, 0.0010161296936320634, -0.06044394681296042, -0.03765791009214199, -0.01416416247791474], [-0.006029827578658421, 0.05060910035530732, -0.02009731470859906, -0.01408935964125262, -0.03179190868061901, 0.01214087811577924, 0.007357716141164101, -0.041955743178793435, 0.05032724778719623, 0.03380041077688523, -0.0031004824838332706, 0.06236605545497434, -0.025943425020272755, -0.07053999889864787, -0.06119242485626044, -0.04261715050065689, 0.03703908373200209, 0.01312501339092124, -0.06083542497669314, 0.0408056785102334, -0.04634256857057863, 0.09928943049613136, -0.012707485877087605, 0.024267184077952732, 0.04872828207329433, -0.0699425355455679, 0.0033082305254307927, -0.01811901430925438, 0.020335483970904154, 0.0008001613836545888, 0.025717617666581163, -0.02055481643021226, 0.01535595630976848, 0.005352474890872842, 0.057729972002733214, 0.057956042702945756, 0.10300563305709037, 0.027515550364008493, 0.0348802806830161, 0.030775736423674906, 0.008920304848180382, 0.06842167057163721, 0.04193840815639057, 0.0691873124480217, 0.07839973224549351, -0.022213522458742897, 0.04166009551690737, 0.0606134097534847, 0.03495119610185285, 0.022529165984091215, -0.002403393573350586, 0.027318083938302172, -0.04939260659342627, 0.027264068598506306, 0.02941798263687238, -0.024987595840850124, -0.07512818316347888, -0.03019669856254391, 0.01546726597687236, -0.007511517965367768, -0.04956620632693401, -0.016575044102527543, 0.051822545431582864, 0.08737415202856841, 0.2167116377983168, 0.138093051523665, 0.19992333577614457, 0.2222606917043266, 0.16383865169850248, 0.0049764468347998315, 0.17189164020614361, 0.19959119029985478, 0.33173253728673524, 0.3303307294399177, 0.26661630586662316, 0.30570849534415506, 0.10047122328344026, 0.0692136607173428, 0.030020558320292514, 0.055977668888889734, 0.0948782763879316, 0.011030593055118677, -0.0012900906460416002, -0.04782762820819341, -0.0013725133968163893, -0.0379533008623719, 0.007436258431055102, -0.025469175693500136, 0.06590642663347128, 0.02872049677352017, 0.16430746031900076, 0.1669937122298968, 0.17095798761975817, 0.2927743890465354, 0.31995201506318527, 0.1795850255697326, -0.018805459238503727, 0.38666705661902023, 0.35227383064291284, 0.5281279682534802, 0.17110710210493565, 0.042323204663391796, 0.2778700625968282, 0.5131690093396065, 0.37619987302240454, 0.20205706359663214, -0.020028548519739262, -0.06397549875362227, -0.07100640765697064, -0.021789679543303523, -0.06974896797535134, 0.005756712369023486, -0.028770957362045223, -0.009008298892697877, -0.03419543549525342, 0.06251299950198683, 0.047411682864217146, -0.09865018140715223, 0.06322598329613487, 0.2302921253992348, 0.1962836715089228, 0.15810188926975735, 0.2800973080542229, -0.13034234777644113, -0.33819495130635663, -0.014051437421516237, 0.3399122620744232, 0.3405468886931337, -0.016622632496296412, -0.07319448984143842, -0.025859000427873827, 0.34011404028762815, 0.2585751161709029, 0.001337511965776614, -0.3043105348847527, -0.17692696048599466, -0.09189484399481722, -0.045447257608575355, -0.02914374104929428, -0.0217837484303605, -0.02265951277152779, 0.03744899767613437, -0.054342023539597564, -0.020437781652220214, 0.08278426128399792, -0.18031484373689677, -0.041813220023726574, -0.11979515175620321, 0.10405264418531271, 0.02451011924656372, -0.19228574171326104, -0.3969992409808908, 0.009357802890145456, -0.059027622435277934, -0.17822585114104553, -0.3747822871817582, 0.14365437956132265, 0.506924100652681, -0.01900519411619747, 0.012505009905518833, -0.018519825629110462, -0.2138947619685824, -0.4504312953962158, -0.23178992883105223, -0.13202885275702297, -0.040371085452123576, -0.03262933360533064, -0.00654906929777553, 0.047340064309697755, -0.003859976601841733, -0.00212225439881231, 0.009882639945188421, 0.09574653754890851, -0.24363513861622027, -0.25741934981747633, -0.48195376320297983, -0.28653680636551365, -0.34432679555521284, -0.6970577595054417, -0.2644873547239605, -0.3007210343445185, -0.17843290586446475, -0.1260230909553493, -0.3263213454544722, 0.06992256792837227, 0.20000372750125453, -0.40592808911000366, -0.6837540372733345, -0.6597456539840038, -0.5914336169497652, -0.5780178379657459, -0.5433042954791769, -0.12822921708254845, 0.030581536674002804, -0.011227497092422586, -0.05018118682700411, -0.008249539289629751, 0.016234284694943958, -0.025419041690728523, 0.03845170162127366, 0.1195155316855636, -0.16646820519542405, -0.4232176321267231, -0.29352191352714413, -0.5681882092473706, -0.4581892357076914, -0.6269889887005663, -0.7020426494251182, -0.48516762132230334, -0.45059937523153104, -0.4589038830717516, -0.2332446944862677, -0.46311846364814063, -0.5445559897526294, -1.1305025632815302, -1.3090446135814955, -1.1426656647350217, -1.034273701153742, -1.0342986840785966, -0.6082102411771294, -0.19634546587352927, -0.12783898220411938, -0.14250427275119099, -0.02178229880699526, -0.010918016777231835, 0.012066547533214131, 0.008368976353147409, 0.013107218920171911, 0.17438121199375287, -0.06105648554928565, -0.3200628356761444, -0.14056820672025497, -0.4446516073469916, -0.4882930767058769, -0.541172921640809, -0.7136572584090539, -0.5045221017624835, -0.6586137202194621, -1.1037182693083, -0.8205384991234846, -1.149953314963486, -1.3365739413166056, -1.48339134997826, -1.051428266320544, -0.9971355447974348, -0.9590363911303628, -0.8567217261396539, -0.245215013324642, -0.32306930729128547, -0.30719594761636443, -0.16209037306467192, 0.007402448118600628, -0.004487170868455046, -0.004615558326820226, 0.07548457661597448, 0.09106178134013747, 0.19539428432465317, 0.11486145260686949, -0.1547387879043205, 0.0388452119243271, 0.20295115641129546, -0.26464643082677164, -0.5420115408024077, -0.1967862995019411, -0.21120534354126186, -0.7047434776964879, -0.39028802397958895, -0.7442983271033957, -0.9797840742814288, -0.9217639574709682, -0.6886960940596271, -0.672624885550375, -0.2745131578499612, -0.3083889127084442, -0.2352637932243081, -0.21276642731216022, -0.20403593199343031, -0.20757355034578787, -0.031174677226987992, 0.10176846389546224, 0.0920641124254179, -0.01881884176661515, 0.08254552924336017, 0.12058869866687927, 0.09507163683742037, -0.010748181277409582, -0.18310599051263554, 0.05773423763727638, 0.3657757759708472, 0.2648748538207519, -0.03126149580226104, 0.03560217458833516, 0.03498676177621236, 0.386795644541285, -0.203786615299382, -0.6103724721201865, -0.35783341124093304, 0.2972170736604655, 0.1572911478825134, -0.12169499349708093, 0.1757959740946284, -0.11794567168010667, -0.1579776676794287, 0.193227059550469, 0.12483172770719347, -0.060440257520442464, -0.027906362557862188, -0.03889150039470475, -0.017650039114062894, -0.014251303848134254, 0.29971882598637006, 0.3071830679307032, 0.42569597457858394, 0.25538746458457645, 0.10845512100090988, 0.1381225163520024, 0.09647706256403608, 0.20634291682886777, 0.004166991276467512, 0.31222102509414557, 0.4675635157378273, 1.0016200643975637, 0.3268653905690137, -0.43217394846547585, 0.4768529531238383, 0.6210853283455633, 0.6533212165274254, 0.17048677089499034, 0.22658727566713882, 0.1146344178934089, 0.21922562743411245, 0.3031810635443833, 0.23843250282898118, -0.17844093195413271, -0.07031963998999106, -0.043367827082009806, -0.014750229494067709, -0.009348105233484083, 0.25976896233349556, 0.33521874348188735, 0.44207447658399984, 0.15890621468015242, -0.07631312427244873, 0.08833776408127181, 0.35359057621999596, -0.02656327317652798, 0.03153512014839012, 0.5064424966167733, 0.24151533864620664, -0.14492024472528536, 0.21249303870400396, 0.2968002562587394, 0.8653113397039595, 0.42333500275025754, 0.806727917609941, 0.46491376335434137, 0.2760149821907233, -0.12822767577642635, 0.2217538473576821, 0.6661919546165073, 0.20294438827018713, -0.03955615411492558, -0.11110098509140102, -0.003781424166658494, 0.0324880629595998, -0.045489562663695186, 0.09484892730800035, 0.24943135081008844, 0.31438169118554055, -0.01782506993573102, 0.059009970830597266, 0.09882421198421179, -0.04820331417329457, -0.34090455545610515, -0.20671322374624718, -0.005814006554079046, -0.22106572488112183, -0.3160271860233259, 0.06322066829788625, 0.23566173406595223, 0.26283013790309306, -0.21938301532633037, 0.41302071882810276, 0.5477655016468286, 0.09298281298072898, 0.43287882898593333, 0.561013411729588, 1.0477634765913475, 0.420336516026736, -0.0049847408228212865, -0.08929651645971333, -0.013880531296677634, 0.035250633686824025, 0.042207675935044285, 0.054704392554487564, 0.14815901993892513, -0.1061199091511022, -0.24000125335025685, 0.2635461310560882, -0.2424399237855511, -0.21270327462940333, 0.021362991863585937, 0.26951813716071626, 0.36911758977580955, -0.27009549059367743, -0.1911003759592843, -0.10188564497193997, 0.07416703192075016, 0.2817289526353801, -0.14317829547827648, 0.07945079036627077, 0.4644742361105061, 0.5511067462288325, 0.6875420158683117, 0.6946214737852653, 0.6635809132218774, 0.2338185458324453, 0.012258838652933726, -0.1719503330155516, -0.017875869969315953, 0.0071279923960621255, -0.02479082744243505, -0.02925397071309659, 0.021980164434542485, -0.2861701311209737, -0.1727767097661053, 0.1422159589883269, -0.16970446039559306, -0.38203006543174944, -0.4591419687533567, 0.20501920421193434, -0.05565640579774195, -0.5817131909406367, -0.19329950928560863, -0.15508868792170813, -0.08069932331081382, -0.25712257882171824, -0.3020147124060639, 0.024062469757106034, 0.6867060843476501, 0.8983807971481479, 0.7225260391297164, 0.4084320669902458, 0.07261394271205136, 0.2624344101377314, 0.05469228185583881, -0.1323137757737576, -0.028996129091808327, -0.04504292742418162, -0.03268445567950002, -0.04639983062054607, -0.0559279104621693, -0.14554323366324357, 0.060993032525674444, 0.01111985788327828, -0.15309131068640916, -0.381934795259002, -0.3552862854525629, -0.012511889267816215, 0.038387320354870254, -0.29668709911408203, -0.3842407322053615, 0.17646086630784552, 0.012512594965583938, -0.36060903949105483, -0.3889381253189988, 0.14270491289990958, 0.3316233967491075, 0.17174429903316338, 0.4976233908188873, 0.24136198026970576, 0.019815264232353958, 0.09245731542362375, 0.10768581213741028, -0.014703639516158008, -0.008041515820803582, -0.01670905473563466, -0.026308971638122493, 0.053075156385150264, -0.08987111584855831, -0.13342348409816157, 0.009704600763338135, 0.09795171210600702, -0.31920497648229496, -0.16266252852892538, -0.468881870083295, -0.10143330923960985, 0.3607257345976978, -0.37379889332782845, 0.04464568398628084, -0.3322646446674425, -0.34567807615891016, -0.20462478359451727, -0.041136344047930304, 0.2170449113265401, -0.05010184887421846, 0.22818382315657315, 0.27347731968573163, 0.31485041997175933, 0.04497940501678758, -0.20354599678202692, 0.01943290577320561, 0.00609162910055704, -0.0510398238265883, -0.007372529238826057, 0.03833848109031891, -0.03928983635394897, -0.03624185421436036, 0.0010403705946769393, -0.04334411264695519, -0.2744252249246281, -0.07048683108062762, 0.03992751253540668, -0.6043816248232311, 0.04859758647089498, 0.1420694255878836, 0.18633743887581805, 0.3661553399778612, -0.155258601476059, -0.2934911407333319, -0.17217834692834805, 0.19201253239789154, 0.14220608416650077, -0.22330846785683292, -0.4093130867798604, -0.009552341240326475, -0.09515266914187932, -0.2505501261516909, -0.34534590963676504, -0.011580652965504366, -0.0645939747693991, -0.008758475411569945, 0.015622102420913773, 0.07106111681883871, 0.03370446091538303, 0.0007213863688555163, -0.01784812001993613, -0.12544087005727608, -0.28253552168506685, -0.04151789741572133, 0.10030305653981028, -0.28202338309740116, 0.13970416482058312, 0.5803985433293947, 0.4742084119978443, 0.28635768546841567, 0.025629454780775156, -0.13672203037251007, -0.14522152544092323, 0.13025756322871362, -0.03477763514749255, 0.06637274585899533, -0.38364961456195007, -0.4110540368594425, -0.6977257624213602, -0.4514774479259875, -0.18921624297171474, -0.03756817724895267, -0.0348779752050594, -0.028221280706638336, 0.07436865783108844, -0.09339075782739241, -0.04002562858369037, 0.017757530902921013, -0.07980964198708648, -0.2049463648271642, -0.1192892256240212, -0.21256025067587714, -0.10141487535682173, 0.1958689747728505, 0.7934059388132232, 0.567365129619168, 0.3509335973417952, 0.1738180642239684, 0.38267301009692817, 0.36154624634802857, -0.06803638692556442, 0.15468415713402678, 0.3384983462281568, -0.3799852870193193, -0.5003757407173257, -0.5274945055349549, -0.6031185348428766, -0.462330593898141, -0.1051494611531769, -0.05167506065409462, 0.02656435802814391, 0.02909255562117992, -0.010261412841360007, -0.05696572704777015, -0.05837694714662952, -0.012019898453902004, -0.10616604072255907, -0.27519422515248665, -0.22098715935320556, -0.07414671895669422, -0.030980289805776266, -0.141504491458028, 0.3251037454469824, 0.20145161767393707, 0.10185019212590839, 0.3596051786078636, 0.6623605252049466, 0.6468643757524645, 0.07221035389898178, 0.4931558174884662, 0.2838423225043724, -0.45616958691641146, -0.5205697811208483, -0.6496393633829831, -0.535961100612771, -0.47930213021058626, -0.17802254683501295, -0.02539469587115596, -0.0230408620251774, -0.04249337011105583, -0.020434851431584466, -0.046033903834187644, 0.024784831712963855, 0.02601196259933138, -0.04785944336828004, -0.1517097359215891, -0.17120443012962097, -0.12324917230061812, -0.24762967529520724, -0.16769051077148292, 0.006157714080982614, -0.31472338055200244, -0.3582577673586374, -0.009371626185704172, 0.1754089324108715, 0.532376741006742, 0.0736262834645718, -0.19196050622599764, -0.15828217093358418, -0.6430540062044431, -0.5535967665262652, -0.5785848263705555, -0.4000834766835713, -0.36238174106744947, -0.2769860256699689, -0.036951265955248884, -0.03707994340908309, -0.0445481053196451, -0.05960162381815726, -0.01642338938645561, 0.038622840062172585, -0.023498818338154943, -0.0017905619504049344, -0.01603059756959712, -0.008265215091236863, -0.1446199997004729, -0.2279714476382285, -0.20869081675772858, -0.15287316811442792, -0.6477031426178146, -0.6990552123450444, -0.5303227170669891, -0.40960138412006647, -0.14819643492280452, -0.4964124278405132, -0.8141003364562875, -0.4635212922158882, -0.41780327616926644, -0.4439089623328925, -0.2176783253634359, -0.20353061319841687, -0.10433389584674548, -0.1665933065191496, -0.07471500154391947, 0.050900010385589355, -0.021122000341152743, 0.018010167024711473, -0.001486260121901646, 0.021768542112109015, -0.07805615581084382, 0.015616234448515644, -0.008734729464001188, 0.15753213830618373, 0.03502429912687788, -0.15546873639716774, -0.41251562639606887, -0.23113245055040793, -0.5923465458978056, -0.5158442354900616, -0.3281109022723771, -0.5124636595012441, -0.4003916476254729, -0.07280687683963634, 0.14247338476809582, -0.306111210157698, 0.04932329145980465, -0.01404025795354122, -0.017168270022223417, -0.12061578907475155, -0.07937159301024563, -0.025997917412508908, 0.004108098250855258, -0.023219900448095316, -0.0448511620781471, 0.004109199934995292, -0.07284393574176108, 0.007090785328585111, -0.02101069082394028, -0.004723987897615069, 0.050439523089069065, 0.0960600822745669, 0.09668902289364652, -0.07637258195625066, -0.24815960168264922, -0.11994090039125081, -0.15860605163791308, 0.07777685690523357, 0.15300258133744124, 0.20524087103016325, 0.05551116491194065, 0.3233393483621479, 0.07698752258751305, -0.05267148958576727, 0.2766651169706171, 0.1529641038924513, -0.010223765622470935, 0.06299541791234241, -0.001980512837966547, 0.007441067038812062, 0.05705734543944479, -0.028377819506778052, -0.0070021627645705225, 0.02494833957760195, 0.01104117996649151, -0.005566790760210701, -0.06823284604239946, -0.036644472806817124, -0.021040707183079706, 0.0024436232719339352, 0.000703695329957499, -0.021289308944294226, -0.05369217974548702, 0.04358210614269144, 0.1567035753014499, 0.16161061337838184, 0.14747216476290687, 0.15641290890985374, 0.15962628936635587, 0.20754188152477793, 0.22893732313500567, 0.06303523974292043, 0.11585010779265252, 0.0975001539922642, 0.09664589755813784, 0.09896198355535121, -0.061666014358891866, 0.0349403890639432, -0.002596384813114002, 0.01621002809479144, 0.004187546660369402, -0.006309358393990199, -0.01999511744926358, 0.01513632488539876, -0.0484150366394149, -0.04293905311714075, 0.01607018863359547, 4.1950815117241604e-05, 0.03380311324633922, 0.008013454274455751, 0.04749979605874068, 0.04259055507795729, 0.06769859303931934, 0.04518115556263836, -0.0394721972059439, 0.001938867574863518, -0.0013585978109893972, 0.032284380475453615, 0.024478232189004218, 0.04421132702329094, 0.03588489318099201, 0.0018814416894903938, 0.07381381101829836, -0.016696928363969896, -0.06672310705009024, -0.04550255351037269, 0.01896902051112695, -0.04339597826911553, -0.006084780354467319], [-0.011775048042528925, 0.03950544183893209, 0.025897996533390217, 0.05619492159824196, 0.02399695916778847, 0.02214776590721955, -0.0014947597878556204, 0.014028137080699065, 0.011260194914181829, 0.017539666043777564, 0.001990744786972267, 0.004430371133451836, 0.021660488862127934, 0.01920806127185477, 0.027310519233351965, 0.04743215336413002, 0.003646008027637803, -0.04982606235819017, 0.034232323402684915, 0.0229616783568963, -0.02204455398180829, 0.0379086508002672, 0.0015323559823831984, 0.021586948065833476, -0.01735968365265114, 0.029413831112169986, 0.037108301620887234, 0.008900932463495607, -0.012470944168160806, -0.026210650026125954, 0.009379823140932999, -0.00932251715132699, 0.06429498361879772, -0.015645630621795255, -0.02286087136950598, 0.005607327311734338, -0.09756435364402632, -0.023904288164017302, -0.01418157209873276, 0.03293539375149336, -0.0717173941648903, -0.06155083919522534, -0.019593037964158906, 0.027381231831805474, 0.017370204030665228, -0.04235425815477869, 0.02517537446599408, -0.013130569333555695, 0.031183814169105734, -0.018102446381215113, 0.007570038916542173, 0.021103639320728746, 0.012061088284177577, -0.047384677561121066, 0.03444916709167548, -0.06366094995953046, 0.019493958750635636, 0.03096734826227865, -0.015784290058180907, 0.0485303100671887, -0.08594910943357205, 0.05201493480279123, 0.0338403317043482, -0.1174284307965907, -0.11749134275928096, -0.08825715744942493, -0.06577966694839897, -0.11240992234960547, -0.04624930847445831, -0.024647091436481697, -0.09785796881072971, -0.11273542444428176, -0.04625942108443039, -0.01150980281459834, -0.10418803711325188, 0.03616789183157612, -0.06566148642140411, 0.0004825742618345957, 0.029961752412285127, -0.013993002069675855, -0.014581630815403568, 0.02051496289850019, -0.03908739365748907, 0.014102609379253414, -0.07486105665207828, 0.03201648677809166, 0.12383235312675053, -0.014253025830024472, 0.0357947916691366, 0.03538592392159943, -0.16530970580394738, -0.23790176797079915, -0.1348538406197456, -0.18942116327489952, -0.29348944022135254, -0.5419926359793299, -0.35406176594423683, -0.25956769632898075, -0.07686706546492154, -0.025846203813993166, -0.07480907068411774, -0.16575492957552182, -0.24248818972909775, -0.1283406556727522, -9.13147428180862e-05, -0.08656231765603623, 0.010406022661294648, -0.03906295344325192, -0.017274888253990022, 0.007390390184336475, -0.044854394432971324, -0.0199007731345733, 0.0017638580446124768, -0.006699904009971196, 0.004135629466103774, 0.0039035932691920444, -0.022589423668281955, -0.057503989627686804, -0.08563764943357045, -0.12060159580463181, -0.11268387255329433, -0.2937179854740882, -0.24770234506188846, -0.224205874512771, -0.12288729935111345, 0.1414001503413719, -0.1495129856850903, -0.212834371443611, -0.25030088163646014, 0.2607241629385175, -0.008342043100174563, -0.13658570136098544, -0.10732612944282466, -0.17870870318565166, 0.06832005481344774, -0.04050150387840897, -0.042882342511691984, 0.033066101413158744, 0.012481534113865583, -0.0380867941648688, 0.045213655024092476, 0.028697046945737034, -0.027003580809555165, -0.034218677086929175, -0.022189968230089736, 0.1014185690950688, -0.035281165069699756, -0.07926114470212511, -0.09719242631237451, -0.2817855515791943, -0.24197106577116928, 0.07296187542690506, 0.12520647346738353, 0.2786053687406261, 0.19112521881773747, 0.09838190989303619, 0.14271573572870938, 0.16422700735929738, 0.14339819538254994, 0.06370341180039195, 0.04320204370314532, -0.2082458569688986, -0.09723244479837365, -0.009222721941664961, -0.043740309733210254, -0.024197315235316545, -0.03358473729125701, 0.013905402279032102, -0.029684945260453267, 0.001681567508597619, -0.05121972559529346, -0.002181259868907858, -0.021865690213353925, 0.1038161731973187, 0.016356661669519032, 0.034637526020637625, -0.16166937527394729, -0.2884868211635942, -0.08410052030793312, -0.06111571354046546, -0.09572866219346833, 0.0391745714882533, -0.04549593900757652, -0.1629497947444719, 0.08066384192401066, 0.20181155948266444, 0.17110684732328782, 0.2794106610707569, 0.2532154149996012, -0.26948473948708024, 0.1761916604042672, 0.2336524639870234, -0.016587545203127947, -0.08301422633092206, -0.023881334881694548, -0.09876420476734249, 0.036599553824861096, -0.01845932682875606, 0.024642530506481224, 0.046805007531321635, 0.004753153269490782, 0.13899263055554764, 0.19277406136309463, 0.02359635781471318, -0.3639518668631675, -0.38335229181486585, 0.0228248839390439, 0.23815362303946752, 0.10774194082602444, 0.08173111724526831, -0.3311630321719599, -0.19061784723406827, -0.027758768371180305, 0.21277826290922755, 0.12593248472768154, 0.3218310382530291, -0.004226410459137595, 0.04479477710640176, 0.23076603711096064, 0.4398928744606804, 0.1184738555453876, 0.0019915500184365825, 0.022269947719541536, 0.04674610200943314, -0.0032550471005278092, 0.053635859222294385, 0.025899306687473107, 0.018447899384135012, -0.003343588394884933, 0.07437285373032158, 0.2214277688198937, -0.016034376570335088, -0.1792199426264004, -0.06665081259767214, -0.06570638438416004, 0.02451793909248967, -0.2409552060303604, -0.32821214069584015, -0.3505210443817979, -0.472234885386371, -0.17584890478150916, 0.16956000620176398, 0.3809866171335462, 0.14547061554118085, 0.1421124611541925, 0.3958181556394751, 0.07478380469986205, 0.1484999450872958, 0.0985047511540841, -0.07512868744086991, -0.07315743478908633, -0.020546831411109117, 0.01513994678267713, 0.0007852775977658052, -0.033742060403333524, -0.014311440504232416, 0.019453908853014963, 0.05008727848596979, 0.1785669215581101, 0.1031838824556058, 1.3191059523985963e-05, 0.14021764252229885, -0.17250244886091443, -0.48332356914720753, -0.3713470669768522, 0.01820715630066004, -0.17983392165892528, -0.315326781992584, -0.6409229995690383, -0.3917668650008707, 0.1926409781392598, 0.4510301146654338, 0.5843871083449755, 0.34586955223123667, 0.20373105414079204, -0.010078456140224826, 0.17430191310265686, 0.0025950057982332474, 0.014619066657298124, 0.04387304600204137, 0.03692497264357301, 0.06488540695495573, 0.07322254083650961, -0.01212251060322185, 0.049013911546746676, 0.07383237508949449, 0.08140962520925889, 0.19789375519600158, 0.06820677308843102, -0.05393134256466009, -0.36553768820549815, -0.07870362626295613, -0.16263794606996076, -0.0832151285116524, 0.06873259917872374, -0.24044731527204175, -0.6816761084315309, -0.73881787533064, -0.4721227949674459, 0.1418098133995864, 0.16676210471779737, 0.37526731408093633, 0.47966950390355473, 0.2355261373199502, 0.06448970655940693, 0.022253052567310715, 0.004560404012494172, 0.03404941838704638, 0.03584990449081538, 0.014667633755324806, 0.03757600660864714, -0.06962566718742347, 0.14905109195658062, -0.07518191272223557, 0.054505769741443034, 0.08669773095436774, 0.0792229006896632, -0.16715430715982005, 0.003343421598463247, 0.00999844668929681, -0.0787088271972205, -0.11746198675960558, -0.3200324363354067, -0.4728777647763049, -1.0210366874479386, -1.251016287957677, -0.7443165470241292, 0.18086080866003826, 0.6859559761531169, 0.6151489927042956, 0.40847695508604887, 0.2430369057416316, 0.04929656852332355, 0.03247796750720091, -0.02675755174497456, 0.01780607830808038, 0.010806578852102428, 0.002030420207501428, -0.06116848449224312, -0.03441524109508975, 0.15624439041528254, 0.33770422424652097, 0.2391375288480191, -0.23225760017578836, -0.17836289181274415, -0.347708940723706, 0.09348919792547014, 0.05914641241363446, -0.01643253284381465, -0.0232083721478662, -0.30357271444709666, -0.6440807618118601, -1.0306432801993453, -1.175619570548095, -0.9787165497164177, 0.29238115525532843, 0.7165899347736934, 0.6248924719196889, 0.443847292957146, 0.36708831217688953, 0.28262900053821166, -0.014021320784641389, -0.04877476844336453, -0.012719188928248137, 0.011121193089952837, -0.027629349336695253, -0.005713740517878304, 0.05471782672394654, 0.3981803298153676, 0.42388348383153335, 0.2644697082667139, 0.107646139017513, 0.18356758982193452, -0.027883792793943138, -0.024930354463728432, 0.2155362606862723, 0.1068935983362605, -0.20231582919449778, -0.3315362164630929, -0.4831986619664457, -0.8053163089777107, -0.9840805525230244, -0.40237570821793833, 0.8099925167741772, 0.7224967410163851, 0.5848171633759482, 0.3637642025650752, 0.1805128409561182, 0.18008905076488718, 0.055218821661379446, 0.006316422367266694, -0.029192502372689607, 0.008998176586827984, -0.02110820282412699, 0.004155311287809975, 0.027026730836709097, 0.04942520280962613, 0.30155294792316467, 0.2356424790684101, 0.231372389531209, 0.10728818130778667, 0.35469301259139957, 0.30645695891498503, 0.2259318522838067, 0.10144269736693319, -0.09170862318574796, -0.04538349635857817, -0.3703501068605104, -0.7309651695004773, -1.0056388697497258, 0.10069179041799875, 0.784169712929385, 0.582396584490778, 0.2805747603547169, 0.2653900356951778, -0.014248746235663358, -0.006308404637750459, 0.002853842435879907, -0.007841522444129216, 0.031105662725966977, -0.050413148646001105, -0.03890455321098419, 0.026829835552923197, 0.1779374712937599, 0.07249131320040074, 0.164162472699844, -0.21174842397948943, 0.009201342143802891, 0.07450030402578892, 0.23738993999551855, 0.5323599530488926, 0.05015854315938622, -0.11260438648065894, -0.3002213801404126, -0.2988866427499804, -0.6384261496837305, -1.1516466476187808, -0.7972486777524322, 0.5900372940886213, 1.0551371730987282, 0.3054399390828959, 0.014248873545759077, 0.4500067758563546, -0.1056240194767779, 0.14789588306722667, -0.09132741987711274, 0.0012381988101371822, 0.008481066241064112, 0.025234608453262895, -0.006825093214841427, -0.01636857329541696, 0.08248429855047938, 0.01926185770044495, 0.20945289129609312, 0.09123700415529501, 0.12003488222127673, -0.2593293878791309, -0.11157921285250787, 0.3360351764111875, -0.17439002299551287, -0.15026614646160427, -0.26510957311002586, -0.3815005018861405, -0.7116443117235742, -0.834611407218672, 0.11327128851770558, 0.89457267471256, 0.5460959871809762, 0.06483819851483712, -0.012332037979014327, 0.061633460950314196, -0.3151912723532221, -0.017736254120237174, -0.12377775242930297, 0.038175788686638346, -0.002312291721652698, 0.08542886781287883, 0.046327421249281284, -0.08978566278425856, 0.06189489016623449, 0.11535228076811083, 0.024434313145119575, 0.05377950658648839, 0.18064700033002362, -0.08650391903512578, -0.0397467075637671, 0.13838532443309456, -0.2156838802211079, -0.34823387360293206, -0.24984394641515945, -0.12084761156236412, -0.5158314885420792, -0.3566564011331158, 0.43832711650819167, 0.40082483890432447, 0.03287603852679448, -0.23397726268573932, -0.12139952538120745, -0.12573669761898662, -0.2630799205667034, -0.1385824169210386, -0.027846891867820828, 0.032605787440637975, -0.013830597472047361, -0.025057989656735218, -0.0637885700987767, -0.051095127672079896, -0.11497212276431214, -0.064550122109401, 0.0452393178218309, -0.03835841311119509, 0.04528436679773176, 0.014731289411703544, -0.04482937800004038, -0.42716207001371165, -0.403203094328453, -0.6717199006978101, -0.544931905269787, -0.33707138643700263, -0.30646315588119305, 0.19915294917528498, 0.5225229073913518, 0.21896904867695632, -0.1527062460677401, -0.0020655920821994224, 0.02909723366726882, -0.0521472233995135, -0.13045770805079546, -0.13899216851386742, -0.01792268340574705, 0.04982181088746015, 0.023028036823592894, 0.0467148362607077, -0.035590543331084024, 0.032390567397319575, -0.17601231793765393, -0.16423381900959158, 0.047473307786642625, 0.07648108111983068, 0.17702853916336808, 0.04427326208729345, -0.05182874072940667, -0.0982981204859036, -0.030262287685917086, 0.024977444955564015, -0.3227645518445502, -0.31180474920369394, -0.13378989324604337, -0.057569666416827835, 0.10562676338103565, 0.07138557932954098, 0.07482168558811654, -0.04187077840856761, -0.0246515317408141, -0.04811264020349146, -0.05416997629426493, 0.04948850314634852, -0.017957052289457823, 0.003772682955344534, 0.0042594032790587285, -0.03397497373573645, 0.024766217142154504, -0.03986649489793591, -0.125004772584783, -0.13367848787504505, 0.1313105013372111, 0.033460080343224397, -0.11219218343919266, -0.2728720815192232, -0.38247773896132276, -0.14973750174473222, 0.08147383050167259, -0.07617263109343515, -0.31304993674779136, -0.42579829057096746, -0.013512817812168421, 0.12988432244275258, 0.23313459816891327, 0.004793498009189258, 0.17597689583654882, 0.1299995140561347, 0.06525414228697039, -0.15592686739339864, 0.11445564368683699, 0.12506997354971858, 0.019024613651366144, 0.059540054543082345, 0.04199405939847618, 0.07283228571159146, -0.00926644396519026, -0.03758115436565175, 0.01495200795286207, -0.06648745476475719, 0.12186361833537578, 0.16513834936129468, -0.20073904300680107, -0.4603996379650523, -0.44541113152093126, -0.4533801247530417, -0.09506020159675473, 0.015259094311121402, -0.0992678786072452, -0.13935132134207592, -0.014131059964337318, 0.10150686736102377, -0.10028631721131316, -0.09504309002300058, 0.253687472050442, 0.14203779346958958, 0.27435598475489525, 0.03368674800952478, 0.08957979281524263, 0.12157542486894347, 0.010369115179725835, -0.03814002118216007, 0.011952557295272837, -0.014517252420562947, -0.023568236445202808, -0.007142527975267043, -0.007564929646490991, -0.012606177862353357, 0.005514285969636376, 0.11231271618785567, 0.09259680424845965, 0.14472414291813585, 0.07451613182238888, 0.028287341179472854, -0.06803239563187402, -0.08702362537048072, -0.177506867533127, -0.022474205906755806, 0.2099799878784098, -0.06615533853024691, -0.1446097018003565, -0.3618591716683911, -0.039169088357088336, 0.17824983693440458, 0.3197887997983975, 0.11435336488143298, 0.11664367542182454, 0.13114520377068115, -0.03825986810303409, -0.053321296044556335, 0.026484096607826243, 0.035057125635221044, 0.001760951268049971, 0.021331338021683546, -0.01791271430497571, -0.07627162026447433, -0.13139682486240403, 0.05499995118521318, 0.3208881853397846, 0.3113534247100809, 0.20517669569058677, 0.26377422596341693, 0.3472230835543233, 0.04143317807159897, -0.19950855030833345, -0.06338390842620314, 0.1380012710089503, -0.19492090275529067, -0.31128844300691183, -0.44005088183891194, -0.35510398814038197, -0.07227148188119355, 0.012385963878082044, 0.002530816673425417, 0.005014179682046256, 0.04865062290471086, 0.010003257986292143, -0.02056914214299164, -0.048939826135273604, -0.03380664305876356, 0.01163593808930436, 0.0016683669288166877, 0.0024898285252650827, 0.00020809921005805813, -0.1434750862074398, -0.23682804953185702, 0.0018682138914581001, 0.006229418339855377, 0.14505496750091335, 0.2984258436759356, 0.11702609539879301, 0.08544846172792424, 0.004326421652334235, 0.18904313465529518, 0.1895791356835897, -0.2603099571903331, -0.5170872932623845, -0.4965701425549854, -0.3536581394249311, -0.045353359368194866, -0.021357517673076313, 0.07732842669942934, -0.06211877615828726, -0.0877063901371551, -0.02988749667768099, 0.032153845386422485, -0.005371017102697957, -0.0206968208472304, 0.04911155846319643, -0.02825071444471883, 0.04816908646449935, -0.0006448604301186602, 0.0152067589650317, -0.00964077328050283, -0.09845295102642151, -0.14501967328440615, -0.17728469426714202, -0.16124506318263024, -0.08508725358917887, -0.19785339123338122, -0.10410366866163445, 0.10312988474807756, -0.06990652114993623, -0.1847382669663403, -0.3305218528266856, -0.2475140303708542, -0.11825305218006149, -0.020468606952677586, 0.04645839771528246, -0.015002760951097285, -0.03309058065363289, -0.019473819702148624, -0.0034085920457063434, 0.02996919011922195, 0.009619178278017717, 0.02736599852786617, -0.03569715983425734, 0.015439378136323567, 0.003455538235124286, 0.02273447330629513, 0.05310573574029529, 0.02758904967801603, 0.009288023955860243, -0.0005367996313071271, 0.02909760851452043, -0.06264011312132549, -0.1269944312419967, -0.20598191351140493, 0.08851974683026291, 0.13158636317817393, -0.08207430335114337, -0.12256570152133064, -0.1334993937381338, -0.06373109326471046, -0.05425922537516175, 0.03589078071535477, 0.07130417133868354, 0.003882348567340341, 0.032228413653255364, 0.044101565404993125, -0.04777768563817263, 0.03862994224727026, -0.015340312271601047, 0.034368355908534445, 0.044062218696648, -5.42978473169668e-05, -0.03357982052430204, 0.0405599230011449, 0.023511047067199413, 0.054311078090869006, 0.06748056431277139, 0.04460322246629386, 0.05889648264679718, -0.002235883504043036, 0.009787046523904684, -0.0231501519816328, -0.030849916877426675, 0.01790340910654942, -0.029816378332705357, -0.029425019249668935, -0.0035908761255774137, 0.010977001001285763, 0.042523968042062224, 0.04344210728891388, -0.019552957993711224, -0.006838999001735332, 0.06697335612412232, -0.009839209861026715, -0.053631801011404474, -0.023710235468556044, 0.016853997054225685], [-0.01440453657096842, 0.05601247739422293, 0.03400477700624452, -0.056792456611021995, -0.022083238148765345, 0.004577022384401214, -0.010110130434857287, -0.06764920325429008, 0.025828987862757464, 0.03910870693127482, -0.004632762713694896, 0.0075508418253906395, 0.03240295221056278, -0.06533397132777198, -0.014161042478001111, -0.07428499038573946, -0.08433506157109591, -0.005155396435798533, 0.033265602016757295, -0.026317515972067267, -0.04553430135459669, -0.0020822334550067074, -0.012105642342146467, 0.04263173050218961, -0.0071883668511808895, 0.027479943385863233, 0.008583767214974817, 0.019688102373726854, -0.04854914506365263, 0.07176185828552005, -0.049011392899991416, 0.04057038798416656, -0.014812313103747494, 0.018094581493086865, -0.02372543396141334, -0.03448504012756198, -0.015623273501055454, -0.1306865347371247, -0.004525374899737881, -0.038999224255739366, -0.062242830133059195, 0.03309945319968325, -0.058595010455061255, -0.07652324248847507, 0.0360097940853094, 0.01754686883674989, -0.07381126174083187, -0.06533163172290048, -0.05885116768980856, -0.032598723718807406, -0.042813948947812146, 0.010155580630557834, 0.01923315231159133, 0.009481363803975188, -0.10795053642362684, -0.05560509484348613, 0.05008756194981276, 0.04194483476109831, 0.027230588483557607, -0.007388854798931917, 0.0006185625260054817, -0.014940312583175887, -0.019987548037405965, 0.0475439812168642, -0.07372608320486973, -0.08043959796641308, -0.08083484177550175, -0.05028250964601723, -0.12060338672682792, -0.07570401591654446, -0.19977906642608137, -0.022249446555078656, 0.018707180053755403, -0.08283234740765456, -0.04614834676200135, -0.053969811340595815, -0.0685574384522095, -0.06746631234482357, -0.1057543512629279, -0.06573648532233611, -0.053342818102665036, -0.009634311897363017, 0.03947275741241844, 0.0247884049223371, -0.010771631767338734, -0.0329267311763655, 0.030187227922236413, 0.016643929604540184, 0.012628183814477929, -0.017060319437117496, -0.006169351464225202, -0.13121936780368723, -0.08160089495584548, -0.10125407396333158, -0.04947930361869503, -0.09482279674211946, -0.13898284826653115, -0.03386338840094108, -0.1830618168706827, 0.02556107367742287, 0.16696716112216578, 0.09096376280939171, 0.09104344605591075, 0.02129962537052048, -0.010481105859068642, -0.14559119606531895, -0.19252198640030968, -0.08398423531387222, 0.01567277345917265, -0.004673224087655484, -0.012611714303079637, -0.032470545652547846, -0.05456566439684563, 0.022180842923552036, 0.018360893873154326, 0.01777306088722318, -0.05113743249724901, 0.019510164566299663, -0.06367647588706363, -0.09982078523344186, -0.18742442471037685, -0.19227283379210888, -0.10559689132875898, -0.09628233957116339, -0.03398295732717388, -0.16149798339257976, -0.0315012355792903, 0.06374498590538771, 0.23881508866065723, 0.4295211392776119, 0.47898778854748597, 0.34672264115568824, 0.04148436270414989, -0.23641189426426948, -0.3327397282616439, -0.1772020444280009, -0.05576500692144613, -0.07746015381351289, -0.02113433574693851, -0.0055341748976778385, 0.027004699950341684, -0.028481888323855772, 0.03855093914989073, 0.04429895916176271, -0.026705109940369925, 0.007822646089468156, -0.007619091725971972, -0.009027093975782594, -0.13064125481923347, -0.12624614750233007, -0.23723114598393413, -0.38371131104572126, -0.22278440534085656, -0.4354955972702472, -0.2677331079063225, -0.17141237374750204, 0.12128341893492085, 0.366590621829334, 0.6226081889110521, 0.3340578238255115, 0.2901096688507053, -0.035786526965808356, -0.1054057769650019, -0.0768429231712265, -0.033451025503952014, -0.03338204785807347, 0.0022600269167878826, -0.034857226400755045, -0.012620830895677448, -0.020354306322409754, -0.005071060146270293, 0.004896509398386976, -0.0471127780045698, 0.08741724513107499, 0.06728619300043759, -0.04526878736623042, -0.11309346675391357, -0.12602378597713815, -0.2068139781340608, -0.439765146653321, -0.4486460498456665, -0.36334382710227603, -0.47858741625323775, -0.27454165917548584, -0.07554060365071634, 0.1909187525042455, 0.3090011625882525, -0.008166402736252739, 0.01846751585966838, 0.03344370322773981, 0.0008870438577063043, -0.014846405344458946, -0.17388718360499877, -0.015340069525669485, -0.011580410932717753, 0.013267910443796773, 0.051187815558101056, -0.027548098411101746, 0.024230040832651237, -0.015279149762049055, 0.015560481680237525, 0.04891328027952511, -0.046518875591322846, -0.14048208597427916, -0.03692924004925958, -0.0010305655408705734, -0.05231873343602768, -0.12250099473310043, -0.22895166918338916, -0.4192762184313468, -0.42971823066481357, -0.612937283629099, -0.3799482879028474, -0.3481182542772341, -0.054621778541108244, 0.07481648899775764, 0.03233034178846469, 0.18249928418933423, -0.04498985991498934, -0.13735716096299772, 0.05143925452222433, 0.03314595800788612, -0.03208084557754519, 0.03134450227988317, 0.03463515161289528, 0.061157126830968064, -0.0599035004510967, 0.014086099084568956, 0.03967531889485219, -0.11105173249606104, -0.3477236191578684, -0.2807802803020629, -0.19370068787699857, -0.07458971178955262, -0.03204631170688854, 0.11925430918676509, -0.2541131531408029, -0.29408527083833635, -0.4682621185390574, -0.5676470283548415, -0.5323979061612448, -0.10289724255572029, 0.1712781822642477, 0.1692691435305956, -0.08259707495267332, -0.15385457379437117, -0.09288947497861602, 0.04318446162908752, 0.0016308547562042038, -0.002140805750237421, 0.07125482708821042, -0.03726953922350982, -0.028972300575024153, -0.00040016469377344364, -0.016463873443836794, 0.030700864412830122, 0.07270096725446618, -0.3326819194343217, -0.3869388613376107, -0.27048651070387114, -0.3186245386077078, -0.08987284357507681, 0.3593136384497746, 0.05598319533839679, -0.18365403127368612, -0.3645675430676409, -0.5605719939378228, -0.8111688407446807, -0.4739394115145545, 0.06373109998660687, 0.21009527361540103, -0.012999917884337051, -0.04434476367471593, -0.2402483931451133, 0.0707368818552694, -0.2202659999254754, -0.08323741936934109, -0.06289936429094006, -0.005837769319269243, 0.050479559441732054, 0.03413819787126829, 0.009863825590172166, -0.01270050184020663, 0.002398981689404978, -0.14787753119094504, -0.22851476706608534, -0.16084717324705478, -0.2111066651231715, -0.10217066069622431, 0.03459238450935631, 0.21261273419287532, 0.2809553228830956, 0.07089059337981408, -0.14928362953700602, -0.6118623213942405, -0.4019605850435575, -0.13774461052379447, 0.21563195219147904, 0.22026414524370466, 0.15769316240076092, 0.08225607186896107, 0.0814794584163937, -0.03688078634346218, -0.3720249306335819, -0.1702549564695899, -0.06055261520522683, 0.011295484462405666, -0.027680471165457892, -0.010294591272031913, -0.00834156271074635, -0.08258940849801139, -0.09227376954605722, -0.26807326479077337, -0.3160025074932368, -0.2493460995889615, -0.23604759896083666, 0.1576453245885644, 0.011275771044151386, 0.15751720873236116, 0.162662131681205, 0.013191607177851637, -0.3014419881606816, -0.669168042613992, -0.43115876847265, 0.0989856090172509, 0.06530877119344058, 0.027527002657266444, 0.2524248593378787, 0.13842817299691407, -0.1955576056818932, -0.03184873766516624, -0.08886730442796299, -0.09840002021295423, 0.04269143499707676, 0.01576065552377141, 0.045029609874119636, -0.03533513823857909, 0.013485552605040316, -0.09590385025060773, -0.15122796911723477, -0.34331227640462775, -0.24325358887705273, -0.07064450867489266, -0.13746857349890854, -0.018717956465169303, 0.18679329200623357, 0.3090681613166926, 0.2720440335727535, -0.025877670835297104, -0.3069573285995394, -0.25046860856840625, -0.34742815478399824, -0.25398650679772183, -0.34305967868042625, -0.5023370214152245, 0.0755743397246777, 0.007011698737914368, -0.13715825006979082, 0.19410211460423896, -0.19329732679195527, -0.0176793449277114, 0.09435414156744798, -0.014795345393858917, -0.011100563575811892, -0.017377099592678774, 0.025222874850990354, -0.017811502672651556, -0.11354611616484421, -0.22975990952178982, -0.0721769260965997, 0.15078080748572345, 0.13593058742909458, 0.02889315562929549, 0.0638358168608055, 0.2891182556897944, 0.3411226121113476, 0.3594910466403488, 0.43173943982800855, 0.08466310582834685, -0.21419684454053706, -0.15298768392455261, -0.016586256406664987, -0.2611670273228428, -0.22854806448809126, -0.02582363265999622, 0.12655149376742073, -0.06336131018171894, -0.004504939283315181, 0.0010559398852424413, 0.03400920419835695, 0.04932963271121309, 0.0020820113686077107, -0.06546698730020119, 0.023125739812813885, -0.007386983089604182, -0.04016983624136822, 0.1012636172642034, 0.3833081414070506, 0.42491003823210943, 0.17330900565895643, 0.05318096199901905, 0.4841886442779301, -0.024691955039771486, 0.103372086195904, 0.4065094510120046, 0.47525826821564543, 0.28441104427366026, 0.33908010351727164, 0.4072685731280029, 0.4487435136018172, -0.05304324778740392, -0.04381612679602447, 0.1413887468298583, 0.1257848858671713, -0.0051401374492592265, 0.05260552586134933, 0.16830902916175783, 0.13852520923087547, 0.0731829861667461, -0.016241614261171804, 0.024220837945894802, -0.019934513750505898, -0.005755593699876361, 0.03766141573158183, 0.22024920162812045, 0.50604288695856, 0.2122673650149533, -0.031500406983302344, 0.14268627156417804, 0.6128517277088384, 0.3720352217540407, 0.07864048948482288, 0.3396067118600984, 0.16000590745135562, 0.1629701858759546, 0.5351351128261023, 0.5105029612763634, 0.17267558354283796, 0.0807061869529843, 0.1871171683411068, -0.008481857972784732, -0.09385872638600387, -0.1171819364389212, -0.07997787959323316, 0.23919654835108922, 0.09665396301602094, 0.06918065801260659, -0.05053642428260475, 0.006827915839889302, 0.004243124558263337, -0.094422271705839, 0.08219981856926244, 0.14818593675359723, 0.110738473816269, 0.297479242788847, 0.24203678127168501, 0.23186697856576233, 0.26675751098699235, 0.11214707153788092, 0.016556904893942386, 0.17378992323170592, -0.24989513221170684, 0.2529831907874079, 0.8509684085003294, 0.41968347625775254, 0.5881953713162912, 0.20573736681159313, 0.289077125817245, 0.07681072805853803, 0.027944138283314744, -0.15901780441265262, -0.17446156660233103, -0.001307622208431342, 0.14035960157390645, 0.09895550792696003, 0.04451806410162582, -0.013433389112210065, -0.006219440649635214, -0.034822740598633696, 0.10485932803844379, 0.24784111335680398, 0.16561017783359266, 0.13804331499967604, 0.030334659545840713, 0.3823072130152064, 0.13980878767281937, -0.2304203921384119, -0.18498464867219633, -0.0517465876586779, -0.08983395914288797, 0.3539520252189012, 0.5716513689087539, 0.3963758493053391, 0.12774163212294096, 0.3773292538491433, 0.1614754142678965, 0.10279853946396185, 0.11834874803042185, 0.02005528602292163, -0.001903001650328128, 0.020771614934583283, 0.0983678365266728, 0.03221096382905286, 0.10602907424664343, 0.02270220022973958, 0.005252042452869011, 0.002119346975698339, 0.03453841548276705, 0.37802137830975174, 0.2981883678557752, 0.023045610885245593, 0.04685539812719024, 0.1727152784326833, 0.04832808576180661, -0.22736097408319433, -0.3314975995830103, -0.1165182004651967, -0.09563145966201678, 0.19634607364557502, 0.19713395294954406, 0.224432321005642, 0.057642163422841244, 0.3073402006518492, 0.07966449807944356, -0.2047062159763675, -0.05380673397709593, -0.04439374123622005, 0.12564032630540053, 0.11452085928671332, 0.06399495410825878, 0.026661507588698737, -0.007567370020012891, 0.04128253327386976, 0.08440809909708434, -0.06155295209362971, 0.04965154920241876, 0.32789801281400843, 0.0713171394638237, -0.051078997908854215, 0.02245948435772163, -0.0622702027362264, -0.35472474942833837, -0.635143577768509, -0.4661673288375934, -0.34717223242423967, -0.44329061746456144, -0.22690850916822802, 0.04061961997636167, 0.19449706805591999, -0.01200276452356825, 0.1040069701787058, -0.06382258602546531, -0.24395615333469817, -0.18932874232168523, 0.08101847756754678, -0.041538130050946094, -0.001090216379010607, -0.04005035078761348, -0.001068353294533832, -0.05247152406956206, -0.0052937455542291624, -0.02243062502079561, -0.03970537124138945, 0.09959037153859684, 0.22439052769139448, 0.0062596518652055224, 0.07935924362218935, 0.07675352000537906, -0.20104433109122502, -0.728444933558148, -0.6452961993385452, -0.4582866518020473, -0.6036458774174889, -0.7551654006086115, -0.4517825029349514, -0.25333567469189466, -0.05505587173946224, -0.14020750678769484, -0.12701972798090258, -0.24212638353708701, -0.34268337047404906, -0.2989171082669321, -0.32510038362179633, -0.21134419169583668, 0.04987010231810724, -0.005380792285143243, 0.027693815715771185, -0.01771495936079254, -0.006387700115851686, 0.0387671029558865, 0.04295912077912042, 0.04137106651195165, 0.05963745104691684, 0.028711187465921873, 0.11815999377007268, 0.07291994778818135, -0.04502461944289463, -0.46346234753277943, -0.3968984567604572, -0.5522316007784318, -0.5476403498166227, -0.3205862811077575, -0.43322739886522404, -0.3407958108281045, -0.14056351154191485, -0.3199701842004043, -0.20405725783255999, -0.04201771437545159, -0.1687823908024771, -0.09657992683455571, -0.2774436737362865, -0.15967513050342208, -0.057385931619531344, -0.01269881115087058, 0.009285635405015393, 0.02504493790035941, -0.0374240017672483, 0.006442385875765055, -0.010688712220677875, 0.035269132625363055, 0.07304093200618636, -0.07871075540226566, -0.1864367926296506, -0.02299826620076431, -0.03603414910071922, -0.21401392422293972, 0.005565578524975978, 0.1738761906040897, -0.13495656137659273, -0.3548928548193814, -0.5194850619378012, -0.38977474261525286, -0.28064512637561306, -0.31135143128413767, -0.2975937552378325, -0.15879958061876742, -0.06207794909344198, 0.09636340827156852, -0.12172708595827428, -0.14813934203315685, -0.030524109896895253, -0.09426139018493125, -0.09391415400866512, -0.022962670485752887, 0.025696309352282478, -0.008422516134437168, -0.00029151890848460167, -0.01940383093183275, 0.01063989937285767, -0.09979017863139987, -0.22783009380435038, -0.11761194459208499, -0.06184564101571514, -0.1030337645394255, 0.03581551057434464, -0.08717610054194275, -0.2902228168038833, -0.3578375543666704, -0.3613576735616428, -0.479319881077936, -0.2815447718187123, -0.2721772716025767, -0.024833639530981545, -0.0627127759730823, -0.11424849016307329, 0.06713103616355565, 0.042800438347570566, -0.045429688862661834, -0.04747844803021993, -0.024682548590188414, 0.025670043186324255, 0.028672222786205494, 0.024423538322211016, 0.008555795167168026, -0.04889443109382026, 0.04290451340787922, 0.03246549455175467, -0.04307852793057662, -0.28975771195896144, -0.19971430148885355, -0.03730187471303025, -0.024506893713515734, -0.22378240978987995, -0.22444889077670135, -0.3126233025308559, -0.1898661256583677, -0.19601270967800383, -0.23026417154867426, -0.27510351926528276, -0.20742893738075682, 0.10845424978652608, 0.06754201937655992, 0.09805928282158943, -0.0315772575677246, -0.041360664354831975, 0.015365506012847835, 0.0593949229622681, 0.030652008636408386, 0.03850820860042552, 0.02916700898865394, -0.07805029616915955, 0.00017505230581075734, 0.005568051436920977, -0.009268995383671165, -0.015784411977763785, -0.1062193727891063, -0.11659490127319498, -0.17605108913771517, -0.15642492227921725, -0.07629183433474905, -0.19267684891669726, -0.1769671752414157, -0.19867248518678113, -0.237952456310091, -0.2028406797896327, -0.12601000112045338, -0.19932297265225424, -0.1722812660418445, -0.08641795400923231, 0.004784896982927505, 0.019117446463056346, -0.009204637407419551, -0.025598902424613507, -0.00028791707248629296, 0.02356561522123352, 0.03980710431572782, 0.015500260114549106, 0.011745658654496005, 0.03813766136995764, 0.04363141907505862, -0.017837199469722675, -0.059188847121766815, -0.025041024537913327, -0.04614777118126209, -0.10559561197619542, -0.010776726284907926, 0.0030325967890612085, -0.08813862739459102, -0.15764980417911964, -0.07183943703119372, -0.11034700393894563, -0.1305220012061997, -0.13092513061264058, -0.09828152709866797, -0.22105212276685032, -0.10259414147733455, -0.082694151079198, -0.04952972794169513, -0.01093483843719119, -0.053424338057582905, -0.01969848153696001, 0.008813393823005309, 0.011456974487874975, 0.045602877829571634, 0.01795590171752291, -0.006273483251903559, 0.03347334624490056, 0.026107813492709287, 0.03682972694903896, 0.005017881209619011, 7.289570226187243e-05, 0.04545495311442431, 0.007007714880026028, -0.046806319639766975, 0.008400157067150424, -0.053074765094522657, -0.009162932225077514, -0.037086525003924724, 0.0021206305203070566, -0.012307812924883239, -0.08618778703875817, -0.008587616781736692, -0.03724772771820076, -0.0042248321520072015, -0.009198001150881967, -0.05665582383969477, -0.0010435454785806928, -0.11581077276519398, -0.07254588850942746, -0.04028477209789233, -0.005591355066427098, -0.009470732227546571, -0.021265429326895006, -0.0051638105757432756], [0.04667091169684948, 0.05299419908974832, -0.0076353796676917225, 0.007556560963842474, -0.03086098792179092, -0.02979933102824736, -0.00904386371598229, -0.0027245286769700563, -0.042721417551394365, 0.0831153822829027, 0.007568213124578773, -0.007678508833782127, -0.007558468690594042, 0.053759808721916345, -0.048325985374330534, 0.004827988552427631, 0.01827553731198595, 0.02955123030616369, 0.03381998398951004, 0.07976668500713066, 0.0011521425417811003, 0.06250997087380326, 0.018154725105792868, 0.029652122921793554, 0.039388657582881764, 0.031080420561980942, -0.016938481049030122, -0.007678001476940338, -0.05121670739880749, -0.0061779481382682735, -0.02309061360499758, -0.0030689772962406965, -0.03595883419047837, 0.0022492867096294148, -0.015256423098545403, 0.03447261383715164, -0.017669125138677775, -0.06224938120651115, -0.01794234995242537, 0.014768801983953805, 0.031522327921630754, 0.038085537870952584, 0.04258862591319614, -0.003331820006022946, -0.05056585813600916, -0.008218284862729032, 0.09735606213238437, 0.04688816947501442, 0.006126616685204168, -0.07516825847707803, -0.014982155793096264, 0.054484340302940124, 0.009076590736366278, -0.028306569342342453, -0.04047271064989096, -0.059719230432678405, -0.01541206508380986, 0.006202616043322968, -0.00011500905465596828, -0.03413168123361762, -0.01597906881757975, -0.03927142896994194, -0.03873995447752192, 0.019541327920799594, 0.04566381527736118, -0.0836146747886104, -0.027284504814593404, -0.09763413254565109, -0.036187554040215966, -0.03484704804325733, -0.07457757273350327, -0.022087626093299458, -0.07247216641977804, -0.0891733042397758, -0.017836817593940506, -0.07869320433625338, -0.009997496955874607, 0.013706687497480602, -0.07416321929480349, 0.015983869269561257, -0.032305179994631755, -0.05799287980492124, 0.03699182981457389, 0.025160584706570586, 0.05755541600471816, 0.00986336928250218, 0.08204600112433634, -0.006204802252622622, 0.03777060448937531, 0.021430666646662766, 0.04966718757582984, 0.06903702001407513, 0.002273369787256277, -0.07542702098515253, 0.03772073091080312, -0.02116714263678723, -0.0233818570822623, -0.2517482799018625, -0.28429462105058756, -0.19921174893426385, -0.3184815751130219, -0.16078679307706223, -0.024734382342864868, 0.018465606419336523, -0.04762788011425221, -0.17698477343849273, -0.006354382670914881, -0.012022646990628605, -0.050426269290638835, -0.04591651572297395, -0.004255810815901705, 0.020460590081781596, -0.023229122049666897, 0.015434680307733548, -0.016800257281036544, -0.0294362704796421, -0.0034542456522488442, 0.00620998778828689, 0.0677404614538148, 0.024181895547134853, -0.06995999762749207, -0.13950821120251172, -0.19093063521199494, -0.14145059477101296, -0.16171287181643354, -0.12651138254445357, -0.1077670505778033, -0.14474972049698115, -0.12801444883496116, -0.22023890959679654, -0.09378784276429832, -0.04167166739242577, -0.02397589299775657, -0.07303151907036456, -0.02952261943611067, 0.05014801775192874, -0.053309287094211115, -0.013781156077752358, 0.009960933374998373, 0.04712871904346792, 0.005207965928708943, 0.07656525597005766, -0.05183688910607048, 0.014367670011285222, 0.012002520797707746, -0.02590158981947328, -0.048516837336120486, -0.09883799566194325, -0.10600957164045328, -0.00513859115390017, -0.26124549029184124, -0.17503378487460544, -0.13741691824074267, 0.22971274830608743, 0.22661226742675178, -0.0587152745408369, -0.2573384431191785, -0.26610079194311875, -0.3652821392887051, -0.6372753694799785, -0.4947119574509061, -0.25265456182208196, -0.014218993324995804, 0.03193224199573022, -0.01633421007991563, -0.05727064578130866, -0.03631013959198477, -0.009257294801631417, -0.010011399121640422, -0.034161153842809065, -0.006953156280446455, -0.08751265860657192, -0.015143438323455122, -0.0852206128492981, -0.11811502979710681, -0.11483215443865782, -0.09767242074603819, -0.2635766413662471, -0.13265653965210544, 0.07060685810905724, 0.19475321298007264, 0.2270050428146082, 0.1935127550464114, 0.03518747920689602, -0.08769571754533804, 0.09267896343081432, -0.1668916411687678, 0.041961341747190725, 0.13369118227602317, 0.06980811588469152, -0.009956686361116473, 0.15982565194033568, 0.021419663736289618, -0.08768446982666708, -0.005974344563148657, -0.015742080301192944, -0.018689014088331027, -0.02262135011870889, 0.016477139128097576, 0.016609798575999094, -0.12129708641927349, -0.30275000374922406, -0.39603338425442786, -0.3485795058932041, -0.19029243723981915, -0.21167090948615733, -0.039877569709253276, -0.042079557853072304, -0.13751553095884744, -0.3421047337914989, -0.19686729668165057, -0.20366727699043846, -0.3116462521032209, -0.22018740293166764, -0.040662187450652684, 0.18317015620201377, 0.06158904196416289, -0.0504359615472281, 0.19547527438155268, 0.4496839839614983, 0.03399444564262082, -0.21402642443388054, -0.039799435008371034, -0.008828883146803303, -0.044479712939945584, 0.038356280809598416, 0.028967219814556112, 0.03208360116140708, -0.1895685790450993, -0.19463453994595337, -0.04291081878446792, 0.13413297925065357, 0.08838038985617976, 0.13952514041557154, -0.14733341044808096, -0.18259258524231803, -0.22192206772639322, -0.31699828933581004, 0.04703593483673654, 0.18228854448432893, -0.105187905814326, 0.0338829774275917, 0.10383375557998459, 0.1010402970282008, -0.25015911593568535, -0.22367373517178862, 0.19936221935879692, 0.11927516475552886, 0.07536964614728185, -0.022107218883009826, -0.044661865132081494, 0.03957414364655601, -0.02910418089640466, 0.005232163612529353, -0.015617214007712345, 0.025352042978115826, -0.13148956428588232, 0.010715629815856801, 0.08348213250309035, 0.09248934370437192, 0.02391053422467396, 0.00485485276936255, -0.2146343354941346, -0.20347127653034708, -0.3390938377021212, 0.0286725570894737, 0.23387379805345, 0.25359478312301986, 0.4502660158013135, 0.385701675920776, 0.13059716062533192, 0.32319164846571324, -0.17076345353219666, -0.014054776808994205, 0.21480838073816455, -0.10091142672910026, 0.10088953317458821, -0.004615135225752738, -0.005141319715653348, 0.060890509330295314, 0.01632763718887153, 0.07229120342002751, -0.014902278485755937, -0.048521047258034265, -0.014583223326673982, 0.017187818341906812, -0.012509466730778426, -0.15719709997386802, -0.17083384428814707, -0.15711397086862017, -0.22285278177812495, -0.48191955707996303, -0.5714324809764428, -0.1770548515721963, -0.19718102924667383, -0.24822593708716012, 0.3457993030628052, 0.2106466875815581, 0.24285336046027003, 0.5640578444870876, 0.22098946733963584, 0.08721797592943605, -0.004233170618164144, -0.1948096590500543, 0.017015048818177343, 0.041822091642321736, 0.031090692846980846, 0.028039724849240805, -0.0068001603652703075, -0.006848203490740078, 0.017770225263031077, -0.04605936137828011, -0.01864276340820831, -0.13817964343544198, -0.2403238268103846, 0.05161722492141949, 0.1251710307881624, 0.05644850207001805, -0.03915780301077602, -0.00539611858070319, -0.16355144452347767, 0.1614873455602188, -0.09633091228871948, -0.37274092950990645, -0.18187280992088195, 0.0710531559548658, 0.16654442816148055, 0.16689684843109714, -0.07703312246749676, 0.11399206057826973, -0.08682584751998805, -0.030931610325446876, 0.05670202628549096, 0.013210191220639027, -0.006209009605374587, 0.07790010365889412, -0.03330511969722197, -0.033415633241756997, 0.004692999591745711, -0.012189992772851231, -0.026374833282972802, -0.12202924432495794, -0.2970163249892313, -0.022904432669510335, -0.06799316909213435, -0.05445607481948252, -0.10034260354725014, -0.2312476328717537, -0.0841973911510864, 0.3247843242245181, 0.08859576359770592, -0.2475553772367928, -0.28705213113125855, -0.13551444459895395, -0.06855437946206291, -0.12052837295338317, 0.06532065163881005, -0.0341295069532991, -0.2861868745116961, -0.26221824857841164, -0.07322059139375246, 0.03664008643164995, 0.057409974554617424, 0.07909722797306476, -0.06429740342791623, -0.0482528205714924, -0.005965563381246273, -0.0032404177960554084, -0.10389325057073817, -0.06533048952745002, 0.026971395930666758, 0.09363096847650998, -0.02464511006126349, 0.1920891495810052, -0.0354010764841038, -0.14377215220984912, -0.10447054353768187, -0.08793671954352499, -0.11055960937826756, -0.11513411859429909, -0.3057475534029599, -0.20903734143926897, -0.32306167714668177, 0.09767199315979874, 0.2702245958547991, -0.08756183279460882, -0.19739345126318067, -0.05496244907923384, -0.02818649995275681, 0.04936222775676379, -0.011856552059728059, 0.03920472256568833, -0.04390746253279886, -0.03311572063127745, -0.011693804973187729, 0.013946924268112533, -0.07062637507735693, 0.00981208313149315, 0.07120838428463289, 0.21889507991321458, 0.06418531634580826, 0.04543196791244026, -0.21138296202441798, 0.0263734380285658, 0.1736568414950898, 0.2480583293281342, 0.4602326703072938, 0.07182321415586068, -0.17669636425085172, -0.2100448103489517, -0.09214718312472216, 0.3958977764691382, 0.21484014565941334, -0.15364370570783767, -0.2739561403156417, -0.337944973893815, -0.2655191800283873, -0.08230260018292773, -0.061182633429184355, -0.019168069381871152, 0.05313166597667825, -0.08110739815631839, 0.01718848795196159, -0.02439545397856923, -0.09118435749829873, -0.0831304091681392, 0.027094037154624755, 0.1309638227876041, 0.2290641843857686, -0.00583418435515242, -0.2448502299901008, 0.022923434846950787, 0.253461343918541, 0.32877637050281305, 0.5218195746100773, -0.19356777322349467, -0.32997162773457783, -0.13922371141095258, 0.0713025035310288, -0.07385680139471106, 0.044637642864542935, -0.1413587048850035, -0.24650683646845228, -0.2388173846689252, -0.23328377826898578, -0.20798688811573374, 0.0182117473454654, -0.0242232858570342, 0.009940009136214858, -0.02073498285195692, -0.014339800137476105, -0.004086433858974414, -0.20699960613613347, -0.1001215027662538, -0.009329092177474031, -0.2090047432248755, 0.12235792495173022, 0.08013864381178307, 0.038764312308313974, -0.01122673998861772, 0.09333860682812023, 0.7255781093245939, 0.019062450687348118, -0.33721180433397546, -0.23485754534251727, -0.21757925798970343, -0.2970703016444672, -0.11127863059106345, -0.04477901542749071, -0.20501039220336587, -0.30443143809807444, -0.2706731485394344, -0.20360156407158472, -0.15544188752588753, -0.03284971827416813, 0.05059639307615225, 0.02354928723601032, -0.020402532904892853, -0.048094219420510315, -0.07971559098905809, -0.18659368579728183, -0.28429765348610386, -0.12432436918041197, -0.029866684486785124, 0.23154916369024156, 0.16240270935318601, 0.2206621563878175, 0.38232115436344366, 0.3185209961112353, 0.3775949499159938, -0.3140049992370985, -0.48599311272789086, -0.13037294550077655, -0.45035349398702296, -0.26360859648377394, -0.1437032059964054, 0.09160948572353929, 0.10393970718352055, 0.08379853743930891, 0.0764404013262134, 0.06812032637112118, 0.052853959879950355, 0.10700054962970247, -0.03537175796133133, -0.054551327500084894, -0.028992590953480366, -0.0028748596767997703, -0.12066434322099044, -0.35789183822336895, -0.3424079432910006, -0.37369125750677934, -0.2891238424308562, -0.03402556850418248, -0.19819199240757646, 0.012555485645081984, 0.315795921716898, 0.42437383997118056, 0.5154165350275416, -0.49529666467839006, -0.3914032977259178, -0.28403598102541433, -0.4546633561173066, -0.27810752377117676, -0.2728316752015213, -0.046131728536378105, 0.006352159038421505, -0.005803263602370421, -0.09683443671562761, -0.14112886480267564, 0.027335378639849278, -0.006756338237925906, 0.034253085693510196, -0.06263156639522637, 0.008636697665291494, -0.02878078445202605, -0.06566310711413453, -0.25006314703924587, -0.3173594330979715, -0.2877878753362269, -0.14775559937821817, -0.009163451450245115, -0.11662337103313658, -0.08217418722569489, 0.08739046156903149, 0.6499260771824851, 0.7099607920816112, -0.586481807941727, -0.8330122038617398, -0.5862574452096665, -0.5114276984374476, -0.5078537096351781, -0.3342148580088428, -0.11438354476835741, -0.03165701431926398, -0.06904165754752438, -0.15860421239533087, -0.026997866303551353, 0.033979188467218285, 0.07053497767853135, 0.030941387599139118, 0.05592252118934577, -0.002543678477396579, 0.0351248109559455, -0.08835553030668963, -0.17565881445246656, -0.24627652220371615, -0.04338165167225176, -0.19221418776707783, -0.31040476876464623, -0.293815767759523, -0.11009915583040124, 0.2873323806523272, 0.8003436701992221, 0.7379795931989704, -0.5830190775765443, -0.8700506478531832, -0.7648434718893631, -0.7468656034244338, -0.569770216952812, -0.32740895783545587, -0.15759335163042765, 0.0896589509210471, 0.1358229831197825, 0.061039958776506975, -0.016398264582624573, 0.049730427743586776, 0.013746597389300792, 0.031156593893024463, 0.021332301683002725, -0.019514382420916663, -0.04075726263013718, -0.06553328610898337, -0.2401901512014259, -0.12489069511298333, 0.0349198946024057, 0.017823965285115793, -0.4487609665953285, -0.28504297031940096, 0.2257325874152196, 0.2123678265232622, 0.4571021867114562, 0.1575785031569372, -0.4949045615856875, -0.7920923677428099, -0.7381496502174525, -0.766537215440359, -0.6108324425215373, -0.35901090538779173, 0.009337469879810743, 0.13137633689470696, 0.1793571859316862, 0.12421167920877034, 0.08429260509261056, 0.03767352357304991, 0.07136321243766434, -0.03406915761668894, 0.00918055352179589, 0.01593036036422365, -0.004442042856608452, -0.015553909413358134, -0.034397262421072924, 0.047540655556197554, 0.13593815035345244, 0.15376450508997938, 0.05112742504967643, 0.15175332979094014, 0.47860679164229913, 0.12722859917891433, 0.24689382089018372, -0.051105211355731484, -0.11861996232308765, -0.47111150497651144, -0.632895978585187, -0.5279002156759707, -0.6097902927277099, -0.3664059431216774, -0.10473997144188424, 0.21677033876488797, 0.13000523764677163, 0.09770698797338988, -0.06603907636224961, 0.017125498942760047, 0.03181721996669428, 0.031841036389181725, -0.028355870543320186, -0.09118553615553497, -0.025210693808703166, -0.05966020202229524, -0.012563954288997599, 0.24102429775814335, 0.3994851586372402, 0.33816733891548517, -0.03972662039494933, 0.592041508792003, 0.45827437139328203, 0.11097491286573857, 0.032888133229531505, -0.06507856629660243, -0.3349296307276574, -0.6136217593016962, -0.6703202922210354, -0.5664141574674133, -0.4449920195688107, -0.3698972474130438, -0.04799119105729856, 0.05306946028388068, 0.1078688747851431, 0.06645480843966507, 0.005823244616750206, 0.01708913355711782, -0.010548454240426318, -0.011340534523060717, -0.007744396908396004, 0.019780190422134237, 0.05410495821843399, -0.039551696572772084, 0.08506393034809598, 0.34258611138746314, 0.28623718205518767, 0.20258035106419967, 0.360236358698014, 0.6498105548417151, 0.5103070276265737, 0.21654290835493853, -0.39898556117901673, -0.19470224364023483, -0.12012300373399164, -0.5356041095993721, -0.9026039689288475, -0.7301620815066926, -0.49664095129111463, -0.28400427331140604, -0.12569505359644034, -0.049238136991139464, 0.07261018210081194, 0.021205416767716957, -0.010811780473452179, -0.009339751205241357, 0.0037583245776918036, -0.08309045292296449, 0.009080771820639735, 0.03716844492201923, -0.03493735148400084, -0.019820712651695088, 0.10737918145711406, 0.07686804776155057, -0.1345127197941102, -0.13484653178726042, 0.15589602246316803, 0.0757512899818356, -0.1615240728439372, -0.20679961293311874, -0.2644356348822697, -0.4121228828289254, -0.3220319750398418, -0.4286676483510473, -0.36264113338017057, -0.36206236939095643, -0.1994575877988651, -0.135250994131594, 0.032489875609324176, 0.045483737442296404, 0.041385287643209576, -0.04348694253080141, -0.03819684325592868, -0.020270392374819188, -0.07716835607802872, 0.010386006355158945, -0.030409101692277226, 0.0076092744699077595, -0.019633424588166703, -0.007608766830671154, 0.07172755005948248, -0.07106908647168421, -0.052653438967650006, -0.012890086149552142, -0.005093723191572502, -0.09876195138087594, -0.1791945201303583, -0.2017633566100843, -0.06299774322808128, 0.07900126836218688, -0.004757252549567508, -0.03612271855791522, -0.02224134917531848, -0.022969502319239485, 0.01656416578352014, 0.01956455719603601, -0.00969348338831936, 0.027750139923259375, 0.020444386554182962, 0.011181467589225905, -0.028646523814202702, 0.04427564928539775, -0.020473386801922407, -0.012255364172368896, -0.05081710053242908, -0.029280946361225735, 0.035701343636648716, -0.055171263211326545, -0.0306473996311568, 0.013377882541419138, 0.05396798525896424, 0.009516200784001191, 0.03056518723369486, -0.0009523814407235332, -0.009263129296887067, -0.06743258357107358, 0.008105832852355936, 0.04251887611928451, 0.09044405293644467, -0.039949022035787776, 0.02502661608866797, 0.035016441288876536, -0.00603565443213222, 0.017140975135518217, 0.04554183116355826, -0.019945067885092812, -0.013574078699658737, 0.05233490394496874, 0.0016174999738579404, 0.0016777232136080838, -0.025259098829057965, -0.020788284929386953], [0.03829960664032879, -0.009493372337910483, -0.04475652873416894, 0.005000357642587562, 0.04808215360911013, 0.048394467214587546, 0.0029154017201252496, -0.01615674088902114, 0.012870130254470051, -0.009677808103768941, -0.008983802473170224, -0.06118633639788131, -0.049617241519024184, 0.017306537482233878, 0.009900807579779642, -0.0017605117583648622, 0.009882217557182958, 0.06893102393270206, -0.009418723500800159, 0.02070701302781721, 0.07671149671429213, 0.0011949482266023115, -0.003911261455698477, -0.014410538372310077, 0.026488587494221064, 0.03514466558445227, 0.020402504400624983, 0.05065337905995143, -0.04357577077696839, -0.0033429392882716818, -0.07408638337715509, -0.010088299045955823, -0.00427326346725592, -0.006619375447692157, -0.006684342825333777, -0.016617312415875773, -0.0011998865269120644, 0.038086573186660214, 0.05087514563761206, -0.028927708667646792, -0.012250011551109418, 0.02317949606785911, 0.03078133170206362, 0.02361161864668188, -0.008369592934502805, -0.008119656060229068, 0.0072751968753429486, -0.008073105827423849, -0.015614503813700118, -0.004608487692456698, 0.0110337604916926, 0.014980012398857047, 0.016916361641498158, -0.024253460909127646, 0.016287712561828305, -0.0196801252254768, 0.019065574239127334, 0.025073132918150835, -0.08182851883163997, 0.05246335519511887, -0.037326195778191164, 0.003941175845528075, -0.02886709086126559, -0.034983846090016105, 0.05574334345267019, 0.03998036383459646, -0.05245754191246457, 0.01411451632513242, -0.006650098700288046, -0.047194084763544614, -0.09478348564388303, 0.014313311341140904, -0.0269965863639495, 0.005763928631162729, -0.014490109999934102, -0.043181083517201395, 0.005754329770976571, -0.017576287453123552, -0.014586874319368576, 0.015560171190206785, 0.010814239217532082, 0.00349540145300821, 0.009853109980387196, -0.016452193812352228, 0.001985274150009043, 0.01629762627529238, 0.04876294845964357, 0.017213856695001417, 0.02437793751553515, -0.03672650535218097, 0.032416263509411083, 0.03807257208325635, 0.11163024196832462, -0.06578471154831689, -0.06615116855658411, 0.024617443677801273, -0.004719544115802185, 0.01742209995745455, -0.04900268830394516, 0.11663638686069314, 0.07028201795316745, 0.01128657150386032, -0.0550719057260404, -0.044635241413618944, -0.027776152211919616, 0.03894157221893854, -0.0293425307953556, 0.0016874201828028285, 0.01568717230076214, 0.03706442102393134, -4.259473621338866e-05, 0.03494347998989488, -0.016925851452762222, 0.010900981755204696, -0.01659304834777919, -0.09325004195130206, 0.0035261109662830335, 0.029502567350786862, 0.027413307047218265, 0.03254253593537806, -0.052589106013263165, -0.18360918855016664, -0.13226150396609632, -0.07672893136220324, -0.18565801784801678, -0.39077874663311013, -0.5224497680301606, -0.20906124441452817, 0.037655893669314135, -0.1827684326460311, -0.1782947525175646, -0.11258166974228422, -0.1817371509796486, -0.09235034245450542, -0.0035523803395145145, -0.048995747550894655, -0.020095608042942317, -0.02340102133371687, -0.013462368041204329, 0.00961997675077467, 0.04878258380884574, -0.052211248636289675, -0.0022749089688884204, -0.017347235571044558, 0.03372709903449106, -0.03944405831894804, -0.027200150908146675, -0.10822226606290958, -0.5379542510259665, -0.6603337905443066, -0.5236742978129956, -0.5435270228343322, -0.552853920791126, -0.5172847433642214, -0.6079555572054935, -0.5586086164106682, -0.3637267228282734, -0.09563738915232968, -0.09518466132928113, 0.26414364992578093, 0.3098490579157568, 0.11230385335105608, 0.03360126330048731, 0.03279668482449384, -0.008208249124207142, -0.05718625425619101, 0.012306257457041985, 0.05271113856692042, 0.004047555583277238, -0.03456306912113883, 0.01936961987589663, 0.02835996985523771, 0.03759107545844316, -0.13478463831180934, -0.21966537374029596, -0.3423790230483937, -0.28731836520949267, 0.02938263317077821, 0.05244037391847529, -0.31048486782913615, -0.7000919081189978, -0.3456237835854811, -0.17883915133866354, 0.10995220068491723, 0.05195212848754687, -0.07501960715301857, -0.2854541883778141, -0.14016804952435602, 0.10385114866272464, 0.06869174227152086, -0.08123209802986187, -0.14829647388483866, -0.11782356818189536, -0.05903630683467633, -0.024144362243750817, -0.015783024401549925, 0.017898744427815107, 0.002676469412840309, -0.0054007694561144775, -0.06088850093064765, 0.04713666560406791, -0.060753920936375036, -0.05515744515973984, -0.0988901198231286, 0.08906917248952213, 0.25612392152531127, -0.12114945952263573, -0.044238360897209304, 0.10828870606200962, 0.47429066350006976, 0.8639819685440474, 0.3759099109021674, -0.10398323560602313, -0.10333781842773289, -0.2902206302160701, -0.2774031785728338, -0.15928063125200925, -0.33450437620597767, -0.3592403127336955, -0.5138178757839633, -0.2929677464318927, -0.268830284766864, -0.08207146514064702, 0.011242901744071915, -0.03984216102166126, 0.012539610007602377, -0.03932256503021437, -0.029427010155594433, 0.29249184348046, 0.2368000538679689, -0.1501190107342931, -0.22020269115811322, 0.03514051065526968, 0.21747056870040773, 0.4732140199386791, 0.7200809753053609, 0.6278515762694363, 0.547016825546579, 0.6794691954602898, 0.06399807234638669, -0.028484601160176273, 0.01014618844158707, 0.020744905466553304, 0.10308363193325283, 0.021252459228078724, 0.2670038376224182, 0.14414369571433228, -0.456856176500719, -0.5035021947552542, -0.33136394929940305, -0.009942854519820922, -0.036339781841393644, -0.009975519363225736, -0.019432778376137525, 0.06551060556691458, 0.25082466414524696, 0.21717086477867634, 0.21903635812630148, 0.33951796357962954, -0.07375348638527873, 0.3145322341896633, 0.9316018377774958, 1.13349256605073, 1.0666326459562496, 1.1958899179983842, 0.7638756105268739, 0.40333030308643064, -0.17653285067822422, -0.3342077648276841, 0.23243819262248908, -0.013374552828400237, -0.09617322255283567, 0.12764109689621703, 0.03305965068664607, 0.3076583957701245, -0.23420066590679692, -0.37855254015109896, -0.11444712908771666, -0.07260202308729727, 0.06599933198089178, -0.07956952159945256, -0.008468887874414098, -0.001296488338423126, 0.19529547363235886, 0.2023214187348846, 0.30456233916136305, 0.4506903668420172, 0.1673961064594249, 0.8269903351173817, 0.8010876186895841, 0.7171938764540852, 1.0547146692184948, 0.5266662724647116, 0.579996074450751, 0.09514089573006244, -0.012072538691162576, 0.12099520062537802, -0.015345409630831218, -0.20603530415902832, -0.117750124736866, 0.2783676459652316, 0.13581628975101884, 0.003735438989196633, -0.1524972751471737, -0.20179745738348445, -0.05972540714934465, 0.011831400349336762, -0.0351580913776686, 0.013038785544651009, -0.06311012644855188, -0.09463055443941686, 0.06362929395875484, 0.17854335682154748, 0.2191190586569652, 0.007982413221894576, -0.18958200114965137, 0.1402746770493496, 0.20694141519705972, -0.46657595844194427, 0.21985908576635768, -0.7776510495335401, -0.7786094236398832, -0.4666412325242093, 0.3189188552650313, 0.3115909637389062, 0.09518404127971813, -0.15195398930889206, -0.0009808453128856247, 0.5961164239863804, 0.16406072330280116, -0.3197127615553495, -0.27561801504047667, -0.21069891418383926, -0.025176813047526874, 0.019902623016706845, -0.03340462831738522, -0.09776363528666697, 0.012922560235613407, -0.08678426373722758, -0.040459898729253416, 0.03595316354876038, -0.20202873854347944, -0.47101961564909495, -0.48339730404123754, -0.7437523970591697, -0.7499675523240964, -0.9984555312012459, -1.418814742353415, -1.5138096770959437, -0.4865385838206907, 0.28466399851303487, 0.8414244259505534, 0.20421008308814223, 0.2351849274651146, 0.06316605131489032, -0.2673831938987451, 0.3618981569553604, -0.40497059712486255, -0.3833441326805445, -0.32956598856163977, -0.27340094193058306, 0.005291722278674562, 0.046710434022042176, 0.021249781051732426, -0.046472786600814824, -0.008434077453243347, 0.01773744101581999, -0.13050486742468698, -0.34647044410242583, -0.7272023675564507, -0.6541061673349163, -0.6867268339379948, -0.8076393393091197, -0.9911164395133327, -1.0997975952472032, -0.3899041857644067, -0.23202761313286965, 0.17885528257356173, 0.4732516776832337, -0.07654953633523658, 0.38352833010027926, 0.41330760985050435, 0.03874801675231688, -0.1889182401187801, 0.01721159883444353, -0.42919640321184876, -0.5336098424410042, -0.3241342150878615, -0.2280513792748962, -0.029535151687188604, -0.06323969521647615, 0.011608352756771596, -0.032063136968413834, 9.730091473846938e-06, 0.012904115332179148, -0.10012800741226328, -0.45422013229698016, -0.9289085577649944, -0.526029944590907, -0.5002383391682566, -0.5010544621911274, -0.5870393578785195, -0.21999972558409162, 0.046637898159209, 0.2750668202680345, 0.500847677636761, -0.0052592371991051325, -0.3046070677504078, 0.28035701359899245, 0.09823785296710108, -0.06883205000278446, -0.28944609618837097, 0.2001984587898963, -0.10831863468475483, -0.538488977846661, -0.3828039463756953, -0.2662480712095792, -0.035803760110452346, -0.02744403250061884, -0.02347198067301272, 0.00204740982874361, 0.05980633605556716, 0.07727866201791633, -0.0923030436346894, -0.3133515038448455, -0.4460705314439986, -0.34662306095914575, -0.052331323012762686, 0.14937704368453744, -0.23012223275667576, 0.08209111555644234, 0.2930002382298641, 0.47082536969801925, 0.1969348315276208, -0.002324008207503969, 0.3558206489370604, 0.20040446105019638, 0.529858297877722, 0.152387187726933, -0.32463307759887955, 0.19393259072382635, 0.3219372533026477, -0.4799270185412574, -0.36539795004279063, -0.18199600409664987, -0.07217523478959066, -0.09107672930271964, 0.033949182971134716, -0.029235377792158245, 0.0179103962805646, -0.019107442953314912, -0.07183091071599099, -0.20764094557950227, -0.2856175143244711, -0.10742227844055668, 0.26502119728691886, -0.07359661022583994, -0.08829594679134674, -0.003070903294094572, 0.2365637712138527, 0.036343498059922236, 0.21045245486768316, -0.08083392266614464, 0.0026001911864143436, -0.5340267195978811, -0.09961773456548162, -0.07680771480534997, -0.20209482337920226, -0.05087632734151165, 0.30787634295334415, -0.3334719645288469, -0.3696401235786274, -0.15868133871519427, 0.0007753894162248108, -0.04379127665969313, -0.001965624855501436, -0.06389259264407623, 0.006174442483476418, 0.04074203488819342, 0.05490827922747731, -0.028980376974259252, -0.16022146426571438, -0.26818888610929437, 0.03931414112753108, -0.4278543747832374, -0.643528730600142, -0.2904905722657632, 0.201094515801307, 0.4762838179113906, 0.2823138669931161, -0.08149395005755271, -0.12226074159012582, -0.46609668684374594, -0.32556488223037566, -0.4159224410275551, 0.04904161696560354, 0.18177314755148127, 0.12321939061865503, -0.29836099936140176, -0.2941770170043711, -0.25575699392511514, -0.013272363002253606, -0.015181624242561682, -0.07931206562927257, 0.024846764833754923, 0.03566790427090699, -0.017718259822469273, 0.2108654611329718, 0.16629957164092243, -0.04707366232970106, -0.1288856075030601, -0.27060441435393695, -0.33683288891448826, -0.665308511651762, -0.2744574610960021, 0.07828528396822287, 0.14975709583509791, -0.139775880976157, -0.33467371326453166, -0.293083975950459, -0.33397020067124755, -0.14950139583408759, -0.10840463359575529, 0.1706584212074693, 0.15525086649205083, 0.036350963814135016, -0.052006900164788705, -0.18285094443531144, -0.23224725990592365, 0.023327624271236698, -0.046022244945828364, -0.0067208452915998385, -0.004023479837954955, 0.0434339580800709, 0.027147133449488613, 0.022561305815990643, 0.21928102568785476, 0.11623698623028328, -0.016077142135218117, 0.035460713921441546, -0.1243905040265807, -0.2860930309198198, -0.7366630175090676, -0.6062736521970906, -0.6539710377363419, -0.5121750838577891, -0.17825571684431565, -0.12042231962849818, -0.028050348860423336, -0.322048323469642, -0.012856558985244869, 0.04566564553108875, -0.006385321014360512, 0.061209945330208175, 0.21853018994286816, -0.013600541292720647, -0.18363032057988304, -0.01992353271750356, -0.028943740526579213, 0.06843145557367966, 0.004675299173400617, 0.018738331076282557, 0.02516031338830791, 0.18354727397340181, 0.1970685412892641, 0.13648720938276623, 0.11833846907751129, -0.16407504338662365, -0.38782787867940005, -0.39237394221149324, -0.6699115892717623, -0.6934567112861907, -0.8363931254967554, -0.30290794776098434, 0.19274575657037757, -0.05161483248322469, 0.11367280199739879, -0.22116537731123195, 0.11373667029346915, 0.006892457219217202, -0.12762939612132831, -0.16978271895900965, 0.026117888202303322, 0.14022028822324512, -0.09342081142296627, 0.008493809585141149, -0.04543915909494037, 0.046739161813254396, 0.016106682082192337, -0.005281891709521893, 0.014677838969639968, 0.1392284831185885, 0.17818269055786595, -0.022164499223942993, 0.08048664816570314, -0.02526433938773047, 