{"biases": [[[-1.0196232148005138], [-1.3299891017942582], [-2.1002443332836007], [-1.2499253883233665], [-0.5141703726154416], [-1.9078792175102137], [-0.4713214664159553], [-1.2392918232632741], [1.6883764698132613], [-0.33368264678995785], [1.1928173905037547], [0.6129827269010338], [-0.8942374479835374], [-1.2058840453385393], [1.2743295504103669], [-1.8152113491101218], [1.11885449575509], [-1.4480311693041612], [-0.7679726726726954], [-1.927462266907964], [-2.2515507782934403], [0.6465591161190232], [-0.2322703466525376], [-2.1845390780530116], [-0.6120251549363459], [-1.5467134810517391], [-1.2961892313205639], [0.2985821874957935], [-1.5177305389515436], [0.10437962410079421], [-0.5164909933263833], [-1.6848983187215598], [-2.003683416088027], [-1.8868300431482767], [-1.4615180700659958], [-1.3701589433641541], [-0.5850593356458592], [-1.262256529745632], [-1.2807811850415651], [-0.3461996686613519], [-3.6283894026590917], [-0.9991695829597825], [-0.9338196673101719], [-1.2442033616194206], [-1.4140659880662798], [-0.36969288684009455], [0.31614660516527326], [0.7967045445761015], [-0.005310704839841752], [-2.06072534674942], [0.7187254982785566], [-1.8173015424284644], [0.05850000206141697], [0.6062317947224485], [1.2141533295843356], [-1.9115188091666848], [-1.145452047159615], [-1.6665717753709912], [-1.4143209946296822], [-0.6691712603283155], [-2.127024166935046], [-1.571002802546497], [-1.0602870724767801], [-0.9343047217551655], [-1.3112255928087702], [-1.280226495870458], [-2.1370288733053067], [-3.3773497696711066], [-2.3868316040779667], [-2.60456404961315], [-0.5338001208488068], [-0.629457354481859], [0.188543774653121], [-2.110803558874723], [-2.021775322631468], [-0.8880384637970146], [-0.40562839867253575], [-1.6204547999620944], [-0.24762900028727894], [-0.456730087976801], [0.33225813522976155], [0.21773892992685748], [-1.0149418943351245], [-0.2873071174069457], [-4.529951564075191], [1.22254515465125], [0.39898915033334753], [-0.7841482968372439], [-0.9672408516092602], [-0.14192479110516895], [-1.8363567306035962], [0.5876870171362396], [-1.198524677638223], [-0.56454678479475], [-0.9331923549096018], [-1.3747946189889133], [-1.1593713312899163], [-0.2540020383807071], [-0.9678786919265374], [-1.741142046300781]], [[-0.7650494426901377], [-0.9965200908486874], [-0.192816712444505], [0.6339095581539033], [-0.005229593633696201], [-1.2826377896861867], [-3.354638895463989], [-0.5162220571762324], [-0.27594038315877745], [-2.6563617860926625]]], "weights": [[[-0.00910964286241933, -0.007440671632453765, -0.019808772191593632, -0.05737330557790423, 0.008702322736003696, -0.0384755061461953, 0.07494386512323585, 0.038835685879047434, -0.009144330479859126, 0.011511766575054282, -0.0018712352493161365, -0.0045099893971060154, -0.03403667659724183, 0.017166976673091996, 0.010450265530230872, -0.014679372807198344, -0.06504731312450325, -0.04179639882446835, 0.01638830263888605, 0.0068786156986632525, 0.01799592422644138, 0.030804599131200698, -0.005058710064429563, 0.018863073964797063, 0.04280156761913772, 0.07189401985779441, -0.014977418004529888, -0.007219115534665341, -0.013362391685883782, -0.004569858648084475, -0.017561043073292613, 0.05939048935130068, 0.00827721912421868, 0.01649994888756697, -0.061753388346993704, -0.017362011103847507, -0.01841156890230783, -0.0010667528138481447, 0.052801413089931186, -0.03932816752745137, -0.05953546552399505, -0.009908190264247527, -0.03174380182196169, -0.08878803913136668, 0.01519320966501168, -0.02242944070923064, 0.024273015987402058, -0.05305603776490439, -0.04933635972432782, 0.022216227937350265, 0.013439278773839752, 0.004139924622927409, 0.042105817852818334, -0.05020069754750542, -0.003744304430113347, 0.08768408038525267, -0.040558666366592416, -0.02719015750688239, 0.04102576580197946, -0.006294920417762359, 0.005238040406738397, 0.015262078078900303, 0.03415818671272121, -0.03606693892034192, -0.005871984254126046, -0.03373869686476354, -0.003721816416845755, -0.08092015314917705, -0.054869537961382275, -0.09835266940327787, -0.16326532302200186, -0.2684796865385947, -0.11810352893508216, -0.017158060831144583, -0.00018390732172102487, -0.10406716711234773, -0.026239366141078933, 0.003926788867275049, -0.0034451143653988162, 0.017782863370917206, -0.0018066417790333323, 0.05724642691584523, 0.031668482360374894, 0.02208822363742703, -0.07277887925906318, 0.024055171887298898, -0.0022653461300362306, 0.01555130172046313, -0.0144927731711973, -0.051307164683268756, 0.02712603421427444, -0.05132118563726575, -0.0270588437872873, 0.0016161273438732736, 0.05564142195676312, 0.16875500747996677, -0.04574379564837492, -0.15293062906195043, 0.04227129224408135, -0.08862219504283733, -0.1895344362333705, -0.06564085685067124, -0.044502883251585496, -0.006902664479624143, 0.1003942330889634, 0.13459606750936148, -0.039673663687168875, -0.0037771582460542734, 0.019172669719254264, 0.005581155442629008, -0.003714482998321054, 0.013066650168884399, -0.02106414402305866, 0.06100503144860951, 0.005177672438038229, -0.06470179085340576, -0.04396708759113026, -0.014780686068397393, 0.0013293960420847585, -0.02012084956347482, -0.077761203230647, -0.03686222061280555, 0.035077583567116585, -0.06982615667804624, -0.2150724267581666, -0.44529616102627456, -0.20365471882028616, -0.30190102225477794, -0.4134713026651406, -0.054718744293713935, 0.13060494359494676, 0.039173851240666024, 0.18911400660283204, 0.11610750511354613, 0.028952382139626108, 0.10936581851654714, 0.12900650798042937, 0.0266356680930761, 0.031556382923210016, 0.005327259359212704, -0.009977430849712381, 0.022613627426622068, -0.038815044946786725, 0.023291438426811712, -0.06475508135064179, -0.11703350065430554, -0.15522485968443814, -0.1402559180270542, -0.14232851855539913, -0.31846024395175293, -0.2947594093554271, -0.2813759490887013, -0.248180591218681, -0.5094551634270659, -0.11791978501435614, 0.20633621163349555, 0.03373697995505396, -0.16428306384383629, 0.025796242813929615, 0.027568658071379926, 0.3169940714408844, 0.22452217251769882, 0.2982260604532054, 0.3756740095042894, 0.17818964357088204, -0.00025400008674853234, -0.08359782481984157, -0.006142493879047147, 0.053859892856123054, 0.009104161476683158, -0.016195392205915274, -0.04043541086017718, 0.027872666883508142, -0.03878815962881798, -0.10949714035754345, -0.1363342997795634, -0.12530721767583847, -0.4611488645496562, -0.7140824691533071, -0.4709317397862533, -0.21971584932780683, -0.5850074427710699, -0.21210644189857863, 0.19339030772575627, 0.26915452178226923, -0.127050343818506, -0.5210409613742742, -0.0743732293007164, -0.18611639062161328, 0.058794228623829076, 0.26091182596580426, 0.4828360634016914, 0.3753569346708613, 0.16598720992359006, 0.09407511670742809, 0.04613513917873835, -0.029935626864089147, 0.03618788437160445, 0.04367687663651587, 0.031145058711987385, -0.023004752808183003, 0.051819122400952565, 0.044794494215594, -0.05729153681592134, -0.004203411095995622, -0.18883247027954655, -0.4836821790436741, -0.22148609864726052, -0.4038623206519689, -0.46215692504073763, -0.45175068372205474, -0.21968308230950864, 0.16352124316628608, 0.04337956681086116, -0.4607734660847082, -0.4613859075981523, -0.47903592046463617, -0.17653293795705263, 0.19097828057289307, 0.27908499157821404, 0.3487611886249407, 0.2184768667717436, -0.01944134706214815, -0.06973952946522143, 0.05825408311197139, -0.04690160659181534, 0.047355093306138046, -0.03316274566692338, -0.11008346007673361, 0.08523509093974013, 0.040095013838597676, 0.029447779461177527, -0.009662484879210025, -0.15840934673643098, -0.20454049122245663, -0.1310803834557138, -0.2663801501190387, -0.1647525502255399, -0.1980670916474884, 0.04338618759897035, 0.046411685318293976, -0.12530767065646384, -0.520567620868308, -0.3579271741405863, -0.14608685862695003, 0.10341517876682411, 0.06828543614195837, 0.224718243101827, 0.36557266892023765, 0.3282205517369227, 0.00943798881583967, 0.019087568857936173, -0.028144194947790302, 0.04506941237600557, -0.0556437486542071, -0.08814561362097503, 0.010706218336220806, -0.06943504995490295, -0.20575706989955314, -0.22197961025354185, -0.2994967438765649, -0.36659717847597445, -0.09968723848462462, -0.07401008034410028, -0.046295092294863914, 0.06241004656777525, 0.08011383199417835, -0.08436021197908176, -0.005497948591174074, -0.007212672420202368, -0.1459653883643017, -0.34995754220845754, 0.3232852797450342, 0.21416434982796478, 0.094258222749196, -0.01334846532862465, 0.2586582702291106, 0.259902612892731, 0.00013274504833845062, 0.004110836393831946, -0.015448011211181683, -0.017342289580370998, -0.008743565013286726, -0.03653984995189279, -0.09724702057993068, -0.17443169697428765, -0.3401190759408882, -0.15956213830192092, -0.3824646383867165, -0.19596368619784496, 0.016106252800584215, -0.01279363850224246, 0.27904037414504135, 0.2542276597824781, 0.05969650769131661, -0.2774917824316298, -0.4358811806683657, -0.18902659520310985, -0.23056769161989668, -0.2643264197925932, 0.08925032143780139, 0.08086529514946275, 0.11012102477828616, -0.12866386114746858, 0.1798684755689229, 0.2923563304134516, 0.12321126534295676, -0.011957850950610194, -0.002465532894682835, -0.000322336257599524, -0.05200760377044933, -0.052326727774699, -0.1588774404516444, -0.23481512209453975, -0.1591699027693138, -0.22409347426656553, -0.15568557526357987, -0.2663315558527899, -0.0927593654160282, -0.1995636669257075, 0.260462715976259, -0.030281558298221198, -0.08446064069825761, -0.508248858657906, 0.013367643606162643, 0.08894613815372023, -0.4069158403798828, -0.41976953662609423, -0.6200114433529624, -0.35759696870643826, -0.18313069485874223, -0.3420339189461153, -0.23226111917090883, 0.0605588869494411, 0.041104998778965014, -0.07057915818403883, 0.06350132104057721, 0.05077714402973205, 0.03716745035969353, -0.13443166798626488, -0.20855462658636886, -0.18523373225070244, -0.17722480341111208, -0.20556820671803008, -0.21743938201969376, -0.4736365234624694, -0.1050750878526574, 0.02560673625660371, 0.5324141164241627, 0.4453721154490778, -0.14621854223614755, -0.5520560129910492, -0.23140174143042355, -0.2199281937812566, -0.577126329302521, -0.8988896907643013, -0.747215674042608, -0.3847342458681084, -0.5370832122351081, -0.5129374845342327, -0.09025198074133108, -0.02627566838258389, -0.007663514008640512, 0.04043630400555199, 0.08744452419134001, 0.05821282051255417, -0.07203809967827682, -0.04361111129108287, -0.29240892043139, -0.11222511557836701, -0.09274511240658417, 0.08062200823816983, -0.07262347984059943, -0.12069635306276942, 0.1505558740740212, 0.09201681218072838, 0.25352241036516526, 0.09158167823404548, -0.49801801555431857, -0.3952386529847506, -0.16889352909117866, -0.22303845474483938, -0.3060451317300429, -0.7702199912471087, -0.656747090713796, -0.36521492985588744, -0.21765766129333194, -0.07770451226747763, 0.014255071497204874, -0.0183217364738264, -0.02632875013288417, 0.02492025542446691, -0.002926371782141385, 0.013681582777959308, -0.06571810695484082, 0.02044637832984473, -0.05532829192039591, 0.009535208114329343, 0.07846648129158469, 0.05576107014476342, 0.0025931093752516337, 0.48981565982596326, 0.3139053174868215, 0.050734822163386616, 0.31678757989962175, -0.27943624289101116, -0.601927587600285, -0.37484690511105145, 0.0068209088895824, -0.051114327523700626, 0.03434483750380411, -0.2952049298330246, -0.36111315982972886, -0.2641845977220463, -0.017211822516835264, 0.06856669800043999, 0.11830693387810796, 0.05176324201639727, 0.0451853688338276, -0.039008917741450246, -0.005620291945295927, 0.04898072290831913, 0.027831075926933124, 0.014436256793574295, 0.09899444711228768, 0.17610119832228097, 0.13229580025184304, 0.12072998735655288, 0.16342791219711728, 0.5033481337081817, 0.1380259343041861, 0.013967508355816356, 0.3743494283108204, -0.3692616411582139, -0.38316644506026204, -0.16390521800477423, 0.18135785096001342, 0.7052553799650135, 0.5370186651009292, 0.3542582806448914, 0.014862637663937625, 0.030974928189223247, 0.14092042034120494, 0.2217063029565189, 0.2872795233220796, 0.15654272847995504, 0.07932170014237586, 0.046410338345817266, 0.01855285752618886, -0.011570196712371587, 0.03737827523406865, 0.13328657250029174, 0.050536253699535405, 0.11606888770086202, 0.06893790074707268, 0.2878277233149978, 0.04062993071065456, -0.04292253419822419, -0.17325982682879085, 0.12615091358340902, 0.06013367163710411, -0.16854970944555867, 0.16449654944589784, 0.5577933711893278, 0.41372179374074514, 0.990109742065066, 0.9073274250020916, 0.6095285173261031, 0.5131857464800788, 0.3057346721090406, 0.11866070338042548, 0.18118445552947993, 0.17279347143251417, 0.19929413964443968, 0.09247534978752382, -0.023921443218352097, -0.0814211800763347, 0.015836184646457262, 0.009032418611864422, 0.1377009879214676, 0.14130183680320552, 0.31928823822008817, 0.21825836028389234, 0.15102229541529155, 0.13832689180055144, -0.0709345072321525, -0.14532978628805873, 0.12434888896879592, -0.058971696129265595, 0.06457732168263927, 0.15573165692494964, 0.22589680787554128, 0.5972387526813908, 0.7248929250602275, 0.8504240907741514, 0.28956809763758506, 0.359498719307487, 0.2998673960591645, -0.06537361005404707, -0.05910508752891725, -0.13346340184652958, 0.007175412346274596, 0.022604482080430685, 0.05374558958275154, -0.008386104746890622, -0.026885403501104264, -0.06610832886567164, 0.08759147580159261, 0.30623059652759227, 0.47222525249265346, 0.7231998326320503, 0.5908273043621582, 0.42218112893061494, 0.1721789476692524, -0.034224629826063335, -0.06430536917449531, -0.018637677568954816, 0.06316896445289598, 0.33562407702700314, 0.4065464954583882, 0.6313411766799424, 0.16501755462326648, 0.3015024998388574, 0.3071122064819094, 0.11637127526100106, 0.3151518755097123, 0.19293931876472614, 0.06607329095918422, -0.0605555636096195, -0.07440698758103233, -0.04091996819885825, 0.028400615174385847, 0.03339921098604097, -0.0395698435962842, 0.01601711294076605, 0.14922397195008416, 0.30428244419508904, 0.5197298870231435, 0.6093205890710407, 0.4426708741550699, 0.20510664420167046, 0.13931408649566152, 0.0492136552369299, 0.15951474881568026, 0.1026139255210267, 0.2375725639032517, 0.5744187098990589, 0.6664185266441244, 0.06471539682707234, -0.41719889613644395, -0.13020993869611514, -0.31927906452022825, -0.19122027071834152, 0.002876937622358504, 0.06564737350532722, -0.09658926384937948, -0.15295628614506085, -0.04488622579128642, 0.04956157742334575, 0.014628174261954521, 0.010964256093348305, -0.014969571995833892, 0.1402606590860329, 0.15412637223662498, 0.3137915839777181, 0.41477080779314907, 0.30542074979948625, 0.136654784553327, 0.2555202630363307, 0.030629613206776995, 0.28777320241790133, 0.475126979989519, 0.42535191823570334, 0.2311955199601861, 0.09791556286250654, 0.05081988709875222, -0.3559042466715154, -0.479991396612833, -0.3629289441045869, -0.4856856317465659, -0.36746947907460664, -0.12594007039373956, -0.07827553849516898, -0.3067524352553245, -0.3443355585518962, -0.1779987279565925, 0.013905598042571252, -0.01987972468882381, 0.011475494854214755, 0.028979068530394215, 0.05520251319467273, 0.038105921629637204, 0.19578865035395263, 0.22369767984444697, 0.10382121759649428, 0.08594381015186785, 0.3370299326593001, 0.22473211507069282, -0.006380753247537917, 0.38059719359276994, 0.32318627041514125, 0.05012406012060091, -0.02254805745207962, -0.041809106253686376, -0.09757488892377034, -0.07072186124085342, -0.05768983493508762, -0.20470076164333068, -0.18126966201813016, -0.04571096131043955, 0.06819670469935431, -0.12162636734633324, -0.20587071456292397, 0.014346942361364492, 0.0012332774698230488, -0.023348621940244903, 0.0741153140404115, 0.012786908236446862, 0.0406528658901007, 0.04073722828369669, 0.10122243868535595, -0.07193013771433654, -0.10315281517922183, -0.026624874558694365, 0.08840408450387291, 0.14120527178123102, 0.2305199662851426, 0.2046738408514335, 0.03915396293914207, -0.20405736998067728, -0.20622858204839525, 0.03519249727295534, 0.015281051939380948, -0.18683780447375783, -0.21167536432509668, -0.1530588434619086, -0.1373531437663345, -0.08117824229037526, 0.00541704982446937, -0.18322314348000568, -0.15213301030475276, -0.016120933864077872, 0.0653195635288338, -0.040477089008728186, 0.020391443732323208, -0.018946160570230474, 0.009961167519591977, 0.027630381485478507, 0.07662615337785764, -0.09343582679406569, -0.12491538743896909, -0.023246510371731005, 0.334914018497291, 0.17621382559378437, 0.22559241635718846, -0.2980706505817141, -0.7933734976927517, -0.8359151154105425, -0.30829148190683636, -0.24154625540065525, -0.3602216067898471, -0.6648328794567306, -0.35438455903534083, -0.23803255177448246, -0.14137829408668334, -0.003991502201057384, -0.0302467908220596, -0.13413374628314373, -0.1089481196847361, 0.0659567037580461, -0.04771828511070116, -0.056447571994042677, -0.007032689240946341, 0.012186484240521716, -0.048579208325028295, -0.02449390707922621, -0.034896058513570846, -0.09288473390942287, -0.225149066221217, -0.2043474179917736, -0.21215031407793403, -0.27097872924738325, -0.5764564412635073, -0.6134922314597097, -0.6936153468173439, -0.6449160462035413, -0.49511043630640467, -0.34300866932094093, -0.21105097090979508, -0.5399720991464354, -0.21122711574603178, -0.20310238282867263, -0.15820497522722643, -0.10111332177614378, -0.05664382955478354, -0.06347988682182622, 0.0314919981178366, 0.020562876839943692, -0.00588940096634435, 0.030131744634073192, -0.019179537666606992, -0.03071404234152701, -0.0012095837535800755, -0.04603004275331101, 0.006191077794642894, -0.07957659826788528, -0.17902238747404767, -0.3770460791889952, -0.34523446026569526, -0.35028008590526327, -0.48817116558198964, -0.378003303543266, -0.533329745102609, -0.28324388445461957, -0.454734699245968, -0.4282009134299701, -0.2631882769715517, -0.2675017844701356, -0.2350091891963308, -0.17167384908556146, -0.12780476408364683, -0.1100327789701991, -0.05042361741652554, -0.008218617409593638, 0.03374813339107149, -0.02842120645153638, -0.04849838682829416, 0.015605763756264324, -0.010814102744295681, -0.01472433065279241, 0.008179512814307437, 0.02718559974262374, 0.05103258118539968, -0.11822734452653715, -0.14475808004171903, -0.12826865734224652, -0.24840344817667145, -0.22469902570693603, -0.18140407955259663, -0.057748884967065775, -0.13666782959944598, -0.10121983563741543, -0.15927146495778863, -0.22316220537382106, -0.2038854884443702, -0.15177937199338234, -0.1406110077979545, -0.06623608145927083, -0.033530435480717054, -0.04175020059504983, -0.05789501423905774, -0.09885445167035464, 0.017719167510213275, 0.03074796364849475, 0.04911992305611138, -0.00931016377169882, 0.00893791841813007, 0.017138435020232105, 0.015610000247154436, -0.031143497606906097, -0.009625085254378017, -0.05974521784755196, -0.07275092773075588, -0.00845858090677678, -0.05901131954718205, 0.031729461201008995, -0.01387611482632358, -0.013098067133381226, -0.015576135970602454, 0.0004037250893898641, -0.11743276847998817, -0.018114955002944085, -0.05244715351657737, -0.038101733339337494, -0.0067849098625163435, 0.018316259735257003, -0.027353773959690044, 0.0074186128928912095, -0.0033334230970351155, -0.0007990487814937239, -0.05304829679406797, 0.015266881584345967, -0.009775833193508153, -0.00899561283790984], [-0.054161150477875585, 0.01528966915665182, -0.06072908516646372, -0.006185746583700618, 0.05033125391855683, 0.05814439554521629, 0.041697822045627074, -0.0034211852444058443, -0.07193711365219231, 0.0003603222332825904, -0.021197438102041864, -0.018028748493255965, 0.06462513477486549, -0.03995095985801378, -0.006928645691170194, -0.04939157812396011, 0.03367125323918649, -0.04303181992742975, -0.01499730914879329, -0.016030207086361055, 0.09897317525070175, -0.03482879636496762, -0.03839687803249587, -0.059458760085981464, -0.019619191124091544, 0.016987601024016696, 0.005299697532846018, 0.051898488606943266, 0.05133117175866052, -0.00976463894548544, -0.035208136073601515, 0.0038558730735169327, -0.026050306302214797, 0.05264617583779771, 0.021216836094677657, 0.016945840778228274, 0.04564360737018096, 0.03402716575603663, 0.028499837969119562, 0.003905001792178997, -0.005922306858661418, 0.040704345051546055, -0.024841659949310445, 0.0760904668840765, 0.039754980843032056, 0.024522876693646087, 0.06862605564859235, 0.03023597020320568, -0.010537029493524577, -0.00652945307879333, 0.000756519500658627, -0.04908750050923988, -0.011995066332411786, -0.005103124845026745, -0.008019090309988531, 0.03498212087948856, -0.023086647803410118, 0.012921645872467493, -0.008956909257251879, 0.009110088069153768, -0.0147661932617509, 0.0004620902225367059, 0.09500404799209614, 0.12694489192158678, 0.1985938115100164, 0.20242834992276004, 0.23448414764036543, 0.1767624774227752, 0.1770745450491314, 0.24733011306843575, 0.27888362451130283, 0.19836566307990436, 0.11250755324021867, 0.1324908972016782, 0.1234003153925871, 0.12253607191695486, 0.12508336551415017, 0.11874464692257007, 0.057924450304881935, 0.06404233466311716, 0.013634253566808918, 0.016758790262023836, 0.03586933504680757, -0.02818009416561928, 0.017202506371320217, -0.005028514951126508, 0.005686706190715895, 0.04649107163227563, -0.06129122722280114, -0.01258848590067644, 0.10049343203383002, -0.007785214711082471, 0.05106269508094215, 0.12867152816138872, 0.18104698704579056, 0.059502063727362574, 0.12893786004070826, 0.3225276676492102, 0.08862808550864974, -0.001832896283934977, 0.03125559143093592, 0.08017850289898028, 0.0033863609450221458, 0.2986935975307749, 0.2969092003001319, 0.26005325807305135, 0.2299943466649029, 0.15237358755648928, 0.10609849530470515, 0.001629773871073026, -0.04530492612611311, -0.04359352581538067, 0.013028537034247589, -0.025505448780426633, -0.027490758546181264, 0.0774465796200385, -0.03344156484370683, -0.057621948289949834, -0.015655669281227278, 0.001005059678596735, 0.12374442878068484, 0.018875772091361136, 0.34594298652647476, 0.09623525044255347, 0.007596716166505298, 0.2932821324213343, 0.23941077142174916, 0.33100254568301785, 0.2185861523486026, 0.22371180629186926, -0.013726846029783957, 0.24052855556570701, 0.05130082742599041, -0.13325475707944034, -0.09852931084747316, 0.06763727610698218, -0.0071256832443495274, -0.1061587047910208, -0.0257033143855273, 0.049360994961734815, -0.039632872401967154, 0.014217696449326479, 0.03411016405309813, -0.008238312033510825, -0.037036022902321275, -0.11058630995832422, -0.031646221440158974, 0.008580008028500929, 0.13479702758893033, -0.029195259983363295, 0.14487954200121794, -0.3093448368169606, 0.13729746452276143, 0.12441831139772128, -0.01573690215798367, 0.11143900327812822, -0.2314192383969392, 0.0856191585725838, 0.10262569378073638, -0.17072313873535797, -0.1959438714437335, -0.1368045869770793, -0.30193214654596007, -0.06219814354645234, 0.06286242418519254, 0.05619363975537408, 0.04847842615847257, -0.02168035254355924, 0.009490112705188451, -0.03772143845426646, -0.020666562879540187, -0.05820910221993977, -0.09685155994430694, -0.1632409439374364, -0.18238042174887487, -0.23081830113713805, -0.31322213416524297, -0.3115399193660615, -0.1960917418783352, -0.02546055180358266, 0.0958018268437241, -0.06579008607795397, -0.3967470059435631, -0.29174372237508744, -0.11872340907244118, -0.4992488152781335, -0.05005825014351266, -0.595527311763886, -0.7131787762758006, -0.3712904144935863, -0.28583321754498237, -0.2074418352191116, -0.06452069249238107, 0.127774259009101, -0.018518070690086357, 0.0353542298375641, 0.017755494907901664, -0.006032486565182174, -0.054646765433933396, -0.06752033274471982, -0.10550393593527409, -0.34164193328821124, -0.28138569300313127, -0.34991641065242635, -0.4537175263810376, -0.2429611205970937, 0.03266139332403635, 0.13494483851416494, 0.019582046183621426, -0.3193235204254801, -0.19844942678595845, -0.4861076257817416, -0.4289475867739964, -0.6107897788486485, -0.6583193539304507, -0.6874161281670195, -0.5245439018065386, -0.5588657135163745, -0.5777085609225693, -0.5829201580893428, -0.14039260891970026, -0.06436956255089792, -0.032492556560948425, 0.009807002539205446, 0.042504518428227195, -0.04585824064610039, -0.04819725698264076, -0.111640561314015, -0.1647164943346718, -0.3699477328043582, -0.3723278677878433, -0.526249743262887, -0.48799118633340327, -0.07530059089600923, 0.28648274721802214, 0.0636339877581574, 0.083846061733256, -0.05145928343299891, -0.04032116480613185, -0.6498380698252423, -0.45714280358434395, -0.31287305810593885, -0.9339664566438928, -0.7554277099227114, -0.44866067895901973, -0.7841639817529904, -0.8506742383847059, -0.7951755210761298, -0.5965523700486959, -0.2375499492574046, 0.03206476877941726, -0.027458880705490206, -0.026768324275782348, -0.08307864952940597, -0.024587486127438277, -0.06559852489983364, -0.11072815394950296, -0.3356065207345486, -0.45421537849212923, -0.3259441021590416, -0.11349973886220333, -0.1215674177930797, -0.14964768994652838, -0.3476494955837256, 0.06177345972184955, -0.25260462857146765, -0.382848511225671, -0.5339618831199754, -0.28137057259783155, -0.04218654315535611, -0.7673397017579556, -0.8446038125589491, -0.5106949810803326, -0.801800459673615, -0.6809260282622492, -0.7305998500155166, -0.4388923405071783, -0.31802298340309376, -0.05511078505909593, -0.016423301989330473, -0.009064776892030052, 0.03483918153705238, 0.0645982359642424, -0.08568417378449633, -0.21438587276075027, -0.2254367293656537, -0.2758754790986907, -0.03833977229957197, 0.023028414451931, -0.31031872380270414, -0.5977524461059194, -0.34828675563664807, -0.2181734317187945, -0.45009738199119664, -0.3896291790412598, -0.2495022534549802, 0.031353694810191034, -0.20610451103485405, -0.678871845845214, -0.6408137581276846, -0.4714337294819192, -0.3186907173028433, -0.5265965400275323, -0.5052260501473838, -0.28930616401572007, -0.20035217252355342, -0.021104905156597308, -0.022546037592105436, 0.0444701768235624, 0.008341127051058802, -0.021561391374934003, -0.17120602836264068, -0.2616960316432978, -0.40388401782745975, -0.3786927828331025, -0.310016556363041, -0.3549901481605066, -0.5482179784043781, -0.5345789424838359, -0.30482255460462027, -0.5623751740154603, -0.3493383525909675, 0.20068909910100566, -0.3174197204466676, -0.5077471278080253, -0.2592998640603519, -0.43633279779149875, -0.08044024196907205, 0.20851790437083648, -0.32018349987982875, -0.5154346695866032, -0.21886515146857358, -0.1957378032547778, -0.11495492771051612, -0.029865762502453777, 0.0008783485312162599, -0.014653655277070615, -0.020972621891597865, -0.03833414031242902, -0.004515140802086181, -0.20992554531726407, -0.5033800224353586, -0.46970624821262913, -0.29705532613535646, -0.4828767004685713, -0.4681982085274208, -0.4395298616273695, -0.0911374613706775, 0.07615202116187689, -0.034467178340471936, 0.642324324735935, -0.21049270244394944, -0.23591026485525227, -0.18099545837656775, -0.33269138560475986, -0.2493128215592448, -0.07747823896852472, -0.012399483212748414, -0.07227781926776265, -0.03209941971096958, 0.05094397332983429, 0.0827969252971906, -0.03960882735067445, -0.014128462822732649, 0.0714008190122036, -0.01562524824810741, -0.016717955441059893, -0.060639255439038184, -0.16912466714114086, -0.39029883422487444, -0.24809640801116553, 0.07804915186877598, -0.10963108946880842, -0.3177310800244521, -0.292988596039099, 0.03761284977911378, 0.4938633179288928, 0.8798937700386524, 0.4778049257377927, -0.33537077513453006, 0.06367721221335174, -0.07788890256371794, -0.2872593953738516, -0.09659355761252178, 0.05898439456835855, 0.14532908023463134, 0.09729421734419526, 0.2963702792808179, 0.2985650819880373, 0.06548999267356352, -0.014267355936234294, 0.058852668712429806, -0.025070192523634398, -0.03131716669183628, 0.015238066090981352, 0.01442811109232059, -0.06624725687751189, -0.4526864326399511, 0.11813735379565468, 0.11101039787848314, 0.07856693767467979, 0.09061552531333252, 0.36880973810601525, 0.46497265216500605, 0.45826330469128385, 0.7069104306378015, 0.5676523920411536, -0.15648093675692665, -0.1335144103435365, -0.6593497185181189, -0.512020118997548, -0.38868279810271883, -0.15421482344828147, 0.08193335441891299, 0.11076613183670352, 0.2417995095282467, 0.23820327168673266, 0.2309967773266658, 0.027621361636758376, 0.033859416024672344, 0.016063639935912574, -0.013038641857071492, 0.041168920610309086, 0.044469688929523916, -0.12709442823003592, -0.4021872266577152, 0.25060323582192895, 0.1867906416678734, 0.2277782031446777, 0.13023425298981992, 0.21552821799654054, 0.35264304523933687, 0.1891823856911602, 0.9712412935580753, 0.5255268217646398, -0.32456442355727355, -0.442437313529363, -0.38175862940675714, -0.3507792624789549, -0.1367450758084356, -0.1386070632387528, -0.061412049863027736, -0.06156118107753998, 0.04456202255773502, 0.3516440171724168, 0.44155611782428744, 0.05581656337157455, 0.019671527071584444, -0.06101615390510294, 0.003888973097209772, -0.02144074844729858, 0.03397233105324804, -0.1011354685841911, -0.18371460644270282, 0.10514209862095103, 0.456408122764278, 0.07969281644745511, 0.2374965461310295, 0.2642288592228522, 0.29262854025345586, -0.13700707065114678, 0.6004014371733554, 0.7299427590931934, -0.126869495787448, 0.16137910278303974, 0.08598363433036112, 0.2888377850905873, -0.1897562440913889, -0.4511962811946321, 0.24814572043985733, 0.18690844004697596, 0.12015756659526615, 0.29082565129184407, 0.5444581222916557, 0.06849211765039159, -0.018149388344712223, -0.011213510514399287, 0.015973709178334253, -0.03723618273432295, 0.0032313569106558987, -0.10612789959134679, -0.11082311368191367, -0.022880677221771756, -0.12485315761418543, -0.014137880480659478, -0.0713232250902932, 0.48453240764759564, 0.41717234645506746, 0.07938634707742738, 0.29617611822307394, 0.8943004595531207, -0.03717401929250224, 0.05517707867964113, 0.04859372885469262, 0.21403076244509958, -0.20771358236968882, -0.15670911528426054, 0.35781125139873843, 0.2689458328438774, 0.14379123194792226, 0.31532292387982, 0.46325313214402836, 0.1111982690296236, -0.03813603962874634, -0.0019934611264777777, 0.004576025508430355, -0.046232255915503596, -0.08775631887492297, 0.043752026962695374, -0.008086297582435847, -0.05831926316486868, 0.0049464426681923475, -0.05452100577994633, -0.2599645216518069, -0.09026435765268451, -0.17605790445499542, 0.4571313859604558, 0.38275401618813304, 0.6863388890069937, -0.30251839970002997, -0.06658787868009673, 0.28546031528226345, 0.3629477796725643, 0.18352361034494458, -0.09232528751112999, -0.014143237914998823, -0.05549537684073077, 0.1958043152842039, 0.3192930930515366, 0.4197440625318353, 0.03006795263246352, 0.04906528818452246, 0.0029917228795773064, 0.020277640504983565, -0.03889062533514694, 0.02064193179744996, 0.06833323025547197, 0.00014210501846048803, 0.014593158563378459, 0.012229305442593876, -0.14484263469146977, 0.20381756870722648, -0.11235097513173455, 0.5874971507246385, 0.5617582093876439, 0.235330836129032, 0.6226609973602989, 0.4074253642850219, 0.5889254065190422, 0.5258848817154999, 0.29824622384304217, 0.16563881032284417, 0.13102219079098615, -0.1543586601277597, 0.1435970347890548, 0.37885065202993784, 0.30378655745181565, 0.17973885078759377, 0.01304378833109669, -0.07231116491502154, 0.0030783680819229586, -0.04925979763727447, 0.030903121530529085, 0.0012844655762248513, -0.07290309946378577, -0.12072265226553466, -0.057405814788716196, -0.19262364422509565, -0.08637448433591065, -0.11208715292793445, 0.4040214790291259, 0.9471005568678463, 0.8804599046873394, 0.43764371644915495, 0.5734959840202042, 0.3771611899523335, 0.39267448439800823, 0.48074439846655603, 0.41486458663301506, 0.26610345050722184, 0.251325765787635, 0.06508021168053277, 0.06586969406977829, 0.18417880903019934, 0.24398527169358905, 0.041263134494774575, -0.01058391811461438, 0.02833928926394879, 0.014498781481464917, 0.028778626176769042, -0.031122785070387696, 0.017344528224504042, 0.02816681214481822, -0.0220087137196832, 0.07093056323921551, 0.07478311466088132, 0.13049646635099718, 0.12778313158315957, 0.3812203342999919, 0.22138858278577198, 0.2733392045791312, -0.14709078073620507, -0.13032328289453515, -0.3265704557472962, -0.30796767729762947, -0.30724993514694837, -0.21217948686710394, 0.017072084749085135, 0.2801235227903759, -0.019827151826556033, 0.03869604062122465, 0.12466707387081684, 0.11877557616176222, -0.05471576972323049, 0.03446179984728445, -0.03612909976076713, 0.000672515741712925, 0.0254719001572624, 0.044962551825965785, 0.030289466557393955, 0.09129256256772368, 0.13525553366077653, -0.06986094228604356, -0.44573868033855024, -0.15655751696807815, 0.2739361376712025, 0.1489872563582878, -0.6191624841957776, -0.7539408663992595, -0.7568069367363881, -0.6460126509367305, -0.724433937322652, -0.9397292554689739, -0.9228556589745339, -0.49633133511234484, -0.1466136443514049, 0.13627994619430917, -0.05003063439615513, -0.10195747438385241, -0.026077500119587246, -0.10005290025572912, -0.04534518604926101, 0.03145208422681007, 0.011798201662052359, -0.04229761130315, -0.03870800395190172, 0.058601781971719814, -0.021058810059672677, -0.08728386544946305, 0.09369109450504302, 0.06883641625511364, -0.2923752702895323, -0.4858078744947754, -0.16702965751637439, -0.4450794882482027, -0.3106639508573823, -0.17902560345731947, -0.8849746359381648, -1.0461286555705387, -0.4530585742380882, -0.5439023765703426, -0.4196270090168806, -0.22274839378767194, -0.12862831833859403, 0.03863485862461609, 0.03931656662959789, -0.0007567778682274351, -0.11400481960341818, -0.08160099828371013, -0.006816024918365488, 0.06759988669551091, -0.05657109869617114, 0.03506957725697327, -0.010560525762851703, 0.0293229342165727, -0.060081486120050154, 0.01592632977742197, -0.0031583006008583233, -0.11449862404748225, -0.2248626282543997, -0.1665492649190076, -0.15364873117117891, -0.3608126064480088, -0.537301583041534, -0.484371875554672, -0.8177617457374665, -0.8306391206128373, -0.4748485075724665, -0.5155279925077677, -0.3543705953573003, -0.25348697281274746, -0.3082338502943718, -0.34746105989226944, -0.17059833305240357, -0.05188419888354903, -0.03700974197045204, 0.0016170008756587768, -0.04251460997459747, 0.011260892491820997, 0.029783768695623256, 0.014704422569855529, -0.024203793051602494, 0.046023648181030295, 0.007471410428250376, -0.01192078966071568, -0.009741798615827663, 0.03653611552349438, -0.08325004811630556, -0.1121813477251156, -0.08872373026726188, -0.24920524463846452, -0.23358511936848594, -0.24869097674109236, -0.4706195069644091, -0.413653687685161, -0.4027327681146294, -0.23233471688095908, -0.19381860410145707, -0.2676517581593911, -0.5000850905548143, -0.2461483113238813, -0.11053182214470643, 0.01632168175478674, -0.006340629037136638, 0.013033635196759524, 0.03838217223408032, -0.03549602612706438, -0.0005415354179338941, -0.03746789310442077, 0.06592906640948412, 0.014702162206487448, -0.07148898741582822, 0.07074528177591868, 0.009691122721658075, 0.012031510528843365, 0.002579765114564729, -0.022209978146643376, -0.013770618751266079, -0.06926790119526094, -0.1449677557057738, -0.06402369060314911, -0.0779304577009787, -0.09422448572776956, -0.025635396769641952, -0.001935982349434174, -0.0638651115223063, -0.028473151655607203, 0.019324899132406124, 0.0007387988586553474, -0.003872169377727799, -0.035222233005199804, -0.026813242445921016, -0.005516954302886499, 0.0015381557056755773, 0.04859299371452475, -0.02662245921477454, -0.0026807756099024296, 0.043210190278903625, 0.04085672136384527, -0.014839539482687736, -0.0004908988144792666, -0.0074901419659431576, 0.02138265767426358, 0.029618104141566293, 0.00517566485771539, -0.010972193432323498, 0.0015698493378938719, -0.0004980130510258073, -0.008672489944537391, 0.01571435009780611, 0.016221400796674716, -0.019060558213827784, -0.013820755608250575, -0.019752582635221547, 0.04261651955383183, -0.0015790467038016948, 0.04087997914813964, 0.05796196080939706, -0.033308976592720196, -0.009481154696639784, 0.008380021386583133, 0.014674345977090346, -0.014094452313280126, 0.00012514141641692717], [0.03453745519656451, -0.03204247706167652, 0.09654864657812287, -0.06748228572816517, -0.044732972362138, 0.023928633133993852, -0.038182199304834984, -0.020845058472257694, 0.03204041764441037, -0.01663648394019414, 0.0050825543986026634, -0.006594318508596639, -0.02284452710742176, 0.05526396264900513, 0.03346953495416169, -0.06821467416029982, -0.04043845953480639, 0.007269242273550954, -0.06220678147025515, 0.017465430419141212, -0.0005851288868066846, -0.000817724695816639, -0.02833554906415486, -0.025610854672713842, -0.07143288721053007, 0.04649319123702427, -0.09496023128267649, -0.01735176634918959, 0.023915844973924436, 0.03582490215618336, 0.011582431101084487, -0.009968186418254203, -0.004876803120844625, 0.05905251133813024, 0.036627370918453285, 0.006204627171346717, 0.024062367367703043, -0.019569536034007646, -0.03042402174452354, 0.024456142021386955, -0.011085285728525672, 0.058957077418552, 0.008597423340004741, 0.041487709633614055, -0.029809487613222815, 0.056433262855951384, 0.03005227764489374, -0.00921848837713128, 0.007559212231894601, 0.013690847357361046, -0.0003438457497031902, 0.037146246443301736, 0.06163439014266949, 0.005049272614073157, 0.011072316411229752, -0.05532449787915483, 0.033860912959095074, 0.024730131865206485, 0.04919193356750336, -0.03732887506587574, -0.05550859604683793, 0.0008803752897274747, 0.0011221001325721182, 0.02861001250124939, -0.024945444802186325, -0.04589446787847493, -0.09300525964191103, 0.004601649265398967, 0.05359402918096889, 0.10699796499587802, -0.00019121396611156824, 0.10775747512477724, 0.11103327513561946, 0.09639660033349991, 0.011499463328893667, 0.06632791127450699, 0.12796388018880803, 0.08106332357307854, 0.04914600022816349, 0.015307792147276966, -0.0361950926072688, -0.022952723906511804, 0.008380421218111524, 0.018850515577344282, 0.05062798466268496, 0.03490986095665301, 0.023398338016605336, 0.026991015615395898, -0.03977026492071738, -0.021605926283644623, -0.021868175880188266, 0.044994257470339694, -0.04341702718727037, -0.07697576347086724, 0.24035241092447202, 0.21816562056447486, 0.2739788193039947, 0.16663280231084826, 0.26244882438415046, 0.06854906249080155, 0.018936363255117387, 0.22417928448771418, 0.126847773819311, 0.11606498035081919, 0.1869134954313989, 0.01932549593211618, 0.06236936145635267, 0.05825366684160883, -0.03289296766030918, 0.055089498005239504, 0.02781595883250121, 0.014798062108127253, -0.033222455203266235, -0.07467938377910052, -0.06434969677130317, -0.027168079523531535, 0.005773292502187243, 0.02053026037359531, 0.04788196467969979, -0.012551376284893355, 0.06671586109887014, -0.015496980747127251, 0.07298879020581889, 0.06424325366494467, 0.09874385570124763, 0.20574548126754214, -0.3117117471891955, -0.3901978115483323, -0.3820537398802629, -0.2695953418992837, 0.10402941099610713, 0.13259894775620637, 0.07965094950704578, 0.07231029896412251, 0.02841590096165964, 0.00625013213249919, 0.027211256054862593, -0.008853993488959124, 0.04152476730123809, 0.04921072913954468, 0.014692240776700493, -0.022982549333288967, 0.012688515537083118, 0.06213125268565981, 0.12519497612264127, 0.275637108614738, 0.37516826987394436, 0.3573841891094047, 0.2440816916665494, 0.1630222493438718, -0.08772706309013938, -0.22608021019872732, 0.007346401330540468, -0.021916081064610186, -0.07790409443888911, 0.09520514920754637, -0.11453936429964054, -0.2132830890588938, 0.2891186579726872, 0.3023507404037322, -0.028728445752906756, 0.054479553957575436, 0.1454125863181896, 0.10624049929382012, 0.10677698261735502, 0.020874011357934142, -0.013121544394211388, -0.010927977061748416, -0.0017690338857904236, -0.02195572648616924, -0.03479911461332158, -0.04178428227627289, 0.0073559801443382165, 0.13294368202501905, 0.2718052262911174, 0.10440717830847773, 0.12122094087236698, 0.15543703190705277, -0.04281755242704385, 0.05947932231071916, 0.31690957606975895, 0.5047336522635598, 0.22382644562163373, -0.027573511029768755, -0.08378059870367803, -0.03142742624526332, 0.3331267609621656, 0.04771023492849526, 0.12601683294710475, 0.22874556206338742, 0.0016178863179583806, 0.05590677370955582, 0.043433389351913626, -0.0105320310300631, 0.013370045042944234, 0.02506838451839497, 0.01631448429046754, 0.05961258613583182, 0.017692387978280093, -0.032341026074068135, -0.04406740229888741, 0.16839704568295127, 0.04723268166414196, 0.19288343479511, -0.26450562230889885, -0.29198482060458325, -0.3691866962574195, -0.28817154974459125, 0.045365170355580506, 0.04065406449084936, -0.3493609761751097, -0.34732791440822286, -0.20500411370709998, 0.03545490682045771, 0.1086709716817633, -0.12260212177185056, -0.29833514234479785, -0.27536011527243887, -0.06280177206404758, 0.011626592395615601, -0.06559817124105445, -0.07640770318759743, -0.04106074950921878, 0.033427532888751825, 0.027782120424193653, -0.06972998392107511, -0.02206761295298035, -0.029328300585009598, 0.07567315298490562, -0.00805441340917808, -0.18400273848453147, -0.08208455885259824, -0.23106629076865176, -0.3991608757224522, -0.28594002095642307, -0.6285761657473794, -0.28517395572135684, -0.4350192135463465, -0.45893900741107096, -0.2670344453960888, -0.28420524418918497, -0.25062426242663466, -0.22205888419271824, -0.6032512118647911, -0.30596618914963153, -0.19298267611708178, -0.2929817686211805, -0.3985709412889587, -0.20550907833457996, -0.03225046180084942, -0.0044653444175010255, 0.015986181284754535, 0.03928711677408914, -0.08977696900466489, -0.03377267273503523, 0.01449846629919614, 0.11965824451649262, 0.02370602551690984, -0.16656429866108488, -0.17679214146360164, -0.2670845247613377, -0.49287334015180245, -0.8479194529761932, -0.7448026859836844, -0.07424527181026887, -0.10960656159270778, -0.004264869020736095, 0.04089383649114216, -0.3330094556670893, -0.03642136744966137, 0.05237651555606549, -0.1058529550541258, -0.13432082567861744, -0.1346590186576016, -0.40813088887425925, -0.25509548409214816, -0.22308545887827103, -0.051591520123452, -0.026917274281250406, 0.048332601153452975, -0.0295740994363235, -0.07024812878245551, 0.11513275219129536, 0.04585262367084415, 0.14635041338692414, 0.1274032904728398, -0.2981554376333626, -0.416330703612136, -0.5992193508177538, -0.37215847972146654, -0.16842773143590098, 0.14678796151421228, 0.1730717072701867, 0.5009403934742738, 0.2412807672249142, 0.014558480300817366, -0.2395244631565217, -0.1768518108608896, -0.023895895692084387, -0.0021325890757875527, -0.12979616100109292, -0.3332125846797165, -0.23958901344206113, -0.24894476429253304, -0.17783723776225938, 0.0170595869369558, -0.1155619974998222, -0.041054252474536736, -0.012233872815466734, 0.005704922812090831, 0.06330093208748432, 0.21035807022564607, 0.27740917381824637, 0.1931812087985697, -0.21260262287976364, -0.37489202842077984, -0.22339406871785625, -0.08255700694772033, 0.470086370581326, 0.9828745187327532, 0.9765987862451562, 0.2766377620499333, 0.05111044159616569, -0.2555200320301898, -0.5040396189393342, -0.25416348414595435, 0.14274470099990064, -0.24103512604817906, -0.3691257093137305, -0.3773165169587838, -0.459452406284549, -0.24308597572860707, -0.21833617836904165, -0.1126274501815091, -0.06592845371169148, 0.015210838051835656, -0.04387398095027427, 0.006961452600454501, -0.018777502460930965, 0.105787903583, 0.06946294259696957, 0.15209537670368445, -0.04964059278866412, -0.19378064450716947, 0.26703516371564817, 0.3087794701272886, 1.088696850397816, 1.0145048268478862, 0.5137733917263996, -0.32112201788943295, 0.057531137106878, 0.2832727810221325, 0.2911816524484793, -0.08396482417403404, 0.3758548056764342, -0.05238177780014446, -0.03699784423660436, -0.20730794654229281, -0.0884714362195663, -0.13012966252132105, -0.12576252292471582, -0.0649433725106799, 0.044115219146779176, 0.029450317027216955, 0.013444548503032035, 0.003729239911600995, 0.03808618745109708, 0.04191074426143924, 0.0083258717826688, 0.09529604613869991, 0.2112636156940159, 0.05941168605479194, 0.34676464368527915, 0.5343962357932623, 0.5908441576269822, 0.1658087074123296, -0.15890290065730459, -0.37648283235034186, -0.032693029593636014, -0.05293045186239056, 0.03962726273798312, 0.10605698635796723, 0.30606137039797976, 0.048695852809374246, 0.19438745586582434, 0.19837521489650176, 0.14996192737002648, 0.05216185260058033, 0.06611586844841363, -0.12481362353134702, -0.006769929608685913, -0.023062438176231933, -0.09412773070973597, 0.0013623985894786628, 0.022100215311833645, -0.05558888842537255, -0.025707813257627145, 0.11685048447592888, -0.2203317337034329, -0.1510134677351188, 0.17970008211797908, 0.2696209654199796, -0.17077274634069964, -0.33072473137776026, -0.06964198208916189, -0.43707097022615854, -0.2323522019894201, -0.523523684870331, -0.24312046576170931, -0.013983311383185596, -0.11503418866446555, 0.1948820986226677, 0.28323074806925114, 0.657356625195611, 0.5261503799265874, 0.39308118348710663, 0.10055856008873011, -0.1530634648303673, -0.023186824788321757, 0.01917105841347254, 0.009074121532399072, 0.004996381893043143, -0.053242922603618556, -0.14270972478836413, 0.02159797178984797, 0.06633741180411201, -0.21639187030805396, 0.24673875884055754, 0.14198021697482324, -0.11393648648373679, -0.4135501950781539, -0.5279545985487931, -0.5874338663214098, -0.9065769442490842, -0.6566326747536756, -0.3851456305815064, -0.07298242120402623, 0.10213874346445458, 0.134382229770469, 0.1569295387982661, 0.32042593427493765, 0.5696440571642387, 0.6392808888159851, 0.35065807165195867, 0.08523877415247288, -0.18820393292217258, -0.07204153664496203, -0.11062308126039816, 0.04528890369520736, 0.001228032806176834, 3.37004605096591e-05, -0.07170675607532574, 0.015258876699577026, -0.12666486073716104, -0.2308021837896864, 0.2406849353740939, 0.2645733781473777, 0.08843453864862486, 0.12469579530978443, -0.4220001310679695, -0.7003611857312536, -0.569031226166883, -0.2723561409498057, -0.13630445804221414, -0.2848700989816632, -0.1935839230866099, 0.19397151337927684, 0.34923048419562613, 0.38038025633089373, 0.28735708707854435, 0.4983539618536267, 0.1769090129611682, 0.031644733607774, -0.19253169364250114, -0.11564749012124603, -0.01499686794449186, -0.05159402074922787, -0.03233563805941659, -0.004440594258296829, -0.02507296835261654, 0.04805849585442947, -0.021385161223968073, -0.19036745347366418, 0.35423043960911005, 0.6565462829707521, 0.3009945755971212, 0.157362675567588, -0.18428706049735852, -0.3646226058230607, -0.17032558868224115, -0.201385002160071, -0.1658272294665676, -0.055465480455679284, 0.07843347949794661, 0.06546976907994913, 0.16914400520304743, 0.036985789845048, 0.2835486873911561, 0.3632161115554323, 0.11451052804794708, -0.09373769364028618, -0.18570534550635892, -0.06985422316885696, -0.003956118221441694, -0.003462041969044587, 0.04033232141707107, 0.0014447650633988684, -0.09603797920018349, -0.020782688771616112, 0.006079093463488909, -0.11040157182497447, 0.2494041847950723, 0.8161051890120395, 0.6030048442566789, 0.3109881779306991, 0.4602422926334041, 0.07267513058144089, 0.3002595759906879, -0.12135914160453631, -0.11028631042617773, 0.137762913471901, 0.18813054196115842, 0.04937247779895905, -0.10522957850864043, -0.08865293448485918, 0.4060054489428657, 0.34088330234721925, 0.0916450008787131, -0.11674424873101022, -0.04075697356666132, -0.008503678511150642, -0.02107983700589059, 0.030709370002054395, 0.001193167055329228, -0.09143065364637219, 0.02799370584928751, -0.20100374260048381, -0.20709461423727862, -0.3111125827042648, -0.1757082152701512, 0.2722380562328051, 0.282199593881942, 0.2589385814743906, 0.4359281345107261, 0.6899782402475835, 0.33136994837335787, 0.02663414046165822, -0.22856664362773188, 0.5041067196918945, 0.41616053028469685, 0.15657756162166206, -0.017125566097717353, 0.03342116939885889, 0.4208618291171047, 0.1836664648012197, -0.16748078900920815, -0.1604264314831411, -0.1078486828384765, -0.016471686025538668, -0.04554454846837839, -0.03007710034919673, 0.03576016351860488, -0.11579473036517175, -0.009553094030587763, -0.23103670764464404, -0.49054049824625945, -0.464920186345626, -0.23752501329027836, -0.1758667900817238, 0.06030293020301396, -0.0478663834689461, 0.32386680311423355, 0.49780798175872537, 0.3044321795639805, 0.31903827989161976, 0.008102211927415687, 0.13831786222972833, -0.21594966074548022, 0.11421755195384438, 0.13501250376446275, 0.16914124816132822, 0.284606527035689, -0.025816612913886434, -0.1926396565467932, 0.01935125763865162, -0.11741132803070013, -0.07560605961959067, 0.005204951184104553, 0.007718020769893566, -0.01981523328137208, -0.046192800995791275, -0.008094697000572339, -0.3092108282763364, -0.3169363925102558, -0.4519376914014078, -0.26839833894394843, -0.06673153056138842, -0.39032573987579, -0.47503225576735775, -0.10768927874258624, 0.0016002139491096217, -0.39562155440213187, -0.34417883291513446, -0.41385970385152465, -0.14077319927603316, -0.27419396212690783, 0.15513423418222597, -0.06292090518895066, -0.06882229592377449, -0.36899424442452733, -0.37023947192978307, -0.26877333180436785, -0.15840944598289342, -0.007007808979927701, 0.02289833419675705, -0.01384069053368204, -0.004015226757401108, -0.051472256444665285, 0.0013697551776650678, 0.02202041704495386, -0.06763864407624252, -0.24292460020211976, -0.19350945285914545, -0.11581371997295335, -0.08926287176508094, -0.04724318997132615, -0.4333444350356617, -0.359928092285575, -0.18061615899686023, -0.18578483436385534, -0.4219198422623272, 0.05266461024045143, 0.11573505008746997, -0.012704979193371662, -0.17422782461778788, -0.3014877151565891, -0.2859946994740189, -0.532908689850153, -0.36321563927082745, -0.11660264818194906, -0.04108410876414046, -0.045196200940526815, 0.012053811230755527, -0.004980878008047569, 0.08057332198273362, -0.010918058666006179, 0.0014972746438838126, -0.004070134748504983, -0.034033825319836494, -0.02264139549124336, 0.015864121947679673, 0.12351746542844595, 0.003354569705363906, 0.23944173177449596, 0.01685955476299502, 0.21010098060129978, -0.1861073664859723, -0.056683412139508824, -0.030680504841289005, 0.07811756645239844, -0.0227000878251504, -0.16354748549928969, -0.21168143086160415, -0.18657235476411763, -0.32497586898091385, -0.45875014442347173, -0.3709373579249362, -0.22757972872164256, -0.06082975948164016, -0.03423433405667649, 0.04784467908887663, -0.023809940381907365, 0.012548730176444188, -0.01213492932171932, 0.042008738829723655, 0.006568195440906444, 0.06560212104575917, 0.0878014936290577, 0.22119248191220484, 0.09397826936917311, 0.04341636677423514, 0.08887261603870042, 0.04416894475171571, 0.134646313580687, 0.024187925396171574, 0.3235059350100644, 0.378622828243413, 0.18896562687022236, 0.16669407826775298, 0.021911931174094332, -0.11359480473935532, -0.05407570913047124, -0.1481304064695511, -0.1986343534184139, -0.23983213662652164, -0.12185015176164517, 0.005700949237129433, -0.017315397373679927, 0.01174841262354623, 0.014683784493314624, -0.012134374740419377, -0.029568850287851067, 0.02649537175060614, -0.04724187550381909, -0.07960720740194607, 0.033320269575310875, 0.05222784459801038, 0.1556662773419733, 0.15305445836642748, 0.09613900855742116, 0.2065934561469446, 0.25579798481184246, 0.2248443477082789, 0.35198894558181665, 0.05431427270699351, -0.14843161219206655, -0.1497935679681026, -0.1073873652947058, -0.10908127857806138, -0.0007886952744150219, -0.07810224979683901, -0.16890702028563104, 0.005298490848239018, 0.024705115667625892, -0.01952319633929938, -0.03717919145112013, 0.04264129167415484, 0.03151196851826121, 0.009977774703641687, 0.003069498912176704, 0.003693437005324097, 0.03791044333575516, 0.020478299551393176, 0.018061358823838317, -0.0031912196960521837, -0.009325543351735958, 0.04797444606440487, 0.06565274755044141, -0.011774790715035151, 0.027841154156551598, 0.029097833028087845, -0.055582655091678056, -0.10849015710013779, -0.09458445376720008, -0.0021531287787076954, -0.12258205056143377, -0.005026350653471356, 0.03623166775930513, -0.03078633238471455, 0.0038157467691720963, 0.03129234055040548, -0.01067369390492205, -0.03970148288141586, 0.0035384627498318507, -0.009889507628475454, 0.0058320282244584895, -0.021727185314427994, -0.01111095488554553, 0.03687512258430867, 0.03443669944730292, 0.017294932330765744, -0.020531838836488656, -0.04230211288338489, -0.015309603478502508, -0.03590043797099577, 0.02993257551186226, -0.029346258488857923, -0.0015335633624343112, -0.012817572070502206, -0.003977049648995724, 0.022630297845273005, -0.1360208947373515, 0.08159588009645442, 0.04153700175836933, 0.0024953446821363496, 0.026711286001795048, 0.04161560533068924, 0.045906270263884226, 0.04519324898769131, 0.047082936992933005, -0.015556583433218536, -0.04782109635512196, -0.006187524784986965, -0.035650154238901874], [-0.004513760744550381, -0.012630632247525685, 0.0623324773339564, -0.044406528216210626, -0.02296477982373878, -0.011290679596712613, 0.06488068208137596, -0.02463547390478718, 0.004371721692605399, 0.017859262543844498, -0.020054260323706635, 0.05206475216186428, 0.04786419798651941, 0.038540405326531614, -0.04661677236580515, -0.01846359529392896, 0.015427284510539969, -0.029948041668626933, -0.04414687498295401, 0.0015135593479489778, 0.038236395171885616, 0.01967609758711197, 0.04960104892185073, 0.026316965041296714, -0.021234594863665163, 0.00010270922176213692, 0.01819604572746457, -0.05486920892049172, -0.01397399576601737, 0.019818441631399397, -0.043432012133545014, -0.0007347629804720957, 0.016236020412353763, 0.025320123514797274, 0.027984151604816064, -0.033562144595643634, 0.022236843371394276, -0.02004912872907107, 0.02169207363519011, 0.0805938602588492, -0.03772920071261627, 0.015129822205344918, 0.06408315097495072, 0.04730755557152018, -0.05084371539051099, -0.03496819538429297, -0.008076879641388698, 0.04895619842084956, 0.03509235984434686, 0.01782184605767528, -0.03792031574638173, -0.03333119152623409, 0.03387495404178815, -0.01883084950654333, -0.01629043213419665, 0.053203595258392994, -0.015438057641216094, 0.007902255178113068, 0.007103519914186635, -0.044359671570292025, -0.011478136239896125, -0.0037479565387017466, -0.04059682748949126, 0.05703016531897903, 0.051163517790020596, -0.017868841995487383, -0.0007713332395002867, -0.020940045697703608, 0.009909114725071465, -0.1505153516141711, -0.07210164515936511, -0.09072995278366579, -0.03026468726120075, -0.09748689243640438, 0.024521999113257267, -0.020329052938483354, 0.05132056152464092, 0.041123724487961436, 0.00025734302214879256, 0.06404431488927563, -0.03218512103797655, 0.010854036779720936, 0.03882888955489627, -0.037875995531528615, 0.03933761138328035, 0.01419756960004533, 0.057193762664189754, -0.05804323868839456, -0.02475726268038851, -0.026208402195763966, -0.036222055011214865, -0.029723914577218985, -0.0222485115275426, 0.06874447103254182, -0.004939699680899688, -0.1559565641595043, -0.039358499539911704, 0.018419433093021634, -0.14023201721689604, -0.04088671026696788, -0.0985999478499976, 0.036339781510541486, 0.15715242869107188, 0.05413659609581194, -0.09161338002766699, -0.0027352514842465393, -0.06434238868361244, -0.03943315986005666, -0.07421203124215353, -0.0318470639761653, -0.004693184883896414, -0.010793630805186269, 0.020332964755237215, -0.0056746965907393645, 0.012627678779660508, 0.01263514879574556, -0.056348220859362426, -0.14328430312821452, -0.10596500172736567, -0.07235161878412948, -0.30389863365184505, -0.20588074421220479, -0.1866105361743438, -0.2439021897843552, -0.10659160194774393, -0.13498429342186521, 0.1637246448132847, 0.02627977120766947, 0.22362585806516302, -0.057067656903049636, -0.06598455785954113, 0.0720041517580209, 0.14654000292119598, 0.012929440976187761, -0.026719493397145355, 0.07962400655888015, -0.029937709823828804, 0.0010956479899487733, 0.034911503729072556, 0.013923697447618776, 0.008298644042649388, 0.02238237423576639, -0.0046313656290231965, 0.003496862399217295, -0.09206675254473184, -0.15289821189336594, -0.15315930215154747, -0.06852442428804796, 0.07998695620529438, 0.2337904748760818, -0.15238033244013327, 0.1855552404292184, -0.03197961130846676, -0.1738389610672367, 0.42572628721252675, -0.05957646648050567, 0.21373588263553164, 0.7249892791674935, 0.6536474729280639, 0.4766786617462172, 0.5526186395634044, 0.329606487623898, 0.0575251581995978, -0.07714891584204389, 0.06329763713455848, 0.10050509646424519, 0.025868016944187375, -0.019481074873093276, 0.056697028295552857, 0.011876589071181812, 0.04403852617729672, -0.008953949015675854, -0.18365673031775273, -0.19917333450362168, -0.1476598404926798, 0.1431067108646102, 0.28731900641562874, 0.15023711140449916, 0.08309607379658515, 0.07511311764916521, 0.2591217069229309, 0.36060792664903424, 0.1780668573404211, -0.16411638335531326, -0.5852889587533723, 0.10699537557893414, 0.16843018878955468, 0.6358174679859735, 0.27084245847367955, 0.33929412115268803, 0.32158699316699235, 0.27072423474966617, 0.25338030501666725, 0.19223248952198788, 0.03868945894065736, -0.003687879866171354, 0.04873629520187644, 0.014660741417823905, 0.011813758059366818, -0.030127061647366286, -0.23188774874802923, -0.20214639826684885, 0.08043561734097701, 0.05048286718687149, 0.1203054358283482, 0.15884708231568603, 0.48814950717651806, 0.16409006813213664, 0.35103186192338065, -0.04476516652511808, -0.052384267738418394, -0.30882867960796057, 0.10412704914651225, 0.45428327089622245, 0.22768593920372596, 0.0018996784505501383, 0.12718768648302844, 0.602197213360115, 0.1094188796204402, 0.2497811877125019, 0.5051044970763385, 0.19413060672230525, 0.06513003852073863, -0.02424774033695295, 0.011491800059331302, -0.028635265485631535, 0.012395019019595551, -0.05380828148264207, -0.2487480995299017, -0.1883626749673211, -0.030646394175653423, -0.18688202688417693, -0.11076084461364302, 0.3591347787750813, 0.31982686680817257, 0.6903185808744587, 0.5672736743704406, 0.3201735212104226, -0.36474221642300975, -0.49104467579868144, 0.11342442083329499, 0.371474347261926, 0.1050574959501595, 0.24566135779688303, 0.13627332146730087, 0.056052886589424165, 0.19405202538722072, 0.5050800074950457, 0.47153358625482655, 0.22827478583775815, 0.05503031466735876, -0.047871126598852884, 0.031154114444743815, -0.010125733133388784, 0.002881061915019131, -0.052302058245884915, -0.06001150651462826, -0.02113420099379471, -0.4655752777815795, -0.2941156550512889, 0.3875954953316767, 0.3266225713327462, 0.36999639412443075, 0.798848387151772, 0.41527654327171043, 0.027806991813194577, -0.7607277771368381, -0.8653959480627574, -0.21815873647201334, -0.1364202967963157, -0.5482404761868777, -0.36175894564390976, -0.7392699202913381, -0.12896598055044967, 0.2723983020545217, 0.5108058415605268, 0.45157381201475655, 0.32073522099275864, 0.06393810246217375, -0.09519692998177402, 0.02258241069664494, -0.019670047175667383, -0.014095686614104439, -0.04006723224804517, 0.08607208856604961, 0.12831290705338982, -0.20493904356653503, -0.06033026559651757, 0.25427339453641057, 0.13741458569709813, 0.8343539295699047, 0.7775073377421196, 0.7170344881106986, -0.07545886454426881, -0.7580175795422393, -1.3093125267112204, -1.0556144436309158, -0.8439948749901023, -0.09477041776938105, -0.2855331045953371, -0.4729662894862189, 0.11981434612446337, 0.3696844149155995, 0.6640232927025456, 0.5358745053520434, 0.19987565616587474, 0.08873759171937412, 0.013332637966172758, -0.02776477126337144, -0.018652010741018847, 0.0023428823832202152, -0.04969871338315358, 0.1511611337330709, 0.2105446524162039, 0.31655010116615406, 0.3967279055492685, 0.10780286701452946, 0.027626181355666826, -0.20039768740547703, 0.40180240426686414, 0.7322978987847616, 0.6061745231987877, -0.4506821182640961, -0.9458980177856554, -0.8962258919403834, -0.8538778569632269, -0.4648229943899684, -0.1996360725664989, -0.3218792659128286, -0.1451550983029776, 0.16279553016191733, 0.36733077715133855, 0.41442008056153223, 0.22340102024974923, 0.03942787221825912, 0.05352268731218265, 0.058359459874368906, -0.0164706450761349, -0.07201469144300401, 0.020339455562500677, -0.04753324699323767, -0.004420315446785335, 0.5085789909370517, 0.751218374499061, 0.23701745312662775, 0.40925332640290357, -0.010625624452211248, 0.4908389885860758, 0.2576322285626334, 0.6208250058845903, -0.3308867388740853, -0.8450599478689887, -0.8604992898095036, -0.9843929498186788, -0.7378167975788894, 0.03429771650514479, -0.1721652940450894, -0.1713109922442617, -0.4050710084955965, 0.009086490929793072, 0.2299406152595403, 0.15193572900084887, -0.01558941244532712, 0.008513923459164012, -0.003138210757820499, -0.020951050627793517, 0.04378939354001113, 0.035845623351766796, -0.24518205610961333, -0.03559666201442194, 0.23660153404467982, 0.07195261316222211, 0.09755862622654271, 0.3118606810870033, 0.4443291942823303, 0.5303190509693612, 0.5284597592112696, 0.5063859089253796, -0.3595182937284229, -0.4245380047364815, -0.8297400974634395, -0.7017270995580942, -0.6522786639235153, -0.4069926767929302, -0.5992557047431114, -0.6294995467849264, -0.6158865067585734, -0.0956384780846928, 0.13033148579014908, 0.053478120123386486, 0.05902564452082554, 0.056009270323576096, -0.029318567609389973, -0.08748919910369804, -0.0402755220387771, -0.03475505471320534, -0.2548394708722707, -0.1355341356463961, 0.13457954458364915, -0.27706432828278865, -0.2970740381254338, -0.014147215479900896, -0.13861031455396688, 0.22934442567693497, 0.1720608911379394, 0.043333712014581784, -0.5634842908548175, -0.5868888301545756, -0.8298133344636061, -0.441552543650482, -0.2997863367243123, -0.7635196515317433, -0.7797230292181542, -0.7444495038334189, -0.6203934209443135, -0.06450398647564329, 0.20622228180793734, 0.14481220225824734, 0.1027934503459532, -0.003171675702876148, -0.024086743659219458, 0.006860551648215697, -0.011211037531475714, -0.056393175528077474, -0.1614534440919485, -0.1912352505143504, -0.11358475081238127, 0.00472471978775087, -0.1341577838388789, 0.13701070978045762, 0.05512168692546629, 0.6382495317653223, 0.7191117959383482, 0.20659233321251147, -0.542581965562378, -1.367587468551919, -0.96400137963209, -0.35210263858270824, -0.19207085450745082, -0.5276281565512104, -0.6441281582425044, -0.5171436757609363, -0.48152277129646814, 0.19034352937431487, 0.3827512275184732, 0.1656712365427522, 0.11228758109682427, -0.02739522544708682, -0.018834505368999582, -0.07576347095475038, -0.11818878296019802, -0.0763721152815067, -0.13770257804259328, -0.20754907059556157, -0.0944175824817109, 0.08848810709014561, 0.2459062950081253, -0.03994282283482876, 0.06445242921175169, 0.2304420955404752, 0.8094096191047068, 0.4499990457994507, -0.5221722069134682, -0.44981335820501084, -0.22071766774718024, -0.35785940175934117, -0.7285156606796211, -0.2920817357825757, -0.2808429895417818, -0.18688443623331233, -0.04237896213616411, 0.32553293114285947, 0.2025145938173621, 0.17822953022422058, 0.16460784917352042, -0.01596410924706496, -0.0349439223662684, -0.016860424622504935, -0.056522923580333666, -0.034682497596065995, -0.12996897971525417, -0.021309779933389582, 0.048128900112153795, -0.2700973416709205, 0.03664825420057257, 0.06749219404323686, 0.08746742090456794, 0.3639626430699726, 1.0457627107426266, 0.27633429329828474, -0.5277117262422288, -0.5573266474568184, -0.16351427852997913, -1.0078532933960087, -0.8050089599696535, -0.251536698635509, 0.03291060144104039, 0.029839663558127786, 0.054835723378497105, 0.13438715356208306, 0.15009957589668016, -0.03627290933014072, -0.02056238360228348, 0.011511551621385917, -0.019451792751087528, -0.0383896881561966, -0.01665650963769805, -0.11055226257094747, -0.11038813474432595, 0.025420897185815187, 0.14374174001564677, -0.2968335557107343, -0.39312946144654193, -0.1418508161703592, 0.06216044319384517, 0.6365949749520892, 0.9873388622641476, -0.08097273757424431, -0.8603050369097601, -0.4265432356629665, -0.5916767410407682, -0.9090237112744268, -0.615038048590913, -0.19337416070760832, 0.05380567655679526, 0.07171366338223217, -0.10251904084320233, 0.19424165565804782, 0.28128334570402735, 0.07989602577835338, -0.02293519132463735, 0.02667852417445958, -0.023285344766678456, 0.01233775652563677, -0.018058395674710757, -0.07159194003574597, -0.2147086466340678, -0.12241356227652567, 0.09018469344682338, -0.36179938767567876, -0.1887573097521338, -0.13284384995540474, 0.29566504608449606, 0.8992043248207989, 0.5461291810197039, -0.23615663088349062, -0.9447601787152683, -0.38558894052198467, -0.6155171290361028, -0.4220964350418174, -0.11921550688750392, 0.01884540480238268, -0.08310244354694948, 0.008381999853196202, 0.2919517688544417, 0.40149349947467294, 0.11572314437904099, 0.024320498375263868, 0.0005987552965801356, -0.009920487603417034, -0.06774277839074179, 0.013909863066298574, -0.028763508019766616, 0.013561222600432833, -0.12079140970232201, 0.050825140004276195, 0.06076266057847887, -0.13880667096976154, 0.40735977911230836, 0.47625837598216325, 0.68898969152397, 0.8316248877057817, 0.6552789896886763, 0.15805645892375988, -0.6221276055960111, -0.09055156071552496, -0.6677864840881432, -0.6291718196664431, 0.18260793327240696, -0.166696327818106, -0.11178106577838436, 0.22249465493287376, 0.5333408637477971, 0.20791619396637398, -0.0953278513341034, 0.05614173254587865, -0.004451618541958906, -0.03876508253641714, -0.045805872705829295, 0.026751427779057216, -0.0023231026805139005, -0.022938892047370218, -0.023685303911762778, 0.05945809368224527, -0.061962205027843754, -0.14209785435243563, 0.3063488317818139, 0.5759535527763946, 0.21184739527450067, 0.6564633304375069, 0.6007439659120263, 0.5427152978171704, 0.21747289977399134, 0.3839899797109809, 0.17854838732820658, 0.3897976588616606, 0.21679887827166058, 0.07337568020343756, -0.006271554280237286, 0.2641078816731897, 0.4789243190076843, 0.19247422017076984, -0.06437003061022935, 0.04934387619145967, 0.03720346251425271, 0.02937319921490507, -0.020413892330411916, -0.032034862604845164, -0.0076260063832883015, 0.022724425693460205, 0.016596636315895644, 0.16351753127069882, -0.021547453034955057, 0.06857227274769921, 0.13057280843352706, 0.31595215756409967, -0.017036795400415687, 0.3256584563036017, 0.5061754763632276, 0.3122149882503445, 0.6730266541612023, 0.28270923422149935, 0.25906523149313454, 0.22403826366932303, 0.40919698740730953, 0.2235268274275108, 0.021765404984182328, 0.2027703945940369, 0.31513825697813325, 0.13473743874977018, -0.045274818172037684, 0.016218215859275256, -0.02043353479874356, -0.03174459562433701, 0.03142837852127765, 0.026129656484967616, -0.013153806858778743, -0.037600895433694534, -0.016232594507308608, 0.0055646800010635405, -0.03344352493167357, -0.11878513878778717, 0.062366646520866396, -0.17699704483685533, 0.04316956557909787, 0.4047473318589429, 0.690681720301815, 0.6832463225351476, 0.6916932564114298, 0.22678763078996322, 0.7764804655222068, 0.2360323049917254, 0.15653203264490118, 0.13331714183454002, 0.13499328022722662, -0.03539356548989153, 0.21282588478066602, 0.1647231107135246, -0.009173424403697004, 0.07956700669747087, 0.0014605783850030905, 0.03199241467548174, 0.061093459081476204, -0.013609769494801291, -0.030467635549681075, 0.022260497185101053, -0.1578921038059117, -0.35216882101868985, -0.1141704842407114, -0.2340247442721327, -0.07530496531893442, 0.14962286811024014, 0.1755972548133402, 0.09734340890604787, 0.6054166427085342, 0.5443379346853084, 0.45683767891931226, 0.6576789803987771, 0.5289430433791185, 0.24001449756500007, 0.43508708548400943, 0.42564981847121436, 0.07719143686471919, -0.16226205405091346, 0.11670021308008507, 0.05300957707466155, 0.028152943818162943, 0.06743879695410626, -0.05398714714355805, -0.005673576271285195, 0.018028953642420395, -0.0005443393997429046, -0.007820073161150794, -0.1088379468520379, -0.11070491163243504, -0.2507706116538055, -0.16126583662098254, -0.2948801165750958, -0.36784654347251394, -0.3139473023342075, -0.23697522276298044, -0.1509089137448867, 0.10325356294298547, 0.3370625506494228, 0.1423062698014808, 0.6539673905731442, 0.3279657122235727, 0.12320325840705416, 0.04558729744939939, 0.0071443833317286305, 0.021420321528958768, -0.044604268895401956, 0.04420658523670993, 0.06477263004660487, 0.04089146265644198, 0.008327258586899502, 0.022769682658708275, -0.0039716765474410946, -0.017467740027886126, 0.013140675042995834, 0.0600138887619699, -0.02078179634277821, -0.017156984007575128, -0.06437761232912598, -0.040455802218339394, -0.11850618633166105, -0.0438360322512666, -0.1056438391985558, -0.03889637855079656, 0.06862666017200487, 0.10612245984740287, -0.0710396414753671, -0.13929536659204803, 0.02805820755066744, 0.04008794139011083, -0.11884393357418653, -0.11767688412350627, 0.0609779632286654, -0.03762610160503044, -0.11932000177406721, -0.022413050307757462, -0.016791593575122027, -0.016267999379423314, 0.03348220963346627, -0.05415095695966699, -0.007128248940584085, 0.012808795078398624, 0.05904088933971337, 0.01343058278623716, 0.046594578578906184, 0.017556817618040493, -0.060130445527962796, -0.0376714684877116, -0.012733444296182518, 0.045740497769142366, -0.042459157158926016, -0.03292983542836087, 0.020378750246826786, -0.019566680855391677, -0.04192842427562689, -0.002965791853162235, 0.00045755523071331597, 0.0025831783888968706, -0.00838767031087448, 0.001818870233738917, -0.06125659460987205, 0.003230966813509068, -0.038245234366175905, -0.06302504168547755, -0.031597447435117984, 0.006908952216973961, 0.09512096426759147, -0.030226629471894077, 0.03667220967238514], [-0.0041352591559783245, 0.04727679970005997, -0.038382650740579144, -0.00896951607720719, -0.05399697543607883, -0.022262058415879825, -0.03347785477390134, -0.01875218865003933, 0.008122761728651035, 0.06119706188572471, -0.03669251927074139, -0.05274420122582281, 0.0017329638751097031, 0.024273396904639175, -0.004639137670674018, 0.008965384263667352, -0.0011802542042664947, -0.0015907300095970237, -0.014596793374357599, 0.024303716926805868, -0.026652302570075493, -0.0025585017299778567, -0.012138895718383355, 0.026094008137931893, -0.020264274117908897, -0.04511940949575393, -0.025523684100277947, -0.016671948502140613, -0.029893974553192884, 0.013202084726317535, 0.03302557603869062, 0.04174291697287883, -0.028420789444137545, 0.007085603507778167, 0.014015686352714905, 0.016696141075277223, 0.05605788915298678, 0.033285187920882704, -0.0030491397610429884, -0.022079262731571004, 0.049738672087303516, -0.01649805318410015, 0.0023617246062550483, -0.008054317258953825, 0.06452561022729754, 0.04039827526142625, 0.0374097599246258, -0.0027387089741761845, -0.015141934700336859, 0.02918694292601921, -0.03220236135876563, 0.030665391456262188, 0.0012933769973404537, -0.005280699658438363, 0.03419365398382623, -0.02708070504615271, -0.006210883737173014, 0.03510828378305409, 0.029935607286124804, -0.06131943761240788, 0.02450308485694149, -0.022511435400278276, 0.007482460533856484, -0.006419544944243105, -0.04287472867439591, 0.042579069628183225, 0.004984550206097104, -0.07436759186828151, -0.03036033331147177, -0.041536846810650396, -0.06203838713864753, -0.008182887163965138, -0.15195985997460176, -0.101524916781903, -0.062042994334304394, -0.06898670571701485, -0.009036273438288358, -0.018947561132978602, 0.019844868899796062, 0.05729011352635053, 0.02338781416043452, -0.0010757215835388325, -0.0268863931232086, 0.00035869785928050704, -0.031827637996347365, 0.0034185321090210007, 0.026003024138323724, -0.009649650880002433, 0.039976578549372456, -0.002329919871316632, -0.03514692867875969, 0.008288992855852224, -0.03658189384894406, 0.10581115965807664, 0.020135707297650372, -0.10435713382709524, -0.17120336916421502, -0.13522868648480546, -0.052139096170351, -0.20900266952202873, -0.4141832657461487, -0.40809539463293387, -0.38380966862274357, -0.24415791271417556, -0.08518729896189702, -0.026468052606414338, 0.03352480360915417, -0.012633689263422293, 0.008570747637482612, 0.004226347322005785, 0.031680661203890556, -0.02605938530669105, -0.015042345807617175, 0.031518491483413465, 0.04979947198512654, -0.031064380532173086, -0.029216214512185267, 0.038381812156894, 0.06372061014716929, 0.03422494105396338, 0.001193021657988289, -0.045080441457271775, -0.013179394502653687, 0.07499662888633717, 0.1600040681408162, 0.20553683267508444, 0.16606681942144597, 0.040949727922065055, -0.22914453142631097, -0.2718318400346158, -0.13545710447592485, -0.288577363358899, -0.22800216033288143, -0.157796153720304, -0.14753053421659326, 0.010726060293298765, -0.06046650789326476, -0.05892227514365828, 0.023096369790224065, 0.022484091977545893, -0.024791302837275844, -0.01931352755327679, 0.04975176600851119, 0.06959556436847729, 0.02669619813493922, 0.031735393626051094, 0.19270000582539065, 0.19566426944754614, 0.13475759337885374, 0.35755334693833113, 0.30573228518673123, 0.5341171556490378, 0.4573298631044445, 0.619049320238741, 0.3571581024928516, -0.37818121866491994, -0.4339351004534204, 0.005016235572261634, 0.3700670185032056, 0.12680107672551444, 0.19859811285703802, 0.04274944659506373, -0.27584541712692995, -0.29994928954237776, -0.04593478660241546, 0.06213092076757336, -0.019607345667007094, 0.024374933794337875, -0.001272210940123331, -0.004909062226031951, 0.039810715277723764, -0.042230147027252314, 0.02602686890488793, 0.014944182333356518, 0.21329455682099782, 0.27736726898639147, 0.3006046160634646, 0.6770741427486319, 0.7028854308368703, 0.5888021746203177, 0.5080835850066185, 0.5070231071893581, 0.9940176705063126, 1.0734206530891464, 0.82903955983304, 1.047846572346137, 0.8547866808628811, 0.6441035068405222, 0.3463944368901529, 0.26602280336836553, -0.11999897646692767, -0.0221654887094057, 0.07660386663044906, 0.11601925394568874, -0.006867476146184752, 0.030243673136949506, 0.024419014950613317, 0.0058407901085034564, 0.04154571610113984, 0.02927095242661283, -0.03533420095234155, -0.09203979140722238, 0.17680531311651076, 0.13207611803989774, 0.5711159041581918, 0.41782995515168714, 0.2714930571739081, -0.06664648936814965, 0.1850806568510944, 0.47784219823925095, 0.7064018971199333, 1.2920789620756294, 1.2948216296100241, 0.9587691997893744, 1.0911847221339455, 0.5582015850285651, 0.38559501555685155, 0.3887180441866402, 0.2650476710054915, -0.12779373511503597, -0.16083306537433056, -0.0016266420213885246, 0.008211601922086609, 0.03389675678733045, 0.01166002472955463, 0.005317455937205131, 0.046716940827028396, 0.08719610801130777, -0.08669982151247214, -0.24539953231287492, 0.3084082438144084, 0.3444540557767042, 0.7524982290970952, 0.39494441589671797, -0.08842219452192489, 0.3455881378027018, 0.5194213355058862, 0.40279735961053803, 0.7266354880855947, 0.8865523436843458, 1.1474651751462797, 0.5960559454440052, 0.5692243984031644, 0.48738828590104893, 0.23317685139237643, 0.2796436838947702, 0.19085511116974097, -0.11246821856470818, -0.17175660959108988, -0.08198018485033047, 0.005628582535863989, -0.02893816638461486, -0.0006378061799181648, -0.012137945067619874, -0.026905572449396675, 0.08764503061529502, -0.11110982808448146, -0.15938509461986577, 0.3742127575735347, 0.3635853646759446, 0.4664117285107297, 0.5242368011414215, 0.7522121629093658, 0.7621390833945675, 0.5927285236971633, 0.2458649209534832, 0.1373743982814386, 0.0704130743994894, -0.2570447376798779, -0.033669774294345346, 0.27955671623164363, 0.38685275761296684, 0.01126079725902694, -0.20671757561295206, 0.06066556592208118, 0.07416807408017735, 0.05920860705778929, 0.01849261909107768, 0.03278773383602877, -0.004654483246619322, 0.03886920502469378, -0.03828440842628857, 0.06427922505967082, 0.1411901135749566, 0.046683935570921604, 0.10458179980402578, 0.524034055149992, 0.39011026291798184, 0.5472272738714186, 0.49682522683530583, 0.4101350796798661, 0.2356355626761366, -0.23008721050274425, -0.4560621318593091, -0.7893264774739674, -1.123407125371279, -0.8066626682500392, -0.4162204244904215, 0.31888275220143014, 0.187119676863451, 0.019880433111889143, 0.2725107861356731, 0.08441308079534567, 0.29790219065982576, 0.16008790354285193, -0.020598284774248937, -0.007277464296066228, 0.07424911963149734, -0.061355678132979874, 0.015652047413034772, 0.09897085860113887, 0.04133268750830394, 0.10646856633120451, 0.06164816745311064, 0.5554531117903466, 0.4614472248570919, 0.0668374691167251, -0.41183525452629616, 0.09200425495667482, 0.21711125345198848, -0.3586733831045897, -0.45398459166972793, -0.5751451701419718, -0.6793420971858685, -0.7290394713933872, 0.21385697396024647, 0.21468261727670337, 0.1351054399607972, 0.22448258886355998, 0.2613209695474815, 0.17426328916037656, 0.3066469791428719, 0.1972942206574551, 0.09847248869359125, -0.03281742812141469, -0.0007188510425800983, -0.043577330211640786, 0.005027889633063935, -0.018066445576420613, 0.060292909033522774, 0.15663628162713214, 0.1714032902506464, 0.1461100285617232, -0.031650776417654215, -0.3277801107859937, -0.7577481631703155, -0.5704098151372612, -0.41505751029823645, -1.2713284310667499, -0.5309269707548943, -0.07558933491590038, -0.007439478050915978, -0.3581121139788864, -0.0857055485137475, -0.11062351980592401, 0.032804251514937405, -0.038971125119027825, 0.06851881058813478, -0.09548804684742336, 0.051984489792188344, -0.007564815673906977, 0.054457134632030654, 0.1001233080651213, 0.03173360265878485, -0.00036022260074249817, -0.004874881537375007, 0.056173574697625045, 0.006386034038374911, 0.12554024745600056, -0.1407875897852796, -0.4227080849762416, -0.21457396410420412, -0.7297404339495954, -0.6684091278292265, -0.3378567391759594, -0.7444157407593216, -1.1451986828013092, 0.020579909759265, 0.21036331305380734, 0.0015216483657029681, -0.5650350631459405, -0.4955412902669364, -0.5259404893827977, -0.23379486574906028, 0.007627257936506198, -0.20840426207142967, -0.3119369527037311, -0.28071813422778896, -0.14093120586942726, 0.004450852951309406, 0.029807197083546587, 0.028422800558992864, 0.03230708706303032, -0.004948046376363155, -0.04784706454918682, 0.030200697838424436, -0.3307076795863158, -0.6124507362168556, -0.43137159231359495, -0.5144112612544849, -0.8934095354409537, -0.9056411411513019, -0.4901883517115461, -0.5364658309482437, -0.5792188428428329, 0.2032299644294606, -0.1080985959995532, -0.010250231204274544, -0.34645607764200503, -0.36340726518892347, -0.4719689442956558, -0.4909536994451215, -0.032283653949091044, -0.18344802866405066, -0.3699389165851862, -0.36290797777711553, -0.19981550812799334, -0.001440036641478934, -0.01570532233880131, -0.005645927194463001, 0.0032662463807832556, -0.041306151226565425, -0.05107792585637508, -0.12042832354908921, -0.28554900782306836, -0.4157750191319862, -0.2712856757410119, -0.06928456059913991, -0.11005889985261594, -0.42432185241515286, 0.21526254481552173, -0.19695523669298906, -0.4399945694792187, -0.1255083646663844, -0.07452502044003247, 0.3135443218814159, -0.1555613026596872, 0.006217705612372972, -0.28075227475304415, -0.2881441673155072, -0.11202755465272435, -0.30857149673525697, -0.18070286341534558, -0.1571037454295449, -0.08813250950918819, -0.04006272410877178, -0.010224164918374027, -0.021694439001441093, 0.044237021332316676, 0.06344359367110057, 0.028391740313511372, -0.08191103502208989, -0.09820982191345977, -0.3163943175445415, -0.2650145333764762, -0.05945889976522755, 0.1162521541940192, 0.03421162964050089, 0.29730623755556584, 0.09415179771956432, -0.13142818253841326, -0.7567523737341595, -0.5111278194798469, -0.014584683429001273, -0.056582901933683455, -0.2710074099698326, -0.29381149344315427, -0.7294122030220477, -0.48180630785200984, -0.5894851142487174, -0.13531101822082625, -0.2893029812663577, -0.18647311438292524, 0.0069991660004664995, 0.013155980046000555, 0.03889733550940892, -8.255985971632174e-06, 0.06833597834103965, -0.048303332675867526, -0.00864760357188241, -0.08801969037580157, -0.2307922201697477, -0.35441944770665207, -0.0481198930977279, 0.031189936392382423, -0.06245500132667957, -0.24782180410136365, -0.2901594599275662, -0.42261825314841517, -0.3099735754329576, -0.06134545314542472, -0.2234456027113975, -0.3418173148021487, -0.08554370963291008, -0.5631789318356869, -0.3920491781966225, -0.43402123112223934, -0.5512432926263694, -0.32344341874060495, -0.14767089007044487, 0.07213871483394133, -0.036226598208664446, 0.009937129978767311, -0.01784959881761267, -0.0020582108921153035, 0.009558072094948874, -0.04809192790023856, 0.01250490184395602, -0.13215583287875632, -0.08658738420851832, -0.07940163773979596, 0.1830619505611311, 0.22333824060835758, -0.21675312319437606, -0.2841299001244927, -0.05394792697568862, -0.658572428416177, -0.25320153589663413, -0.4768563397199179, -0.4959824950762851, -0.5088483233188438, -0.2122378285476551, -0.4967639240100522, -0.3897627245111315, -0.23248624647523897, -0.44516859120340135, 0.0012753215511711517, 0.03488864773184537, 0.15679769844536018, -0.08042564449617937, 0.04538272479069783, -0.06557789780874167, 0.04372713303011801, 0.0647538837526283, 0.021944167671296276, 0.03402258863506216, -0.019111143586456245, 0.05874373723315642, 0.08083575787623556, 0.04853459087218814, -0.002958127170959821, -0.48617442463662186, -0.2876781868283551, -0.30620844495702193, -0.23437776569599883, -0.5356750388340236, -0.6086738594327072, -0.8394149319337648, -0.33680111276508196, -0.4519921058580667, -0.4019830834540688, 0.0679090749906412, -0.06890126809443375, -0.44871578396260386, -0.2535937203979526, -0.04208879186339855, 0.14562592900740295, -0.006851697568711447, -0.050991281552283454, 0.00044843295715672553, -0.01842522459394347, -0.0950495967454784, -0.05134634105186133, -0.036859473147773186, 0.046149610568947834, 0.2450908246052848, 0.23466693798523927, -0.10346114595414996, -0.2932887502059983, -0.4682301287326326, -0.34847919924956733, -0.3188996756911981, -0.0036626373944829674, -0.3882498315543147, -0.23149935072524144, -0.19784894831349084, -0.04598610061816872, -0.3752156531748189, -0.5461471483165794, -0.09954140904946565, -0.18404054603046427, -0.46785735974388976, -0.44478862133696845, -0.14909926081809446, -0.05344507184939854, -0.06350955768450901, -0.027123216991059927, 0.006706800161918098, -0.041699846335850256, 0.013977498965072287, -0.04064666498195022, -0.08880576275900005, -0.004526135441639011, 0.19140380589722503, 0.23257594008308516, 0.07667037429366955, 0.037462721792612015, -0.10731383480789547, -0.1331972745561588, 0.08391752580372443, 0.21718885456367182, -0.006925480103143085, 0.1401012407868092, 0.30327234986323126, 0.17107811640342532, 0.08968076153033892, -0.12032648470996139, -0.02484144117879538, -0.06861606936665855, -0.3694773960666246, -0.3995852973153064, -0.1102571536715142, -0.1007692067543362, -0.15404020456099288, -0.022913036193644664, 0.01280399619662208, -0.019640809842199534, -0.02889732772875485, -0.009209430773330021, 0.06073965522034484, -0.13971842148630959, -0.033971712083494664, 0.3537711239200893, 0.4470615269800611, 0.10166740390739526, -0.05005037055819085, 0.27524814436675515, 0.4180054723053063, 0.07078941950138737, 0.5173495156880198, 0.7071624862870856, 0.21641849214651498, 0.13458396386965735, 0.32938188460462003, 0.40596462755168244, 0.04215328841363806, 0.10673684542440054, -0.1963650269236761, -0.16704750971676, 0.09685464731841258, 0.08328494478117546, -0.11748387926774444, 0.04147038443634062, -0.008886527106818327, -0.019465673337463133, -0.01989033075810842, 0.0020849759846505553, 0.007048641731884881, 0.01808044501065752, 0.24943210157488357, 0.3088372944016959, 0.49473303203767627, 0.3177652098440854, -0.0016407849325304417, -0.1919467011734019, 0.45881339996114695, 0.133901571308173, 0.5592976321858613, 0.1451614169720997, 0.26418767540901605, 0.6994510295781192, 0.4991045031368835, 0.44557097667589085, 0.29758274830746745, 0.18286766778708552, -0.0029746781818835366, 0.14829516507357593, 0.09061266059413284, 0.07290029762382175, -0.04593251057230458, 0.043041562729498675, -0.00867632915508993, 0.004084256463809067, 0.06799737636815587, 0.011831069875165164, 0.012551157758694077, 0.12715865758560346, 0.25016777763830256, 0.2392551125925835, 0.3533772689798506, 0.0484907297575301, -0.27669774899790894, 0.021775424525722127, 0.2183376126761196, 0.3449615999367418, 0.3221141409204375, -0.03310066878787813, 0.10179490717126075, 0.25766054832877977, -0.007372278861209327, 0.27597038367286997, 0.024635686860076125, 0.2427256662629467, 0.17322218858637578, 0.09373766753814722, 0.13463999936750098, -0.030341765146243704, -0.08407001065441529, -0.028045883655065797, 0.03568410234005672, 0.0008001015359388588, -0.009971390150983642, -0.017577037958973647, 0.054840918839744256, 0.061366301068426166, 0.09654558751540787, 0.14926994218628223, 0.1696061927155008, 0.3212667857706771, 0.14272715336158742, 0.11186648555305587, 0.3732904823055283, 0.36285888417170875, 0.1275882415915183, 0.43335190186088157, 0.47715969421279586, 0.5441986327718774, 0.5293749002693511, 0.25152080216894185, 0.45155852358885396, 0.47144440285785594, 0.19742608539493456, 0.10434508403976116, -0.02535869351928991, 0.008793315653924952, 0.0121034809451758, -0.002379052156462281, 0.06135578342671191, -0.018476602310775445, 0.02205511257202795, -0.009708575950305736, 0.018699903160963295, 0.007971640215324031, -0.0012667672235610714, 0.09105683435021168, 0.145299833644489, 0.11944223749989454, 0.24476226341350005, 0.3197823768614461, 0.37745798317303875, 0.3855649279278348, 0.6007802243501088, 0.694957023469075, 0.4672035733949441, 0.45566456989512394, 0.26360617348964516, 0.2377370070229885, 0.24395694715578078, 0.25766171324768444, 0.08121468294426516, 0.045282185966629945, -0.05654998111237317, -0.013642161165360512, -0.004437612403802016, -0.011480721363195969, -0.009328250267553753, -0.05005662972038458, 0.016537463187541214, -0.016966669703868134, 0.09562907050626071, 0.009216646859244402, 0.0010396062082770482, 0.04419541155446388, 0.03638742973394501, -0.034088812185756476, -0.013159877586955184, -0.01707552713200801, -0.015017260870610652, 0.10118015157417655, 0.05384353938342723, 0.07482979323488467, 0.08109220453338836, 0.07364646865516264, 0.10370336647448708, 0.07703932824494385, 0.0019151641400726243, 0.018835835796842622, 0.05936837765292831, 0.08380837748745826, -0.025433869501489712, -0.012599686752350375, 0.02828459647678271, 0.030276266522938466, 0.03436791371739124], [-0.03800893185257262, -0.0188200232024612, 0.0015188587062918198, -0.08101190912287211, -0.0352851875402628, 0.01596092468971345, 0.038908418294223035, 0.036593001025896944, -0.04538813707836699, -0.011270845247130977, -0.021827602177026482, 0.016874914337424538, 0.010129957213422806, -0.021886402383953528, -0.0422530935963127, 0.021442749967629494, -0.04052158641825925, -0.024414016520610034, -0.0027199689811834423, 0.07286643013360836, 0.01610074583499436, -0.0005610879088430023, -0.0017290281907384676, 0.09565642853293428, 0.00893567864467406, -0.04508497704436624, -0.08469034992962877, 0.0006070615970824053, 0.001349168942032169, -0.008036609774733954, -0.021372692966375777, 0.019123920929618777, -0.03310608802168705, 0.00931990907604361, 0.030542769454997665, 0.015871319221581352, 0.017808064628839004, -0.04901480834153503, -0.0017041669146496533, 0.015120432246155446, -0.016195044297911, -0.04353529039720844, -0.023855777823424473, -0.05067060325500984, 0.01792751356586305, -0.016958773091547058, 0.02170565419773874, 0.015188427067400832, -0.03281305447256958, 0.01905139752115955, 0.03009911364102826, -0.0366478620880902, -0.029798231443259864, -0.012774753287695463, 0.026119113510317035, -0.05002785850363686, -0.029135148031533897, -0.05007990924940288, -0.06252701896442867, -0.008925075870530152, -0.006352989272607146, 0.01744488327494893, -0.016367495119427863, 0.022556774481582765, -0.0009318536759891583, -0.07123288189356555, -0.043313173001975985, -0.05026497441172783, -0.06625624366071914, -0.1549280246036416, -0.05033604061597767, 0.08676304739091462, 0.02574593302073757, -0.037246286001416676, 0.021641131693101133, 0.19069258343424347, 0.0611984716681751, 0.05973623321927172, 0.00569376915024727, 0.054184571809207195, 0.007012638491295893, 0.07226601389443636, -0.0009351555776122993, 0.04825214783292864, 0.016823772274807493, 0.000834608564891158, -0.05981799593500243, 0.018548532481472927, -0.054451127460616144, 0.010161675391453982, -0.028489598835969025, -0.02906729895897484, -0.04975397970333145, -0.07894990908523095, -0.18775247219586494, -0.3119664168965275, -0.3440590643673168, -0.4275147532781886, -0.3985749674265416, 0.007131020407521119, 0.020016615481073453, 0.11814022745042829, 0.24046211909181214, 0.1306718163533374, -0.013008395091889393, -0.025170968076582954, 0.06533620892031647, 0.10569668228839067, 0.007465650771134098, -0.01682306142753467, -0.07065307238865787, -0.017372782370375872, 0.004025778679411212, 0.04579798521674665, 0.0803520123075464, 0.009778617023654353, -0.022564026912506686, 0.08122008707043366, 0.028114363081905337, -0.04361562075652023, -0.11400909786486497, -0.1379050506601629, -0.031042370158936333, -0.1430093088188833, -0.3585890738603439, -0.5783759252410079, -0.5706905606996894, -0.0989707557346522, 0.4929015814042961, 0.31740590499089333, 0.22290991699418997, 0.37408337665226726, 0.13101313979032808, 0.007793807914906832, 0.03152324773257047, 0.04394131298996619, 0.002878544789259337, 0.030604109869193093, 0.021110526863709803, 0.03497162222911444, -0.014262956123761621, 0.0008795631818239412, -0.033112272040681144, 0.015412847355182264, -0.015330600461560226, 0.11484391631238827, 0.08853622469904573, -0.012682098788485776, 0.014916425815496273, 0.25624376592973075, -0.036895447406934505, -0.3898144242523747, -0.9435394301644804, -0.8110217059928087, -0.1477593088968843, 0.22479758320392698, 0.18011338622486003, 0.13408644041323323, 0.03980561985985027, 0.3399964511896186, 0.19380397119002366, -0.07582971041594927, -0.09324079020348741, 0.027816394958122635, 0.06863105716297016, 0.13277711548541918, -0.011989041484748542, 0.013010882313587236, 0.04121684721276332, -0.0005406565525341697, -0.0013124685662354424, 0.009485111691161575, -0.051286114986598755, 0.12328904330506116, 0.1508357962428231, 0.17601212456209028, 0.24705335933441583, 0.036507192401915384, -0.10317713622689585, -0.4623110331527537, -0.685199587283551, -0.6491331513326402, -0.1783301281069493, 0.22643542759063684, 0.5669994291756975, 0.5241412455024876, 0.19066903544559874, 0.35279223315677555, 0.5255605190806835, 0.12979371514477156, -0.10922625757752433, -0.10945444804197604, 0.024162700223101092, 0.055270048000490776, 0.0018152838278509944, 0.046659037463689476, -0.13442148924362723, -0.024213249336551366, 0.0030548546321296968, 0.06843776931849752, -0.013330701176958528, 0.0032572933784619663, 0.10948233715671904, 0.2690170219382423, -0.1148644282050842, -0.0025335251805264775, -0.03733573612258328, -0.44685001589827494, -0.5779022333575291, -0.5498498099737591, -0.2804986232803591, 0.40098540615456574, 0.6127727223041195, 0.6340694924529973, 0.4265721822197911, 0.7054901998138999, 0.9110079381698393, 0.42939830647202387, -0.02165352862701585, -0.20005566722652912, -0.07526035361486373, -0.04892904307117225, -0.016507518652258052, 0.050855069043978025, 0.014346513532941602, 0.017520560677245677, -0.032090474605780524, 0.06975889597297939, 0.08961024075652589, 0.21299118023205277, 0.040172373762808196, 0.29135341837503964, 0.2186369760513723, 0.3729468992747763, 0.2590573324868482, -0.20123508120694542, -0.29466002672103525, -0.5263250639887428, 0.5397145238325275, 1.2230211718126216, 0.7746242136112841, 0.3375157016439407, 0.12341404730492075, 0.2515404783273865, 0.32648313220299585, 0.2985967388376716, -0.026457975419439745, -0.5114922203296177, -0.3977231743318803, -0.15950057111869365, -0.06567393181987782, 0.005106845151123527, -0.020817287423563206, 0.020220019257372494, 0.012690450352699532, 0.15901961347536814, 0.23970406253636836, -0.022501699684496782, 0.016612264593715596, 0.10166340558041471, 0.17368521899284795, 0.2542973452749171, 0.15299295279874575, -0.3861269464048799, -0.722970237094856, -0.2831249775719794, 0.21906174169398857, 0.933502975114109, 1.0090958983140035, 0.3810092853003019, -0.21825877457906928, 0.1561634484890405, 0.22947950219202243, 0.11811114953847683, -0.10165067630366466, -0.04457906232030383, -0.07787846202735929, -0.12420399366019715, 0.04291624732834519, -0.0486573761729162, 0.027021794979460122, -0.007090457540248265, 0.026357650502064834, 0.1051742485854301, 0.07126855184268192, -0.16817330037848277, -0.17445167708266085, -0.059439767569836315, -0.023393665299587217, -0.03882960637682304, -0.06424597475916827, -0.4889350013528557, -0.9648494157448273, -0.43377768041763815, 0.15003162608487125, 0.9543807747827984, 0.9054459942511959, 0.5985955404183289, 0.09719570494198354, 0.381350496252472, 0.15052446887678128, -0.0019331508175789408, -0.04893862640191492, 0.042398980126690744, -0.0702593911494488, -0.1094737902486321, -0.08665601657702686, -0.020085859791420184, -0.023416144944654098, 0.06048921048052957, 0.034975876545918744, 0.06988975643564965, -0.10013405596304972, -0.4217366009291392, -0.20450524444376747, 0.022536983967519138, -0.21003407882242453, 0.01852672251254592, -0.3456692212743392, -0.983075072082573, -1.119888000318917, -0.6719461850911335, 0.12368033665385038, 0.6142990518791414, 0.30405831582942033, -0.052258222403490436, 0.06100389137528922, -0.06684386153428815, 0.04316022562239012, 0.04318705767031708, -0.11237985751509927, 0.09115790385869846, 0.11578315850768144, 0.020037933475090742, -0.05208976305466635, 0.04913962855818127, 0.02737177840387928, -0.006802968620830516, 0.09036474109307789, 0.026445797561654667, -0.2272295321690782, -0.4323776121337404, -0.11082057548345745, 0.041317857438996804, -0.18070242456202046, -0.30313742897282886, -0.5446030144219373, -0.6345545484983003, -0.603670374634886, -0.7649950289669755, 0.019496934557345042, 0.6493420532886951, 0.08562295406797188, -0.38749238853637324, 0.06474387844114386, -0.3570768450792696, -0.19765613105106059, -0.36879920244940495, -0.16200266604678099, -0.04701550582631604, 0.24544590783135234, 0.009449855056243333, 0.055815238185819176, -0.04889253098743651, 0.03584522091194421, 0.011939928951506045, 0.04822544196599738, -0.01635751732879005, -0.35999841974112295, -0.3164565593302754, -0.0382404691573461, -0.2785637033023149, -0.012368927887979097, -0.17060070025275323, -0.46533445087479963, -0.5067763360625079, -0.5837299994960321, -0.8142262761246231, 0.010610458680884696, 0.3301400254232025, 0.15887726921480227, -0.06406220181397491, 0.09297984100513963, -0.6629283642025867, -0.516168986922951, -0.49871929238764284, -0.28422574111071663, -0.1481798624744053, -0.05369147772079243, -0.01782590870905837, 0.0162256780973445, -0.052580580313384064, -0.007328845281189036, 0.01097462036824789, 0.028717414168124084, -0.060751388101767556, -0.241647996117628, 0.13990736863382622, 0.001963729241181666, -0.015102819156696456, 0.27657566204161665, 0.010123032778147821, -0.19383424584617456, -0.04583681667743521, -0.32249821391582073, -0.7510963582518666, -0.09380901935820397, 0.17802140120203144, -0.005986302526358813, 0.25106371309076614, -0.08223898322155748, -0.28727025048381305, -0.4608847605723362, -0.03689403824351405, -0.02001040616037914, 0.214422199463561, 0.1270960148025297, 0.10415599103561157, -0.03353226727005335, -0.03925841852262665, 0.010589259734331545, -0.013727665626918491, 0.06205503447309664, -0.20094317056491978, -0.09072149880421027, 0.11694251281382559, 0.12827740304731697, 0.26959936484981184, 0.06079224793362266, -0.08206557466768098, -0.5967517896912466, -0.22735228753994893, -0.2783792941208733, -0.2721462637609053, -0.2718882746449388, 0.4344491710788434, 0.30320995233903425, 0.09009382288880247, 0.25777860266725633, -0.1046614593518234, 0.08462001764901257, 0.45211986099314966, 0.572750481751327, 0.5329726331307563, 0.18207827042471014, 0.03058886926418202, 0.007823764609158679, -0.031419624381186805, 0.027920064440005207, -0.01128538969873868, 0.06621479363543112, -0.10884066638059937, -0.0571299359752127, -0.042303604602369024, 0.020635851526411793, 0.23777486701866732, -0.025102860284859307, -0.3284800913019459, -0.7108941543858903, -0.5546798932950953, -0.1933621013837749, 0.009208827012813352, -0.016735568501779405, 0.8932321416142714, 0.49114327532712126, 0.05810566500177241, 0.1905200388538665, 0.13699548236499354, 0.26688874244433464, 0.35494400334635984, 0.3023896843218661, 0.31168964037471514, 0.39300186805692666, -0.04855675561251018, -0.0068880725962844, 0.005093590209080572, 0.006696082468563525, 0.019370268446182004, 0.021768138441362606, -0.01670483165023073, 0.16746645713545638, 0.16345940017543006, 0.012200217526488652, -0.0262033230319074, -0.48769682641683343, -0.4644649122715788, -0.36318053973746617, -0.12206499622795294, -0.2066386983648147, 0.08950604518123546, 0.20333066521652637, 0.4879170066288837, 0.22572082747852898, 0.0003858878986927137, 0.13726656756112485, 0.07957882739502073, 0.3006694296442709, 0.3566510998862438, 0.06271661842324475, 0.17848462106188054, 0.14745011027384813, -0.047519177235828935, 0.04346773326305818, 0.0232645345828042, -0.014188616778583319, 0.008570617174132508, 0.04549209284221626, -0.023937971127510792, 0.2256885671896693, 0.13217214014801792, -0.008434322465376749, -0.07025533094425733, -0.14697211835054075, -0.13359372931918653, -0.6440467767319621, -0.35636068651650443, -0.17313651132830044, 0.18352399581433085, -0.21989258821293203, 0.13393454103553382, -0.3490190427611011, 0.10635875819037946, 0.11787411250492724, -0.006714593689009951, 0.14516041009471425, 0.0308897094268659, -0.1359146832071702, -0.006970979296053719, 0.02385263195357589, -0.07459556509639842, 0.0282690878849839, 0.008365124803680991, 0.042458145300499135, 0.0016081602626490776, -0.01146138400564277, 0.06801792469243939, 0.18504003218482595, 0.18531662448677727, 0.48808145434664135, 0.05716141504578082, 0.06583769536182014, -0.14548796432304237, -0.8023477687386069, -0.697922058802179, -0.49692205997651145, -0.117316763011455, 0.21429320477428807, -0.042896921890990404, 0.19117358084677424, 0.3599609281455709, 0.00785107785709542, -0.2538253581829994, -0.2597268738302763, -0.01752026058622699, -0.032635913007676945, -0.10920720805919751, 0.09894303950849347, -0.03579335299411728, 0.02597100891432526, 0.012017593940573189, -0.0236956102473373, -0.03629969303730476, 0.024838380387424794, 0.08240412530304823, 0.06154933263431919, -0.14787231742793233, 0.382130658173892, 0.4663510584098774, 0.1992498926579722, -0.16508245461773002, -0.23437878541981577, -0.47838294213658417, -0.23767677276847357, 0.0755151637825386, 0.02027261315965157, -0.10168658029881326, -0.19321706014977913, -0.0037050432103148995, -0.36846821975713534, -0.472922405799664, -0.42493026405221257, -0.2845443741764585, -0.22423809745010645, -0.39477001848612897, -0.06232901966675882, -0.09174314824664544, -0.024200670350523937, 0.03318177668608698, 0.021540806007060036, 0.029368513048078485, 0.03330020210639278, 0.08520751699528813, -0.20525175477896235, 0.14882414271635339, 0.47080334531172513, 0.7136966709617245, 0.7640080694924559, 0.025731247278534528, -0.011365794377748067, -0.2743060798782641, -0.4157456463339051, -0.503653973037877, -0.24440221597714365, -0.31550273721706174, -0.05430063467819037, -0.051302800040759725, -0.3241662297064059, -0.2744727713169615, 