{"biases": [[[-0.7233289650316874], [0.6441411099288333], [-0.5309101685289367], [-0.6524534756434945], [0.2724170159436866], [0.36427116543662186], [-0.23263824773063724], [-0.5463642777988427], [-0.2166665032432558], [-1.7864386478254448], [-0.4164736137234921], [-0.03631745052702386], [-1.1715063037689244], [0.4907691982076112], [-1.1873917619594598], [2.039764682369012], [0.7013588578091426], [-1.395263208338401], [-1.6341501122251387], [-1.0300684222452752], [0.10577131539609828], [-1.9456168765526363], [-1.9975971399498602], [-1.2324515292445928], [-0.7933745951058723], [-1.7021500568852848], [-0.7684785204953722], [1.3515058992012932], [-0.6164024804533516], [0.4734126151604449], [-0.5667680867066159], [-4.811360582383755], [-1.8529170592041708], [-1.5625679192972992], [0.09190143462307135], [-1.243310897007979], [-0.9943190410136475], [0.20134345287722158], [-2.1533822567956995], [-1.7136263594902006], [-2.759332268513239], [-0.41427536300864204], [-0.7873287949200765], [-1.6798519759063717], [-1.6161096048962844], [-1.04743735580086], [-0.6771685898724781], [-1.2115019139919636], [-2.370896469225412], [-1.0538841022754653], [-1.7515420929439263], [-1.222455863559456], [-0.8154675998850793], [1.0799985333601607], [-1.681309026593312], [0.3860120796647497], [-2.183146778955383], [-1.4409719807117336], [-1.4818911274639148], [1.1029731998786456], [-0.5795484913781024], [-1.7828517744177907], [-1.3697347049744446], [-1.607768522440588], [-0.09331037153544497], [0.14315133732904597], [0.4959580418931122], [-0.6449020908284946], [0.8988474922151352], [0.24341965195666584], [-1.4083002852466435], [-1.2920406555965662], [1.584933306545483], [1.0509454037516457], [-1.5922204264900637], [-0.8879395056815079], [-0.0458115446172462], [-1.6098129620389985], [-1.0895590484941526], [-0.027251751133603938], [-2.3835607834997288], [-1.165002242816821], [-0.999339395027747], [-2.1286689700912613], [0.28253580405228695], [-1.7993244243524542], [-1.9686585342401777], [-0.7584673461431308], [-1.4882830689757172], [-0.6267282786361106], [-3.2241461830777105], [-0.7028002337445302], [-1.1233117358952245], [-1.5176183276035322], [-0.03747436156890128], [-1.816124902580488], [-1.297110653296935], [-1.1624107863537292], [-1.1783972986815547], [-1.0054274288039593]], [[-1.1173773109818668], [0.15772301370171432], [-1.480738158372342], [-3.7636914822128595], [-1.3106852091978043], [-2.9950153049901735], [-3.0109838924640644], [-2.706295702736821], [0.3741036448328423], [-0.2866032317460195]]], "weights": [[[-0.03764434771879966, 0.08731900826909433, -0.024735666641746965, -0.05266030815869983, -0.05703209842695856, -0.013735656085180218, -0.030009102917151215, -0.04974126797214372, -0.010128141579841881, 0.01504101852177783, -0.020432135572879723, 0.028651052202291735, 0.0017940386450395716, 0.004790841164495518, 0.0026593186052681203, -0.009034436857475901, 0.02235185637727226, -0.007924564401281465, -0.022735046851356865, -0.015082546644876625, -0.049403392079087755, -0.004198550083496937, 0.04001645874137749, 0.0012947893741585728, 0.019375871452858025, -0.014830194306110376, -0.020461416399453113, 0.026486943516896802, 0.003392332514515457, 0.021297697410922644, 0.00332600809652809, -0.04939673435298768, 0.013446249019087935, -0.006658021351899448, 0.023816983866993442, 0.0023323018951316825, 0.017489536532204007, 0.017683514266000285, -0.0024568773617739963, 0.005474048498432, -0.043630197217837695, -0.007861891025374492, -0.018683697090373, 0.0708668574125554, 0.006167573096131278, 0.03796138038102303, -0.033028364396841314, -0.046089263089731485, -0.016375470810249478, -0.0629379723755663, 0.016240271243929332, -0.002674929275900925, 0.09131968757394034, 0.034162196027895615, 0.06518965612398604, 0.01883560237080917, 0.01945685861233335, 0.02127182560238077, -0.006904057141973665, 0.005988641146694782, -0.04343809280393913, -0.0037036928007587074, 0.002216531068151877, 0.036165690476237244, 0.03061861316417012, 0.10272350336356026, 0.15332275797678885, 0.10765265412530178, 0.08429454616848035, 0.100395933365632, 0.10477103750732329, 0.06773796400389479, -0.05250453698866525, -0.11777279831801846, -0.10594054405560989, -0.08756620573345356, -0.015009592608188507, 0.0236125109444661, 2.4512931730209762e-05, 0.011868864156939387, -0.006689721515770722, 0.002822866501434533, -0.00603437698665492, 0.01890063120828987, -0.022062601886933802, 0.06603906101384502, -0.02856187819684239, 0.007517455990971372, 0.011360803896979016, 0.0568044772704051, 0.05318816477006896, -0.055220980632063266, 0.06905066793307393, 0.20997972565428322, 0.12688610850891144, 0.1553439854315739, 0.1436625631427267, -0.04625348829998134, -0.2807775422787604, -0.22646727075822856, -0.24201289695649014, -0.41850305756123596, -0.41336218320066764, 0.13464029924548712, 0.01517052534616711, -0.00858761598472196, -0.0438252496010307, -0.038895305187313114, 0.028079171570932523, 0.020388246730159435, 0.014337588722602818, 1.0981586350235113e-05, 0.051770690597698066, 0.031149727054390317, -0.01221513139807538, -0.035143978490837204, -0.031170307645261523, -0.013565977552003509, 0.08917188081933561, 0.0578567735792258, 0.2706084343601143, 0.43421658731572194, 0.2867585342633604, 0.1812061536450823, 0.07211549527375928, -0.19138753583265497, -0.0912694807308265, -0.30876891624068714, -0.21332884318163287, -0.40984443724897346, -0.2515785829361589, 0.22570964219354003, 0.17477494730755647, 0.03862793824082083, -0.041315402027852624, 0.0685396026957972, 0.032802108283724735, 0.07360468958203703, -0.05343701741191478, -0.02884224966012528, -0.03378978850368019, 0.010040687627950684, -0.030803279069514553, 0.009240307183817626, -0.0014507870241571678, 0.013092792290147015, -0.08987958378863829, 0.10737544750652854, 0.16847204403089552, 0.23222816051930337, 0.3099659854093676, 0.10247687632946688, 0.5081648681104544, 0.3467637351528003, 0.47281174679886145, 0.0018778151758971392, -0.22081671625111893, -0.14106945719069572, 0.09421850240247397, -0.02912315043859455, 0.21272445702996923, 0.02677749631495074, -0.02967384335545125, 0.06807938096111088, 0.08073275696392566, -0.010731446970675584, 0.02741091807077365, -0.06690189581876967, -0.06348299780911086, 0.05652522452098208, -0.009489173093199771, -0.005962437864075845, -0.027215913507230627, -0.24474634127380984, -0.17686500354057247, -0.28010698035470993, -0.30765691196650435, -0.2918519763100041, -0.2367605066070657, -0.1031914954251802, -0.21934835452672818, -0.07010240553333004, 0.08259558414635612, -0.17957364041405152, -0.5740937795919384, -0.39692557059816796, -0.1997844752688986, -0.1699630093090228, -0.35497413359578694, -0.11967610078331185, -0.31086238571112895, -0.047022248295098, -0.1273369509016255, 0.011370219242365634, -0.07600377704617059, -0.005318194341469758, -0.036355022304902083, -0.021975079149850592, -0.050217670736517735, -0.10888674707238198, -0.15405754935984503, -0.15256623792932955, -0.06913529807227756, -0.24659680453912822, -0.4097811482710182, -0.29651900738536213, -0.3586846157045727, 0.1841997855289918, -0.04606622276948021, -0.25971166595014766, -0.32552446304185256, -0.5078817609051027, -0.140552693008927, -0.3496228351081996, -0.2127711102947235, -0.2071396202793115, -0.15467270567352562, -0.2060363012742641, -0.22448741969325933, -0.3647533528971702, -0.10436571076628069, -0.09522896145377435, -0.049088526998450226, 0.0526358939491438, -0.017725236206644207, -0.022544242074624878, 0.0151532415315455, -0.12261083002386808, -0.1145769389933838, -0.030925042609743207, -0.17234942805546224, -0.21167409852785843, -0.4204562308298761, -0.0008623894916536554, 0.10965238939403761, 0.022303664331883293, -0.1881140290006434, -0.27291753097920385, -0.7156346837596717, -0.026954427947510462, -0.004178291849042856, -0.09365168274015295, -0.43558963147178176, -0.13917824495461384, 0.01377161965529236, -0.14122121165852441, -0.28374804800816916, -0.458523981261526, -0.2599671697074699, -0.11864262934179036, -0.10389442323209773, -0.004790308518136447, -0.03479121834233929, -0.031348588090003626, -0.062187734672303666, -0.09014331467621048, -0.08156327931107286, -0.2795835744346329, -0.4297162725784553, -0.6111876230430845, -0.4786330796223829, -0.4713496248355804, -0.6085128251891261, -0.4132380865853493, -0.04397569501770206, -0.3801077878160421, -0.6290124821094303, -0.09973202122320216, -0.4003722491321091, -0.487890864734382, -0.5810360035786795, -0.5098153384376608, -0.22017792080458748, -0.12477445974474773, -0.4293432167731115, -0.8213577809296533, -0.3041011614070921, -0.2511297656049336, -0.06963240654708314, -0.039540110327927064, 0.020448852908772314, -0.0025743781014848704, 0.029091732832110754, -0.1860096898622853, -0.37842546706395214, -0.2678935948137941, -0.35619764401037357, -0.4750575107115348, -0.4950597873403842, -0.5657149750630666, -0.5315496730207886, 0.08698539801925347, 0.1259265851983806, -0.6418928018081537, -0.6702726358889598, -0.2937278800042207, -0.0967910358595028, -0.2201082149902772, -0.14118124383098582, -0.14543111997042923, -0.25881526550175155, -0.08981876468243949, -0.4060662797550832, -0.6261529017454384, -0.27041254316173907, -0.16359248131529153, -0.07062963626089405, 0.00973070718563675, -0.022733472806367686, 0.02309966090335606, 0.021512234187416327, -0.1322908288751999, -0.4765781942447893, -0.2537724492659704, -0.5848903494168373, -0.44642996837940735, -0.553540663140755, -0.41342565674253856, -0.19325339514623016, -0.21146668173893893, -0.30976073285610256, -0.7012891014461364, -0.5170483257060492, -0.44038002924650316, 0.1363901997748038, -0.32462494688303656, -0.10365390352512026, -0.17039705359946464, -0.1457145372880872, -0.03733481074191114, -0.3358279548290117, -0.6718580103598658, -0.4218125831417031, -0.08009084456988727, -0.09296833025856972, 0.03650345487871096, -0.010769912122349498, 0.009259810461698567, 0.03919492781564867, -0.12982756907915954, -0.42699078005483165, -0.4399832799504554, -0.631486168697201, -0.37105778402127026, -0.3492050988825604, -0.3543574702685863, -0.26129102105699503, -0.2856455348704935, -0.32284061955296023, -0.3332697758857917, -0.29120093512172074, -0.46241059203475493, -0.20905545608939352, -0.28221309363374636, -0.44743807493276294, -0.3273961805436332, -0.11725163079281108, -0.06426522602140679, -0.1544476457841092, -0.5076227099635467, -0.26430545273486594, 0.04018222647405194, -0.00015175332015114726, -0.003996891460602951, 0.02685975386079216, -0.08342179966711638, -0.022663205308274426, -0.009578073374744709, -0.40724583244851437, -0.48855421968894763, -0.5006527148972029, -0.31504208470450007, -0.10398205333464429, -0.23963684101501623, -0.3097108109163257, -0.39005448039036333, -0.3237263567945719, -0.2371123085491721, -0.5176148149673518, -0.19413237515816786, -0.08262473205369984, 0.19363652368187298, -0.22413036691772753, -0.2617012571903456, 0.008237102554094053, 0.24554642998825613, 0.12091264127431152, 0.052644266497068375, 0.12489791279125059, 0.08845006184585291, 0.011636500890746835, 0.03916176046041996, -1.5969735572534787e-05, -0.021262003022383347, 0.0011547075654580001, 0.017276809535218752, -0.11295072283241642, -0.267864923649674, -0.15570709814639966, 0.3466334048649559, 0.08176025731006849, 0.14497610441589287, -0.23634031889683468, -0.21570363171872356, 0.027738965529034678, -0.12383956615331504, -0.1790229212623773, 0.08443067036972329, 0.37561330293015655, 0.12109476266326419, -0.17275460753963737, -0.18191794998804636, -0.18370996967236417, 0.24179716548179322, 0.27934705113770864, 0.2528136203180097, 0.10729088883012244, 0.12262377868505649, 0.08553971882958485, -0.012465989961850226, 0.0752592444592384, -0.0409514549250006, 0.03821773376885811, 0.08442033108490041, -0.07395779629768554, -0.11608864501198096, 0.42844720364736716, 0.3887108802697777, 0.06326216486805643, 0.2663731914784815, 0.23802540840081568, 0.4861958032461021, 0.2930212619477815, 0.3699271561892207, 0.33598078518838576, 0.38784571390152356, 0.4039165382751962, 0.6958517076735979, -0.16191341059105185, -0.15398236239389743, -0.2579238767079025, 0.21011462023288754, 0.3776426823269604, 0.17345204491499863, 0.1040263203964355, 0.30805176573728027, 0.17412154983581649, 0.022820624767620316, -0.025054548406666394, -0.021694978637829442, -0.06353395285656846, -0.07348299356638673, -0.1814136148505406, -0.14313276350990556, 0.4334074376273522, 0.6412482672289137, 0.16632043768764912, 0.4365135369288931, 0.33935973849655215, 0.5751123194029046, 0.33838745670905285, 0.014502301084584512, 0.5864156437050423, 0.7914174720011804, 1.041882744976316, 0.7977569151672638, 0.2371326114568245, 0.3688460773496946, 0.25067431518485417, 0.7069666867320356, 0.29322479116294253, 0.25109018125158244, 0.42859467536478174, 0.4339805378006142, 0.12163008663117698, -0.07666019905839191, 0.021895861411547653, -0.0005578558113156288, -0.09729962763391135, -0.2178978480959193, 0.10472280812558099, -0.025995632859527967, 0.6071354006769197, 0.1442217204256589, 0.2007445906764536, 0.20764013405246198, -0.1373451936080836, -0.2831634186031269, -0.4080554212922776, 0.020579622741655472, 0.8439391127477012, 1.0574715985755514, 0.5747486781932771, 0.08785713779933067, 0.4291472323814856, 0.052893939856323346, 0.39011241286132853, 0.6666802613572433, 0.43553242960401223, 0.3830755248573651, 0.40209900167820184, 0.36520751112544797, 0.032346242733123615, 0.012168026653777475, -0.004728336100120197, 0.01827630749841587, -0.019857275531071816, -0.22390183396304097, 0.1718745672599213, 0.0059914654785288264, 0.3390655813381412, 0.4318137902710317, 0.3470507451998755, -0.018468034724249398, -0.31711596138147147, -0.5781293189055844, -0.3020269774181999, -0.07502321315103577, 0.6920935299614819, 0.9258654625021541, 0.5942282935904959, 0.4002434589365057, 0.5923473627990056, 0.7192056661448389, 0.7416965728339804, 0.5349771243182265, 0.371997254239344, 0.6652618058057107, 0.582780784811711, 0.2595589853724798, 0.1292355884948696, 0.022770451301050154, 0.0068850509819792394, 0.015308439798362895, -0.039255502609507865, 0.049854980887547695, 0.2175633710053691, 0.027446688598922655, -0.030913830909216396, 0.3145702049952004, 0.3294220023904491, 0.0725583630092466, -0.040602920588754594, -0.06299079233713294, -0.4497967329905962, -0.37807058427108653, 0.22090754322603284, 0.9521300401232345, 0.7645559386718592, 0.5694519600034482, 0.5809495700182806, 0.5110374918615872, 0.210863504865353, 0.4144391101498829, 0.6848822697909462, 0.8183946197965746, 0.3702190351268784, 0.20894885562020854, 0.05804114954766952, 0.015278472459188836, -0.02781846999325822, 0.017592159796644084, 0.019655474715901688, 0.15944800206493362, 0.3948155334603202, 0.3101090728657465, 0.08190967983252662, 0.28552213068071725, 0.26299548374687054, -0.0337679442762655, -0.2907072848223927, -0.29550527479868716, -0.651069107809557, -0.4966827630098452, 0.030975880447988883, 0.5255606232808397, 0.723713113462083, 0.5620706194084929, 0.4297076521903326, 0.057271920417688214, -0.028355643677380544, 0.4050266147973831, 0.36482505421182376, 0.5048083058831917, 0.29977100615978314, 0.12893874156851168, 0.04004549053763641, 0.009799531903066804, 0.0026115829570739976, 0.010633734888462918, 0.055311558085075235, 0.07105243283619235, 0.2623319470088727, 0.2699796089683819, 0.08290489656796451, -0.1834812283743996, 0.24430186677136545, -0.2729386634165269, -0.3173749135818667, -0.8108276094205871, -0.7554072827126881, -0.2500613918429707, 0.1195584887687663, -0.03039773054282264, 0.2936493280205274, 0.010562142578751245, -0.04410443921178701, -0.18185514840713873, -0.14555762316768164, 0.029817583272660875, 0.28155399879869186, 0.31815447214110293, 0.172096693102474, 0.057176661003728646, 0.020968560174054168, -0.008072970252499258, 0.011070713989514291, 0.032603680932292836, 0.1467251084304112, 0.10319406435180778, 0.030951687547434416, 0.1738734448927571, -0.03362253077271571, -0.18115972658428525, 0.159490744302753, 0.3265760554249754, -0.083999454259168, -0.4207335229583983, -0.47957612975124075, -0.43983655273679484, -0.4320853220884342, -0.3231083733057246, -0.2278233912626867, -0.2046266514346912, -0.42372726001873484, -0.3013366919862564, -0.20865209942855284, -0.11106820434113256, 0.057874770108835835, -0.1013619270954629, -0.04980362211041184, -0.024206425371291224, 0.008451469319832039, -0.0440853322781838, -0.03411623023477939, 0.023634884446852036, -0.025572231807745885, -0.008801511075258794, -0.03900399970979331, -0.06958485537641683, -0.21908533504421102, -0.23533517337533894, -0.14523346793893527, -0.2572575569822178, -0.21986107382088602, -0.17748387637316068, -0.1974526208921501, -0.5274923895795434, -0.46780240214819774, -0.20803723727076506, -0.24320650519348536, -0.5923998325639123, -0.5118656653637418, -0.5883012491972556, -0.40196212763204703, -0.1358561282762536, -0.061970944549459714, -0.13559655786242156, -0.17277521522198006, -0.009639742710339695, 0.023878742665025134, 0.027891099298026734, -0.03622873661572667, 0.002025539350638903, -0.017313250387235864, -0.050490147930313437, -0.019922112997448775, -0.1392115295219615, -0.30610710570466126, -0.30511377451121274, -0.2397414011534949, -0.2880232044953724, -0.5124492556893849, -0.6229761098121124, -0.7034291670474957, -0.560736510427571, -0.5109150570494692, -0.09097041521061894, -0.0498495093116591, -0.24725525329203593, -0.4826316411906981, -0.5583396012921084, -0.42877171196704955, -0.1940553053358758, -0.2011414547505481, -0.1744765603486603, -0.033399609601855874, 0.02492722561445176, -0.03348620102364001, -0.02976951296624386, -0.010133870413073093, -0.045619699727750276, 0.012085231318550993, -0.07065266243199855, 0.011471922187324578, -0.04088482282097396, -0.056698745293769635, -0.16172026959893335, -0.2692367190552015, -0.3437879316450017, -0.3138145673786918, -0.24008241906294836, -0.16521803112263797, -0.5994427514367323, -0.4208044145041625, -0.3723462391337453, -0.38166442921757576, -0.3444910105103079, -0.4542540564058719, -0.6678632029842513, -0.4186679527603004, -0.2472707927571697, -0.14512988605424781, -0.1237826718789289, -0.04238350235907501, -0.0359477963191545, 0.038781976660959026, -0.04249426305935658, -0.06683755354222834, -0.020928946231980383, -0.011053545744246778, -0.025615855200493386, 0.008415805028047832, 0.038604905448436866, 0.02131914863002256, -0.036395096164682623, -0.04825157729313182, -0.08548792695575211, -0.04563202690965212, -0.10554794865174834, -0.11218867079130398, -0.21779000015041358, -0.1450812027742438, -0.15735513677074472, -0.1483951410769273, -0.061653477356085964, -0.21561229556091627, -0.1442657620772476, -0.06991681098213831, -0.03478176574656143, -0.10233397403567406, 0.02335207975239717, -0.023917121519236827, -0.05376597367751422, 0.0763937866628347, -0.027242831656697823, -0.01702835284346381, 0.0064302030907546475, 0.016372384496167125, 0.06919376792039156, 0.0009747932200429179, -0.015742833177580667, 0.014392816511961103, -0.023402493140470652, -0.04146820673660913, 0.022704024210170207, -0.036634922671900015, -0.0003394027823136886, -0.007868198638496636, 0.004457531419780336, -0.051601414490159356, 0.019417868318272663, 0.05075145057991555, 0.018420861764622726, 0.025236421557879092, 0.019172751104120297, 0.06498630184131884, 0.027548995060370184, -0.016393385064677267, -0.006098582061362468, 0.034988271274886455, -0.02497678558836371, 0.06284723079390664, 0.05544265051280574], [0.0165469346515636, -0.054134142850729185, -0.03676717342862456, -0.0017913282238418166, -0.00448098675024179, 0.0014363002832415027, 0.018610578163742716, 0.0206110559077659, 0.03603201947047756, 0.0070115707116826746, 0.01066417196393637, 0.00941132952269, -0.029920125784283397, 0.09348370080543952, 0.030467024027242853, -0.015216654967689532, 0.022368734855536924, -0.00781112280724856, -0.016313399231313128, 0.07537788861707886, -0.04389054483485935, -0.0017800178286811598, -0.056331927833763985, 0.04269399078864376, 0.0330147041684043, 0.02669120374621651, 0.048165599156145905, 0.01418151786224736, -0.0029873698192085245, 0.04524125386361274, 0.05001934590790407, -0.04505286394955412, -0.008824879179581947, -0.02754918894837602, -0.03169257339970969, 0.0014411446336732893, 0.006805034182377663, 0.05811966395293913, -0.026508752084513733, 0.007458356922562081, 0.0019168582656388258, -0.038664399787669966, -0.035712576863233036, -0.02092356577692676, 0.023995805033004483, -0.00609127515276299, 0.04022904978628236, -0.03281830855476643, 0.02458711873853267, -0.018212967681006276, 0.056638428898367156, 0.04896217319575149, 0.04219243457765053, 0.018788774035064605, 0.022452166173026093, 0.015987982046449942, -0.001871686348619893, -0.04878669882531633, 0.06295407449141004, 0.035015819614986066, -0.018832242250737243, -0.03084476115926435, -0.07077293020076815, 0.01708148845149294, 0.02391711219622213, -0.07224415217599649, 0.050762421417245754, -0.02681752310900826, -0.03090351954323596, -0.09466641330112653, -0.1147447672092796, -0.07127274713467764, -0.07392326242691416, -0.05236475384645191, -0.011848660129497724, -0.015826607858116924, -0.002765294236135284, 0.030319241590492284, -0.045752782759680914, -0.024619421337510897, 0.040185105458678844, -0.01777926039409922, 0.05112321553886025, -0.023173754152476064, 0.04163813624587937, -0.004782836248043074, 0.008969789046499635, -0.02168750136902872, -0.034348209414174845, -0.011517703305085381, -0.05032155636531728, -0.009223262546664076, -0.049450188970836105, 0.011460312432283272, -0.015003885470418688, -0.1390624716478219, -0.12317517629820406, 0.05045286810390917, -0.0148020496936618, -0.04520257331751941, -0.1853332038234958, -0.19708099094533763, -0.13432380722727622, -0.10163114621702525, -0.048628249762117, -0.06630401508527717, -0.12099951982406751, -0.08261435634262049, -0.03964445514928796, -0.005101983914926907, 0.002429619826601737, -0.00774721364697638, 0.006351071575909567, 0.0024808102373967923, -0.029502555178135787, -0.026792065609377958, -0.045976601852792995, -0.21172551288951444, -0.22370060891907692, -0.2215330602996182, -0.3637122251310886, -0.227577591264976, -0.33601342934362327, -0.20811339778843402, 0.06526702099627357, -0.029466319118293012, -0.17826460443516953, 0.23267386621209757, 0.37821116079583217, 0.17763264903961323, 0.12254150023693101, -0.03185143709898989, -0.031183382785660036, 0.20428947149775073, 0.026227305437329165, 0.06808406959945602, 0.1345921529902614, 0.06139932281514772, 0.01127565907781196, -0.023935134538141032, 0.053543900600934086, 0.025113569467989802, -0.012248014655289477, -0.01015611678413337, -0.11039599216913104, -0.37465239766469216, -0.6216698584413043, -0.6214721004114827, -0.24227668894882526, 0.23658616911653485, 0.2750837636630397, 0.23336344045272758, -0.2693793001371099, -0.18447211394066346, -0.15311820688758507, -0.541477321392696, -0.3430288948471376, 0.016890728800496423, 0.26356804275415235, -0.06966448440699523, 0.07626687100215805, 0.35996728142359224, 0.42733203678492615, 0.20546787963326565, 0.11734038129543706, 0.10661621425389507, 0.019152176170368445, 0.010635345557494643, 0.01772102163000689, -0.03710518452772588, 0.00832678642516498, -0.09792266512876324, -0.09693915912604308, -0.2725982643848547, -0.5789062956488661, -0.26531374417443304, -0.043479260288980866, 0.2019736283822429, 0.6295666725216856, 0.326878649228092, -0.07256881617781352, -0.11424083174951341, 0.11429575210673994, -0.14004590496035493, -0.21183335475056936, 0.1069295300114091, 0.191253949000902, 0.22593548429079985, -0.0029015662658568512, 0.3091195174287707, 0.510263419211228, 0.20457259641702336, 0.1510422816554965, 0.07012580560338016, 0.04347373311105202, 0.0172596079469759, 0.023703221644593084, -0.014142599267649499, 0.03130582373965195, 0.009434123365342866, -0.20179147990191668, -0.09140722896119932, -0.1116364376364781, 0.2339029861920872, 0.38789015651035696, 0.5761182584658012, 0.6811133160936932, 1.0601042192875647, 0.3798299847627991, -0.28075545000092006, 0.17812003470749488, 0.2285188496600223, 0.725367854396048, 0.5000799281381927, 0.6282735258612835, 0.4100318920833893, 0.4094283181703685, 0.22799410078279567, 0.11171706084758411, 0.1614379132116724, 0.17406288954825566, 0.0957231291008652, 0.05154381068421283, 0.029720935495142174, 0.015228925998985532, 0.08704045242309544, 0.0797327718188235, -0.017949888159853142, -0.2568789136937962, -0.013512560363306622, -0.007697999574069826, 0.03008762017134604, 0.13155506242694825, 0.09561666373635455, 0.4077700939563895, 0.5374432472154922, 0.31872397728781193, -0.4523916262281979, 0.10704485936611999, 0.18654868654948745, 0.4378024129572099, 0.2284534733181773, 0.2629969102439536, 0.11792425561361367, -0.08885288510152091, -0.07139155424329365, 0.18342265249786938, 0.2660823400721557, 0.3148565098339383, 0.09658263980187531, 0.01804321641587395, -0.0012620716684250714, -0.007043313567017245, 0.040014935967856886, 0.040458146786534935, 0.0059685902965709225, -0.07629707218656276, -0.15201354550972612, -0.04037078562023548, 0.0007885154548845161, 0.12142062272829028, 0.02298396791873062, 0.2252055976718331, 0.7028184880498205, 0.29757407861247526, -0.5183157307224484, -0.7218593308180952, -0.6381659734038851, -0.3099351982150137, -0.2589750810405261, -0.3816298854529335, -0.8149543574368047, -0.9238524157196288, -0.287272514379923, 0.34619615762560346, 0.31730060790683706, 0.3762733855014856, 0.2106163630511554, 0.061070380710687676, 0.04542146960787504, 0.016131903729898197, -0.000739055228386085, 0.04203315211603651, 0.023489116146561222, 0.08390415598635478, 0.16714993496915995, -0.05710166309985047, -0.031230124116677395, 0.19543522799121915, 0.28636099670735615, 0.49763534255173736, 0.6849263748136878, 0.19479759110305192, -0.9567144335915676, -1.402764294164779, -1.2329913922329259, -0.7426606509313594, -0.8662860043087826, -0.7164006069611446, -1.0109586139611477, -1.0985560145401523, -0.5854854826198135, 0.07670842790284431, -0.005944799559740574, 0.21228247620283683, 0.2416162204266431, 0.08730280730873881, -0.0020266064221327014, -0.02076336364001955, 0.04876579991535653, 0.042864919387042094, 0.020635394208453228, 0.059921015497322636, 0.038105247114239425, 0.02161679118850746, -0.06158885642826262, -0.20107079881049353, -0.08216099165925561, 0.356486829124344, 0.5930482602543898, 0.29578128353756067, -0.6116248646450654, -0.6466641341687424, -0.804169858973172, -0.7369299640199263, -0.36209391801146285, -0.33070392069204546, -0.5962358859453313, -0.9158827084099915, -0.8325486798319174, -0.30325150741088114, -0.005781717474819943, 0.041674036032891285, -0.01817497665403882, -0.003627426995887319, -0.015373746644842737, -0.018675510644921425, 0.01882743116535228, 0.03487969997132634, 0.02424453369943187, 0.017357684747880193, -0.057150779882202137, 0.1677158514460714, 0.31709982664117853, 0.2478635614632356, 0.0764996276305998, 0.4774720436132177, 0.5489353690065163, 0.023541215402977326, -0.07117019796948294, -0.23831413981062272, -0.5430011973609252, -0.6138944332909478, -0.4074928511973023, -0.04815351634100478, -0.26324045686637043, -0.21946261673727663, -0.494815484995016, -0.13606102826656555, 0.10793341545352886, 0.006450436728439617, 0.0001361334964980408, -0.03748852186709545, 0.012665158837479656, -0.008727393731455837, 0.0295581350634784, 0.03634927568985746, -0.02585494701848843, -0.0841132181464093, 0.11088307003705658, 0.19362580416487335, 0.4191455974763535, 0.4828591446993266, -0.03471014143183711, 0.14302500940215676, -0.07134664167121317, 0.14323127490338766, 0.10615413249660997, 0.11466146500105374, -0.47858965293649147, -0.8836113084154119, -0.4273680715837071, -0.35513496771138436, -0.09880977340103748, -0.14497483241936954, -0.3942119033112872, -0.2630983032722042, 0.06417322568951664, 0.12958584180701896, -0.016978265449969217, 0.0038705987044550558, -0.01169431887254506, 0.011422496774036844, 0.0035753595444474443, 0.01268180267104915, 0.003443293440403413, 0.004017605010319079, 0.13220003377416997, 0.23076975790564017, 0.01773435674131743, 0.3149021036641969, -0.2233511701042705, 0.28548475952710684, -0.3154374859025693, -0.30755081346310054, -0.39202997536243417, -0.3867905578890306, -0.6801680133816663, -0.7068654784311199, -0.7743774745676477, -0.5932799804478974, -0.4350161773885326, 0.06308219055868725, -0.15685311034464786, 0.04123310305335893, 0.3418889954209863, 0.3100366346664506, -0.1164299182773461, -0.012968424600195004, 0.04771525276554844, -0.01803172301283803, 0.008653818951317775, 0.01614776708774543, 0.0031872178600339048, 0.017953816472605848, 0.12663560143590552, 0.18859626159290904, 0.1382855428672592, 0.05862026170859463, -0.05639718573139124, 0.2964338204107104, 0.03066963670845219, -0.19027472764505834, -0.4850578208281677, -0.8972068638445754, -0.8310192801391468, -0.8467714276932906, -0.8800366593173222, -0.5189551356392549, -0.08186988547520255, -0.13077071261354078, 0.01177210415457048, -0.18690257633974725, 0.31080776433668655, 0.2047009484511743, -0.14501696076586704, -0.02523492003715785, 0.06953656689584074, 0.006986330548069955, -0.06881801087487818, -0.03813883602153635, -0.00893763260053513, -0.03970985293949994, 0.013843082161965276, 0.08610786477928074, -0.28644764344544027, -0.1916674715082676, -0.0839659620787995, 0.03439795099305176, -0.25189117624327334, -0.08639534658606861, -0.4275834117143088, -0.49677095389322123, -0.7623081519802889, -0.48312422257445675, -0.681057920329329, -0.8739320172705879, 0.21806583802385301, -0.2476964141323797, -0.022124595092658027, 0.13748966195998027, 0.19159679903553595, 0.059423462557106836, -0.14091628142789617, 0.06762719394183973, 0.0011614239600270324, 0.022323868273722104, -0.024743150208639576, -0.0641222956442459, -0.020369948093888247, 0.007869958361123319, -0.09745920800773221, -0.07456328503215895, -0.5772814630724536, -0.5043425729704119, -0.3390728335699359, -0.11372432541536427, -0.22465875793576834, -0.3444047067814661, -0.5354233449427718, -0.7613925800476816, -1.0133880650857374, -0.6716219903558623, -0.48474619025301746, -0.11333970293464493, 0.012962581991370844, -0.15912236545709807, -0.08937115517067191, 0.3031440636304347, -0.0641859331682355, 0.11546415254459688, -0.038064437132756014, 0.049412274942608726, -0.008808272314354694, -0.050814557221514976, -0.0047275828050997015, -0.010476239958527376, -0.04794859465531504, 0.10956309495879214, 0.03659182637263239, -0.15936740549106126, -0.272335962198537, -0.4783061537569818, -0.47372096128604424, -0.4558804824006307, -0.40081318155013346, -0.6176750627882505, -0.9050629648328452, -0.8854708164179348, -0.912275141563769, -0.5156287355041488, -0.1982523600715961, 0.16775257520086959, 0.15301124603932806, 0.09295213772992543, -0.10655982843240859, 0.1977509111372247, -0.03934746966095549, -0.00033567006297690417, 0.029881423646630604, -0.012425575710364777, -0.01779390139309667, 0.004774114387752192, 0.05699688575081406, 0.0039645266526927465, -0.031805697171568954, 0.16786942404803368, 0.021665212578247266, -0.1829509483404134, -0.4076391639693599, -0.4668701570788092, -0.5574642524212838, -0.44875064582376895, -0.15784820495987503, -0.09552321643016758, -0.8414096260684204, -0.6564447782116888, -0.5305575490438601, 0.06393676785173716, 0.4680051950189247, 0.0408105069351375, 0.09381046225518108, 0.23288128446627288, -0.1216041518854225, -0.005205941965441321, -0.19341269826420884, 0.1623845188970041, 0.04126713702371986, -0.07649902954093707, 0.030117737295975472, 0.03702250195788877, 0.024015872359478736, -0.009726383802900546, -0.017921137659265642, 0.0656878251012751, 0.19253197688979007, -0.1928176831894295, -0.6928371426020189, -0.40329055564363714, -0.2607029558869728, -0.4933519046692913, -0.4754901935911348, -0.16589285974661513, 0.011429321107082715, -0.1723335366574745, 0.06968285490364957, 0.35401211637313557, 0.16993907201401154, 0.11629074825455404, 0.14868231502140472, 0.004575297244998791, -0.10012365719827376, 0.10377315522252178, -0.04342668578822148, 0.08663718870941498, -0.008627339193471535, 0.012138048771266001, 0.006214254019397599, 0.00208130009941158, -0.04798821007978317, -0.04130341403506507, -0.09350480916328775, 0.03908557074924961, 0.167713977088914, -0.09823635917960921, -0.4046653430931647, -0.20481194069190437, -0.10280180725507168, -0.001628320249768276, -0.02999203908414175, 0.1679933395764989, 0.3183481543692863, 0.7841338731772687, 0.8097724900219978, 0.2191440765340717, -0.1868737943830068, 0.3121231920615599, 0.09522335262028558, 0.1184402594443747, 0.30484394461345155, 0.08082404787175305, 0.20471322372685927, 0.13000033187074558, 0.12793909188136698, 0.02835114036372424, -0.027651111839777306, 0.042306662148329524, -0.01328517597763641, 0.023822834426750254, -0.010278895618571678, 0.009718909715692845, -0.0095728438980213, 0.006594073554728465, -0.2202282613383413, -0.09511211874923228, 0.07147872434781549, 0.09267098789620037, 0.2389662934413969, -0.010147957289248796, 0.3232447458157406, 0.6169156304991743, 0.3586013068327077, 0.0026598519766157518, -0.190122125035817, 0.25900836067342115, 0.017011710514032663, -0.19003209690030895, 0.014876711821254246, 0.049782935100340715, 0.22498416992943268, -0.0032956574210283502, 0.057512501390397916, -0.051087369447048205, 0.02295120965597034, -0.00622551150001617, 0.004496182313904313, -0.007263908558940746, 0.013096516253872042, 0.03168172718305157, 0.11191716696660102, 0.15261728541868624, 0.04045704535946915, -0.02276085075378457, 0.08850180920171159, 0.2431747568136636, 0.4502684053966629, 0.3509395203828728, 0.2031786211023138, 0.5547586021751694, 0.032249783610195135, 0.27790070650914783, 0.1653940287022099, -0.20550272113241438, -0.33334747724152636, -0.11211026080527908, 0.025382854361825424, 0.14562745405177047, 0.1831376233715734, 0.07522441669157541, 0.006987445907176877, -0.0027979791550487585, 0.01869233042660416, -0.02680461172589373, 0.0017281068201326372, -0.022215881490901916, -0.04504763668546545, -0.042274147667492344, -0.02211101943395869, -0.02470540691925397, 0.07733177103284512, 0.0957299208623587, -0.15889828679992068, -0.2630300622843556, -0.09290724547875569, 0.11912515606534256, 0.2567405558635166, 0.3297000863633036, 0.4573968751839772, -0.14333879593364351, 0.26427268939907717, 0.3626661832925303, 0.22653219297706953, 0.1293625777569178, 0.044754369224799743, 0.11198586481671659, 0.04057793652681169, 0.050081467671289515, -0.03485210336813543, 0.05823359296313834, -0.029109987858727964, 0.021481551185396297, -0.0782847784337522, 0.05515426808728418, 0.0250201822775176, -0.08022875554858433, -0.19925506252570654, -0.2447607794991106, -0.20726155406396668, -0.025130914227258508, 0.19674243142151002, 0.08297188004675787, 0.38188097835442897, 0.38545477650994137, 0.5065910017196478, 0.16708295374040888, 0.12355879818166902, 0.011706905568600599, 0.232778630319093, 0.32985241014360484, 0.2946416799346437, 0.0362847481511141, -0.026850366378148072, 0.0672604250594269, 0.19250111414379356, 0.10602044331198078, 0.02994791287605568, -0.02925525756055128, -0.01699099174551565, 0.05296658329037425, 0.021935979280984085, 0.050212820159304755, -0.02760011699377686, 0.0004460686187132235, -0.09888070956452193, -0.09775207058991882, -0.002653477314545186, -0.08054547998064983, -0.12959504233648766, -0.1214294791405108, 0.10420403137572079, 0.23656289779901465, -0.02794902380831074, 0.05575982604279042, 0.30915575171909, 0.10404760398319243, -0.1602172856039873, 0.015403703986037985, 0.0975151765187448, -0.04075599724611597, -0.08544056822487453, -0.022773866989182226, -0.026257116718855025, -0.006528100602502457, 0.01773613752155991, 0.017234728685819063, -0.01248628490877525, -0.07515634907124348, -0.011238295485217627, 0.012444535931617373, -0.03500846599368022, -0.013373217520176797, 0.042205184184610604, -0.00604497188624603, -0.041718128979496505, 0.005510826834437073, -0.03181634768012213, -0.0194779695245289, -0.0024685911579448517, -0.018504872791984293, -0.05729852383505911, -0.04525925124184834, -0.04261412559057448, 0.00019675986626171895, -0.008727448231359802, -0.02179444783668179, -0.012857719738770753, 0.010758945064953927, -0.0792291683564852, -0.03322091824052193, -0.07976455067625947, 0.03494479500729182, -0.023873108661239595, -0.0542441813959096, 0.016132019528994616], [-0.05017939460221069, -0.05034407626755099, -0.008626870470372808, 0.014766192927652876, -0.07489598527711018, -0.016328792139084527, 0.022806311845612985, -0.035297984077388656, 0.011148660926255303, -0.004277655532897985, -0.035381166213280614, -0.019297861183294174, -0.02483713734633298, 0.013388459272470522, -0.08668347505756564, -0.012961894052338458, -0.028545274680194795, -0.03083514189147761, 0.019431977562229585, 0.0048478836043660415, -0.017268779376680553, -0.03629427951865343, -0.009925014238334567, 0.03978348129783583, 0.0035484376592534715, -0.01215314655163888, 0.020104109878513833, -0.0055139907983294476, -0.00989923125820283, 0.004496847506156814, -0.06788067916729808, 0.0073009583261444055, -0.015685296379695412, -0.058549835454559156, 0.05892888268405377, -0.020508379710414422, -0.03099745544528651, 0.008291639440038094, -0.0028229656383854337, -0.06458033448119731, -0.04371179687565341, 0.025859630950148375, -0.03983514332460579, 0.011166928366847727, 0.0034798161057221673, 0.02743723968762466, 0.05963161513903975, 0.014419522385000692, -0.021288881100811365, 0.007475538587196306, 0.017014390980930005, -0.05511436699338046, 0.021132665015511972, -0.052571780672743075, -0.01453662662586414, 0.007871213197334205, 0.010130074584095889, 0.05688755915791505, 0.0411163495470359, -0.06967659448027828, 0.016445914592757228, -0.019870832436931277, 0.03727475550361826, -0.0047492034667117, -0.03278544317291715, 0.05339343604481886, -0.04407753613346471, 0.10283754244694697, 0.0458567378048497, 0.04186292139925524, 0.12797968015876982, 0.05784763468976745, 0.05278179175372755, 0.09960928604565525, 0.04423471901292014, 0.1232639911778622, 0.09007858318192274, 0.07978478918245277, -0.0332315323980731, -0.0038850827536301906, 0.0014069066457711385, 0.018466718727104422, 0.060531605756394234, -0.009783321471151404, 0.02521258975126208, 0.012829325815168897, 0.02990587405617395, -0.016369487262654712, 0.01664566884812043, -0.03122427146246683, 0.013908777932060253, -0.02294528662276505, -0.09991872118208246, -0.1286531177618377, -0.05214004879251145, -0.0818429934505028, -0.08371312030522708, 0.004750146840434913, 0.2716794249799719, 0.24205552337695868, 0.10957797147596711, 0.11727130564162518, -0.1439199405978677, -0.008767177518806155, 0.12277133532753999, 0.05644569315174544, 0.07473021192222969, -0.023159694490127017, 0.016111340820421906, 0.07139058804380087, 0.023195804314021594, -0.09137788907903657, -0.01859775962144887, -0.027917282312765027, -0.0148336425193721, -0.07675244288876275, -0.00022135266693395285, -0.0014445374959026534, 0.0047414770776794705, -0.14639617733859736, -0.19211591563441435, -0.16041166346244143, -0.17775156454494506, -0.2468415593465542, -0.1873875470505365, -0.22821026848816794, -0.37550699480794314, -0.28515241163173044, -0.27333493187319685, -0.02459891868002581, -0.26663392447005324, -0.22613461237438032, 0.0767529722935776, 0.2975306351495489, 0.14705245197636901, 0.07942862717200974, 0.02027838772065983, -0.13154406638642968, -0.05279314604002937, -0.008176279107632379, 0.024015649880561686, -0.005961051020436112, -0.029378823094055966, -0.01710538269842214, 0.06995626775995172, -0.009195661239914906, -0.08132250599405014, -0.16703996582611588, 0.11058548551137662, 0.23443165213627912, 0.07898554530113437, -0.46198773304191454, -0.34796511037518274, -0.29681133344159966, -0.6722943222470044, -0.4861422775132726, -0.41676521337461053, -0.4664439955840733, -0.5066845469643031, -0.6732110752823871, -0.3566669315128084, -0.16636375186479996, -0.21034375587477053, 0.0185632092835176, -0.07521654912024227, -0.02373159567188415, -0.011867924885416182, 0.044185996781036935, -0.006752696135917065, 0.0520546712411349, -0.005357101449758847, -0.011457189253531723, 0.07840129619450571, 0.12023937673855375, 0.08143992603354056, -0.025517304864254745, 0.37434272593304896, -0.072969371141363, -0.7430416841372995, -0.07347905368910315, 0.4515000382443373, -0.09595092056661736, -0.21012214215212296, -0.16304249265679052, -0.17180438240777854, -0.02037207398165453, -0.34114340443127794, -0.6995931608614175, -0.337454161473914, 0.26804800040992804, -0.2664523447726919, -0.35585586877068587, -0.48834011542974687, -0.3607797381241943, -0.02605455355932665, -0.026453472576161464, 0.054846912228626164, -0.008388972838029711, 0.02080786616405988, -0.07206129433918401, 0.12942393508986028, -0.012063146827684177, -0.11056468269937546, -0.12459461067738044, -0.5528914087051517, 0.293403933987189, -0.04583559410090924, -0.0671351634696806, -0.23252671993387622, -0.17859128217981268, -0.2852885544877552, -0.09744050351303063, 0.19154726018944054, 0.2496421185545781, -0.36910528271989795, -0.24036964978361153, -0.15052024427029095, -0.2381502729804094, -0.09218131652705969, -0.11264716144829684, -0.3356822521386752, -0.3366467233423991, -0.12897528007115663, -0.0424046055952254, 0.015583741626361551, -0.030751776991621665, 0.03177577691381298, -0.03345482806803645, 0.1779869081364988, 0.10713482696453454, 0.07266069534384055, 0.02123960936607128, 0.050553273918497024, 0.27144163762926143, 0.0076883673824199835, -0.20377503319942758, -0.5130729488294286, -0.2509710337017575, 0.2617789271067383, 0.03670171924659929, -0.6162923602888192, -0.16340660773689852, -0.021869662997267305, -0.35049399193613884, -0.43764865420167226, -0.5821723683287716, -0.4168312334245878, -0.13021058771710858, -0.14748684898167572, -0.24884931951538483, -0.24061271199712733, 0.0035003119091611187, 0.0032807346625238244, 0.07364271164130722, 0.05284951802804684, 0.13621949576175338, 0.22925435699638136, 0.15421354144673943, 0.3356692844892894, -0.014126195882332711, 0.17503153003013766, 0.18811686139936273, 0.35604026329773913, -0.06675884446711267, -0.04380653712682526, -0.17411787528611875, -0.26696889591926076, 0.32003385818047464, -0.4672252589542075, 0.450423763597461, 0.034838581136763296, 0.06139540590659059, -0.1965473235747772, -0.22526436311125692, -0.4049204702948118, -0.41671639143073624, -0.3041284668554356, -0.6194462644229642, -0.3007424644721251, 0.03113005685526567, 0.038395697894967815, 0.0835991477315033, 0.059223071221104144, 0.03564930786730311, 0.17550654892782847, 0.19518570258048681, 0.44094265757278767, 0.16601439931614925, 0.014362210954409297, 0.47560747716189755, -0.161566594940621, -0.29110470362845986, 0.40280678478229537, -0.058785141191658154, -0.4747245370078289, -0.14904742965264958, -0.07287156896022286, 0.07779142658005794, 0.36200596357790127, 0.1927460909137967, -0.36339528028264595, -0.6850876629446562, -0.31127668528121577, -0.4514995465727834, -0.6356875227395388, -0.5750300944077006, -0.11475007230420856, -0.062222860884953275, 0.023608721269871697, -0.032250891905588525, 0.03649321825598255, 0.09859054583527507, 0.0684692875400803, -0.16778338621111838, 0.1472043076827068, 0.3622345242178357, 0.05425077998005213, 0.13554543294761318, 0.2757407936870953, 0.8184143660741549, 0.6865413874517933, -0.41343637013814977, -0.41191985299275435, 0.3394462367851731, 0.5904717688338031, 0.48253931761846164, 0.5815200806346373, -0.05663616038534062, 0.13223020271586333, -0.06486120033959343, -0.5846178972149783, -0.9377065591137761, -0.8751437741916931, -0.5221628854101077, -0.1508264055334915, 0.020606494058192638, -0.017305779106576505, 0.009005594679858774, 0.03276389986812936, 0.04674568576957276, 0.0788339277470648, -0.23435880257487007, -0.16416532800926312, 0.34773609312902987, 0.6130611993036544, 0.26705786750938093, 0.5724049601857151, 0.5092796350993896, -0.17845121701642905, -0.9278819517130803, -0.7225177298033791, 0.5448248899765461, 0.8066804171762754, 0.19658040937932675, 0.5858649184069422, 0.4114464529203123, 0.5414163241018763, 0.38700589486985626, -0.06573179094210957, -0.6457688162016081, -0.6757670045905005, -0.2675634088389121, -0.07491401807678529, -0.032985238602097754, -0.05347658936717642, -0.030734308865109312, -0.07970169574462327, -0.024499946387823043, 0.26155011438935866, -0.07872973876512172, 0.01615798248824203, 0.6010516904783778, 0.05017641346434799, 0.3811094359706969, 0.8462959963113769, 0.25159129981812933, -0.6444883265723792, -1.0579488754324438, 0.052768149965290605, 0.9971082533234504, 0.5929439478845747, 0.4482282834068361, 0.3610797342709154, 0.49406175486674025, 0.9654913686215306, 1.0343823586830367, -0.0493164977072974, -0.46943807938967264, -0.25068802813452606, -0.09088501552073824, -0.005926374131510177, -0.01566852191109463, -0.022069310781679258, -0.024082365682755118, 0.04984569072294738, 0.10136741511668393, 0.1578756086016734, 0.029362747419442753, -0.0730413069472972, 0.22786444800818847, 0.5967608424998891, 0.22479102443073326, 0.19502784260837894, 0.3337399933849147, -0.3572497749198993, -0.5864223222440007, 0.2220160066712243, 0.6253460428517167, 0.569838251042178, 0.39842376780925426, 0.7784546702596464, 0.986454871960367, 1.0387108541289054, 0.8949088705809153, 0.36191038712777773, -0.040746211921432386, -0.09158824523400713, -0.007113376303332486, -0.040222504354685426, -0.016296212557932323, 0.027828568684834177, -0.01753391129286275, 0.0162637361250874, 0.2184569360411867, 0.056868131030494776, 0.1030730158966393, 0.2397269649859875, 0.047744128934514594, 0.0492935541793457, -0.1160815860166272, 0.42309149136814594, 0.20272152132240728, -0.5657313236442896, -0.418513520457748, 0.23503960097711943, 0.7608369502457866, -0.034109237368557255, 0.5410332016791002, 0.8760571261122386, 0.983566302633772, 0.9236448587557549, 0.9220533087455987, 0.4995942101114354, 0.03194874545480623, -0.18043549924634103, 0.040774582708184445, 0.026665910267753088, -0.006867635167595068, 0.013990145756970548, 0.01569990157772966, 0.009122038577408625, -0.009856577034247657, 0.14635591357062536, 0.3080324135165454, 0.4771763134989266, 0.3028367061630955, 0.43140052417304964, -0.20992223393435877, 0.5230895553754675, 0.33033106150826236, -0.31973521388318565, -0.45180189637343654, -0.025918643670085232, 0.9646982568812049, 0.4573262246392246, 0.6629591741686847, 0.7358956411613103, 0.7394320253603325, 0.6589882135841925, 0.2720053762861571, -0.15078440759846717, -0.33188832401785234, -0.3153071220096152, -0.02577417426138863, 0.07503785250114553, 0.028629213371036386, -0.04703415594659238, 0.011648220863067911, -0.00919520002740689, -0.18600000642149572, -0.008820429444999367, 0.24131773597949802, -0.12333979705888494, -0.07548728274664217, 0.10122101661834222, 0.30287121307378795, 0.3111003307333892, 0.4882493283753518, -0.4448864266175614, -0.055936474078842606, 0.4292817800868309, 1.2111477546365512, 0.40518661109227755, 0.4177319772553747, 0.5594484049648153, -0.2940664736119729, -0.10782238021124486, 0.13407545974380972, -0.4494198733909595, -0.3716361840965338, -0.31921989995865313, 0.03391979514747674, 0.07154994021057369, -0.07275089980565554, 0.0037679854391200734, -0.01716876060334793, 0.002909209120309898, -0.11108391920305626, -0.05122403488008954, -0.056100335440458386, -0.6158404743532555, -0.3030801138959299, 0.017931370339794143, -0.39255362228660734, 0.015912901532014235, 0.15011471905716184, -0.14704644408327028, 0.18555447091235475, 0.630830905047791, 0.3298994324165858, 0.1847117159011031, 0.3162800291424584, -0.49235164230564743, -0.43516429393803807, -0.34662786408060525, -0.2639410706158229, -0.9302643372785381, -0.989005793255513, -0.5852930518867404, -0.17552922347096978, -0.02019852699158264, -0.04375841167779752, 0.012590265824446516, 0.01853874068861922, -0.02918206842593188, -0.05871854401961499, -0.1354051926666606, -0.34364600595373596, -0.8117555448259888, -0.4303184631381135, -0.6786151210945106, -0.9885819179070403, -0.8479300847236254, -0.39662821760827716, -0.31215987781073123, -0.6342977394646993, 0.207697080571442, -0.17622120422462148, -0.0979873917977892, -0.3995812714332061, -0.9926373552161682, -0.33086867505008694, -0.6680286048012543, -0.9026668215455833, -1.3606315992484554, -1.1566384373803942, -0.5110688834528624, -0.06338178219318427, -0.04304588375309969, -0.08185776004204506, 0.0010241489220079824, 0.01909614130038106, -0.04164839725019654, -0.08570359395604274, -0.20452143262641487, -0.2728258745511986, -0.806923772587861, -1.092391329511261, -1.3354748976152415, -1.1954231079082063, -1.1928775939646863, -0.8097309125435554, -0.36616552761902516, -0.5789094220402111, -0.3444903580332452, -0.6686692187985277, -0.3037803147441721, -0.7203765088805396, -1.0189488990204971, -0.4887037446226963, -1.0626688255023156, -1.0386031749504427, -1.0552096671696516, -0.7775280714991126, -0.3039534381309875, -0.12479351614758027, -0.017610960750388233, -0.026143012602820783, -0.058895635922307885, 0.03002796467768223, -0.07445412078851149, -0.23938263728003006, -0.2865198489530798, -0.24165041475023494, -0.8618585782400054, -1.0174559028166659, -0.9153105657370262, -0.5377316975511046, -0.5946584138909827, -0.47669689579389035, -0.5546246169836477, -0.6349400390978011, -0.6927630478143312, -0.9181580752385028, -0.04110559958456634, -0.5134946720769189, -0.870856662419454, -0.49672889050662433, -0.7516330138586306, -0.5594221139323232, -0.7155821861671681, -0.5585156058679531, -0.2668553932654255, -0.21327353614472977, -0.02738109021069234, 0.011911084780207604, -0.017336991126765084, -0.008443254507870628, -0.0618504617119302, -0.2192707865751116, -0.2317738190719396, -0.4171617429975178, -0.4845422511721154, -0.31406758273314056, -0.15676675810532423, -0.432097751465148, -0.41138501773531216, -0.4282241406651655, -0.9144587847155251, -0.7498092190249561, -0.12117582035647496, -0.3184575812564273, -0.5135049887684483, -0.6547601761104254, -0.7038816061364271, -0.682300643568768, -0.6353291997278984, -0.49162183686327926, -0.4119906775501161, -0.4259600352690739, -0.23199526353268737, -0.1446232793708108, 0.048639444649987776, 0.04058656808089096, -0.060803039852041836, -0.012863808362772016, -0.03632759225731289, -0.1045389699074808, -0.350775182750604, -0.42759334249164166, -0.17722746074620113, 0.04253641875856369, -0.01084330073774131, -0.14500740578018176, 0.02712583264673643, -0.0656343758845327, -0.3613289301733861, -0.1959175543280347, -0.30581559332231545, -0.6452357947502546, -0.831927474942137, -0.6331571098498266, -0.4878004973667283, -0.3268441680981179, -0.47186013487085704, -0.31101629271764325, -0.13076711932420074, -0.2656368073346425, -0.23028884732443505, -0.05668600998396514, -0.05452925363272265, 0.01842175216501568, 0.030319909050964874, -0.024730076923630166, -0.044805447899593634, -0.03775834491887785, -0.10689210684445011, 0.008457936608288084, 0.18115754475317294, 0.14183967348415238, 0.187921397592214, -0.28250344982911735, -0.07565497482045455, -0.09527215773103667, -0.29551664966052776, -0.390537390917424, -0.7834327502059466, -0.6189122434789448, -0.4798535177139786, -0.2733231996554941, -0.365021475526815, -0.5395036493986937, -0.20768116119661434, -0.11032004404072106, 0.1458543874927441, 0.06777411998154625, -0.10316186952251456, -0.017222080706303954, -0.03700523903323761, 0.02281538640276381, 0.032885737666565364, -0.0013572921931373741, -0.013690927916007971, -0.0706796313819259, -0.03586574564472838, 0.10469735484293112, 0.22955228413690398, 0.22200376556157408, 0.0771109520393591, -0.10324073906054594, -0.17785053573332762, 0.05612208597551483, -0.20321822295664352, -0.4728760219486879, 0.24860743328177407, 0.006586609463136861, -0.3470496349512369, -0.19401023037557724, -0.1204471309656567, -0.37075058921310355, 0.011515907510443532, 0.2651997836429576, 0.12250309618424325, -0.04194614698067021, -0.05034702404425878, -0.022342945506804393, 0.014650147716591198, 0.0391786912261019, 0.036641423350657294, -0.040640833952461534, -0.03034234859397736, 0.011375778316570464, -0.005198205715893727, 0.054971034403555843, 0.16966281580248563, 0.2165074538144671, 0.2462283077232858, 0.41453773178667447, 0.24245658431621578, -0.010223374416748563, -0.17131071966817712, -0.12034565974343195, 0.15824476359872255, 0.08038298951997766, 0.0003992481387921401, -0.021942516382502955, 0.04345371309858433, -0.0706141172667471, 0.13754623298470758, 0.1661624658337226, 0.0578480948928988, -0.03840964430546914, -0.0479860588302745, 0.014258835149436093, -0.044487603157645945, -0.06088090922327159, -0.04760797530943582, -0.03087924469168083, 0.00612626366587499, -0.05194793482168064, 0.004785171653011216, 0.08789796964299329, -0.053526231799883875, -0.02116443478511379, -0.07248789662390215, -0.04942394412385098, -0.002303645949243069, 0.05232519873530693, -0.018125228842654734, -0.013554614294026622, 0.002909100820755811, 0.07080972379214989, -0.03655948549035342, 0.029230177540049754, 0.15540594195539617, 0.08976103700665913, -0.010970941418226942, 0.07958994306184883, 0.08053903990387433, 0.009910674118282406, -0.008681902318531349, 0.027969850599285816, -0.0043256806416575614, 0.009984813360592827], [-0.035611799769020465, 0.048074219281477856, -0.008324356391500448, 0.011583376832686967, 0.040519179828573816, -0.01879511869321055, -0.03660994166699718, -0.01134729552015204, -0.007997694556279824, 0.0583279368302892, 0.0026766851518747045, -0.03352643925305723, -0.01935966279962543, -0.012981311971418961, 0.04481376661526363, -0.07303663594082654, -0.03148835562704499, 0.012605490413451163, -0.028747760005406638, -0.12080591278028731, 0.005951917728837273, 0.002951282544829661, 0.0433725211474679, -0.02230269316164863, 0.029563608929903465, 0.0080466201446879, 0.0007509873153952032, 0.03386141187819217, -0.026185527540167043, 0.011133382843407213, -0.0005616929991798212, 0.016428189962552818, 0.04538222870610629, -0.005086877869997786, 0.04829010736847447, 0.07199102450157313, 0.013074907273983099, -0.051419791605384194, -0.03280209831941332, 0.019039784668495208, 0.035475588428487526, -0.020515742141211532, 0.023196999452655364, 0.005027004127303524, 0.02707972991393065, -0.03800095581505906, 0.012887068199761214, 0.00031284160111925703, 0.0006339905084606698, -0.015471494765518973, -0.029755331610928987, 0.0020709301282366916, -0.019033555132397892, 0.016628561839386206, 0.037556166023609706, 0.006005118348382143, 0.0677080107858319, -0.021552080108024438, 0.02541140545485749, 0.02274335601237084, 0.009930448737389401, -0.018461950398941374, 0.07364317663802733, -0.08727086148118231, -0.03972580251547499, -0.049462865034717605, -0.02971964560918208, 0.04940744546961126, 0.010380502199028504, 0.011430473253890796, -0.08889914940999727, -0.1736119500256391, -0.19514983049119142, -0.1291482989140004, -0.12331324688530515, -0.11274832162216829, -0.013504062453850734, -0.047461158489822665, -0.06293061817073797, -0.039633422723526324, 0.018274598421381186, -0.02301614807311449, -0.0069430605880916214, -0.038958977786699885, -0.008655685286146492, -0.007561707389312457, -0.004892850829403623, 0.005627987819427038, -0.017856052830513298, 0.05219479728659824, -0.014394243683672439, -0.0506043114199603, 0.023596607850785874, 0.053584125393889376, 0.22179573664596175, 0.20150364373712476, 0.42245947373143594, 0.598382223267279, 0.576704031109061, 0.17963866751951796, 0.19135173087810411, 0.10467981752112095, -0.29342306336344315, -0.297404588326912, -0.18886031281293691, -0.19745206165053808, -0.12202932405745663, -0.09210549007393007, -0.09763212266784463, 0.03702377129985515, 0.052924024434996, -0.026772873464507095, 0.006994748208169336, 0.03456035047266877, -0.022626755944773952, 0.004862532784907077, -0.006985156627687046, 0.04695921815480621, 0.15374496965385212, 0.10143801009104164, 0.1364412197535284, 0.4848844881770228, 0.5401689998001947, 0.6826318826856096, 0.5745767403792765, 0.5005743743477301, 0.391144652800619, 0.3513520340289363, 0.18057320609312086, 0.22061510688982913, 0.14397691107514998, -0.04510074315863766, -0.331624974153022, -0.37949653398327354, -0.23711542105705982, -0.2674362401932627, -0.07695144971812691, 0.04464121128118261, 0.0771414299649836, 0.003562207327493743, -0.00556206945134627, -0.006361190213529589, 0.0039789451020613735, -0.03264548477583039, 0.09554662691415673, 0.14259824132684545, 0.27335112807917933, 0.3135845042037945, 0.48651975334788894, 0.6936140088914474, 0.947921195063145, 0.6750246887729747, 0.39277867647827797, 0.4883656427623481, 0.4478313410003749, 0.03747277081870384, -0.027579649929179932, -0.10662447604972124, 0.39130891246589156, -0.022839229103091167, -0.28215791421364966, -0.38192945177442394, -0.2654980097900645, -0.33059054956441214, -0.16447688442031494, 0.004647952724620353, -0.004210990218754853, 0.03905910456521401, 0.026671563620819922, 0.007830604927546324, -0.0013925016931564146, 0.0937096589236482, 0.06450718659705014, 0.19156834643967086, 0.2656836856125175, 0.1829653972714874, 0.37814381442353845, 0.45653380256615805, 0.5425034456017352, 0.3579455581197939, 0.1682945580410701, 0.5959013583131537, 0.42391010327298184, 0.02235467054852831, -0.12584611268636753, 0.07195106974095564, 0.2069571283406246, 0.11324366632306214, -0.26068918635556104, 0.11707619407255804, 0.12943269186489423, -0.3191553771734687, -0.22986079498937104, -0.026286854777798553, -0.002724752113576969, -0.013329159105799918, -0.00901815853428588, -0.031767949248423265, 0.062430021601107985, -0.02234429618580106, -0.003985616706612743, 0.05487094241942222, 0.11498996852243967, 0.0012245908630484166, -0.1395116544777332, -0.08401005724160168, -0.22754509244952695, -0.040308670407828026, 0.03291041592369704, 0.7011511079793399, 0.6665976502100358, 0.3688190175851577, 0.33080304021081575, 0.46538860795732834, 0.44408569251757674, 0.3601259668155571, 0.20041999161102475, 0.31730837626320313, 0.13047299412480276, -0.05914529307984254, 0.025233536505297815, -0.07821258133908292, -0.03292438805931504, -0.04216187950147346, 0.008127306780305087, 0.03261641196669748, 0.007659928580102603, 0.02437381359428983, -0.004235496863992304, -0.19701582003822735, -0.21323326508549073, -0.13295745794991068, -0.330641588205645, -0.6462632153777684, -0.3667674983564696, -0.7013786027470502, 0.09681106339798035, 0.02644052641055677, 0.6926259142909632, 0.5914679290985824, 0.5572588488504534, 0.5265706181892266, 0.39332691601782754, 0.14948272213143113, 0.42957426437951196, 0.23533417400868845, 0.22679391630824974, -0.1167280532845881, -0.14710382768636515, -0.04652375020200202, -0.013648047577374606, 0.02621338109869763, 0.07299036954128042, 0.012589625854581715, 0.05389770371980304, -0.030990342871764637, -0.23971009280901578, -0.35067953688437337, -0.41825509344798034, -0.5728856921398946, -0.7098939960951314, -0.6916191509176859, -0.5250117774002325, -0.9507949322989101, -0.8480343435869792, -0.761654069063168, -0.5232393804422479, -0.06687671238523452, 0.3746474966372869, 0.7498084382995686, 0.5439676454528051, 0.21301929308938378, 0.41844886539766635, -0.17536566721100222, 0.10962142422186323, -0.09971075437132468, -0.10149216919197991, 0.045989018243180364, -0.05878249576465098, -0.009501012827965423, 0.02858017100330176, -0.016250518379301367, 0.03961378410434031, 0.03437548633458664, -0.3050959285623166, -0.3590050982182589, -0.4743983126478287, -0.6751075803590082, -0.7855238921151568, -0.9093434254054913, -0.6557420116512194, -0.8695669076441063, -1.0182901199196337, -0.5936250849765885, -0.44178628010423326, -0.5059114155932255, -0.1619760384395408, 0.43471922075734004, 0.15834382314590134, 0.09096044604878283, 0.18969580771872568, 0.11329016904526697, 0.12977641299858148, -0.05175953023964067, -0.09460608535935348, 0.018746251802883196, 0.024594555416823247, -0.03591766519142113, -0.12218881700706373, -0.008339195682286084, 0.07814502441594039, -0.028907681130565955, -0.38162844398322293, -0.4538583000193242, -0.5155316289449104, -0.4385413654053364, -0.7091508459594559, -0.6463646502396284, -0.48905960424954253, -0.5069595587001822, -0.29708429021879224, -0.28466164106827735, -0.574535645316001, -1.0160610433183987, -1.0636499913942956, 0.0852450659129256, 0.20118852983540425, 0.1559008471401605, 0.20480095231027048, -0.15008049159301112, -0.14376047074952547, -0.18078397536206758, -0.03648987015684259, -0.054944054071078344, 0.06390959357540285, -0.02024660776635261, 0.01415911754060301, -0.027342548344409124, -0.03581361440994781, -0.08374336124811385, -0.30765884632491314, -0.5006058982902127, -0.4485002578062273, -0.2562617652061058, -0.27523819394778964, -0.5403717223752489, 0.0976279085759163, 0.017701029092073942, 0.25434795651600683, 0.08846487772797364, -0.55515163686137, -1.0931157419094695, -0.6603760766970841, -0.28893498456645605, 0.3753334248717836, 0.2280938587428442, 0.10816246126579245, -0.3178306847542072, -0.3712288285064279, -0.3419290190686533, -0.09009021243693999, -0.06375406367589234, -0.033313411845668175, 0.025228433104163776, 0.002885138552637877, -0.022699527531393836, -0.037644909866467846, -0.03637530115842023, -0.2269331963212443, -0.3209690891865223, -0.2693006512632805, 0.20571004665020426, 0.12498990812154398, 0.03363831979407789, 0.5156849049075104, 0.21161405061862132, 0.4131480518899033, 0.1585571670889833, 0.10884883952220915, -0.8164310859650055, -0.6399925493632519, -0.4946854313728596, 0.28108844535262173, 0.13865654571709216, -0.0028577347157946248, -0.4084843377182017, -0.4461734699137615, -0.20617831517073695, -0.09962308620916287, 0.06360458154727228, 0.0683642100802809, -0.006615781651769922, 0.06652990337253166, -0.0682916540207764, -0.013276376009695244, 0.04849377841441047, -0.1629539508818056, -0.01680939711064349, 0.0907328220979441, 0.45492255355467687, 0.07953305761462064, 0.14151148494094412, 0.32790015587937826, 0.09902032381491305, -0.06983400582130755, -0.18512272938195426, -0.024079818309945294, -0.3616316980551308, -0.5633793676372998, -0.1567446816719244, -0.020691926891509987, -0.03218010413993323, -0.10310029351013847, -0.05795325909436444, -0.15835476741526203, -0.08020741332684897, -0.014574036229793171, -0.0033043705083789015, 0.030908244298708212, 0.03603377381539895, 0.005327545597635105, 0.02284661712708219, 0.0009454949194769317, -0.019439930680038756, 0.0013665547576521752, 0.03755865652653425, 0.011495713407603407, 0.20155598996533516, -0.344016863859338, -0.29297216741114074, -0.14973246218296146, -0.6271088582651047, -0.733138728372085, -0.5186700720358778, -0.48415717919403994, 0.012515056693557805, -0.11991308344713567, -0.11419774980196434, 0.07053091229550827, -0.11250151885189734, -0.3352056529414592, 0.07137706550628788, 0.030182055485148605, -0.027504808870864858, -0.03699550264948736, -0.0567993640730863, 0.0850364982128314, 0.009188290404513, 0.004092257372335227, -0.018471105819102534, 0.11843429523521139, -0.004073778189014232, 0.05279371674625058, 0.07582763744360965, -0.25964639528493483, -0.24228118231362442, -0.06414132447548224, -0.24554266234617636, -0.1451400281423388, -0.6520345577122209, -0.6039235243143061, -0.5371308440556972, -0.46308032108024766, -0.22370172120424542, -0.3692788151029566, -0.19882586862910248, 0.07350369655461464, -0.04811135362408329, 0.21648386632963545, 0.12468128709567126, 0.06723328366712143, -0.1209722838392267, -0.06355603381085809, 0.015114317986981003, 0.03630476871230685, 0.019111584427506708, -0.015979326807238785, 0.005471636909296875, 0.08628390431518476, 0.1423245415390049, 0.14559683070096846, 0.06459567482780632, -0.42187831132616266, -0.5041641242027158, -0.29867347527743987, -0.4205034557522685, -0.2901958443697795, -0.33431777833706844, -0.438206645585024, -0.8350549940056141, -0.9829266672571236, -0.6745266263713471, -0.36233154119693534, 0.20140077411934873, 0.07606103002270356, -0.0654145136309352, -0.14718647796042114, 0.19241880446740628, 0.010671717389678037, -0.11635132079491026, -0.06873900585909333, -0.0017719957190415914, 0.049794943847349636, -0.002987364932074643, 0.06423742932590315, 0.02172779755993899, 0.04535792062478412, 0.05717270031706633, 0.05487286989067703, 0.013922032896861272, -0.4080301847559024, -0.20328123798677084, -0.08418780374014702, -0.279515205052315, -0.10430915389016719, -0.303640416032301, -0.6293156936581562, -0.5766086438877954, -0.6408059254839774, -0.19845692273491156, -0.006568604919952707, -0.024890313479817214, 0.006954225522419612, -0.24092024019229782, -0.0522146762456111, 0.3464929426427413, 0.22243572518520544, -0.15759502112879023, -0.09772058862525644, 0.04450717651378266, 0.04505179716413416, 0.05506868385746182, -0.0170362920942648, -0.03748778687796449, -0.02744732588117117, 0.12069277639022304, 0.05007170846714317, -0.1164323046260103, -0.052460865719237276, -0.07463040803907173, 0.13301839908733806, -0.25850829967356437, 0.029782071273694186, -0.36269266569177394, 0.040249892168327375, 0.40339750826798204, 0.446713961109463, 0.1580678569830812, -0.15030264387684422, 0.06676904361483313, 0.042568932043251635, -0.22343760586173142, 0.09831627699662557, 0.041603191080312504, -0.16399904342938526, -0.18200776735142632, -0.14863817768991103, 0.051896574970175975, -0.0325406345333039, -0.028408156542190127, 0.002326172947944297, 0.031008951151876157, 0.004053983759744408, 0.13219067882919072, 0.011689575718416416, -0.1088461020255239, 0.046114306781393166, 0.22817085495245273, 0.2099212342311144, -0.1232926064706376, 0.11843712951696943, 0.20540651106606264, 0.5367364830247685, 0.7900360648830038, 0.4270259285973024, 0.23650136685889356, 0.15090685970869835, -0.3005035755678881, -0.4011247624029234, -0.1980510856958221, -0.13147651169693053, -0.09488481744330968, -0.10251807898323975, -0.12988001336486063, -0.11518510209182173, -0.024829928091284117, 0.04482153236837652, -0.07152157130268129, 0.039441481169425016, 0.041614546913071114, 0.07639694135656915, 0.03755094797455282, -0.026048401362353462, -0.16866836941864452, -0.020145752401172945, 0.15191979167396144, 0.192651315271996, -0.07093323596010667, 0.18205281648759916, 0.38674004614988317, 0.3356803298362243, 0.14955624619968905, -0.2408871456764897, 0.3001018179504648, 0.07050901817496674, -0.24497157713174414, -0.1806468218850851, -0.43247710013377044, -0.5102949884705505, -0.2791942385585278, -0.02520153369279703, 0.06988258285991955, -0.030575032589210217, 0.058025181748524765, 0.05887031250942024, -0.009823980063449643, 0.007684328712429182, -0.05222030120866489, 0.04187542722531648, 0.03974887652389686, -0.0700345756034499, -0.1324237679983222, 0.21683651160755316, 0.2657466379591563, 0.2940819180429394, 0.3240179225291866, -0.04425212381837643, -0.033443964198546866, -0.025787672988452293, 0.019484111969705384, 0.09366423199356579, 0.5169457614830923, 0.12732048765085072, 0.033420594852538656, -0.42877576627010444, -0.252942453668322, -0.20417086910733023, -0.18669342493530092, 0.1491749862086868, 0.15319466796242118, 0.010574011104291155, 0.036406293040556155, 0.03235353613726532, 0.03291708202334362, 0.037228866254932325, 0.029470637129353803, -0.006490886126506528, 0.05266941587777837, 0.06150883242992371, -0.018404351570676256, 0.16502131239624748, 0.3742390033511954, 0.08736995816946502, 0.4702164004405848, 0.18150173444415127, 0.4257113801651595, -0.0535882374508656, -0.24676252295923878, 0.08653963554650053, 0.19689005134915372, -0.09817686184055864, 0.15728016288310726, -0.04193716354439486, -0.32373403144292023, -0.15643045005253395, 0.006967301705692997, 0.09985937181951937, 0.017335842856556583, -0.042913874568645684, 0.03250634181955988, 0.03498451827779831, 0.04344636058952169, 0.017129045148799798, 0.06831681176892447, 0.024494260608729407, 0.06816460866660683, 0.24227048169042673, 0.2671425207740007, 0.30838205669679586, 0.32583875556879527, 0.17815605219672848, 0.12139632345609139, -0.1542676377880378, 0.03652196832947256, 0.23125117391294922, 0.35025348619563507, 0.35364331446289055, 0.2726899422039129, 0.020499522691209898, 0.06573766049836136, -0.18869581396709184, -0.3461715078137749, -0.195396464910793, -0.022212153051042852, -0.058256766804967074, -0.003080105192385872, 0.021765288442054498, 0.01493649141877652, -0.05065895946515336, 0.011035895272194046, 0.002812771621637764, -0.030604680027329897, -0.04700619570141977, -0.032134134334512635, 0.14355057588057527, 0.09251857684210626, 0.00830163013136525, 0.10495138565986083, 0.07007447745590845, 0.32408213228846455, 0.1355792128814551, 0.09661241508475198, -0.059558697835409104, -0.14965423071692735, -0.28035633231830814, -0.10386021587368842, -0.0847125236995515, -0.14875122982353492, -0.15172357161901123, -0.17133608901779793, -0.20736335739792328, -0.0704738129487402, -0.09377166956432974, -0.011344458001298659, -0.017744606175551913, -0.016812184142862285, -0.06727921719023476, 0.02784116111403572, 0.04676192653752175, -0.01189799476487362, -0.012101274917796086, -0.0126639337765658, -0.04675379787807082, -0.05082334860079627, 0.00739125733173226, 0.07075886850963717, 0.13036294224775496, 0.1174680833576736, 0.048291765138842487, -0.0741757221298244, -0.026807728715063612, -0.030205299285589623, 0.03348640379603172, 0.03039128970042013, 0.08126348935586751, 0.04440424087491495, 0.007719476869316691, 0.04968438964712069, -0.06036241008762586, -0.038566161844130496, -0.01976558018808049, -0.022021049206618334, 0.024629209232831326, -0.017770290847251912, 0.03355327072861869, -0.007782217098801637, -0.02283200917859297, -0.004377729056825395, -0.03187084625403319, 0.001169709820417662, -0.06597058893651085, 0.02717350585331134, 0.03634168369621965, -0.02820098239356624, 0.023081400294061336, -0.021337306662587076, -0.05100670005460275, -0.006673546966371043, -0.020721338097176, 0.019190052952884014, -0.038504783023604175, -0.013992271044200307, 0.005915606663926474, -0.01705147652004086, -0.052434910336337265, 0.03468310127220907, -0.024131889699085033, 0.016783222220206926, 0.014300212110473236, -0.02391034023407764, 0.008235723317275838, -0.045010847159541255, -0.0058190027928258, 0.0401697000695192], [-0.016883436828934912, -0.029817093810561454, 0.01205638681736187, -0.02002359076092477, -0.00944655500266218, -0.002350203796248472, -0.030598487015953215, 0.022916163378302046, -0.06208852779205689, -0.02365517494914186, 0.04414864041526132, -0.030675806619699198, -0.00403041655387588, -0.03747366441148566, -0.008775374042933784, 0.01693942610071672, -0.03762619110515258, -0.020674855932566804, 0.03311721892861154, 0.06701244352130266, -0.038651886109735564, 0.06385910917032214, -0.02161884688370666, 0.016379407159492133, 0.0044383828598921655, -0.02990792583442953, 0.0008414230966154629, -0.01809689945920057, -0.004105995277592794, 0.04545949081472698, -0.042781520791702464, -0.020871145928181425, -0.003146562454285709, -0.036608314177365237, -0.03741524665610319, -0.04674104317084088, -0.07877167494718543, 0.02234654108778224, 0.0014064867920837569, -0.03845991753560459, 0.01694726927691924, -0.001845833926198616, 0.0010915768194278664, -0.04232067989997654, -0.009546345575769381, 0.03439097408933703, 0.022798387469367132, -0.02440575506340705, -0.0005247755000652257, -0.01978061960374615, 0.012653079580030924, 0.019251466540202176, -0.07506694630971505, -0.011865644214313556, -0.029362661971327923, -0.005637008758359921, 0.011480401409705455, 0.044988671911448036, 0.038989266046742084, -0.0185021448617086, -0.02536407851585405, 0.009339997494105873, -0.05376947207206154, -0.045196372559283056, -0.0895864578993744, -0.03821833783956709, -0.06172931049414042, -0.07641099184539202, -0.04220867317773801, 0.008221174831316087, -0.1297270907794467, -0.11509936277904709, 0.00013798210137005488, 0.03643630989780108, 0.009963788335044356, -0.01914550149891424, 0.08496778653439384, 0.03107250364260549, -0.026752845329470226, -0.028856494040673194, -0.03197691798822164, -0.039915966573875, -0.07125851418392265, -0.007285847425035767, 0.06129144651363077, 0.009579057244020492, 0.007199991909693924, 0.052177297569695615, -0.01804859129366024, 0.046883123644261, 0.006875527691325454, -0.06781158654666086, -0.09067827444459575, -0.11299448438454342, -0.01960134080007607, -0.1699349192895279, -0.07183558976409732, -0.3004827350234846, -0.4636818840722953, -0.3711844466045427, -0.05346775948228751, 0.05853541192247536, 0.14532479342081744, 0.10139714795057445, 0.0729726992246076, 0.01868776907530462, -0.0018646086009722438, 0.014837370591815932, -0.011871988747315276, 0.040222831232394896, -0.033983176276560514, 0.040528280262680905, 0.013214354565988842, 0.09043970539559087, 0.07373263823349285, -0.007825669821766369, -0.051576524820193356, -0.023684711860123737, -0.04063244373130715, -0.13776287075161187, -0.1590060693870002, -0.14708992274120622, 0.04482825863471535, 0.1003681995331695, 0.07056985902591381, -0.23704647168224363, -0.2575631310826277, -0.1777562970229372, -0.20927512051351618, -0.26563826791334116, -0.0855606116465568, -0.10832297571804839, -0.16498615692059238, 0.1099227675530099, 0.2764083418624669, 0.24242738923741378, 0.16597508905346797, -0.034792163661154965, 0.011700018739198691, -0.009840334530811862, -0.018107531373333978, 0.00015363959824459987, 0.0010487334341115857, 0.04289411105392495, -0.013169564034595262, 0.08646166808905655, 0.0014239671201279, 0.003932529029902542, 0.13209350524286784, 0.15736806534357686, 0.008098548389147656, -0.24433079860029258, 0.2933433564731101, -0.024106870777770868, 0.13979648303588163, 0.03118665027572704, 0.09941492266980832, 0.10566023877154368, 0.22869690221497177, 0.12220439424982085, 0.0741016019726891, 0.07124535149988726, 0.22814463566196613, 0.462431690030512, 0.0938965290097054, -0.025148826748447897, -0.06925194416716006, 0.07347770857722286, -0.012096499845600553, -0.0014579726793445035, -0.005642884392261431, 0.06731341079473394, 0.08882740823068502, 0.16052680992834042, 0.20750825814063945, 0.05726211101574627, 0.15109262674521243, -0.01832409796297065, 0.04815417318637688, 0.11319656305556011, 0.47736822069165635, 0.2017903307554864, 0.22410664136694786, -0.45648911571202977, -0.3618137122530368, 0.12885832506535197, 0.22554011104397348, 0.45263124322315906, 0.21721647328834562, 0.09568550196452666, 0.15814133274402548, 0.23039340002143077, 0.22439465821338603, 0.07412961390438436, 0.06535227775132924, -0.0011470847379954749, -0.015332855425857167, 0.05117596638926051, -0.005156236206496274, 0.033841240673681404, 0.01461602189735545, -0.042911579007466207, 0.06589618092281326, 0.10839935769827853, 0.20260711038552584, 0.025293436530711123, -0.24824122170279048, 0.06043302101477428, 0.29855793648106327, 0.3419635527016209, -0.038022751285825995, -0.6752514855494809, -0.38596195977583364, 0.03257207782691829, -0.01898978721673421, 0.27124026021292597, 0.1778938304337309, 0.08969698250187977, 0.32522962087733964, 0.3603751569589134, 0.17454108066154733, 0.1053490572119849, 0.08256461006867506, -0.008218917407967213, 0.030751918231059435, -0.016950906999095915, 0.002080337269492635, -0.011829590435724973, -0.14266829215030385, -0.12755195293163737, -0.022172477013240054, 0.08291846608271819, 0.0050363047813743525, -0.1637853686877955, -0.6117725586852749, -0.09362545327263881, 0.4787144951535493, 0.3080195483426774, -0.5576819271617062, -0.5613446353933675, -0.4241515330893124, -0.3543008432688059, -0.01315673226961835, 0.2120976973790076, -0.15692662702164326, -0.02449446342002177, 0.3394849551224223, 0.25033199353357644, 0.13989772900801295, 0.10263691846802506, -0.010695244380774368, -0.011690908043863779, 0.034774023702400396, 0.024086255917419114, -0.01384404687656276, -0.09455300461014393, -0.10279798269342712, -0.11811470894764008, 0.05773064427220119, 0.10304146025265433, 0.023116696317622563, -0.2586720667224387, -0.7202198722851647, -0.1910338760290672, 0.1145668291318561, 0.2897094848365492, -0.1653862281997417, -0.4289384154558367, -0.4846181869774605, 0.07262758709249564, 0.10862539732994574, 0.15463882997188136, -0.20984190228011457, -0.04218305551991695, 0.4698411889023599, 0.2591236094006422, 0.15987113429027128, 0.2911136797542263, 0.11375419110307286, -0.002233964208657955, 0.04067495043151853, -0.04996557380740537, 0.011303460025526454, 0.10995601217585861, -0.13404349046712502, -0.1771189544999376, -0.34293955815724275, -0.18571509205463801, -0.031153911789593817, -0.101046454144494, -0.27911178489504473, 0.06697536210149962, 0.6041358002731168, 0.2656919183267472, -0.05831171322823194, -0.35544514654085846, -0.24334505257496503, 0.35253678955850304, 0.14250410823374338, 0.13823944758158643, -0.18419314647593002, -0.12686758447713264, 0.4169293579310641, 0.18280489783236722, 0.4785224508352795, 0.5485677623069221, 0.06827874759617308, 0.04623586974853424, 0.046723795128884374, 0.003927372210297412, -0.042381884343015624, -0.17189566488669566, -0.1905488740991531, -0.3223458406337141, -0.3473067726676419, -0.455056821026865, -0.12168921980772576, -0.2045500878239261, 0.06364340109619292, 0.21376518295207822, 0.3605164264734304, -0.009542328475943163, -0.35640036743891673, -0.30654590871083637, 0.15998810971053382, 0.2212960489575289, 0.3429000433585242, -0.059139948182261586, -0.5032980587436658, -0.34707603060947456, -0.018180274909378596, -0.028656509806478197, 0.21486125904490655, 0.3267297080470124, 0.01867156028355558, -0.021593605305714074, 0.013793843464529975, 0.06327601863676838, -0.10705444075015007, -0.22347687186091614, -0.2956415208961979, -0.3045643336026693, -0.1424048665874558, -0.1989941591960137, -0.12838321543769213, -0.2911005587716573, 0.4838750519847541, 0.5077921797324948, 0.7144830744328392, 0.18173841474450592, -0.19166473636261125, -0.12325337748866766, -0.4685105121117027, -0.7887068016507877, -0.0804051503136238, -0.4791337201982043, -0.8259469718519814, -0.6923595653798532, -0.5156749701567429, -0.501002358498174, -0.28422377479767164, 0.004211740159702778, -0.015700843248102864, -0.021826305115295448, -0.009089391428689916, -0.0031294879777588676, -0.01404068827962159, -0.1140877299806621, -0.26855853363248744, -0.1348803786227891, 0.1321421724141512, -0.2651314959127929, -0.2735622021977783, 0.009617439597123937, 1.1552085004150008, 0.8273755348842939, 0.6018214433818073, -0.09337140488934133, -0.229056484445505, -0.5350632714351162, -0.8870975233637888, -0.6410474961950987, -0.09247263624915147, -0.6879417144278342, -0.6314962748877693, -0.674328026097377, -0.5955525652531501, -0.3246887176987034, -0.11670724922761344, -0.03787672552863779, 0.03339929508496845, 0.034348064203071065, -0.060347629841463676, -0.06811407682899459, -0.006564897268809546, 0.04103130411657449, 0.057097935767110704, 0.0767024465129264, 0.057334086380053585, -0.04875043795814434, 0.2438496184012496, 0.9435104979884098, 0.778464578176783, -0.10946268506430099, -0.5059432149973689, -1.0016221152373708, -0.34680991951996665, -0.033187229595245275, -0.3938189181098633, -0.2884159734307304, 0.011598356743717578, 0.22025189449744728, 0.22929641728075414, -0.04589346138627745, -0.10611928670156202, -0.015985026009719416, 0.07228548436633596, 0.014710947136789774, -0.03836382425055623, 0.01998824072707419, 0.047426591767514625, 0.05109142566960011, -0.014764417108265317, 0.08080288566868209, 0.15668587678509308, 0.37098862015589457, 0.240073427205933, 0.24381321137019357, 0.740195354839039, 0.7689659657814382, 0.08956134454349984, -1.0385470375784764, -0.8127644703538024, -0.5282075276399645, -0.23498929261699883, -0.2137841062990369, -0.3503947590738279, -0.11513651323788796, 0.08977394579148018, 0.0727984881739038, 0.5690072714936353, 0.7932296703368069, 0.4030071673291298, 0.3621503000836821, 0.23894796788772352, 0.012464464066889934, 0.043090129453200496, 0.008287549103025517, 0.0064343557676299805, 0.018110440776690055, 0.04767545594978971, 0.17520979504832812, 0.10444840178012617, 0.2191110996794028, 0.13987617659885468, 0.500104674651213, 0.5612909594389112, 0.14283662275963854, -0.8405679215248667, -1.013273174063077, -0.5018092394783015, -0.3868007279518437, -0.605112267574412, -0.07672444946455245, -0.1584855032326997, 0.32946053160567557, 0.4961784643405791, 0.4107603203838711, 0.8047358666717608, 0.8930842254302171, 0.5169300517780892, 0.3164619578011341, 0.3315419744525231, -0.010465118556151584, 0.02221381829761234, 0.002891764183425753, 0.037015187389367196, -0.01179998759611587, -0.005290288255743749, 0.14380879045713085, 0.13210987600309054, 0.26215608236230836, 0.4013582407430097, 0.40209641993424655, 0.4128590260055829, -0.05758335286294994, -0.9929133119321458, -0.6862725250977407, -0.5372994325671774, -0.42655573133577174, -0.38820666078783883, -0.11962768123018548, 0.13794884417807537, 0.317974997419925, 0.7168352047745545, 0.3433945800440054, 0.25788421166237097, 0.5226133329663096, 0.3188451670246167, 0.23574761406508932, 0.1258195599722679, -0.1146023230497635, -0.030568536389155528, 0.036211175749450236, -0.03730247764337085, 0.023180922482986727, 0.021084706160913583, 0.091674998345625, 0.19201403216320795, 0.47045899625940135, 0.7595453033157559, 0.3114464907109622, 0.4049282542403663, -0.10990977416566057, -0.7957382998800362, -0.5658252823320736, -0.7790880970634477, -0.6601846241782537, -0.013634204001228374, 0.010269756614958566, 0.6958228684767015, 0.12628899074135033, 0.06845018412933854, 0.29692400791891677, 0.4126219932686833, 0.45993008819064346, 0.13427538835789626, 0.20320033752880617, 0.01107528127641589, -0.13949681318416646, 0.01700026678934233, -0.02462679197568205, -0.04509916248563736, 0.040721737300483146, 0.06143089923673544, -0.011468914106876546, 0.2943468658097285, 0.7937445324837529, 0.7280716029407726, 0.5787689491850619, 0.5734055589718751, 0.022805951700698286, -0.21943027490592956, 0.0005419137620855997, -0.28919247099915163, -0.36401967552926323, 0.22218959875911098, 0.249274722616431, 0.45491172541357905, -0.2092071092931326, -0.051645152244970176, 0.12095742195488497, 0.4340610137732888, 0.500438611496649, -0.017936924802861368, 0.007266384705808173, -0.04882768780301122, -0.0807725478442847, -0.027953954403909968, 0.00042647952413357905, -0.013743061410010403, 0.054298277730754754, -0.008207532956656185, 0.04924353919477788, 0.3204259665317151, 0.6727806246126816, 0.500740295224876, 0.4782636772000701, 0.7313848719164396, 0.6693215952560759, 0.4765511984281028, 0.18915221663368298, 0.009881503053688479, 0.045791750805089106, 0.12491589104939013, 0.16759490127549934, 0.008155461973372143, -0.3754038574183888, -0.178271595651527, -0.07367198649700431, 0.16953690370193517, 0.2904127707151731, -0.15068692829451089, -0.0031009662561332836, -0.10579348360774385, -0.04428993139119055, 0.034990727547793754, 0.012929650348833515, 0.022879294634546424, -0.025285952886891533, 0.09306441266469578, 0.05788464415254295, 0.31048543535397566, 0.07684015233335868, 0.1314410684461354, 0.3413352310741003, 0.5528197957719742, 0.4572808921398257, 0.48083817134437973, 0.5181708431334866, 0.38024492171387886, 0.1403947146450689, 0.09107886377751415, 0.23260047180020346, 0.03371072828018832, 0.039210094723251605, 0.14627126144520664, 0.2172280656318762, 0.23193134653907, 0.1445097829944679, -0.0077844253444822676, -0.07475138051831515, -0.03650358626516141, 0.04118267777038916, -0.06228155942395306, 0.006899689842304149, -0.002109965039703588, -0.022319730201437026, 0.04500958383852567, 0.0735145079916612, 0.18340155413111525, 0.002973482333942742, -0.17421382663098275, -0.08579996868852434, 0.07443540921770328, 0.19694195347669619, 0.2662353085161431, 0.5903233492644797, 0.5274475596270165, 0.19285683991548266, 0.21898302896037375, 0.24385350782446627, 0.3389533679862409, -0.11963001229530626, -0.16475834530946856, 0.19344622874638262, -0.18624403914928583, -0.283775539312563, -0.16893530154993897, -0.07689297980411411, 0.051872946009927076, 0.03019724083711291, -0.01007947052513225, 0.02753491387126342, -0.0040504262766496045, 0.016414956243412025, -0.007415527151120073, 0.06673210033852847, 0.21371193786870812, 0.3383956991928191, 0.008755960786352173, -0.0499591203466852, -0.01564488939040883, -0.1383330217187674, -0.06698304154279541, 0.3838144992351599, 0.14137187128557455, 0.27831091135018154, 0.4803928100547019, 0.4865595176087959, 0.26959013165392604, -0.28339986113396276, -0.3910404184032801, -0.37808436844955073, -0.370058111523062, -0.31675003524863654, -0.09885943392080128, 0.0290629328150699, 0.0508398419422951, -0.0309681868579815, -0.06854652468365635, 0.049899204333407665, 0.10206994598866978, -0.016320019823659163, -0.008711171665239577, 0.08459354737761988, 0.0472536738519358, 0.1331523944793873, -0.08559740840252204, -0.21237315096443507, -0.2922349571985825, -0.04632971061916796, 0.22273941417802207, 0.22828877634866004, 0.19793007913354127, 0.03941682746657428, 0.3276317675171286, -0.06959929782369191, -0.00484370973428687, 0.2329393755731666, 0.3027624427874965, -0.06563958746927433, -0.15757839144415334, -0.06954543887025981, 0.014479587293514642, -0.010814977311554464, 0.004246294651956984, -0.0005054826655197665, -0.05059351276951292, 0.058159642104023426, 0.04415860085982646, 0.02121177862252674, 0.012496006193627713, -0.04387711912882424, -0.02571951772881061, -0.16569893924384757, -0.24766947700371408, -0.33486758314682663, -0.31831331134267715, -0.1975140690397417, -0.07274296870849528, -0.020913366736644866, -0.05959877631533164, 0.0533983897002286, -0.12348098597660369, -0.2194747517269624, -0.12418144080664908, -0.05953550803678817, 0.1341979610670081, 0.08648005950011972, 0.0020227414730450825, -0.021373196627097683, 0.02699969189272411, 0.09561369859430387, 0.02713883999171267, -0.05848641875583904, -0.011583091424819086, -0.01795345658768447, 0.04066369544758694, 0.011263676372887407, -0.059959251934650876, 0.07856670530122209, -0.03368649017118557, -0.037819490821182716, -0.12016473716518818, -0.02741680210847198, -0.13159527048709707, -0.22991656502073732, -0.12130326023352463, 0.007762394823244388, -0.005830265207494174, -0.06691788080862038, -0.15087909384519052, -0.046115456510140734, 0.012964983085315882, -0.20244558383691919, -0.13066494095528353, 0.042276676155501326, -0.10573257996421676, -0.12479735303231428, 0.014763737809145363, 0.03995818536238461, -0.043714301815746634, -0.01558724046683841, -0.013380315424474085, -0.03057723035861777, -0.0385017536740398, 0.01027174332095296, 0.06751742283550108, -0.0031233351166018233, -0.014744437678434563, -0.017332014285885402, -0.05483898701160018, 0.013351482764727897, -0.018900063568683984, -0.012551891334765069, 5.53965925626987e-05, -0.0002882555087415964, -0.03235714593894936, 0.02663352414778659, -0.0021297731284883304, -0.067009794379131, -0.0799950639260174, -0.05296523002528913, -0.04884713528011066, -0.0242102838405544, -0.0093180149519157, -0.04642031760482841, 0.0039418719742846916, -0.017494268640152556, 0.048004457280520565, -0.044706302210573284, 0.01642293405947049, -0.008581635294067372], [-0.03230715865093699, -0.03129427688034022, -0.013542645413949405, -0.007724755676486571, -0.0012780160210429292, -0.031088964952635426, 0.03792577506087005, 0.022177228676436855, 0.02130132629547109, -0.02462849738791472, -0.0026936771465078135, 0.023208611171429114, 0.01197326382196263, 0.008572508563674919, 0.022584143744766017, 0.054049395206493905, 0.01400805494358628, -0.03004541608280356, 0.0002534762730302394, 0.04170616143579613, 0.04238961349291425, -0.010931705829664639, -0.01611904097003873, -0.02293159984937585, -0.027553553680587203, -0.01963813863941115, -0.048791535200156035, 0.025973480326706284, -0.02384962967247607, -0.001428227484703896, -0.006546985357303093, 0.025145055864137414, -0.029215209956604225, 0.006713852736012444, 0.04611214781813809, 0.005885866601660832, 0.013426508644669412, 0.02144072488539013, 0.051593426621318196, -0.016304276676060353, -0.04482636516318525, -0.020900800368357588, 0.06121412775250441, 0.07168366245310265, 0.13588970780751625, -0.0018711954494761635, 0.022923794645557365, 0.03567930326027876, 0.00264163794896286, -0.025795840892612356, 0.04055494854004212, 0.0775238697878347, 0.02332322774139869, -0.016735708147333342, -0.03346614965827376, -0.07912683505781405, -0.0047056341794879135, -0.0425356422763738, -0.03837555445776307, -0.023808728170372127, -0.005019772666218695, 0.02236884793380499, -0.014943015407796889, 0.06353903915142145, 0.02269628961971238, 0.06321621769527001, 0.14904244143225887, 0.13330704044669528, 0.13024453843049627, 0.11992511658598208, 0.13033020079439306, 0.1479018733347758, 0.2104420889452161, 0.208284857738807, 0.26707784252900135, 0.12212211379068628, 0.0840517572132166, 0.1159133504546904, 0.12331565949052893, 0.05489444648396843, 0.040997273575194886, 0.00888828082513293, -0.021147991155423845, -0.048705258317714266, 0.0077250112298896815, -0.06083910446216662, -0.047570054081748935, 0.0031992909189373663, 0.03386222897818074, -0.024524276523505743, 0.1451260375885804, 0.18517548891471336, 0.23192475848035787, 0.3098529353764869, 0.38777857481728356, 0.3644332147485405, 0.34687608651248997, 0.5197159736036044, 0.5662734970964604, 0.18491385242365618, 0.21629788827502003, 0.03616163152574616, 0.18506239352693588, 0.38164244374204276, 0.38796384228591846, 0.19567772632060845, 0.0017018241814884781, 0.07244964198790976, 0.015296407691091335, 0.039551218771522685, 0.014533932749308967, -0.02123200210599161, 0.011331639181387285, 0.011164404604103104, 0.025618414568514502, -0.015296517852531067, 0.07836516312991222, 0.027100609132262393, 0.2200355890865051, 0.4368573914006547, 0.5070239355867486, 0.5123127068585935, 0.617099221471883, 0.3209924125879415, 0.030450120861201888, 0.1599638175880148, -0.02358868335652313, 0.2401271222007585, 0.06694782329837778, -0.04824608550825349, 0.0987516959667129, 0.3869227709176341, 0.02527751944596485, -0.2433103671369807, -0.22221826684039092, -0.009935722627405169, 0.15833693391862216, 0.06272675394499092, 0.003398213760276671, 0.039790980773499324, 0.005644251045006554, -0.05476767071503732, 0.003526923286053205, -0.029194591338187637, 0.10612661565595442, -0.04494435643087065, 0.09504449438065236, 0.39374039537845335, 0.34876057922987036, 0.25483242312626575, 0.3347561252338042, 0.15053606697226324, 0.1575203957156293, 0.10140857086769584, 0.0675045078234788, 0.15031186209216563, 0.130380434784316, -0.029909007025324216, -0.14824573350856277, -0.045319414849197145, -0.13379161837860273, -0.32788540078958023, -0.2853968159846592, -0.028138671265810166, 0.16815509999923084, 0.11409011168514434, 0.15610142856149165, 0.05560060834985817, -0.020288154478696457, 0.08324556664201292, 0.008819557169973033, 0.021930995119623747, 0.12192958892290773, -0.028301495264163916, 0.03163278771878896, 0.24463289976814068, 0.018681903815561233, 0.029420642107586083, -0.16211612735493625, 0.12076292392351906, -0.10670537576475983, -0.001512808730699493, 0.06886938456166578, -0.13017791572404194, -0.2030731024110955, -0.696631139636984, -0.5430505632251773, -0.6917333109216878, -0.868130611504431, -0.7176306211987891, -0.5120913844732017, -0.4523140587700902, -0.004602779552222933, 0.045355679674277304, 0.046994360047777434, 0.026921030811071885, -0.007626859966424335, 0.05127793551198992, -0.026061384122042914, 0.04492159307472088, 0.09403353474546391, -0.07680746643341438, 0.023239948903904517, -0.09110461787457665, -0.15454024006236675, -0.3330552496252959, -0.23765220533547993, -0.3725419119427766, -0.32113996620994134, -0.5033196459989497, -0.4171532382500712, -0.4020075508317816, -0.8600982435202901, -0.8214385588109754, -0.6847019581789817, -1.0370905944338393, -0.9436386161275038, -0.6663845412968145, -0.527563617833392, -0.7791824247139193, -0.1811653585947016, -0.027379185051390465, 0.005202164257190679, -0.009782452316119345, -0.0244181984939514, 0.04026865859906777, -0.04420532314781278, 0.05536104319239364, 0.08224416725826213, 0.014339366890125976, -0.24260845172721934, -0.21989475911165035, -0.18866766267320417, -0.37471437863544244, -0.26407513280503064, -0.41564499630287277, -0.8167077874119991, -0.6785019285254066, -0.7571631778150585, -0.744807131429528, -0.7780720246923187, -0.6750401099262822, -0.8039181813996924, -0.7657603326966614, -0.3148401449577054, -0.33944175631105616, -0.34147371934216164, -0.27983575674977335, -0.18182957001669817, -0.051328952200349796, -0.04809407998580702, -0.0016250936109056112, 0.07098043944617027, -0.019480388369890793, 0.06280662560773263, -0.05432542892975805, 0.01979675494745429, -0.26513346160435747, -0.2260431019059445, -0.06373958194204528, -0.2927071906704262, -0.42666276381250157, -0.5937798306741627, -0.855658927265876, -0.50857769610594, -0.9267160089598697, -0.4979699959676569, -0.7557738282767897, -0.3137207133195612, -0.04613806821501252, -0.3231076896742188, -0.6368818873183292, -0.07407827385541084, -0.20276735305424884, 0.06949993744725272, -0.02580573798617595, -0.016669986659421928, 0.030722451561048997, 0.014710672167384305, -0.036787521013140694, 0.007094277007819271, -0.06521119139336676, 0.02143161580302602, 0.030623689157416485, -0.04265603893929478, -0.18617343873284348, -0.30597588760286226, -0.154749516207354, -0.20463303619481818, -0.4002096949424325, -0.701053491806971, -0.6072215650806476, -0.5341180293531114, -0.5823496918139647, -0.5327282891391922, -0.30120288342169355, 0.029905847752636, 0.20571578690031683, -0.3110085621027401, -0.7222467834451308, -0.24633035744452275, -0.1903012845467273, -0.24467955276877595, 0.04164578521481308, 0.12178995491459982, 0.12710652154065066, 0.043417104165924, 0.033991198811109784, 0.005092869137523054, -0.048751629917399696, 0.03500006812919272, 0.04159516125778566, -0.09279630289608175, -0.24706359078974832, -0.5384403628244027, -0.15952918391305537, -0.20107894362254547, -0.6894135053774378, -0.4987192582015194, 0.13076973806413023, -0.3521874390180621, 0.1486137480686881, 0.3054318545010171, 0.18709931395122514, 0.18388008935333833, 0.1554656455755015, 0.015769562326358313, -0.19686077605660482, 0.07557904874456829, -0.005789150550309921, -0.059354298815263336, -3.8013106286536786e-05, 0.072654061888401, 0.04449421101982904, -0.11279232918364655, -0.04268629061272148, -0.04429844649907297, 0.04431871901807147, -0.01631285224353628, 0.022634928418788086, -0.226577912044489, -0.42364587346972293, -0.4256392350958512, -0.27523799384514397, -0.006443933520480131, -0.15250793771510732, 0.12654248602613982, 0.5262094416661546, 0.13755555394946803, 0.4007452835633404, 0.8890575167651712, 0.2538499292667857, 0.053819417514253245, -0.0865969827046096, 0.26789975386905285, 0.06785242228193115, 0.2697933046267678, 0.15276722849330657, -0.07720143642266661, -0.15691605689232083, -0.004977227200689407, 0.06269462994462245, 0.015533015701576641, -0.02893014277272483, -0.08957236223477506, 0.02013870941986281, -0.04510015857489607, 0.034443255303454275, -0.24683460612511374, -0.25940198468096903, -0.20673902709664926, 0.013460791855799445, 0.03495644427295522, -0.04328995856578346, 0.3281338049055621, 0.5711693116698268, 0.5357874836295786, 0.7932512626395172, 0.5045352067385479, -0.23418608211914546, 0.11158065883302559, -0.3848739336799914, -0.1633648419915283, 0.07681934294002032, 0.12384150102844482, 0.11515533208592876, 0.20034008530870684, 0.1449816285992105, 0.22448794016229784, 0.13638897454675014, 0.12394786470885724, 0.03612691986656073, -0.02210144322686863, -0.072758799865345, 0.005816532663074666, 0.04561372973909219, -0.23445596130797747, -0.14082782699562532, 0.3014945559830446, 0.32912840553993283, -0.11409646404713902, -0.08316520677358716, 0.1367551690784115, 0.524282442312715, 0.317218917087894, 0.2622824481815772, 0.05656082597090645, 0.03155403151486232, 0.30029750777261305, -0.47042915841160704, -0.1255123373978736, -0.20811338563799908, 0.15143293995170726, 0.2589904226225055, 0.4029153462408476, 0.31531658743237284, 0.20047209869770755, 0.10936516029753095, 0.13627668834179837, -0.02535933348321958, -0.015623706746591816, 0.012067232429988176, -0.050249256845611184, 0.12414733874317517, 0.033413873399102456, 0.006187584224279252, 0.3538033908091637, 0.03297692529278812, -0.41243873486122384, -0.3700339626509572, -0.1182620814445372, -0.330399805307973, -0.19928613328125952, 0.2330900702580623, 0.041906639092782444, 0.03007678779241386, 0.11672359652675306, 0.1604475653342163, 0.33668504490443185, 0.34477568672945375, 0.08924551041305216, 0.258126120319367, 0.346076078667952, 0.3082300284607431, 0.2214820136799846, 0.2593820542486849, 0.014617167389630311, -0.046120713762652824, -0.058580404563717756, 0.018374353186066537, -0.015000921664850812, 0.18360401689252018, 0.21405287224402544, 0.15665982399301784, 0.1356866596211436, -0.07328324379501089, -0.3014458290983716, -0.1869486896550198, -0.21058837558101504, -0.2930863829291647, -0.2702919694789468, 0.24762248493191527, 0.1483185937552867, 0.17710203172914013, 0.12335020864050089, 0.5938221345446847, 0.6894521891920025, 0.5033548586542425, 0.16541782869667193, 0.19179826106888148, 0.2705085027814613, 0.07721461492248667, 0.24985530986302842, 0.3803937348951877, 0.1771297953076939, 0.07575115946935337, -0.031184239841251647, -0.018181976262076998, 0.04422079688497534, 0.25905084353203994, 0.22084448829173983, 0.23260028540437835, 0.1394419089617601, -0.29940844200990036, 0.01722512609747821, -0.1121978843613533, 0.06610662977206504, 0.08642463445957833, -0.5113418333816454, -0.4305408956510522, -0.43938323717524946, -0.21992602380743753, 0.18864113138630878, 0.12704226128799195, 0.42638295626699985, 0.5149672946631264, 0.25752014168320286, 0.3354656404419219, 0.16313990548877091, 0.06164197388430506, 0.13067334021878377, 0.21466024581003545, 0.027241681105186565, 0.01851115337402957, -0.06914297113065765, 0.000513318727849043, 0.028051589330963092, 0.17293294110817944, 0.1751092011799361, 0.36056609917573196, -0.0015160075325194456, 0.15958003855631922, 0.3843110745934311, 0.3006200752901779, 0.1739721080736565, -0.04561470172938211, 0.2982635396146566, 0.10854627045990806, -0.015184540163751667, -0.08952796668262308, 0.12744991206671408, 0.2835853536334714, 0.5695016628184311, 0.46486061393284134, -0.08383109289064958, 0.4345914388138957, 0.32428984928132293, 0.2317920817778681, 0.23486474508485677, 0.19772290666289175, -0.0009405006053906661, -0.0032380997747970533, 0.028903543929599634, 0.05508389196956921, 0.06771670634524116, -0.015798664515088982, 0.19875256011373776, 0.2580323447055995, 0.06579702986130427, 0.2208629372297857, 0.24713587737216047, 0.07840835616435332, 0.09506085133758856, 0.3602960101404061, 0.3715399620505506, 0.3575788622316316, 0.2609697899005205, 0.06192576282916263, -0.1025033852837777, 0.4363577029105842, 0.3075660838087011, 0.2293242794578071, -0.0928929255257789, 0.24127738369659169, 0.51265581588848, 0.4076706953900069, 0.10505589859825104, 0.10888711672581453, -0.011447929774581991, -0.00031749868001893785, 0.042899383966987656, -0.0075041778514218374, -0.022158843617822513, 0.03939474392412577, -0.12157753339864184, 0.017589536401245134, -0.05930499713902297, 0.1778287198883646, 0.39460791631902375, 0.15262810038388971, 0.2848069689388119, 0.10922342269387983, 0.07416236794196722, 0.4952442852450167, 0.27928708196417157, 0.014191991795502228, -0.299542130585991, 0.03219485936544079, 0.30577951693335076, -0.013917417878358034, -0.3427562970953409, 0.02613272982147598, 0.14273751979532137, 0.061419212747083646, -0.05355826111255539, -0.013838167122698985, -0.015067970781954295, 0.02990053521919837, -0.07770385052045034, -0.06629204948270831, -0.022333213911845444, 0.05779521088240176, 0.020757692599462085, -0.11692093440852146, 0.069369608775334, 0.20483356066358488, 0.38624003120401623, 0.21996765393991957, 0.45919698013290156, 0.4434128495873928, 0.32111384110759345, 0.28560750528982104, 0.3093347222713642, 0.23036982390011831, 0.14063484259122241, 0.22355339296332902, 0.26002636348626623, -0.21975114187897324, -0.5182778781935774, -0.5524759893433204, -0.18902116676588393, -0.13556044682980287, -0.08690569402031595, -0.0051798597948072575, -0.04633988085584209, 0.05222328970709495, -0.020629740974395773, -0.006979168613593121, 