{"biases": [[[-1.9763746565051399], [-2.261466892014966], [-0.8110116124023561], [-0.7579945618434071], [-0.18548205752696229], [0.9075223617093482], [-0.7681425768803029], [-0.6413209274072079], [-2.2846329173865523], [0.06679821421875141], [0.1509306831389591], [0.31328036959733646], [1.039317847010272], [-2.7414357304817734], [-2.251660772081996], [-1.4382978964913777], [-0.9169797189083688], [-0.05470707872950655], [-1.608856269552582], [-0.8240233485116943], [0.3797948862341636], [0.041964556677741294], [-0.8044978832970182], [0.14752941853803717], [-0.0184314384570991], [-1.3074988361137287], [-0.9582917334926597], [-5.215883839051769], [-2.7580152524518655], [-1.661700588779262], [-0.15319006441023053], [-1.4221006569296668], [-2.16606920718819], [-2.0412022146195508], [0.9492738301409218], [-2.1037866592424828], [-1.4934555775284477], [-1.2710063510674143], [-1.3303802116298669], [-1.5946319665415383], [-1.3848044542330282], [-2.5672219930051243], [-1.0357291372069646], [-0.8862925897839372], [-2.6924605075410937], [-0.6143883352205567], [0.29388266713524014], [1.0300918636663514], [-0.38678902992386965], [-3.326368701560714], [-1.2284768354598055], [-1.8224188031058808], [-2.2546095088814995], [-1.0470931223502526], [0.2528538476995603], [-1.660292152217792], [-1.8861495075654977], [2.1454498066739442], [-1.005414686408356], [-1.1119508028531122], [-2.4670352004930542], [0.4003510213862183], [-1.91436981734406], [-1.6651537956372235], [-1.5517907557082367], [-3.9417760815264287], [0.7069882954285758], [-0.2702218193708837], [-0.2101598271491137], [-0.13213189769253586], [-1.508468853250968], [-0.570938541440936], [-1.4832569347538846], [-1.7836511437971696], [-0.6154010596227308], [-1.131393575947232], [0.1894048083110075], [-1.2777593575521606], [-0.4442551765226036], [-2.0820506120372597], [-2.031417684689623], [-1.1734978558078928], [-0.1675680787344458], [-1.4199612963757269], [0.09966577384505082], [-2.138586204473907], [-2.5060828035344027], [-0.31175020188031144], [-1.8728335071340032], [1.8953622380187851], [-0.8795644332527632], [0.10097565517815266], [-1.2954668870648651], [-1.3450440467192608], [-3.933583047981981], [-1.4895520616264406], [-1.8849100968040458], [-0.5857716274898335], [0.7388251280490905], [-1.000120249400285]], [[-0.6210829628836744], [-1.7949831680663166], [-2.6200795201432046], [-1.658697599078769], [-2.821808091592471], [-1.0274471861900016], [-1.4723368919316162], [-3.7053486965179276], [2.5425023547284473], [-2.0122517722422533]]], "weights": [[[-0.003947592023470298, -0.020523919688117193, 0.0008411128008002147, -0.022210806459599764, -0.01885796514467779, -0.04979510467536221, 0.0025696225955987215, 0.025908403556125364, -0.05972003959080714, -0.028920672830024863, 0.03821516007546854, 0.02315200930520925, -0.0011089733281416554, 0.013256756126607032, -0.032883236239798594, 0.07077297861075926, 0.021775544493211552, 0.017678379943706045, -0.011294889507270783, -0.07758273472594947, 0.004378880516935455, 0.017902289647887055, -0.010958091146508279, 0.01824430241235052, -0.023431471901278592, -0.022260327467342838, 0.02477688757311694, 0.029783711799121624, -0.06764626809131083, -0.05041947457894075, 0.01352000016375797, 0.02081518296170177, 0.02439765935615902, 0.008823254078097845, 0.005222457066421317, 0.021107176882982824, -0.03354332634824423, 0.0309388069582464, -0.02180739367415983, 0.0009142983866661735, -0.006189772752161775, -0.028770074715554355, -0.01910501065230824, -0.014894267344444096, -0.002941987049100963, -0.05512669697530763, 0.009427060808068084, 0.034257949567876325, -0.07278007826655522, -0.009234429592863571, 0.03610213589798203, 0.040981790272541674, 0.03061125639179653, 0.009131937840941417, -0.008543147580557747, -0.011859713472347969, -0.02241767452079723, 0.018730038925339483, 0.05508838324144732, -0.011487385261270007, -0.026623232131914292, 0.010196186030734015, 0.042390980615097405, -0.002884528492946886, 0.022213298792250234, -0.02403129291386655, 0.024685162617387426, -0.05728270102562722, -0.08406181859766101, -0.014125347903112293, -0.02649197699700647, -0.06159179310712864, -0.0032109423067051596, 0.013267023729515196, 0.09351159983605456, 0.015561998193475882, 0.005201890392579514, 0.019223731031398773, 0.044443794979789716, -0.036681468633085405, -0.049777830902176703, 0.02091266357543073, -0.00798881970364047, -0.052425970103196294, -0.03892597416250702, -0.04175690496961434, -0.015781138382151328, -0.017792783563831342, -0.02552979540978955, -0.014349396256688986, 0.04303792106677192, 0.02693301638706443, 0.05323952512998607, 0.011839974236455223, -0.07806960456546257, -0.13703237039235314, -0.056433101590998895, 0.014152163684739828, -0.07870251049373207, -0.058902199797134014, -0.17743396147198984, -0.06597535524585174, 0.11605163059264804, 0.15559696572291104, -0.08340439263706864, -0.0944365824693937, -0.11831076419700756, -0.08171533430158338, -0.03681585769647322, 0.06371989978130427, 0.020268612204068358, 0.053284715038233885, 0.04877070609730508, -0.002545307238437699, -0.04372268266301803, -0.036042871396084454, 0.05591338675415544, -0.06721012077011626, -0.031619440469665305, -0.09911025401989401, -0.2703187567303997, -0.10074588481286677, 0.08671505877102971, 0.11468467214409574, 0.06728026481875878, -0.04776076857939262, 0.3133905055743487, 0.3220201827388254, 0.04261446076905925, 0.09959233120884023, 0.1421770739872601, 0.07579535650026872, -0.08124183720140842, -0.06094258566351559, -0.08590704615155395, 0.0017116210932884093, 0.06794340829804076, 0.10354211706592654, 0.009750977982681014, 0.031109923116019497, 0.03315704680263673, 0.009957690081243002, -0.049922986053056, 0.0027880403772557517, -0.031899211283818944, -0.08693763629114333, -0.10988755774721576, -0.2725581393293427, -0.07998181678288255, -0.026307983593025167, 0.08218795529371305, 0.22090744963246417, -0.07964778770047742, -0.03568656001683397, -0.08150342025181241, -0.0804837622942562, 0.3199608618648534, 0.19394216110506748, 0.10756240313760838, 0.036208750393816005, 0.43557984962795865, 0.09174887552104416, 0.19302732830789357, -0.007001325919853375, 0.03990664521342228, 0.15078059907123373, 0.05612366083674444, 0.03293370876524889, 0.004123223952786236, 0.0061407798086338455, -0.034930227379291405, -0.023808875752444697, -0.018167273812583994, -0.12489923529592642, -0.2775842462155132, -0.18834811107289637, -0.10259802219581354, -0.1528444479372031, -0.01514595182884349, -0.09272887242984873, -0.1582583647559756, -0.3193693000380378, -0.1783031929304239, -0.3560618915342806, 0.0664925388155499, 0.3966764092208251, 0.3709629356091717, 0.5859683597736873, 0.6226826233103133, 0.27721578330805546, 0.22902727985974358, 0.3564874053098823, 0.5134747251507447, 0.408113340227709, 0.10254957509969795, -0.0016866082426198218, -0.04466361362835596, 0.01886179151650947, -0.0032502114165875273, -0.006061084090002782, -0.09683624759185207, -0.07272647209500009, -0.1599524007445059, -0.2301083887648118, 0.0015660701699255564, -0.20489888966746123, 0.21724411866356585, -0.1921676990955581, -0.26508867763550364, -0.14552997372733253, 0.10229246149279528, -0.031266226402130524, 0.2598706407878714, 0.31499176934346507, 0.5755173774850432, 0.7784954825724709, 0.8169917737466901, 0.6034614637638859, 0.20142323744022525, 0.23263530029644902, 0.1644876512870158, 0.27448312434338673, 0.08528042224676692, -0.03515021660603067, 0.0280776353754626, 0.01624081653742311, 0.007611977517558037, -0.001011943179424131, -0.08452757153300629, -0.017052907899696476, -0.09317887449787036, -0.1850767182112745, -0.3406778644731937, -0.2717618121422917, -0.03880945087618315, -0.08255825865738463, -0.13372369813256677, 0.06937724051784382, -0.03567242338993301, 0.019560404673426745, 0.22399235121733466, 0.32102938562607525, 0.5561065812849135, 0.39341797298858544, 0.29967268074745995, 0.15577383578558557, 0.07786349659084703, 0.14517627351923829, -0.03575429521107275, 0.007443114298334378, 0.013796082811463838, -0.028945003099315948, -0.026011639780446096, -0.030918128051921467, 0.003610723882047737, -0.07957363767721021, -0.06080065959965086, -0.08150978874353572, -0.1861843606337719, -0.3121487506451287, -0.32178245922390863, -0.19938593229302665, -0.132665689026785, -0.19915275288006737, 0.14537444853211756, -0.39498216324657565, -0.33479569121154856, -0.3993664566661317, -0.5091967531766224, -0.5396738881366108, -0.475874009860036, -0.5382814017372096, -0.5491793589398006, -0.2722273445591124, -0.2716732717375926, -0.20764246038965836, -0.1393149329593623, -0.06181231576721448, 0.014456985745995896, 0.006729472180737373, 0.010065803373823045, 0.000636797255507211, -0.035069216126768686, -0.08660804308366327, -0.07673766881838724, -0.0806369889026744, -0.03145908672841091, -0.061825940174213896, 7.44276284992604e-05, 0.06189220650967515, -0.004439313842515896, -0.2950160967625084, -0.0402839809239887, -0.4850051649789856, -0.8751548862725168, -0.7972662071500402, -1.0474828154322575, -1.4249161093100324, -1.2346794888446462, -1.0418313772070598, -0.9475480337822021, -0.6251516917682544, -0.5235411046059943, -0.4388130970996993, -0.25435592043845107, -0.0011794774056489898, 0.004353243749667782, 0.020098797859116568, -0.03297657137241095, -0.02507061047899746, 0.02551846752091149, -0.0727361934864522, -0.11966586592305842, -0.1946552791300924, -0.02894189588221497, -0.12156272212352431, -0.18864040546020597, -0.23685939431761238, -0.42992871078305334, -0.4363082192529212, -0.14987452690421435, -0.5579163377464756, -0.3126829764278154, -0.3976120299885942, -0.5286199887891069, -0.5735794480389431, -0.6400357277049006, -0.5902981010588799, -0.6790585164002657, -0.6157536837223714, -0.5692090220479877, -0.3696147295675113, -0.22888752325656594, 0.02864928727313117, -0.027032453439632915, -0.017723194373665117, -0.038065411264245265, -0.02154603059121757, 0.008348957319587121, -0.04918832409118335, -0.14473845775797092, -0.23127798608341404, -0.12091093500120156, -0.12435969036233317, -0.040869699204057496, -0.28087955110664475, -0.25098733054431227, 0.11572368855785373, 0.32040257369089925, 0.052197087414686975, -0.08730398322994755, -0.28141119279110294, -0.20186306331641202, -0.27586551573088586, -0.1766805624321069, -0.06914084690776826, -0.09612756403960104, -0.3738501362865053, -0.30309677463109314, -0.26242889881156134, -0.24240592587442744, -0.05863823402520395, -0.027504798178042057, 0.04479036973423071, -0.005731590182313026, -0.010693314208273902, -0.028084537384740503, -0.0877449090897552, -0.1312635717449085, -0.09078360661577117, -0.15577594687902294, -0.001325183375716593, -0.1068868002197808, -0.11228136730120734, 0.28434892526120686, 0.41461608507792513, 0.4422920301186848, 0.33922743507440745, 0.4103801316110288, 0.0155603662061867, 0.02071419560935153, 0.2097158933493786, 0.1730114581705815, 0.3583874414332128, 0.1470867572706786, -0.20484455370552598, -0.15718005521696846, -0.19016590433453287, -0.10178720060948972, -0.11419460975286042, 0.0416003863068312, 0.014498507860458245, -0.01452285271658468, -0.005466959752654622, 0.007270578839531443, -0.03896095028087919, 0.014648952152319447, -0.22046948370390745, 0.041394961140876, 0.1478407324319907, -0.27308040726435867, -0.18294185842184796, 0.5797109685455974, 0.3079335764483455, 0.5933287108753317, 0.44284372373104436, 0.19380249379481138, -0.1551901718903385, 0.04092343658910349, -0.08123943117987013, 0.30846333724233954, 0.5189005205654734, 0.5367125742175936, 0.010364688219884509, -0.16870796985091724, -0.0865178603725568, 0.016045742622990845, -0.05316239458970533, 0.0168068864538949, -0.014496623312026646, 0.0263296918714871, -0.05485517516058925, -0.00897478823485222, 0.028727652242025673, -0.0358701911542823, -0.16709177509945036, -0.11740421718541957, -0.18226905700509727, -0.25130041468352937, 0.04941936763431193, 0.6000938378170441, 0.2972095240008943, 0.5014651017942433, 0.19197738019869573, -0.09198121162449756, -0.2449171414330433, -0.21692374028446942, -0.13051687088219022, -0.17642031578948053, 0.14788709558327393, 0.5491922119324476, 0.1826394209203388, -0.15843822349515374, -0.07394504994448454, 0.15377808902508577, 0.027876119577290866, -0.0020286153477275044, 0.07681493961528091, 0.03619924815726223, 0.00993782986341365, -0.0783750637535665, -0.006591858405584112, -0.003652005023249301, -0.20280144668259087, -0.19529287293469513, -0.5582772880082895, -0.43690929258491534, -0.3490936743333216, 0.03240210448171613, -0.08766042238414985, 0.22188424691833084, 0.21839408611402167, 0.1511512245069786, 0.4291237713015317, 0.14131334436623208, 0.21409172594516132, -0.12676669083248635, -0.02597360526793953, 0.2967229535901308, 0.08060659354789386, -0.012191104527502165, -0.12148621515187971, 0.08462288741332713, -0.003122373371666723, 0.054954067038889484, 0.04750616684869777, -0.010662531237903524, -0.006259103473392505, -0.0759198313438851, 0.06577616448913337, 0.05148926132823898, -0.053060552509711395, 0.05672938555818379, -0.47959936998294245, -0.4825165249330792, -0.6225375955161113, -0.5857433016372037, -0.46597542896527644, -0.6968444878877313, -0.18983568578583684, 0.0831690904606385, 0.14423912899645067, 0.07973445139164698, 0.13548965209924207, 0.7206945803122241, 0.09683448865471116, 0.08175568405951698, 0.1255697414434697, -0.014856283776806888, -0.12467137769885236, -0.057733246019324586, 0.06355767143394293, 0.016848154697997334, 0.02541788182965586, -0.018136514216403703, 0.024663970730288566, -0.040258987120681135, 0.014842268732859003, 0.3105536945791665, 0.4216246013615882, 0.23120739165942072, 0.16602211526278027, 0.0329243052062507, -0.489813991387607, -0.4841657152247865, -0.6196231427693091, -0.7868833577403093, -0.3528846755195862, 0.130789501878881, -0.06129937781731645, 0.17510826475019153, -0.06951568856710698, 0.04607768184841786, 0.32530166469201527, 0.10568594409620947, 0.09697755132423554, 0.012585338336138575, -0.17782649281342133, -0.015281694547475843, -0.0093288349459204, -0.048781952360588555, 0.012017483607388474, 0.016280454381099676, -0.01983286200640266, 0.04758880262615844, -0.12208325492842072, 0.3137569626283998, 0.36962551041210157, 0.1292046738474524, -0.0820508279292322, 0.06286351431138322, -0.3946635181409644, -0.20618128905824265, 0.13071790875290948, -0.3336918096700122, -0.26850739926834916, 0.06236752976052962, -0.019791629657654575, 0.16272291231736746, 0.0353912211662448, -0.006744141013319396, 0.17361445181850851, 0.146489477834021, 0.13997933846180838, -0.04268395451921153, -0.23251905368904316, -0.008686120824453848, 0.01650440013768452, -0.0421437543745102, 0.009061202009370665, -0.005847125572898698, -0.06372503624661228, -0.013300308175780687, 0.019773124594370032, 0.17635387646899056, 0.36209598884248445, 0.21964326270790321, -0.11986465259942462, -0.02276698180509893, -0.3630084926137876, -0.3618004258034359, 0.012141365263071097, -0.07677491023287011, 0.08159117343166405, -0.06186006567710902, -0.05487181101762635, 0.2203643900620622, 0.12790143211284302, -0.2354671705184709, -0.024379427955268557, -0.029555191590900618, -0.12260726889669142, -0.12589995497149767, -0.008084844601137797, -0.002540195313928146, -0.058360632707037834, -0.015389170372674966, 0.02619548971595684, -0.028277325001568564, 0.016521439919215647, -0.027743051692348027, -0.053478586633806474, 0.0895979318851337, 0.20948120820061136, 0.21940133790206512, 0.14662180962658966, 0.17599204865544119, -0.3574014065437653, -0.2772451321830575, 0.27725173526071556, 0.3735294385778179, 0.20967406282409104, 0.02880392683257233, 0.2903918808100729, 0.1342704932122917, -0.03129991808190622, -0.2273915778992145, -0.14700229083191751, 0.07739449728867379, -0.04054381501501467, -0.10713420287292504, 0.15189254728070814, 0.10472353274727877, 0.03843105345282474, -0.033110012435097126, -0.018819683153946675, 0.048952820663465436, 0.05397521851558728, 0.0391880984277401, 0.05881122961203257, 0.06062205623633196, -0.028297180157693304, -0.0683091304679523, -0.06064106953355042, 0.0448469329334546, -0.3852182132268424, -0.2070641670159656, 0.3179884098744103, 0.11108237926118483, -0.14322581647666172, 0.0028566830418200015, -0.021557434041981804, -0.11249140523716482, -0.1559976280063881, -0.14796093633039328, -0.0032385176191288044, -0.003484446612667519, -0.10390461588899644, 0.11505054026166914, 0.18637329124522875, 0.04288379049015757, 0.057681846888870604, -0.05693333919705024, 0.039353477159467326, -0.04170968338672739, -0.024376742336287636, 0.002271103664469366, -0.014656328336690344, 0.07131025413794922, 0.12454860447445851, 0.022419888192003152, -0.004273623722943077, 0.038321602329295566, -0.03272242119221289, 0.013552269907853154, 0.09734810561989142, 0.045695314237418565, 0.13189016103208537, 0.30496860391164443, 0.1704385512114753, -0.005699797093931398, -0.11038737913303509, -0.14017351800870992, -0.31812263078524144, -0.018046100065380138, 0.1000531991416065, 0.1668781546010912, 0.17462851349058037, 0.06697081163241989, 0.014526389317650793, -0.01618592869523425, 0.019311091857326757, 0.05401680310214351, 0.008015785166896773, -0.06611325757469501, -0.02610121020977468, -0.16387920811119688, -0.12731145434347507, -0.21490598033099564, -0.06846086719521229, 0.1153930368956924, 0.16719045831790613, 0.23079043982100933, 0.039941464728359105, 0.23307879719472674, 0.20026678303464882, 0.08648136041518688, -0.2108795496045783, -0.3651165830618132, -0.19934340084122504, -0.16251041489418983, -0.07554699763963109, 0.10654418199125676, 0.06930157681018376, 0.14077261099121596, 0.047254862823634294, 0.06422569508846195, 0.07375197903460436, -0.0281643485054535, 0.027654494312881014, 0.03398872684768555, 0.02570065074130666, -0.01119915878158018, -0.041092065216095645, -0.08483897733272791, -0.14852368773743688, -0.09336850240134247, -0.13846361327065923, -0.025916174701095782, 0.014914142108347753, 0.10997209971318059, 0.0956283492536709, 0.25895869531139076, 0.17266010627391867, 0.04670339427967155, -0.0786842587829248, -0.027360544875895856, 0.08344387013075945, 0.17276397668496196, 0.03566835182361999, 0.02435372012899516, 0.01765322511352063, 0.03981173496499457, 0.11790166876666912, 0.09688482195844157, 0.019808669283457394, -0.03150687902354821, -0.022706765085242823, 0.012319320798833485, -0.02923455180413824, -0.05306717243569002, 0.0132132564166579, -0.0043367430031034625, 0.01600698186735315, -0.041381171949763415, 0.013317875322908445, -0.024315490225380695, 0.0016728377943847684, -0.022869823467019507, 0.02995584148056717, 0.04675672315077444, 0.04181156629613108, -0.05410531053098909, -0.053578580206662674, -0.06294125402786273, -0.03192882314159227, 0.014746626764104175, 0.03528278029004338, -0.03362247448796979, 0.02342991324789206, 0.012285563629342262, -0.045791673970276836, 0.002705239389106462, -0.02393156758610462, 0.03118389549509591, -0.0025694970755458044, -0.09601556361682019, 0.026715505141341897, 0.017291425216858634, 0.014066697185215662, 0.047789812022815376, 0.0051066146839537085, 0.04387431695219077, -0.02655021171700444, -0.0004884421236376643, -0.06388295587540682, -0.046149405939079916, 0.046732733516083584, 0.022258672630572338, -0.005441536967683126, 0.026731125185405154, 0.015163083765339144, -0.01091480955491872, 0.09566616411838952, 0.043054624328325256, 0.031249660818630915, 0.005952696860909205, -0.03467853453352279, -0.009182363416719382, 0.003180076772752613, 0.004772420947261455, -0.055319315465927936, 0.021641670483093057, -0.015518726998377993], [0.03904771700904279, 0.005264781192480559, 0.04981562264302624, 0.04321578691589334, -0.0156292358369516, 0.007156810003060049, 0.05803686004270299, -0.026380537973724204, 0.02354414458250545, 0.03843079130988732, 0.0257364775117816, -0.04712258421627036, -0.03753285203698654, -0.044249794713231205, -0.020557927251763457, 0.04766968314226033, -0.06301811480227976, 0.018070676442033362, -0.03378847147918701, -0.05508668443207022, -0.008173589022848482, -0.015445547154262752, 0.00486075944811553, -0.03213695672531299, -0.04537059520811946, -0.056501356305936425, 0.037808901209979866, 0.002279409976157, 0.007933073268174884, 0.004999283832730105, 0.002703882787115423, 0.0729120103533591, 0.05584714241471935, -0.07400968587743216, 0.06618636880340996, 0.051930707563327516, 0.04141425585641583, 0.06636364850520045, 0.015974585686153293, 0.00025010578433639784, 0.012073803512271409, 0.09020336907291533, 0.012367554854368249, -0.006688220509078934, -0.06229460470604474, 0.047339340420109205, 0.009717527971503721, 0.026383128813297598, 0.013685466771276722, 0.07664233738990738, 0.003683690021387728, 0.022078477187231972, 0.010776890761122928, 0.003618694512512783, 0.006268753789656688, -0.016663831928353506, 0.02938258529783078, 0.008588190120606406, 0.057312209171165855, -0.02614168685384863, -0.000412286706111994, -0.016906561703497795, 0.04849343099205379, 0.03291858224384056, 0.11488663614311125, 0.022061436932832378, 0.026385517326098177, 0.07602812152693642, 0.08010822131124422, 0.06688095213670728, 0.0973693266658625, 0.07761576253319323, 0.10918910267051873, 0.10655229669561427, 0.10348070937163002, 0.09323944875986638, 0.03249315809000635, 0.018077798790303183, -0.0083157026955642, 0.0657590977685352, 0.09463504550037227, 0.03565805767379033, -0.014336741456478687, -0.011772397414262696, -0.010275028718128005, -0.06581360783434222, -0.061069030342619623, -0.013446399506768703, 0.015299139674305615, 0.02339860213878569, -0.019054289769292018, 0.07318301895762953, 0.1391932019507426, 0.20435700701047105, 0.09637288240896327, 0.09436757263036029, 0.17242385772145102, 0.22157535460944255, 0.1357218317671292, 0.10811046881169857, -0.03455576455814543, -0.07810521849404471, 0.0722868723455325, 0.060430908768636514, 0.01039052719904448, 0.017856406972941316, 0.03536000007373653, 0.0630924007720756, -0.005622909253044385, 0.06217329416274595, -0.002726298266750528, -0.012125590728702142, 0.007672505994435151, -0.014315224651378754, 0.023235911372199693, -0.07146280233314702, 0.0035206139145972162, 0.004480179897585182, 0.0674656964085297, 0.10390150806079604, 0.07435830098588293, -0.10121495027700841, -0.03188052415631553, 0.02609571164713964, 0.20372992170258233, 0.19603713646816565, 0.14413940901427813, 0.17220253545372355, -0.10095086479023609, -0.2600285796047494, -0.3624462578447931, -0.16256570978978377, -0.14391717217628117, -0.03955346209302556, -0.0844370270531253, -0.07075593240064595, -0.0034911760689568727, 0.024782506953129977, 0.0287114715452248, -0.03697400183212046, 0.011719882742065696, 0.008733377667887956, 0.03504096568189744, 0.04477497049439711, 0.14105272292085996, 0.005797710006445579, 0.06256017415465116, 0.10417293990312737, -0.16414700499608453, -0.06028043316861995, -0.07359909364342535, -0.1685831993295651, -0.090743159984572, -0.050725191755854694, -0.060677485007292975, 0.14959501099114542, 0.05521506076839125, 0.10785307717383018, -0.07324191671905393, 0.023157550209195486, -0.06774420945068017, -0.03409049310889038, 0.05990453831746011, 0.010988437161410096, -0.10271976468738897, -0.03844894030461477, -0.043448487875488634, 0.032635000209292234, 0.07263362900873704, -0.0004885641415166848, 0.009182046646903495, 0.05370897532026585, 0.10419868325733855, 0.025209166682637982, 0.0012594664122075666, -0.08104556581385179, -0.14558469551577183, -0.06003811724124389, -0.03876747701097003, 0.155724969621907, 0.04683037884277904, 0.10620610384537327, 0.11542808862574817, 0.2145055956054383, 0.29524550672914546, 0.33299446521553683, 0.14874716489078904, 0.02752395242695355, 0.10104347339189433, 0.08668453144920102, -0.06645602277944683, -0.18265481975832232, -0.10130719035918673, 0.057470268540224, -0.027928669353481175, -0.06722451503025034, 0.0010686030576519076, 0.0024156605216064885, 0.01770320971854844, 0.05090223840702044, 0.047753241081581625, -0.1543314384371379, 0.021453738483244375, 0.03766020798441268, -0.0014690687096286365, -0.2075710453009799, 0.05734484727123223, 0.08527520391576122, 0.26229845961554993, 0.27595935723841525, 0.1790465334792794, 0.18252305014053755, 0.10823176767683386, 0.5008828757204918, 0.27187861138791286, 0.1977654522159645, 0.26636802499053946, -0.039388409971908844, -0.1475360698262621, -0.3914826841513614, -0.23260512355264576, -0.06833633453846873, -0.054032553781596576, -0.0318490104285493, 0.0031066929611259573, -0.0007645129739870736, -0.02271785517546895, 0.08435068519986653, -0.011691205176706684, -0.13973608873142046, -0.021086830985953153, 0.16590397734839202, 0.08971215681880615, -0.03743365950258182, 0.14964561414084585, 0.39524365539637757, 0.16346797805322127, 0.05643435557635993, 0.08523632530512765, -0.02136886633354558, 0.0639070392340483, 0.34333768430137296, 0.5067972045236193, 0.3396815254586341, 0.28402128214689265, 0.06445328697118097, 0.06807446054917007, -0.24415498080698134, -0.2950090306576282, -0.180125274116526, -0.05145966015630632, -0.024132489760792186, -0.00028058817114972164, -0.09899743471583106, 0.006405951612455706, 0.059064811882512294, 0.108832650965818, 0.03864763689945599, 0.15464102749336614, 0.15822328772264127, 0.054715305659, 0.1261598659975849, 0.22129931118847565, 0.19192034013240492, 0.25099173531186786, 0.0752871446014704, 0.25646413189949735, 0.03954203382032402, -0.12995544195295622, -0.028125221705104654, 0.18725287633287588, -0.08431096750247315, -0.1271627705782607, -0.20591561679474796, 0.10501295873179935, -0.09748656512649176, -0.18167765218234344, -0.011577007132585507, 0.008611827873542168, 0.02628886689130857, 0.05145331845236821, -0.06663898602412999, 0.01559612331038471, 0.05399390103076939, 0.0995554449052822, -0.010433107949594452, 0.2838507215333254, -0.09176821989300724, -0.2083579843902979, 0.010040573560498502, 0.013422949688166983, 0.19750883099476563, -0.10090917301992179, -0.09395870360563943, -0.42603042859635404, -0.4450879907108348, -0.5593083985969867, -0.8324498463370724, -0.44823796811942646, -0.2953071085441962, -0.23938764670513904, -0.11320787114847158, 0.038562689903765504, -0.05605250959292716, -0.0101991796530941, 0.05583258716818283, -0.024557630273000623, 0.02172517223996974, 0.03673078849531909, -0.01855405256096379, 0.02075925276205387, -0.038502975929640325, 0.06752611372499011, -0.04878364569586046, -0.05915383617537139, -0.40653573073935423, -0.1495504517827505, -0.1287658451275597, -0.135834825452825, -0.028644968244969125, -0.3217205013941708, -0.5039828318378635, -0.6754241423991966, -0.9067928413862959, -0.9442449834760351, -0.7128425729798956, -0.2711135355332544, -0.14090036766402017, 0.2521470862663186, -0.03625092823843783, 0.10561676173174923, 0.20085082082041028, 0.027727357581887557, -0.05294783014766213, -0.01604304858821423, -0.02265523134194569, -0.0430559768392367, -0.018502847308079343, -0.018969154162126453, -0.053498647963733104, -0.02510478288457688, -0.2015261944087198, -0.19133791448536666, -0.22112028493808752, 0.020554030007887965, -0.14597338739139626, -0.009672658962958375, -0.27742402466629285, -0.7173683810789014, -0.7372903913302356, -0.5166211091802057, -0.3904731383662632, -0.24922043626640417, -0.1858395047563006, 0.12131519851614223, 0.038836568719522326, 0.023450460418148977, -0.10149060212573816, 0.11752275105085168, 0.237515206158078, 0.11033555791362042, 0.12547534088221537, 0.0070917473022639186, -0.017808964819862043, 0.003559344483339541, -0.010792234657114503, 0.022490814540530937, 0.10422801916772047, -0.16042791775420082, -0.43671000322293474, -0.3608450821775392, -0.25339395627867733, -0.46876528858417854, -0.17811354893842232, -0.07769595612580085, -0.35956313290351266, -0.7294001621756989, -0.2704619461700117, 0.000922755326300409, 0.08339043338179657, 0.5681196785240712, 0.47307418423880715, 0.2856338835167903, 0.11037739116555706, 0.21045252877088208, -0.026316352848391532, 0.006558580772402051, 0.16393249002925253, 0.11615011706703268, -0.10900482239706392, -0.014572276020027744, -0.06587189426834793, 0.04694978620397132, 0.048397691198947844, 0.009511084727788565, -0.03533411184523273, -0.18206750636590802, -0.5809896487093151, -0.23657981529309194, -0.2205319485264639, -0.1851842314078859, -0.2369644323712461, 0.006343511237543219, -0.45422489070988337, -0.5025954560319772, -0.1007908577850219, 0.2083234246365786, 0.601908171736018, 0.7381756088655347, 0.780915837817683, 0.5742766417041608, 0.11886286453994489, 0.3144256633332341, -0.1326906840824768, 0.0780654910442283, 0.10256019738666897, -0.02329718028202338, -0.08176332559849221, -0.04053706854071375, -0.02568516624358425, -0.0031389942075980234, 0.028529431317008046, -0.09083886390641535, -0.014803244185633595, -0.16448202379333327, -0.22743184184140464, 0.08636257191583954, -0.1344967005055563, 0.026884369980329142, -0.06554157784312757, -0.04800231438838222, 0.001600823786456216, 0.0994130672627628, 0.30949934855130584, 0.4246860593277244, 0.5309720085113594, 0.4528683500213153, 0.36449307835402944, 0.43508628541942096, -0.07479245790170445, 0.0475099404554418, -0.03629247526211724, 0.17413493160678326, -0.04404344629484933, -0.0495527092987619, -0.026322391874007825, -0.08474635351063581, -0.005624313639967607, -0.030243791343822143, 0.00818961495447317, 0.020933460402376803, -0.009956316151534564, -0.02155659169024115, 0.02830733983825344, 0.12637444864881794, -0.14236233535016768, -0.13036058473490578, -0.10336805241481699, 0.05320954961143491, -0.10111162504872788, 0.07782560818910268, 0.2031452386308114, 0.06007265490522404, -0.06522548631233767, -0.17121775666817834, 0.2879458059930573, 0.14277657018395443, -0.15282660746805513, -0.10715546457762914, 0.02305270877747951, -0.10530725099079466, -0.19101020347364278, -0.07841250722915993, -0.08024142031202869, -0.01653093695830904, 0.022745151557170523, 0.016940611511991877, -0.006177768786050441, 0.06436408557180656, 0.08950841526442745, -0.07639308220661373, 0.03717760293347348, 0.42220009254317037, 0.3230522633060444, 0.24869184733955144, 0.03342899828608336, 0.07424816564317634, 0.09567956895667216, -0.0011656061135167648, 0.1555702537939031, -0.03283876271976481, -0.04130074386424724, -0.04897506211254856, 0.0023079748352803765, 0.005646428154045688, -0.0009549847078328963, -0.02572581252929466, -0.0037455551629925715, -0.09313705474693872, -0.0901977705662595, -0.09493785666971233, 0.01975426797928947, -0.07167053528664857, -0.05347780351252426, -0.0432129642563199, 0.031029547635378855, 0.03154631691524201, 0.14822359931714574, -0.07208725905162339, 0.15270906922167482, 0.44063024486465807, 0.5694307116147646, 0.2601553100784814, 0.30280597804051496, 0.46480109122460556, 0.17478026264736352, 0.0997141000850143, 0.2502741229406255, 0.050124625319960786, 0.09752840121891175, 0.023175590464981938, 0.01297395016626125, -0.10688150119466146, 0.03224787930451012, 0.1306135163484468, 0.010400471019612462, -0.05217002720870153, -0.06408531835092386, -0.059393366676856164, 0.029005000345517506, -0.052384766499961016, 0.011309640528922412, 0.06419002317637482, -0.0466662333251655, 0.0805078144439454, 0.07313888630471305, 0.16676338131175164, 0.20669386829396133, 0.3442053865035772, 0.30619896758925275, 0.11375126266788732, 0.08959098300897485, 0.10257443231932643, 0.1876744728151618, 0.09523352673127115, -0.10250337948380538, -0.0326543130176368, 0.032724455631453785, 0.08828442556996982, -0.05820719055034254, -0.2222448388944608, 0.15451064070286205, 0.078572957213229, -0.014516462153026693, -0.12910476191236486, -0.08501433531327018, 0.059761187801523924, 0.003628662114790055, 0.03772361431461349, -0.04269473861178972, 0.02440475799145168, 0.06054496700148251, -0.06377269777301542, -0.024609527813401106, 0.015915655310649413, 0.2091194808675008, 0.1848968457997284, -0.03427163435274452, -0.2452450684910252, -0.10283613673745894, -0.03549568255812614, -0.10383896323096885, -0.3585855998268025, -0.12066711228885639, 0.17051971940951471, -0.16382933577541592, -0.26506117556774755, -0.2732978704831607, -0.3642181856565219, -0.08651605488792169, -0.10174697192559055, -0.015410592017421655, -0.16589914624987534, 0.01701781146438728, 0.022378469044609908, 0.04864447998635672, 0.021740232974256694, 0.008661951002218749, 0.03791666507694969, -0.0214596267923189, -0.08247409864490339, 0.01708888041390718, -0.0979620824079043, 0.12322756548928103, 0.26299198315068817, 0.21053183369163822, -0.14171398733874188, -0.293978146269765, -0.16214339053815682, -0.3453688872916135, -0.15992453434970574, -0.1456810532966643, -0.16792700313774936, -0.6053435920158441, -0.2512186509629582, -0.16537643287397444, -0.009659714837865393, 0.010082028077202761, 0.15499453580898598, -0.07341912926695414, -0.08386746453690053, 0.05192412298571895, 0.06926272243332944, -0.010467490188863605, 0.0026866082124071575, -0.015898046520220106, -0.0019989980349114675, 0.055087260192489586, -0.10249382795692183, -0.06216711790814334, 0.02222299284029192, 0.08336730089694981, 0.09000072354359966, 0.054025581633521565, -0.06174144095548388, -0.1567158573123448, -0.33525748807061095, -0.5639670274497915, -0.18853622706713422, -0.3673914424697672, -0.4459552768675819, -0.2521832256843351, -0.03676894862560511, 0.1599714700433299, 0.06487884250725418, 0.009071018946606758, 0.11366598856576916, 0.04360946034899124, -0.060000756459788, 0.03378739557045047, 0.05537050575570886, -0.05156393458241468, -0.068006628374604, -0.01992058130870571, 0.0002511264178503968, 0.0014657784456852173, -0.008081908114188593, 0.024451308319187348, 0.0919453274841603, 0.22684375217867273, 0.12940270697178857, 0.11082042335509255, -0.2057745409875571, -0.26621653448560473, -0.3026690089643308, -0.28260332149607637, -0.5872801638707383, -0.3530833006130086, -0.33549120134822963, -0.2009542300840377, -0.1209132611850002, 0.28063474560483065, 0.07661572329103976, 0.3283849794464752, 0.2942668503621902, 0.022803748675477954, 0.06046934452975485, 0.09645316336316719, 0.013373196093501655, -0.030141997037717774, -0.037111519618866246, 0.04637478396203385, 0.009814150547198268, -0.03501374490014324, -0.04486739798484199, 0.08885027834602834, 0.09561226393831057, 0.19368036925162369, 0.16938094345697247, -0.02987923960107026, -0.1929322584626231, -0.1538909032617612, -0.15228048773552302, -0.1338660241566643, -0.3073389774077295, -0.25740388344620846, -0.1803884989542302, -0.1460823638619161, -0.03331544724730335, 0.2028851597545554, 0.06073157521740903, 0.31794326026916603, 0.24785175088726738, 0.12928290372536255, 0.07817382302474313, 0.09151318670978034, 0.06848161207080099, -0.011718307259285082, -0.04253878939751802, -0.017414013218306587, 0.002134756359062142, -0.025069541301018496, -0.004356818467116606, -0.033844608490863196, -0.0277436284433012, 0.13840370099038518, 0.05686992789194482, 0.1234303237204743, 0.15030957486871377, 0.2828448059310169, 0.15050070550579212, 0.11338411969290359, 0.3480383948595921, 0.3494818069887492, 0.19206672666326635, 0.07017296946832159, -0.04162923866917464, -0.1327922300599855, 0.1505596284210748, 0.412222540178542, 0.30653686055493956, 0.1945057661108612, 0.026624161567999023, 0.031285209666468236, -0.0239270207650853, -0.05213709094423926, 0.0049109226852419195, -0.0018664783548439058, 0.03941169861606539, 0.052953326983047125, 0.00481062829895735, 0.020719562985002906, 0.010722339787761078, 0.014028373044917844, 0.043063602231906695, 0.0029528514042530597, -0.010001410055520308, 0.07839634042945212, 0.14603631469002593, 0.17701423411194475, 0.06757797634814894, 0.11914241952428917, 0.15475156301659035, 0.17197500525963855, 0.16178475508929, 0.0667725023461918, 0.08035506565311129, 0.17507196769276617, 0.09794790783055582, 0.0967378901517718, -0.01803241049344741, -0.04380220210889638, 0.02071610854559396, 0.01895876936921745, -0.01626891552939102, -0.01439428900378191, -0.02050054633527695, 0.05144172006023553, -0.01091296956225122, 0.029996101614182865, 0.005716664840744713, 0.009063346903304055, -0.03140956817000921, -0.07212679457572005, 0.05220591519886006, 0.019714313991787764, 0.050493727674110984, 0.021712028349589668, -0.010400549803235707, -0.014217119755728917, 0.004899453367321554, -0.0035678380903931646, -0.08450274997904066, 0.07853160343429826, -0.017419189250260744, 0.043291556681921355, -0.007528836890417787, -0.0479390732969213, 0.011112685536590207, 0.031979492100638336, -0.036421520378550405, 0.04068541195223271, -0.079789361556674, 0.02299989698400824], [-0.01601707299324715, -0.005290400546467213, 0.03644366581247628, -0.01670099017136693, 0.03586420171034549, 0.0018838568753961275, 0.03700569258405736, -0.009938675721283296, 0.033217176711623365, -0.03614317940483503, 0.04038883878431105, 0.04562100561057261, -0.01621405881628178, -0.0004161366561866797, 0.048239182493889525, -0.052546285782181956, 0.0077408623259792725, -0.018374353507968042, -0.03207211107863019, -0.009554735946677932, 0.027107342210197883, 0.04848073362831265, -0.005831414273217837, -0.007111417313049181, 0.01109448259518746, 0.01782954385651773, -0.02915836501997965, 0.00019883199956994554, -0.01514243797742302, 0.02851511210635625, 0.03086237326526103, -0.03151356642635501, -0.007158362645522133, -0.006889368575948414, 0.03652122428570962, 0.05508306764133699, -0.030676239167046464, -0.012753088103338238, 0.009065208188511548, -0.008201720355825214, -0.008071604434802943, -0.023727763158332863, 0.040338571603329626, -0.06737745046384411, 0.06896882594295953, -0.0069053939444923855, 0.03173264974406015, 0.03479199555685274, -0.08878410178953161, -0.01150766161075414, -0.046945562767999646, -0.001496891560292153, 0.01700046783619149, 0.018068978218441042, 0.026025635084216504, -0.0639170724803563, 0.0015545750785628469, -0.03325766957824016, -0.020844003873266, 0.023287153853486797, 0.06070537267927518, -0.11311167744079731, -0.039522549988087304, -0.01720231153141534, -0.05311675115869766, 0.0016816462770428884, -0.08101068613307982, -0.09028129580680953, 0.0014381467327073882, 0.03335056689365598, -0.04779992259364272, 0.036430931521276036, 0.039213195232388316, 0.07718677505706653, 0.0436885547542576, 0.019734600705420904, 0.0221639593853131, 0.008206620503750092, -0.017974001235631865, -0.05613441863013211, 0.01605361067754918, 0.019639473082623655, -0.0029338733798086975, -0.023852836380226453, 0.029132164756077123, -0.038116080008578426, 0.010806682653625584, 0.020975994387951922, 0.0317403936982587, -0.051482594145426594, -0.00312783751306212, -0.055424161752555906, -0.012484236917893037, 0.04183860224880989, 0.039524786970879695, -0.056592656844991006, -0.040550916581298696, -0.12964431579634936, -0.034148582480061786, -0.03578594438498775, -0.06359136971675965, -0.15612127590474126, -0.02312611216184132, -0.01941542417967923, -0.0064865966982277515, 0.0032248182236061674, -0.027230145622427638, -0.046501523872000405, -0.06634891746568716, -0.06363908009930358, -0.011914619963694357, -0.05893556805812916, -0.02278789313165404, -0.08277112850012792, 0.01260608406533585, -0.034249552247318966, -0.04357655893813304, -0.059905639118189295, -0.046466058433580974, -0.10587422651664906, -0.07271166658267074, -0.0007320135548589294, -0.08666045113690748, -0.2722710767891482, -0.2946788995973116, -0.3112844793202395, -0.16750643747475114, -0.11763035357315818, -0.07658314422080056, 0.043764470643977614, 0.13060722633426877, -0.05503458953416233, -0.06748362717901278, -0.0053420272729265425, -0.10251635851001488, 0.020839376360367038, 0.04002262825095162, -0.05414620250905574, -0.06443068193229368, -0.03694510540691244, -0.002146224287166101, 0.023326390983364902, 0.029568720594794644, 0.0008275169082157881, 0.04749272622175385, -0.023978112248964043, -0.19985394097132597, -0.1948293250662386, -0.09856350627750882, -0.29779984345666627, -0.645424357679112, -0.4488769974135905, -0.362414951522123, -0.42190899932568077, -0.2411681948965702, -0.3545080925207523, -0.11920871365247146, -0.004200377266650843, -0.06221223206855622, -0.3832848659713353, -0.40949628764734647, -0.16415320411396095, -0.012983165651484576, -0.03485694409573907, -0.08283159755222658, -0.07949216403996495, 0.04030586282590961, 0.050183052197312734, -0.025022419019864812, 0.00037631956752338035, 0.007926040645684767, -0.03325270040374902, 0.07149294915911318, 0.1437508287504513, -0.03723925263352623, -0.2152979269068523, -0.1271232102266862, -0.31807270830174234, -0.45663551741006736, -0.05507660364573579, -0.19674407983967454, -0.30493443526930003, -0.22797187500366195, -0.6661617826978893, -0.528156553134343, -0.393678513971655, -0.35652101732004954, -0.2812974956647208, -0.5795100673387222, -0.3324493248206695, -0.28015834902428255, -0.3788788954837035, -0.19857692938800645, -0.19902606046210214, 0.016941257075627977, -0.04969098608976891, -0.02471886679612791, 0.04473950685738777, 0.01715841189293799, 0.04431155709637335, 0.12284370859504594, 0.015080691392108896, 0.09598304214938243, 0.10759218709892272, 0.02344164738575513, -0.2051096655958248, 0.05151032733045092, -0.1892742284333905, -0.4197706580938961, -0.8481456456877338, -0.9063329725431557, -0.8272178585986313, -0.807524308833413, -1.0828591755991133, -0.85669560494066, -1.027921036171932, -0.6372915112476019, -0.6735978993610027, -0.2234684392822482, 0.04019719515812577, -0.03670696716702496, -0.36957989563151505, -0.01055206505276816, -0.015599132541734546, -0.041022619606219106, 0.012713432447322995, 0.02953183850372331, 0.17474328699259173, 0.1503332825139061, -0.02236807235479706, 0.06255876279232778, 0.056496819221516933, 0.10053170545481932, -0.082008797862922, -0.18577343563970833, -0.26802520339878216, -0.23467311513640818, -0.16517711232163, -0.26006017842400375, -0.4350984330232125, -0.44111460630121446, -0.29661725683231116, -0.2922595581398587, -0.23295617655703085, -0.041404793502440036, 0.10591500086315694, -0.006350990122107917, 0.2779851748747536, 0.510887603665609, 0.09263676372439679, -0.07320865583634359, 0.027001321517691346, 0.022977005058527452, 0.07422937577476318, 0.08745379056171679, 0.26989108916150906, 0.24289919394694726, 0.24028179558102764, 0.3295804654291478, 0.15512583295482096, 0.04328821879118359, -0.21332406009492577, -0.05563982224005984, 0.24100032780782546, 0.13656506670688057, 0.35399514233270446, 0.37445256709450314, 0.47292186128041913, 0.6245156066752958, 0.9504140039179964, 0.7378483495414735, 0.22840405545037124, 0.2357748475489869, 0.30421789681380385, 0.16897276881225431, 0.3787218296843405, 0.8037000007304255, 0.384773948187766, -0.05018883441969582, 0.060886603345760605, 0.02212457793549641, 0.02821368731833354, 0.1432682110333944, 0.2053170458353823, 0.45158086744503523, 0.3486253903312001, 0.413431076164238, 0.09312031464379265, 0.08952080439578489, 0.20209596835606147, 0.6205160911204216, 0.6846967029133102, 0.32074946271021476, 0.5273844281389464, 0.1563487771510473, 0.43671354373196736, 0.7304169770502641, 0.7598052598627678, 1.1046561185946284, 0.8289381489198097, 0.5753897194627341, 0.2736144055034489, 0.186050118773143, 0.3055327774181963, 0.3587998076228072, 0.35108006594851854, 0.10697557280155057, 0.0028666067418221227, -0.04886773988356501, 0.008476070633157353, 0.28090308916115303, 0.2760869646392508, 0.3838356352287188, 0.1363497471690258, -0.16493794818819185, -0.12577817965572646, 0.0721382717596997, 0.2131787209045291, 0.07045041753824327, 0.7494912344668766, 0.507671023051, 0.38900369501005533, 0.1419003141450206, 0.10221472647158361, -0.24791510931040284, 0.1273119882718807, 0.43198043239704104, 0.46981214817535444, 0.3264090427343447, 0.2026380567567807, 0.13983960554542674, -0.053752647500923276, 0.07230960435688544, 0.2034250049545617, 0.061044517442515704, -0.013814248295208722, 0.030176422248963275, -0.008154050019496366, 0.1169991843738354, 0.10973241771133484, 0.06917163839041054, -0.25896078895860425, -0.3417593210448378, 0.26458980191620074, 0.4802591856319875, 0.4286567873522548, 0.10982565973734704, 0.521187730967949, 0.5112996051767903, 0.32869614179688056, -0.08919839071571643, -0.336446578960939, -0.735936981824347, -0.4565424253268099, -0.2731488287407046, -0.12436299534168362, -0.15931927996043402, -0.311390291282667, 0.022364632667357665, -0.5439435327413363, -0.1556228811892741, 0.10104963823147978, 0.02137254807696919, 0.023428340927537934, -0.039604641003501466, -0.02639447433270227, 0.08498023589185422, -0.10222801543493523, -0.36584077161660394, -0.07364260506763114, 0.08170176035690326, 0.1259957234989763, 0.059747888421372415, 0.06356623119092689, 0.36203340256764077, 0.5806147455990069, 0.08751432197299971, -0.5504434646811499, -0.5121214775322412, -1.068175376183453, -0.6694805923021907, -0.8622402654628678, -0.8109047702390973, -0.5905507024803689, 0.06744050608591323, 0.08059525363941117, -0.16435320031444609, -0.1626968738641789, 0.1687599921412167, 0.09834053493736487, 0.0700908697559932, -0.031067391173021, -0.05981499841028544, -0.03887987018240737, -0.009799262830113231, -0.03205968764042668, -0.25444591425682367, -0.09503991735612641, 0.06637102919407904, -0.5539495567367896, -0.2037603728407025, 0.2080325112171067, 0.30442772883044894, 0.32018011363031956, -0.10001990584556752, -0.43515941514800915, -0.5672160540807958, -0.57746529417378, -0.47764327310907306, -0.5239967225490573, -0.6741512093808587, -0.5264129583016125, 0.05867299375825192, 0.20073214419748694, 0.4824878190647624, 0.47089881300198233, 0.42973456887284495, 0.07507494384251646, 0.053530768755111154, 0.03208468389387499, -0.05544002371007288, -0.03280220460909335, 0.030985063843826443, 0.0019427897763385398, -0.006062414225366214, 0.21393067727137507, 0.3575197469770112, -0.23634340762372472, -0.5040863215239453, -0.07801914054052281, -0.03759991769305445, 0.14989059412321235, 0.09380710240212396, -0.5581232966398303, -0.46740432048671265, -0.0947630765445711, -0.7737389293368717, -0.26349439423154036, -0.002535525803255417, 0.03356952892758467, 0.016062421242144312, 0.5511149022635498, 0.35846102026984883, 0.4451918442170465, 0.20140731822942565, -0.03860524347914721, 0.010258264234785153, -0.004313184866398718, 0.011061847252141967, 0.04571044036056604, -0.029698141786804397, -0.01495820713471947, -0.015897318340799913, 0.160841245277386, -0.20061838943993912, -0.2702095259998921, -0.2227093667307444, 0.25850647726579506, 0.11153124805068872, -0.26025899738298985, -0.23790379730170583, -0.44656434459922817, -0.31384214608647065, -0.144864593690741, -0.6302248471832702, -0.3308707045046239, -0.025259174160998963, 0.17656345992026684, 0.0807424429639562, 0.5107080923433934, 0.37531641629108226, 0.10421771617421643, -0.11442197586995304, -0.13172951622694737, 0.056642354825985515, 0.020064294134926323, 0.008525584832953145, 0.03942507959212749, 0.026879309197433265, -0.03447861081090629, -0.09275493926193058, 0.2726928679528194, -0.05970024988809004, -0.3202986902976847, -0.17147435594890514, -0.05167671125373675, 0.08796684883637043, -0.18930706095375316, -0.23130786859311955, 0.0382953441277229, 0.09408759519120169, 0.44027921924284247, -0.3539189059582801, -0.2846732730472157, 0.22953315492192536, 0.11389576294864986, 0.269655958981902, 0.2653542812016299, 0.427866139468136, 0.27938287521079563, -0.01850998428116595, -0.047410058659703956, -0.0653775417560526, -0.006421638821535839, 0.05671117373468089, 0.048332403036725244, 0.07013378283412959, -0.027722149453948478, -0.2252506255969485, 0.12158687103992523, -0.0457359670080634, 0.2064442899595023, 0.0918566479823036, -0.36194831819347856, -0.46711082527307574, -0.39248242889805146, -0.30834020780823457, -0.12174618833436761, 0.1780489386319572, 0.3153049905765542, -0.07510709288012374, 0.02229563098911132, 0.13758572910081068, -0.2686282829917019, 0.05874796034310844, 0.05285217689577099, 0.13775314307651115, 0.11721915089603291, -0.09955026019227613, 0.0223644793552002, -0.05822983629506437, -0.02859712129299806, -0.07123882530867355, -0.00998429670168886, 0.05204468167332592, -0.03192316864305724, -0.09022143363627817, -0.08048973237676701, -0.28058279646018514, -0.09082451564634562, -0.1515733926183633, -0.7133175855968199, -1.0375430184956984, -0.645305953519688, -0.17809265181960243, 0.01447450157720406, 0.012201702387106914, 0.0950719153528762, -0.20288354901476788, 0.15328935855497441, -0.28619493648510397, -0.18645210065229587, -0.14313631203875682, -0.3371233137403575, -0.16108081410852645, -0.010970584509093273, -0.07386684542076305, -0.02611959632080212, -0.04625855608848736, -0.014805709981202522, -0.050185888526088, 0.038379068519357525, 0.04351054152986301, -0.0320727926340568, -0.19953093904498173, -0.1645244609369349, -0.15214179317877796, -0.15757611530382112, -0.14274111919256532, -0.16989318512008664, -0.40368761979211454, -0.2499705760736618, -0.16069172817708602, -0.18157371394154434, -0.3113175250365658, -0.4386185303064208, -0.6677937273501555, -0.3546933923345597, -0.5976023985495731, -0.10173439915116148, -0.3455958434193741, -0.37768792424400927, -0.13889068847156688, 0.11411182287530566, -0.047936696255808015, -0.03394980158159909, -0.011270733760716675, 0.014597993152399145, -0.04437283511122629, 0.058791291986913324, -0.010907011820788947, -0.045641964851462186, -0.12800726369201543, 0.10179214527762051, -0.00812964721573436, -0.3502096879572463, -0.14769987816008606, -0.027398108743297712, -0.07370828094660813, 0.04107617844029734, -0.23365696075822542, -0.037738104453846046, -0.25069396965246155, -0.128246771062361, -0.35495899824404975, -0.31788732346830756, 0.032279330466136305, 0.06169433386706417, -0.014553451617611918, -0.3062956477902247, -0.15012876499181535, 0.07589139088299085, 0.042311081880636356, -0.11127991478329419, 0.06389408906846421, -0.020401791407659704, 0.02186336747730107, 0.03809821703195449, -0.021569206192390143, -0.07847066637305661, -0.04611695509092634, 0.12109004223875942, 0.11653176033665995, -0.10262588210474308, -0.03631564233322211, 0.1816219163244357, -0.07866600275491821, -0.44282449674085633, -0.10964654352855718, 0.2833770825448108, 0.17674616157967984, 0.25294990300196907, -0.12587721590123557, 0.3876313734116982, 0.537534059811008, -0.16477793407775468, -0.17613646729389282, -0.16865981079461612, -0.03200646320527206, 0.05635240485812151, -0.016256103329601486, 0.004279940099227632, -0.00916342246449221, 0.039879433467822425, 0.001449161460542884, -0.057499839722814534, -0.004576648806545629, 0.006491196298905331, -0.0067539247541291555, 0.1701791588574865, 0.17981343343298814, -0.008522938264773803, 0.03427212832140814, 0.19969015465236178, 0.08059927320723846, -0.12375858788822691, -0.041649635721540415, -0.0004292758374687954, 0.1875484128234582, 0.11450447280906235, 0.30966418508122145, 0.3483254261289594, 0.05339259761430567, -0.21173066677820376, -0.18155062568852648, -0.16843965067685135, -0.1531739390309661, 0.009938279789778695, -0.03100002095392294, -0.04463852839426621, -0.010701405290709025, -0.026295732825235486, 0.007716002737524119, -0.04117471263107345, -0.06385012417915571, 0.05954508964877649, 0.0313250205104415, -2.1320543671123255e-06, -0.06268831298126858, 0.014595943600219185, 0.12242243982303999, 0.15045358721002364, 0.13889340161910022, 0.18053012710436933, 0.1155163183254, 0.09055857421065176, -0.1918757678806286, -0.13879440790520645, 0.19540330576824197, 0.49256315245641724, 0.03591210177149023, -0.08543570684563553, -0.03566423521653332, -0.11258910955477361, -0.0072416216789876215, 0.11644285743480275, 0.056336316025076834, 0.0348710931698647, 0.014576957273411071, -0.04607751286036042, -0.011672824621910117, -0.019041386625563792, -0.05613209231483237, -0.00033510021744595617, 0.05517149414673995, -0.09033661306022345, -0.20461123748215748, -0.17964610829894148, 0.11654848787332699, 0.15376705176030803, 0.15220978743786845, 0.13618420018526178, 0.008533609059015236, 0.16358050637808302, 0.14333482591725064, 0.08309598104198024, 0.6024156887334894, 0.5094486754882509, 0.06658013994536152, 0.06523040912564748, 0.08469820763663727, 0.05290043151726809, 0.039557897812772344, 0.12049812151732318, 0.028371848735042546, 0.006701997534279831, -0.030694937152209015, -0.018644404713423535, 0.007345610583030574, 0.0412226789769674, -0.006564118904907909, 0.00936156633103416, -0.04595082823249025, -0.15032873101542168, -0.15871926183504032, -0.07750539691260443, 0.10574183615357222, 0.21714452267138473, -0.05595638847976881, -0.1350136340328254, 0.1201183557871336, 0.1384733418199754, -0.15428753725761832, 0.008962700599741583, 0.14014242849206404, 0.04276345383642181, -0.0910468057209578, 0.0694164095567082, 0.014265930609010978, -0.03665721617988694, -0.02431401413709111, 0.005272337592040206, 0.01959948116435801, 0.05383150304561761, 0.025096888646136378, -0.02521609930739925, -0.07129295714020188, -0.033016442280323625, 0.0018078933969655781, 0.00011160423124274346, 0.08286756870258571, 0.009496164265603286, -0.00230880273091483, 0.04742159731073334, 0.0426062152430315, 0.01238672602579678, -0.048524830091458915, -0.011730903949060883, -0.013491550772136169, -0.05918363795225874, 0.005401659523322056, -0.025288926161026553, 0.056067596807335245, 0.06397382951355239, -0.03846393883171775, -0.02608481122985061, 0.06314212063402878, -0.05749470596230138, -0.05480759752552455, 0.046314470530388334, -0.022272752699721465, 0.005683067593823205, 0.04546880975367084, 0.01191928781182657], [-0.024423354307670564, 0.018991653772454584, -0.03608126284917638, 0.061981170287942214, -0.01815326404433345, 0.0006530779667159597, -0.009091580676690428, 0.03170432848884289, -0.0015758051536944248, 0.05851170470498277, -0.006608559211657774, 0.008171784089274688, -0.022607024216217464, -0.01939608557852184, -0.005448549856868139, -0.044890239169622384, 0.04692302990457526, -0.02520173550998419, -0.005930122182347373, 0.024236182558484115, -0.0012772053739841251, 0.0005779021543538157, 0.0553882404007246, -0.004613969094659464, -0.024579091565377333, -0.016785794970724837, -0.04725452816818477, -0.01659682976299031, 0.0008915964373744649, 0.03827508097320559, 0.03125971203032391, 0.0191411088946272, -0.04569762239408752, 0.010575814937590694, -0.005340858421085154, 0.002730585742264667, 0.03686886764263785, -0.029323312213325962, 0.024691178663940418, -0.016290881317209294, 0.0095783426300687, 0.03651050745645809, 0.030179962368387554, 0.06558353186245587, -0.005190903040663549, -0.04683853284209286, -0.03656990009156271, -0.02610500070226999, 0.033909196823698896, -0.06717520274374898, 0.036746239819321014, 0.0001011805744106824, -0.043795415764854156, 0.05032208704600926, -0.01302989883811681, 0.0006760862449557299, 0.05177546935201039, -0.04092415101207769, 0.019952772539234415, 0.04792253582702954, -0.01622579432524435, -0.03862607041025865, -0.030788896283150638, 0.030950061670564754, 0.007944284652606975, -0.05907540207488075, -0.08281644095500301, -0.016507914050598576, -0.06331177068321606, -0.09341608425467764, -0.030325213519355857, 0.13337506121227213, 0.1271882011392736, -0.00969596569320763, 0.15944887951000045, 0.04618995797251605, 0.0044800179999562985, 0.05919248032653095, 0.03267956914091743, 0.05487324715511715, 0.011649356862912462, 0.03561402910003561, -0.0016356104199417327, 0.08133305641642373, 0.04781352640482613, -0.0060396677826220725, -0.005456367503180925, 0.04428508389972349, -0.030086020238614328, -0.051213519375440254, -0.0573925163956703, -0.004091498886807681, -0.011011329771642752, -0.1345953039251722, -0.14677740457012237, -0.3380149441285258, -0.32450976329290593, -0.3409532479576152, -0.3653719295931085, -0.13681604781031248, -0.18658995853481214, -0.025998870353534244, -0.0752277152801866, -0.07686169887218364, 0.028088594575840703, -0.00897306398706708, 0.04570719892280652, -0.05353470040016392, -0.05281646152274794, -0.01764963413521471, 0.044746495310139814, 0.02164902966545385, 0.013982236326695718, 0.0005651091100940485, 0.006263523783321964, 0.014583596733893173, 0.0233816985258076, -0.023310820021967337, -0.04322403339988647, -0.04374959046212896, -0.12504862227305094, -0.28325721206268106, -0.36394558561647034, -0.5083162254898971, -0.602319427590679, -0.3861784620932856, -0.24055933931405168, -0.014871914564575973, 0.08885623566571506, 0.06179335923988079, -0.23743073705730416, -0.25130890837422126, -0.2756420408393772, -0.1039046800324857, 0.0021844226406438276, 0.07844473518590343, 0.04040109755830859, 0.0096182799552415, 0.03322131722108561, 0.03338384564714874, 0.010971492860879862, 0.0015734075266945924, 0.03271098774326623, -0.026502836983577836, 0.03733134301385038, -0.007029035272574105, 0.012972425551593348, -0.11361918564888852, -0.3281428694523307, -0.43278505975014425, -0.7590417001664106, -0.6871215644653857, -0.5040591624819727, -0.5399532071424129, -0.30948432079778204, -0.14277960185274086, -0.22573861240966872, 0.042863059359397354, -0.09378175454149991, -0.10957632790618052, -0.035741551702157204, -0.23574214774835023, 0.2712039979389682, 0.272831239270011, 0.1540888274283372, 0.05107633663622736, -0.0030274870924344925, 0.011229627657286675, 0.008187269565520612, -0.0007991458234771252, -0.0016727489895027594, -0.005765531943504899, 0.007548423127274356, -0.045885630569447035, -0.11618663991180775, -0.24894427163790214, -0.40571935498317396, -0.4903333337683563, -0.6531761542804807, -0.46296956510738535, -0.3257148354544117, -0.3618649813312792, 0.11559272408424323, 0.023364874999614076, -0.3281188053369384, -0.20975898483481972, 0.1250238437729881, 0.1388715401206792, 0.0965506122629115, -0.2334583231224063, 0.06866505107131049, 0.24520462520194986, 0.22307373420810386, 0.1362893965789527, 0.07267626185788059, 0.005754730981276519, 0.02204394909826225, -0.07078590084884145, 0.00020837567451462412, 0.016536701394223766, -0.027684910299732125, -0.061584619379666215, -0.1685678681148568, -0.32187513555285935, -0.41878081628197594, -0.22971449988838838, -0.3646734500103524, -0.23170960444914193, 0.12054465259556696, 0.07115054853791208, 0.14539538785993908, -0.19377836957006686, -0.39628287190549366, -0.11822288757084251, -0.07406082550056567, -0.14447774422926185, -0.10291923612885874, 0.0877126540963273, 0.2849575907193417, 0.2431275319474331, 0.17712989005247382, 0.09952203363680248, 0.04983258431330587, -0.04789462806860023, 0.05738966120476029, -0.029573445407813363, 0.004852778460997296, -0.015791960459190638, -0.014004600787038184, -0.015615399796058171, -0.10688320596373578, -0.3196276253982099, -0.23940645304515115, -0.25542631838137114, -0.38156602628245095, -0.6359693718896918, -0.32753842598823313, 0.382409673651204, 0.3618593727225345, -0.31133964143461024, -0.33559230619157704, -0.27987303715134904, -0.012133575266060636, -0.11510926486281234, -0.3554075906280066, 0.13310378614862373, 0.3424519520382253, 0.4866395664025112, 0.4869442272278443, 0.31148543290825886, 0.028390567822683396, 0.04096730378058246, 0.06760049766690814, -0.015468923371526243, -0.07055399354754584, 0.015976366180905546, -0.029498951710388983, -0.0945952849755111, -0.11668781168151836, -0.18579404439325353, -0.3129982337893828, -0.34041414660189184, -0.5103395637306827, -0.8639150103927015, -0.4175550313449336, 0.8429202629439612, 0.768911784585777, 0.13102763121495775, -0.0016276343385526603, -0.04954450218364081, 0.20751615361166922, 0.13552679681952245, -0.2565121946702255, 0.20585021830663236, 0.34176179588256117, 0.22900575303358311, 0.4442990344796285, 0.25081981479410587, 0.127396618730249, -0.004245665135022925, -0.017613984463883958, 0.03985632609429503, 0.009212776638242468, -0.0072233108106490845, -0.04877825220689295, -0.025958254835483315, -0.17065932461475852, -0.14047965868803675, -0.2935044439060572, -0.40915290001775767, -0.6008861926963873, -0.6932143623231485, -0.0907434749118534, 0.9181007972732266, 0.6800344511934666, 0.13466729895966953, -0.02460703945867454, -0.22374343425958876, -0.06710473385881482, -0.037681989140538115, -0.255544002916653, 0.22752372875656646, 0.4098988827142395, 0.41628454049808333, 0.46486990067221257, 0.38567534384687296, 0.07590795861343891, 0.027751488971937504, 0.07254965424872438, 0.011777281095536262, -0.04223262185106726, 0.006235722921046229, -0.037466977916024095, -0.025104635905293358, -0.1631411717977827, -0.2948526477347055, -0.45930013790036806, -0.38877322939726644, -0.508634402862901, -0.37256514796462825, -0.02940581761049371, 0.8171638773562551, 0.2643770907586661, 0.015147919024184378, -0.12064173886166411, -0.45585455335059505, -0.31450488714495256, -0.4350828031264159, -0.22833414969897686, 0.31262280375215995, 0.3355498251629465, 0.5105244321262151, 0.47336037419337623, 0.21496281990022229, 0.006048780481653978, 0.019241359776415088, 0.06570536343982804, 0.06096230206386362, -0.0346735481902145, -0.076165572088141, 0.01191848261028579, -0.10090884373407417, -0.18895891505549553, -0.254202237260695, -0.3672169276616248, -0.2683534224793938, -0.22181276461464405, 0.21752520026222746, 0.24548968483417025, 0.6375594643803063, 0.5704368914402912, 0.21151172529554232, -0.01667074138783448, -0.01571811361999737, -0.18902450294266987, -0.4641671941969696, -0.29500194625979614, -0.13674923536061395, -0.09178746440157123, -0.05306222496181297, -0.047510019092101285, -0.011675234372436038, -0.021783501399527044, -0.009550877823827563, 0.0028346182313819064, 0.022204955681888842, 0.00668429184731981, 0.05419338023599475, -0.04438062838653469, -0.15075419724463918, -0.18590165916936754, -0.18797876496694757, -0.16579574873866926, 0.1436916352376259, 0.035432783860736436, 0.06383053802115653, 0.30133833428262213, 0.02941448237015446, 0.2772785582860688, 0.08294907469180873, 0.11312345529690192, 0.08181786515591984, -0.5188393557249271, -0.5044430609706761, -0.5489756184550685, -0.5392892045923552, -0.31698769434323343, -0.23335798061949353, -0.19701880337350766, -0.06626596383826233, -0.005927377947166053, -0.043806893189149924, -0.017812673864755615, 0.011199686052133251, 0.062487792095749436, 0.040932716868416694, 0.007993975541798683, -0.0824871497459489, -0.2616054595459074, -0.28767417014090446, -0.13893033145757352, -0.01522924538996769, -0.11483555527744699, -0.3603300595369277, -0.267119843899412, -0.16294098209951352, 0.44663242459999686, 0.2828799059800361, 0.09454062159627839, -0.49865727386354886, -0.24712453563438103, -0.37752987571585966, -0.5394639848459187, -0.4147781606855325, -0.2927194218837835, -0.2745564093576107, -0.2399391393385368, -0.06691096540219249, 0.007813440179080816, -0.009857748963522681, 0.002139860707204373, -0.046467325441805075, 0.04589029028813463, -0.012806544379168342, 0.020951946455333638, 0.08608664666262483, -0.10885884154151147, -0.14225783752483695, -0.17429766183234588, -0.13608912121773029, -0.29356083172086134, -0.38283519962675483, -0.24416419815273627, 0.10760232647060453, 0.862882837825094, 0.23029649453792136, -0.45355272488450155, -0.39088276127031846, 0.03716920180824772, -0.3866467333864117, -0.4858034976156483, -0.4300383218780292, -0.22882052877695847, -0.2458695804909872, -0.16694362873088184, -0.014632447878680215, -0.11671066264366155, 0.014460800975055733, 0.0245472563584678, 0.0009728507407066964, -0.009389200234121545, -0.03969499317803399, 0.03524043830468456, 0.2234592053818966, -0.02753147415346717, -0.29038500974978676, -0.2838800769537752, -0.3230581351838345, -0.331036247598387, -0.27801917367667456, -0.08222505084856221, 0.5220082897652147, 0.5514894213171829, -0.13830993823558707, -0.5664717506505731, -0.6115079699303526, -0.2088694349987391, -0.4631680461336354, -0.49161688308668333, -0.2675747769517015, -0.16094204103327178, -0.14265679475875676, -0.016129743536592616, -0.038123195548213466, 0.03345740321874741, 0.014973577013467665, 0.042084854029123125, -0.06395023063241771, -0.027988423374932018, -0.019768525527560424, 0.053445137525342884, 0.10198689188681219, 0.026649374740792382, -0.01116883197230915, 0.016859556787735513, 0.01625319436368019, 0.09346308445381259, 0.07885146933616038, -0.06568974220613914, 0.016416684134431116, 0.2700121965230302, -0.19239280938858144, -0.48010172552871755, -0.5326341517124782, -0.1415852255889813, -0.3098783052004772, -0.27694802452269174, -0.22430699069298227, -0.18369215729840999, -0.023486686029550525, -0.037616502087411845, 0.03740962770329543, -0.009242274081685141, -0.007388945832240868, 0.042207611740999386, 0.04980479283224906, -0.02468642735305695, -0.049869719376036514, 0.03402899414336935, -0.1007119652342019, -0.06555039571679522, 0.17263548821931624, 0.2069688472693765, 0.1262129035343682, 0.0721212947450832, 0.05192914292924612, -0.2862711692196547, -0.1449530350149234, 0.16190510796608631, -0.10772858602040067, -0.36583002515765345, -0.11598093155664013, -0.08706003961110204, -0.1603720919313942, -0.37568134039322715, -0.30909818834300523, -0.3732052761697655, -0.22620926891541357, -0.08048857371379216, 0.09085356421000926, 0.03718352982057873, -0.030966412050884812, -0.028475421456532417, -0.0022675230325093945, 0.05231764851542243, -0.14769757007674705, -0.31069291570060337, -0.3076954631919191, -0.09509436609911401, 0.035672103518953543, 0.027573756240350022, 0.14109407214322356, -0.050552215739389325, -0.029487592085700485, -0.3878321622779984, -0.06615780458314464, -0.04546487056433436, -0.241885961384313, 0.08485877849551708, -0.43661509670186455, -0.29866708892018773, -0.09204465793540106, -0.3005028438394811, -0.3434586242726487, -0.246134532189249, -0.18630488257644365, 0.004868398183444683, 0.049032311111026655, 0.04380036742647538, 0.009782438815579652, -0.007821049996057502, 0.058659422549693536, -0.020211885262064237, -0.1618265502179031, -0.4395254279037668, -0.18904571770763878, 0.16986242767979032, 0.24147054098393658, 0.04225819751099264, 0.006163297439788569, 0.2614401506356276, 0.5112101621231427, -0.005349684065756849, -0.0446893035599158, 0.2905312761211128, 0.16608823565067182, -0.0862761696419368, -0.15002016828615986, -0.09093005189300202, 0.042465794981102124, -0.1782647022992411, -0.24888188788410462, -0.2326691196848864, -0.11374269978394912, -0.013378377735985922, -0.017168643696962686, 0.004840100808949012, 0.0032049004719042306, -0.022020294442782643, 0.044286732633172746, -0.03674983413308603, -0.11557031671331087, -0.4111216938097998, -0.34799731678090867, 0.015274170522580451, 0.1879505969541246, 0.04684563465314099, 0.035915256622847565, 0.27822793895750936, 0.17748454649516343, -0.06289826819329211, 0.19083608386232545, 0.5160324298251039, 0.039367147363190406, -0.14991469221120848, -0.10390606122231634, -0.05866146195760472, -0.0749360249177824, 0.056259864381108, -0.14390007133528773, -0.21831555374769637, -0.05038874446702766, 0.10307163216249479, -0.05432721123415729, 0.02928137702750386, 0.07527448848618298, 0.01339313134032139, -0.009912137013070222, -0.06930655820044339, -0.01637635762180511, -0.10479264333117447, -0.11154912093554101, -0.05898436294715393, 0.12601470377799975, 0.019894210919427294, 0.03505556064077088, 0.06270420919746583, 0.1493184473224864, 0.20570007362536472, 0.41365184807358285, 0.08081825807629028, -0.37278719524959825, -0.29380139080928436, -0.12001499618815635, -0.03979671160441207, -0.07371053102647226, -0.002056887508487435, -0.08839081187341295, -0.00355315354406051, -0.03002227447803079, 0.022128340291852504, 0.025916531728707084, 0.0002576721051146043, 0.020096104033103204, -0.0009874251541898168, -0.03964744358525825, 0.029629666900433102, -0.09548627231238979, -0.009776449969770146, 0.0524941098437203, -0.10784196947236852, 0.11185396930526145, 0.23238631174530675, 0.34388947080564614, 0.3119298609280897, 0.03850681432402486, 0.5268625781724721, 0.07240091750932572, -0.2088703321155387, -0.3955352995992845, -0.38191150910803934, -0.1539132779768549, -0.13223723144779886, -0.17957079305292434, -0.07851228133643241, -0.144661897262929, -0.08596628703192888, -0.019809137364913576, 0.052516400867405624, 0.007486496728253955, 0.03415705696077926, 0.0055213502282996305, 0.004118601650356806, -0.021223610295649318, -0.02095856646437304, -0.02325821538562081, -0.024710339144884456, -0.027437687506357375, -0.18557339953646293, -0.1820243827369397, -0.03451561939045763, 0.12599591725150294, -0.0268180499101054, -0.10265248654896744, 0.11579682556560832, -0.13665410074522807, -0.2516696968074731, -0.16011334993286583, -0.2957107525530214, -0.11430565462498263, -0.14519312429151035, -0.13496629870159277, -0.14390995264752696, -0.09786090605753037, -0.03785596252052686, 0.032367533374107624, 0.014911834694428671, -0.04800429606814173, 0.03211047804028518, 0.02192090123110181, -0.031060662439058733, 0.013867393005724678, 0.02527304717099125, 0.05443931669323394, -0.021665003976295394, -0.13240845099499743, -0.2635598307592865, -0.1407956954460154, -0.09425210490263397, -0.06345616048668289, -0.09560655823030571, -0.007391064069534264, 0.09121504860880876, 0.12345247615845842, -0.0614993389423118, -0.14449157474905144, -0.05486189498499134, -0.10926557838581542, 0.0029069724147531596, -0.055367734243654064, -0.06256744331022339, -0.07286988399590259, 0.019098925080587414, 0.03349827490527098, -0.016257272489443534, -0.09744152763351278, 0.0233291323226715, 0.015203659810426774, -0.013563164994294385, 0.04211280134550415, 0.04774051569724059, 0.014387778232669714, -0.010503499042022378, 0.008273366071937644, 0.08995464821017586, 0.05580557475269747, -0.031382634147514604, -0.06705097959971965, -0.05466850731437104, 0.00436735674532044, 0.17142958087754015, 0.07038327507026525, -0.03644117796790868, 0.0006587943891530592, 0.08599037311056547, 0.09759037634051894, 0.009068381794087615, 0.009139284494612668, -0.037457508761098636, 0.00873559960905064, -2.744957213108685e-05, 0.016600000572989472, -0.044193795877086696, -0.00771946202545882, 0.00012669210597690355, -0.021552999143035895, 0.02688848125806995, -0.022669920032086965, 0.032108134139171414, 0.0292482556410401, 0.0005115100039390226, 0.020330832733693908, -0.015791492561994698, -0.017923731325989723, -0.0028851184859206435, 0.043923698520088025, -0.015181974738411206, -0.046827621033686456, 0.06899805608663825, 0.039507843685885426, 0.02245607081467112, 0.00909457705612589, -0.06770996707645935, -0.0003351541853202437, 0.04893578826477034, -0.019600224919273306, -0.054615627870523285, -0.027909675676456788, -0.04345199789464468, -0.025849937121848434, -0.024450457998430052, -0.038451267481492274, -0.016340089106775597, 0.013599486803044368], [-0.0038909817530408076, -0.058061475582516994, 0.023742661804133834, -0.0066524848433123455, -0.017889860738834314, -0.004725680461809011, -0.07383224846453668, 0.03134968294212454, -0.009017252780715064, 0.023425657985971658, 0.056230211530984155, 0.026457001173081637, -0.0009146234513518842, 0.02940945663833514, -0.004708252788126152, -0.00524652253264756, 0.021747235580938867, -0.024003399268266987, 0.00492955143018092, 0.0681806181404296, -0.004161048398325847, -0.03351757588806871, 0.003383865863779186, -0.013880060621993517, 0.018897628411899448, -0.011626136389587538, -0.007826749991338458, -0.019361815683247883, 0.03072033844370909, -0.0029231869106683245, 0.007444067726271179, 0.020206476271293915, -0.03280284983775448, -0.04975018059193416, 0.027903732749368512, -0.018811294402869397, 0.04824050665811982, 0.028146155076071842, -0.026348642278922585, -0.05508360631893738, -0.03111757018681042, 0.04075245759080334, 0.04041095916910836, 0.0069795011247823216, -0.02135666947769986, -0.032748568953617815, 0.035164425180469264, -0.04005240366025648, -0.009931397961420714, -0.06134144308532205, -0.026624069768728834, 0.009610330873641217, -0.0075012428774728895, -0.007665549500915522, 0.06549762699222651, 0.03536484210416676, -0.002974270087665943, 0.005205735220429412, -0.035096122869909624, 0.001175989523983888, 0.009112069368333198, -0.03646500656852093, 0.0021135040607226895, -0.029413502846588918, 0.09352122331677366, 0.07592245620493364, 0.04350165687714816, 0.01752208618716333, -0.05848625732333529, -0.041913518158777516, -0.07487495598395617, -0.1530560364934987, -0.11984764763231384, -0.10935614119531306, -0.02465460417579091, -0.01968134039302574, 0.048720876404879966, -0.024367946184196545, 0.04381865786241684, 0.0659512609561096, 0.02017595186725813, -0.023944482038576336, -0.026382117825917095, -0.022020301145616775, -0.000787277748586813, -0.01579543924422059, 0.016359214767536025, -0.043601378263822696, 0.002115056319323631, 0.05671576111541355, 0.002440456044548984, 0.03271041631362369, 0.22773341497185387, 0.27450277272119195, 0.2845452567878858, 0.30087922373377785, 0.27369470370354027, 0.30852051750137743, -0.0021441032705162167, -0.1610593026385121, -0.23702134105308445, -0.25690681760830947, -0.2836140180513981, -0.18989387600246033, -0.16477016369150557, -0.06104484226040366, -0.08297634402333136, -0.03012978528752641, 0.071617916520225, 0.05418393255838972, 0.038387620661693204, -0.023908909818419498, -0.014177044176871585, -0.06477954431464635, -0.0008446754258106498, -0.022386328219309918, -0.039187054663261216, 0.03208613869511838, 0.12167573699713187, 0.22169495215830767, 0.2782195800626137, 0.2459964793191211, 0.2311865031212806, 0.49238146943261546, 0.3851184814880247, -0.1258881293210947, -0.4299628106325573, -0.4029415947546959, -0.7814144165652194, -0.5614768514529349, -0.2565812790013788, -0.3205309142929878, -0.28615136013190434, -0.1166416931322203, 0.05080341461637765, 0.06256016856051849, 0.06947847287170063, 0.062110000875056685, -0.016563994239906597, 0.001556460289664073, -0.031548549044812524, 0.058323467421157, -0.04226358865674222, -0.03338884199362504, 0.05774271065406841, 0.10464283347192521, 0.25434035049650594, 0.26258210624001765, 0.17078867499672598, 0.3275898476845152, 0.402514859410435, 0.9167022545128534, 0.5103050219502865, 0.2693874037614724, -0.06402721146138728, -0.21015828117937196, -0.5485469354762798, -0.10806934920887949, 0.21297349959379022, 0.15329791531446021, 0.19178389034732637, -0.01220441045344636, -0.049670495288900655, -0.06465114235978384, 0.032380417167394135, 0.1302113236990507, -0.010736143206105253, 0.003752582205798992, 0.03360081609600108, 0.05561641144099056, 0.014444174884963589, 0.0884009828142303, 0.04951367125722979, 0.05685582640980891, 0.31204164110375293, 0.5462044999988629, 0.5946920803282167, 0.7787566817811437, 0.9489968907034063, 0.8822730361089205, 0.6875418412694285, 0.9203212611423828, 1.1847827737513557, 1.2837349563702074, 1.190550662645044, 1.31822201992637, 0.8047813846342114, 0.28416008230321405, 0.3224858208462702, 0.007847200447405877, -0.338394601149728, -0.08870893971520055, -0.05598482710364448, 0.04493575128706304, 0.03217275757044031, -0.01001324605099671, -0.03012503819737665, -0.06279979327005657, -0.02571176408026519, 0.09780705449112727, 0.033578351391807225, -0.07071568208301207, 0.2555296321115581, 0.400229646101254, 0.8404339435337324, 0.782020210295901, 1.029020358631418, 0.7154075342945206, 1.0228757081162956, 1.3743331600115527, 1.4370399597917294, 1.401188860780924, 1.09091478181755, 0.7612475448616532, 0.9069320603900037, 0.2509658107702976, 0.020016453296742107, -0.23526540990384565, -0.4387175204645607, -0.6478824244386592, -0.3400810601547179, -0.03212310920663294, 0.04978084742500976, -0.059904658171263045, -0.012335320270333716, -0.017501008719575713, 0.01597793549440516, 0.1462999737454468, 0.012050889876923121, -0.11493505243516153, 0.12577205420986382, 0.10478623847765732, 0.6995668754400167, 0.43604365403597445, 0.5334060126061831, 0.7753199500887219, 1.1329018255274572, 1.0490182549749445, 1.1645539814502288, 0.7672327254207825, 0.20714625810033394, 0.0726994948982277, 0.4067494052857517, -0.048702944582990834, -0.12807564253586395, -0.31437219541711686, -0.4918288629256174, -0.7247094398863274, -0.4312976924916085, 0.011047099829329174, 0.03147085221570019, 0.008490101480642874, 0.022747581709435808, 0.029854772380552702, -0.04351043060275737, 0.11680780670117585, -0.012168828071023308, -0.17061081506278788, 0.17737371232093171, 0.28270991129073175, 0.23541528898093075, 0.31933559351638846, 0.23397487204888534, 0.1494167815344206, -0.047413066720559616, 0.011926429391718705, 0.21469470891243125, 0.03160190990085748, -0.49244068154735693, -0.023411365817579667, 0.05815659775777715, -0.08990011447897987, 0.07848234400980902, -0.47093858111216086, -0.7361174228287928, -0.6034856835187578, -0.15400062077016205, -0.0189222235164926, 0.07713813792293814, 0.002032368068201509, -0.003987520774577199, 0.034051145846833164, -0.017185173244037732, 0.012893200616762154, -0.05629513003334467, -0.146783775136876, 0.21440212598149777, 0.08016984794144763, -0.25096904768319894, -0.25179376204146003, -0.4520362042663236, -0.6769967095819215, -1.05625578037823, -0.8374163399784355, -0.6911946572637768, -0.8600925251101366, -0.3169489346264861, -0.264003678587158, 0.12959930567858857, 0.21858713179084824, -0.145861808841519, -0.31033060478146995, -0.5258799610412905, -0.2812567053428719, -0.10581906460989539, 0.008880062616132512, -0.05059814923156861, -0.0025513704262299175, 0.01755454692255743, 0.030607549793468216, -0.047176252358580105, -0.012038404320003384, 0.02905934935964125, -0.37985551190732114, 0.10236457977720684, -0.3196527221342944, -0.5055902663824666, -0.627362764668247, -0.7092170820497986, -0.6086985635593756, -0.8685277534989222, -0.5513086864846242, -0.48628328052947045, -0.3867638487327572, -0.4594975212869612, 0.2666186982339217, 0.20215663498278938, 0.07364173794892269, -0.05810763432897087, -0.34515959429066034, -0.43666674304628994, -0.2008202475898383, 0.04722575111798685, 0.030247195544829842, 0.0262987682114794, -0.00038349906048145874, 0.008049677671278625, 0.03999316129993843, 0.046898194815075345, -0.013113722369696847, 0.059171271694745904, -0.2929183225489144, -0.28116278092966746, -0.5585095427159958, -0.2745822101070082, -0.6429652141132065, -0.7291266613392353, -0.6546664230368501, -0.6135892327116502, -0.24171422028673498, 0.054535837398195196, 0.023234953576001312, -0.5182850091253387, 0.026993462288939132, 0.09095540653490371, -0.04078681215728509, -0.15451617320196268, -0.22903561136596487, -0.3056024393925574, 0.0058025030651648705, -0.00161951789691563, 0.029544591663811886, -0.004756458308405227, -0.08246212991085687, 0.04950334667564335, -0.009870505812091129, 0.021310693328598734, 0.0729835034992658, -0.15673120939359797, -0.4889450188605072, -0.49318745863977326, 0.1383779634296734, -0.21432616563018012, -0.0661365167257698, 0.2805815944940488, -0.1377836661046283, -0.2697292005890512, 0.39807260072237444, 0.023942297275246844, -0.461054285358597, -0.45917357847785994, -0.1382717171041189, -0.11392329870967036, -0.170134102619054, -0.09020097986467575, -0.29849252328408754, -0.2966004239799652, -0.26274880931663597, -0.1440534025081844, -0.03791716929266911, 0.030674218520576977, 0.05105159506012998, -0.00013366885463626224, -0.056095570134593875, 0.04231285138044378, 0.07829116014714457, -0.13583005061133432, -0.6231955088777827, -0.1795830751211479, 0.08425530541983993, -0.2959866486975925, -0.42258523111275614, 0.027525776270375713, -0.524960366758717, -0.5821533798035845, 0.14046145150388803, -0.18727431131164396, -0.07065016368066075, -0.028050341138755354, -0.19565160313592725, 0.07575347565589363, -0.22620861945154777, 0.017669993789958892, 0.052002096837460925, -0.06955835491826365, -0.13600165069957504, -0.1283505466930458, 0.04244705620096544, -0.028157626692095938, -0.047635010166300194, 0.0160843470421597, 0.00626253236404112, -0.011106207522473873, 0.03646967741873004, -0.05354297418839609, -0.5178154146094045, -0.30496315305405064, -0.15553663568209514, 0.10991258696575278, -0.19915893390794723, 0.09081223850314878, -0.1804565869984979, -0.497226368724557, -0.2718721897167401, -0.13505483958246783, 0.2581461148705115, 0.14811410193613875, 0.050469653131721276, 0.0229830620897989, -0.2194530823831843, -0.15347931326246328, -0.03554281830884375, -0.015012282069787383, -0.08685459821883637, -0.039127731040272944, -0.0321962848005235, -0.017461383976268726, -0.051001579840293534, 0.07529712919003677, 0.037966436146950354, 0.06985950056686568, 0.11006113218284876, 0.031728082093489304, -0.4435193382457534, -0.27992564971411826, -0.3736085150892184, -0.3459253629573285, -0.2903531976389817, 0.1318891828762195, -0.14732631867144644, -0.40601317427066497, -0.38871356423793146, -0.365808337905699, -0.2916594235429891, -0.33461268076186906, -0.33238907381585076, -0.4111243148671586, -0.5466835018404526, -0.2475782982692228, -0.22073836559745152, -0.18298943725705527, -0.18374474959074674, -0.10001529897052819, -0.24595916886054153, -0.10360376440295432, -0.048857712136083836, -0.01988603031525994, 0.008334827033199044, 0.04164079232744093, -0.01577572167931289, -0.0700128269324368, -0.24795682492519142, -0.24936436376492588, -0.22236367937294915, 0.07403050812203626, -0.38615844074847916, -0.20292462805165346, -0.20104270168383112, -0.1351923543617355, -0.49662025852845043, -0.06177395626716521, -0.045786613513885834, -0.5715027822026336, -0.29298434055162675, -0.6143978379946677, -0.6894656331821771, -0.2665326399625795, -0.20802823001471524, -0.07633131040439568, -0.11975241502759056, -0.250105404862687, -0.05890998822430433, -0.046746301707776376, -0.03649279917757982, 0.01871222038011237, -0.0765970417439768, 0.03264352695099981, 0.03718981336904845, -0.12605011575290287, -0.2164612395812245, -0.12617887255259164, -0.31463750934691137, -0.03839467074970036, -0.14212656734451756, -0.28553279705332474, -0.45180455175959183, -0.6310928835467166, -0.6998571552684547, 0.0022266324475832934, -0.40304661270426684, -0.2923040072709186, -0.15236099376758114, -0.4106380713437737, -0.22684790556620751, 0.050277315333933606, 0.31186187428419027, 0.5502439667851252, 0.13645763702106892, -0.04836226285738514, 0.11489299395687666, -0.040391157756265866, -0.029579262574133777, -0.08351312051653476, -0.00023167006792640155, 0.03549798882217, 0.06927510470000416, -0.004287927247788519, -0.1380189625086678, -0.17298907118553644, -0.30595661524801626, 0.024512474969281453, -0.18294854063668306, -0.06908374134192531, -0.5462933104556666, -0.30397748015926557, -0.2577180669294158, -0.22376259979741098, -0.45478206356732903, 0.011519623306570078, -0.21696370703691562, -0.11627790051976013, 0.14813720059340205, 0.22332321850544395, 0.3051583451471033, 0.40910023029554277, 0.18223549245859452, 0.09092929232415783, 0.1206670916123088, -0.001231839902934043, -0.04055421766129412, -0.01412540319158259, -0.017958611051070304, -0.011982752607607366, -0.016664687228410625, 0.06038836614981487, 0.10274930395277738, -0.09185815246982604, -0.37621785270648245, -0.026274062054963358, 0.0010500347396930224, 0.08111723378958001, -0.2896496944056518, -0.2083589336374186, -0.21958399216336894, 0.009295997530613076, 0.09466710342819128, 0.32624885667862985, -0.004097742318376478, -0.3206835140449337, 0.024623421349536313, 0.3683485006941736, 0.3312233974844145, 0.22441175290376025, -0.016473900781336218, 0.008503676613396348, 0.05165572417412962, 0.014110586464268646, 0.08247685229863758, 0.0017895204683375304, -0.005311317507217386, 0.10707140311562063, 0.04403430139626251, 0.12405302658105005, 0.11304527672697796, 0.03387267016699223, -0.024992057257636157, 0.014606438046004817, 0.26388062051557976, 0.2965126632455189, 0.32299599588735656, 0.4466492864249632, -0.013082835985036768, -0.02084235542687603, 0.1431441815480408, 0.4818524797723207, -0.01571254454637691, -0.39862399066054766, -0.08199599021433972, 0.36993318112022217, 0.14538608239970385, -0.17884227218081236, -0.02704092575110896, 0.04546559043165586, 0.049031389091359935, 0.03132821151990741, 0.012978580031574977, -0.03873833209343201, 0.03076868941509673, -0.016588052341256942, 0.05585193063203881, 0.04471671655804352, 0.19130161062041628, 0.27206168991315516, 0.4011266470055479, 0.2201477191305713, 0.28308803583697645, 0.25633820115580996, 0.22106921367989976, 0.41202667540651033, 0.14894025008748346, 0.1431859081205912, -0.011203803519937992, 0.27251450828712553, 0.1689291282538186, -0.09985487235018242, -0.22662187571320727, 0.16880984761740142, -0.19092445925123494, -0.09713683244003869, 0.1299257090393612, 0.0371814611644258, 0.009452870105284715, -0.02595316955014253, -0.05620378816445242, -0.0012382226282055405, -0.06641269668999618, 0.008673480797785902, -0.018358178955885512, 0.10694332027396039, 0.25869472741028177, 0.4652466802351641, 0.5824763475825417, 0.26340941183119093, -0.07328626253320238, -0.15443106035840146, 0.26450398667781344, 0.17375833648493494, -0.04915714937340079, -0.19273951502174724, -0.015435081057836236, 0.05764608662233405, 0.034039485303043085, -0.01449817287247674, 0.12874210663087302, 0.01901463261911411, -0.023050411712465652, 0.14002673331006893, 0.07234247417168667, 0.06124633557461527, -0.010502929209713132, -0.02544130747935004, 0.019248117239857275, 0.054538096076387814, -0.017738535615299235, 0.030881411316766492, 0.010037460632576743, 0.11005349994765476, 0.17410047441462004, 0.4069545602033157, 0.47759689931725774, 0.2589520035193897, -0.09751824736676895, -0.032008123605227035, 0.10542649971004615, 0.2027494233500967, -0.043381946298356115, -0.4458160398942299, -0.18945261503036526, -0.2807154585936375, -0.2454143046547906, -0.033958696939665516, 0.011751237525896494, 0.3417226235025386, 0.08044311377085385, 0.22180636750489643, 0.1638073926130578, -0.047771373145699535, -0.06422456036952072, -0.00898484385877276, -0.06197778535995298, 0.02292792187294939, 0.013084160948580838, -0.062248583197185334, -0.014866228971974758, 0.0687452950639469, 0.12167675314214682, 0.12325513233213796, 0.2563074668813044, 0.21814585076324422, 0.2459138918582521, 0.3054614220776759, 0.261372544259668, 0.43537597213472146, 0.23542461632296113, 0.06626775248490198, -0.09780477353270853, 0.035812581928854406, 0.15218123814936546, -0.09332434964542372, 0.21978461122954343, 0.34919346163265247, 0.22003661356242685, 0.06652285087323373, 0.05343814715141279, -0.020389312098954258, 0.05429173037486756, -0.025588234966757113, 0.023887297936337235, -0.08161231375089041, -0.031557335662209376, -0.04329460227935637, 0.0003956330619528014, -0.01574029566790021, 0.06890411191112078, 0.03823176959348091, 0.07666977598245511, 0.1252128013765113, 0.21247599675366385, 0.3053261137809364, 0.2859206695158727, 0.2409971827022739, 0.24061055147995417, 0.3393059455923982, 0.2062205634743439, 0.316361222248147, 0.1962353887643791, 0.32579783962372505, 0.16797498225914276, 0.26727042522791566, 0.30703392428594045, 0.02088386959840869, -0.007349660910227784, 0.006998974052794478, -0.01474569207992381, -0.02166926859906383, -0.013617356099212967, -0.0036710929958812142, -0.061375173542198444, -0.019235259535993136, 0.08831772996726818, 0.05435177952774857, 0.009957947993824547, -0.0005581118474241404, 0.04260476225471097, 0.008339130713454596, 0.005540501290883378, 0.002173069783729895, -0.004553779206192587, 0.025044613334320103, -0.006224322867626795, 0.053289439449044615, 0.002624903789917576, 0.04856959008564289, 0.06467035872642754, 0.030584764472004086, -0.02948909925483019, -0.025676404657369343, 0.02897109127453349, 0.012059564491798116, -0.03341623131517809, 0.03326104976916721, 0.01704208088475469, 0.01484779037146002, 0.04084532001826007], [0.042636565174089036, 0.05762483492127992, 0.02084624813309915, 0.02181848972691172, -0.033468170441413446, -0.050782705880618985, 0.009611273538214908, -0.018517840868832916, -0.006056546236909675, -0.008155055519407579, -0.005352766795631737, -0.028777477135644314, -0.009086366392564459, 0.040463510387057096, 0.04461692147977576, 0.020724323643475616, -0.07407642958963001, -0.07724483708220989, -0.0020978919757661534, 0.015115170766985498, 0.011973701073577356, 0.014226914294425885, 0.015705771368596536, -0.0967398212853438, 0.0009505558697070894, -0.052684171012334045, 0.03138151220549194, 0.0021965240382823413, 0.0012331039137314995, -0.0354905874402968, -0.033663401283344364, -0.04240701788412835, 0.061995001742607955, 0.016650946817360644, -0.07262685664704302, 0.026239271268294794, -0.05333208471257075, 0.02426600141879163, 0.028383183996024904, -0.014514323459530763, 0.07607012975388874, 0.01659963212861086, -0.0881239341797721, -0.034252575195157196, 0.014660097631173001, -0.008045279926886289, 0.06129835130936239, -0.016098332310377578, -0.0029958308610708102, -0.004038982402496663, 0.04128191463418026, 0.02531607086365442, 0.02262301183392658, 0.007000018189450011, -0.05144217229643113, -0.05290652112870946, -0.04368229612031157, -0.05359891273986152, -0.024072838251479926, -0.0258015079000457, -0.02310199057250853, -0.006827549751344828, 0.008113373090486941, 0.003765251538244877, 0.0006491551572631227, -0.07517212934409695, -0.06483510398435831, -0.051935542134227505, -0.049420487628754665, -0.03942801507168473, 0.06553992204346926, -0.013763744552141674, -0.10767074360343114, 0.023849375159100274, 0.057515544037378394, 0.06686335770937805, 0.046460114730196636, -0.0009565986059681256, 0.01875206236232505, -0.0420717480878482, 0.007699829636278301, 0.01603541089511608, 0.0065116511961333685, -0.04022207965629951, 0.007840145882408488, -0.018665255587438156, 0.043300852708370995, 0.005525091977602612, 0.028906018948135978, 0.04557303090510693, 0.10487583745616638, 0.0058742258615211455, 0.031691053859280297, -0.12645326191613254, -0.13206440212115278, 0.01243190836440317, -0.04336494543950825, -0.029387109660513448, 0.2586216210714019, 0.2656227944828954, 0.07700493038753756, 0.037593934865293104, 0.1062103395144057, 0.12575272609524307, 0.11004723310201849, 0.16076121694013526, 0.13200980612060134, -0.06231394801159528, -0.0047609273372558, -0.05824181770377263, -0.03256488158240851, 0.02347434626645859, 0.0105336301866692, 0.047333283956731115, 0.017086814711800322, -0.004981650899001271, -0.04806888953680072, 0.12152208680075369, 0.055418705692152875, 0.05165201073725015, -0.19741532148671354, -0.2551194665136499, -0.14546463060346954, -0.26066393024319495, -0.1375659392770261, 0.1781142618720175, 0.29892130239883663, 0.13167951654745524, 0.02457814734929651, -0.1340226919755471, -0.2415089493332755, -0.022792104529630416, 0.044201273515140554, 0.26019633439318335, 0.1970738149795774, 0.08737441435320216, 0.05455409640026904, 0.019692647545844953, -0.11065487931760923, 0.04055988385222523, -0.0221173800106409, -0.03158912275481004, -0.03792960229802421, -0.05028889605500946, 0.08174755672905365, 0.06541527463320483, -0.07496743197179068, -0.02214828254731628, -0.15523383670759675, -0.33413224407840897, -0.3907645983135759, -0.4735422042614702, -0.07163710599022458, -0.5387215019579465, -0.13493872389301653, 0.028987344549414835, -0.271024208109005, -0.6676345044473685, -0.8286440177205711, -0.7075605860450209, -0.15264968372761795, 0.0862900951996846, 0.017128568189942902, 0.2231079895100923, 0.02015441925385726, -0.06806016379921259, -0.019481909678821824, -0.0164389074828297, -0.026021242697150497, 0.016654220746288237, 0.04129372481619906, -0.02537955332353517, 0.0710203746623656, 0.296427169165545, 0.01011417730737277, -0.2832460086313337, -0.3848884767084544, -0.4462277613064022, -0.865675446280679, -0.7272704745446293, -0.5256128461617645, -0.5439578453767002, -0.16819779413379987, -0.41465272238837286, -0.7247021056590996, -1.1341326004391448, -1.1441739423996231, -0.4104432356123869, -0.7209793810418345, -0.42558101742520593, 0.23959250870324084, 0.41849369720722324, 0.2743768522209869, -0.11134753303551925, -0.03522456113721263, 0.005754474598697543, 0.02117121945748706, 0.04182314248314985, -0.0159148601994846, 0.034881832459548484, 0.02017869663596657, 0.29238938718096846, 0.16675364398360412, 0.08596266881505184, -0.39750565089125683, -0.5219623788236794, -0.7652455219838021, -0.8524592656523884, -0.9494136625659989, -1.140095993158171, -1.1853263723290413, -1.2972638509827337, -1.4755712357338198, -0.9733557170549991, -1.1526363587238035, -0.6430083648083272, -0.6693698654967262, -0.6766138857278033, -0.21629707277737992, 0.09018668706741194, 0.2228891405620641, 0.07022370164084248, -0.02946658803604228, -0.016849759930991626, -0.05394956532664327, 0.08878865363945647, 0.016852373211144838, 0.04253086287134948, 0.15849645993397038, 0.3502003607438504, 0.12019036197980902, 0.060304785063631496, -0.41169798353057996, -0.3799463218350021, -0.6627163710718548, -1.0345378231481634, -1.1990181593330986, -1.5427352273450028, -1.9119209742321457, -1.1147830186731278, -1.2741122641830147, -0.6516765099049631, -0.6775970913250103, -0.4920910905166484, -0.09664642614740572, -0.05156262651603201, -0.06746726886023056, -0.0535330392666142, 0.10689356480253223, 0.1236151130094976, 0.031084481262579785, -0.025552010317946627, -0.005772723628162224, -0.011486804425473616, 0.08281429784784144, 0.05815408376288772, 0.22581262037752803, 0.23077118631124408, -0.19497100150026575, -0.19369234026235693, -0.19156004406887922, -0.17418728931764385, -0.6495532303127993, -0.22509797293563683, -0.23746898264323515, -0.3634435983563922, -0.5057711624160938, -0.46783711513489457, -0.0081953191353728, 0.41999140898530946, -0.06502503546458145, -0.37517324967762494, 0.15639543685617774, 0.2567221061927274, 0.0825184477667481, 0.24025123228799594, 0.03934973180464728, -0.020882289065115175, -0.045350747794779926, 0.023424505988911094, -0.018696425785008065, 0.06257504003516379, 0.0474471913301915, 0.047115987895327, 0.13803669912072072, 0.042074733116685366, -0.5257382370234701, -0.0044816490875405415, -0.16291831262349585, 0.18479700605786978, 0.23329976843892236, 0.5464193526862925, 0.7973616473477327, 0.704441502519838, 0.9255208956373178, 1.1409367333551155, 0.4240693108220132, 0.7479957556765153, 0.06794443012520902, -0.434379676315613, 0.30060373054120193, -0.07434016427161096, 0.08630122558988891, 0.05963677507107019, 0.008513502600297531, -0.09804608957250728, -0.007457135137628871, -0.0037461620265133405, -0.003755183447333535, -0.04640090516565723, 0.06738132783299093, 0.15898185818584945, 0.05638282904830065, -0.14717092801002524, -0.35410409934209425, -0.20109957179237894, 0.20251901677179857, 0.7955633321927592, 0.6050586246724222, 0.6819611795618532, 0.7959213242501378, 0.2482635660526492, 0.5801250630786684, 0.6397511236293639, 0.4432360922556518, 0.002626829554119988, 0.001301118642717238, 0.08206668455681511, -0.02064647581287806, -0.164050511104264, -0.2915943238878531, -0.03291753411048354, -0.18538654188049933, -0.11842828569949243, -0.11005947523889813, -0.017364320840522824, 0.017794410019188234, -0.013696683015495289, 0.010424516071655518, 0.011077095799452482, -0.2909427018789437, -0.16047836597995713, -0.06583477160137675, 0.009804673469227579, 0.6408519951882811, 0.6691091675932909, 0.3142601114636223, 0.2368731255853633, 0.6085856424122303, 0.3922486122478614, -0.30003783449670934, 0.05042425744153543, -0.05309361501474826, -0.20207564654212049, 0.1760312333059137, 0.60284573268235, 0.5206153072289512, 0.011255038560866473, -0.14362330857991804, -0.022053623778718157, 0.06318967793975795, 0.013739163562041154, 0.0498433064311659, -0.0191495038578144, -0.01715261791160875, 0.007956348694480727, 0.07073788514996421, 0.04487285237778142, -0.38330522395353855, 0.043441168650142546, 0.4312158668734471, 0.14815503258140106, 0.4830483509105515, 0.2940101658565483, -0.10375016591291522, 0.2938933868265057, 0.6694910487867526, 0.3649452352474907, -0.38461487905435365, -0.06618434867471826, 0.27275553567521277, 0.4562961015946886, 0.43908147976506917, 0.6141599984941591, 0.5214393459102236, 0.5222768264222293, 0.34710119224156055, 0.24080178025488688, 0.24920987898773359, 0.18525528878118758, 0.0351480142532399, 0.02390656721640975, -0.05817849784636761, 0.0007526948139210691, 0.007170401462309664, 0.0003903905273643737, 0.03636344664876562, 0.5311073079465973, 0.2747551931002874, 0.1741366621758717, 0.4197646618125637, 0.3479077253654026, 0.30556638550103643, 0.6798343254160404, 0.8923742561397495, -0.18487083087425746, -0.1961395238157529, -0.022678435985033645, 0.2857198830219161, 0.2739636369913966, -0.08042566032115715, 0.5411617281734685, 0.20093450921157183, 0.5080730270101915, 0.4684021635235434, 0.3582214909397344, 0.28035129473226866, 0.10793994222610556, -0.018265866527664897, -0.03335082207344004, 0.06467584152231214, 0.0010773480828838416, 0.0377799491058054, 0.027302583496041425, 0.08604726235612806, 0.569758847853118, 0.7355331123563433, 0.47255533136193556, -0.09336993169627275, 0.3518735369161038, 0.14641849620431702, 0.23039917586526876, 0.05354339159843467, -0.4886057725430045, 0.13159070080657587, 0.42743211186695496, 0.2611288637778333, 0.3094166023245206, 0.01175571448080626, 0.3758819840346938, 0.2217578267957421, 0.6834774479470197, 0.43581333665368155, 0.37499991169533825, 0.1782120220807987, 0.1280882556047955, 0.0744411602481449, 0.041956588626698654, -0.003883044115614483, 0.058963829417969696, 0.05604460316336584, -0.04981175168491103, -0.11656307801704942, 0.4403376687836297, 0.7315979632086229, 0.8177744953772275, 0.3433307161737706, 0.022373725072936397, 0.021912022396137286, 0.11627809592080542, -0.0068883934219937295, 0.22836643392852937, 0.3615965196319199, 0.7889772463358172, 0.6868052183568191, 0.29539034099639144, 0.5451100197369717, 0.4404429759177034, 0.3230808603396141, 0.7902594279558173, 0.2786522207470296, 0.3105370559492939, 0.147252907101909, 0.1859035686727759, 0.06054434171708305, -0.07017412799895408, -0.04683523732839489, 4.847837701557165e-05, -0.035851325888145956, -0.07851578304499625, -0.028729610247726328, 0.22191293233713316, 0.3797897870985211, 0.39109547864373817, 0.027751901796469382, 0.09091330846595311, -0.3340593657225602, -0.10401733186937491, -0.5384949819260598, 0.08960856359716449, 0.15513072875716596, 0.20955495513359862, 0.23735778581910436, 0.24696146676185043, 0.292859060946513, -0.020240990804361605, 0.041197013999714455, 0.5492121021629899, 0.40973451801576194, 0.41906965163936466, 0.2368394262308707, -0.04681622990824579, -0.04881486617752881, 0.013674502689605251, -0.03466452000289245, 0.011557395039153606, 0.005448101753170755, -0.012159570747528586, -0.14098057140151046, 0.09589382466422308, 0.07818772847061518, -0.07190823133082724, 0.02416392909686678, 0.1012022071557916, -0.5959293436906679, -0.12453310270737265, 0.2795638918840346, 0.06185052410767549, 0.3751905276614168, 0.3178923390479953, 0.2006827292421322, 0.014070184853664307, 0.04135786305454468, -0.1422032732376735, -0.15911313523245074, 0.25581878646133116, 0.23971507342358664, 0.22207716717368253, 0.02112164891192312, -0.02533537245178494, 0.06184951170461153, 0.060643844141147055, 0.019833781689594134, 0.029776500479365163, -0.02916538686564717, -0.034874478610636535, -0.155112309278267, 0.03700148804028457, 0.07034944496338905, -0.17789229237710608, -0.2244405291250102, -0.11311649735824189, -0.35181806033011803, -0.007866026843980259, -0.20337132581797862, 0.1653315612706885, 0.5800883545380159, 0.12954559533810064, -0.06456764630472905, -0.23858702541479254, -0.26521954771100215, -0.765009659638052, -0.3892285098566865, -0.3850910937999084, -0.12263081392018356, -0.08442228877072533, -0.27458497614850497, -0.08972304535129527, -0.042070652542139354, -0.008470460093475726, 0.013311981243548317, 0.039641054827853996, -0.044194078831914944, -0.015617380378806188, -0.16048143482494973, 0.05430880741213579, 0.10232095177570866, 0.0842235342610391, -0.05807477025350217, -0.059229246158759574, -0.03871995536021955, -0.10744206853250438, 0.15517802534829206, 0.2301073783758436, 0.26447201388296915, -0.34846216701218224, 0.0636047254140482, -0.1793766999052056, -0.2565960557662465, -0.725777123642871, -0.4716158383373919, -0.6550296306669093, -0.2621625250653988, -0.14023797363734836, -0.22034089021684727, -0.0672828449361769, 0.0033010032787557007, -0.03327440323449899, 0.011331069303063164, 0.055456707325007466, 0.024615285754778716, -0.009764671823584757, -0.3284949506043692, -0.09276235293402194, -0.23635879295230303, -0.3888656822608803, -0.009077812191569907, -0.05969011920810137, -0.07940726928399204, 0.11820610076337616, 0.26266238680675663, -0.23637169469886987, -0.7109359392069073, 