{"biases": [[[-0.33829759769013934], [-1.5710790444568348], [0.22592853977910685], [-0.9074332754135371], [-0.46375577141904917], [1.7200694482111303], [-1.049116054337856], [-0.562647981134161], [-2.3624217917867116], [-1.2187898319985317], [-3.1240063426057043], [-2.0649443573121546], [-0.17735825882200318], [2.301040705608783], [-2.237644094845261], [0.10895899632373449], [-0.9474016328308946], [-0.5942430212706814], [-1.7497616449202462], [0.9103980787242405], [-1.67485668041987], [-2.270787326313874], [-1.929962287693502], [0.9985421199497896], [-2.6610376813497374], [-0.08671873663297701], [-1.0016945432002071], [-0.3896659307009929], [-0.6466663882601654], [-1.5962729061800707], [-0.7778891780820069], [-1.8529460297893245], [-1.5002199172760742], [-1.7632047179362489], [-2.795200063663883], [-0.430811390200238], [0.2923715546185079], [-1.579884622902336], [-0.11830686087058614], [-2.22697546778743], [-0.7942062655218132], [-0.20679174931175973], [-0.5345017529052281], [-0.9771225136402282], [-0.5468040751666037], [-0.952797841091589], [0.5898162812585156], [0.052439867542275365], [-0.3075262530695242], [-0.7960088812950435], [-1.1573468653093635], [-0.6215784027501617], [-1.2912777831132718], [-2.09596363037445], [-1.2131196844814056], [3.2862197951816996], [-0.7523085112320196], [-1.042958545808964], [-3.370390040612812], [-1.4365201856836989], [-0.8639234016635762], [0.1086193422059073], [-1.8353598300334606], [0.6527531601168449], [0.02717387775729353], [1.1071956515987185], [-2.2286675317910514], [-1.3241044611197665], [-2.0373473933787083], [-2.5180530624904116], [-2.017216255696102], [-2.757371651416091], [-1.3479167150166393], [-1.278822709450316], [-2.249159078627462], [0.7468772640190997], [1.493763021376087], [-2.464631141019893], [-0.7705327373621457], [-0.7745231605609838], [-1.2338116402970913], [-0.37963791917580597], [-1.9151098449948296], [-1.037151501404605], [-1.5653816684470445], [-1.7116221219917265], [-0.5419189449619746], [-1.0533563703149473], [0.9998852115328505], [-0.5736173648333176], [-3.097139185075378], [-0.45660998924456436], [-1.309549296684112], [-2.2431786008311985], [-0.6601100467872201], [-1.4579093646618408], [-1.500985413937158], [-1.0643930944698285], [-1.399944347664788], [-0.5262489539375504]], [[-0.8672626165800337], [-1.119740984979203], [-3.2392190761042206], [-1.7526503417621542], [-0.8542136753100238], [-3.095162160083457], [-3.258074366667481], [-2.7078236773824376], [0.8069007037440525], [-1.6055138358436347]]], "weights": [[[-0.05503355913586459, 0.01647289496096835, 0.02471204169345429, -0.008517161872082941, -0.008442184318384829, 0.015393090966252134, 0.03113124717769219, -0.017460862566907265, -0.009938045985738176, -0.02966704451410547, 0.03764224450473317, 0.002005938589504869, 0.006137288798510057, -0.007955738362127453, 0.010960443679417337, -0.010161062505594266, -0.038009213486027274, -0.045994732769277756, 0.05100124129822778, 0.03487464833168369, -0.0032743896922845096, -0.020056742431879226, -0.01044876685784462, 0.009339339238534358, -0.05998405249716359, -0.04615970339128262, -0.03645708662945751, -0.1283688228573252, 0.007902163569051506, -0.023700140383900448, 0.016966547167714435, 0.009124557268249409, 0.004794504423020595, 0.029882233161355597, -0.01322144427990037, 0.02122730866349455, 0.033833997740375696, 0.0333566805793745, 0.02815593528318988, 0.00814805239718191, -0.003960088173033846, 0.01944410768277953, 0.013971828676338852, -0.011195009622666962, 0.009641211445690629, -0.0033514560059861886, 0.00966724891856612, -0.012722573429509831, 0.054988324731093476, -0.0667967448248165, 0.03863552928227525, 0.024778242882208874, -0.019556090216161233, 0.022972571407345075, 0.014204878143989953, -0.024536221384185517, 0.004475916050736602, 0.045444100451189955, -0.06507714950480718, 0.011054408605289931, 0.015234258199342246, 0.0675990504039683, -0.04480667148391009, -0.0164724056346164, -0.049524933781741144, 0.07522976380519758, 0.12373298527507443, 0.11525009682425337, 0.009416076752168066, 0.0362121309815819, 0.029755442570799845, -0.008462800552710112, -0.02543385526539215, 0.05740047847275277, 0.060699442846657736, 0.04932601512247494, 0.044968568721017906, 0.11970252091951232, 0.05419131407885073, 0.061986446496963984, 0.018660468106681528, -0.004732928566588694, 0.032642442535198664, 0.007586670413009777, -0.031042346070769805, -0.0071109676945656465, 0.08687123983466306, -0.028692028605591217, -0.010304181933469804, 0.0015474089644922566, 0.08191940238903887, 0.11117957266899446, -0.01246121523383381, 0.08370721468285573, 0.13355394616627023, 0.09663396620505829, -0.0827805200727193, -0.1387323469712064, -0.11110162825366267, -0.186849566473893, -0.19189675772740689, -0.13546310037375417, -0.03388525746918864, 0.0528406414804211, 0.08171943513555051, 0.2380312957105656, 0.18319146264574426, 0.04439831182323215, 0.023031879284286186, -0.006375707376945224, 0.003676762028172237, 0.02118857630815996, -0.003945585313319466, -0.03875062349177167, 0.07733690316763918, -0.007994150149175504, -0.01555631202774621, 0.08859827665456821, 0.04764627070064219, 0.018513877446571455, 0.04329873333537483, 0.30900991938726297, 0.22123025249471392, -0.0041363029437359025, -0.16431524419802623, -0.2970079168867925, -0.37025952628489406, -0.22289173095651116, 0.039884302317100544, 0.1561175700269128, 0.06087743946676397, 0.13260549985727615, 0.018288236174402544, 0.06455354813684258, 0.05181984220673397, 0.04834272949532061, -0.04858352909816382, -0.046400080611378916, 0.017009697693075296, 0.028677458778829705, -0.011482578135460457, 0.02354660706335476, -0.02617421415812032, 0.03691364939334477, -0.023543349045456012, 0.05898598758427675, 0.09197193926225321, 0.17283479014228675, 0.24179740702997102, 0.24724112338161264, 0.08985949007870961, -0.25194800843304804, -0.26204429206710433, -0.47773574990270756, -0.24857614798675529, -0.16886739722425415, 0.04807771365386153, 0.22762085255323633, 0.05751404923433981, -0.11597739454049606, 0.07096973334514368, -0.0002212907426964368, -0.09640985495217116, -0.023625615360398956, 0.041851681411525135, -0.05104123340167044, 0.010436865614501682, 0.005901113983491532, -0.01207257329881516, 0.044186924110484284, 0.011067799441382984, -0.00786884421357318, 0.05307914405813928, -0.04509180190560111, -0.02319157375064922, -0.0007016927956721656, 0.05971885021800561, 0.040713420823025176, -0.26942328936665016, -0.24892745919950363, -0.268084369522132, -0.47044902861027477, -0.11909638481008716, 0.1547156525380336, -0.15146151189532056, -0.06939331483087963, -0.11835261027716132, -0.25141973063481127, -0.13784586071566868, -0.1574592291265331, -0.20591261628837992, -0.14397614278474766, -0.11551244394614728, -0.002455685588807239, 0.03474046098560653, -0.0041022085508894725, -0.010845088449857656, -0.024850076974999837, 0.0897512439801501, -0.05933008883558014, 0.04884913474038427, 0.059265845582878694, -0.18765653195359394, -0.10085221716218122, 0.06524665655958756, 0.02129103054543436, -0.2536754182328234, -0.2771909880183329, -0.3045999252330299, -0.06185449849475108, 0.046122998298726355, 0.011446980976765175, -0.1305276005101247, -0.11368888461468996, -0.13412912191248647, -0.26239121706480967, -0.039352958518233484, -0.14833925091432273, -0.13810942003431595, -0.21252099721686768, -0.10482143457425418, -0.002526126920981926, -0.06945227347251391, 0.00033385980911285933, 0.020050213316999445, -0.009915445208473794, 0.023389884900620633, -0.03154158474460006, 0.02458553198817203, 0.016507670980147163, 0.07832139479432171, 0.09845836544821099, 0.1459499385525393, 0.03263447945868606, -0.32435223525585277, -0.4291338011328628, -0.24392566939051957, 0.24606172850448485, 0.10477027802586573, -0.18091290802890853, -0.16502335253690753, 0.0028404972880760383, -0.12275875473241422, -0.07083223375675407, -0.20937000862678867, -0.1995081586034178, -0.02777604523495719, -0.12123449504587115, -0.08849233134313793, 0.023496955470725903, -0.03675503126976723, -0.004255907947659046, 0.05561024011500179, 0.03719489161864287, -0.033091473340667144, 0.00472822739250368, 0.016198865900221973, -0.024816245900186933, -0.03976441921144656, 0.037386026594687295, 0.08202359622027963, -0.26434261773371626, -0.5342556630678422, -0.5715188373613241, -0.28348912648259333, 0.00034252178179871304, 0.10013009749499881, 0.1626940118525294, -0.10656719985942889, -0.17567874752667667, -0.17718690893238653, -0.24435872109992426, -0.15345504791259956, -0.15407382055114652, -0.11843413999584891, -0.03596566436367624, -0.049104257702661025, -0.003740160450967131, -0.02820011450313697, 0.0023478012645823045, 0.05276226972046639, 0.05483281274352839, -0.0557086258219646, -0.115257754799726, -0.12534899616169187, -0.09567077499075441, -0.021297909624723638, -0.03816929100253689, 0.011315828222265645, -0.3877961762413216, -0.5149782218972747, -0.635336191648243, -0.28168376885854274, -0.14469292309008475, 0.12519021309108463, 0.12405144102288164, 0.04699813112446141, -0.1418902231775346, -0.26944392167840525, -0.25731119058509244, -0.15949403119528704, -0.05309448733497865, -0.14659828724593593, -0.00981407497350502, 0.06507316049540846, -0.05588630073505098, -0.014360742434524966, 0.015063039382022197, 0.02582805246569579, 0.01155951334339749, -0.0034165537249818243, -0.08931234986766792, -0.10915017230426322, -0.13483254359169553, -0.07302298978291755, -0.09735678428280752, -0.13435114359909642, -0.18735813461658066, -0.41112113114278087, -0.4868155859259018, -0.28081075148040985, -0.11476578960768148, 0.000767928824760143, 0.16844913403126233, -0.03858034395527097, -0.4153790428029892, -0.2888567117625858, -0.13769364720475802, -0.0791067867434247, -0.08785564324844891, -0.15701672029048042, 0.03484508708574853, 0.07835978147913504, -0.03581297882097025, 0.005202435258497418, 0.022801699845732493, -0.022145054689054894, 0.05373472607069823, 0.029908500245568456, -0.06930593593110417, -0.2012325797314866, -0.04316864511354402, -0.1282197807603686, -0.022270940904769786, -0.0506010783139751, -0.06318723716807459, -0.03611705407271698, -0.0036308515696313413, -0.22388382588475042, -0.025234443044158734, 0.10828634924614859, 0.07649807779780064, -0.14766444034429183, -0.23781797036610688, -0.2055901263681577, -0.10879650345011468, 0.00736543259917423, 0.02602269417049554, -0.06230058724270861, 0.14425509038678322, 0.21931791744072987, 0.0370042336631331, 0.010728803642734474, 0.05476935801381929, 0.00628792354300721, -0.020571013922903232, -0.060265692889952115, -0.12268606617932322, -0.13144497131489571, -0.014427773425289272, -0.09742243109222531, -0.0644932213958006, 0.07761253587725774, 0.03578344344442222, 0.08289993185713908, -0.11232612376610165, -0.12624439270887378, 0.09615574716402253, 0.12167755187793046, 0.07662519504869413, -0.00030176260025700915, -0.2211529189210051, -0.09549706022155229, -0.004480255673707665, -0.012897724061767627, -0.05674148612444167, 0.0021477013526011775, 0.19128893741187025, 0.24810074910000607, 0.02070913309129019, 0.0415874215451518, 0.016317476613214518, -0.004446253188878407, 0.0427873811942172, 0.018922167542460164, 0.06588673018532437, -0.08910082173639333, 0.028573864627702193, -0.010263670752534364, 0.012222340115968669, 0.11028112396994169, 0.09682703332511329, 0.11234438682476514, 0.09184905103499098, -0.07042669737378669, 0.10336518674390359, 0.21609583293127652, 0.12612035426303866, 0.005916654627268659, -0.2757380157325663, -0.03915873236362831, -0.12016669677545201, -0.22976639872498344, -0.25463651950748845, 0.06212710187191617, 0.23135908111188694, 0.14996990516453793, 0.04326412534431864, 0.022095119976418703, -0.023629140273533123, -0.027781950430498713, -0.00588987238991466, 0.017667026406535183, 0.08344574177315563, -0.052405201954436174, 0.018092979037410993, 0.10066493632696634, 0.12835635922674798, 0.059445211786798735, -0.10184264980040543, 0.013419247066154064, -0.07175252532792419, -0.10860966014306106, 0.18340203494902718, 0.24111159895241757, 0.1760023254727552, -0.11206347911510967, -0.12645134118609713, -0.00780196935330994, -0.21241880769236762, -0.19287231881331451, -0.12919419142627056, 0.08497088612440666, 0.0667343925066962, 0.0585153079099547, 0.09380375995492843, -0.02648914236050764, 0.015868936492007, 0.021583742703805094, 0.020979002979835043, 0.03416283370766794, -0.01397921775940599, -0.04932256198483844, 0.00174958405505895, 0.07568299879255212, -0.027717767499258663, -0.19848085551722844, -0.13000878442234548, 0.037406696814844806, -0.06259515838575286, -0.04526947260451705, 0.1445181188087794, 0.3192054252151049, 0.11470594570416896, 0.05735304919915829, -0.2369482124013829, -0.09273468347386778, -0.10692027594329308, -0.16695621760929347, 0.15089981501033695, 0.25939725600995056, 0.016830199143849756, 0.04803965892786304, 0.10234074845915533, 0.013169328084987187, -0.012576624153939661, 0.012249359761601937, -0.030987542254848097, 0.05321271993227921, 0.028236517095589487, 0.030201845379453647, -0.055212497576660115, -0.05035291279079304, -0.11846263537796764, -0.2016963841659093, -0.12927096081168546, 0.10759000835855236, -0.06903410407429267, 0.07264870614711608, 0.17774957956190182, 0.1560531551180967, -0.07256297624537497, -0.14613249938734452, -0.04836196704722395, 0.15440912947243507, 0.07360403519251679, 0.1901983335249977, 0.201356839983214, 0.159591770086579, 0.010590287654006584, 0.01322853973762415, 0.11645046627597642, -0.0020570929998758765, 0.009753599312512113, -0.03468946119653426, 0.06004468052281554, 0.04007837038961537, -0.01659772179507182, 0.09578588016059654, 0.0003032770368879025, -0.10898533079109343, -0.15038383480663517, -0.25454030668459376, -0.17694338081690913, -0.19024760191645243, -0.0884413722060024, 0.23752053992354538, 0.04912168104015184, 0.12401222826552424, 0.25081507909008, 0.19420405741608135, 0.32459407979924126, 0.5008034360875551, 0.4505420325257442, 0.2464259454570705, -0.009616548125580226, -0.08440524053918834, -0.004114482139209757, -0.04723860337611756, 0.07077320292413049, 0.026948952637430766, 0.060374451634517934, 0.004464045853403889, 0.007257492452198029, -0.0008325730850977267, 0.014759001471925805, 0.13759217436010154, 0.039617065038010824, -0.03733868617989477, -0.1403315113392998, -0.2581739951580907, -0.12522383768886244, -0.0161570282722456, 0.21736202187931228, 0.18406259887959006, -0.12072215909572946, 0.055773582284181146, 0.2969393889295136, 0.4738741086453882, 0.6519367517362146, 0.4849380977084623, 0.3018319136365238, 0.22091804145646673, -0.007565544233648372, -0.10261480788507822, 0.2196102515230191, 0.045905186207608716, 0.06612903020816989, 0.027390993543890668, 0.014970764120231362, -0.04590201990393359, 0.055774184472336605, 0.07133913113315057, 0.0010204699360481626, 0.07363705378423706, 0.030385727854428824, 0.019408928976452654, 0.051056437232492036, -0.03957734510013919, -0.17626943954763602, -0.14340188775185467, -0.062010984572629935, 0.03499759376300342, -0.04519446099312815, 0.05457057873085377, 0.364975969251486, 0.4128153759675591, 0.4211889804386201, 0.2857691982693739, 0.16230782295258153, 0.21993426440419986, 0.053947010914283264, -0.060525680842056076, 0.057356251861099654, -0.01522674805654961, -0.0050180009221954544, 0.039818821788626, 0.013299845967691229, -0.0033496955657611113, -0.026538791017074657, -0.029876664941093707, -0.04670986065555055, 0.030318183292382343, 0.027697636578748457, 0.05963006022222132, 0.09454563978237959, 0.13780445661745364, 0.08862109702421014, 0.027805186423351214, -0.07392948407178651, 0.07795886599940843, 0.11735071281324465, 0.012316632238029066, 0.0345228027428244, -0.04683322138286098, -0.14241093726589243, -0.09543680697320978, -0.04733285204838292, -0.028308802513372346, -0.06873610607161773, -0.06823016857807172, -0.0032436472797599553, 0.0193159810781269, -0.03517704943217366, -0.006903557439413839, -0.01863582460372018, 0.06241656470281515, -0.03504981893864488, -0.022018289441324335, 0.05467802476318618, -0.006452229885766857, -0.07091096334611051, -0.10381642947280799, -0.03750287816415812, 0.09590738150483266, 0.19680621598087475, 0.036808263586782734, -0.021000074227967583, -0.05118261780727915, -0.15741218279516306, -0.17738555832722128, -0.2844042199386786, -0.3092209659591291, -0.33641518490556716, -0.3649183392570142, -0.1820374339606548, -0.04899872988561713, -0.14000157325527582, -0.10846127797649976, -0.03200838826009549, 0.010767897617715898, -0.09345711108859167, 0.06477345659777428, 0.02952573105912234, 0.0804293188979743, -0.04420373032011569, -0.059992051736887084, -0.03501081875139887, -0.04111316381586048, -0.12465458016208998, -0.03826191890393387, -0.09356325207997718, -0.04474915240340229, -0.020093466175701766, -0.07315525743563064, -0.16512908241330265, -0.11391538264623655, -0.3657046679316743, -0.24320182505689683, -0.2178950004773469, -0.1253215648140608, -0.25898372237549994, -0.1782401931458057, -0.04299422988407068, -0.13898602413728886, -0.02735618023299518, 0.05932085157014779, -0.03085817510976758, 0.016480377873726654, -0.06557715093462477, -0.0071084701390166085, 0.007094539574268935, -0.03762815062118987, -0.038305725221628, -1.280634873264393e-05, 0.058164805988152865, -0.024595371644766398, -0.011089972510101966, -0.045196322303501554, -0.006945074394583428, -0.06516785819909268, -0.07868456605889068, -0.11202012292158622, -0.06857833074168816, -0.19159055092116392, -0.24248157750972385, -0.22006692674241066, -0.11649796934266954, -0.2117663683090648, -0.31769565510007747, -0.14228223114880473, -0.1681915962258415, -0.17050889163639257, -0.16021141634752176, 0.006270039258467456, 0.010745391018648558, 0.04641157303518491, 0.024723985795525406, -0.011511051730103599, -0.0280884982176055, -0.03578385678059575, -0.011461806056744439, -0.03044091000394805, 0.05085362317835247, 0.028895705665439555, -0.05608350385108414, 0.0400475185037814, -0.0789665617151214, -0.047615101918648636, 0.005171255555799495, -0.11039439727905442, -0.1459387407853038, -0.08039599512420138, -0.12011182504327117, -0.09714444939650832, -0.10224402383477768, -0.1261625054446149, -0.10853707855633066, -0.14570254664099713, -0.23849940957001553, -0.12500283120081557, -0.03157123329065161, -0.003327124090493034, -0.03208244902047176, 0.03888932113809521, -0.022154241381358516, -0.015215479688357292, 0.004819651147347099, -0.02232921738223664, 0.011625864835924012, 0.04490791447172074, -0.009117031874531133, -0.03305401632104228, -0.03533310867683501, -0.06350432908866183, -0.011759271463347048, 0.027833420535369628, 0.021046782421801382, -0.029521159779623565, -0.046865560185623545, 0.06211179298928046, -0.07119426455948297, -0.035883572366104205, -0.027804045266954604, 0.03163456053062239, -0.03851783247930927, -0.008066554271453901, -0.026901765947860538, -0.04564253462059234, -0.04649685423181213, 0.0757137800516989, 0.02584189287151294, -0.018173713237493425, 0.03644575115275575, -0.050885376997487526, -0.03427144510984832, 0.040710881234587624, 0.0016702667196548237, 0.02972960230889877, 0.009672251005046362, -0.010387720119948995, -0.027678348714677763, -0.01449316797020417, -0.0011252009197246335, 0.023471525803601272, 0.03094596607402349, 0.01415818569285518, 0.004729408647974154, 0.0025183627451230584, -0.017299738991906684, -0.01852188916219403, -0.04583782120910026, -0.0037276202181492925, 0.0177580113991481, -0.0008718731485829258, -0.022531520342580425, 0.01801420392725433, -0.006223244294981324, -0.01722937945056951, 0.06376157908824587, 0.03680846460579314, 0.006882958993203984, -0.011902370274668214, -0.04758258611202994], [-0.024965711466059665, 0.013339600399890657, -0.008129025682874911, -0.004152497565063549, 0.02649166620295409, 0.01337339055414602, 0.011811274527340841, -0.0055759701794750914, -0.021815938833182374, -0.04001433274157395, -0.027208325167137955, 0.016993513963714988, -0.003319924167340635, -0.0015869969644665305, -0.02958270530482997, 0.00788366985681895, -0.005715979852787751, -0.020843137116686245, 0.011013906641728289, -0.055177766078104803, 0.013505718769215158, 0.03979982153499734, 0.01552564547341067, 0.026831676590090302, -0.06814792705836605, 0.07055117307473455, -0.0016353359575941846, 0.017911170278972367, 0.018263435241031228, -0.059321367747146934, 0.011790899525726478, 0.01359432700945302, -0.027772798219218995, 0.001304930495043132, -0.015539405578563637, 0.023190158456675526, -0.04671574454608046, 0.034757062819529706, -0.019189376201097907, -0.038595148057425914, 0.01627909237211672, 0.008824316593091417, -0.06534110503236323, -0.025599611455352365, 0.06425465038455047, 0.033368927720597893, -0.0030512587399147777, -0.05045422328719805, 0.03741843632770885, 0.052535263279157286, -0.032407986751745936, 0.047153425912181704, 0.006281379555930554, 0.004778113995375691, -0.01456081925661876, -0.00047728065533187065, -0.02122546661235566, -0.025610763445813377, 0.05577853191657907, -0.03217168500454605, 0.0019572238290499226, -0.04300498845077218, -0.022646795037644992, 0.014034027406835983, 0.06327063541757573, 0.053187842112758364, 0.08331187616656571, 0.060545400973444186, 0.16678452413172243, 0.09459194050228084, 0.12140257324658442, 0.06555801890630303, 0.07158218226282495, -0.002715825702365519, -0.026723249746873713, -0.09162259745863166, -0.07733311565866582, -0.06904319422956769, -0.004572253162188599, -0.024796510563266972, 0.01864494337326763, 0.003682981473298037, 0.03431922595585027, -0.03371161628842936, 0.0034644182124646743, -0.037689550453987024, 0.07243494786040289, -0.0011436036592788292, -0.04328721155466622, 0.036775092108718495, 0.07169348438104609, 0.05224203593899267, 0.1569510803011152, 0.249241092728409, 0.3222018710894991, 0.38421051907698395, 0.4788692007807672, 0.5081148829744213, 0.4883541276576966, 0.27368372449843287, 0.3968592767718587, 0.2826282510680614, 0.1854527783265937, -0.09012199379095714, -0.1554387548828878, -0.25362591476300334, -0.20881696559714819, -0.1305186631896709, 0.002173655068648062, 0.027954368736133193, -0.0020241728707997945, -0.05727723091056386, 0.04951106582282577, -0.014006989661392525, 0.007393293060196448, 0.0354886594715276, 0.04536017651806442, 0.06843118140860664, 0.12291816330521364, 0.24304818922882454, 0.2505130739991479, 0.5256398777827163, 0.5239387351421044, 0.6930111745169052, 0.7565873155331612, 0.6243348698488006, 0.582478827105675, 0.27832494485455256, 0.48427217383413346, 0.2295931472618801, 0.5202648972946364, 0.3721091904349704, -0.010703231508586588, -0.18029313573850136, -0.2537567300681633, -0.31270144693007845, -0.044714588135124717, 0.029003086039281294, 0.05958313552111306, 0.000933982474095716, -0.02362009487001789, -0.005599089842974859, -0.04398153427983339, 0.0436198953342869, 0.017256705723237134, -0.016289502780989052, 0.03911770134808535, 0.20829391486354346, 0.2379650218456814, 0.299360282711515, 0.5313504856262803, 0.5607729704062514, 0.6716765926706334, 0.4308415228428856, -0.029296854242500957, -0.12919480255811866, 0.4340915697879061, 0.18162805812643432, 0.40433307042507677, 0.6824864992526339, 0.5500917141052971, 0.0651623657802317, -0.1996952150018153, -0.3867652900084892, -0.12291786940415143, -0.04052627904164049, -0.049737674146946236, -0.00422634516634423, 0.06697422976749466, -0.05943056672828028, 0.03210375769272172, 0.06892146833551577, 0.08940635436188812, 0.0787879340291122, 0.3362289998952598, 0.2320849340835188, 0.16079957172297848, 0.3459033765688965, 0.6590986992664142, 0.616474480042068, 0.5681709157694707, 0.4612818970330449, 0.21753300209878745, 0.34635890941653685, 0.21755131821235224, -0.09724739841078121, 0.15388671734457043, 0.20222836127541294, -0.0449489712313688, 0.19110311506912273, 0.08718593909508804, -0.2638538628025745, -0.1407492906058828, -0.051845342103980216, 0.012754477502102029, -0.06903427952134739, 0.035192382662662176, 0.0007951193037302553, 0.030800836882036213, 0.14105181127481173, 0.32007651448334135, 0.4283995371361693, 0.440602453301575, 0.2534912040675285, 0.24048952545604926, 0.2579245426003672, 0.12663499952453763, 0.4474827216321427, 0.2738111455310111, 0.2316357850056686, 0.3027016744580663, 0.28701316798134746, 0.11645418022859387, -0.04976735645454066, 0.023617290799673098, -0.11992001831736317, -0.41179465692565564, 0.05959143171583065, 0.2053753041076829, -0.10359131844091359, -0.12299165630044186, 0.016584791086665985, -0.011673820347964943, -0.016941425523829365, 0.045416842009803914, 0.000484800439925539, -0.035061400924611894, 0.11123215880633797, 0.3463998433308932, 0.23065808846060087, 0.07401676375757066, 0.039520515317295904, -0.25092207057138716, -0.23280199902323548, 0.08757575632985058, -0.20198572776509646, -0.08072195464352885, -0.1502852105603835, 0.16363110067341907, -0.1034683331289083, -0.020654962392466437, 0.3070209933924552, 0.02033883255484755, -0.19011101552810344, -0.2819947166471143, 0.2000263844830687, 0.2951824876691385, 0.16010196164026527, -0.07243088781005942, -0.026095914060826952, -0.012257175025710871, -0.05270983758539182, 0.00025870284930713865, -0.05686219635174482, 0.08160236027373988, 0.11354975334051166, 0.14937247143524332, 0.02803443705408052, -0.2817521635140232, -0.5336315463682861, -0.8094030390159975, -0.9226128912673451, -1.2353134799170729, -1.3353713052500789, -0.8999505648599312, -0.8345675321376094, -0.5634410539399886, -0.5344083604299169, -0.18123740273483094, 0.43938079724591894, 0.16336038067216446, -0.09375057040371201, -0.16035202177340088, 0.07882461493439914, 0.35596795729272146, 0.12684679293304754, -0.20244146329190715, 0.010227840984606345, 0.033637149358554, 0.006807807160641715, -0.022043410047224248, 0.019152523270163258, 0.027540959272354615, 0.07156302875794551, -0.19170799643547984, -0.45728645325423944, -0.6754094853361914, -1.1113074613637652, -1.5240008149772877, -1.4625519347699865, -1.6633459873165841, -1.3433219511313126, -1.131322548255877, -0.5440817501536599, -0.449352542987866, -0.7234762771438239, -0.030594435239070954, 0.3072536385258888, 0.16066302723541043, 0.07653135763590692, -0.1336957734237193, -0.0583765752985865, -0.10006122551020137, -0.2371340847700531, -0.15531286433444944, 0.010502418329880062, 0.04109853776515556, -0.01580318278972179, -0.00013139164270792436, -0.029208201344969546, -0.030286674494980403, -0.09873558346107156, -0.2840482031111873, -0.69681305275267, -0.9817095921668487, -1.095309265057937, -1.371399503404559, -1.1228512297142863, -0.777269117185179, -0.047136233508655624, -0.2203443185568779, -0.17201878615368568, -0.011035190167755863, -0.4670916940873618, -0.184187667765037, 0.39630484790506165, 0.08413677596660993, 0.1673490591525422, -0.33291210391707815, -0.38275614965108057, -0.24402820196385777, -0.2997993162694486, -0.14627872554265509, -0.05966268402750144, 0.01744030023709213, -0.018867751217058346, 0.031443592811874234, -0.03774213151453535, -0.0034626609330137698, -0.0526406079314118, -0.30512695722667255, -0.5340629428339333, -0.8145868201894684, -0.6170316388269852, -0.5431634738827044, -0.03438548288182031, 0.8503743284533141, 0.6664270370394619, 0.48230670291906425, 0.47110698326213907, 0.5154851636345246, 0.13642854829658338, -0.0683985962467797, 0.2357685677299314, 0.0035001687618347725, 0.010364201738928961, -0.30639409989343197, -0.4581800227409143, -0.4977359992786204, -0.43435597942642135, -0.033761808962364005, -0.06022605707724553, -0.0211392133945649, -0.012558587214083063, -0.02525022160874994, 0.006743849129090566, -0.0513106477108675, -0.008105338623417465, -0.22229529723301716, -0.40054640060809504, -0.31596943750893236, 0.34967111941723455, 0.3686055771284822, 0.3895189499510991, 0.5343717550542186, 0.12771597938461893, 0.11326308160905678, 0.7097972069673921, 0.4591301201227213, -0.08890955833843338, -0.202608420092855, -0.34129349266884007, 0.014109885656523045, -0.25858108527865215, -0.021272735613443776, -0.2750345215730668, -0.5160722682578444, -0.47718403092714784, -0.1089707691246921, 0.0026118990087101914, 0.03850070425128445, -0.002181375083495369, 0.010122815009687501, -0.009428069421122162, -0.01856296444225827, 0.01054274663974039, 0.13768108621929123, -0.008405878502385784, 0.3444032757534385, 0.8044619238594161, 0.44927068636954404, 0.09700393254438906, 0.22361243219826546, -0.19920853814294168, -0.21828700291507128, 0.20450676239226867, 0.3727037884811776, 0.12869001175285916, 0.0036359293197778327, -0.13540447264596694, -0.1608938050174627, -0.41014034713620523, -0.03768272506913489, 0.10166984696248567, -0.46412299647790256, -0.5752894074092723, -0.20065912420662435, 0.07082727766833893, 0.1375112746426262, 0.010724628643851467, -0.03343814719182885, -0.0372783668484326, -0.01844663466860163, 0.06732006621492147, 0.3017352124591152, 0.22484320869000615, 0.5776401081374625, 0.4054956085936502, -0.02911712573547191, -0.022269603971754225, 0.102592114747739, -0.08795674072795295, -0.2537685526255883, 0.1771071141016139, 0.2159830228710088, 0.5466200937080338, 0.42736990215660275, -0.31986608397749905, -0.4072204866368904, -0.2921828867586707, -0.23101647717656829, 0.11105748256606088, -0.18001747990232192, -0.17426791705928132, -0.030187836931964397, 0.1439819868328397, 0.08619653482432624, 0.014440813936778622, 0.03780918074762141, 0.03601220584896611, -0.05902754602426329, 0.15120382536328866, 0.32601488394954325, 0.33823206132134975, 0.2998785760429154, 0.09691192624711782, -0.5282803955707419, -0.12047243681307454, 0.05515968348289665, -0.5775410671819838, -0.33296336405473015, -0.16396510500674952, 0.06291951256032648, -0.008046726065309125, -0.31661430379875766, -0.23146681694212384, -0.15546940797192246, -0.006954966438510313, -0.03334507255320628, 0.047176754239807536, 0.20728724335282953, 0.136297263290826, -0.04557872261349452, 0.11627845000842567, 0.14343635044119976, 0.024270536190560202, -0.0374614409266693, -0.015470497643186316, 0.04798626471461061, 0.2254903135446635, 0.2594848112692888, 0.14989164198326665, 0.25788088552940086, -0.2173873202849039, -0.3516528024947441, -0.35796717338831097, -0.1515117048773745, -0.5018992435415774, -0.5721076779891068, -0.5303781331436107, -0.20291710580909386, -0.10508098076304741, -0.1172767517692009, -0.22669968335811252, -0.4388627504019056, -0.2621070515012727, -0.38376834529709386, -0.22473980495908485, -0.04550258549697979, 0.04549982706057452, 0.027804992272105318, 0.08659376647909255, 0.1007108045758642, 0.005831931880160012, -0.005746745384791573, -0.03228563704959857, 0.04471193759530548, 0.1259827464496253, 0.1897743925743138, 0.43413700371419134, 0.4194449222516228, 0.09876295607302997, 0.11233684308872988, 0.18145691035896916, -0.14039797341121812, -0.08719537470765061, -0.33097366548406915, -0.36008600725854495, -0.17558049666434644, -0.1611608247007533, 0.06955836589619326, 0.013052063647353883, -0.2204367911209424, -0.12247684149052006, -0.2692443764980946, -0.10045237164323567, 0.3696610576532055, 0.42377255340489145, 0.2522846693126569, 0.09240794055497353, 0.06901042339062045, -0.008959133255583457, 0.002098705051906966, 0.006746696566307082, 0.010725440303497268, -0.03817574204844711, 0.1915010616028291, 0.3010161813740666, 0.0846360755003979, 0.017065208197673168, -0.1077775249724692, -0.04599100786998898, 0.252392310880358, -0.034248308440310175, 0.10528536569981777, 0.4103029721193539, -0.05759721989798504, -0.11445227032118904, -0.09886744514116003, 0.3163232679834947, -0.055227001469936775, 0.02989194376874088, 0.12672501238897182, 0.318070153229596, 0.44465486669183135, 0.22585473314881752, 0.009467814448599487, -0.02067179861532391, -0.011745974192663567, -0.03793285621113173, -0.04195211535062499, -0.0228595541174986, 0.05674819791163512, 0.10286271833910295, 0.09821142210830484, 0.07361455536898773, -0.008727754782717806, -0.21014196942391586, -0.2043861196142353, -0.10137049885500243, 0.15162325094584805, 0.059576833045754236, 0.12382037379549768, 0.20051189317887558, -0.11135326787437469, 0.12859412985312826, 0.0648176653125818, 0.08353988430459416, 0.21847716727246425, 0.30176613910136146, 0.38309890025393245, 0.4985902126788305, 0.4667339299365958, 0.19083111947434092, -0.1061852331755848, -0.0634954727639495, -0.007809097568204174, -0.004980590465907581, -0.032530593560294516, 0.03262418736413671, 0.05070024890146447, 0.046358397091130155, 0.1315381713168873, -0.1792271865201875, -0.11784396901087452, -0.08733944687297648, -0.41109781611069784, -0.28150030597036785, 0.22419916964805675, -0.19181140722521373, -0.25090947002612424, -0.0781202750342055, -0.07222215764697668, -0.18627162303792544, -0.11224095159579782, 0.20946335505941394, 0.17492277349957724, 0.15504346374663672, 0.15128689784458824, -0.0019202560992478959, 0.16114098470746288, 0.3648230134458798, 0.022421524588826586, -0.017143689299862507, 0.002403164291207912, -0.014082776269142947, 0.038855143132865706, -0.04817078019289465, 0.07196030074586005, 0.09750315655323757, 0.19905916098151594, 0.13180244447600356, 0.06952058365158868, 0.09981575865582003, -0.43103479637036496, -0.30745989736588647, 0.19746672031643892, -0.06574655387445397, -0.2657573981216921, -0.08401515401394767, 0.02759880117623465, -0.04574041476258894, -0.18915232805483131, -0.12248907573765552, -0.1370777669724986, 0.05731741132468582, 0.47139441798703025, 0.11425496123226667, 0.02365567632028891, 0.09723551802880427, -0.0037400785065208565, -0.01928870383710896, 0.022368929200096126, -0.011034837351899722, 0.02906596521552573, 0.03625340426671195, 0.01143385167181926, 0.1286187731252302, 0.0801889441601877, 0.13459590670431945, -0.19104699728409547, -0.013254587117338276, -0.19734866184531613, -0.07483919904630436, 0.06752148033876706, -0.06546460160748159, -0.30569442868698316, 0.06725954949382985, -0.0658975629081231, -0.004591390156762461, -0.229059683892806, -0.22513141560081426, -0.2338246940597316, -0.024159279655969094, 0.340358254365615, 0.21347970535775787, 0.17938759765550724, 0.024958097394633758, 0.018317974297675583, 0.009358958116035754, 0.015589340317870367, -0.03105377357981493, -0.036965312302821005, 0.03943210573065032, 0.0098745005181039, 0.055445367653985105, -0.007034474596832125, 0.10860425131550738, 0.03391278050141981, 0.12768026250823378, 0.14180036353531553, 0.19309956988747337, 0.3130339860807914, 0.2278658769028392, -0.01594882322839921, 0.13559533782460106, 0.10799957977656968, 0.01872458765369994, -0.043713322637075926, 0.11246436119955244, 0.13254307972095572, 0.08205572074804485, 0.12122949402960606, 0.25261876011984846, 0.15568000942010177, -0.04210327314940216, 0.026685673131684462, 0.045981385175251174, 0.018782715724155234, -0.009149591282861746, 0.04646423094183773, 0.02914393576788533, -0.03574894843805495, 0.030027763701069812, -0.046281939849650136, 0.034634310410957624, -0.008411641534585557, 0.06735503217538838, 0.12843231157389667, 0.23102816111651392, 0.29035269624171983, 0.03038274432347572, -0.027698741638043547, -0.10417685430175011, 0.013092470902054041, 0.15188543722939313, 0.23278519198824396, 0.26090857112302995, 0.21909001335365452, 0.15503522340929501, 0.0879284031041966, -0.0075927211995392135, 0.08474413117267926, -0.040184460234445926, -0.029336994244161585, 0.012699338904103356, 0.02316900498155372, 0.03647076765442868, 0.07158204476050646, 0.06011129641103876, 0.008843848286329304, -0.02448061658248105, -0.04758341077426659, -0.03384627605269133, 0.008731758139602636, 0.018869361598928557, 0.031538316127673126, 0.042364015708079045, -0.06984014890664952, -0.07068963654585145, 0.026415546646435854, -0.014733266178813972, -0.036942876698166684, -0.058024218101090694, -0.005143241963203098, 0.00624534810890216, 0.01725819995175081, 0.0246284999902139, -0.06660890706642776, -0.011760078889535293, 0.0026151713075622165, 0.011324946322200527, -0.023956374661954317, -0.055491545103771675, 0.014833693480779392, 0.03045324260083079, -0.005374800518360521, 0.01589226867910199, 0.00405844065006354, 0.005765413422528325, 0.03308493081932, 0.002610732277932443, 0.0007689466634277093, 0.016787624936602612, -0.03700071690884433, 0.0015572127974834685, -0.0006582893466091366, -0.04986195927575616, 0.08205213248678897, 0.027544095304670384, 0.01763789627479528, -0.002885869056459035, 0.00599477457347408, 0.03263529630397958, 0.020741184958107336, -0.02239777462327714, 0.027313894831805494, -0.003519688793703922, 0.011251890700238857, -0.02315056520162652, -0.017609902728998116, 0.0013619814532149178, -0.011412252339576085, 0.0119592613443384], [0.06112524499470451, 0.026858141554594036, 0.029362506695845052, 0.04150468878862025, 0.038533215281074826, 0.03395087979733456, -0.020812425913400552, -0.05980209818194908, -0.06576593373779908, 0.026926624699425403, 0.06300735445299467, 0.019118220709165173, -0.02270027526906989, -0.006313550073437545, -0.016143695183108514, -0.011362243771881156, -0.04421523300797608, 0.04009908667733428, -0.0333211934372474, 0.04190929457952123, -0.0163982658919022, -0.04346548722220412, 0.05014725418320545, -0.024293162405964297, -0.011416504461040504, -0.014788534375597923, 0.08268925482205826, 0.008256409409734876, -0.010006144494067165, 0.04729684410417679, -0.029600607114489585, 0.030535300423606207, -0.015862358665730738, 0.019065025053044093, 0.01818276498480868, -0.0061779133741391165, 0.00240694845577619, -0.011348674556525924, 0.011394180773619169, -0.028381537022071815, -0.0071877792018062965, 0.0019951978535291412, -0.09966073288505738, -0.08537557532747929, -0.005926494220200864, -0.041818974308551214, 0.014430000147121338, -0.015368954061556757, -0.0014576186442952764, -0.022727300939113137, 0.0055269975842925124, 0.03132767339390803, -0.018450369692942812, -0.00022078508747413217, -0.06424328204210368, 0.007913645093740672, -0.00871704091067705, 0.015069075718754127, 0.008782816040309671, -0.04115624300358041, -0.08725143656110478, -0.08349814287794945, -0.047575159612481904, -0.05599969155807784, 0.015391616777490943, 0.010443276799322892, 0.006173802370838174, 0.05513038096957437, 0.027870249066089335, -0.09193027994394902, 0.05497960178651755, -0.13225972319355958, -0.030024176105281356, 0.12310575653503014, 0.0389164689745805, 0.03254733397918294, 0.03611469146322114, 0.020200125888649393, 0.040229323729023096, -0.06591500187844258, 0.016462040835366523, -0.02243711322633396, -0.006655877705196807, 0.023786162633286884, -0.007304660200168611, 0.012267903942039374, -0.02669824921624174, -0.014545700780547828, -0.011763332633598411, 0.05812786631974212, 0.04343137551713304, -0.03019212239161063, 0.015477846442623504, 0.024981428577364788, 0.0763832027248502, 0.13302817382193363, 0.11680588276398285, 0.011101482119526171, 0.23176740286863848, 0.3049990212236745, 0.14271158818734295, 0.11199969099627079, 0.19055866227332535, 0.14158383273340663, 0.211823567837881, 0.19031051227462378, 0.11008504417379791, -0.02748834806289375, 0.03017334366223208, 0.022982603845330473, -0.016574324213807876, -0.04183736582121042, 0.02120276172434771, 0.02265334341511749, 0.008988159875910806, -0.01009593407430605, 0.03113860060353049, 0.013828241912820595, 0.018512184077949554, 0.041327845521420756, 0.027137336654963484, 0.0035891831247807896, 0.06033674645408534, 0.10447314548004255, 0.20448604458892947, 0.3451910602490647, 0.38037586473194673, 0.06444381656807026, -0.00850862776086781, 0.1624533948968249, 0.115639564259029, 0.2566076031520772, 0.2740276143976589, 0.33543638068726345, 0.2100535819193489, 0.0028347158133492215, 0.08711374303604769, -0.019062217680873718, -0.033280456661034644, -0.03165676400047973, -0.013399263751984776, -0.016969871464933693, 0.023738593194522123, -0.026514856549415756, -0.01127465830689659, -0.03520708758793837, 0.012026680094217247, 0.05325090833397292, 0.07739685377882691, -0.3038769106314237, -0.19439693012235829, -0.47751322224147275, 0.03612033541898312, -0.33162682699466417, 0.1545820921457543, -0.0664111083002552, -0.3705681931198829, -0.3574196752483203, -0.41075522898313027, -0.4007774917575758, -0.0055561792780508285, 0.06229063430180192, 0.09604580577170813, 0.14449027819721377, 0.055612321040759735, -0.04953443757337009, -0.026845692654514974, 0.031539833365952195, -0.04446176407759211, 0.04635459844572533, 0.010812421337146489, -0.010394579810702178, 0.11557079568236706, 0.13431813339079174, 0.08085460016174245, -0.12911122460243496, -0.10589758447501525, -0.33009817428247196, -1.0258705424973962, -1.2981374644959744, -0.38788807440295586, -0.259585661100903, -0.1327475161245085, -0.2041361597195977, -0.5849482190541408, -0.5967631517730287, -1.1276130739199746, -0.7880494097817939, -0.6129366809534483, -0.28827185330657684, 0.1720303703833698, 0.27569183932252106, 0.07450764592600154, -0.0854268202724142, -0.03949863907187281, 0.01270234850764922, 0.03981483303659344, -0.029079181843848886, 0.0301081549713183, -0.009550379661194881, -0.014926173569698706, 0.07947073603140961, -0.03903996589552917, -0.1439268801485725, -0.5423611061788105, -0.6235992636378495, -1.3805712499046516, -1.2880540201606292, -0.840066644098687, -0.4723808897485358, -0.5789760223365351, -0.8513432762632948, -1.1361842338619639, -0.6675137035032506, -1.3683229482359267, -1.1231658930319743, -0.47312501568819465, -0.4060458410516688, -0.09786055019211123, -0.0018640234244807572, 0.14027822902992057, 0.11962264812039934, -0.03075268933874634, 0.02353984516197994, -0.035270668513018785, -0.06024698758784982, 0.030301804235750147, 0.0003887018510549925, 0.004019763249388407, -0.02817691248672302, -0.25840762323306304, -0.20695348300261457, -0.634325800592281, -0.2935422798970789, -0.9452178156659535, -1.1736489922939406, -1.135995516572005, -0.8959185899470933, -1.4435944063471045, -0.6392311961131247, -1.206150818732112, -0.5600299448527076, -0.8588128990116833, -0.6281880557636111, 0.10108489284323244, -0.14189553219179432, -0.16176555349857852, -0.046523468450464414, 0.10513720708481551, 0.1372041413303252, 0.033835748499211976, 0.10056529332603825, -0.009896486868709824, -0.029618019499972104, 0.016468027955660162, -0.09647817443939612, -0.10377807178266005, -0.12326730112605086, -0.4658275160278214, -0.43774024802718875, -0.36933974197850866, -0.3562983209501253, -1.097150725704179, -0.7290604235773832, -0.7620663916971847, -0.7987461909388499, -0.6459439478280604, -0.7747851298928503, -0.09406419302900587, 0.5010144346257644, 0.05468043217841281, 0.03718060446015988, 0.6286246808658589, 0.3780783868218513, -0.06725788895721606, -0.06055919124505682, 0.0317423047844955, -0.08563597386187656, 0.008750028341650907, 0.015280350241636374, -0.04242515860056019, -0.031656991193826776, -0.010602963771597237, -0.02900945214047674, -0.16921926889037925, -0.14526467953463928, -0.4972760021076687, -0.06917856906410534, 0.041268266450670464, 0.004983401245865054, -0.3155298222411473, 0.2158069693146733, 0.5522422471496835, 0.19687834279476205, 0.15245324455982442, 0.18070462128946937, 0.4686019136902062, 0.6719812364416076, 0.2649665085482987, 0.1635682504613888, 0.5001404080374207, -0.12818568573593128, 0.15700447811214635, -0.1557628309569168, 0.013112392919250015, -0.06290658540424011, -0.06025452183110828, 0.006284568848295365, 0.005836552757267914, 0.014794707813636324, -0.010406591821495283, 0.05083846677411134, -0.30745947962725406, -0.23309790556230953, -0.599332899137143, -0.1833437956333327, 0.4867674059366466, 0.516586323599325, 0.42240420734351036, 0.3406021223244957, 0.7099087590680803, 0.35603409557787125, 0.5047657239523838, 0.31084415921769387, 0.4027506969648949, -0.4509113223069656, -0.5738688651253873, 0.12511270021084847, -0.06850994013243407, -0.20325419325214952, -0.1694168422429242, -0.2810386598567823, -0.32530011845448, -0.18370234711722994, -0.08290691196988684, 0.0332764059901216, -0.06097881272752894, -0.03263721572043086, -0.015279907558196732, 0.06166195932455372, -0.5006811173994499, -0.395131552379405, -0.3020041282896641, -0.07925734848362283, 0.872127621147743, 0.4845822469228814, 0.277025213427079, 0.04787679650012049, 0.9589396738705567, 1.0494884546298868, 0.10594404878830734, 0.26510665678547923, 0.08884203241933246, -0.7297402111177196, -0.3477315448721061, 0.28509239634213646, 0.26453982189116676, 0.004177876194326466, 0.04665940875644863, -0.21835049991562883, -0.09838821275601395, -0.05720064275210626, -0.0802220258815043, -0.02185492298993316, -0.005476846845030821, -0.005095800000556402, 0.03674170509188733, 0.06769885547353123, -0.43484961103524855, 0.31856717240616733, 0.3500820030567012, 0.07937271760037716, 0.6011279475618618, 0.4153963784498578, -0.06774440242060113, 0.14622712769772975, 1.1364814025760819, 0.3622885834312454, -0.6676190866921831, -0.04552813903256714, 0.3504562994074465, 0.13065749685418768, 0.3579377003449815, 0.5562822512091816, 0.33979785443390004, 0.4057521821943258, 0.386295853144195, 0.3038122465066171, 0.1917427208965499, 0.07440421255864978, -0.04055286923710951, 0.05165362261619968, 0.005267663622320204, -0.027449579556043886, -0.005155146270451985, 0.10005784460300698, 0.23214772828237415, 0.6737111517248934, 0.30642213213385827, -0.027345818744305708, 0.586296975120199, 0.4898930892694429, -0.007519480101715061, 0.43017864280445733, 1.2586993975496095, -0.2928713111316798, -0.3754483845658814, 0.09110841470994412, 0.6072061033863755, 0.4672285689195319, 0.2706437166504132, 0.39430318754316557, 0.07071906261181965, 0.22135151487061283, 0.40688717212908276, 0.36934243412201595, 0.21596499758383958, 0.013258494086581963, -0.07802712042850253, 0.0143163802486349, 0.042191274597100814, 0.014253442062093504, 0.0886330616902648, 0.15563211870157337, 0.30522821114206683, 0.6426299887150432, 0.49305515158281776, 0.31839016152642885, 0.3423558953985264, 0.5957472229921836, 0.23052172619689448, 0.1362141492798685, 0.3203310656811184, -0.15480740879486585, 0.4914836918322853, 0.6555022970506434, 0.5438319335000569, 0.6454885824510799, 0.2971154579629931, 0.21686996740267372, 0.10244499257649965, 0.4093550671613907, 0.3728672394560815, 0.2849107825491146, 0.15445574964889602, 0.07631889210599033, 0.20978041894570426, 0.053462198774861955, -0.03590593334999038, 0.042347411252415555, -0.016575664244196892, 0.15851143999617523, 0.148441731977075, 0.5146728069304887, 0.7041695464041553, 0.7550002794339228, 0.44975089636751714, 0.16914945133184237, -0.13723620284202348, -0.14337069518609824, -0.06724374094298612, -0.16394964374999527, 0.3969869172962332, 1.2193342198392771, 0.7339718555218706, 0.8218773254997594, 0.9262301672831912, 0.7578998608245535, 0.6227567682435833, 0.6201394503991599, 0.12377253669827154, 0.0994162813325241, 0.15361800034160528, 0.17998821149006447, 0.07578130969707199, 0.026871074895734003, -0.006377321655509957, -0.036954715308241404, -0.023690235065080462, 0.06182204000472589, 0.23962913689490237, 0.3783512958477826, 0.7588937374257355, 0.8326170235010223, -0.07078358597021965, -0.15613550876401186, -0.3000332430140973, -0.0644960930027769, -0.44352557092126266, -0.1959534552571911, 0.09706085921905548, 0.6827794762595506, 0.7899573080129256, 0.5829196495064782, 0.911332420563738, 0.2959464742442336, 0.4061310996084219, 0.6848706057502946, 0.28137553534509857, 0.35259560303979365, 0.14020796644238978, 0.017077295317099037, 0.041059271374697025, 0.05093415630953923, 0.022939352139061408, 0.01130730330328687, 0.005720003235317012, 0.062066498897119064, 0.13881809525130143, 0.3403038161531766, 0.3598312846706082, 0.1985685571561093, -0.08302065274042403, -0.5814690309486447, -0.7700311784830423, -0.030326177694205696, 0.45500701204214583, 0.022474082062249597, 0.5657293249805382, 0.24270244174116132, 0.5668704750098925, 0.350642331335166, 0.26165655084566153, -0.17762822831187178, -0.025486966483835086, 0.21193983901341584, 0.02219516717200438, 0.04665661780701269, 0.009449107736833882, 0.004941743909734303, -0.007536391869564699, 0.0110715089630793, 0.018219086977523374, 0.037879190402961484, -0.02157090784761741, 0.15198481039756598, 0.11477501194267191, 0.3048434393520743, 0.1086024266772955, -0.24648630807962985, -0.3950528508821311, -0.3418175432085857, -0.5528494517992658, 0.03241311566201331, -0.1953164323227684, 0.3945113189905076, 0.40824900875396886, 0.03455509825975428, -0.0022468300879540976, -0.03861733960002629, -0.12734934571953002, -1.011355518931578, -0.46705432840131245, -0.18794907538927635, -0.20532889720786066, -0.3329567043930546, -0.2585196448458594, -0.15774051967914401, -0.0021063674372297173, -0.022767963769675274, -0.04919837334813816, 0.03792998894096923, -0.021389972665483793, 0.1012458813944032, -0.07431257529771731, -0.054944759083610024, -0.08319501146508473, -0.1099963274794133, -0.11407387973087822, -0.059052778700714036, -0.0858613030062723, -0.10344675815497047, 0.0008387993641471276, 0.09420536028724061, -0.10734583233373414, -0.3923853635598116, -0.33697382905444795, -0.46240306429783923, -0.6730920316272094, -1.1625649271330598, -0.49208222180488304, -0.4428401385651851, -0.3458532437628846, -0.24668375916246224, -0.412456728276043, -0.2315351967389889, 0.019264577078186754, 0.017205093724556732, 0.04091424475738361, -0.017435905370844735, 0.032945337299794264, 0.033262302157374246, -0.07888459452524667, -0.04044269265711489, -0.20691412994207417, -0.11205878368640618, 0.20679411856814345, 0.05937817729297395, -0.0030520433291305457, 0.3382654034169927, 0.31176172444028666, -0.1565538374325094, -0.7488584403245347, -0.20556412010051534, -0.4949996881159285, -0.4702546747903366, -0.4643996421348578, -0.48587726404763365, -0.41363619026660536, -0.26106899844614717, -0.20913529343333745, -0.17295088767462827, -0.2455474587632682, -0.11166946101679938, 0.05486008892909918, 0.011439374054822602, 0.03192918875405837, 0.009707161502425739, 0.00866284760592297, -0.05601530242856093, 0.03348600383524329, -0.08927385936450506, -0.3997278882573873, -0.09172387495660979, -0.10674844933220656, -0.15590886122995615, -0.0886959486285901, -0.06173296079344816, -0.5348314059632028, -0.5598851441880922, -0.863516959275785, -0.22768772104832988, -0.3615209155252111, -0.6787706550448518, -0.3202839554969205, 0.06462539005468175, -0.14821125881994374, 0.09464657608341143, -0.2753943522237973, -0.3745187179195175, -0.1613387578018402, -0.02694951647797076, -0.0013400661134712064, -0.03300101955225634, -0.03973646483980906, 0.038826176843573715, 0.0019890400457960354, 0.0049593645339943175, 0.0735108760603911, -0.05320371120438858, -0.03481565098798967, -0.09755084358539119, -0.12105540363965833, -0.007663331956921997, -0.2175455695797517, -0.396453174061235, -0.8465136184440538, -0.9858500197892219, -0.391255804962243, -0.8159169447196057, -0.881153639988737, -0.911949783696474, -0.2452752883309577, -0.10733057558947166, -0.20293508725886208, 0.1012975664905585, -0.32513182296798, -0.35172019356562917, -0.2900857110939696, 0.037024767761267514, 0.01936021740468358, -0.00587245754975377, -0.041446966065967726, 0.011337117651908151, -0.09194063254623551, 0.031168852025563777, 0.023222533753444387, -0.005525830362080188, 0.07152368739494683, -0.22994230376282154, -0.35087643426122034, -0.34805860733361743, -0.5115305494508435, -0.5001818096786479, -0.7470275070894832, -0.3078686837420284, -0.1878894250086951, -0.517798251431481, -0.2400774885339439, -0.6447947204529276, -0.17613393616626827, -0.03647507735903917, -0.0506559030427809, 0.17014126837174076, 0.004178862885777698, -0.13149927028507719, 0.07838068127670725, -0.0010781374267520467, -0.05689661659536018, 0.02880470603091886, 0.0072703471610251, 0.0048271035950540305, -0.013324677854293036, -0.06902958193776665, -0.05167147383498107, -0.18899775988162978, -0.1314752484031618, -0.3264281332631106, -0.42327995919661493, -0.6185128480279194, -0.11092458676777395, -0.02887109822321609, -0.21479597469635087, -0.28970674740338276, -0.4967385135846403, -0.05035707360320271, -0.7125130716484799, -0.7120328938214169, -0.41640501795274976, -0.5920596810960895, -0.40853826691690026, -0.12094287238459822, 0.11871923038973947, 0.11258214499090904, 0.021592182018873994, 0.0009215682465743296, -0.04125453689947377, 0.014950481818460693, 0.02685600948324297, -0.041572321917032, -0.038870474047866435, -0.008309479981630504, 0.00844768441954456, -0.08425116228458637, -0.16638237102795053, -0.09935886893673446, -0.22131505532442033, -0.2506252653724417, -0.20814111011092037, -0.046694943944248, -0.2539449626165654, -0.4354860972836157, -0.718406651511492, -0.3583327608861108, -0.5698698808694943, -0.3827555085655372, -0.36401380536447925, -0.33341366296325753, -0.3931381188932437, -0.33182583706288826, -0.03928363444406071, 0.01806264596058839, -0.03224129935871404, 0.017149297693477675, 0.0012046083842266514, -0.02892764841799289, 0.006873665501556309, 0.006640644547178237, 0.002224933790781805, 0.019691937369540793, 0.04197132448934544, -0.0014808571834809049, 0.012764197402742403, -0.0310578359628346, 0.0605973034302156, 0.030412165133083386, 0.0263527566055671, -0.009634931518371328, -0.046055926606468595, -0.0006181961173046004, -0.08090803620003485, -0.09781084646084597, -0.07691105461264319, -0.02153624400688456, -0.07876768617343322, -0.02665681916009567, -0.002807997525786618, 0.019394654003330725, 0.0611336433397579, 0.0035333715001784364, 0.03466788273310352, 0.008488436727297825, -0.07570822698952065, 0.013063317844830117], [0.016484487684263704, 0.025883293554434843, 0.015715449660908227, -0.0013066680615433817, -0.07494838279121713, -0.04541392798095274, -0.01369365021328714, -0.004733837873817252, 0.015635522880067598, 0.03318793299731793, 0.021955601760539584, 0.03378665560846316, 0.009321503417797337, -0.0048634134275447535, 0.012477934953423845, 0.04041723294387878, 0.01922549122731158, -0.01611166152318395, -0.025411851017230792, -0.05699026545421785, 0.023720591703874656, 0.019678830391512768, -0.07894961392378967, 0.015582794886697957, -0.00444404805725968, -0.03095518900273847, 0.00978248873337149, -0.019676729762693843, -0.012325867326801744, 0.016865443359443125, 0.015596225355690595, -0.030097075035130406, 0.02873225000865005, 0.010076028139234203, -0.03326226426681376, 0.07455028061194709, 0.0029791978271476696, -0.020725938371417493, 0.03358733006025616, -0.044389959908800444, 0.007525407063142387, 0.0018988324369460287, -0.021513435167480808, -0.032716480217464684, 0.006857788562519708, 0.028650701855924228, -0.04033221535109637, -0.051083005371962295, -0.026305355610617875, -0.046990870107379505, -0.033619552815764946, 0.024871608480850373, 0.006656545966517896, -0.009797297153009064, -0.0742727682599844, 0.04720270756693088, 0.012774902097421015, -0.03248595940023616, 0.02737254931435919, 0.003324793762298319, 0.015948794985114114, -0.02790225538352831, 0.03743411712068365, -0.031616982733768055, 0.05970121959754897, 0.07308409253099259, 0.06379640634791744, 0.05501970887243763, 0.03713655322238967, 0.07185548220453818, 0.1467534770053098, -0.0026727972595670217, 0.09516188283553527, 0.08645307899225657, -0.009181717862997603, -0.10423510986726726, -0.05389857615546083, -0.06340044537791854, -0.07344748873918343, -0.03497360600399905, -0.037867770329963864, -0.050422593558553455, 0.022791838531941243, 0.032262510220129006, 0.020878201317168818, -0.01808302159305231, 0.027435462361497916, 0.004926169806963651, -0.06298095127445917, -0.029917461379620838, -0.020551958197364252, 0.013889076792269396, 0.004489734891027483, 0.1778661889068892, 0.029692471630033853, 0.19905264178309987, 0.15095701605019282, 0.30055567642212727, 0.12461405948127552, -0.08705777154248776, -0.1755022619141141, -0.3292188828475906, -0.29230823945148476, -0.27283402313623106, -0.465566696573123, -0.11043950181094948, -0.12011471191200972, -0.04535575789943591, -0.030597409963944597, -0.027753929726526634, 0.01772584822652861, 0.021456295747075717, 0.0232907885681731, -0.05748135609130382, 0.0127551384282715, -0.005282297527864698, -0.020777147047397273, 0.019725059620545767, 0.052297952677452526, 0.03038358454037141, 0.13046780424167465, 0.3254093913015056, 0.32560671238105643, 0.021779453257249504, 0.2579252164361568, 0.07497706032795075, 0.16688041955023644, -0.06632513021449621, -0.2843121899987724, 0.06898274020150534, 0.029333817670761875, -0.055922483376997935, -0.1472272973600181, -0.3151819748793807, -0.21648044670405858, -0.225359994557803, -0.10020860796809195, -0.09564454886560103, -0.009593407212235297, -0.012207510016695658, -0.014088061365353817, -0.05820326015491777, -0.012958781572076845, -0.064479724583013, -0.13221709694149333, -0.22245222592721348, -0.09763064995384259, -0.25905876354515267, 0.2326242642888712, 0.5240299797965037, 0.4732817439906457, 0.44753444988271035, 0.3793100161644225, 0.2716571250005942, 0.16156101025078495, -0.03687422135568121, 0.14853095730514496, 0.21912315422626566, 0.24880137924233614, 0.07699342348707494, 0.1920911099771863, 0.05276288239908801, -0.15772501906729014, -0.30851931091173534, -0.2905032229941788, -0.10306185935792037, 0.024355856149458864, -0.015183575152832208, 0.005399404493716112, -0.008765230740606903, -0.035906867136113345, -0.007315711513603557, -0.15377638620807835, -0.32835379883313326, -0.2883360395256905, -0.07834852675557345, -0.17267249740609986, -0.004778490849287818, -0.3639497179947824, 0.12795969270305352, 0.14642769859023524, 0.006253817036751782, -0.02625137251853897, -0.14873774957778207, -0.05997525041723088, -0.012403123637853003, 0.2903888358299264, 0.1320286953164085, -0.3638375186045281, -0.18505051802241365, -0.11483524861873542, -0.5703507437437112, -0.3009134702363384, -0.08446583008969141, 0.016303922034004496, -0.025803991611217148, -0.08818582502010752, -0.02058957362630258, 0.01349805833016775, -0.10369798391085744, -0.12661851490069323, -0.20685253403163179, 0.13447504197062365, -0.037366705097019455, -0.11499711625258051, -0.21982740345454302, -0.1907266350180213, 0.1510853288642151, 0.09033246347811967, 0.023944977974001237, -0.19386773850900055, -0.3825649211831097, -0.30944372039234896, -0.4262779113524969, -0.22004425693276097, -0.18528857599230955, -0.5559355773649409, -0.3691170216854012, -0.06398541519321166, -0.7393134276456472, -0.3089198063346592, -0.12080267670421603, -0.024341106739889762, -0.02633626420659069, -0.008654049773415605, 0.01734093798790007, 0.0018656754610058299, -0.11930892553670137, -0.05228723294648851, 0.24579468278402006, 0.33415084610073964, 0.1543420220252052, -0.20007125181339858, -0.4863249735422174, 0.09058428300689124, 0.26151869649319415, -0.11644251299567776, -0.1821759718071288, -0.2533582448919858, -0.3777804149777249, -0.25183382555348033, -0.007804537202365556, -0.4285004831728311, -0.01923199362012494, -0.1865047009193999, -0.40975812499726, -0.5644084122109571, -0.1905103005450222, -0.29092115160191634, -0.2690286588871997, -0.08835765927859665, -0.07890085137980074, 0.008258478321859242, -0.011276406908330766, -0.006149404004832056, -0.023361357007069247, -0.06167224724044268, 0.3087408373513984, 0.30125969648019624, 0.288149595923036, -0.47568376839868337, -0.017298279973323828, 0.6942232615815916, 0.06280502594187502, -0.4169538810226472, -0.18603696760293803, -0.041456517615200146, 0.17902120119245202, 0.0738316826275344, 0.17645767678001967, 0.1759504734272212, -0.3122612069915457, -0.04139952563753149, -0.3508508313598032, -0.37158165279928934, -0.18917784006157873, -0.4469510335679435, -0.2079598643526451, -0.08361265741227253, -0.055459690935738194, -0.00602886803436204, -0.011750082386310949, 0.016135805856122027, -0.09040733414527057, -0.0783470356535632, 0.36492155849696667, 0.6715516326013676, 0.2717126528761495, 0.007519063222113349, 0.19310710527351818, 0.2289702199069266, -0.20258729852932783, -0.7466793576935922, -0.47157340626647104, -0.3568791440374906, 0.13071369108246048, 0.21325295167306788, 0.11030145138434842, 0.17273634827233006, -0.5100299617981676, -0.17390530746233565, -0.020335945851336773, -0.2805005501377322, -0.34704426342904077, -0.3872460069387732, -0.28729253275292, -0.07808305796524048, -0.0030166560176967967, 0.038934128209372594, -0.04089467959604194, 0.03755689355827903, -0.13336119384272602, -0.14395965384634585, 0.32044738555737873, 0.745323761789733, 0.15646253056104836, 0.0006280417243197081, 0.3477495507566705, -0.11015929209466482, -0.4315883956964593, -0.6412941515970526, -0.7991654746912205, -0.6498941636371799, -0.6617107509804556, -0.3347190751324729, -0.43057806548327043, -0.17011456177481937, 0.19214138712144685, 0.08962628201889578, -0.0638972388770344, -0.1322233804036175, -0.21916058359116924, -0.22960904971377155, -0.0995217653421645, -0.08867671290767781, -0.06829043819002946, 0.04967478135626959, -0.009368117172731418, -0.06265494964548939, -0.010890567437640181, -0.01264150641956908, 0.06625222156138327, 0.5120339174551706, 0.328405750333557, 0.6557740481467972, 0.13882264896609528, -0.6135721335678406, -0.5552944719590494, -0.8682336738801854, -1.2251838378786684, -0.9616920919365223, -0.8900119802098264, -0.4885214760769174, -0.37567842373001287, -0.6982431527964347, 0.3313068342621064, 0.22174445276143223, 0.46860126378154554, 0.23523828474998978, 0.08897602245352644, 0.0502148066047819, 0.022630098066364266, 0.000886919414721705, -0.03590289177205215, 0.010366657582834822, -0.025179792343761668, 0.004010504009515642, -0.060535694941514735, -0.21454989411871028, 0.1817277504675994, 0.5525446826376396, 0.8186602963948698, 0.32471686262808913, -0.38836769802256227, -0.4137399296919006, -0.46214950534297006, -0.39947861247615285, 0.029458336598763266, -0.4194125531112991, -0.46375206152039433, -0.3592675564273377, -0.5546296690819188, -0.5636553708151842, 0.07430040957600613, 0.5016433872792219, 0.4716576984829588, 0.42940872834963834, 0.5467090718856383, 0.390156600227016, 0.08322738708397415, 0.07296566204365695, 0.07517262767367171, -0.0029915056788499123, -0.022661706068553653, -0.04123018589578107, -0.07414300189477786, -0.08724747036160854, 0.14589201275890837, 0.7578504907780438, 0.7806956750140214, 0.27402014964875443, -0.23887940958815634, -0.2969324619722192, -0.09869605164682264, -0.06316860337222446, 0.006593717047148988, 0.03478282527278058, 0.45647417432118265, 0.17028517532545379, -0.40617666376294237, -0.28388972335890617, -0.20627744615926813, 0.3144683580459681, 0.22095476829926927, 0.13663472974233368, 0.3784400863126356, 0.5051085433923957, 0.3283300081124938, 0.16293104942647432, 0.005638687723664471, -0.07738108385556731, -0.06167664018309881, -0.06539643890835851, -0.023684174734319614, 0.07440430940115357, 0.4882521154112303, 0.602753026950969, 0.6770430601947461, 0.8323066968289914, 0.6158888821697753, 0.24445424168822347, 0.18522067432436184, -0.030732760539181794, 0.0315151556013453, 0.048820242760922485, 0.43942828463134337, -0.08004852157481156, -0.4096538088994894, -0.7264726278667483, -0.21351713231890182, 0.18767094240145868, 0.051405658688996894, -0.39328015833090857, 0.008914995284526826, 0.6072483256359483, 0.5109018294676257, 0.1412730247757339, -0.008755902882176843, 0.053438475295794576, -0.02566421812520428, -0.10730658992981419, 0.05180912149321638, 0.09632714415142549, 0.20746339213903622, 0.6650869225303196, 0.6049915776465818, 0.0866809072295126, 0.1881162168659217, 0.13913420975372046, 0.11507743561136537, 0.07021945634546661, -0.08487439151709006, 0.17350519555583968, -0.013812168937077882, -0.06813766169299813, 0.1624115025497891, -0.15409573432956983, -0.03103086592182449, 0.15403114581967595, 0.37135850861955055, 0.18045653071883597, 0.41640119832358413, 0.5575550708419874, 0.7033549544267733, 0.3046592223454859, -0.008059078338358564, 0.023425619310778214, 0.0010027524163610578, -0.005991533006510979, -0.026948538772265527, 0.06940227226889961, 0.30197879197743693, 0.3432750941914159, 0.09617697608105079, 0.2014938323385354, 0.17830122687951144, 0.3396887897921533, 0.6261789290809647, 0.7760198762599452, 0.08240103389175649, -0.06397110535661776, -0.22167829336237754, -0.2227751583906581, 0.19654480534804056, 0.06687780965070352, -0.2247266728864812, 0.19163075947598893, 0.08198380473412971, 0.11449326167905151, 0.2957098710179379, 0.6389047298237643, 0.36348478318461774, 0.005576834111039196, 0.0456950991025526, -0.02587214664349485, 0.004107854283107671, -0.08237738754598331, -0.011729471292659924, 0.19447567590099096, 0.2577116234066566, 0.22837429289761677, 0.5340481653268948, 0.60810811593495, 0.11246851582832067, 0.46914408109024913, 0.5210868707982166, 0.5689937856963462, -0.049552966222909986, -0.05545681348462187, -0.4812519969462641, 0.07695429804045092, 0.4262397602198131, 0.23300431220288667, -0.25481034924953055, -0.04925107972543618, 0.42504051505581303, 0.4840180733518309, 0.9452606567644357, 0.9051285559136082, 0.12109200626182477, 0.05199305972103568, 0.02878098412077229, -0.06525431884708077, 0.04748037206238955, 0.0814317457323019, 0.10805108556832481, 0.062005757229030685, -0.16408487740219113, 0.055396926317132444, 0.44786783928920526, 0.3337767049189636, 0.23839638856520004, 0.499743409396684, 1.0165522841250774, 0.3037446300629227, -0.016668244571962306, 0.12082277111126132, 0.10625127013225372, 0.35209390878305746, 0.31218902973489887, 0.09735107966149743, -0.25424744749986605, 0.4514233466598742, 0.6554438687165983, 0.8610645815331955, 0.8007048662590739, 0.47320572543151007, 0.06831667809543747, 0.010994275405602843, -0.030853988075289628, 0.012023090995955315, 0.05987533140070626, 0.04942480302876808, 0.3132734958402131, 0.25688314351302627, 0.019280252673188517, -0.3635662766395978, -0.03119745191227494, 0.04512793798782079, -0.1261651080461985, 0.0072740999283837735, 0.4437791282820557, 0.1735672614969596, -0.17807252190212813, 0.06762506556739631, 0.2121208100652829, 0.2613558294565058, 0.20920118720968983, 0.04001306304005036, 0.04010204929144907, 0.14366617191473005, 0.4871436580646094, 0.7091675007424715, 0.5652818447360389, 0.2605866941318472, -0.034842864346518315, 0.03900391929909521, 0.02070948450353208, 0.03302217961147353, 0.012567835735454336, 0.1259422837600644, 0.13005013463574494, 0.11386176422468128, 0.08738685741880804, -0.07780293446942621, -0.25933559868320416, -0.3845356940051822, -0.15251310054049566, -0.15585671625609965, -0.061704963581395246, 0.1591837557992806, 0.29818994859390513, 0.4201300327977917, -0.13354067866787234, 0.2587346956407139, 0.08672474097633831, 0.1759720463107684, 0.4938849093952911, 0.3035911058499088, 0.4789492373763116, 0.6777280114021993, 0.7290262942828962, 0.15246326756299428, 0.046344909307444254, -0.018252591542143735, 0.018593580270917398, -0.034756141828777204, 0.024853433799484983, 0.01510687917621694, 0.0993329090504795, 0.16460703243070937, 0.16276183949418221, 0.07115726274172066, -0.03543830487895175, -0.20936182395725272, -0.2053866098926987, -0.04803519774541829, 0.36329397228816257, 0.2824586777001616, -0.1627706381857482, -0.26141546269708826, -0.378302875067134, -0.09354247855946123, -0.07763087900015872, 0.35249940165015364, 0.3358086261828174, 0.5956000879598106, 0.5980088386144973, 0.5135678182578934, 0.47998945497227424, 0.21988958335635314, 0.15709881062393016, 0.010890897965439305, 0.03349237314391483, 0.05536034117600105, -0.00037794059440385866, 0.029028882949296515, 0.01542109143529781, -0.0799903560491617, -0.014312667027921486, -0.12148036126649939, -0.15461818304687217, -0.09459529046435344, -0.2595931471805672, 0.03868967375926967, 0.31424955288694584, 0.12349201009002915, -0.23887132910414896, -0.3414143658648307, -0.5873194738415691, -0.7454663432371622, -0.6836135788882685, -0.2698871143819996, 0.06179187076060908, 0.498015176754745, 0.5500045014127141, 0.4961433145040389, 0.3455790518363854, 0.23823406083607385, 0.07455442821941093, 0.010130741262020343, 0.06416634841346047, -0.012434024180373487, -0.030969672871917354, -0.07050553136856784, -0.1389255267147484, -0.07915067803966917, -0.2813410070574959, -0.4696004038338723, -0.5143430604596452, -0.393710395105508, -0.43218204519495185, -0.5289380429618579, -0.4667798152368389, -0.3047182686030882, -0.36081063259463386, -0.6232613026084364, -0.7945716383240805, -0.8630238507702174, -0.7360272889884396, -0.4295190342332088, -0.35773067291106836, -0.1561812722529338, 0.12397802586665516, 0.16852882625445034, 0.11631498084786389, 0.1273896830404548, 0.04576604101554478, -0.03529343904131898, -0.03568501808769791, 0.016846128643814892, -0.034229339679280366, 0.013386971261673963, -0.027137314971017765, -0.09695566527465313, -0.1108420930180114, -0.07279405556371896, -0.22186794498698023, -0.39524748934033943, -0.49632733829095793, -0.5532424490267103, -0.4186123157020927, -0.5099818893790236, -0.27117918420280496, -0.512579512015194, -0.45338636848538977, -0.2665752140066202, -0.36517699598183506, -0.25626601876728133, -0.375364554190737, -0.1256342494821209, -0.04222016338843872, 0.02823902936585477, 0.005399005921936416, -0.03072070082261183, -0.055340320114452696, -0.03554476634880025, -0.021642369077628884, 0.027927256631846153, -0.021808701881842384, -0.04009531441830748, -0.0010220867723863246, 0.04679986288680445, -0.07888625131096959, -0.009413093474465214, 0.019724042447463994, -0.07198076627226592, -0.09269756669768692, -0.1077446926577094, -0.18495042348983165, -0.1504476732268985, -0.07152404437432612, -0.0032885199960542913, -0.07920655712198173, -0.07195060697197832, -0.09644452347580872, -0.031849398098491036, 0.022465437151731493, 0.07502266955268394, -0.00963312262983722, -0.006628088505725579, -0.05038264130088328, 0.037014488962689975, 0.0012460961453781474, -0.04312901345036526, -0.0399100802739795, 0.018443364364340707, 0.05339494501551949, -0.013808664220180414, 0.03889864576192789, -0.018483023955039944, -0.0053327307661948315, -0.005772291178178629, 0.02988392714282727, -0.03691006392436294, 0.006729256724998638, 0.04279991258223935, 0.0539998178773738, 0.03080780510495498, 0.005196563639519798, 0.021911149718905336, -0.028332239622924527, -0.0031721129691631624, 0.069090737192835, 0.02707905822361793, 0.03996584094373585, -0.025542022840027375, -0.014171415715848922, 0.015339470439927881, 0.00797881933551224, 0.03699832649458238, -0.08781728289915935, -0.026503581746034677, 0.003838510046319313], [0.020124682220042975, -0.02783917272681003, -0.013239581906008387, 0.03780150063184173, 0.044085424744153986, 0.025156435354536783, 0.08031330258400428, 0.0017343820613133479, 0.07697227290597694, 0.057298055205535235, -0.02104708429379887, -0.03798015142733647, -0.01733764752434631, -0.053510971691438966, -0.014561000219650256, -0.019704656343893578, -0.0040487071010214355, -0.006025208583764708, -0.006017157677483709, 0.04808559431580957, 0.01697911705410665, -0.02723179515275784, 0.08825225043949042, -0.002679642053577214, -0.025272599044652126, 0.016862316351471687, 0.031408454330710614, -0.05165567034780233, 0.02717595972307003, 0.04071817171995288, 0.0614715801303529, 0.03475079705218332, -0.013859466315341957, 0.02510279320740141, -0.0027131006518069352, 0.01385566695977145, -0.045373426737986694, 0.0011949957408101456, 0.05724462694350375, 0.08548866653969062, 0.12700445470632185, 0.024857243722701372, 0.029901080371613036, 0.04181732709467566, -0.023915891648769966, 0.05103577559521451, 0.031642791428007314, 0.05075783868080214, 0.03127295481272161, 0.06178086463144753, 0.03721832805390376, -0.025156018626354904, -0.02241427846801387, -0.04017582281571018, -0.0329676326140134, -0.026703952689674133, 0.029245055932068494, 0.008260343514758564, 0.04447853297901197, -0.01740853413475871, 0.02164707002051224, -0.020008021771273716, 0.04232825125117536, 0.046354976340967045, 0.046436691959477264, 0.06755125353661204, 0.024541236355696237, 0.0811723094006583, 0.11104853048799926, 0.09080138499947932, 0.21045923639471883, 0.20311216917193137, 0.15043206027660883, 0.2354114762639046, 0.27708973005314824, 0.19102875844279754, 0.08656521111153175, 0.136745993708911, 0.11601196843707011, 0.06404112863280396, 0.06148254287555919, 0.0071253399736272574, 0.005540709833919299, 0.07505068467943193, 0.0046859601130541575, -0.017526181970061814, 0.039361384821992036, 0.04765053181192551, -0.01613972507916853, 0.038906750920012716, 0.00034148736532833493, 0.04211995867038866, 0.13542326546367023, 0.07704947016443452, 0.08242762304266352, 0.07872031386586877, 0.15062601047507423, 0.34739856420955784, 0.2811897228610632, 0.3490555052321855, 0.30651095042945653, 0.06855417303366149, 0.30487797238610753, 0.34572401138145464, 0.3567233573485489, 0.25043756698620395, 0.22486766891814366, 0.10273274153491549, 0.07202636753400607, -0.020070028910860876, 0.03277496973265597, 0.06041574013718264, -0.001964831127325655, -0.02134831152641841, -0.0066518398298996955, 0.028981852958185585, 0.01948923277425792, -0.023608528514836663, -0.031889019475713175, 0.007396983462877347, -0.037306633402389315, 0.013354589186651188, 0.19010108186034147, 0.19866036119078287, 0.2372607614055519, 0.2614410413382034, 0.1362326882250343, 0.6743734497082038, 0.7322393110519451, 0.22939269954381714, 0.09904063360776746, 0.21919809679315674, 0.012843965636187317, 0.2961687910826312, 0.07718544850645383, 0.1727958646843397, 0.14616432291419154, 0.06482753284796723, 0.005748529032116278, 0.03166384286247859, -0.08619578226434657, 0.001146603998077852, 0.03504408330952534, -0.0529218964941003, 0.04930991845251179, 0.035511761967671564, -0.12647403134905205, 0.07276592885339152, 0.02557539855262712, 0.19054508066023043, 0.16378586771963086, 0.030176418872632622, -0.0705706029577803, -0.09711990523054603, 0.0727029689834864, 0.05808627294393655, -0.07056032450354405, 0.7952399063013518, 0.31023731497432505, 0.4176464885024232, 0.10261375580027234, -0.20568536970852686, -0.15761896500106587, -0.11539663294138902, 0.1609464562333844, 0.10483599843429194, 0.045134846223587585, 0.04842625638485493, -0.013452228750656107, 0.03407961437682744, 0.037872143680158336, -0.09286247021011661, 0.006871848440912759, 0.03718863163463734, 0.009961690369635639, 0.12199519945727988, 0.18169596396582458, -0.022281796361825965, -0.12854559169767407, -0.08664028411562291, -0.3039833390711871, -0.18610412117391603, -0.09653883381753631, 0.14153364774627333, 0.06288619568443689, 0.4545985125769964, 0.25346405094482477, 0.4931090155860897, 0.07854610860582535, -0.26431216258573653, -0.08910842546524252, -0.018488876878806414, 0.23830715491932536, 0.24226898893985646, -0.033756945504919526, -0.007270543905831985, -0.010244188294735234, 0.013884567844435978, -0.0251946141907436, 0.012370109663486839, -0.06952161282247983, 0.04821030322341298, -0.09561354796431791, 0.14107207822319998, 0.057622318557690004, -0.008895240364460148, -0.048470533636856244, -0.04610924227660413, -0.13878243291576706, -0.20879348247957968, -0.3624510039629858, 0.03858443332022983, -0.3566982158070039, 0.10425408052321666, 0.2319726160655774, 0.014446109589713698, -0.03408106501007204, 0.19377448382213502, 0.21225740864399828, 0.03931623699276384, 0.2827954028302398, 0.08538993964193449, -0.04117857575173156, -0.00862419798270148, -0.04657698895098992, 0.03062059679752097, 0.00024157789600298408, -0.018796787400401742, -0.15409700869127474, -0.27055091742005055, -0.18912344328919617, -0.3177266467261334, -0.32315178059331956, -0.15702654984664646, -0.3219311463169402, -0.08407494122959676, -0.016553439486655615, -0.3511833280913493, -0.38967186675230675, -0.15114659411794243, -0.10320062320538813, -0.3407067703922699, -0.4572176195628256, -0.11531144653914074, 0.0014053860476951896, 0.43215818126452343, 0.36556312305094124, 0.16198159223972808, 0.4425155689087833, 0.11265236334267813, -0.05555088196211167, -0.004461244622768503, -0.014547931930879176, -0.018357502328679408, 0.009002815060293361, -0.09795932899772405, -0.37863455837865545, -0.34819671533672897, -0.33508450134985973, -0.2812962612510674, -0.09620799814751199, -0.059232727636200466, -0.22836923791898575, 0.25903523418134733, -0.120372811920255, -0.040909012271340306, -0.13766659546459983, -0.4596817972164717, -0.8464103015007151, -0.816574178929134, -0.6594973724196815, -0.07474485076364903, -0.04339556703942345, 0.40669790203518036, 0.4752800221988951, 0.3557663143020589, 0.7663168819034764, 0.45785610070311217, 0.05366755150451637, -0.047757076167477625, 0.04302995546290998, -0.000285028658747493, 0.07382463986137729, -0.08469367358839709, -0.19926490975217398, -0.4276511134524692, -0.3744362198141264, -0.07511498349077525, 0.009315969907359889, 0.16315066097316214, 0.3259735022103598, 0.33230665542939514, 0.16574665398752206, 0.35391530314263386, 0.58817405256353, -0.272124807742694, -0.6303561373579208, -0.6041364441820976, -0.3757669533829222, -0.4559675237129948, -0.2975607628349321, 0.1988254772182924, 0.6615093676472279, 0.5255049040441883, 0.7208312010157125, 0.37048212328088603, 0.08673027434811696, -0.0011260411416360516, -0.03224130970104126, 0.01492023404288999, -0.0053305505559481684, -0.07521563542009008, -0.2824561477821577, -0.35003994741371225, -0.17064412215112404, 0.019173294676861366, 0.03449929867501597, 0.056780452821965574, -0.029598664324423447, 0.010101759432308914, 0.04553045859736613, 0.5267804907487438, 0.6571904933320827, -0.21193412097563977, -0.18330067748802176, -0.31456318150094276, -0.6303623033161151, -0.8033521625674923, -0.801446624112918, 0.45269029135222644, 0.4018838865040963, 0.5429271322182149, 0.4766081894498758, 0.0826969311613248, 0.0751071003392473, 0.01957437589078137, 0.04288291824609822, -0.009573843168053518, 0.03706889587164753, -0.02365907829621429, -0.26728443327866075, -0.2983532539745349, -0.07525814269397302, -0.023580251696668785, -0.4512578523075389, 0.08543526710802901, -0.025003887944175126, -0.0441628681597838, 0.2731568726702093, 0.7063141346347155, 0.5681707352819201, 0.2926008728751583, -0.1609083021297917, -0.15223639876666853, -0.2485784128315271, -0.7877177167134962, -0.3683344768036809, 0.2340296242829507, 0.4496195510005043, 0.4780948116565826, 0.21981657184158226, -0.08887315355586879, 0.05475205745745116, 0.004077876963004142, -0.03445046800943741, 0.022356364625785677, 0.04356509882778654, -0.09122492611353382, -0.28074552630597577, -0.15915299724706666, 0.07909843374260157, -0.033064608523952946, -0.25333272408883556, 0.26378388381325935, 0.24518870651698665, 0.3249747228865484, 0.39450711092553875, 0.4897183542986247, 0.4229653356130968, 0.17208666810739076, -0.25843485043634584, -0.5600353585696427, -0.48502050367976574, -0.4626167128253794, -0.24080374249357678, 0.20934790403483425, 0.4581040742468753, 0.13572280137506965, -0.07814847144770691, -0.14879710822822245, -0.11273004569114602, -0.03805339711360784, 0.0691432857053199, -0.03881410595149784, 0.04727969749833241, -0.0722862159518935, -0.31664553644647303, -0.065391023574883, 0.04212515840270712, 0.1865634016073347, 0.14103256219738808, 0.40995128271938164, 0.28629933301549404, 0.3397254219178853, 0.3556596232392076, 0.28909646224397845, -0.3476724330343614, -0.17748486299509983, -0.4111098754510753, -0.3456628356470858, -0.7460140526618155, -0.5363475334240362, 0.0349569440921527, 0.3235040225740081, 0.1425761908242893, -0.15200224733684178, -0.0718526207824815, -0.28378045666246465, -0.13692113608080886, -0.0230089008592553, 0.04323042595885766, -0.06741136185231279, -0.007505570754055801, -0.053925281054005916, -0.17922326560903856, -0.16748946275654664, -0.005783092648044667, 0.45029252769286315, -0.00451435796667435, -0.07332751150893901, 0.048441868950003, 0.06574812617108243, 0.3132007170665874, -0.17757194792028164, -0.424839902562684, -0.5920562591617501, -0.6782683347516076, -0.630278668990066, -0.2839560454495716, -0.13237254225571599, 0.1698688164884936, -0.05521429517971621, -0.08797430548148025, 0.031300633723125464, -0.08733943333956957, -0.11637207822197297, -0.15103648727589075, 0.00045956321908277034, -0.03774070772880276, -0.03369937851216523, -0.01947324861774183, 0.01883875705261015, -0.16008380546930528, -0.13269732901399023, 0.08205727624926795, -0.16352818932916102, -0.2175434222724357, -0.20451272383424504, 0.06038831352648391, 0.12096292070462356, 0.04506666515990738, -0.5236368297595785, -1.0218884164087814, -0.49196415333532834, -0.8585507924937391, -0.5391857444728632, -0.28373203024684185, -0.06977701578107479, -0.3233062487769395, -0.4955088011058443, -0.0674445495100131, 0.18749368361370292, 0.08372753218439677, -0.12713907028430055, -0.17494028478831955, -0.03977626618357, 0.043686748414463995, -0.021028320511478262, -0.039015565000419326, 0.10326224071525202, -0.2177625750756886, -0.12928988959204876, 0.19446065807836205, 0.30411995449711643, 0.2420008706802683, 0.3616004358865892, 0.37855884888618146, 0.022439090160249156, -0.21399736020745924, -0.8788558324158167, -0.9792390179109565, -0.5473433519630125, -0.39042225858153806, -0.15877206807341437, 0.0436773697015238, -0.10134107250128402, -0.34705031286352134, -0.3004971179666024, -0.17998019287017678, 0.09549455840652425, -0.0123095490792851, -0.24393763950840736, -0.07667522596379918, 0.00519801813008588, -0.020632724882027425, -0.0070075786979880055, -0.018081968219451426, 0.1332080260016512, -0.09430560794907958, -0.06260546235421045, 0.34738497883454456, 0.455366302500203, 0.1810143289467924, 0.3936424588368554, 0.2629781939175743, 0.13639552688492337, -0.06403811955191838, -1.031258174335233, -0.5394576066885275, -0.21688763801765487, -0.32148275475418364, -0.09028171944525241, -0.19300156373174873, -0.35949370799293556, -0.5404334332819689, -0.4323036734326911, -0.23114389174154132, -0.07196638430130216, -0.0699567860116731, -0.1503765577217075, -0.1049750746843707, -0.05324567046142974, 0.005683175398506187, 0.09314799120687198, 0.020120827998768225, 0.14449954131329035, 0.08926568622601111, 0.29125327178857124, 0.4131962755914105, 0.33903617034647016, 0.4548512338998834, 0.37933874703830617, 0.6033025381753263, 0.6475744811364991, 0.41368408726930955, -0.22031994416888, -0.21099950099201092, 0.003871534800967469, -0.2732771265560729, 0.1646730569762915, 0.1951834363235246, -0.11945225464331445, -0.3651649794676713, -0.21852747855674376, -0.057169870763372606, -0.07892769504212806, 0.17435677669247918, -0.04224081782424579, -0.009138501152737297, -0.021674477324169637, -0.019192864588014905, -0.03928071242709766, -0.02976432231180966, -0.09829823851467769, 0.030774961653950442, 0.1306069271580867, 0.21291302196589304, 0.3879684478851449, 0.48766710423859466, 0.5581931633254335, 0.6946825942249527, 0.7821841633611097, 0.8897908591712669, 0.7684240319868038, 0.4761746890791062, 0.40358466887750966, 0.0960803268982989, 0.4031784780291776, 0.26180271096100705, -0.1053295215200883, -0.27773640705755126, -0.05409518995885113, 0.09653373100135933, -0.05539437962335675, -0.0037518081220570174, 0.0059503536212359934, -0.035915049942617856, -0.004795430020497336, -0.00920248941814551, 0.025516579860393823, -0.13372757962986953, -0.1958716289739084, -0.1744566755044827, -0.17098590935405797, -0.02331640595106157, 0.3320635856344549, 0.1620125864389732, 0.21286924997958565, 0.4737022218030226, 1.0870039164234329, 0.7989330982842581, 0.7207931056473856, 0.5269028583154535, 0.6120331768433909, 0.13068551716908386, 0.4265162925722202, -0.12799908414405015, -0.06550085714623291, -0.14765310432283257, -0.17078415147086076, 0.03377445556462266, -0.2017686276023981, -0.06839492640010005, 0.01847048020861218, 0.03898303655160095, -0.014142537886023206, 0.013839209835311412, 0.008079945139579641, -0.14312677545696204, -0.13271401629092688, -0.21536806789192367, -0.37095327320216687, -0.25351377577424, -0.08880809255347058, -0.18380556907948814, -0.1012918715527549, -0.1547881035073797, -0.1946513276695501, 0.19108301714441084, 0.839821818049634, 0.5717641055553725, 0.36396384262771864, 0.003124885263813727, 0.01498775204579417, -0.24700523571591804, -0.16695578107307005, -0.49350744648632444, -0.38027553934585767, -0.11165174786042469, -0.19713756847770786, -0.1353255982960651, -0.00011534606360836196, -0.01962885703663417, -0.04281980086376706, -0.016809055633982634, 0.020524453341417503, 0.036467806834969, -0.009906683339730197, 0.035422781830860235, -0.12719347684728638, -0.3087226381310826, -0.3852590033244852, -0.011279029801473838, 0.31177318401335424, 0.3381286562266211, 0.13408962354335804, 0.07588837538291081, 0.38822830925488916, -0.05921796954181306, 0.14274161751933911, 0.01044855979390958, -0.391060185145526, -0.38117282111203304, -0.3734622506411173, -0.4003204408516052, -0.24108541796708208, -0.12841690917069631, -0.11814082274753743, -0.05309019043312853, 0.00013490614444309392, -0.0021418498064207344, 0.002977984097274976, 0.03626178012679569, -0.032490534398316805, 0.0021109750729938087, -0.00236289159114857, -0.06828731179510483, -0.031192437033415798, 0.04302114663139587, -0.13276956291912329, -0.18732500056709958, 0.044512928464091175, 0.07311351159486115, 0.48100729632139705, 0.7347052603823874, 0.36980093935570385, -0.15094316975565703, -0.2227200438073862, -0.19798315472909644, -0.5048302228223084, -0.3494639510105837, -0.212576850966478, -0.06791263414180358, -0.16818615694729946, -0.18430214185373925, -0.08341160692722503, -0.02185938690909674, -0.056567873639316694, -0.012987487296192979, -0.023467617560768383, 0.030388529106845235, -0.0062403504102019934, -0.0292640063932313, -0.003293497317501172, 0.03619853135626985, -0.12822345862257098, 0.010917571908131243, -0.08684031018813815, -0.11457969403301789, 0.19285880896435462, 0.06307787761605921, -0.12647248322803237, -0.11410666082254542, -0.0777205054111058, -0.17823218136740968, -0.07863511728225103, -0.015930061798555693, -0.005436196599800803, -0.12626873233647043, -0.08079428581465514, -0.06350676113804274, -0.032397669469312294, -0.057911081311809186, -0.02298471816507373, 0.007575757312871866, 0.018803959334553928, 0.003120827543600563, -0.031224969938066498, -0.047326275626416704, -0.01753423536639697, 0.021143194436318163, -0.008131864653778001, 0.033570319271392896, -0.0840515052032753, -0.06873014786152574, -0.05276486988173927, -0.12241696584228724, -0.17565074830191743, -0.12605888929144723, -0.032170108340053405, -0.0050768631715522, -0.0736279159512389, -0.15012137030527423, -0.0983856643175073, -0.08137821023424958, -0.07066342352136445, -0.03689520611695977, -0.030414967022980178, -0.06724039226315294, 0.006201651984230269, 0.013747140674267395, -0.007543848764131457, 0.0029821716632906885, -0.01566122546488991, 0.03313794072891122, -0.018813393805063396, -0.01618265919093313, -0.06597101494108693, 0.030849186915494924, -0.004599610925371109, 0.05129664199266466, 0.00969175682142774, 0.007534702545051676, 0.023255727887290325, 0.01471722187409681, -0.006118627261306166, -0.001809923680493499, 0.012314480764095572, -0.01996552323107869, -0.02992218053137181, -0.009803290610554594, -0.07384271197549622, -0.045440584601295964, 0.013267825763017637, -0.021830750361124363, -0.04197843914858348, 0.028113056869321112, 0.02455319634177292, -0.018082068582295857, 0.0369953776423724, 0.01524312446653868, -0.09887941289773729, -0.05956901536675352, 0.011559695662316077], [0.03855699395652858, -0.009991785611158167, 0.015816291721347603, -0.000392413318506477, -0.05185167192645234, -0.06630843701108027, -0.0469506439460443, -0.042057425336733144, 0.019326050150355906, -0.012464017840735558, -0.027053870450636865, -0.013831562819743327, 0.044848820143105046, 0.004866020766710461, -0.025279110511538413, 0.03362786269661326, 0.039654950131919046, 0.025103474498330117, 0.0523342105833481, -0.012407575811301695, -0.038963047337359676, -0.0303842920505032, 0.015068151245136347, -0.04460315454102624, 0.02325527631023712, 0.03750432350648045, 0.004517115543569219, -0.0014679205752074227, 0.009324770416364767, 0.0029219821870700292, 0.033128714954649, -0.00360220368400666, -0.0606622518681687, -0.004250484613948394, 0.00025515363566730014, 0.007050838756114244, -0.05574480963026183, -0.012380242623842836, 0.023383364880234937, -0.1233902990020207, -0.030921163371367688, 0.0006051441748644437, 0.06545726494583377, 0.011509420469754372, -0.03457174431670679, 0.007343775274872048, -0.0031014153285333287, -0.027985917821185053, 0.009587322802358605, 0.022330556550819416, 0.03287691608259847, -0.09330504449251752, 0.0003251447022552624, -0.0329059109218836, -0.02211139338201053, -0.012975491687640617, 0.007941059701768406, -0.10866906951527476, 0.013178649108256021, -0.017271306628107306, 0.019132743266521944, -0.048169338667322543, 0.02497257963783231, 0.002351928269558357, 0.045146401166338467, -0.032363072204355775, -0.09568645994835785, -0.028226755217220425, -0.056516599069662894, 0.01300667518536842, 0.0065799471783315544, -0.02029529981799713, -0.0752057206059883, 0.025379698631277314, 0.020320810879777936, -0.15700498742973065, -0.10706329785636996, -0.0789156753628934, 7.66731017301064e-05, -0.02585828850903544, -0.040504893997372234, -0.014874213819158053, -0.015028113603657509, -0.011894575447113847, -0.007448848640496175, -0.03832946473985504, 0.06266453027181425, 0.059128214013657796, 0.05835201864155459, 0.004298990699540994, -0.027368537359894748, -0.040907757129371246, -0.026738117055157894, -0.07637171483767911, 0.07997789822124406, 0.1039440527091008, 0.2162923434905398, 0.10252517617210655, -0.1172147925606619, -0.009178538688861244, -0.21278488959633687, -0.1572281886308383, 0.03722595613166087, -0.026457828639918406, -0.07891962487148017, -0.10035233065211246, -0.20916590775831212, -0.046524932643339185, -0.13970740973056833, 0.06275812582416776, -0.0318277941079247, -0.011091243087984485, -0.053159576597724884, -0.03969812916408971, -0.0042237598976743755, 0.05254142746078997, -0.03322949060775688, 0.015607494248645645, -0.05482453155713883, 0.06926652558319103, 0.012068539384899562, 0.04346631476939846, 0.210490778237491, 0.3102344518742581, 0.2685654077658625, 0.15682179110660263, 0.37071981559041384, 0.48350829050291416, 0.1584452602973473, -0.18294478569055916, -0.3916768388280575, -0.4377435006569137, -0.35116383790038813, -0.09113518351560727, 0.028241985503119186, -0.021360216328430097, 0.2213506158795833, 0.18091062639136168, 0.028219168649988646, -0.007483395435912277, -0.011554400817028828, -0.00723450954940646, 0.004458602938989472, 0.04859187900984207, 0.003961065925609888, 0.035530895991437626, 0.050086624978843905, 0.2757798709398736, 0.15031604806577603, 0.16978431024059362, 0.3797570258688077, 0.5560500265816178, 0.29950610674472744, 0.017954772743329843, 0.2712564988707533, 0.5814790819276859, 0.19147899607025887, 0.31347427252692844, 0.004250632285093355, -0.5126983726869845, -0.25857163901144414, -0.09254885952717631, 0.0851189730792578, -0.15565837565659207, -0.07988833910417688, 0.05155298244086828, 0.03064091309523193, -0.07236981373874196, 0.061048469314676564, -0.015488507093073511, -0.001652002679508544, -0.03475435693731521, 0.040305719213180026, 0.09239023132977414, 0.34965315145656234, 0.30748818310227677, 0.3460139656082019, 0.22208615786243072, 0.24323921229887366, 0.3150025185248646, 0.24889501889862878, 0.32084927690637693, 0.6310956225114649, 0.49327996531166024, 0.48968627575505924, 0.22351370212377444, -0.18061152003604927, -0.19697086644759262, -0.3996230555279373, -0.3761054131434269, -0.01771268943791679, 0.26676558229179864, 0.43701825998541005, 0.361450276279891, 0.11408974204345322, 0.0010899062727984254, 0.02152365269949021, 0.04514532367485734, -0.04271789107254204, -0.06225699819970818, -0.09078554786293772, 0.17577368334012705, 0.18917732419777697, 0.07174647711776863, 0.48772527864197285, 0.4175070368531146, 0.2927174299484125, 0.10110126220051725, 0.03437709992203919, 0.3634412931932069, 0.42821068915613053, 0.3855204087913132, 0.3300049173020705, 0.2794158389383457, -0.3069270077284825, -0.6697365933620386, -0.45003914187602745, -0.45523703272083477, -0.5619130826232702, -0.14975408736672885, 0.15437459033622977, 0.2951581387370621, 0.13118498969422232, -0.016956698186958743, -0.012954575554813826, -0.009461796708764854, -0.0016222805970102132, -0.10652087393496988, -0.21071219873848354, 0.057538791287777946, 0.11292603554398295, 0.0669012559673846, 0.024396404394092262, 0.04173356762010808, 0.342596968770086, 0.10727755696793106, -0.09898990828175691, 0.16172109157462652, 0.2570630767252239, 0.42938764785364064, 0.42263343689916794, 0.046423332074976356, -0.1665838006993356, -0.4872265213006539, -0.38664287298387057, -0.5209885240387112, -0.36089628840937543, -0.05362470551597897, 0.41134377006066103, 0.23389220377304332, 0.10119138049970487, 0.04931874343385894, -0.01223228756812459, -0.008933968518927657, -0.03322582555180856, -0.11349118139314447, -0.24005022341252055, 0.015241500016337202, -0.13720407212288455, 0.02444446613230714, 0.02393273977819726, -0.13195401350994973, -0.07789909850083646, 0.4209745038707473, 0.07802136921020092, 0.342904975581036, 0.5907787755552857, 0.46874537949026923, 0.2715298224869454, -0.15348817530481318, -0.6139257462561265, -0.7065993166765374, -0.6123654381711969, 0.016845102745133646, -0.11511341990062048, -0.013613662521973328, 0.5384965197108756, 0.4441973886518225, 0.13095356396104302, 0.002210906406874011, -0.00245708031307053, -0.040808758063948763, -0.13826903204787833, -0.17299762048317968, -0.09269387023036266, -0.15932401885303982, -0.38092211267169646, -0.2353912323537176, 0.09298849006519745, -0.09070243105885877, 0.5106806285902805, 0.278255957261037, 0.275575440183718, 0.5632548227770872, 0.6021403746626715, 0.49639983413760114, 0.28379236437106764, -0.19015132770888218, -0.27087030458158384, -0.7481494215124033, -0.4162607737024031, -0.01828633029557526, -0.2157651998658718, 0.009487918636830593, 0.3818399277403067, 0.4567469907918211, 0.17209449479006508, -0.01651322429570224, -0.04062873105595008, -0.04925895629441943, -0.1372711771104338, -0.07062114507901526, 0.030487019187804436, -0.17869897852362762, -0.4530566063332806, -0.4565085964289526, -0.1702726073141303, -0.09591167461426828, 0.06134335498842727, 0.4068582551141822, 0.2640416463765005, 0.23979444386670448, 0.7752634951075773, 0.5722441862870805, 0.4446745825714727, 0.5987112302237936, 0.010582903381305736, -0.5161717740568111, -0.8789212623897009, -0.26881722412014153, -0.4244170203004776, -0.2309680748386378, 0.16559918042277147, 0.288554445380149, 0.14278292159181338, 0.0014007786599021157, 0.054488147201170165, -0.07066871830881, -0.03165096914550342, -0.06634552371882123, -0.05703135806386075, -0.22259037782480057, -0.4461500621455587, -0.5449746953323503, -0.6036134908681966, -0.3426874982758304, 0.15272023888719244, -0.10622476375543013, 0.027913152628273492, 0.4457540563867645, 0.5265317494222029, 0.7399694558296053, 0.5749022145990733, 0.27578792742937147, -0.35222123724272664, -0.21492214244779037, -0.4006312977228833, -0.3609694307417419, -0.6427292499746179, -0.6218647907393416, -0.421818345834106, -0.025980087746728976, 0.1115580331440387, 0.013359644330855186, 0.024646999615663228, -0.0124432230587678, -0.04685432266491141, -0.059829549042531543, -0.26142826764464316, -0.23995331264928288, -0.684381709813774, -0.5240256794615558, -0.3336764595215728, -0.15897476962987078, 0.010379645174618833, 0.2012259584179778, 0.7027381665567921, 0.6568607606641973, 0.47143883024014577, 0.575185447715137, 0.6061380718578234, 0.25968034877428126, 0.07478602531866338, -0.16332962354424396, 0.1028504238559017, -0.180395771014872, -0.3343062029592906, -0.6332915408664174, -0.5231114232605317, -0.04775043116126328, 0.0013298517052792828, 0.02621959799958977, -0.010510861848363319, 0.03249917925780692, 0.010772442826922876, -0.0968575004587456, -0.32701284629264243, -0.3676103312380537, -0.6266603650211067, -0.6860591757894371, -0.3314205820658004, -0.030972691377919675, -0.2584082465538883, 0.10410148795172082, 0.5499614359473961, 0.3504656899447169, 0.2589663287085889, 0.018593617675125833, 0.4678216828958447, 0.16701340280808144, -0.10200280478309696, -0.24314758991843272, -0.21107988786834322, -0.07915600518153305, -0.2744987351975364, -0.4183045475437881, -0.32643838590366914, -0.040264574401384076, -0.008676452256238852, 0.08876409481092604, 0.018052487698839364, 0.004927157402050778, 0.01405422090106124, 0.025470604636534118, -0.21513338565918114, -0.549684984642432, -0.585549539646258, -0.7645050490174493, -0.2938784239512701, -0.3623598838113623, -0.7137114005717505, -0.0750053618352772, 0.08874160699865338, 0.09060445785695168, 0.022590603420362725, -0.32085068300455705, 0.2935146138533297, 0.18555054237512178, -0.14560433474567122, -0.7340670803748632, -0.7349272267423961, -0.09488943627491063, 0.031140744650052475, 0.1089526518670346, -0.10868473019668357, 0.014131161516759362, 0.060293248618731636, -0.0595733304143833, -0.008758280028296575, 0.01905175886920999, -0.041018668833814304, 0.09934185185475318, -0.09535468597064095, -0.4442485356444246, -0.376754684196723, -0.994810330057526, -0.493701973908692, -0.9692610845371392, -0.5959572511036482, 0.01125814668045502, 0.29078909098908107, -0.3274681652002356, -0.41227253065477537, -0.20028424687939986, 0.20893974804540139, -0.1054422570958767, -0.5641176034458883, -0.6202630745785531, -0.9037130100278314, -0.2283708966397205, 0.15079933341022247, 0.09718722532168586, -0.09089286726354287, 0.10765510004054842, 0.019213163855061187, -0.009829464113347565, 0.006291361009387192, 0.004858716214932364, -0.005192355461322381, 0.0845198709983084, 0.07511030869992287, -0.08795230204320374, 0.12332165248229975, -0.5061057607695348, -0.6037121174828114, -0.6960121332554409, -0.609028200210827, 0.11399456874949554, 0.12308270000085825, 0.3114330354751442, -0.030077544254539453, -0.18457666571279305, 0.02013621250616002, 0.00938760417110309, -0.522189274877821, -0.41534192200666326, -0.47528068942473034, -0.3425317111232653, -0.18943337689967588, 0.19418303387531885, 0.2147850911486, -0.04353117429554683, 0.04506376653157983, 0.015134216793961488, -0.014952090102869485, 0.02302938389333032, -0.014384427326945963, 0.16902367304236338, 0.19981747793443716, 0.4922451852988357, 0.7213298955145403, 0.004466046946792451, -0.27708598558404085, -0.6548329719509299, -0.5450718114531685, 0.004597981779711123, 0.42194263795961323, 0.4306385612374745, 0.4526770741937839, 0.36745133109317935, -0.012432786045687821, -0.34132081360294786, -0.45660974020972833, 0.005218746315355146, -0.14719434295620484, -0.19313025923684352, 0.09422420243527178, 0.5570332587328403, 0.2347607365568701, -0.04526672784403474, -0.030216994188357927, 0.006600465041804824, -0.024313578207896917, 0.03323983495998552, -0.0029461987120873927, 0.14117761663995618, 0.35713463417632135, 0.5615940996208564, 0.5153354686597111, 0.026407013268534858, 0.14727347988240908, -0.4170106250779999, -0.7648178037616041, -0.5851056335727983, 0.1490993133434272, 0.5605243227040084, 0.4848053064400138, 0.34247131869546243, -0.032060260534705474, 0.031931688016732955, 0.5265907229744389, 0.4517194118409429, 0.05659447856331047, 0.10192329654008345, 0.11276786042995661, 0.4194024026146544, 0.14410003621236833, 0.011055681707085544, -0.024199869767393627, 0.014029655164883947, 0.010742678981245616, 0.014704171152237256, -0.01387390489727111, -0.0056399452089882195, 0.155498694229767, 0.24035809430653615, 0.37463858040193043, 0.11049767702077233, 0.08013734952142755, -0.3535806499816977, -0.9618653571064053, -0.4928761092978384, 0.09142690167695859, 0.6421244028204958, 0.15310562118402118, 0.19662674078176465, 0.0335211945797535, 0.5858343836784362, 0.6910384276407693, 0.05330083985196844, 0.08279452097478077, 0.03377375631297228, 0.2063653499990393, 0.273284267696951, 0.07182306607984273, 0.012378448848449217, -0.027934573618794017, 0.017153100896134543, 0.02463749358453127, 0.06631056716901496, 0.0032659657337166044, -0.0201182054730753, 0.10977026106582917, 0.03591193190940517, 0.2543014959368653, 0.053007118542378454, -0.19337172693270585, -0.4549800641564414, -0.7759847455993114, -0.17546327064506972, -0.14034702917821307, 0.03432930066338607, 0.10044394024908465, 0.07535437370405343, -0.2520713217055481, 0.28659337122893436, 0.02030895245925575, -0.3481321286348807, -0.36505707893599165, -0.03147503651658239, 0.14447202712089588, 0.1646281033532136, 0.057244653781488845,