{"biases": [[[-1.3658605833742572], [-1.793423590917596], [-2.3187971132504486], [-2.9529269205302593], [-0.6976041329060061], [-0.25192657975504473], [-1.0321281216598024], [-2.4327277454923766], [-0.9149110060906948], [-3.474833777090562], [-1.7041034692761858], [-1.4676341103133912], [-0.12296155049938422], [-0.32204393107137236], [-0.8662187537515079], [-2.136139100808501], [-1.7200585906132222], [-1.4877879716296998], [-1.5413377918576214], [-2.1553674089703323], [0.6424973631986427], [-0.9556326977898282], [-1.4109346827820832], [-0.39448293790179995], [-1.1021845267407209], [-2.0243074691954615], [-1.7605181891342099], [-2.2810947825613836], [-1.0577607649417458], [-2.897178560224368], [-0.00872435767003673], [-1.744816856813081], [1.349897594741858], [-0.9819797456361722], [-1.0554094034105734], [-1.4943882050834933], [-1.9298678033798917], [-0.3547191179777001], [-0.20120130604983516], [1.60338430122166], [-0.9446983140819063], [-1.6230358098046114], [0.9440988642741391], [-0.29967901063765634], [-2.433050912395519], [0.4417520538387681], [-1.7298259001850416], [-0.7663316895953709], [-0.14859695530616207], [-1.541426119081746], [-2.1047231247721268], [-1.3639422399267307], [-1.613266189942293], [0.38371075817879763], [-0.278138098186959], [-0.25853914083187485], [0.13182111989577278], [3.867099789187442], [-0.32482394918570606], [-1.3513729839505093], [-2.652120403281195], [-0.061525594955074356], [-1.4708598807355522], [-1.309143116393619], [-2.177007491456724], [-1.7747072804648822], [0.0878581746186661], [-0.5055631797428964], [-1.6924498199797429], [0.19416659243867815], [-0.5138756020668854], [0.11511669421057401], [-0.5240796716687508], [-0.3518555055361546], [-2.97533218613335], [-0.8787887245616957], [-0.6867666182213612], [1.0151980987292493], [-0.4595330786023514], [-1.1468884439770086], [0.9446302443066577], [-0.12532104740381256], [-0.9541993272768198], [-2.0054783955247686], [-1.3674118325717792], [2.311278440664428], [-1.4068551247514758], [-1.6645531879685633], [0.4134306921563241], [-2.204908186269866], [-1.6676948189631207], [-0.26409888852016283], [-1.3088081189195881], [-0.9011818145815891], [-0.7915963760943143], [0.03572302295041007], [-0.2388810016214319], [-3.0607526261718943], [-2.396061762856295], [1.5432104913336053]], [[0.3902007122966034], [-1.9215107225646175], [-1.4822439254291095], [-1.3579380336400022], [-2.489187271172795], [-3.7168065123653435], [-0.8524960413049333], [-0.2570337007542646], [1.0639979082754132], [-1.0393997403452018]]], "weights": [[[-0.033036523446756665, 0.013013603307140131, -0.049341641351377925, -0.013715126470598415, -0.029273901792529266, 0.02246065834966617, 0.034895817672683786, -0.0016645501606810341, 0.07730627448234431, 0.017915627699652943, -0.029510208266142667, 0.047449423108045743, -0.02946696954429583, -0.07948389221107384, -0.005629774037976309, 0.021702250702924912, 0.0571178487224849, 0.012606027791839313, 0.022379708153722658, -0.025370355367137328, 0.05121690557508239, 0.05409175918425105, -0.024816239748246698, -0.0014688142781172238, -0.03605661560621545, 0.011746095879211172, -0.011695673925408955, -0.026861416576149967, 0.004277834504479545, -0.023408495666910768, -0.02431410750075443, -0.005177878534681064, -0.04258714830181096, 0.019926032985743726, 0.03053880988658017, -0.02270221586221972, 0.0464458524018661, 0.020742748290975756, 0.009088642663477073, 0.012319187076674676, 0.052705302743068054, -0.01783995451387334, 0.029990370374731772, -0.019123425970664965, -0.05221840253679151, -0.09362559204284904, 0.010179340926255467, 0.001198784167600931, -0.03927479748977594, -0.02378392195973923, -0.02358489423149208, -0.02311333200324322, -0.02028449387002461, 0.01773569498376364, 0.02441175898778123, 0.020512620046687587, -0.02176034479385254, 0.028258230059099998, 0.010100445422294217, 0.010283369383180729, -0.04528942035839015, 0.01340696405415031, 0.01002497600777056, 0.09892817352700124, 0.0003723349573373371, 0.05406017289929426, 0.029764146961536175, 0.10940636782010218, 0.14093495990651606, -0.020761912943127292, 0.15355096668376925, 0.22159314597466842, 0.12441818710565891, 0.10791266854028381, 0.04920443726100055, 0.03905024751472179, 0.06514393075826469, 0.033653144996739166, 0.024474956622217867, -0.037799225480608656, 0.015686751376589363, 0.05431540829580823, -0.0566562635115098, -0.015096244481809523, -0.04065569169589591, -0.010459865282053274, -0.01042386649897681, -0.07061609873919124, 0.052736073477032484, -0.012578761855800672, 0.019653869024305937, -0.024043612448912788, -0.003374353548311235, 0.026245363578734124, -0.07379284609718721, 0.06608739268395229, -0.043912629128276995, 0.17460138988143376, 0.17093723836635433, -0.1025262477688508, -0.16497465906909387, -0.10066019158681502, 0.07698631791265616, 0.2459850252225351, 0.16760689133850565, 0.023950493789178847, 0.062456827284373476, 0.009270126847321765, 0.012679728476906179, 0.02568342860004513, 0.033393972045220426, -0.026240049277073768, 0.008099088425604948, -0.060908652670157735, 0.009550167490219745, 0.016483171332076642, 0.05228994216127138, 0.0394512667265959, 0.023147685811944277, 0.010044574984906908, 0.08489976746531132, -0.019237844534920726, -0.1287130478483749, -0.18817019256880957, -0.22675808315093765, -0.20312469346290074, -0.33276096721757625, -0.19509878323559238, -0.06384692585183498, 0.17669634322583835, -0.08384541193557757, 0.058061296691191415, 0.08044568845134259, -0.1258018546022966, -0.18098324042326042, -0.04615683468282487, -0.029090606281261103, -0.0050316244537233264, 0.03718960039067822, 0.016963315827034576, -0.007951985800788163, -0.03185243187160016, -0.049198350635869956, -0.027737715314380372, -0.0015978820697796759, 0.08837953148076388, 0.006618232231281342, 0.1512699832168673, 0.2973943645152273, 0.11465280873343012, -0.0217802023670344, -0.029737621879996595, 0.23137683017959587, -0.1283295060422539, -0.33847155462183176, -0.40093631296902177, -0.4426655505263464, -0.22926811017380488, -0.6243044031326815, -0.5492079773062876, -0.29809496490888765, -0.16686034907076122, -0.3299821193163928, -0.15806880765544937, -0.1071457289452087, 0.007594466805548418, 0.05606711169790706, -0.04326989476855884, -0.020799586263924006, 0.011316865180566689, 0.01285028489499415, -0.007784852014950464, -0.016818278564518577, -0.01796305293179592, -0.16928982518735194, -0.07290036239415151, 0.03631395253429673, 0.11125762605493177, -0.3954021993035144, 0.33620741006528937, 0.15801183648967065, -0.5238614584823647, -0.6723691220328519, -0.5584495308551414, -0.11837197956777741, 0.36175023896559616, 0.1463365484481038, 0.054879641999928834, 0.02739788438217042, -0.04014106242157188, -0.30695370564731767, -0.1614014408329103, -0.2612833924385231, -0.23532047233812123, -0.09689144023975678, -0.060497008264638774, -0.012764562656339023, -0.014915347563009353, 0.04836641928497886, -0.05570358767949395, 0.006526073829079295, -0.06761588055406446, -0.17491608175993517, -0.02676252104341105, 0.22831105088539835, 0.011070731978622664, -0.11686202858168675, 0.19060608746758803, -0.17655103479215806, -0.22231750140231327, -0.17544493149785909, 0.17301201363031382, -0.26555063236823645, 0.05982160105739114, 0.5144249993957642, 0.14500344675289084, 0.05456656693051297, 0.005665827229976747, -0.20508373908296101, -0.20682674760267916, -0.19670964255021695, -0.3536148995159916, -0.19066906985633914, -0.001626064630606209, -0.0012809085789911728, -0.030032954797948434, 0.04222699716185035, 0.1389240553501008, 0.28532583011822044, 0.16430316524935898, 0.2232947290606544, 0.20141800225856749, 0.422040220053, -0.04579948353513916, 0.08901758171347449, -0.21086990458602745, -0.3939610877171915, -0.23338265214044726, 0.3179832543358294, 0.03588839275088297, -0.23111972933192437, -0.1695325395477989, 0.24400379347919232, 0.05226931245270471, 0.13519466365606772, -0.05338091878637603, -0.13161550846333978, -0.15584303156166826, -0.2174477642005601, -0.09645840063792606, 0.06175090164014382, 0.01832242962205462, -0.013400031488921322, 0.0356517762085954, 0.09280110316970962, 0.1704934169328103, 0.25662186305653795, 0.3571128686188562, 0.1800648220963982, 0.12655249091123186, 0.1155981001817019, 0.2932321640720956, 0.16285841627995284, -0.2892326570896366, -0.2912718407354226, 0.34993226915731884, 0.3523583450561857, -0.14619360779367072, -0.2186858765384312, 0.3931753299811372, 0.2738285682379683, -0.16736512512260793, -0.02774821049298768, -0.1787294983261048, -0.1707273245801394, -0.12447301891309957, -0.16183583898055162, -0.19305500825884572, 0.002017723651010794, -0.01977328337502825, -0.03735555587370497, 0.04966534910684103, 0.039118519735279265, 0.11777880508588759, 0.26268887972755883, 0.18967133332270977, 0.23544416725630257, 0.2797580024297363, 0.3200866800077643, 0.4249478265311453, -0.3941515282171348, -0.09010153077511117, -0.1959079079906618, -0.059754694658468596, -0.3379129161772235, -0.49099153858649286, -0.062230606573961206, 0.06396835203614733, 0.6261015874904375, 0.156035022811104, 0.022849527674247694, -0.14616506593217649, -0.06905967452800629, -0.2068876405345966, -0.2592441528057751, -0.3345724203714793, -0.0528220708389467, 0.06992996364056688, -0.03042617579383424, 0.05280435429493854, 0.06969373152963004, 0.15392268505598192, 0.5053006899854056, 0.4349556669731345, 0.1273845565585012, 0.5297450133497891, 0.4326227571805064, 0.1625650460494248, -0.41608024617517514, 0.00550718976954844, 0.44829039005951105, -0.4609064617220951, -0.6059832203037249, -0.43961876715984843, -0.5242106860644048, -0.15803904863900084, 0.7129682143752873, 0.47001986801268475, 0.7043517698976585, 0.4854827625427835, 0.2124165773545731, -0.19823357576359388, -0.3827414998114383, -0.18530132091347626, -0.0495274989378119, 0.05889237861703885, -0.008121834449518686, 0.02156301374736064, 0.0561604420185542, 0.2191869106532503, 0.4902672321472831, 0.4384862128041114, -0.10412381434965788, 0.2627052571224016, 0.20110876980877396, -0.3729098089610837, -0.5833778410052533, -0.03629967422814302, -0.2793411673599536, -1.420959228065404, -0.7999992164906582, -0.12813556807516935, -0.30488648812070535, 0.36464147043104883, 0.6995578317677235, 0.6051641473178998, 0.45978761576984567, 0.5394610047815063, 0.2795533438239523, 0.014494250900987965, -0.1977911346136282, -0.22612454425280287, -0.1025530088528549, -0.007346925791006183, -0.005619863777417205, -0.006703543652644592, 0.04243414033337246, 0.10938635312599826, 0.5201178315176083, 0.36528729750784356, -0.25469596337384276, 0.2662071368862812, 0.10979584866919286, -0.17861456053000638, 0.16534060826483402, 0.23535923886049956, -0.6349667692188028, -1.2915566796945088, -0.44549605348044585, 0.3432154391061052, 0.2019783784532349, 0.2961617262660361, 0.5792830578001708, 0.8333947094588011, 0.5156152198307773, 0.779884291407646, 0.3317130461633684, -0.02707581300006075, -0.32582760895216545, -0.2232625718656071, -0.08746063362642564, -0.0006575359692898955, -0.01185261074154676, 0.051287623449055283, 0.03747812164622616, 0.09781008483038202, 0.09138983498141592, 0.06892523628588637, -0.2451421173303657, 0.13904914347914335, 0.49492917060246416, -0.22567852254872814, 0.39306411192012053, 0.1826442102559403, -0.95982345902904, -0.7346768092697479, 0.3885068832041307, 0.7672739452381622, 0.015198097353031799, 0.19183414174734756, 0.6171669455382222, 0.6400656533966582, 0.2446445351317106, 0.3665537997108705, 0.1760377766307018, -0.023902679846696622, -0.3046014451173015, -0.17341623213712146, -0.0033055446006097257, -0.048090414879379345, -0.027986038993844206, -0.05872522169201892, 0.010415276724726396, 0.06851618346834337, -0.18777127443367073, -0.3774575928838097, -0.2383403394122581, -0.20668417247641935, -0.020018121402266064, -0.285951711283363, 0.004200476258254161, -0.7758873180317771, -1.2447545544436829, 0.6307760857984713, 1.3223008397695917, 0.885818685532777, 0.21059931698996523, 0.137406811910605, 0.19864700745042438, 0.1032541730630412, 0.1348189388486872, -0.029775340694878482, 0.0064665308848458405, -0.24200409086442126, -0.38516478137943017, -0.01827479899865293, -0.06523049707978709, -0.021930455141952236, -0.06789441235137104, 0.04377559224691071, -0.07217683381981176, -0.04848210934777074, -0.16513426979499735, -0.1873344144791681, 0.03209244991625563, -0.07928594531478986, -0.34675946323113216, -0.7283621154855937, -0.5690774671554908, -0.7022643955174825, -0.263782705809275, 0.8334042975291482, 1.0190640166625953, 0.6244974856257522, 0.5081836237356593, 0.1600108509115957, 0.12655082775714513, -0.25067353761849787, -0.1353878878937689, -0.11045919872940153, -0.3088640421078031, -0.4423746928678069, -0.31533837235116335, 0.009791824801144383, -0.08274961889757056, -0.00655628515444783, -0.03398873716169783, -0.009845364277085194, 0.03196179791448121, -0.08804317631029104, -0.1635474541995375, -0.3527886159813652, -0.22373967422246935, -0.49712822927117367, -0.5306224411348863, -1.1668455117644827, -0.8850908211950496, -0.4762097623961554, 0.42483381978029366, 1.046299785543095, 0.6616930161858243, 0.38064885607619137, -0.10587149959810867, 0.061601286857090744, 0.19988420229922196, -0.19538726767626047, -0.054139419095776374, -0.2784979326250776, -0.3403922746784179, -0.2630543141475055, -0.019723795937977528, 0.017136146245106357, 0.014700565900358653, -0.013396166550709089, 0.043619418431832264, 0.028062240224094204, -0.03585216468664684, -0.08487670048780131, -0.38076955304715854, -0.4765423522486988, -0.47885756961435794, -0.5996552402753568, -0.6606889703740355, -1.0578943176419497, -0.4635134580775977, 0.006880662021265705, 0.5999070472124773, 0.9204371256089636, 0.9112857169925529, 0.2405557139617976, -0.21163490361103757, 0.054566182115078014, 0.19256840966669275, -0.03545408309821558, -0.004011196532061459, -0.48311614331784003, -0.38064267231907895, -0.4472915691209812, -0.05607836224641752, 0.06579989521393573, -0.052511955074694916, -0.03559364298397275, -0.08696447950171438, 0.02645234424299208, 0.0053251594473339115, -0.12001799235462714, -0.42045608033958665, -0.7903468896522022, -0.533682405172244, -0.7452468383866301, -0.5157378197508344, -0.6035810269301142, 0.35760354168508013, -0.0045150431813408545, 0.17446276862564697, 0.7058900838973575, 0.8946525831539514, 0.16459760049574537, -0.03292890653068966, 0.02738634657799057, -0.2723281119337127, 0.1164905586840085, -0.1377279695276454, -0.4610863278492469, -0.4817534026590731, -0.2653633611250948, 0.02800322351968289, 0.010823921819724977, -0.025640349162082153, -0.02658782456116413, 0.002583741886666738, -0.0005559394967416104, -0.015667739584952767, -0.30527540958291, -0.5857509896792604, -0.8995719430599218, -0.9529818291923621, -0.7717090794877571, -0.5378747721564685, -0.3145088449999991, 0.1720351425162312, -0.5280020732207881, -0.27327818605405463, -0.12358431826369551, 0.2005395417064335, 0.47652572442452207, 0.42164753818010625, 0.07179241360948421, -0.6700728490931073, -0.32395702274704774, -0.2564467099574494, -0.4010058946152763, -0.45461806992695913, -0.20141580918436885, 0.12049143168686603, 0.02339716562532154, -0.02399650237274824, -0.01396191741772085, 0.016812903271516657, 0.043820062019523355, -0.023729906761159453, -0.1352768709574442, -0.5107235058046121, -0.7827140011900888, -0.7645050357558938, -0.9848580625918399, -0.2709960079239167, -0.09717864275249054, 0.2388652097578248, -0.15039100784907983, -0.590894983490585, -0.06108188215288379, 0.4573043708470766, 0.5106862329504651, 0.6163963258918467, 0.2991375406940681, -0.49986708068326424, -0.2124575895713265, -0.5122196719353264, -0.351159500850106, -0.2041831724557542, -0.03279815902962306, 0.07691712418531815, 0.027460180470806544, -0.04866171717022532, -0.004288120832449921, -0.001379959484365651, -0.006982409130729391, 0.03257143426165392, -0.09332944666696698, -0.14194021665503898, -0.20021529030629998, -0.409932269742132, -0.5018253896807456, -0.12327351083279986, 0.013270033897334369, -0.07538095286299952, -0.3741575269347087, -0.34235391613140914, -0.2669155029938037, -0.17970123212787462, -0.25575630819740797, 0.32503532359768794, 0.028223815760838905, -0.31762733304214624, -0.1289258140423071, -0.321642984278364, -0.12950319320985676, -0.14012419396842918, 0.002492703515220059, 0.14520610703635353, 0.005038489949552542, 0.00028148603265549995, -0.011685797841566698, 0.03124581666913082, -0.014081758942275244, 0.002568391728829018, -0.14479621671884427, -0.1003429598971078, -0.08544705955350529, -0.3307599271050169, -0.5260922650311137, -0.5567241217574843, -0.33749599816377995, -0.10108043701592086, 0.032422765163712106, -0.0432329488399216, -0.24200904161760775, -0.07064251467484933, -0.00045989625619552525, -0.014266822738357745, 0.14545699873155735, 0.003613273227333098, 0.0038358270179956314, -0.0912247261933575, 0.010063960131736199, 0.03513806898066434, 0.1594766319224004, 0.020648647822007794, -0.0006967300576558175, -0.007384500700768665, -0.019116589436487804, -0.0383716675501132, 0.04243364148559242, -0.05669660281784663, -0.014051067545556835, -0.0024657196536834124, 0.00034489979780283407, -0.03381244113527171, -0.2061088275388969, -0.09863336740064299, -0.2774757014356292, 0.06950526769013154, -0.03221176469285301, -0.2170844733546323, 0.290920388175158, 0.20408911389456713, 0.11205675308751459, 0.12712456799364957, 0.06835101973767957, 0.19365320361427266, -0.004740144447251796, 0.10705410508450625, -0.01638822450635284, 0.07210647048384215, 0.057665600778185874, 0.03751388309057734, 0.0005777123512336057, 0.04482926392816727, -0.016521319584074868, -0.015671018817243153, -0.030811358459427698, -0.019860424470009602, 0.066416416901307, 0.07721357891323628, 0.12852592344256675, 0.21686412069070055, 0.4403776904846855, 0.535112283275263, 0.5940141636461814, 0.6456067615042494, 0.42613389987992883, 0.16808718391670716, 0.019257300690175068, 0.445039285966834, 0.29624754133241105, 0.173580405254652, 0.0363418473052422, 0.014057044883585702, 0.039095896818469866, 0.30855440935454354, 0.2784745182537927, 0.1181169863639794, 0.030523329662788097, 0.0227296277490298, -0.022550094417486455, -0.04759379771770668, 0.03466878142041682, 0.05567901822505802, -0.037245363421104474, 0.016463748604573746, 0.051834942132253016, 0.03487652021720754, 0.0963076510268365, 0.13379752220907906, 0.20435875993572758, 0.30808846176405064, 0.3749605572463323, 0.336540785667668, 0.25219921319374783, 0.3591741694852291, 0.315992719529797, 0.47356053144170324, 0.21317040480445903, 0.13539295269720414, 0.3518028075166463, 0.23358319488653168, 0.20202898159646032, 0.25136579948302473, 0.13824143639879724, 0.07562708729506416, 0.0642708946880978, 0.018153077753032192, -0.028909958718792664, 0.008534558286492976, 0.012832078602559808, 0.0465364939860382, -0.019671327592219446, -0.012577006250614154, 0.04553451625792704, 0.008427140772631103, 0.013402507075410932, 0.016025247644946148, 0.06241932503017407, 0.04980117705371038, 0.03572119701155788, -0.002209758750937658, -0.039020328438959334, 0.08560867403575816, 0.07351633473007549, 0.0691916734594976, 0.10963208804489888, 0.03534760045434456, 0.0478884949304424, 0.1590391153493255, 0.10357123934591715, 0.05257276331667255, 0.03811647754193049, -0.003675284519943712, 0.04249748518570297, -0.03381739519507967, 0.01511298422238237, 0.05044288477722081, 0.02626185357047699], [-0.03824835282257593, -0.03743421134894852, -0.03999109377334609, -0.027380993427166045, 0.04162072113327637, 0.03830005797379806, 0.02110224772422762, 0.02508051550199082, -0.07214468067044584, -0.02063281740579138, 0.051736046144672684, -0.0914909732139758, 0.03900730066541876, -0.009787278204654897, 0.015769028938972737, 0.01738494468863071, -0.031798226139538956, -0.033258633101373954, -0.015391807292435191, -0.039186068612087586, 0.0045434234865047085, -0.02931947198136014, 0.010976772177900143, 0.02640767095235081, -0.0029669508948683356, -0.043948131300355346, -0.03098391774136305, 0.003083294357296725, -0.010510224360389047, 0.01759419951659204, -0.011371621085576504, -0.012134641235464014, 0.007578390736747788, -0.03423040759174642, -0.003858354365880283, 0.014992990635104095, -0.06468360725543357, 0.026344670845187337, 0.021349645999959675, -0.015509076005455981, 0.0035837913855206187, -0.033957503952019234, 0.04469826299775512, -0.05510221336845631, 0.00655328424869144, -0.027377711683362012, -0.002442153094247757, -0.052073975381201586, -0.01235446728200222, -0.05227575597320755, -0.03210720197744824, 0.02062548373078358, -0.022430775881164558, 0.0398687387337925, 0.05864055340614098, 0.02850701046585825, -0.01619447599146955, -0.028242011188602485, -0.00948946422297122, -0.007825539382229137, -0.0631637499482899, 0.0316880442705547, -0.020396095336829925, -0.0537815923171549, -0.012570516019350985, 0.03640878026197307, 0.0073206205165455875, 0.004998878637919331, -0.026788287989922874, -0.027003134613574724, -0.04016114247541722, 0.03638369678653088, 0.013780505685441525, 0.03454972181789839, -0.006254777614771426, 0.012746170509774304, -0.0442987999572902, 0.03659260128175432, -0.0207272553113325, -0.04063438196402337, -0.0017539299370431148, 0.06773808579859772, -0.058774204090462696, 0.050958241735370335, -0.06344532099086585, 0.04177767613585103, -0.0037077451849950177, 0.0015213586311083101, -0.02035460583284288, -0.06809480576952776, -0.026982397742224554, 0.027755898162641107, -0.04478804265505975, -0.07261106145618453, -0.08653587123354609, -0.05477245235963995, -0.09103892584000682, -0.04326729384719676, 0.031593188561164214, 0.09395189724742922, 0.1658264978715252, 0.017095246760833353, -0.15822528517148968, -0.12055862542916183, -0.20970065507665098, -0.09323765808629236, -0.07225178218016562, 0.006220846401556808, -0.05300850715960307, -0.029376786161879512, -0.07623043481804415, 0.022179308442656653, 0.010616930904652926, 0.009359635390085597, 0.011087715703277962, 0.041062228947093125, -0.024206930551746293, -0.03797238856659912, -0.02250299313275942, -0.12046203334104749, -0.11031921732534887, -0.19280941555870987, -0.2879569718562201, -0.017233491913814746, -0.07839284413879366, 0.039010908510763886, 0.0222507377867015, 0.08442555044860113, 0.2138544228341911, 0.40545643529734193, 0.15479895714864253, -0.1074015093542892, -0.2729591738257726, -0.35619956364724875, -0.08045348071631121, -0.14909918488161933, -0.0566544174755239, 0.008429961654908856, 0.004809307684819182, -0.06012797159520282, -0.005136518945333447, 0.00910975671025293, -0.015820209479811713, 0.053418662744565484, -0.03475722047000104, -0.06301600863017044, -0.1428017753739779, -0.18974889675515372, -0.25835261309146723, -0.33939770546165676, -0.24988625858783942, 0.07074512050518557, 0.06842770171302208, 0.03082798394336557, 0.020051329482634068, 0.18850624996058793, 0.23010554974077782, 0.3381643288819854, 0.2744133973339676, 0.02805614955823761, -0.09689625706325257, -0.27321364470619663, -0.06176206952191871, -0.3353957205706114, -0.10450616014532196, -0.02688157393435758, -0.00906934763571483, 0.00012207390914315697, 0.005726428992370751, -0.04885302619881344, 0.03138858975441197, 0.01719377020096619, 0.01864650713950481, -0.1018091823345617, -0.14374369206518103, -0.2771085509814713, -0.35773619253589484, -0.556786874687125, -0.20543915615329622, -0.20326035922772434, -0.4354920360344233, -0.1333193755278407, 0.07475469917039011, 0.08539710415663769, 0.18339406770376016, 0.6297953112785599, 0.988089962099802, 0.5984563736356646, 0.23948779914173987, 0.12016590587674388, 0.15208371096664391, -0.11712439435811646, -0.3082936825121338, -0.0520220660939768, -0.012520501895494822, -0.018262200336997887, -1.5229507361191238e-05, -0.0016130177549585807, -0.023417685369935506, -0.003980919068713822, -0.09322870801049656, -0.2362634387290906, -0.3224254392998597, -0.3299178542614674, -0.29756181733273857, -0.3422704100397274, -0.06525572555670142, -0.4443962900595722, -0.3179521513417431, -0.32688340306543223, -0.4147981121075733, -0.28511217059898725, 0.015719919493827603, 0.8329021164751628, 1.075842640369154, 0.8902613773200092, 0.3138550401844357, 0.3712581647220592, 0.44579130288354873, 0.25513072966622036, -0.03679624380246988, 0.0733050772696397, -0.07226366525480361, 0.036524441407363745, 0.010634539079576477, 0.0029200140919902005, 0.06052952397366506, -0.0541855801248208, -0.12233597740748384, -0.2708295511773037, -0.2605973017782004, -0.339423457001148, -0.26068061858042324, -0.029979990447868456, -0.11353619718682385, -0.09027412263053296, -0.4109164339961103, -0.5303350990216644, -0.5885781284805114, -0.4840630251145367, 0.06917711559745678, -0.019333856323807772, 0.24119225465129537, 0.5783668728500307, 0.5170451822936424, 0.47637512642478436, 0.27813924894149744, 0.2636425431345128, 0.0651680981326158, -0.14927358840289193, -0.07345417930539198, 0.008062585624420684, 0.007936751631418364, -0.0687581961562582, -0.04593296400454062, -0.01698834284137236, -0.15002715762501226, -0.22356577989753107, -0.024143161153627076, -0.11623784291747405, -0.13677485149834226, -0.028442303686671482, -0.038394024898706754, -0.4528959954637407, -0.29422470041881627, -0.2864157716540324, -0.5770545979422834, -0.4182914032616675, -0.2992483367651279, -0.3497190132485796, 0.2599277610671144, 1.0549765106222206, 1.0020508191956063, 0.23622604149424697, -0.06987619403960858, 0.021596523700701337, 0.24531677032967555, -0.2475640440071911, -0.03476054081386521, 0.045376423130528025, 0.005281854318357715, 0.04235292197373559, -0.004910498779695061, -0.019508281045885038, -0.18025600560389415, -0.14862459730868402, 0.018614465454120488, 0.010142802797113406, -0.11001516282223557, 0.09099101598663364, -0.5212749440280284, 0.12339436667372042, 0.39282945649394985, -0.15821349479648156, -0.05944883922806355, -0.07022369136602838, -0.4595433743733766, -0.27611288268345324, -0.2812091068308913, 0.10260380306449378, 0.7373377396105555, 0.6150557071186791, 0.05529819926511162, 0.31811957319998896, 0.14814249370040575, -0.07830616358857824, -0.05161446779964634, 0.007984755967780862, -0.04720919952506726, -0.018628051173909695, 0.08349401690565396, 0.0404198609893703, -0.016918101297526553, -0.15528189499442946, -0.055393559592547326, 0.29936311063393484, 0.4654625041361434, 0.007797091229381214, 0.30346859042803953, 0.5192099537701159, 0.06869973562573845, -0.27327558590920775, -0.08228094977573909, -0.5728997193326809, -0.3525512315266844, -0.5470769308382328, -0.6690812480030758, -0.11026885209480003, 0.6296292509701097, 0.6040502118266591, 0.2657608844651293, 0.3001895926194429, 0.5588247433698199, 0.038072015308106444, 0.04607778018640967, 0.0367583972902907, -0.01642208707701433, -0.05105517263270443, -0.013723190506122127, 0.17915794439323926, 0.23784359286879453, 0.3712720314500978, 0.2817681139860407, 0.09111377539670501, -0.06997810394598862, 0.0327398426419775, 0.23220238312834154, 0.23634088438760872, -0.055445989919452175, -0.2299939792523804, -0.6132456394436314, -0.7988301485783157, -0.030473460904104414, -0.2778544899231934, -0.4097909269504937, -0.1176372339615383, 0.3306488042615765, 0.22492241688289724, 0.24715418136453848, 0.7419217612214202, 0.5231928618566271, 0.009131749631573503, -0.019954995895626687, -0.040441836849872397, -0.02741404482546368, -0.0022872836857088714, 0.007897100823456146, 0.1648454222614926, 0.5376616201583682, 0.22120579631664472, 0.12317035680007253, -0.18607832747570713, 0.15888205172007536, 0.07723571028785843, 0.1836084682536152, 0.05365035769967913, -0.2708613446999774, -0.27623966442100567, -0.17206589444380962, -0.0946451957582407, -0.15064670997408028, -0.2997977993328854, 0.0578240033870418, 0.40086444301756674, 0.6415698544146907, 0.8348435749025703, 0.6198819797136458, 0.6156471623389909, 0.14794898557097194, 0.016250585255204772, 0.03779453891498686, 0.04739303070916672, -0.016102188974312804, 0.08137204677263082, 0.025669639105587096, 0.1638377537650867, 0.10237023046703324, 0.23536197297402367, -0.03860294646601183, -0.2161424012829053, 0.08485784507970377, 0.3525586780461885, 0.16630640086129822, 0.17818106679194332, -0.06296564041555217, 0.3043044836782249, 0.4563004108126081, 0.15693393866878136, -0.2954367624449902, 0.08734571171970085, 0.2741930917951824, 0.37384442069188756, 0.49286722177742176, 0.7512319064040525, 0.6004089113716868, 0.34601371702515976, 0.01580042730811351, -0.1152308596195263, 0.02185797153350029, -0.019138011099376434, -0.04259467145683801, -0.010679898222921843, -0.016094876395900917, 0.04865220628970585, -0.00046552894076812057, 0.1633762449960356, -0.3302640994767365, -0.3790058207041813, -0.12781049849934129, 0.21941553532472624, 0.2911342725696138, -0.21533256194064307, 0.06248684942184625, 0.43362692250275403, 0.23058581032517925, -0.3225854267887455, -0.3569795088749921, -0.12531338303182937, 0.09611700973416334, 0.38237491487732916, 0.44627959360925595, 0.2781065407455141, 0.3492572626601318, 0.2017383822518055, 0.11359859531193418, 0.04164470420600361, -0.02827418201188233, 0.07046910282909494, -0.06775226215846572, 0.01572281996031571, 0.006994389968813792, -0.02387600867060005, 0.06992538469164761, 0.20343025838198364, 0.09277577104813017, -0.26206040889214893, -0.23909760228007562, 0.1721384322838895, 0.1065587364263698, -0.2489296680502234, -0.23976402688101825, 0.22732582532766332, 0.11909213793019659, -0.4364595186516366, -0.568486220083124, -0.1904973169853315, -0.22457047809491754, -0.2914665431927042, 0.13383197015298584, -0.2512993671793782, -0.034133482431576385, -0.0759924109878901, 0.1454964472004426, 0.00047608434677624877, 0.0478882825156895, -0.015180194215157414, -0.003927061524504738, 0.023762221748656612, -0.012388889515937503, -0.0501091818748474, -0.18634339224823768, -0.015061435308917955, 0.16134793142049259, 0.10020450344694944, 0.2561274405495079, 0.4859497375107194, -0.20662938328202074, -0.7571259220252765, -0.5088910747151962, -0.09927589723311456, -0.12101334508278136, -0.3118729087592946, -0.21334722311579787, -0.2983035150146719, -0.46671153640328444, 0.025354539482325224, -0.05927584574485936, -0.16237227067781415, -0.02757877841977312, -0.1506636884085282, 0.1221829575863012, -0.024998660557098054, -0.03246223671856751, 0.022485195105863137, 0.01024626778880251, -0.0036304546963280867, 0.038131457152987804, -0.13457008056115766, -0.5161354227409037, -0.1035829731772414, 0.21428199032633666, 0.29150801207084864, 0.2568527890848713, 0.26118026645401954, -0.2590361279692177, -0.5896684601174095, -0.44482403054432457, -0.22850929868376246, -0.3425845860638515, -0.23592706013105527, -0.22443428797034132, 0.05906738454080516, -0.1568534242920681, -0.10109673517921275, 0.05337216908409704, -0.058568932526455494, 0.11953614610957776, -0.03874527253873874, 0.046884285392609366, -0.06542776216651278, 0.02730673775047929, 0.00367799752799585, 0.02587382764260436, 0.05287748581553688, -0.018300175315178822, -0.2771189734416029, -0.42757510360948003, -0.28404090445385605, 0.29808970802262497, 0.12181173658404464, -0.02598070634237049, 0.15021571555862503, 0.025633597130179698, -0.37494175485022274, -0.10468904032445149, -0.17984160977319213, -0.5295778252373957, -0.2890367868635067, -0.3243833787366069, 0.0788507977163608, 0.09693998569276766, 0.006689150680891639, -0.10905541603314207, -0.1008633621807603, -0.19446545942350993, -0.07330840723115828, -0.05931633975447409, -0.07574034747006976, 0.006779101541233992, -0.021360574361465635, -0.020490607613742017, 0.028022283432017497, -0.014955298217550045, -0.22877329714212147, -0.4787492977762805, -0.13426527970567093, 0.06932567618744194, -0.18562485882540813, -0.2900485995675447, -0.13568960140042494, -0.2716302665197079, -0.09390638819662683, 0.07581477771058802, -0.06076187218040782, -0.45271432259806194, -0.3407138996169104, 0.006955412145578227, 0.06079661437972689, 0.08692653652730425, -0.29751894302285325, -0.34283634644372674, -0.22630288490625816, -0.29757558174590615, -0.1718161248840215, -0.05733732000334408, -0.056996921401728386, -0.046276592620723075, -0.04787683265434803, 0.018541098715553157, 0.05638115261690509, -0.0009259800389492806, -0.07406052854951457, -0.3745822774549856, -0.021456380686397537, 0.2524918272428688, 0.16926426014542215, -0.35187404167365205, -0.4306549953313294, -0.2818326982844549, -0.17196763475936247, 0.22409266884118545, 0.24586235099836015, -0.2569502628974952, -0.22694081935613172, -0.034508052159306794, -0.36115470729144683, -0.35809128319830413, -0.1859949231041252, -0.5227582824138439, -0.33384263344178744, -0.3245072714155317, -0.2599633820115291, -0.060647984455342384, -0.15033541716716106, -0.0014395121727582049, -0.01646848881985778, -0.034253608384301394, -0.01101038886205968, -0.020304550979321507, -0.04495798575055497, -0.23158707674600523, -0.04732507283961265, 0.3566463566851502, 0.052115303364362056, 0.10131760022205659, -0.15927867172984406, -0.012880762395730109, -0.1932918299563041, 0.22953842925374016, 0.2260798559644623, -0.5155315886743814, -0.2680018668263916, -0.3744513160005435, -0.2261459463059014, -0.3299733876562186, -0.2872388807803489, -0.3032996734512064, -0.1860815247213214, -0.17575544252633557, -0.13180264339574876, -0.039494102931930446, -0.15190638705436268, -0.006935659265608445, 0.07159708729390767, -0.022202262970288496, -0.04098587268684562, 0.028320880836862263, -0.02628326770910249, -0.22782591804536348, -0.05286042307326055, 0.1341119797060445, 0.17068063775848327, 0.16860636356360895, 0.03291729934312684, 0.16877252430374567, 0.13939721868827995, 0.07151505985432415, -0.02333605751805381, -0.414416305465984, -0.21961233781089753, -0.2694542133811113, -0.16005349189493157, -0.3666773816109849, -0.3325924000027865, -0.06597092297272437, 0.017335130958398757, 0.06601809090902021, -0.02639926584651953, -0.035654164295046906, -0.08403958378334471, -0.0003757181785608889, -0.012707905805255746, -0.006092802099795946, -0.012695946080802559, 0.010609498503361533, -0.07737500738252134, 0.04017983658768272, 0.1112156081108751, 0.1504118387528986, 0.11352688535681398, 0.05872580718868359, 0.22489470973851824, 0.21549023040828025, 0.26845842804404435, 0.3355890420561919, -0.17520210346903806, -0.3488890122486986, -0.420080549699847, -0.21871912656373, -0.22824334531921414, -0.3629660765936017, -0.23246111078114765, 0.10100456046475281, 0.12748019803261645, 0.13676910508422618, 0.01717296945107407, -0.043649563852348895, 0.03616810343197692, 0.05118806709631095, 0.031668247756738065, -0.01982733212292925, -0.014986599244865059, 0.0018737342428066296, 0.006965281523663859, 0.10556449541990216, 0.27602975226637066, 0.1707845282698209, 0.22747538817140664, -0.011502667548763957, 0.30803312845170383, 0.3284625591994616, 0.36753440419417605, 0.39951309266657303, -0.08491937547008668, -0.09411218479722021, -0.11482598869991588, -0.06031995393123654, -0.04030246304424031, -0.12230318887180146, 0.11350288796190477, 0.08580893381221597, 0.06676412212870818, 0.06403413656092581, -0.06070541401524234, 0.002911291264385722, -0.00014556557336567336, -0.06282427294500341, 0.031500565158159265, 0.008415212495657935, 0.027276636900237475, 0.06349678500153137, -0.021734905135034167, 0.04370914310831316, 0.12892187955055961, 0.23275524070774758, 0.16637776596991255, 0.28289057395074746, 0.2690487686714594, 0.26973543088928076, -0.06695842833597768, -0.19256505528711151, 0.15246660764958994, 0.2716175474076174, 0.14437782068668262, 0.017777918288849236, 0.06095780077625679, 0.026811744628656688, -0.013849179387706205, 0.08522655954810941, 0.10175205025450511, 0.009536281765302064, -0.019149491724311712, -0.011761958815563144, -0.07144581039661696, -0.0223179451815753, -0.01783415767071658, 0.01815133184836651, -0.03559533082793041, -0.08987499255477534, -0.04681200635282547, -0.017960483263232175, -0.04919219846549536, 0.04600762816739841, 0.03017610112184208, 0.04575986820480108, 0.059518800346058415, 0.06917651901535733, 0.07214170893429205, -0.00325895357593246, 0.006615323787160622, 0.02506051509734206, 0.010994524524600535, 0.04803069240028897, 0.0035236438115397077, -0.01032835165791041, 0.050134554608663076, 0.08367970920940236, 0.055850359361143, 0.045562925194700274, -0.003044333590585801, -0.03632854314172408, -0.052595582053361484, 0.01842633082970342, 0.013336159294689417], [-0.016217811177794153, -0.02663496310130454, 0.0212006558613189, 0.024420427488498174, 0.011852292072617388, -0.11450747815166887, 0.02999260243156173, -0.05314438581789645, 0.008232743792636861, -0.014515316109698976, -0.000500955969187768, 0.025481286495962145, -0.01716880788661374, -0.01906816165653825, -0.007788518644811136, 0.07480364991671107, -0.0050279141862239005, 0.005547894974000658, 0.015084803729190698, 0.0294845367265678, -0.02516993887143602, -0.0011080956338528466, 0.05862742085671014, 0.05660625814591283, -0.0520465323221536, 0.05323298968056764, -0.0022234254805113722, -0.018139208125227534, 0.03903335504852247, -0.03434133381059503, 0.035383571769701465, -0.007574403726356091, -0.011535564342283295, 0.01706748278468589, -0.016358541551120678, 0.047847476773270926, 0.001250103555549171, -0.07287504562974553, 0.019572031665934995, 0.02385618943441873, -0.019261881111044106, -0.01097283184011664, 0.056211425144153615, 0.028806123097271614, 0.008180873585901659, 0.020277524061085034, 0.035669047224418875, -0.005098755704604296, 0.0436132762963156, -0.0403384973851889, -0.040741960656266944, 0.052444784172891896, 0.012538326647916176, -0.0030938717407513728, -0.0034509313221751624, 0.0309947418166343, -0.07205333695325426, 0.008098227815752774, 0.03498967217174839, 0.03483801189364396, 0.029475758150778696, 0.0133950936576418, -0.02920161341789048, 0.02222810297900962, -0.05374213350279508, 0.03945067425515356, -0.038450539311250656, 0.0037033404342932683, -0.0029950117559096393, -0.006146542939890459, -0.019464941442496168, -0.00023336886786354448, 0.028440877814041414, 0.0014173875950954406, -0.043220200119977834, -0.0036905943218748342, 0.032199857024166334, 0.007398142693708674, -0.04364125952465255, 0.013966782299613265, 0.0393516146643062, 0.016418853691776484, -0.012518268710897782, 0.058674548695264596, -0.0018684118592356283, -0.034383635162215494, 0.016009277796677386, 0.017839088020533488, 0.028865713359828123, 0.04244238855375523, 0.07522992723897313, -0.011342594102079951, 0.008457740031976343, -0.06170051578474088, 0.0023632415022321455, -1.8891109256539426e-05, -0.06130931280278859, -0.050118669132717425, 0.03740110357848741, -0.0795846688086752, -0.08980491452362542, -0.10376903606288464, -0.10871667973886522, -0.01729889158646376, 0.09128704858325941, -0.017597655935927867, -0.02672822939181741, -0.004406238351277899, -0.02422137106732673, 0.006610513554624624, -0.020150699930805566, 0.004975026472392634, -0.0038906525411125676, 0.01952305591976934, -0.02786168639340241, -0.014953847767153736, -0.02412964677760906, 0.020150458266290756, -0.020202809608470252, -0.030512953176718628, -0.015767080871633275, 0.014349720261199224, -0.10494983163028895, -0.043057566221355405, -0.1222294896923837, -0.15105747357362612, -0.18868077018363555, -0.11296629191326284, -0.09510157540749539, -0.05829197928791529, 0.03662605714370067, -0.04582728915712254, 0.09943148655784273, 0.09916427208377984, 0.011589301268870717, -0.027514836258127916, -0.05058743516340994, 0.010667459154099477, -0.03443654981151517, -0.006192421284937408, -0.028540107151217957, 0.0016634586803679283, 0.016611107990348137, 0.0668593450479103, -0.004114274288814606, 0.016611476129656078, 0.07905677803623107, -0.03404321708481967, 0.021989527481770344, 0.02730731846340799, -0.014611364875428124, -0.03062096596717285, -0.07891439797536556, -0.07162120921359966, -0.127633016433412, -0.19339353318521088, -0.14778022858192075, 0.030751694556630474, 0.08601503910835093, 0.044686547188142405, 0.05875033568516374, 0.021198817345455388, 0.039149504457106486, -0.09033336614730504, 0.028912928281813022, 0.022843896002389417, 0.015657647148749166, -0.02179537478262619, -0.02974821913272849, 0.06343067664590747, -0.03651370659798618, -0.02246226061096454, 0.03109823310074195, 0.052346030970028046, 0.14671938604209792, 0.14150916754631454, -0.016923258549849652, -0.18579755068620024, -0.0708521807125195, -0.1105971042686355, -0.15596852076703316, -0.07823043847468525, 0.013360140284835249, 0.008355391197492871, -0.07076292283286059, -0.07100477766787285, 0.10002959695983242, 0.06873175488297399, 0.08261104898153088, -0.0033987435521471696, -0.09068208604380541, -0.01047618130376265, 0.035925761648639185, -0.08286469232911842, 0.02645629240608569, -0.023028812097524755, -0.0072040071999088465, -0.015165079631474078, -0.04747449499008228, -0.01615059378449276, 0.006864516046547306, 0.14520483303256915, 0.22746047844703005, 0.07829190582544554, -0.14227359223449562, -0.0570363378661726, 0.01767903974944791, -0.15309525690791817, -0.043477902846233527, 0.08329017793011692, 0.06408028003744735, 0.043911156198978785, -0.15692083107850763, 0.007543997883312822, 0.07479247952678612, 0.1917242191633074, -0.07169792793727876, -0.03191310585817925, -0.21743648551240705, -0.13151191020361913, -0.010547631432435069, -0.039491630161607505, -0.09048459974788356, -0.05656204213935509, -0.06512561757807779, 0.04066685000808631, 0.010322901946265112, -0.02936338994423595, 0.02271768979344131, 0.12728449371139483, 0.19233777675341412, -0.10822170469312194, -0.09674753866831322, -0.16840300981464496, -0.19319293885111802, -0.2258010041284884, -0.06787079424866355, -0.12643516312572345, -0.019315727822391347, 0.044248085391172864, -0.005352829494866437, 0.08054192232531046, 0.21324089257713008, 0.32630120897953785, 0.10612090110767505, 0.1535274327016923, -0.10248109304152192, -0.2764484697005845, -0.0329543120910831, 0.04154812888617954, -0.023306037648543058, -0.013958603379954321, 0.023499537094460173, -0.007914994718860986, 0.009624118723395218, 0.05868848846374081, 0.08727294476396853, 0.09497791810989527, 0.05072223503710482, 0.027355511703302273, -0.08463121930321782, 0.0639456616686163, 0.07963325053499214, -0.04414189810245856, 0.051986568316196954, 0.1334548014508948, -0.16360814191688938, 0.00965840257074465, 0.10344704915034612, 0.0823235457321691, 0.26264200975473095, 0.2397285315953043, 0.2870584152600044, 0.08687815914626065, -0.1842766586292641, -0.1473402518777905, -0.12443191173644545, 0.08320219755988047, 0.019315433958306854, -0.0886901159627452, 0.02602800363542044, -0.003585638042275938, 0.015412842067402356, -0.027875559290758172, 0.035340242256679345, 0.08571446831052418, 0.14025539712146828, 0.1511140686134236, 0.043274678116092494, 0.021384605990701116, 0.013015367841975291, 0.0050116625391947705, 0.06643639899573223, -0.10672131759674541, 0.038122835863194114, 0.22491910708156823, 0.1345735359988785, 0.13397468962390344, 0.13031636835444738, 0.17974262057161014, 0.21303031237492986, 0.3469805727773779, 0.09447298829827572, -0.001765392259190836, -0.06108704425379076, 0.011102727662638874, 0.021547908752393163, -0.016351842363289716, 0.012724942296677684, -0.005640957759509432, -0.006318811992947864, 0.021320800282725528, 0.05898742156146099, 0.11451163338626717, 0.1809442217282425, 0.23261058894351927, 0.07495655445731894, -0.07090299277110149, -0.03550876835348948, 0.0005722486592922045, -0.019706941891191872, -0.170093734281276, -0.01695009424299312, 0.32518197941919863, 0.19828656499039615, -0.13139805881918834, -0.05199391778256018, -0.017517377673452645, 0.16428915686105675, 0.29926830154877576, 0.19589882304089948, 0.19493984178951737, 0.03948859419252163, 0.006495425548249171, -0.03260042610352117, 0.01889268128135116, 0.0036219774219004857, 0.028661546386108676, -0.07336863190956464, 0.05969788132358656, 0.14876125234856646, 0.1368854433324853, 0.2894935082952938, 0.25748639299038595, -0.03960821740410903, 0.048122885531891646, -0.20819737780953596, -0.21590659011962143, -0.23953230382348809, -0.2616246893053857, -0.05931759445577207, 0.11746977909777925, -0.06253922178964472, -0.21336010836765654, -0.2704837989533741, -0.18954559339139654, 0.14848722200606254, 0.25025123407933375, 0.03437602202495889, 0.2878989398717528, 0.037916163687033544, -0.07926517453282902, -0.02409720809461582, 0.009193278037131054, -0.04836135341461929, -0.01647661064739292, -0.017827208397146306, -0.011579380957661997, 0.2365595666479016, 0.2492097823459735, 0.4048162135399673, 0.28731949817042196, 0.007457946693747511, -0.10460715084467187, -0.14659401780191036, -0.14101659184428733, -0.3355470845799245, -0.2715496804710401, -0.11044624473823388, -0.24004209327025883, -0.27259919109090236, -0.3944726837454955, -0.32562664799039065, -0.10968142770640336, 0.07228894777186887, 0.20205217563977712, 0.10240056679215727, 0.19603852863587726, 0.001988490962641906, -0.044586761924886864, 0.04172825847116415, 0.01911738287935102, -0.010886987957029231, -0.00036148143044744676, -0.02947037639078453, 0.03627643341460783, 0.16028052512278204, 0.21227481580340193, 0.1822376481195257, 0.2811027759719765, -0.05463889768260591, -0.0008032791507238265, -0.23062324882140428, -0.24379132470003806, -0.24287357066048323, -0.0494168165654791, -0.060811457206807785, -0.30659820774132235, -0.4304933058959347, -0.5889475007351064, -0.5273196641624402, -0.12891339651624634, 0.4014698956290344, 0.38726526478371603, 0.24665190665405418, 0.1519530387870668, 0.18071357928168172, -0.0028200664856183246, -0.004379712959106294, 0.04196497329122495, 0.027460496188317828, -0.004319432011995665, -0.042760316158219853, -0.09595660127058227, 0.02065695705958309, 0.14035445449129835, -0.014405695147188828, 0.22085199560163163, 0.13478097636678876, 0.022680789950898957, -0.09496968648065143, -0.16937830528843095, -0.07284132672756774, -0.044257727076521765, -0.009546477189310214, -0.2694471251252315, -0.43372859377724116, -0.7348792325175407, -0.6089375284082944, -0.1620248770475496, 0.4366107520235796, 0.515751220129483, 0.2176588605507007, 0.08559814249640002, 0.0923702470128626, -0.04788293386807695, -0.03249394408740229, -0.048830100459505824, -0.011092596186294115, -0.03474513503295348, 0.01378173396012661, -0.07065920502294369, -0.015379950364404153, 0.15608571168834476, 0.16759507729402384, 0.3497279740880065, 0.1490187107819437, -0.06755502541341728, -0.17585676669955905, -0.1718460022495753, -0.08534090534100061, 0.08961619977012684, 0.1049692993017886, -0.18738638046268252, -0.6271358995440541, -0.6604116219387716, -0.566568416395796, -0.11743625298961671, 0.5369815387913807, 0.2960039011240219, 0.19355363583214608, -0.061283180459775245, 0.041245461184062526, -0.07034117490550622, 0.05747601614637341, 0.020826535429965914, 0.010506670019300552, -0.042512331889940254, 0.04099403796655507, -0.01444639361173584, 0.12593023128697947, 0.0937049396484524, 0.03332419618781249, 0.36020442659324986, 0.23597948446036543, 0.08184239940864316, -0.08260825649944263, -0.025972853336043017, 0.21596191777800117, 0.04501156078047901, -0.054975206941221474, -0.35452458288713035, -0.5338479712186542, -0.4052309618774385, -0.13902330728280365, 0.377534689745811, 0.5060964803503624, 0.21770849778917664, 0.14419880519821132, -0.05691581197869674, -0.07864537727563646, -0.06353123328144697, -0.0006124354012745056, -0.0062107302941168015, 0.012471415390322298, 0.014416071999971011, 0.04637613244976244, 0.08732657409082197, 0.16599811164967457, -0.14975829555108008, -0.014807871976582183, 0.08989113967201419, 0.0384920962518047, -0.0012922101014259924, 0.08072679056850204, 0.14557124317580164, 0.1979443493804275, 0.047454504256763154, -0.1915199352800236, -0.2343128119381127, -0.3769458845271541, -0.2702842785807235, 0.22072060551018816, 0.4478848457510843, 0.47158288390654457, 0.21448273395942175, 0.0554659588386202, -0.1390272117896119, -0.09461438351793676, 0.060603400163350474, -0.013357471353590996, 0.06001425029700261, -0.00813184915247182, -0.06041554602290528, 0.021730581524306982, 0.12674456559347316, 0.04812786229253164, 0.037718004302601846, -0.027880522656831146, 0.10032623353961623, 0.08475979476121132, 0.041383573658208814, 0.0015015798897847043, 0.01534556814985189, 0.147295857589972, -0.02603883370348034, -0.08757830357338911, -0.2328247643933989, -0.1871659525593589, -0.2173775890546971, 0.20076021986416442, 0.26869834326668884, 0.3171557331457875, 0.03892807153715024, -0.08976646345618403, -0.17839916116853516, 0.00901160829228058, 0.06220883724095136, -0.04507027770925581, -0.021604752793627162, -0.0022778403351191045, 0.03293850510004665, 0.042855372454773534, 0.03620765010427073, 0.15700417054440405, 0.057269974333130816, -0.1697615005488687, -0.10433635801365276, 0.00685369936893725, -0.11169142261586451, -0.11896982277300534, -0.0636706644409742, -0.075213478805004, -0.12192281045250922, -0.16116939947605463, -0.20215619346971297, -0.14181133362838907, -0.182464692013837, -0.09471182181727196, 0.13612943473909941, 0.21249482980383927, 0.08582461211714881, -0.007341237089708795, -0.12982133890554268, 0.009227167528135852, 0.014842169163867693, -0.0317731754530197, 0.035861828351112776, 0.022393311835607707, -0.0014342221921562882, 0.048548861804301555, 0.017526477363468598, 0.08522384259995827, 0.05252141375257096, -0.07934650455941443, -0.1319238923248076, -0.06927665510321292, -0.09751019700606946, 0.0825895440199589, 0.0019644785261925296, -0.19517400587786188, -0.14096221592048563, -0.11220189402352536, -0.0672808814467776, -0.20059099924551738, -0.3759203206183027, -0.322134453423828, 0.05639687292912922, 0.17735329618634793, 0.14339569374547506, -0.03614717106907461, -0.046739042313967666, -0.021266005913088262, 0.010130706942613822, 0.011076055595666425, 0.04561317695808309, -0.027725603308802117, 0.0005512586996853415, 0.00970180843733421, 0.005498763374758646, -0.05085169015634117, 0.055685302692225006, 0.06508891265820803, -0.10274801254055076, -0.12489207249508583, -0.07573717965175301, -0.009474090347725816, -0.05470101265404808, 0.02708368188813139, 0.12350314088578195, 0.01991711088566784, -0.094408771664799, -0.09706146893832655, -0.035643036558260205, -0.01857365763805273, 0.23679016688734442, 0.23436499010560982, 0.2775145487511125, 0.18639397623896065, -0.036724200803957524, -0.05300248704802959, 0.01799066479288491, 0.044478312982448275, -0.02170490355823175, 0.03558031900709377, 0.06629287849954361, -0.004582479731339275, 0.007001898465525503, -0.019197726904980603, 0.009509971806710395, 0.05516019349586266, -0.06298066580619185, -0.16011742514619717, -0.14952249246406185, 0.11476313703872855, 0.13035113827662645, 0.07832694771959571, 0.048215836129230055, 0.026560208840661764, 0.016542426284134635, -0.15653527019142752, 0.015303249742623615, -0.01790758057657641, -0.0196006489687124, 0.17352874731041804, 0.1025526534815457, -0.07449835927320912, -0.0856342262752748, 0.009084391077293807, -0.05252739961629151, 0.03465520973438553, 0.015365854993379566, -0.04224614385078827, 0.023537629938479417, -0.0072868307894640065, -0.03617963768916296, -0.05178591605491554, 0.06816830875574524, -0.02024877055039963, -0.057417640435699274, 0.011738660264416776, 0.0648940958307925, 0.0769581246278906, 0.11160333596043373, 0.057954943031216226, -0.03885598961771015, -0.09692322790547633, -0.0971897256724718, -0.11922839334285724, -0.12668524123843336, -0.12334545492571465, 0.04993496953951329, 0.19666615677095836, 0.09062990512809038, 0.09434850574345545, 0.08034063601878068, 0.010911355033086725, -0.04711845120244513, 0.043955743939929605, 0.013815376382346306, 0.034654160195675306, 0.01461550295674824, -0.031821510613768006, 0.01359806208245859, -0.009894165984985312, -0.03515481230030776, 0.03966495990525501, -0.04403921537863837, 0.010518509807373734, 0.033887643237822916, 0.05288748688655551, 0.09164599401963404, 0.08510453805091427, 0.05196103560993332, -0.05245201062959094, -0.16086366451202208, -0.1775045262426051, -0.09217497706852179, -0.09936520826375721, 0.01809271870427105, 0.06612535835472222, 0.07947761395898231, -0.04279649896985668, -0.06598933138331235, -0.04022755838740138, 0.005288490425805366, 0.02418425706588202, 0.037736254034457295, 0.041633015454117704, -0.05623048404286159, -0.05793448908459991, -0.023001907785217088, 0.01582932584973523, 0.04005907667425942, -0.021998585258327864, 0.01571159320434923, -0.0347480493964656, -0.04666270429948977, -0.0747917144206396, -0.06491022221892898, -0.046332812063102066, 0.004552587346294971, -0.015179828916778507, -0.0648265794096932, 0.039914312728315984, -0.028510205377360938, -0.016236948809830582, 0.06374325541098545, 0.10907034669123801, 0.08728873905039229, -0.03861162897502966, 0.02823816127900107, -0.0093091110546813, 0.010571375367753997, 0.011646957412113962, -0.026599122466381957, -0.06523252093983326, 0.06101947577922085, 0.04754854175479752, 0.013512425755139333, 0.0062937981125674525, -0.007879070320193002, 0.05671658720341948, 0.040566882059867825, -0.006393404841818639, 0.0042482856015408415, -0.09345555992209933, -0.06097500805001186, 0.02603407382898144, -0.004477661437997848, 0.015216909780154173, 0.006002063961025257, 0.034570355128536165, 0.033808227359040856, -0.07368581431895234, 0.006977907234279843, 0.02288096677049077, -0.06174804570935633, -0.06827993889787534, 0.020674320224454413, 0.052991933643027136, -0.021014649164180867, 0.011325269026983387, 0.01338014367160131], [0.0006956863053720327, -0.08836411530234069, 0.0006794519770703025, 0.0015484163079744573, -0.009511777501231434, 0.013571691788362738, -0.009845954649582964, 0.007181032522614356, -0.03137979155417892, 0.01404474597536049, 0.0030006766255655745, -0.0003474355277197625, 0.032483690989216336, 0.00804157530832222, 0.0012669167429245327, 0.03351384927465646, 0.03206983659939559, -0.12308669391510228, 0.0752278589331667, 0.027819324253788184, -0.02667377313932233, 0.025350746393018375, -0.0021252495255733137, -0.019241226373110192, 0.020980913220818288, 0.0020947371679967217, 0.013101691672304152, 0.05553275630328121, -0.006046828349706988, 0.019523474341177377, 0.011817418451805568, 0.0026505648458846295, 0.020645298272230436, 0.00920975359750131, 0.014782712041427051, 0.012571458636093581, 0.015582760995000056, 0.03418358680838484, 0.08154818947803268, -0.08278709221496829, 0.02665125704710781, -0.019485089601194088, -0.019124906859044128, -0.013015650824910022, 0.008977371201099937, -0.008514843334402245, -0.06286420640135319, -0.0170246101864749, 0.001328267018820287, -0.002437480227015612, -0.02663733862291548, -0.03336438854776481, 0.04872418802687442, -0.0034462144559199302, 0.003037492403470618, -0.007995846921273215, 0.007685034028137365, 0.019888310387657992, -0.03003432314521613, -0.05481493785076293, 0.0242417551112221, -0.06152800043711668, 0.06424165509073014, -0.02114728889486946, -0.03785252631219374, 0.008170164873456062, 0.047619720510165525, 0.05810247291629046, 0.04271303710894248, 0.03629902374811289, -0.002623221576182615, -0.02731794499069355, -0.02150375520553819, -0.0984701391924486, -0.12356956925744912, -0.026252521358576097, -0.061764784080279286, 0.05792072005053536, -0.039230067468352746, 0.04530173409894937, 0.007770644836067594, -0.027439082090809357, -0.009659940268268904, 0.05246798710939306, 0.0030930664953443794, -0.013724786552938502, 0.03841141465554038, -0.04038520069511218, -0.019195111515234745, -0.07814715197120299, -0.07692370877983995, -0.05909609449435949, -0.021471223988328136, 0.05996438011823221, -0.05716488148437712, -0.15545742076931837, -0.15030050053163344, -0.20933240382189933, -0.13863663155428263, 0.09531167930299271, 0.15151760951658164, 0.022199007344476974, -0.147979528200607, -0.19191059215103587, -0.20036477594557245, -0.03200961524734032, -0.028854496038019043, -0.16989942260156762, -0.14197636617135914, -0.09914755515833211, 0.012396526416089312, -0.02581599589001235, 0.02715283116171629, -0.02839688835418467, 0.029723793160268745, -0.047018080735283595, 0.006209274362307321, 0.008041540897913573, -0.09102834736605923, -0.021460498928534962, 0.01700311615369981, 0.13104355155410435, 0.018457846171701934, -0.14608793670706077, -0.21864944958492466, 0.04246225243389607, -0.07036337416024555, 0.1029389842721886, 0.2170116814524938, 0.2560896603911172, -0.03255715652209046, 0.04210478934264836, -0.013746947171720595, -0.2203754590744811, -0.07491996940885569, -0.11665681648640154, -0.2121630788698959, -0.129239550335799, -0.01570710485219603, -0.001252353665619836, 0.04473619101419919, 0.03867608685970996, -0.017023607638372722, 0.050444939901269095, -0.022875814092912936, -0.03676151240916636, 0.04595202057555488, 0.019104956861809116, 0.0402841835222386, -0.016400642292218784, 0.04987683709459722, -0.12140320741013531, -0.1611635809544028, 0.014230201029105112, -0.012736483691596733, -0.007633243885746736, 0.01164458271359662, 0.20817297478802316, 0.18211659702450758, 0.11182099871276269, -0.06049321270349055, -0.3158262364199122, -0.25971134710210286, -0.24893001783954596, -0.11586388477485354, -0.14927625314805093, 0.0012000254292171234, 0.03297642833353359, 0.033744199458030824, 0.00468375140257541, 0.01737003469018201, -0.057632046515759275, 0.05084526510990289, 0.03478198385112253, 0.07067614780922449, -0.05273587266494212, -0.35872799049548626, -0.45080467335574875, -0.3353685438258228, 0.14828379385012264, -0.18852847293978436, -0.2808176945752231, 0.005480736220706525, 0.20686734571434215, 0.12046076123161717, -0.026210594977269755, 0.16170900873108146, 0.1044169100041087, -0.06363098292838193, -0.26259360650068037, -0.1918260956527839, -0.3908550142667931, -0.34840505363536234, -0.25160023819088106, -0.08992047538537777, -0.05768453551476241, -0.021153237524025103, 0.03998776541500402, 0.024784858981559087, 0.044637893336871994, -0.018132001560728785, 0.1863178773578255, 0.16840029476931564, -0.29013971368070374, -0.6934713750699877, -0.413218424850372, 0.052526834590986914, 0.4003834041846086, -0.06860144315349143, 0.02945634201261688, 0.07607860647106852, 0.02551352671852421, 0.013211234280448816, 0.03579436172297337, 0.0558983224179802, -0.24337644797767272, -0.19888085359379445, 0.05635754993002992, 0.06340310914868452, -0.33039890120001636, -0.33062623317843015, -0.1490957947482087, -0.1404816188428457, -0.0015073188886981414, -0.06451054005969598, 0.06235873006754924, -0.009153224484974711, 0.028350968543434336, -0.03891178418352177, -0.12434854719845823, -0.10935262376082472, -0.3171107308329636, -0.31327719357574996, -0.3194864029503007, -0.04856742424466956, 0.18204758529637918, 0.09009342576040102, -0.03955154326187482, -0.006334682195950467, -0.12468387212034272, -0.05252775686652183, 0.517322288289794, 0.24175500519155796, -0.1507174144227694, -0.25263233606776825, 0.20605635057118016, -0.11884357092425611, -0.2669558955497996, -0.24112804968196694, -0.21594664090741997, -0.08975074322328533, -0.043215375722898686, 0.014705140114997052, 0.0017448430545191375, -0.0027384807551501193, -0.10270686259272638, -0.07396685744531228, -0.27865112154432325, -0.03877330788951459, -0.2803086008839479, -0.2555226876770034, -0.037496579689284146, 0.1196623389865772, -0.20454242298523784, -0.3814542201380314, 0.01726080302239137, -0.21034558781554008, -0.48431169739509017, -0.7194894793449609, -0.3230943319102362, 0.2461276998338254, 0.5608834552527157, 0.3841179754288568, 0.259131584012632, -0.3026389734601589, -0.013986034835738837, -0.19607404738317527, -0.26990425893165704, -0.09694913492164381, -0.04871332865503314, -0.010186430958889492, -0.025743403319874215, -0.01352596862434374, -0.009640606610779801, -0.07677530421260753, -0.1733129558343003, -0.011130387208132005, -0.18911466962579432, -0.4869088255744436, 0.039874782504750135, -0.17151037673504743, -0.043675641524229016, -0.04034371719455762, -0.1127579720606049, -0.15898327759598696, -0.6575552980620117, -1.1120353017716034, -0.40958169946838763, 0.29122087189230167, 0.4264750865743701, 0.04422280977657579, -0.07023745529909423, 0.2972169818800617, 0.4226718023625135, 0.02028803322058667, -0.21753035929238898, -0.11436745083950713, 0.010631956016773933, 0.026647982706030825, 0.020906462636131922, 0.01760379520685455, -0.007846597485384329, -0.1484987069965076, -0.1591116691827557, 0.06604653193288848, 0.022250429133043013, 0.06532163268594166, 0.1190481915797576, 0.040534567277118835, -0.3528926683763254, -0.21957208575846437, 0.25076671322417804, -0.5758358606142829, -0.8594317068588364, -1.404567590380664, -1.3588634683426595, -0.07973134113447883, 0.63199399017324, -0.05314974636422916, -0.1424699540997259, 0.41436546300186194, 0.4582720310340946, 0.3718764377265144, 0.027107759648970428, -0.023418459936921772, 0.03847307756145964, -0.025843545994683928, 0.03729876648930524, -0.04803788134344369, 0.01539708638036421, -0.03435636606334614, -0.12458501298700693, 0.34964124638510186, -0.11440287308402582, 0.11983839884553794, 0.28003512457515617, 0.071676584367113, -0.10499772815835083, 0.2784086959662025, 0.3145340103281693, -0.5217885017608547, -1.307032631356005, -1.720526085266093, -0.9673634491503645, -0.26868640957638884, 0.1301867309008188, -0.49032698124873814, 0.14755260940176287, 0.47808395984320873, 0.6917066170427469, 0.6395899346578819, 0.11773813966316904, -0.04650360991576168, 0.02655596711062131, -0.053757094211383874, -0.020161813259578734, 0.019704826018798707, 0.023606636558693685, 0.17205028589065263, -0.11154037435442035, 0.44631026680098224, 0.03983333953431514, 0.1357228792607853, 0.37785209774380557, 0.21505227590262457, 0.1321086935828249, 0.17606622211286563, -0.0002859281601178903, -0.5601866824863103, -1.1727215818339827, -1.241751288742737, -0.4417857624764347, -0.013285423412181913, -0.019337337205150743, -0.00853691589396107, 0.4037851512809231, 0.22655604884191974, 0.45511649119749403, 0.675372396405457, 0.23595998374513294, 0.05651532589063878, 0.009786974304166437, 0.017402298003145807, 0.01554757862169374, -0.043050001382690245, 0.10666014818873827, 0.13578754712426355, 0.17865252954224078, 0.2959451412798533, 0.2043966191691278, 0.4748571833666328, 0.18752904845199503, 0.3976959098139422, 0.3406353321986343, 0.0165897685669156, -0.21346922619701236, -0.4388959280694678, -0.8528397402636703, -0.5765728718333464, -0.1863274529851341, 0.2941304275606801, 0.29083847204604985, 0.16830513646477446, 0.168959106879033, 0.16965923933000657, 0.12217960815958392, 0.5297468979008035, 0.2674210193460408, 0.03869884145060989, -0.033714019874760984, -0.034782044517262134, -0.032489694329389564, -0.0420956020218659, 0.1254644401591173, -0.2695357596850759, 0.3632161635794754, 0.0842821441706036, 0.4195023908370124, 0.332231431157292, 0.43109068513231974, 0.3401310845291079, 0.1739420568587911, -0.03922234263319367, -0.4062561249493589, -0.6526074106314768, -0.7422384933762313, -0.5832055348411549, -0.14975371579724064, 0.3122270835954975, 0.4325108742264124, -0.005841301116297513, 0.1449041821055778, 0.15619941047912544, 0.006098546081871079, 0.2673332343660609, 0.17095296570390858, 0.12496452996087667, -0.03198630715154704, 0.004848772586641086, 0.012806778677168753, -0.05020745673284286, 0.05715661788999567, -0.20234795249561188, 0.4603960216193157, 0.20431858989914972, 0.6190223421040114, 0.046493135571653126, 0.37876308699413747, 0.34622280059044425, 0.002421866072243796, -0.2847917286114523, -0.5830241214567621, -0.5520924379301984, -0.269676183173003, 0.12484710599512337, 0.6541351465798522, 0.6260168602208344, 0.3232637332829977, 0.006853890804028651, 0.5116727143517816, 0.3604383564279906, -0.07498258966874587, 0.23889652549140378, 0.2197662183736035, 0.05652655517831313, 0.005301603812346053, 0.03980944572917515, -0.02229580819157471, -0.03416205776390853, -0.15238872523802469, -0.20399320299817258, 0.26384062350651577, 0.32763131352680475, 0.38104250734244605, 0.1659752663404096, 0.6934614029179161, 0.28670965854854086, -0.13984087993777708, -0.23593450785153983, -0.30184470438748334, -0.15221666931609623, 0.5015946865670817, 0.568487955155336, 0.46379458480404623, 0.19805027019138807, 0.01891052397089305, 0.22106302343837161, 0.4417198115733266, 0.4721327515872471, -0.07335249020651129, 0.05706180872706133, 0.18535214668982297, 0.05357680940602237, -0.026169401959874244, -0.03459752406756815, -0.008699029827010896, -0.03012632882020621, -0.12199374745915485, -0.36187977280216277, -0.06145321371984943, 0.043418877745154155, 0.1828261569009539, 0.39878604840374204, 0.7040709292479166, 0.31835452601982206, -0.27549217099393797, -0.3467598941080901, -0.37517015825650196, -0.17300201904145693, 0.04845080172546634, 0.2143929460016832, 0.5214842973643442, 0.43736342026809655, -0.1265663379407109, 0.1658028066287839, 0.07284135640309848, 0.1965289777502006, 0.20470872294958636, 0.23118417448675743, 0.15353395180617666, 0.0031848579820702807, 0.025146352605512665, -0.019403944261086083, 0.006421057422596231, 0.035394043781159734, -0.15850181906995706, -0.29603776600278114, -0.13582959863785696, 0.10479211519519778, 0.40715677590019506, 0.6724217796796405, 0.8937887608671055, 0.49170787846724295, -0.18330475095284707, -0.5079588730986694, -0.6489618552673877, -0.5800037696890106, 0.040840641120444866, -0.17024260955588977, -0.12709532279882216, -0.3050483124333567, 0.15234722006657597, -0.362892405764982, 0.1280805203039545, 0.21745814748938816, 0.2624919370277812, 0.11080941511685717, 0.0944992998772291, 0.05987982517921457, -0.011620032639701707, 0.04578739422952899, -0.015133659143528938, 0.07070163222896421, 0.06896056434966745, 0.005244393812696209, 0.32564527887498107, 0.23618806482361823, 0.42350921875315817, 0.17658869398548024, 0.21391203651203075, 0.7720468154686462, 0.4836445732956249, 0.05603561522641837, -0.5545588806582957, -0.759090532125973, -0.27026391255284643, -0.2827963186535331, -0.11587045424286581, -0.06149122340855228, 0.057356739109571946, -0.08162888406110849, 0.23921470500685924, 0.014917118717416366, -0.07876844252693373, 0.13842236801545824, 0.10545331710263062, 0.016760722064821272, 0.04976134369802532, -0.04564854856018242, -0.011435994187346492, 0.12943930430721448, 0.22238613130452384, 0.128810235536508, 0.3696838242765315, 0.30469573927288957, -0.0754790805927798, -0.12146124822949048, 0.017504823054956736, 0.4006418994966732, 0.4036320463253206, 0.12828485213361465, -0.07853752221508156, -0.3242227649904466, -0.18588219633939704, 0.05096548375487186, -0.054049100581013886, -0.22333894064893123, -0.015646597081033043, 0.03287182210151179, 0.10955887899922578, 0.2222010606187049, 0.04922043681073802, 0.08989395797922616, 0.0760666207227875, -0.02598458852597736, 0.009404041985097967, 0.05559317756192818, 0.06348690005992685, 0.08881062120443772, 0.10256468095903724, -0.01873599326920044, 0.2743718139888725, 0.5354908891949527, 0.06295710022723824, 0.048850435323850736, 0.03884931589463669, 0.16118243484026729, 0.3899760975527657, 0.27995489524541967, -0.007516439349401573, -0.35695743278663117, -0.1331758321462279, -0.27056748491688953, -0.16162068146067632, -0.08900143667267998, 0.1528502010740514, 0.10575732309103812, 0.23794892402818074, 0.27443119456678045, -0.006081570334707245, 0.030957761400971496, 0.03196706012265123, 0.01603068216977671, 0.004505087131403781, -0.002996023504108588, -0.057693802377977235, -0.019849994317186998, -0.03200894578986974, -0.15178668539395065, -0.19874460987753964, 0.1758319362796391, 0.31284336802545903, 0.3777541250190041, 0.14034901084311796, 0.19841228417500206, 0.1584725978990523, 0.02100785500137351, -0.11587253130878289, -0.1827795819375998, -0.29266174809217343, -0.5539565346289329, -0.3793699972540642, -0.12118718805020111, -0.027679569506087277, 0.13970337973783103, 0.1699079944107409, 0.18777600613017556, -0.08727522297791299, -0.1089500272834075, -0.018347131775890507, 0.025996559038736752, -0.03907359245432422, -0.006825717653318866, 0.038432980588579364, 0.025644796119518042, -0.058414819857015146, -0.04218023447968771, -0.19559879047506148, -0.38719025105322946, -0.23661888416083673, -0.1353128225846137, 0.25655964303603196, 0.062122070549537826, -0.042095890565078696, 0.05919839876340374, -0.1578549603338419, -0.25662942336680344, -0.22171288942739328, -0.48672836941342634, -0.6387356467387435, -0.38657320786953325, -0.24671878738296896, -0.021400973776096035, 0.07684851091806812, 0.00016522496486482817, -0.19137563558241907, -0.2316830678838483, 0.02912215522458037, -0.006951347902087845, 0.027872273311573464, 0.007161036587197305, 0.031833907954473044, 0.0304890400173179, -0.007326757704578059, 0.010620341041861069, -0.009692668862714943, -0.023653723388229166, 0.07106895991225799, -0.009463790168648107, -0.1837460673043011, -0.2914259298083917, -0.11342961475105409, -0.16697628174579973, -0.13226374122827497, -0.2241533088576622, -0.1828905237512904, -0.17641882965809746, -0.2015533212640575, -0.1128760474265653, 0.028331905238619816, 0.14521442919380056, 0.08444948615862878, -0.06772151664403103, -0.1260100307735778, -0.1462767863563414, -0.02985705060886301, -0.00966027992846905, -0.010341637844977386, -0.009172809869586206, 0.031285765431676375, -0.012357972455255013, -0.008883097033509358, -0.01487532520364729, -0.01733397488271347, 0.010833622372484933, 0.042526512603367164, -0.022584874088480988, -0.11766146558802783, -0.14782133672309758, -0.16867264775676266, -0.17677963671306185, -0.11807754958159881, -0.04011791309635358, -0.11216732555352701, -0.12245214409766425, -0.03866948832751427, -0.03494658475357229, 0.06703393921141663, 0.15726563178418226, 0.08683617975757833, 0.07929083855721686, -0.052917228590580706, 0.010547886831781251, 0.04614832345764426, -0.01268291337532127, 0.007832477206995685, -0.0005274852108959578, 0.04382959164040733, 0.0050011525579107445, -0.018793840696426176, -0.004228520368724595, 0.028252640597523217, 0.025905861972996075, 0.07466012580427057, -0.03936670720742264, 0.0054244973408182845, -0.059428484404845626, 0.004245384060149739, -0.02684447095135869, -0.025111360185738018, -0.012464433141832936, -0.05790434817718839, 0.05091402103627101, -0.01763260339252286, -0.09449770357372239, -0.02704934913857659, 0.04182868186921613, -0.0237077932247489, 0.0437973549891766, -0.03979838023363303, 0.0446805251651353, 0.04497913254494971, -0.03431621760504105, 0.08635987135791832], [0.015612737570765383, -0.029059477360041372, -0.05306527000353591, 0.005816875858984168, -0.0808248879952676, -0.040054615018001664, 0.03282665937998475, -0.04046349499138616, -0.020779951268908997, 0.0148090967272562, 0.04212095959828173, -0.003465810381365991, -0.002810876672596525, 0.03570968034246516, 0.002761645902265797, -0.001960397724907388, 1.8480939093413634e-05, 0.1075523229075102, 0.05027587488331879, -0.006239199196958046, 0.06626064314443562, -6.123193387931422e-05, -0.005520243768988508, -0.023662716783038558, 0.026685552497778348, 0.04194049723655488, -0.0373579382004833, 0.01030567323997489, 0.05541302234001938, -0.0005245539321422002, -0.052617110596170635, -0.02321859874118852, 0.03162786910912572, -0.022226593055037266, 0.053424770671965646, -0.017970093641669075, 0.017665882816070826, 0.010213591614800469, 0.07159622762730637, -0.011460326325933882, 0.04941687678637439, 0.02747219488935484, 0.001321139553259458, -0.016424942929490975, 0.013707907182615149, 0.05675077082349097, 0.0724002303219839, 0.0753754870302022, -0.03459602393319559, -0.011672894142601397, 0.014858567551956577, -0.049865457552237834, -0.013464387727143957, 0.05509984672300442, -0.004085942671712206, -0.012260362146212999, 0.05974156063923087, -0.026878265835882906, -0.0855648674223683, 0.014996424840775494, 0.001968966771632432, -0.03431970415536167, -0.001730381938511025, 0.04709943775252023, 0.06756729264435557, 0.025822705008896038, 0.0005148496149775233, 0.03445237915233766, 0.05424833803639551, 0.07289193580849312, 0.05925731962654649, 0.07327662986306666, 0.0755459800892278, 0.17126704783693805, 0.2287286057920239, 0.15999770471557906, 0.1336896317819698, 0.06937696290473816, 0.06211792615950319, 0.02289220141808566, -0.005033043121033766, -0.008163662878419138, 0.0006657683969017813, 0.013940105621660552, -0.06946518183751914, -0.0213511197655866, -0.022074393479825257, -0.039194535872589586, -0.018183276066718355, 0.03512551232228661, -0.03216592954838286, -0.045860754667227784, -0.05961031720531324, -0.10409170660393237, -0.13152711289410235, -0.12985846147536423, -0.180757812382316, -0.20828661739842688, -0.10723890657253494, -0.25532431106025777, -0.24740555521066024, -0.17281402724263473, -0.020794301361631823, -0.1503476262739413, 0.02520687700332345, 0.16279885299232116, 0.13672479286310457, 0.047291612609440786, -0.006670876464854418, -0.03588659027442398, 0.016596966654868185, -0.04230324465071525, 0.03263868411520551, 0.06653559121048457, -0.041404525853900614, 0.05074696618273625, 0.07532251982059017, -0.17623255152246298, -0.22573701187481693, -0.2887916757227808, -0.41160886709716865, -0.4422138958886982, -0.4657556264970331, -0.1839555489523531, -0.19915482611570326, -0.3847340192191149, -0.27964348665779204, -0.5668094858715306, -0.38755963284880673, -0.2957359298415366, -0.21421192577146736, -0.2855785116957432, -0.1859818151358897, 0.3528163144993456, 0.3367476545809861, 0.35689755235033216, 0.18890487843357914, 0.09612167813304356, 0.024541769084191013, 0.03557069081365263, 0.01793102656539055, -0.03160135929909506, 0.00971972836314006, -0.010920551120016483, -0.058396391590420496, -0.3729577647229642, -0.43809534633861563, -0.6402680733356094, -0.5313827093406599, -0.4372695650356602, -0.34496930683692256, 0.15398510802752355, 0.30068712168293166, -0.33353214126128333, 0.15382238604388954, -0.025252003123701412, -0.05821419897345211, 0.056807902916795744, -0.17877943481118472, -0.0718637598559755, -0.03179792811966944, -0.04336374881798226, 0.18508601369535488, 0.4468436760999217, 0.3346104935745972, 0.13923528021098616, 0.045979084029879234, 0.007210633807823884, 0.056850175852589, 0.03868326874026932, 0.08037037014950721, -0.04815840592525975, -0.16532987359161583, -0.38732298995923126, -0.6165494414302818, -0.7222749656583684, -0.6223077541703775, -0.6146849162919119, -0.17416346658905923, 0.2204069930740476, 0.4112748320386479, -0.2150519871861628, -0.15952372313722032, -0.6000311126013022, -0.9465500440086924, -0.576847840347259, -0.5117582730776872, 0.37608134067215, 0.031512215614072234, -0.21231259404536695, 0.2033200798658557, 0.5569354362572188, 0.5740113274472308, 0.25581742200981417, 0.09038287547732445, 0.03529700857064046, -0.04603849602444642, -0.011443637912083596, -0.06660868757372543, -0.11874526954566336, -0.2847549021110535, -0.37136387245661096, -0.6698486772703007, -0.7079997251782757, -0.3983785595973099, 0.026562634449819777, 0.4717858738501509, 0.8799299593976299, 0.16171972690643424, -0.18070786534674244, -0.5819415453964765, -0.5672140443726084, -0.966697132264432, -0.1687928653811753, -0.25473459929890563, -0.045432874956918036, -0.11518300486675637, -0.07831087553666366, 0.3472285587662139, 0.6236919383723458, 0.8681814065366348, 0.3056545165448241, 0.03547956327356621, -0.008340051987505303, -0.026306645438109347, -0.01749222589676597, 0.019173902910842637, -0.09344968442548836, -0.32480258990800936, -0.4413688573080997, -0.5118397907630009, -0.6655610817794378, -0.492619715186101, -0.13734901586156012, 0.12167579210943744, 0.7541311760370387, 0.5659256125849706, 0.5183547382849052, -0.3828835589858463, -0.8204349330056722, -0.639211811880976, -0.2554897081972755, -0.1962171014973603, -0.4170837567299352, -0.04734409896194312, -0.05613259406316373, 0.04914769689091133, 0.6922561577678339, 1.127683753814998, 0.6472926288663899, 0.12710786765490653, 0.015026723695356113, -0.019117485179431407, 0.014426282285198069, 0.0060523582020411415, -0.08785921396473947, -0.28983391707885414, -0.42341776696627337, -0.435080189843181, -0.5598182776792241, -0.6138428983402907, -0.20042095946424743, -0.10642191841245971, 0.5372956223178108, 0.47640982295185175, 0.48556633535012017, -0.5580182925072086, -1.3388983819932478, -0.19988426780175436, -0.012318918798941387, 0.03130461024321711, 0.07570636516823832, -0.001159677486424398, 0.02322265375172246, -0.1850049554295181, 0.47596290433635824, 1.0693029196888708, 0.64259678862627, 0.10914456353492315, -0.011061746932596768, 0.030768419277082966, 0.02469705214363562, -0.08528652890800931, -0.15911866398238547, -0.191084459993541, -0.34300378514672525, -0.4678564097491642, -0.5258143663642583, -0.38671628779806994, 0.0009303385827026354, 0.3298336574094232, 0.4159603009660887, 1.0635150578027415, 0.7492638328001299, -0.4009145822633119, -1.7086047371294644, -0.705811998105021, -0.31585254061004103, -0.37560723596407275, -0.19424244067097923, -0.364301603983676, -0.49363478746036626, -0.23370402149221287, 0.3556786849042792, 0.7075104958182659, 0.4546135305200543, 0.0851978685945743, 0.005910695094698736, -0.03888219015362917, -0.04090096296695299, -0.08585311393202172, -0.16537286199509738, -0.2493893583048556, -0.27743375227162126, -0.3275604792292467, -0.41329470014179026, -0.21428394701373923, 0.26118298699839404, 0.3385832952539958, 0.058954746558959506, 0.9393986683211475, 1.0505840832707887, -0.14984025122312275, -1.180306825761647, -0.23959309413583627, -0.19804557954095037, -0.2974213172121219, -0.27942974472869914, -0.7008588685701869, -0.4735717088787543, -0.17698291030525928, 0.3491632891432952, 0.619716529829333, 0.3155145869943763, 0.13165411582159847, -0.03867265892109147, 0.030999584917172623, 0.002641234263665743, 0.01836220099828052, -0.10872431492140147, -0.18527774311132253, -0.31838428994137585, -0.5106702255865972, -0.5651899009260063, -0.43214722968701175, -0.0020441256802310355, 0.04820222489443504, 0.491552465169061, 1.223602107005361, 1.6836919739651608, 0.2907310569197115, -0.44461374111571883, -0.43945040239518257, -0.015203635682124121, -0.0035658514792459325, -0.0004470768893406481, 0.24104062446283744, 0.16462202996858236, 0.003414783846371954, 0.3571870845956768, 0.21091267028461275, 0.03445350231263969, -0.044513678797079105, 0.0004582820956672729, 0.018138054685692497, 0.08225022335607612, -0.030575960602486477, -0.086799245845126, -0.24457538819812588, -0.33965107711158626, -0.6521269342216255, -0.40386411808528555, -0.19800483897239327, 0.10793338407675904, -0.20245116024837106, 0.33849125781351797, 1.2161640601607242, 1.2855155721970464, -0.14465069762487123, 0.04038595804134205, -0.48687309539025536, -0.21609147384337035, -0.12333329588855545, 0.5373143809614892, 0.8065680245233928, 0.3598622057139338, 0.01856830817048611, 0.06101776723320002, 0.022572577255430038, -0.1017446408771885, -0.04819393304479891, 0.014748876243625093, 0.030883929575291753, 0.040956824705210136, -0.011818462682358059, -0.06315094031702359, -0.1582391251755795, -0.3633203761195281, -0.57905680068046, -0.32966505415887776, -0.09020662222874591, 0.06309073682437281, -0.14237564665339608, -0.4046130220454388, 0.12685140876256576, 0.6720677073959904, 0.5508376967287146, 0.412664768202024, -0.318349000040854, -0.03792381111156828, -0.29809190903457894, -0.2011233250936304, 0.3203835345372269, 0.3863319388064516, -0.0059674328793641, -0.2484449371744982, -0.2077803266049277, -0.09103504187959018, -0.04125974353375587, -0.0426876349482486, -0.005488554325503319, -0.013030339941135874, -0.029942570162666125, -0.0428036337964395, -0.08743336196585896, -0.4422758429473473, -0.4004130811550701, -0.27647424207023236, -0.14522269161509224, -0.13893757190749748, 0.18858803548937625, -0.12766755343505598, 0.3295314408999786, 0.6011282072449388, 0.8840856330414341, -0.13384178485739276, -0.5647739238522682, -0.28659229694331834, 0.018344061711228234, -0.7619149514092485, -0.7170340329912218, -0.12743796537827207, -0.3973276178158915, -0.5038811681960892, -0.46049163174775676, -0.3449574787690099, -0.25094433167223706, -0.002226891979165488, -0.02119131080145828, 0.07621610939680519, -0.03180824745602828, -0.08169472237351318, -0.19254205859833284, -0.26035421708702366, -0.1993779089506169, -0.3233129942594337, -0.15999920529787787, -0.1584139836675113, -0.29346067056353164, -0.07130969614229722, 0.4684833065433024, 0.02652032594232243, -0.2295216049840697, 0.02356942265159285, -0.4618179095898804, -0.39173720953937263, -0.09321988807366716, -0.49843936462716215, -1.1942493864635, -0.6822048856606172, -0.5607877033225398, -0.6296817940681448, -0.5060407070692323, -0.30482043268365455, -0.2813223195516209, 0.004741990611622733, 0.0003498967503368022, -0.03856018854800298, -0.08499038763382608, -0.042990920614576315, -0.07016892065485222, 0.272369367009453, 0.3333041709479789, -0.14741921604071756, -0.2049769125411014, 0.23080825174935912, 0.054631648147362516, 0.1465412158026979, 0.31873404123326005, -0.4159434466594747, -0.20165668651765514, -0.13183484867385215, -0.3843955941096707, -0.13008671932253768, 0.204616038788976, -0.07312342185856531, -0.4549109296519359, -0.6004423370623493, -0.6765846051940743, -0.5539333680500172, -0.2923832360015578, -0.21476213975824632, -0.1153885864642448, 0.0013728339693120984, 0.03620316356868092, 0.017806171037206234, -0.008985203395961932, -0.08867623518391828, -0.08245918607580155, 0.26403912271781976, 0.5491981376071561, 0.11345961993570554, -0.08735920183710279, -0.10763685570831198, -0.13063708318135733, 0.18115541665273252, 0.22513271879985172, -0.17514361144839777, 0.13712642205272726, -0.20745060987383201, -0.07436979401544865, 0.3820479795684994, 0.008550684944604538, -0.037088487024330825, -0.5710628596484246, -0.9754713786880645, -0.8747696189594416, -0.49249134326432376, -0.33244315551292164, -0.12953989148453196, -0.06134406740292425, 0.03576816994880873, 0.03256473538682762, 0.0588055224249906, 0.008058988051890668, -0.029801450108665757, -0.2559581103333314, 0.025360765120106946, 0.1503883518530208, -0.13553571140313284, 0.215943397446343, -0.0754596844987534, 0.20664845379459837, 0.4155855255517869, 0.2716213135767152, -0.25429927944046277, -0.20187583884513993, 0.09734147371888403, -0.05682592270981787, 0.058964519400793385, -0.09733628416838118, -0.17562330816241858, -0.5899314509743057, -0.728663904295958, -0.7083396658381563, -0.2498543517607436, -0.10050353871049476, -0.07360174705828444, -0.10031318182577102, 0.04129152590181011, 0.0009281093597180872, 0.028646771500027732, -0.04650602710879782, -0.09003891583362442, -0.4461200289926283, -0.047175036780771375, 0.19368358586072934, -0.13601224435992992, 0.09548370546919767, 0.04747112984316687, 0.3293504849279255, 0.3725784955857691, 0.06328090492413056, -0.21191789477344403, -0.2902529245933271, 0.29560724392462623, 0.009189925826679468, 0.02810068225571569, -0.09772474373279695, -0.26415959628122615, -0.545293615013405, -0.47795917203067667, -0.29514135154026566, -0.15077345123868074, -0.10398453473830212, -0.013231833388864201, 0.06489240445545659, 0.0009615007244315252, -0.056214102396309085, 0.01710692121656635, 0.042447836722374246, -0.07067320727894291, -0.27827904493657674, 0.07325196034580946, 0.10611147672779814, -0.1131115194665057, -0.06450434254909768, 0.13905229326502097, -0.27873142374185067, 0.45889572923600364, 0.025719581377858205, 0.03132539879280672, -0.09269536307892438, -0.09110784278983501, -0.2538162561238658, 0.07577699910605513, -0.05125991282896477, -0.4875488021004538, -0.7067491625424749, -0.5136630012726181, -0.20209253507224617, -0.1334636553431736, -0.053557365983440956, -0.06151757427842415, -0.032334941635788775, -0.02619470083846284, 0.021286376855705103, -0.05376586026558943, 0.013186269081037257, 0.006656239612734552, -0.20774185737706385, -0.1719474689400744, -0.024881233313987977, 0.013602882800308646, -0.2445669708706591, -0.13754531862927588, 0.07173176048684643, 0.29283858154261766, 0.38282264550045525, 0.24056116988970125, 0.08852179397467189, -0.29477864908207463, -0.12459888157351177, -0.03249604075166249, -0.19998666866924503, -0.34336337331053285, -0.5974172236903036, -0.3563030414150354, -0.13395593554927782, -0.06552504528110241, -0.012864189183245259, 0.016416940917708893, -0.006798444804284623, 0.03690251228865234, -0.07298476692194437, 0.0007469658238711405, -0.056064892964718754, 0.08899211124335121, -0.1599825615246248, -0.3133561847601193, -0.17789682354206326, 0.17403530573124457, 0.30118967029619176, -0.07493896112933812, -0.13174632866008879, 0.04241971119354136, 0.29829676158073054, 0.2320180863035032, 0.7473071930433206, -0.21989846016380613, 0.1442334018994449, -0.06304984988535332, -0.22316979011544658, -0.20398426373341852, -0.2815476299296774, -0.17003855282059474, -0.10431823872129581, 0.00642364660742503, -0.05537345530227272, 0.013814064721558944, -0.01656787184943805, -0.02107539167174788, -0.05251983689288843, -0.028711185526701488, 0.018229200098545114, -0.03563102105543097, -0.09715985438629886, -0.22751327800348353, -0.3158204546791678, -0.16757524126577583, 0.12107650422132299, 0.10203871892043412, 0.047787510125564356, 0.07352338681219102, 0.07337717326700804, 0.16440627447519443, 0.16434753792259685, 0.014164419986692017, 0.5208187357693449, -0.1478387850886619, -0.03372452898573958, -0.17541452785798398, -0.19504484745143558, -0.014016983495067767, 0.027186952262550634, 0.06050528208316303, -0.03472034392575318, 0.015334038944344113, -0.012367517058145932, 0.0003329274157206979, 0.017133138515017902, -0.004410481631964422, -0.028630137702534482, -0.002693515584672252, -0.10089548862038875, -0.2761817782908767, -0.35904235206039886, -0.2911416134852166, -0.4022967513708062, -0.36763884352346915, -0.24744816037985992, 0.11587765962786978, -0.1644196975141798, -0.3856475179018929, -0.24556550078478312, -0.013431016135504896, 0.019026015520518594, -0.23000711726339043, -0.12012754287165237, -0.04059178674876781, -0.05988754563627861, 0.02126817493796016, -0.0051767648155647316, 0.012179611254613594, -0.012682489926075614, -0.06474814011173319, 0.03281803069856234, 0.016967237891565127, 0.0018385698448556546, -0.0291176918978131, 0.07275111929393564, 0.047791601363450856, 0.04119886854245004, -0.05375694166972388, -0.15519080928564802, -0.11491835356657597, -0.13414158933796969, -0.20105271959681986, -0.4147406936481523, -0.11907673310582369, -0.08479712695436599, -0.28338603963550274, -0.3000478324487488, -0.15463364931844079, -0.07376275741880184, -0.1567643821657319, -0.07056570938405146, -0.06897897890083929, -0.05292869357203486, -0.06449655123787858, 0.06764198250396965, -0.01416389299840939, 0.018531971702161434, -0.019983598707822618, -0.008953447938069656, 0.009118577579507604, 0.012308619587305681, 0.027678807692579074, 0.0460279763737755, 0.022384809694013984, 0.043912567363085166, -0.022996718503637617, -0.03264870311841634, -0.037844524858189635, -0.036676205532195985, -0.04320530950464023, -0.001334062528561879, -0.0022739073409217664, -0.008622058782711557, -0.08420563742679744, -0.03621725823047227, 0.0422760392412411, 0.003588426059844693, -0.026625921775318945, -0.001521459861918414, -0.042453329597638936, -0.0012788151890220103, -0.012765632037578805, -0.009448549296746656, -0.013611415457754704, 0.028942994811059386, -0.036285114675039684, -0.0023844875381252018, -0.003101662324622579], [-0.0035578084258195337, -0.0077749631115869005, -0.000883038857083081, -0.0074446136774515195, 0.023864731798823632, 0.013863361547850145, -0.09171260805284083, 0.0015560710392595852, -0.04890231319399204, 0.026435638763140156, 0.01394310806370328, -0.044252481108374965, 0.012686797022508453, 0.021691515830813822, -0.023408746878100448, 0.08026702321190383, -0.00044148607540997096, 0.030323116552423326, 0.016690214849018312, 0.017848833859523235, -0.07222031932254237, -0.010808953737501806, 0.0451773715880513, 0.017276099087830166, 0.0005240486663224726, -0.027067798875179374, 0.016976295988469642, 0.04290431276671892, -0.0033676447147320872, 0.02895776713205633, -0.014469558396798999, 0.05687223292117806, 0.01854623404641633, -0.05306757332277771, -0.018441968448945627, 0.0025207390525849717, -0.031108347535738063, 0.04879318502444733, 0.00926396369757929, -0.0072119403224271145, -0.012763128111885852, 0.06976637990610124, 0.014870037762080634, -0.019626741946371113, 0.04034464227248882, -0.06138323296470447, 0.015819090264200187, 0.021833498828231924, -0.04220774625587653, -0.010533769257798344, -0.03193507561260959, 0.01211649759565578, 0.006305694998329736, -0.023498896581228182, 0.016205406203258266, -0.03140998792723937, 0.004957859177301438, 0.046782825986083784, 0.04623030975766447, -0.040966639980718055, -0.05746197338649636, -0.0333642852937576, 0.022560807205563783, 0.03071526556488236, -0.049527378307813875, 0.017944974209826627, -0.04101722324093257, 0.045504447790867965, -0.019568889844080593, -0.05579660806828031, -0.051358383701989384, -0.047329903340015106, -0.0716954926392561, -0.03280742394168572, -0.050981880481833226, -0.05689906731718542, 0.005665682978649809, 0.0050079763853843615, -0.0036344808269535554, -0.03878017200345888, -0.022697886434232876, -0.0034364120747066183, 0.02637455042893327, -0.018462514831198, 0.034996629987949765, -0.057245473156798427, 0.03417437607534289, -0.0006874211534358848, 0.003065959201942095, -0.06521120188588257, -0.037141823093118496, -0.13321621331181, -0.16984098700168945, -0.1330349418665034, -0.019301636580941462, -0.08659656876572393, -0.23412352091973507, -0.2734541694392112, -0.3824270287356877, -0.24840414705941538, -0.1841882262987632, -0.1323567770511885, -0.21279934600994213, -0.08922452388009902, -0.09227659461815763, -0.03225203080446675, -0.09070125553289038, 0.006617246081632378, -0.003664293764402484, -0.007985863738422668, -0.02591358766266497, -0.006339071029697471, -0.03432470830602485, -0.01815441641583305, 0.02652144148149907, 0.0037853710169448037, -0.08695285515844234, -0.034105806152090724, 0.035263730510336044, 0.026105540391546216, 0.005024145936685986, 0.04063295516514091, 0.19043297236395307, 0.06930642571398465, -0.05717411575700202, -0.18386787588935888, -0.0794142136656995, 0.0469089700525581, 0.06595586675359667, 0.039264865364160746, 0.07499178068073685, 0.10978949528062425, 0.027213144143450184, -0.05166761389934008, -0.06884864600440997, -0.022963101082027485, -0.02061063929224316, -0.03927239849480851, 0.02726632534357249, -0.022677367454519842, -0.006837237020490087, 0.0428804659738549, -0.029323075211124844, -0.030638756904344255, 0.03946739389079599, -0.03028485183560835, 0.01721557495332774, 0.06469132462256301, 0.23418955007666178, 0.26407019689909816, 0.18463970461360757, 0.274574490217669, -0.038555238169277986, -0.3068947105685635, -0.24626234260987623, -0.1553770070387689, -0.07378947665301819, -0.153776293937207, -0.19551275245653524, -0.18658702415895984, 0.16485346278355376, 0.0329802783372682, -0.0705249798578096, -0.08311245455089385, 0.03152478131576883, 0.016216022454558034, 0.004804321021710723, -0.03395549663443068, 0.057335308442046345, -0.060662427600805216, 0.0037730808679586492, -0.007357038756601252, -3.1590270831423844e-05, 0.11380603928985869, 0.27740045073354486, 0.29021372028405035, 0.5196777246101133, 0.2642278807352541, 0.3955604268374373, 0.17270419909137744, -0.18056568460689776, -0.4853431052121266, -0.3489426840851225, -0.26637166243503313, -0.05186436554912556, -0.07904617859852851, -0.4651435453407186, -0.33802922633609916, -0.219939791945221, 0.06193814776726194, -0.04287856165636493, -0.04235484384140331, -0.0402309172722577, -0.11269955930736482, -0.05350022739556685, -0.03646240825947501, 0.031401798351787615, 0.020955105029785637, -0.03148886698341495, 0.008656663386208522, -0.0630517115229112, 0.1124273404942802, 0.4750430086213979, 0.5202788346478942, 0.1999006664575926, 0.7480887019499486, 0.8049505523770424, 0.46470226902647244, 0.00411148484367861, -0.31812322497790513, -0.4851735410202803, -0.5072742111789583, -0.0890047930505454, 0.1771119875083703, -0.06976811068933088, -0.2692201951109733, -0.027490770285593023, 0.09219663385653792, 0.08314316799916192, 0.03566962128815305, -0.012090274549456246, -0.037074699018702764, -0.024467263970729642, -0.005817805997382976, -0.0437476444463426, -0.04973673323123272, 0.005679812082949456, -0.005892030271499913, -0.12967608755141757, 0.049444734919922094, 0.0785914475109447, 0.39818522292588937, 0.4371985134308408, 0.7159906995793951, 0.713367054164627, 0.451256829555814, 0.25123789729642243, 0.30681662361239465, 0.4028608264085039, 0.2989420002344902, -0.06712459902027416, -0.05231028616374298, -0.12767235520398093, 0.09159087069997177, 0.13944893798802865, 0.12473255388905682, 0.024714888523482057, 0.24281360945260802, 0.031631695054623064, 0.0014413106302898122, 0.0067544198650740395, 0.008361564615012952, 0.04537893121527206, -0.009366074445976145, -0.02857504782866033, -0.0800170768198611, -0.035302481469681644, 0.05132101498582695, -0.2153778372087587, 0.26194913781794515, 0.2447048778066003, 0.1955016810151053, 0.3779439809106927, -0.16344373957884867, 0.1804337855298011, 0.08818206226015594, 0.24196557623270526, 0.4117748795241948, 0.2503353046909425, 0.1926923092474973, 0.26658121133315205, 0.3486454779813312, 0.08646164479500983, 0.05483212778383767, 0.05089301330078291, 0.09455644301520139, 0.09680122669913636, 0.000994284051067344, -0.012584398047576086, -0.023335042977979833, 0.015424793634256029, -0.051589277709113764, 0.023035285512078556, -0.15335706067046628, -0.04759191719109099, -0.2087420565542079, -0.2050139604765688, -0.10812478727757496, -0.1782594156662716, 0.0767585195815247, 0.3251999202430633, -0.3864176067102507, -0.6727031520651326, -0.6590537217175751, -0.6579127317306999, -0.002351759509527487, 0.054242425495919795, 0.3102390850348758, 0.032846335081009086, -0.07749910010090065, 0.06132548073472612, 0.07510659035075816, -0.15471309542940662, -0.07228854542944495, 0.07623856885435353, 0.04096879336638397, 0.05740976728619822, 0.047124450899103776, 0.02196399556085429, 0.015711718575413088, 0.076763169459631, -0.11345465165421056, -0.15326414859132226, -0.3656545497174871, -0.05714800763882464, -0.2318344721938596, -0.030900198276627724, 0.21622944492551222, -0.2503236701294464, -0.2599975895412504, -0.6525123060429304, -1.1268141556358526, -0.7885482420458664, -0.3193613262031226, 0.03413981038115308, -0.042990994512714056, -0.41730651642045047, -0.1453634228107136, -0.0053122653252233205, 0.001528896613758124, -0.33409650467931556, -0.2044184233438107, 0.09338700724055846, 0.029509378065061195, -0.015642587859154525, -0.026371168062797313, 0.005842787606167395, 0.01877477245306674, 0.011453844561015737, -0.1029417285702733, -0.13055719583585282, -0.24775493576554414, -0.1426570210160397, -0.19241090906018915, 0.30106352829589017, 0.1713492990251192, -0.09945762793923608, -0.3450671605935685, -0.8484348531026547, -1.181808439632311, -0.9356815892945946, -0.278630794235439, 0.10375077453714703, -0.18330916032545602, -0.21413173869927582, -0.4226925957257239, -0.18142679627003827, -0.05231622278732172, -0.24339122432842505, -0.16161114386290693, -0.018724457606973686, 0.08432609213235435, 0.0008176474410966313, -0.005989631079089987, -0.0009836450189338744, 0.031275072124932864, 0.010140297554983562, -0.06867248347162341, -0.008177392557994202, -0.16726860610279531, 0.0035561912865139603, -0.17869731416418033, 0.05220335677038771, 0.3390686868531202, 0.04633226942757645, -0.47988059169181896, -0.8226528612594654, -0.7725539482978888, -0.7082198839443179, -0.2795872883310012, -0.13188785859995866, -0.17995039789607417, -0.6924126962732616, -0.6533674166202524, -0.3063270251240714, -0.05203002056633557, -0.13452949320746554, -0.030202844481811666, 0.029704396335672505, 0.05349549277227968, 0.052087110213331844, -0.05226580391181475, -0.02727374351644545, 0.06396286913054448, 0.06602596993133174, -0.05762055060341806, -0.028397296773728712, 0.11047307068323209, 0.07612275904342874, 0.020349683790791506, -0.03443427655550947, -0.011843780950490213, -0.05396309144253299, -0.3600415593857741, -0.6917266576008984, -0.5899344430268858, -0.38290512510692026, -0.3047017976004982, -0.309868289981799, -0.18903812390342076, -0.36604004834371934, -0.5009331913274517, -0.5441333790945786, -0.16024371822889508, -0.06886672194125583, -0.16736745165283698, -0.07357445264888238, 0.10998365162479015, -0.038161026997556545, -0.02571432430637469, -0.03748366735239601, -0.0009608462017409572, -0.04486308644279509, -0.08107426877713533, 0.0290822696708848, 0.21671662981422898, 0.025184576429594784, 0.06466907644635551, -0.1628769261168461, -0.3556104288685022, -0.4169659277415246, -0.5873123208544061, -0.7339320867960395, -0.48306461064477146, -0.46272751181170735, -0.3813829453370849, -0.5333875988046247, -0.27940321547579366, -0.25076090686473834, -0.38779661309276076, -0.20996407291551727, 0.07458391946411526, -0.05185688673235842, -0.15436081761313705, -0.08421572148847647, 0.0335905630699879, 0.03016767845725393, 0.02112514195214813, 0.03307484938475989, -0.013604513288432863, -0.0029854685232158077, -0.04183013201571387, 0.09746600642422956, 0.004615507249985292, 0.1372752589303617, -0.03162511684493308, -0.1514759950037765, -0.4138793718642942, -0.6011724082376757, -0.854778033401097, -0.5157912661573131, -0.18355533054583176, 0.07189089801684664, -0.08663899042666022, -0.018984716066430155, -0.2900233971125282, -0.4552528651075228, -0.15100667336459095, -0.06374242737477147, 0.14032703533417756, -0.13021002888209463, 0.07741808093675613, -0.09552888669045131, -0.005312360668106793, -0.028390029014339777, -0.015785383000153738, 0.025956568820175083, 0.025721057986206948, -0.017972337978554184, -0.06467423418625327, 0.04694385543329065, -0.033270987723202784, -0.2294623866066749, -0.4549532281545526, -0.38333505710077587, -0.09065041204045081, -0.19975910264447239, -0.19064285133108222, 0.24387488052832254, 0.5695615280142454, 0.3478553863771769, 0.1471447925023555, 0.0017500837097830753, -0.12404080917065939, -0.16151349434060094, -0.15228354882968823, 0.10696715908827797, 0.12068215233758407, -0.012797454937117505, 0.12189900010276933, 0.02248434258287722, 0.0829990546478366, 0.027954779626390536, 0.004063512770681261, 0.026833847149938465, 0.07093165999436392, -0.06786654393203786, -0.0606040781238987, -0.07821530821432386, 0.04752699581746176, -0.25646140330304096, -0.5651486990648501, -0.314840001513573, 0.08674113458485214, 0.15622656566323123, 0.012414476739636932, 0.41757037787763407, 0.4506625483139816, -0.013680133823436769, -0.3428385137876241, -0.6445614386231875, -0.28369087881602384, 0.0074350049231648695, 0.04102683065714558, -0.06793489634126547, 0.06480485710321414, 0.0782398700166613, 0.027757552992056726, 0.09020580919803575, 0.09922503339195084, 0.06767031883222287, -0.02517662685146879, -0.01929323920921818, 0.01521717604800817, 0.04679552538178896, -0.03206293566795248, -0.013078797990167864, -0.1040709888499748, -0.08154453688538262, -0.24547289565971536, -0.16748393165470246, -0.0655374679353017, 0.09276351316396468, 0.11690746660597105, 0.2777434919661743, 0.2813938736739274, 0.060023715922704744, -0.25289854339309886, -0.5327118384367396, 0.08365800054074425, -0.07900296940559126, 0.05479996774938604, -0.03655715717102327, 0.31956600954302716, 0.14910510220704448, -0.2079818138488113, -0.1264076338689564, 0.004651715118503883, 0.0449359825770176, -0.01737390665526824, 0.0008020753101511502, -0.03619308308164754, -0.02731951269942167, 0.0347240145465194, -0.0010132541810878128, -0.10187150147341455, 0.04126239992153526, -0.09256698128564719, 0.17201685205091471, -0.019262288944759554, 0.059339693815546976, 0.22103105760063715, 0.5189785561678356, 0.41969837794937187, 0.10827298020381854, 0.11162421095038455, -0.11976631632801107, 0.05066848423994072, -0.1477335204623184, -0.02184803058340715, -0.025673933948203595, 0.27383519018233815, 0.06343627928011562, -0.27660035952978634, -0.3113107223449715, 0.000487613583395349, 0.0669185307127151, -0.01667630608325207, 0.0015964120575550104, 0.040044463121816865, 0.07009842673569322, 0.06437391349399094, -0.17689744219205505, -0.2435729357214035, -0.19311771659836566, -0.26812514573706164, 0.10594898308540568, 0.353287897170959, 0.369146201131757, 0.6075943551044417, 