{"biases": [[[-0.9914053919869316], [-0.4453425071008199], [-2.946103664018962], [-0.3264822537992079], [-1.2119973370032178], [-1.489939185238563], [-2.667674714630716], [-2.7976170923761576], [-1.302659431051205], [-0.20781006947492384], [-2.355701261101401], [-2.7705299445362592], [-1.1828883015404523], [-0.603836931025529], [0.10940047792918542], [-2.9698289200520405], [-1.3385401056580606], [-2.667162783166259], [-0.2065179153218605], [0.03624986942124202], [-3.2190521489721617], [-1.2558469326946529], [-1.7101867277000855], [-1.2204030312181504], [-2.446218828785118], [-2.1277964700508343], [-0.9888011152712092], [-1.5310655322513969], [0.9905532866407798], [-2.0053352609341593], [-2.5050559180319283], [-0.9113866013243652], [-0.98778649137359], [-1.1174734441335914], [-0.9213812235802779], [-1.0339377026959666], [-2.5299507108383814], [0.6766501242472519], [-1.6084617690511764], [0.6299041986895431], [0.7314061681896783], [-1.25053302272375], [-0.9930427778942897], [-4.354565952687796], [-1.2670463904574758], [-1.832801113629922], [-1.3183671335524045], [-0.6157086940494784], [-2.534296938326125], [-0.369094928133895], [1.396996611985227], [-1.1291870745009844], [-1.1278940377118254], [-1.5292562799116016], [-3.2667323025281654], [-0.06771776132455071], [-0.5926394847948937], [0.049087142456137565], [-0.6656017885051136], [0.9973857058245017], [-0.7462667153367812], [-1.9793393624717568], [-2.8495503817446366], [0.006492651754979893], [-1.0133838754388094], [-1.6249076745229378], [-2.1741486414887787], [-1.8876810994098023], [-1.150070748129622], [-0.5414269544910775], [-0.07632887054119292], [-2.2370769256638012], [-5.200410401144711], [0.5913156384548697], [-1.4471557527402956], [0.007290887262005735], [-1.3094931622314538], [-1.6562140622785413], [0.004808009446318288], [-0.18652186956438233], [-0.041600127333661224], [0.10462386484895604], [-0.4726918238874216], [0.5604622655963248], [-2.6735329750391035], [-0.07763799771647772], [-1.5222425114941278], [-1.517577827406448], [-0.7399067188391643], [-3.034803322961279], [0.5452191813273619], [1.2341455038217497], [-1.2421281134952924], [-0.37969188742097415], [0.9142622311615637], [-1.4539188036733686], [-3.3856623513756916], [-1.1865760149829083], [-2.0877174182082276], [2.510131582225183]], [[-2.850578582958208], [-1.9458467166099431], [-2.431249683508576], [-2.4481393454641074], [-2.4215647233563375], [-3.714181117887173], [-3.457590174687197], [-2.8293204175489395], [0.2088985302742477], [-1.7978077155139296]]], "layerSizes": [784, 100, 10], "weights": [[[0.007794697673221436, -0.008775830974116283, 0.028968213746220755, -0.013793758229038066, -0.005122704983860891, 0.02478752520491748, -0.021246332827502414, 0.03121966305300714, -0.04088333899060293, 0.007563725226694208, -0.008558908869047286, -0.01681451249349729, -0.00024411466250067671, 0.012022838950061255, 0.0028010360817379144, -0.024197060407780406, 0.03787120776764835, -0.003166885617583223, -0.020394599321240853, -0.00384506375825623, 0.0012430188943018388, -0.022828266639476152, 0.03623910868687885, -0.003827230414030301, -0.02854044175030806, 0.027084576055706865, 0.01949069572833731, 0.008954599983214408, 0.019474686094172175, 0.006620955382408243, -0.01835334927416255, -0.009928683354824663, 0.05491341957267227, -0.014392991112388275, 0.0023769747666329256, 0.025736733419991727, 0.014794449138343008, 0.06773342044590344, -0.022268696861383063, 0.005705342962456868, -0.026110100142801986, 0.03281273298126224, 0.012867752396156281, 0.02273534940792179, -0.048754182166297455, -0.015750255205798088, -0.006592125817606427, -0.03651553849947416, 0.008107610626821223, 0.004504668707449436, 0.0610778799419802, 0.008577348430908396, 0.017417031936982234, -0.0043306094527739685, 0.007026010002257578, -0.024120082928012043, 0.03505134063925025, -0.016738307003390806, -0.01983780888268728, 0.015314406813103134, 0.025151751706845808, -0.04252101673249505, 0.03546535684546963, 0.020920470945616762, 0.05083427267688398, 0.03565254848078095, 0.012199579495102142, 0.013233413226628805, 0.021464097091637015, 0.0606129315647865, 0.009672918811382436, 0.015854005224950684, -0.047906381620769545, -0.05957561445822059, -0.019298705295909605, -0.046734473715457116, 0.038672305099813196, -0.009704817472730106, -0.020360281740442066, -0.02908365640262845, 0.005406113195043906, -0.044368494992024485, 0.01157076993321778, -0.023626270796252347, -0.05077658310494975, 0.023975703497006208, -0.012589051699028046, 0.02491434545679043, -0.0216045979219106, -0.001968708087988115, -0.0003490004737956345, 0.062219940811553145, 0.07337625439237026, 0.0632000188769538, -0.013202013459548152, -0.0842059307072647, -0.00509568852574253, 0.05295844956881972, 0.08416757610230223, 0.06665811963334428, 0.010202954825588296, -0.06180373897839151, 0.001042227651800741, -0.11374902415079945, -0.07245151699009092, -0.04358636892466825, -0.019763542191984142, 0.016619487839167984, 0.04162868857546243, -0.023131359435433162, 0.007889932897819084, 0.056845931256515055, -0.019465475406588866, -0.0014813396993228563, 0.004832163055232404, 0.020550603018920872, 0.016793459538466764, -0.01341906854254032, -0.007517408996520168, 0.09279609705165126, 0.11813435005357589, -0.049124508348460515, -0.20800581681033442, -0.23472852248999157, -0.43755151824239896, -0.6120798341801615, -0.6002063182316978, -0.20366732166595583, -0.033024044000187915, -0.17325259989684305, -0.1633547553621824, -0.04486520788815212, -0.17214261390745203, -0.20936142373369754, -0.13781639298569454, -0.0900352302161841, 0.012726918232262125, -0.004559233872572912, 0.024344335114652272, -0.05092625888341758, -0.0008722066225998422, -0.00350160156487148, -0.0057240722688534, -0.007959133690642196, 0.06013935745051764, 0.1429491162294566, 0.26132311896437804, 0.26555713296895783, -0.1524330197770165, -0.5334402878577482, -0.47322006730465627, -0.24602432323312862, -0.6787539855434539, -0.6725854639311469, -0.5331596471708948, -0.8652785240625438, -1.15144985297023, -1.0185179883827846, -0.3119670697607786, -0.02352267255702501, -0.028332897134668324, -0.21746316335809518, -0.2513493028850198, -0.16279345661771216, -0.02791085779202402, 0.018729352583501804, -0.0007476991406009492, -0.013066651218025109, -0.03285908737667951, -0.010766010205156919, -0.0144692662905986, 0.03197657379760173, 0.17060715783346697, 0.20013104936232504, 0.2627226191639579, 0.09046892559093136, -0.12648812449467345, -0.05584815786494203, -0.17618694448872305, -0.2757545191797314, -0.667523854694311, -0.1285898223282329, -0.16652366290835532, 0.024919208690598445, -0.11983847083135625, 0.3648612415437808, 0.2742686269645839, -0.7195364191107746, -0.6368207019906579, -0.5865609722636811, -0.6640749732782261, -0.5495520213507165, -0.2757867909661077, -0.013940233031563224, -0.0015093208277827126, -0.04927857430437586, -0.03571316694118511, 0.012187075119624073, -0.017657751804695136, 0.06057353228442837, 0.12759307121219585, -0.10809644963403577, 0.22611801356612785, 0.1376177047353852, 0.11109852335269892, 0.2291175612410006, 0.11746042815833707, 0.16033438951716703, 0.34870529783109067, 0.305824180339852, 0.49864694846191243, 0.8217726060699415, 0.6573980159767886, 0.6944713812273768, 0.3834910151550882, -0.26816296514409466, -0.8063868986544579, -0.848494303402832, -0.8371350318927233, -0.8847499218373271, -0.27928093112808994, -0.08763445442609825, -0.0367007474362191, 0.015108722780066471, -0.05442521812588418, 0.04259616609945275, -0.03328639073653894, 0.009861477696062446, 0.14157915860287143, -0.0302585387056202, -0.12187377063453585, 0.13952485523530977, 0.3151183351012298, 0.41738414688816644, -0.023287762319038282, 0.30403406974421665, 0.4898209055464173, 0.2827236227729824, 0.0813603213029008, 0.17043641164650786, 0.3295120995291941, 0.27563657045978457, 0.2669370208657993, -0.014362712242153254, -0.12216040285170324, 0.07415019083179189, -0.36045436784974705, -0.7698311435789561, -0.3868076663517833, -0.02956699547234189, -0.023538940515120257, -0.062343453139486804, 0.05256697350275741, -0.0027352741728173947, 0.029363158204728634, 0.09104517655733013, 0.09416463328794179, -0.1710654161962001, 0.31148839819111107, 0.33249145469590385, 0.3706056135449291, 0.7414920349077905, 0.9116663308334091, 0.5417115821263762, 0.7657358039426178, 0.17812321301001977, 0.25923324049348995, 0.20482843143285015, 0.22144983291642165, 0.4278570637301069, 0.11444477622385824, 0.39718718208800535, 0.3245960593241127, 0.06564105865903667, 0.2607170506452005, -0.38623705513648904, -0.2724534223848936, -0.04517388266120978, 0.008447701846482547, 0.038917663529902544, 0.029898009860193853, -0.007976227380426136, -0.002676718758460027, 0.1357606637295689, 0.12510771986719577, 0.2056991124327535, 0.7309745110301101, 0.29438997670091127, 0.5486077966976393, 0.5209323846701036, -0.0681200464740148, 0.14779616719511923, -0.21777928797918605, 0.3849116019732698, -0.054523215703132, 0.11052766692299287, 0.4953484059446465, 0.22402077179042995, -0.23630195965149253, 0.5523767289373767, 0.47368800540016864, 0.6042547126562373, 0.4891326283507173, -0.3407032087482362, -0.25997595863330986, -0.059963625544812695, 0.09265496519449888, 0.02755896078648238, 0.055629466959983824, -0.006104385336805291, 0.11005325829889183, 0.24421923745613305, 0.18975985456995442, 0.18033795984518053, 0.2425029215594131, 0.02734087993858655, 0.3908605982154914, -0.2820487652793146, -0.4857690597872933, 0.028619484829139508, -0.37799733021409376, -0.31582834467965437, -0.024648574289077626, 0.5764180756569084, 0.4442098664064068, 0.38458958392326836, 0.2528434639821742, 0.45605306112469174, 0.8899559982497071, 0.6550826793733513, 0.04956794221146282, -0.433166825624045, -0.34684220832368673, -0.08104348459159254, 0.044493289062819144, -0.001451326330166924, -0.010846773849051061, 0.07743192270243773, 0.08382681716662649, -0.0014850501874114042, 0.15150021573191538, 0.0699109489790432, -0.2380756038770992, -0.45084560970181914, -0.596992038994196, -0.6225838360935833, -0.5215824593109044, -0.6395735666304212, -0.7421569455979387, -0.5160920121194094, 0.450541971847207, 0.9162813375585639, -0.0025919338844182294, 0.3886945440343929, 0.13306525682403197, -0.34936802033196745, 0.20798454001822334, -0.15498238886849242, -0.4110101450141264, -0.187336238605327, -0.45362620401694803, -0.032066424233106676, 0.04261948282862505, 0.03172956251933698, 0.021629556004989982, 0.034511634395903865, 0.05351049076770797, 0.05697449162496361, 0.15080201962706322, -0.39942161282885524, -0.6985255148118917, -0.4823947988346376, -0.3658068930302301, -0.5907173949848649, -0.31031235252230144, -0.0955807313209208, -0.005977816328127633, 0.16509094119378312, 0.20618820950566763, 0.09049349749765562, 0.11641232288468738, 0.24066328949803123, -0.009102083675786481, -0.13758197378558018, 0.03697369828312553, -0.04736505885077214, -0.37726789533874594, -0.5088583132047827, -0.3299694687882221, -0.0406537050329887, -0.07081815637639817, 0.03457412298353876, -0.02624000007573668, -0.014758342558633217, 0.0672629050970539, 0.1252547881830012, 0.14047092133341493, -0.501878852075736, -0.37558019560116374, -0.499928838183227, -0.4115178521404282, -0.45032330824353767, -0.3071513129931499, 0.0037907354669836843, 0.42063943456084807, -0.11876642722638428, -0.41389840570819797, 0.12618270915865393, -0.4200835166938872, 0.3539761529370088, 0.3207216109259321, 0.23956436782243132, 0.46137326837110376, -0.06247401308447788, -0.6335245268674045, -0.4129678296182378, -0.18544329570372464, -0.037429932366689754, -0.0014444692358213495, 0.028683775491469245, -0.03853605322835156, -0.006776969055407765, -0.02981771048377441, 0.05843087573611175, 0.16322514153738463, -0.06504547193827544, -0.15517634235982738, -0.4318276100561142, 0.12284655230603285, 0.1467492707190867, -0.35883754680467506, 0.10525635086666948, 0.3643534239561732, 0.10309363756224912, 0.4280227084254875, 0.34486234622970136, -0.6296556729489478, 0.3729578316657889, 0.36359177433248413, 0.20513852747615297, 0.4857583435346651, 0.5346099473989692, -0.15694299081486085, -0.28536142158885425, -0.2780155927269658, -0.17239411701130214, -0.07075868398241864, 0.03216181180028793, 0.07099301807188346, -0.012335119000051185, 0.03588733588890597, 0.1925446153371243, 0.35858871666995135, -0.22477898549658826, -0.3031397417468118, 0.2223334130844359, 0.15167499596102088, 0.0057828049390938685, 0.3822775462171695, 0.530002685229019, -0.13616491480418705, -0.04039146300001383, 0.024865200038347284, 0.04751716787983143, -0.6331122586571728, -0.16238655233389948, 0.2652820190814102, 0.1138571202112015, 0.0836352980655857, 0.18481087075927893, -0.10106842050044895, -0.4444458682216628, -0.5027585952723131, -0.14088290497290076, -0.01871997897070242, 0.0751617159367005, 0.039567162148741924, 0.013655271705723834, 0.059105304796926134, 0.37044404229420136, 0.22548141143893732, -0.33573032877109626, -0.39878536345738824, 0.02427105873858553, -0.5093094534820835, -0.8403450877996795, -0.47052034632120454, 0.043502612179011475, 0.1742560443552942, 0.2966161947902477, -0.38923801578002626, -0.05654913880221031, -0.142631927401604, -0.1826079503110214, -0.12015793346072952, -0.2939853653150168, -0.12620606801184256, -0.01226676430884714, -0.4024675502092441, -0.47990152425856, -0.44295786030571943, -0.14270286286717176, -0.06152656391152076, -0.04345364566723389, 0.004305176532060334, 0.01686248131042859, 0.09767812805220179, 0.1886702220834739, 0.22147366699870574, -0.026203177142409072, -0.16094290288406565, -0.3754580957655003, -0.9363132487491863, -1.258029701091104, -0.638072693045303, 0.07505031243086495, 0.18599849851450947, -0.06080262557862298, -0.44171339747877014, -0.20991841219951168, -0.3212551284087247, 0.2596119437331509, -0.07302228106027563, 0.08862317681099653, 0.3210427933217586, 0.16687254782056593, -0.10496967771841123, -0.2537070851902891, -0.39278769026847943, -0.03223585083222942, -0.017715792746474696, -0.052792354804452817, -0.0035870265557692467, -0.03040014088006199, 0.05026744444605113, -0.02780005206658713, 0.27362039664281335, 0.16956806194144988, -0.154833125541613, -0.2888282424747035, -0.6154680437490417, -0.5636339367237941, -1.0466851485767266, -0.8028514582959702, -0.08760294743946229, -0.28993289839900277, 0.6145167929159987, 0.35206563734327, -0.030206751910022284, -0.14842707238420377, -0.025841025829602404, 0.3687557056373463, 0.24308132734358182, 0.011265547845085242, 0.13369274638243453, -0.23296155271822616, -0.20771407710150347, -0.11195323437822557, -0.010384316615533518, -0.05723385405940171, 0.00684658520099478, -0.01662334609513682, -0.013121529015424526, 0.13867403869543773, 0.11154822306606238, -0.17207902372301562, 0.04805648521777307, 0.10958620372812056, 0.010585444204081527, 0.16502213178231523, -0.7581461640749194, -0.7560656205221754, -0.8325658262503819, -0.7951521726439841, 0.5735065784276301, 0.16346971413889333, -0.053210811379719475, -0.14817783970127235, 0.11957974728070196, 0.24812104206852897, -0.02156881538818065, -0.017963357263459507, 0.11858607774688375, -0.13025512118416036, -0.06764359544190299, -0.07124281540705377, -0.008805487048301463, 0.03467384284199086, -0.029703717599616403, 0.02346809773748921, -0.04138747368118645, 0.11730260002833842, 0.1242764048060981, -0.21257880100706716, 0.06068258024131814, 0.1783883660902225, 0.24013522079442162, -0.12028608505873807, -0.12581069708636566, -0.41205715853104424, -0.7215445590923302, -0.8212836779851813, -0.13987253793289936, -0.1895116264975484, -0.12193818931903491, -0.5397540470698022, -0.14902693394699917, -0.24348747822817357, -0.12132402099619193, -0.16504204958002308, -0.03654480387534306, -0.17703203473538198, -0.07234316555916176, -0.0775530861776497, -0.011292639796573137, 0.055980001888566944, 0.005020663674083793, -0.045260322603966036, -0.07989369467698007, -0.025358437120417975, 0.20695607889793363, 0.2914433825018504, 0.20217137791975484, 0.30209819019880674, 0.016220391152282614, -0.33576414592534537, -0.12202951806474448, -0.3136366045271707, -0.18603664699947947, -0.48464448672222193, -0.6659698165187704, -0.32541938179377405, -0.48169044115746035, -0.2690293270365221, -0.605897049980368, -0.32092165899518094, -0.0853525406917153, -0.23052173771410134, -0.013866101113194406, -0.12945312687298438, -0.11986897293071808, -0.04745927227807338, 0.03650262703012311, -0.025464010749290496, -0.05820963353992176, -0.007564966431463318, -0.041261108099450654, -0.027522639706326898, 0.22036448766538697, 0.5158311344122201, 0.4447787292942787, 0.12502948605890576, -0.04293108683449468, -0.5093045781178822, -0.6316915560283473, -0.1077406856936508, -0.2651378419718895, 0.1328974072254553, -0.10587633351931587, -0.5005131620458301, -0.786324352000892, -0.22576544752721317, -0.5641133911953626, -0.6694889354002092, -0.25575370715202167, -0.29279159368572827, 0.0423025188094393, -0.04774165326752398, 0.001240095685451026, -0.02510721503633958, 0.0603076317897571, -6.5065632696948035e-06, 0.007629734446741092, -0.036370195009663854, 0.02266840850632707, 0.022720489272185822, 0.2605092657107663, 0.46921307431368764, 0.49686934547671924, 0.27785244788606633, -0.12441185578179977, -0.2639356663055187, -0.18823900326789622, -0.43351604046373293, -0.39018245045393035, 0.3819677332663491, 0.0388103527578226, -0.667163930384372, -0.3298802976975454, -0.18794517586793308, -0.7155517599750271, -0.481195037292947, 0.07420263542294986, -0.04404203495060459, -0.0797276208109965, -0.0026899389319862696, -0.05228554276737468, 0.002863167244050949, 0.043216460781033084, 0.018367735801514972, -0.012233709582292286, -0.009024582331308052, 0.00768350389827688, 0.05857751793761215, 0.16419780507792597, 0.31806411680597463, 0.23881288378213536, 0.3258164241386713, 0.5986617550225772, 0.41180174830067906, 0.3062221009542878, -0.32989247417246026, -0.4058256302354248, 0.276085504848126, 0.2778114432416492, -0.009659076415863993, 0.2701555003801498, 0.09339005727546522, 0.07827550038896393, 0.673876127272424, 0.2973678591017405, 0.05352939610935123, -0.0833747105123218, -0.1139974594522626, -0.018657725875469343, -0.017842399565804065, -0.05389437033413153, -0.042553789433366164, -0.0013032739367123544, 0.04970611577631323, -0.021680166962220245, -0.006371934697092016, 0.02394383372178374, 0.06925506493277171, 0.1365442268885586, 0.25200993396410504, 0.17262408184361414, 0.19450631994003745, 0.37067158789728294, 0.14947769945116174, 0.33991935136294316, 0.4737321495596425, 0.6358864543623508, 0.4252612498222326, 0.12235038065142739, 0.12272208665253352, 0.2309123819551183, 0.2616843703692087, 0.19186331101212992, 0.11121176932170303, 0.047445739967582626, -0.03657625374820407, -0.03837848665545529, -0.042858905307609156, 0.02196112451869201, -0.009863494778772837, 0.00948301701285702, -0.0183701622832535, 0.010029225782770348, -0.06141670530293562, -0.061289302121949364, -0.004237785795527131, 0.029914870069231183, 0.04427080442675955, 0.02782788273422726, 0.0020253556005302782, 0.0516621192426621, 0.05019661050282695, 0.033319843545908674, 0.04474180650654427, 0.03709074378292238, 0.04503506745932384, 0.04844246401265712, 0.02457408114215902, 0.06762486362891246, -0.023858590824751315, -0.009318346927264307, 0.02717386958272205, 0.03281174814396384, 0.008143629139024415, -0.006592607269127989, 0.01522078591594793, -0.003878400580569076, 0.032647540413388756], [0.009266490918494021, 0.016966446882893574, 0.024911155955579224, -0.0340245327428679, -0.009626506526909752, -0.053956188567857194, 0.045221790707141656, 0.0506918119884188, -0.019962621052671083, -0.002873759601303304, -0.024576274094825778, -0.010762439100041985, 0.0072479913548051415, 0.032449606342064015, 0.02507836002376266, -0.01587056186845685, -0.03528901251854063, 0.05640008405516067, 0.04236974396222604, 0.02182396487553903, 0.01813892110648952, -0.014949188279053486, -0.0007697424328842687, 0.017092684371843338, 0.03393649125659842, 0.023539684706454518, -0.014125933878779959, -0.020212025304532488, -0.01230712136343249, -0.05371826803563232, 0.012260264903229621, 0.04667095419868123, -0.01824735946044085, 0.023906396180650713, 0.012288534976058104, -0.035047964209835414, 0.009803992645084279, 0.05868274009912035, -0.011927766437177327, 0.01723722294528765, -0.004733995461131226, -0.03205052140039716, -0.04743904383659231, -0.040535759112398886, -0.015282488217482782, 0.020434115545975524, 0.0046427038013929865, -0.04742466383697697, -0.021052660832382875, 0.05402912540179175, 0.012167055835120065, 0.023157023666158835, -0.02315669573853497, -0.002197997598952905, -0.019833187418281842, -0.00930632213291981, -0.029270942314499178, -0.0031992161069660193, -0.031716952932211474, 0.002437010745726508, 0.001431570003008304, 0.047027604011161676, 0.0021560026749719205, 0.030136026423332313, -0.056728030408631884, 0.027616748071590688, -0.011394954465866705, 0.06591970883482877, -0.1281105685102568, -0.02429095908095707, -0.10201654479620835, -0.12028873958176547, 0.006611615055252249, -0.05319535974943664, -0.2050042007687622, -0.10253126551919163, -0.0704916046153071, -0.04246604479471594, -0.06033443637474027, -0.002887263251418496, -0.004736108706696729, 0.029991532396264144, -0.07212892489723799, 0.006154350428080884, -0.009099350673874898, -0.0430665222551998, -0.05253599081009341, -0.009471009343232696, -0.03915326203849574, 0.010659503185066203, -0.041813569747442575, 0.03633422819765412, 0.03870959049618138, -0.05111510295567743, -0.005279545725640651, 0.06876386466896305, 0.1529789448646624, -0.3020010936881352, -0.7936704896661715, -0.5266688869975348, -0.5266300073152592, -0.3425627965151254, -0.34073371291081345, -0.14234837553450225, -0.08718259309298074, -0.022468179272262575, 0.030023548023289177, 0.01855038522667743, -0.023857867769532252, 0.02538172772207555, -0.039914371480661986, 0.010421122535219976, 0.019360545571154547, 0.04781282967447789, -0.0027551260278295183, 0.004122190241186756, 0.033472268827221555, 0.2808866885919227, 0.30121085477709975, 0.1693099723545301, 0.2586027096508474, 0.12604825788549195, 0.586502838839082, 0.8052590193048192, 0.9023973978094197, 0.12414719331451902, -0.34986717037806897, -0.4968527422516086, -0.8794594356993714, -0.7095338207358923, -0.26045993381376226, -0.48197152164537793, -0.43028506280978046, -0.21365291112619347, -0.08706368835467464, -0.04768276655928979, -0.04791267116133183, -0.050785421553560466, -0.05690238646050243, -0.00658972929831345, 0.04714891150908288, -0.04666736360048063, -0.02037690218800669, -0.01601400746023414, 0.08975665459151155, 0.3352929679968656, 0.23296617924745247, 0.44253447029408677, 0.3904509220138446, 0.19984997717232267, 0.5838013532035146, 0.16077098911807972, 0.4414954700640418, 0.33974967628333097, 0.1516847077748614, 0.30863123017053684, 0.027612300038917407, -0.5163094722498645, -0.535938570595041, -0.7711980111428192, -1.0981543754798955, -0.5957295978166549, -0.29991277070102024, -0.2582252317511615, -0.04948964453915015, -0.0660001368349886, -0.019488330903213193, -0.015305252363816614, -0.00378540998943955, 0.017741027613578934, 0.03139767796631931, 0.10553792955596704, 0.281401753428356, 0.3662990102771999, 0.5982521543773441, 0.05661685758704661, 0.0005107609540915371, 0.07279612950162895, 0.18609220087424444, 0.6226804431643893, 0.32504050133825546, -0.011433781185905274, 0.20951109253992906, -0.30221981969120515, -0.30442215547770973, -0.4649212173638655, -0.28734055261974784, -0.9702083746409881, -1.092848007857527, -0.6810126032527445, -0.5058328940411351, -0.21078886677008332, -0.08824911622012709, -0.047868758553202, -0.0013878733540392308, -0.029297300155270673, -0.0008659619843097306, 0.0811408743876782, 0.018862064766606398, 0.29384225964049987, 0.4763220843432071, 0.2683569533232679, 0.2580172178667301, -0.25353213208207, -0.6298336465962167, -0.2301200280225956, 0.2587295998408142, 0.5237900785594727, 0.07660079926442165, 0.3807492916810652, 0.43560804717039503, -0.08877051273593817, -0.4416798020102965, 0.055165285461445134, 0.10242259738456437, -0.9125253332479973, -1.507282979771599, -1.2017020128909728, -0.7356165288948514, -0.3245212427119024, -0.11634457243770609, -0.026306072813167027, -0.027269392762254492, 0.029679737307815153, 0.016067200701508206, 0.024804646156351747, 0.0166993572403594, 0.12360873806224353, 0.3761944699146208, 0.24799232376302277, -0.3104779938164445, -0.284236315440905, -0.02718025142425806, 0.16377952259991835, 0.517595441028231, -0.41643743378293996, -0.13057132161657073, 0.07979362696295046, 0.5382756575536548, 0.5351769339558293, -0.03258706557263182, 0.1073001529526799, -0.3355001980408165, -0.9799980471277656, -0.9695022815907091, -0.7763864322478764, -0.5664491989318713, -0.377946919019498, -0.21163957343000003, -0.06347497834896945, 0.00682094167886156, -0.012409307703977975, -0.04199904907585471, 0.04797343512181768, -0.049313373725688996, 0.033950456186444045, 0.3109067325843896, 0.34498889563911805, 0.3041518597573132, 0.14102174691061026, -0.20163678004518398, -0.6929595712805292, -1.0972912399039805, -0.6393250597729352, -0.12199233673416784, 0.3600770421289292, 1.0995360849692672, 1.374825520060509, 0.5946777306446993, -0.05674542009256492, -0.5862850906333636, -1.0093930449847055, -0.9584311789755021, -0.7389519518472365, -0.3421028626972223, -0.11434870151083146, 0.029041012927346548, 0.035748538549195866, -0.020839886717284747, -0.03796573231070891, -0.007114275983099768, 0.01779616794491158, -0.011821958779802999, 0.14833102626512162, -0.011534315396088539, 0.1546651355524861, -0.10374954720398381, -0.4403363128868938, -1.016920100527011, -0.861076556507429, -0.5411112079946192, -0.3905509393648959, 0.6771186220505615, 1.1458905946513689, 1.0488449924893792, 0.39003503663851696, 0.014993499459943818, -0.6224839931849396, -1.4606961319296856, -1.190371538527518, -0.60926191083585, -0.4297543012603743, -0.09240434733722122, 0.010566154006931023, 0.0266317268545845, -0.03900388960807439, 0.025241061228765252, -0.09836451786377655, 0.005348581167085325, 0.023613022848353073, -0.030146206419743197, 0.05419548936644634, -0.002906978013265767, -0.3042925585065957, -0.44131065646104284, -0.42315525714949764, -0.20210483038756946, -0.16193848656093746, 0.38184205513420005, 0.5744500557199287, 1.0460606715313352, 0.2611343398723763, 0.35500684987771763, -0.08939666987462024, -0.5611068943995837, -1.0446525621101472, -0.784262800735051, -0.7899657421576971, -0.25279371797380334, -0.22382319729557243, -0.08380799208628673, 0.015058404691980696, -0.09396945218687638, 0.04073199531061211, -0.0270676315644509, 0.02116947293079379, -0.037461945957789775, -0.07016226768677494, -0.005431986443060317, -0.03935617087408519, -0.1437350732329181, -0.13208387260325075, -0.49655992306381475, -0.24321965343758525, 0.29761781810641935, 0.20679448932256858, 0.33480856083832156, 0.19803940142397333, 0.7182220354657013, 0.4388861004197296, 0.7581442921029006, -0.49993524590948574, -0.5593774992840357, -0.9871339909388593, -0.5469101495510972, -0.009214821925912381, -0.32862043387020323, -0.3594126536330431, -0.1861975750683304, -0.20479503962765042, 0.009739026006495533, 0.15259464321702337, -0.024088864306815727, -0.00013241165497072864, -0.028330815659127737, 0.001690246342807949, 0.015387666482174421, -0.06152588578507485, -0.09802032548967815, -0.15867242759797118, -0.21024477232070773, -0.2582245323615806, 0.1084416981390421, 0.3701806697818073, -0.027150344031210267, -0.08212017956105187, 0.3252718425788782, 0.56314875329942, 0.4449015773227729, -0.5808058476233264, -0.34026656537613487, 0.02673251114246691, -0.049414076837414035, 0.38258193457721773, -0.003940724696815632, -0.13344669932956993, -0.26130952093162496, -0.1299065946999174, 0.018234455797658724, 0.09656634885623493, 0.04157063855292189, 0.06472816249016745, 0.0022951721488235514, -0.04707742805137398, -0.06502689737476924, -0.0015901147365084982, -0.11832839293475551, -0.14650735410434187, -0.2614326120265497, -0.31441650348600664, 0.1376865604658304, 0.07171196409938313, -0.29863279129002507, -0.6693268119881866, -0.3977764375742496, -0.11463313028146695, 0.43869594944692114, -0.3021056641969602, -0.3048451513670688, 0.03632877933066821, -0.6857596124701946, 0.3462202159087986, 0.2596332356440005, 0.23064346263705768, 0.13794697347354892, 0.2725182282007767, 0.06483066243428262, 0.1930990040516877, 0.06380172032564574, -0.007836711249156322, 0.009281206285425364, 0.012354549056602637, -0.0103451056512332, 0.04753459016226329, -0.2006428425089371, -0.2464249802988722, 0.090291422276114, -0.1508512906552859, 0.18042579533861036, 0.4220392987690529, 0.05812253507986806, 0.14101292866124301, -0.25828280260234787, 0.08767419509069342, 0.31215174456738365, -0.2643257141838054, 0.15436373905089018, -0.2706589271834546, 0.03679437972363944, -0.10758034821505198, 0.19756255408641626, 0.10436029978570027, 0.2906927746758601, 0.14148613406799812, 0.20249244152024395, 0.17177251265263246, 0.07390198092556774, -0.00954268492374487, 0.0005639994097026732, 0.007082941554863904, 0.003054471177167675, -0.0008045783853155285, -0.1903027156037979, -0.36658377433331774, -0.08598536165140276, 0.21679816113119044, 0.22270149317794125, 0.02813866758125581, -0.22594106421564, 0.030721395921230486, -0.5040446663819399, -0.3214846183291304, -0.19630326440199614, -0.6147126901455078, -0.030859208387956093, -0.7371826854228447, 0.1565231801374836, -0.14812815920991754, -0.08978132332001702, 0.1576142002279906, 0.43317205873351816, 0.2868285780129143, 0.39625781688654416, 0.2547230419791074, 0.10365637772784636, -0.02440534260406896, 0.0008198959574702001, 0.008387735639414183, 0.0007443952703925954, 0.05646957726851631, -0.08894656848754257, -0.4296821988762901, -0.31393416470701746, -0.1914093356918747, -0.11509165865388554, -0.2690056932777069, -0.7191419467328284, -0.6991870624939106, -0.2770248577485042, 0.11193529173644852, -0.11346551989958997, -0.6220152322481977, -0.3072344066310212, -0.5170006145476932, 0.11361496294566589, -0.1284950534002008, -0.09639247321913803, 0.7193428423677456, 0.5478156104372685, 0.25582535251958743, 0.10103768110838929, 0.07127825605587132, 0.015297717112780013, 0.01113385814146478, 0.0018985857439184554, -0.006160247577883209, 0.03239413337535871, 0.052693864168579345, 0.036063060202884877, -0.33224843253712116, -0.35601031043951276, -0.6803119384511281, -0.1173161489945461, -0.08297918405656667, -0.26665721662780795, 0.022171401117480605, 0.012613090205419333, 0.5020748317149926, -0.40595152962106, -0.5209191855651585, -0.18199545537640466, -0.0883884263339948, -0.21500281930708678, -0.05750755776873299, 0.3373442532686852, 0.412037147702351, 0.508657642142276, 0.21012226003975726, -0.06325479728399354, 0.017544384960233816, -0.06058430896885388, 0.021895797834980395, -0.03259723311417535, 0.0023227426665247157, -0.07388902366368744, -0.08255599827058095, 0.04401297674660433, -0.1528529882504244, -0.2940387518502982, -0.3991821328726214, -0.3010236845583819, 0.06622295690132028, -0.08372303620770515, 0.17737595801006906, -0.0482187668217857, -0.4035818629205302, -0.06913554400548481, -0.23727421120503256, -0.2855718405793877, 0.038869533997987885, 0.12739913705995495, -0.04305557966215715, 0.17857467853276845, -0.18509564867735273, 0.2163232129920523, 0.03590637902320882, -0.13890679017180266, 0.07700413867960793, -0.025627198388492093, -0.003554621509454797, 0.06282395562915313, 0.007532597633848536, -0.029387336002477244, -0.0013681030282384785, -0.06457452357741857, -0.2181570677723193, -0.12694719244363117, 0.03199475568812057, 0.29887432420501925, 0.7447615633003193, 0.1440880644771964, -0.027636475984717107, -0.0829071394703399, -0.33518862757560347, 0.3751357512843962, -0.2315897407171647, -0.255262572570674, 0.39748650509678535, 0.00408489608589668, -0.7652149619838678, -0.2437547991561939, -0.6095743509400694, 0.17658648853822217, 0.07634692765818252, -0.13706890964520063, -0.03513086564988235, -0.031075406367716097, 0.10057593975786608, -0.004110796652247089, -0.02384613612033814, -0.055034974851938534, 0.06663628965080597, 0.030956587888476522, -0.35435900784430313, -0.2442183521995009, -0.38384611994926254, -0.13750209352727868, 0.48809183683247703, -0.09798230315055835, -0.2913695101019937, -0.18941900038600468, -0.896385320762363, -0.38661763079232975, -0.4105629334762814, 0.15343068693609882, -0.4405464203816803, -0.13030810304068371, -0.23608357050839524, -0.680573495059927, -0.42110031917950874, 0.09751588601331468, -0.11359072329337011, -0.08659214737833443, 0.024154094340224648, 0.012062980824397893, 0.00640669423157369, 0.023182631330834123, -0.019519614955590233, -0.05409466399845042, 0.05262544353994901, 0.10963076886872329, -0.19453741330455543, 0.23394026415952504, 0.28795274723409175, 0.0074453662866196205, 0.5409270265388764, -0.15615151492570956, -0.028646798432553466, -0.4277629470844434, -0.3293009177952779, -0.2983434260935106, -0.04077905765282982, -0.565511427069453, -0.5895614383317086, 0.06531342666284722, -0.11880791052460245, 0.1499267172982318, -0.06302428444383744, 0.0929301066847282, -0.11853192717585365, -0.0463883643115752, -0.0104710206915646, 0.0032800643938480705, 0.07085528822468641, -0.01326967992004103, 0.03488024696524176, 0.018105014624919844, -0.04976656485515858, 0.01842837520746138, -0.08802473055865737, -0.0011555316256446908, 0.35350856132569974, 0.17982730770460584, 0.6264469492971447, -0.0503684207669318, 0.4311386474563166, 0.29473065113018904, -0.2912554195761841, -0.3383842567269892, -0.23473726914520934, -0.7703895003576993, 0.027102871886756086, -0.21424432518610725, -0.19530643184085597, 0.09688543934852961, 0.09097600314014724, 0.006800480022676004, -0.0402123259727898, -0.07434736823172931, 0.009157373687992926, -0.004393543708119495, 0.0173138804017339, -0.03036577951383746, 0.023023115851316403, 0.047777511788061104, 0.061873513235744096, 0.053386176630979165, 0.12412643818973657, 0.16323220690786985, 0.20106636041520126, 0.3703499664259961, 0.6117973306363849, 0.025077076290482253, -0.033512084818842144, -0.2526007804111616, -0.4294781927367404, 0.14640994797736384, -0.14492679994306806, -0.21919885773226386, 0.08880207130224531, -0.43659446786115796, -0.2534587928484984, 0.06789397011563163, 0.1967692943503592, -0.049224191483187685, -0.07418108136461452, -0.005093483805054983, -0.0032092941817837136, -0.03257973510402383, -0.022251250148403765, -0.03112682775702237, 0.001667967651597673, -0.07084636039894351, -0.010597721877937491, 0.04092550992788074, 0.17466280971034334, 0.19977271806971025, 0.26154822485906454, 0.21368160382613713, 0.10338382449435295, -0.09717952853988232, -0.09087248985210807, -0.4457987706680579, -0.2206569817706195, -0.054002715069387794, -0.06701149655160184, -0.04852724788490248, -0.038945326458799424, -0.05636802493261544, -0.11989878774469179, -0.059150020164568995, -0.00031793851380045897, -0.022614073365422885, -0.023849456022110714, -0.015591132260902422, 0.021393899735622408, 0.019848755362695297, 0.012093099891650149, -0.013509134999074378, -0.02891679529601112, 0.011278372813046162, -0.06312465516042641, -0.005504840676256137, 0.035352093031287626, 0.003059576761741828, -0.014459210691594365, -0.0007883542364965191, -0.06947648264767027, 0.027068891419214668, -0.03162958301458895, -0.23653360434876786, -0.10026099047851798, -0.07673266407391036, 0.05028502491173552, -0.019567964005687746, -0.00699034810294303, -0.12417409067631616, -0.06530523637038022, -0.0772606741380714, -0.04148251253746743, -0.037988737041723036, -0.012594518939422955, -0.030391099096928338, -0.008049969155163986, -0.021446429963589333, 0.054154217579845974, -0.056013377688642875, -0.023804833285099938, -0.023696170803130568, 0.0500272621675604, -0.042820951726749365, -0.008101865018885143, 0.004407056294084567, 0.05346025770241421, 0.010784610013073032, 0.0044148705612673984, -0.026893708477282827, -0.0027559922776121066, -0.02178031893687408, -0.026134067229573257, -0.07739684361280576, -0.05865680149779395, -0.04293539584592496, 0.011874788965452432, -0.034955185606893556, 0.05029734543947916, 0.010728600469355004, 0.04704294649568413, -0.02314029821502985, -0.005166305760598297, -0.018343513915752868, -0.02385711498980677, 0.0012673460095054146, 0.020661171088229076], [-0.01947901935053072, 0.010961957483948074, 0.027818711784583037, 0.0409578382051828, -0.012163013389603268, 0.018805214301698618, -0.001138037306952538, -0.01824605906135464, -0.0032394023981020385, 0.02435368268485534, 0.0009055242736913319, 0.0688441689760263, 0.008216416083800013, -0.055068055664887636, -0.0772813987942657, -0.046202325349893346, -0.023395797280444847, 0.020482136157055263, -0.008903171043190109, 0.017907543917943095, 0.03317275904093355, -0.04480490331862231, 0.026224830570127537, -0.027791457820184492, -0.03917529899732366, 0.02165466702362607, -0.02331578051994396, -0.0030083497900810804, -0.05044922779025934, -0.004490077263458378, -0.007633600132192726, 0.033247477401844756, 0.02508288406543573, 0.0778046148503613, -0.06845452605837, 0.0055550843077180525, -0.007902226962754893, 0.008819638936246672, -0.020602529786784382, -0.005470265325764669, -0.019632800267678024, -0.010227472463364657, -0.05199872942860235, -0.06074674955766911, 0.020497259951934955, -0.011640006080031174, -0.018398822424191906, -0.009673782956718543, 0.020495118898614977, 0.019042176500277713, 0.011854491078788934, 0.016706636129836118, -0.03471538554954013, 0.002498008847002188, -0.017775577306584106, -0.04434126575764381, -0.015035818855476085, 0.012862974288604915, 0.06164221588636507, 0.006721250435745778, 0.029700088113614933, -0.02273438618011669, 0.014942577193604879, -0.015959759453364517, 0.00476657987519421, 0.039718237340697335, 0.015196085772080157, 0.05879046125050995, 0.04548861000033879, 0.14261773407568545, 0.05189468670523156, -0.16056932356336107, -0.14445784051271085, -0.17698649538920805, -0.2118437000157414, -0.08410112410086507, 0.009102502898165917, -0.008907103866518521, -0.014359690521268753, -0.029944863957260683, 0.0215285581900082, -0.007663741832606799, 0.0015639173006747901, -0.007440938390228845, -0.0013687948632983653, -0.007987958461997575, 0.03385766960366392, -0.06575767457363296, -0.0008541465844058064, -0.08352362787054667, 0.028001377152190303, 0.01075786666192012, 0.005256984755490443, -0.1491088605704978, -0.06381865466617319, 0.002767711978177316, -0.025228539541862414, -0.0480231171242799, -0.18963025582933157, -0.399512626352338, -0.2795960626944531, -0.2828507729929883, -0.3555560169844114, -0.26439982964797604, -0.10472701546070617, -0.18329223774719047, -0.07329908859813994, -0.06205659036130093, -0.022498667966356425, -0.04308556731380949, 0.03939565301798177, 0.024656317503667566, -0.018638345682238492, -0.06681064400515604, -0.0049454561245429055, -0.025610979930586156, 0.015818681758606176, 0.04793062582085215, 0.01240668216831444, -0.08249605929888296, -0.3016555056402446, -0.3969940128666387, -0.3829332556651764, -0.41364955793333813, -0.1916961956869259, -0.2983521303992302, -0.46151510203761886, -0.5090962207724132, -0.5055541977292847, -0.665156691440805, -0.5784853827383449, -0.3641613607312318, -0.35556731177013284, -0.16050424582282974, -0.1565186977998428, -0.04595331516653532, -0.05575869937316605, 0.008371064333856187, -0.0061988882363923975, -0.0027828521435835727, -0.06731107808486442, -0.0176662186059257, -0.0165757376310534, -0.04721072371291869, -0.019282360234671336, 0.05744156255174848, -0.04705698281538382, -0.10360188729047086, -0.2556291346341121, -0.29769155411067233, -0.1723639458165345, -0.6700659054729223, -0.31820660673529416, -0.01860915708945489, -0.013303633639722251, 0.5962654601861924, 0.934593112265093, 0.16944328388645524, -0.6015241815496476, -0.43346141340587135, -0.6707118945389299, 0.00939697599861558, 0.20823723235050462, 0.15278437506393847, -0.1602835216920158, -0.0924633406733896, -0.054035357273284, -0.08651852804974848, 0.030074547114840238, -0.04999514872263333, 0.07790381572572395, 0.04052466780732099, -0.05054767469925878, 0.17489710827704033, 0.04697252414652518, -0.1575680770142496, -0.3659155971439889, 0.2760510216243042, 0.8151681750789861, -0.3129236533075379, -0.2431330011172955, -0.46515641923860185, 0.0320183353121625, 0.4843987937146565, 0.6019196963034407, -0.4126020412426534, -1.1641856302711342, 0.15798627987706776, -0.11308348744694897, -0.1962899636610644, 0.0712406072922902, -0.26397833541821486, -0.2336182073071522, -0.09530050222791599, -0.017997949169965523, -0.021768118112368114, 0.06790053631512177, 0.002341729311271742, 0.012314064719875045, 0.0554309768524148, -0.05723786812546149, 0.09391176427816977, 0.09305481396995816, -0.18827133401187002, -0.17846475559791997, 0.5227975108990184, 0.016427063389086494, -0.12560446677954334, 0.006428562049295493, 0.2610893573763439, -0.18569294567507985, -0.7603011551225675, -0.21030824228970144, 0.2854745824478486, 0.06847238620301196, 0.6741496046112235, 0.8855667661726336, 0.09385939983478521, 0.4885831400428754, 0.09497325397241771, -0.5959509820625095, -0.28343977301214685, -0.10217664364903441, 0.024460828222925335, 0.008463013057237529, 0.019312778444763982, -0.00036460439390100647, 0.01639371192490537, -0.08568953889760421, -0.01221690284318984, 0.1387625439862081, 0.6081389177441655, 0.13816271603605504, 0.2360838015652546, 0.6807064528191349, 0.11798490819500404, -0.09872605655846767, 0.07213649957754721, 0.181359354198729, 0.08165787837519785, 0.25833216718429264, 0.121122068342981, -0.18420800966172823, 0.07425328195321723, 0.17150433602626947, -0.4331533937221974, 0.3368505513346331, 0.171639308658269, -0.38863382772571453, -0.27333869712719877, -0.0646931724136169, -0.010513703930865292, -0.03704769898656547, -0.059523895747718214, 0.028201750999640132, 0.07381601017345392, 0.11443298570907694, 0.5300460055385344, 0.5898488143509395, 0.4598456007309174, -0.0345421907728329, -0.27640732364521586, 0.5740438835599098, -0.06517615302862449, 0.8719915638962673, 0.6642310871893673, 0.37905366743802654, -0.18532109233671026, 0.13249065512082092, 0.18919309552213173, -0.46656177026003015, -0.1524187057402164, -0.20327926429063428, -0.6426896265078692, -0.002309033887704283, 0.015554424102747688, -0.16284838755429265, -0.0948771706035563, 0.23945700845426537, 0.275570819977973, 0.009905125461453028, -0.010188021713051047, 0.033604479294062455, -0.03119919667137562, 0.19689775734915796, 0.5649157627506762, 0.5902131492705155, 0.22037228189585542, 0.49112864540161083, 0.06622632932781039, 0.6530603404018497, 0.08911709502631873, -0.04878836481250277, 0.49458825277008117, -0.3642249943046726, 0.3225773905831198, -0.108956707791022, -0.05052073440315968, 0.31141326749673676, -0.22372270012905174, -0.09484756914188587, -0.5183353874621729, -0.28757203987589464, 0.1490840270097548, 0.20839437975616043, 0.21730429574606708, 0.11907278860542236, 0.13232189035377961, -0.04053860195182852, -0.01545142975141417, 0.02241094170552267, 0.013986258835651426, 0.07732630450949884, 0.29852023918767984, 0.3860173328070235, 0.5851702767457188, 0.9800940960184655, 0.3239721462003811, 0.7253739773234787, 1.0026256150812625, -0.8446705079371449, -1.1173834564587477, -0.8702994737120614, 0.061356235919797365, -0.6521580257032207, -0.5485374548752204, 0.41477338767096245, 0.0013757791106982613, 0.11245938543805377, 0.0573234744183414, 0.0020393006252065397, -0.00582302989695352, -0.1423685449674347, -0.10498247678014459, -0.09084391621156636, 0.008389136333178308, 0.008072582594903486, -0.03295720806047236, 0.07755237093440258, -0.1659515275537424, -0.12705812344358455, 0.014834023111653154, -0.18002198101818526, 0.26581815156298705, 0.8181983578671168, -0.1668953185034325, -0.865315100990405, -2.1810045479066305, -2.3170674318136815, -2.03044572641722, -1.3038661585939124, -0.08321806616651065, -0.07625440917679235, -0.02058932085797869, 0.2373559811916824, -0.5393572982667945, -0.31689155817573766, 0.18017332351263565, -0.22174128546396346, -0.6456938014008637, -0.17744667152135438, 0.23149938010600668, 0.10956197402470834, 0.06346557137816984, -0.01656017346773152, 0.016700174860276164, 0.022050675347401256, -0.1758427790615407, -0.5442887493948222, -0.46607287487019144, -0.4561366170639661, -0.8090518377101488, -0.8016045524763248, -1.142396696347786, -2.56645617936805, -2.078214048945149, -1.1649843779726574, 0.11097670269288969, 0.637051136669658, 0.16100817136988402, 0.21952579479517653, 0.08459260830381347, -0.2170512029011255, -0.6967673916120685, -0.49063219220356136, -0.1929270574816937, -0.336424818414681, -0.4147519435245042, 0.12805080798520133, 0.16869466909217812, 0.09557997709216175, -0.007559614050915052, -0.012152708557453344, 0.05029335126153149, 0.05100684948408082, -0.22181551234263755, -0.5297299783159659, -0.7530387040663682, -0.9367036473111396, -1.3481459016338124, -2.0185869353344326, -2.2033347898017372, -1.7600367546122238, -0.265003761909139, 0.526010195240791, 0.39391108739216996, 0.430365653706052, 0.011205694146419806, 0.15570843749059335, 0.5967107681202204, 0.0809207454374671, 0.0936240852812242, -0.4551447943803289, 0.04414091503128103, -0.016123468867978854, 0.184552031446772, 0.09088784314099757, -0.027379738067661422, 0.014846784040082616, 0.01569104493164919, -0.022143073056353157, 0.03657202662868797, 0.008407044543408492, -0.2757977851861758, -0.613842915401319, -0.8496931241197776, -1.0611658022645887, -1.257577350919483, -1.9174402305995644, -1.0783141226113044, -0.14260717419956362, 0.8789106038295579, 0.5724535249796882, 0.36998732781946875, -0.19146332962915338, 0.03843214623146579, -0.012937836560771908, 0.2675708559951598, 0.43790635885332796, 0.04458859021425993, -0.03569346266207919, 0.06489271306977822, 0.33038827854613945, 0.18318615241664812, 0.30548826688231706, -0.028415654661816902, -0.01557831425206359, -0.06434637403824298, 0.036615106319696646, -0.015662795942545656, 0.023731666789045647, -0.17580920561745972, -0.5602024978067887, -0.8779542344470688, -0.524206489576369, -0.545391669863109, -0.4752968983056363, 0.27219147187003834, 0.1183674912808791, 0.23874188922631046, -0.11447927643043343, 0.5749378539424926, -0.1853100139602074, -0.11519595351502783, 0.4636734143300536, 0.28044411636454336, -0.0529724264033176, 0.15635683074719708, -0.3392028073744516, 0.23708055979716153, 0.2824495616531374, 0.1293396782484443, 0.4106067710744517, 0.03617564126859298, -0.012602490860064096, 0.07643773392057078, 0.007279825271023849, 0.0013552042865216717, 0.01960298797622876, -0.08962915567816632, -0.19630543729036873, -0.17553681664103127, -0.420197864728502, -0.3840295141455926, -0.016771327186399006, 0.735147558495835, 0.1538365326152206, 0.2525412859852543, 0.24444323045669888, 1.0555105056608818, 0.12308101498321358, -0.3313400454367672, 0.052008525894489, 0.517979293515555, 0.13343975801725438, 0.4474067834047622, -0.40974253709188885, -0.05342845327656352, -0.004185968045004307, 0.11996875907010844, 0.3689383831302363, 0.14670790407607948, 0.004331149928232408, -0.012913452408111039, 0.029669952465019, 0.021025335734191058, 0.010876720714261054, -0.010815252711649063, 0.16195692179959997, 0.015960182737670112, -0.6974317202634862, -0.08630886508972874, -0.008909838610832957, 0.23055891013678495, -0.2521828283391665, -0.3027491796188318, 0.20464627297825566, 0.6257700177834967, -0.3266720054663421, 0.1287512828912657, 0.556986808196198, 0.6757737928913236, 0.37863663400995196, 0.268776454178094, -0.38358024689414205, -0.4475262074079907, -0.17502023863050353, 0.1857657054487165, 0.32278684780796785, 0.004543551532852876, -0.020309964457596138, 0.04568009225087013, 0.03533554942634491, -0.005886036135817108, -0.016441924932094943, -0.10416476872086244, 0.29468360194028737, 0.07397882689342655, -0.4516619228006046, 0.04069055939280308, 0.2785406256847121, -0.11659488922540943, -0.03609210829850813, -0.06749195449270252, -0.05758516493506493, 0.16188040243542196, -0.02454975488929055, 0.1025192829818267, 0.21895359515766324, 0.01325269255601317, -0.33076092727531464, -0.019185534310576288, 0.163314601274829, 0.24433294402280872, 0.010580598598199932, 0.08322292396755807, 0.19628674418446834, 0.04686663614089705, 0.0018533959224216968, 0.05107751705989507, -0.047894570383580644, 0.026674859800804345, 0.047047951084469165, 0.20968294430215664, 0.2845186347111733, -0.12730060105554758, -0.16360810585813243, 0.3748776445604954, 0.4802209771672147, 0.042216295151955574, 0.18019831446496204, 0.10768971168352835, 0.21631481924243742, 0.3310148278920142, 0.26652421236160223, 0.10219384611774888, -0.4501576571614463, -0.44264231111290947, -0.7188804005954288, 0.019855628334235254, 0.14955583987411653, 0.11883606587598146, -0.07587177041882809, 0.07105845218420677, -0.05446487349878843, -0.06904544039306615, 0.031225346994402322, 0.019338776842616943, -0.02019611855292809, 0.00017490796531052292, 0.12335606020200432, 0.20865904030064994, 0.22224670978228744, -0.09812710402087466, -0.11006085784265178, -0.22996507170209662, 0.21965033041475046, 0.03359802191200061, 0.5062310092755313, -0.26690736369857887, 0.19058322164941185, -0.28885589780167115, 0.7820239200281514, 0.3208888504178278, 0.17190707313716747, -0.30923273919258665, 0.12896685974790079, 0.17650718107578592, 0.010150618221999766, 0.22990209696661498, 0.14962287179280764, 0.02875418889535521, -0.07427046186272393, 0.0192747723642733, 0.015152650457058173, 0.043102233357721426, -0.002065037915877749, -0.013938819770829242, 0.06797731440126493, -0.01266463062562269, 0.0524580516681213, 0.35670528693468906, -0.2681328536293232, -0.31250172729281916, 0.20647904932743627, 0.27049071308220296, 0.26707981227274114, 0.35403636905303315, -0.3477341804760931, 0.027520695354516792, 0.15723901098332235, 0.11773492261763882, 0.41276963524112964, 0.17033168884829641, -0.23013931665206988, 0.12562746788846443, -0.1526356597707427, -0.027626004623129627, 0.20586577361152195, 0.07915290336478205, 0.02908992744710794, 0.029909122139458587, 0.011217644966622888, 0.05848696006143187, -0.02539049541593511, -0.008880293338938637, -0.02572041509834645, -0.02670732019963293, 0.02453333842629433, 0.18686246893315603, 0.19053758159296663, -0.08921225477799687, -0.29385319290125395, 0.3889567138958529, -0.1101519334245115, -0.39081139578977936, -0.7231720852217328, 0.111605574770081, -0.4343013950929442, 0.28035691072936064, 0.12102203752715963, 0.01852946856249249, 0.13939392583910193, -0.3704105588613235, -0.4913481197502678, 0.028729665893274248, 0.0172305696864246, -0.014309389612036344, -0.048725155878146846, 0.06243623124878168, 0.002649749385177802, -0.035870272232397186, 0.013490874930126458, -0.006055511025702086, 0.08888120284830633, 0.013886842365157458, 0.19345588915024062, 0.2885201725724967, 0.28608534341915504, -0.2056416823689593, -0.12677324452147815, 0.1049276710888756, 0.14232542064886083, 0.37453825424331866, -0.0626787952814079, -0.07424839158129651, -0.059001875057044406, -0.19369811829504768, -0.7434774556602858, -0.023930091156677328, -0.5462129952057049, -0.4175395048145981, -0.15956693954120807, -0.005440336202821463, -0.13511669941703489, -0.13987506091908014, 0.0464938423107921, 0.07587018515920844, -0.016474960853899094, 0.011136329152538559, -0.008317879889399114, -0.008587298657038953, -0.020302879474784537, 0.06952278666005672, 0.17064017817243657, 0.0954566893952761, 0.08388533372565357, 0.14085348228484082, 0.07544485488193638, -0.19249491678962416, -0.05708295334647485, -0.3143770033567867, 0.40932760674772534, -0.3739957713227855, 0.1644725853143234, 0.08803470666037341, -0.04234327990833778, -0.14058663264039403, -0.05865809165312765, -0.007653132333631373, -0.16666775688429528, -0.22147184280284246, -0.17280044358305519, -0.15431053413701648, 0.016694030949908435, 0.02542670284726673, 0.03939642179299411, 0.025918976978424033, -0.03294853731132422, -0.02972441868664278, -0.030595649029018825, 0.03163273285944766, -0.04614350780697112, -0.44193864539919764, -0.30976228626178764, 0.20372546546400314, 0.03120888408958219, -0.036344742338819874, 0.14871653951693967, -0.2694712417556453, -0.3650188694298768, -0.2733215348942442, -0.06722972129361049, -0.08273374564413125, -0.30404086483316134, -0.35431433873408896, -0.007312253390457405, 0.04167781332814746, -0.1789444432926149, -0.14171446092707402, -0.010838618271127321, 0.04051993899084355, 0.006451511594714899, -0.0066037721007532685, 0.015749078995593028, -0.015492191025071145, -0.03542119459708517, -0.0169482596901496, 0.024531378158503075, -0.01218277726629732, -0.018266864439822752, 0.050420447942038246, 0.0298811140816793, 0.01191678867338706, -0.02506343556028536, 0.051555872994468135, 0.07894808488745682, 0.00028403998001852855, 0.01212141205291205, 0.05365058362581828, -0.0036671369034672503, 0.020300954383655048, -0.0034394524740548847, 0.08867004108526932, -0.04322056018693143, -0.000655980277001248, -0.10006075182697566, -0.0356595074382519, -0.030231737028070457, 0.0058471417102217245, 0.014024512687041078, 0.012130451900498981, 0.0035479347749066206, -0.021230037877976695], [-0.020120980416025735, -0.01176857707013171, -0.04588925791165655, 0.04676084727419486, 0.016018206237407136, -0.040476055387873126, 0.0006420753497415731, 0.011893016511311997, 0.022348244416003485, -0.015148582766289881, 0.009535185814798414, 0.029512209216269923, 9.321099505321072e-05, -0.03701703379086134, -0.015280909262647887, 0.03609436391781412, 0.029370963757341426, -0.025002061153865787, -0.000414043133164997, -0.02711470569739581, -0.04630001476728016, -0.016673934480835203, -0.014241647820321524, 0.050298007987224384, 0.020784114683900456, 0.045821098670102124, -0.01935324071251248, 0.00930889963173644, 0.0019827741234779137, 0.017778924473081777, 0.01234321295996225, 0.06016349815967699, -0.04366509313256016, 0.00793349641204621, -0.013136918069532053, -0.002092405755340317, -0.09310017286461714, -0.04315374537729627, 0.03258862598671579, 0.007182903535001811, -0.0297250604671881, -0.02798525543157167, -0.0017199441157083773, -0.004549696602208787, -0.014615490385648284, 0.00810659555674098, 0.0022989080759551134, -0.02387412734769834, -0.014221314715110293, -0.022933733619629998, -0.08541188184634134, 0.014984474634649473, 0.008495691504002739, 0.06589487672520505, -0.00403716550390061, -0.010311673794631437, 0.026839193504159444, -0.011344391187864119, 0.004522857988128251, -0.025381131367829105, 0.029211827051526893, -0.025148780055051122, -0.03981829003061861, -0.05166523654255777, -0.08668435994263951, -0.02834365508626382, -0.09226721774107945, -0.048239929145873356, -0.24574479094474652, -0.3360953443642254, -0.29861607457378037, -0.11448251246126954, -0.007690427207638262, 0.05642852216650603, 0.03085564674746142, -0.00999349107171615, -0.02761382926032391, 0.032791699365260024, -0.037465923652419054, -0.005937552971306788, -0.04774199990713988, 0.027279015007047554, 0.04512779695634138, 0.0030132441664649486, -0.00010468329172582599, -0.041563325043778736, 0.017889091788262677, -0.047546438444979, 0.045490559281760955, -0.007677856695060348, -0.17821269677451274, -0.08434727465087916, -0.20530811860502057, -0.29271903173950875, -0.1687391330330235, -0.08523326065288453, -0.3538447543612447, -0.48042455218118124, -0.5416784938450789, -0.24057689795020934, -0.10068713655175035, 0.1336592123011393, 0.279312800001823, 0.18690277413775072, -0.00045499805255631935, -0.014233779906323974, -0.03934247858098829, -0.07766460740240769, 0.04688676795793813, 0.016154817983667337, -0.036907514741467036, -0.063416539855583, 0.00016162406392884217, 0.046033615497071044, 0.013113914058140975, -0.01169365060261724, -0.0280633137743615, 0.013990034767380425, -0.1623274321795604, -0.16051391986834798, -0.32161198935577345, -0.3951663885227885, -0.351267965539368, -0.2708306133097551, -0.3156505526938754, -0.31159565097054076, -0.46967877546636044, -0.32344379678908847, -0.43091402919734917, -0.39190840845814423, -0.08498423157061474, -0.0917651398419881, -0.1250770705545822, 0.04897966317491973, -0.1979844109976784, -0.01237831464761625, 0.11531112456600019, -0.04192255208240553, 0.01460288549310404, -0.026820417724019562, -0.01988932111542392, 0.026916911325168987, 0.01188009407327772, -0.00619777595237178, -0.007388403024034871, 0.033263671658555816, -0.18220079621217067, -0.38705847255984016, -0.3825367127887554, -0.28911815886001635, -0.44848930865359926, -0.28287019167867344, 0.004372269730698441, -0.10050809667774387, -0.13075596199299175, -0.02075869858177862, 0.10282988264916004, -0.12347140344645706, -0.1521374809747461, -0.22997785357115386, 0.28740235301355704, 0.005287042501265377, -0.15535847070277942, -0.047662155260527736, 0.05532011588416712, 0.029964134677899358, 0.026987641256050594, 0.028476697776354438, 0.014800173666532352, -0.038701894811110756, 0.01933738551765532, -0.03814723721665421, -0.038378933038438354, 0.03184457144104428, 0.16180549206201258, 0.06769342810931747, -0.045253485768857356, -0.207971675285891, 0.3812476254086341, 0.019029735625564342, -0.41213832414670426, -0.7631624749277585, -0.18669212672485877, -0.6098084447772987, -0.641943546877718, -0.11782256398530529, 0.23911338682804337, -0.13910771126221355, -0.0345871800802785, -0.16356689422077553, 0.030212670529165896, 0.2726016977840799, 0.29720165426471845, 0.4755012859963181, 0.06253572728391976, -0.009166680935565654, 0.01197582231312497, -0.0003855646584566947, 0.07782160720867122, 0.02854654973726286, -0.14660114080730538, 0.10292795012589569, 0.24960016659293643, -0.2192706863123962, -0.009158030272038545, -0.05531594248908305, 1.2191639826786, 0.5569965058410467, 0.6066410209524283, 0.31348592199206904, 0.26560001768565383, -0.10035591370268807, -0.41380072679413726, -0.2053116343507981, 0.02513824560375216, -0.3551744197169852, 0.542606954468769, 0.36036240017895804, 0.13022401492627217, 0.16770454011970076, 0.21745907895189032, 0.35199457932688405, 0.1842873623992343, 0.07065619387969369, 0.0792534897830523, 0.017641857169403058, -0.031072649845333693, -0.018254018927738706, -0.08424735924975658, -0.04016456888304435, 0.03448138049742704, -0.12376168349930292, -0.21836198565604747, 0.09842397470468475, -0.12542293094531753, 0.023592328144407322, 0.08423259388035918, 0.0813545523472195, 0.5222133687591812, 0.4509920867900594, 0.2821505156208087, 0.05496708280042834, 0.37418089416672207, 0.05921278693785964, 0.3571660742140621, 0.5784932552095917, 0.2906487802824504, -0.03354537564776456, 0.18790726382895817, 0.2135838389769949, 0.11105616420829933, -0.005340935564548568, 0.04419787096094156, -0.00480511164629845, 0.03227659343542294, 0.008165340078521512, -0.3157314331956076, -0.3476844120820106, 0.01306184626629406, 0.09558852621426064, 0.14544240514701473, -0.13465868180860405, -0.5571788179562706, -0.28967707015289484, -0.1860628989988266, 0.36093482511846964, -0.01616483045892907, 0.21165629925494658, -0.3987563569304017, -0.10359947045209889, 0.12273402588827746, -0.4911508105373279, -0.5657202030120345, -0.038608439621471945, -0.2359770575507792, -0.6576350977796356, 0.06824113553286358, 0.09488360220775785, 0.03827625388983055, -0.12451981259056233, 0.013411593457806877, 0.01231826366876743, -0.01717540331521658, 0.02497637120522996, -0.3581425230394059, -0.5504843957885149, 0.0022066349193427723, 0.3142200879476322, -0.08366614892205378, -0.17676413835493682, 0.38604531842651146, 0.04095430916690966, -0.09391610865134416, -0.5456170718556863, -0.9745192492768449, -0.5725143739221084, -0.29363689107739915, -0.029464986933961813, 0.1863018534347657, -0.481308317748678, -0.6887672741904903, 0.12592301097573266, -0.09641438470308299, -0.2953443106600768, 0.24294501127446128, 0.28677512702077546, 0.06279543948344282, -0.05842924230809691, -0.02734655675749411, -0.06835250123099264, -0.07157215122511858, -0.3312052258688459, -0.4604526865359935, -0.7453605849853526, 0.008753413601292344, -0.08189368144992437, 0.4190443659499671, 0.4779900241304283, 0.3076413955385754, 0.4723164199653423, -0.07355108657164965, -0.5495356789198967, -0.47241693663050033, -0.07936520728992506, -0.002103165827006094, 0.40536330018110484, 0.5642371038645425, -0.10372750693410386, 0.2204050157036574, 0.343753324094657, 0.19541401180885942, -0.08566144090091495, 0.08327312469785224, 0.22436912226497635, -0.04270133617725016, 0.012590725658883226, -0.001932565780203366, 0.019993883586068562, -0.061185726575222504, -0.4478255014246691, -0.33377436591111187, -0.6594255714802665, 0.07424770289889443, -0.2356332139728695, 0.03229856793491219, 0.20045540896348882, 0.525678626968137, 0.36300591167122775, 0.09602696235666504, 0.2083955812311815, 0.004799191338078314, 0.23366469784125088, -0.49002629280140814, 0.018424301516020637, 0.6179285928343426, -0.10375376980016207, 0.5430664067373134, 0.07386059267918188, -0.10755170620342848, -0.26598773882297244, -0.3482108325107714, -0.13087939933553835, -0.15008827937190738, -0.06898530363334349, 0.03875815161117316, -0.019470499714815383, -0.04738049025070581, -0.3632325602008094, -0.1928195813233165, -0.40689199736009457, -0.0019507616194889396, 0.6419357702852709, 0.36289309043425616, -0.0871850874492609, 0.3578581652767542, 0.5332538414882716, 0.02158225081050615, 0.14833716666326044, 0.31677344193689727, 0.33651055438028704, 0.0025422823484099067, -0.022593636164947587, -0.23605506211258181, -0.4962432879740032, -0.08933939129054833, -0.3600514395744391, -0.6982750549168737, -0.5603915070466109, -0.4176424630242326, -0.22951957303329604, -0.08195992199651848, -0.023321360091356137, 0.01267211894332362, -0.013054366200415862, -0.01639215182201467, -0.32221327788627263, 0.08670309205570312, 0.18839103133226537, 0.47260615093057606, 0.8796061503595749, 0.8569385949244702, 0.4610358579215911, 0.2992359211319038, -0.3584702052014729, -0.45759531507694956, 0.02217609046407335, -0.11488489051413821, 0.28372018857844644, 0.0413784038728031, -0.03354348929015779, -0.3858658816996955, -0.40726376558300365, 0.04932998321068059, -0.34701226448999656, -0.5937339607120713, -0.7667035586926229, 0.03620738745165271, -0.22499890309438564, 0.02519705287551879, 0.009600090907844002, 0.005993589444905254, 0.03624475036553836, -0.020181298363060277, -0.16390257139136405, 0.043479532119654704, 0.4966530550301597, 0.7940184375386549, 0.9612492977440519, 1.4064573522645427, 1.168676590858633, 0.3687886755046762, 0.28916842515594543, 0.25467406111743857, -0.4919864220189616, -0.4699641099903434, 0.22279539394212253, 0.38580027167577835, -0.2416319188004675, -0.12755149761933823, -0.8119226305909991, -0.428467345467162, -0.0037849091059434198, -0.4814547471441189, -0.2663572870266213, -0.146775211052498, -0.27929255835860495, 0.005553025716954027, -0.0181084523990426, 0.025390885532081228, 0.026449211823638564, 0.019835259747906925, -0.01089439684082361, -0.24595755743200917, 0.15792955358536712, 0.42271280914362613, 0.41562150221465755, 0.3248091607234405, 0.5978671559451775, 0.8631035862494997, 0.8714906620913667, 1.2539039860387826, 0.41107262819903084, -0.2812145779225072, -0.3880666559964935, -0.2418312917668823, -0.39035122253218474, -0.07198457275920812, -0.12007360801360255, -0.1380294069896183, 0.0706082634464752, -0.49623429590057194, -0.3140433242952237, -0.3026112525034105, -0.15165950796547148, 0.05663009114014363, 0.003420266201305096, -0.005986420346541396, -0.033905881779691956, 0.028411874154993754, 0.018966320721898185, -0.2977585692277658, 0.06935227918077165, -0.06265613196096369, 0.22478953770922297, -0.09573011209979465, 0.314990834991041, 0.724314008690952, 0.5125898435799248, 0.24145274105346073, 0.581320915185794, -0.15322385367514343, -0.3503773247335326, -0.22324461402566734, -0.3343579885419202, -0.05264767107778844, -0.37284016380304613, -0.32425644284882305, -0.41283397125646604, -0.7798235568175919, -0.3002549036790701, -0.405496936563847, -0.15405426819875068, 0.003936556252273445, -0.1448921548337063, 0.01752842512410891, 0.026357715964090502, 0.03429802124267564, 0.04290659420156227, -0.5014486317283239, 0.14897881093018317, 5.8066834995252184e-05, -0.2431834767577988, -0.3043397212207016, 0.3172102192325256, 0.4117954392335915, 0.42876008225989204, 0.16495233840723542, 0.1527877266573596, -0.08102086946502385, -0.6014944220029768, 0.22635409175878266, 0.07746017407164695, -0.6086701274786988, -0.32336950155772903, 0.06140910109606782, -0.6474001373083321, -0.5465201765235149, 0.029589685536592678, -0.27789745643372166, -0.11855851102924082, -0.043197261461022256, 0.010511052171272708, -0.02370301859900616, 0.045703754708871974, 0.0364523012647579, -0.05838389287516209, -0.3223028053839387, -0.1952004587542807, -0.5591946741470908, -0.6559792973411909, -1.1572973617216167, -0.7644676670999189, -0.8589532727061279, -0.6994103119142707, -1.0870182256660608, -0.5859429864247957, -0.6031407253327723, -0.4873327392487502, 0.05327278958345933, -0.10041540648424467, -0.0655226209874062, 0.1273731311441907, -0.341203290162387, -0.36276578516433217, -0.41401428176692456, 0.10183376010032129, 0.0039437548142938605, 0.10080520190263362, -0.011203071899131075, 0.017046383280392985, -0.015293540487993114, -0.0018931212365040008, -0.0033755470245752685, -0.0863302642512455, -0.1998418669688447, -0.5204302006410952, -0.4920140931349288, -0.5417861495700679, -1.0640037456286837, -0.9810846367640075, -1.5796841319130794, -1.5489883523794117, -1.7233257830014437, -0.7544298944512443, -0.04260792669965936, -0.339070663629752, 0.08704913085227162, 0.16061356697435714, 0.4996531737879056, -0.015588832939217815, -0.03369029510148557, 0.08321241775034943, -0.22848403519227223, 0.08883827426608315, 0.08880455494232549, 0.24225401603418198, 0.019635531041013995, 0.04581724634838198, -0.019941180600772535, -0.018588949123585972, -0.0789596542614724, -0.024957782274611304, -0.11742853611143926, -0.6749060165818109, -0.5421679724495311, -0.40348473531236445, -0.7322440428534858, -1.1022978997971844, -0.7976776922381918, -0.6619051296928016, -0.5405520941912646, -0.3029838167734588, -0.17534419149835093, -0.02363545653741071, 0.21568145083862794, 0.04843329340188894, 0.18155856391977057, -0.11726207359670678, 0.19006128823106097, 0.1513454588656874, 0.039293837907573174, 0.08947491238726785, 0.19951018280757563, 0.16011087628053838, -0.01834526315335113, -0.015552758783546006, -0.02355249939276134, 0.00018371973953620907, -0.005158559038435052, 0.1287413877737776, 0.10383435388416531, -0.4532392843583095, -0.5969367244936871, -0.6356346886813964, -0.3300616996484866, 0.07992387436739273, 0.05259889228341159, 0.5124674390505362, -0.48373975963652016, -0.5367002271507051, -0.28016598358535766, -0.5127400858826924, 0.22052121999031063, -0.8203640923909711, -0.3733920251178512, -0.4316003876989239, -0.12424880884838878, 0.3323222840356268, 0.21603595554527727, 0.25292786987304683, 0.2749047295815343, 0.24205404527026916, -0.022471868584436474, 0.0035216943535815093, 0.06399179612537728, -0.003453946919244174, -0.006742293036087992, 0.1653791127151021, 0.26289296004343254, 0.061354232677483043, 0.1353830766767363, -0.21296742351474857, -0.4854323387980251, -0.05061171999611838, 0.4936683940236963, 0.5939508730393301, -0.21101082933593582, -0.32549654050989746, 0.21056716081540236, -0.17899218783916257, -0.06427546645067836, -0.03339966948671093, -0.22159821274526428, -0.01505480292917745, 0.037439123206506345, 0.30021090827627617, 0.3441430771239152, 0.2781861345308632, 0.24800591482949016, 0.1028216700567241, -0.005451866927719154, -0.0008917829095502377, -0.026735940325716474, 0.05919380381907499, 0.029324523688149154, 0.06335030030163341, 0.022626894639529365, 0.023789725414812293, 0.031403942811404496, 0.084179007277338, 0.04622644563376317, 0.5048463091811126, 0.2233518634328628, -0.036923829801729036, -0.21461475523634352, -0.020714924324426263, 0.4764277049595896, 0.021275144866013986, 0.09239485863800823, -0.025026249919395404, 0.21498876492612448, 0.3162684761447559, 0.29534235765579353, 0.537911715721207, 0.31080220506956463, 0.19958146143562905, 0.014315666586645832, -0.02405727415578986, -0.03130807824700076, 0.020327348296103765, 0.014366852305741952, -0.058279838435370004, 0.00022486590399309334, -0.03482039377059772, -0.031197797952886453, -0.05127165706911174, -0.02505496962790679, -0.13991284576564675, -0.03276016544142327, 0.12007739177262665, -0.1259993715560787, -0.14342807202822414, 0.20747193911371473, -0.09297064167469131, -0.41798420165715244, -0.09748430992968757, 0.21965001752805163, 0.16018569415775713, 0.45314583109064527, 0.26776585787775836, 0.1453139630017488, 0.19366636655440694, 0.12499819310927428, 0.1465714230611601, 0.05060444458818315, 0.04620806462928632, -0.003718634187806923, 0.017260645512739776, -0.04994403820599996, 0.01450267028737717, -0.01913550582410768, 0.03167345079486057, 0.04587893139645889, 0.0205853140183843, 0.08236528293837957, 0.06573957977855908, 0.04380908484432205, 0.11141532254534645, -0.0977414273946837, 0.07692368864957772, 0.5272455772105722, -0.019615164153282762, -0.032469639038633445, 0.48752825664531435, 0.5012953945679662, 0.4278861056455805, 0.38513724355411366, -0.135327449678339, 0.06984421099273559, 0.1510264785906256, 0.023928006673154246, -0.0799866708164771, 0.07792965652049166, 0.030539629704154782, -0.00357083686337761, -0.004334920318112998, -0.00280757003391833, -0.03117645980442208, 0.005171018612922758, 0.03506934968715661, 0.02814618038588956, 0.019194170237590246, 0.02032710676891144, 0.0527170109886441, -0.09220841643542764, 0.007746646054785755, 0.038598026172890966, 0.011966123632453345, 0.04634983508111641, -0.01725431155094594, -0.08467519268696538, 0.09415592819932701, -0.020144251557902938, -0.1043470448286772, 0.02594289716538667, 0.0056860134409259435, 0.010700041478229588, -0.003921224673676145, 0.04466096708446183, 0.009912310850596538, 0.003351635551503435, 0.045882718527210674, -0.010851280538179168, -0.020501375126949373], [-0.0012446278448934509, 0.029595481774349352, 0.001426504453519911, -0.01602609294656582, 0.02757436078889642, -0.009634507030321218, -0.0020900783317228558, 0.008122563312399156, 0.021529207515245452, 0.024162638737289334, 0.015913917262561965, 0.01611106235655326, 0.0008286233963697704, -0.06845658019052188, -0.01819739751250839, 0.03402915644177521, 0.004135136193724452, -0.04179471761755585, -0.016662297743308876, 0.039520704752541706, -0.06350193034875688, -0.013524410932839397, 0.05474243639123263, -0.01295156638617411, -0.02397983046939423, 0.012442105097298236, -0.051992917938476074, 0.00871917792087654, -0.014038168342692173, 0.07270892552927918, 0.03763283602250022, -0.0037286341392123376, -0.01188328209196731, 0.0035867449830709703, -0.004039079566834757, -0.05188472970627151, -0.014278709297091836, 0.054661513708447955, -0.04659643111716157, -0.02015310748034961, 0.027801397321324337, -0.009539243441105029, 0.0011875381843176381, 0.029309865664738383, -0.029555991909369344, 0.0032956553007116225, 0.03629372331250444, -0.02001920591944501, -0.050055630632707016, -0.0034314199808037574, 0.00258367048720494, -0.0261340422376837, 0.00992262044725635, -0.0907286075177139, -0.08021200993938382, 0.02630813137414333, 0.021539588914453713, 0.004408065021227844, -0.03429506528938706, 0.00042294506278353855, 0.04848355804773032, -0.030476409983006908, -0.019529399766178353, 0.0014267147999297276, -0.0440513572381571, -0.019676151841333787, -0.034702627785866656, -0.10648184030947731, -0.015178010952956976, -0.10942310460191457, -0.07458334527238177, -0.1153880159127841, -0.10613563778895753, -0.017231705361057482, -0.06057699009034542, -0.051748904177873124, -0.033441129778653246, -0.02643310245284123, -0.029388277011089033, -0.043451526681871265, -0.002421007204200525, 0.015895769194297662, -0.043953191852568366, -0.0002919714609665825, -0.047824124925831595, -0.006107497502693521, 0.025060042054690444, 0.008907693799507005, 0.00441890009044104, 0.032660699079088716, 0.025399589089062067, -0.046705962134672985, -0.15358904105523905, -0.009801756616080322, 0.07122326188959131, -0.03146423335896759, -0.22675731726636247, -0.15946311170413915, -0.1978129041640472, -0.7085717261347301, -0.4678385633079736, -0.39991641547872103, -0.4817149934189481, -0.2951008933984621, -0.12734668100552113, -0.02932247426960769, -0.03136180448058292, -0.011119331904416323, -0.047189066617460244, 0.012922179964661204, -0.007763616029881462, 0.008717858524606105, -1.002413178310947e-05, 0.02789826407790092, -0.005827758453200981, 0.02913761282406791, 0.04753362775861068, 0.07652681902769595, 0.01227963087466187, -0.20620359999432034, -0.12171153286494082, -0.17154084396325028, -0.15583670826207022, -0.2774339742720505, -0.28046958746272316, -0.8179115030801882, -0.8401209400168546, -0.814278939871248, -0.553498460528695, -0.5838351598360583, -0.5885008073209486, -0.5445309003684111, -0.4160038792111959, -0.24848798699490204, -0.079322500405099, -0.028540845575190436, -0.05179718470948511, -0.0858879481638076, 0.025064453355071518, -0.04936605693131664, 0.030357362103506102, -0.0014342673883254518, -0.015628568485191677, -0.004914303028598242, -0.012702645663777212, 0.00751844834754317, -0.1799671432533781, -0.36845138408136757, 0.10305583614860786, -0.22875619288953256, -0.35548009959106025, -0.05661082418615981, -0.17126900252963698, -0.3799578539391329, -0.03864151773488209, 0.46631689583653213, -0.640040017758851, -0.7619867697064444, -0.9324167813912325, -0.6966426723017785, -0.37989489202111315, -0.49536732553596685, -0.3957862158962062, -0.177586046919504, -0.06665242400162583, -0.08219997793470228, 0.008659882690716995, -0.033834110357306824, 0.020123284661737018, -0.01721777913794052, 0.0037725719920123735, 0.030376197926167314, -0.07257442367352698, -0.12420979855115678, -0.21044242322846501, 0.0951650551929916, 0.42208710085519835, 0.15913481615219252, -0.10129153548903369, 0.18295978264387083, -0.09805054634994342, -0.3777665109135575, -0.0544889214181766, -0.04497278606992697, -0.4206000717955039, 0.05903670910093407, 0.09198847197260734, -0.17885940008589957, -0.37920161712439066, -0.04143919243611177, -0.11498443299953565, -0.3811711465214331, -0.31361707068360134, -0.07893137581438713, 0.02802304970864345, 0.0034852600112046045, -0.08071062463688797, -0.041606194684023434, -0.0464500467193965, 0.030157215157137, -0.12105384283448883, -0.10802666561003463, 0.0007870886272274274, -0.13957416196518993, 0.2245925663910402, 0.5793145181509536, 0.2635500105573616, -0.06290295599509511, -0.2436125930046199, 0.13893637003860645, -0.47371348198917934, -0.8205972129997511, -0.15625321182889038, 0.19775788409441586, -0.04646583229830295, 0.3602964808263592, -0.2899259415068659, -0.6496028083498663, -0.11565172705695104, 0.027714658497221347, 0.28331295648657623, 0.17662520326431458, -0.12291558419751102, -0.001499392698594788, -0.017260174535433204, -0.009984985020914845, -0.0006811662024798332, -0.08067425173899011, -0.16254320140726647, 0.13488775032671657, 0.13870568159518482, -0.08825438537520508, 0.44129038725973774, 0.33689160337343615, 0.24815990197118942, -0.06380626488763629, -0.4098364901013954, -0.2015640454900739, -0.23689919266133103, -0.0813492569121883, -0.2073805921776585, -0.13138201370305339, -0.1781769120582442, -0.5904854649892437, -0.9078229235673172, -0.46060285692278224, -0.1774237084658407, 0.0852240804393371, 0.31963648142494516, 0.10364036131028968, -0.13048016999317041, -0.030314618827682573, -0.025020619447226364, 0.04121080996813013, 0.07311951662389654, -0.06440932757039361, 0.05497223926669353, 0.45259762495792494, 0.31168110601532606, -0.3819322990925847, 0.004380995684674989, -0.060008325211587034, 0.4210045039376598, 0.41311699622148373, 0.20451734989531575, -0.2969306179970132, -0.04369853196860284, 0.18079833035675016, 0.13449281006127226, -0.0012117316627847932, -0.2414138944963349, -0.5039896959869378, -0.6027435588967339, -0.269497293963438, -0.01891438633307436, -0.1705077100701796, -0.13800618014071867, -0.37525446668547074, -0.18435975876764624, -0.002706704923398989, -0.0034005481960893355, 0.044874212344216666, 0.07047973576881927, 0.012077013176856544, 0.10129296047574256, 0.4222073597013798, 0.22198792863589062, -0.05036493832571654, 0.12626131714450706, 0.07923479385296422, 0.2122346552694529, -0.1143978076012502, 0.031289601850927606, -0.16364688694792265, 0.04882212515408393, 0.5880097949081639, 0.36312581018532547, -0.36796085865704514, -0.051131797968760224, -0.03780783740249872, -0.43190509602211685, -0.4472272379607836, -0.044950648206008595, -0.16246430653879199, -0.3669498609603836, -0.35993463129526926, -0.07499474805746867, -0.054295582206482056, -0.04054132429115128, 0.0743195372392573, 0.11116264979363819, 0.11823745932826621, 0.06553192504009567, -0.04525564713264991, -0.14667398097356282, 0.4370220301813113, -0.06562055129107373, -0.06770618195359239, 0.422599452358213, 0.024805643627211632, 0.37894962727640563, -0.22299916533684147, -0.04062753987395272, 1.1356144410265019, 0.9667676777691953, 0.9272930199118438, 0.3661372848970852, 0.4458583124484166, -0.007048417399409683, -0.29559615664956773, -0.4992495059689035, -0.6701161351650777, -0.41194714624588175, -0.242425920843239, -0.14746039148874054, -0.0009671909691544476, 0.008650842940727082, -0.05707230835553557, 0.07791691283635475, 0.07359467873572677, 0.028089602931397818, -0.3538057457563466, -0.44880223687309617, 0.1800724475206379, 0.3763649778342294, -0.0036555216896751543, 0.25254885309559144, 0.7149532608242963, 0.3031957010882671, -0.0072813349311345015, -0.15838011436278213, 1.0964743653472184, 0.8166643262506297, 0.3734507592949805, 0.7921199930485431, 0.36753628998490373, 0.10562735632268236, -0.15742961853912682, -0.1818975416455978, -0.5907440556516532, -0.29299200503034567, -0.14092219202243328, -0.050781732516403943, 0.04966851953659691, -0.046824009211519316, 0.010136086324546205, 0.01992806219811262, 0.047524253185743645, 0.06870487051628285, -0.2767945723579094, -0.2600814651106987, 0.6533159772457466, -0.18034791711128279, 0.10487664466117579, 0.4994600122514307, 0.6513329415351493, 0.21894340256991976, -0.3136070156918713, -0.6261387370037703, 0.6110388394829649, 0.28814378679115876, 1.0447224768672458, 0.6468606732951679, -0.33808622173337843, -0.06299664843050687, 0.14669482297968592, -0.0826398894721568, -0.2084229616661639, 0.009926108911786186, 0.04039249875917437, 0.041537894849513625, -0.023421013982521683, 0.019371117908821074, -0.04527723786498267, -0.03388220633712002, 0.03618834129644695, 0.03697304674092775, -0.19343885473295763, -0.18092097403535565, 0.45600510227750174, 0.6697130137996484, 0.36757106189371225, 0.874592341142161, 0.827660979228673, 0.024103029260668478, -0.35466726072520216, -0.32589973759823776, 0.40623641758095935, 0.8481643050857405, 1.3005569680970064, 1.2944290975871364, 0.2863618906698699, 0.31314429371923785, 0.22508919702831395, 0.3845225655596033, 0.16720550135249984, 0.06531366066742994, 0.05371172604569235, 0.042236549817383895, 0.02782356432564674, 0.049636811431344, 0.041512996961776905, 0.009043564182845933, 0.14412079212851375, 0.09100205084242059, 0.08501181863728154, 0.13142294944049362, 0.24613746635409947, 0.3922120473661429, -0.05386159853604169, 0.35589199466524507, 0.18260852610599607, -0.42967066002375953, -0.6942068607323848, -0.597866204641432, 0.5816568899801321, 0.2878434082309675, 1.2231972860435272, 0.6824358957822038, 0.21007559741148654, 0.3451334724238175, 0.37548081814763923, 0.2817090174291055, 0.011933403486928841, 0.14037111317473006, 0.09780825420218583, 0.05224855300829832, 0.0026302692574457927, 0.010642965376833529, 0.0022433882003091523, -0.046529782126279506, 0.06622270351735876, 0.22350433105855308, 0.1766010779644886, 0.20903544974894298, 0.14826160225227375, 0.11046128887915944, -0.32095857666616306, 0.5175740542439818, 0.5869328996917232, -0.48813788485317566, -0.8127230160928959, 0.01860402101677897, 0.3517312216909273, 0.9580694529068061, 1.1465430056743011, 0.24254641895182402, 0.014000590468444112, 0.09488862791221506, -0.10204469462948394, 0.07804460626050722, 0.022301354252646684, 0.026084503484875305, -0.01034944671081248, 0.011416587050919672, 0.05214586607472199, 0.03629542008142134, -0.017946837291711523, -0.04562331956539541, -0.1882093917221315, -0.05414552224141523, 0.243866174375111, 0.11663487867578234, -0.10749745775381407, -0.09010886744787948, 0.36818943130264115, 0.8944487932165432, 0.3789737141707869, -0.7014772817763937, -0.5634138658630767, 0.13785768077011393, 0.46806378732150167, 1.021942434418789, 0.35567631915168213, 0.026122330879821815, -0.6106721075829493, -0.3564722918526243, -0.4115766552722658, -0.11222443827659573, -0.10727748855496429, -0.050174141763228444, 0.014655950183594599, 0.10329204795182576, -0.06262375740574531, -0.019911587236687244, 0.012925783945539194, -0.08147796955859524, -0.35402325174042826, -0.22839368795310103, -0.5111121903213045, -0.4796800264809298, -0.20723148302897193, -0.015031967630666056, -0.6765193927714469, -0.31958070066778116, -0.6590267517512772, -1.070098101334408, -0.5685878645026584, 0.11832523486952197, 0.2866897879656619, -0.010356125151662551, -0.39436698184135544, -0.6758351328158905, -0.996448398489974, -0.8753434611345626, -0.7577504585927567, -0.5930971461454836, -0.6532507074771263, -0.25000113340333135, -0.018675678226066313, -0.01754877246680609, 0.061066781731462745, 0.00383403814240979, 0.004054245555399234, -0.08745068035134326, -0.10801693057199357, -0.20769140113977513, -0.5225424590854798, -0.633850474765066, -0.31025597626124374, -0.4511251111860802, -0.6512569221341045, -0.6297157349379625, -1.0027669647818505, -0.44108712041646564, -0.4026317897368804, -0.1557302789433057, -0.12532203230804473, -0.47210461449356145, -1.0031742250268254, -1.0008703456245414, -0.7308627827933375, -1.0317428119666627, -0.9461424408581708, -0.7417844141741743, -0.773526278916042, -0.37661706577493165, -0.04942866605806925, 0.06241082634576665, -0.017711530311204943, 0.013695054468167212, -0.03884693557504931, -0.09423432328394882, -0.33451847744095614, -0.3829587204621232, -0.5673387126792468, -0.4450976816353635, -0.3754627001825063, -0.5111132195801598, -0.10796839474334953, -0.16755396141317733, -0.5252213824525853, 0.1342600422324385, 0.3248154491704531, -0.18253791640364891, -1.241213445487756, -0.8584332317209944, -1.0611602286879482, -0.6063916257902756, -0.852109406122324, -1.0576172437772289, -0.8120323876326194, -0.4659757263235945, -0.6088727202162751, -0.21324156876042583, -0.017397206335036275, -0.01085755663099965, -0.020793003047292175, -0.033626687630836656, 0.019079998134268215, -0.06253962844876006, -0.2809208005958614, -0.3925006316612345, -0.4686948509724922, -0.6571698358216704, -0.3827400769629089, -0.40286757365945536, 0.17753749531206803, 0.1554357438507378, 0.03933237989797393, 0.3920455627240941, 0.20858713171879656, -1.3574373376678786, -1.5255504994230473, -0.6079605113283271, -0.9103652350238312, -0.4095596237230413, -0.47081496635399367, -0.5964729118038455, -0.45777837915764924, -0.4973344036285414, -0.39435421159852996, -0.09881598103389175, -0.03400368845338125, 0.02850751848924739, -0.028270188573696564, -0.03517783899189219, 0.020815163458626645, -0.02257105503018352, -0.1493912316631888, -0.4136393744315532, -0.7544332637768317, -0.39521513405266934, -0.11454306679620176, 0.009407215349482979, -0.29079991637994934, 0.2766275176861613, -0.07895897703209849, -0.26400325594430135, -0.6621853702007158, -0.25097273974352596, -0.11478725831233591, -0.5019853014121475, -0.5180071878815584, -0.5702791775196128, -0.6005252449498046, -0.4150958684856282, -0.4898826928594297, -0.0839554901858049, -0.017972626143901424, 0.006021287350703453, -0.08212939169712759, 0.014180728650017113, -0.0023351859540911703, -0.008891582015642774, -0.03176760572508894, -0.02268182766721995, -0.10855051418762252, -0.5288321527375348, -0.6318521398548675, -0.33754701070772336, 0.1339340974829825, 0.35139982266940606, 0.2133978389604786, -0.13433042530724643, -0.4121922650738238, 0.074472020191433, -0.12053297870859771, 0.258875081836359, -0.35107875175227665, -0.21115759376801682, -0.010101249772115172, -0.6662439013720536, -0.2928451975792578, -0.24047342869852245, -0.16978678020686658, 0.012550998360036916, 0.07080820433497136, -0.09489165452055004, -0.05160401243877399, -0.021016344992031383, -0.04617181544819374, 0.09086848251552831, -0.03827770323654992, -0.00993241258313001, -0.0766233062375824, -0.2338572632983996, -0.204386141175616, -0.20201219111892113, -0.27853663317889843, 0.09344286299745513, -0.12983095306065498, -0.06934443141977396, -0.6697594229892396, -0.4448369128532739, -0.046323978086443625, 0.12323617114020083, -0.25376725002975103, -0.055625186315346076, 0.38633180480777424, 0.1374576627675076, 0.2792800349905839, 0.08770982107004043, 0.08743064351731028, 0.25697597226832963, 0.15057109665859603, 0.012820913018795474, 0.0173511401325351, -0.009287277526162839, 0.11364878617886806, 0.044252434880997595, -0.03967850214525519, 0.017001622602215605, 0.03767436440047133, 0.047308240822885164, 0.13375937518318642, -0.005150354219961232, -0.2642518766546514, -0.3663283381770129, -0.23412402493130158, -0.2807976490334361, 0.12975054158994076, -0.2883225311165129, -0.05989135055660795, 0.31938158316015663, -0.15984928919957797, -0.09007292680900288, 0.17229920739061416, 0.27729280441027926, -0.03902802394143072, 0.16140924390996686, 0.21931545395410837, 0.11022437807013584, 0.024581673766155224, -0.05047707716868789, -0.0064961004585928316, 0.017296294791244386, -0.006352536565592315, -0.00026004335583838605, 0.012469759361981848, 0.013473127050926199, -0.06093204068032086, 0.011203794854565807, 0.03364428556263115, 0.052447373801092614, -0.1357484258374319, 0.041976620823718135, 0.22063799147281601, 0.09860214215511016, -0.11131471307022192, -0.16257263254502727, -0.14326286538121702, 0.02496433493434168, -0.2348810942487596, -0.1807940268026756, 0.09558892634741067, 0.03407148173750814, 0.19925916714185782, 0.22843344714077962, 0.11046170991511872, 0.03498907719456222, 0.01581006014120241, 0.037192283746265216, -0.011030589465075876, -0.009706442371708682, -0.014003411189690592, -0.03364560921691203, -0.025780696430332477, 0.038170583820463344, 0.007504309515357242, -0.020404571610699137, -0.02054238863812466, 0.0055877397576613915, 0.02117832120373442, 0.013480056111719367, 0.0039689228347851106, -0.0007214240040762123, 0.035663814168500514, 0.06643481703421815, 0.06514338199522178, 0.04735712428299927, 0.00426785151385944, 0.004347114524112482, 0.03961700325682741, 0.08008089931403284, 0.05466791173219142, -0.03743222458534343, -0.01694825875726314, 0.032103863638677996, 0.009813705165543129, 0.0034428406687698676, -0.050681573040966085, 0.03162364216407673, 0.009800030766625799], [-0.019504489687864654, 0.023362215663480602, 0.01808668864747547, -0.025663841963715812, -0.021191349689497006, 0.041130821531702444, -0.029284316133675176, -0.016096470846682618, 0.014507195264979851, -0.019764837837999136, -0.029087715846427498, -0.014467001832790548, 0.0032833471467834116, 0.05387480987388653, 0.0017884468337187218, -0.002905468992465016, -0.015229581595604289, -0.0034196534385656755, 0.005643342018402883, 0.057080434085095576, -0.010427790258546102, 0.0008840683622169285, 0.01561311341949759, 0.018870775651189695, -0.021401492686667443, -0.03808289035472126, -0.03214359989372143, 0.07038229517138325, -0.025317793057036193, -0.0015105457445208817, 0.0153019458045461, -0.046126407001238205, 0.010505135717797126, -0.013752182795236344, 0.013321429775523365, -0.04413752535817135, 0.02049268289852827, -0.016750216781708446, -0.046017667014186234, -0.04239073623686462, -0.01828460259393349, -0.043332609583694295, -0.01527654664344598, 0.02774072970086096, 0.003110019279570251, -0.06605836751843187, 0.013684142437845995, 0.0022795631535884216, 0.016542435258254808, 0.039651322012972015, 0.02563217106194116, 0.02465277264244304, -0.03637432040428009, -0.00010327615678227072, 0.01092087083482792, 0.006089265702786181, 0.01706661502368879, 0.04240833058312926, -0.003105979029970969, -0.02472211199541187, 0.09423005152442783, 0.02131266362869391, -0.021490587006946782, 0.004082147525642924, 0.01034443660473766, 0.0010549264156309492, 0.009112823916046913, -0.05316012645050806, -0.03373407308326867, -0.046694053747395166, -0.10721359818326702, -0.13802522341294785, -0.09700560395059298, -0.0073799846704101155, -0.06568198488293837, -0.016941345209615544, 0.0025280063340772535, 0.016523274530413048, 0.02440618189861824, 0.010444955296907844, 0.017569769054980252, 0.023963666863942492, 0.06085299268881297, 0.02199774523613839, -0.031087075181975427, -0.017200319722666443, -0.06648318206001201, -0.012584259931353156, -0.019145749796086846, -0.03575883969453929, -0.08364088143500534, 0.0035129177212155226, -0.021850717856355555, 0.07772743566455545, 0.07638681438519948, -0.05298097533219592, -0.14844000275758445, -0.36739309811119375, -0.2676914560180765, -0.14802480961330927, -0.19672205317327962, -0.09107842954842206, -0.1728746748923773, -0.14536047212994768, 0.0010772283434963997, 0.18744620909744616, 0.04714966669953998, -0.07100325977976808, 0.029402607381676212, -0.009409119589065582, -0.021857524538275146, 0.0030196020231928185, -9.992399863463434e-05, 0.033400637313906, 0.028004443272285993, -0.03536756991748872, -0.0032781891659236905, -0.11218421998119685, -0.027847377821357128, -0.05211284150951382, -0.024231718480424137, 0.08079811791403652, 0.37224721838127406, 0.20470689419501278, 0.07591134987162762, -0.17305153285361768, -0.22376534850989985, 0.02801517010312494, 0.23480102447795384, 0.0886784214905075, -0.128725987592719, -0.23803706102092656, -0.1844925030953565, -0.09480398162975787, 0.08039468840483649, -0.014748580993808548, 0.03434950020726513, 0.010572744981244046, -0.008021549354057791, 0.027538553153665622, -0.027778690188795897, 0.008184051215512347, -0.030832598250880843, 0.0216493786043329, -0.04052858952724154, -0.005696861312372443, -0.07258390239078252, 0.017774693428251574, 0.08151150826383098, 0.1298262186800179, 0.21895021506656123, -0.07061446598739896, 0.3223203529352152, 0.321547219882561, 0.027847493422038606, -0.5664030118923806, -0.637358286785075, -0.5871436817513591, 0.0035776719692581084, 0.21770505805006546, 0.2658299312583754, 0.07920159850262343, 0.2874271163755621, 0.3898913441447269, 0.02561510369471782, 0.053575927500933, -0.024748155721590594, 0.06591767053583422, 0.009490687903494216, -0.010421400117355557, 0.06892404029762504, -0.030462017494769136, -0.002428176638755069, 0.013472842236647723, -0.12315150928114411, -0.38814600442519026, -0.45044643701441484, -0.12658136034005082, -0.00302635943001513, -0.10357054093063355, 0.279399665431148, -0.16510772454319206, -0.0015727027584708673, -0.67931110035768, -1.0610391063394018, -0.4941872628638867, -0.2015389705069911, 0.3226757989062727, 0.633681348573017, 0.5405403745885975, 0.2069830081703778, 0.3398973642355978, 0.011136674312270901, 0.10730123251034208, 0.09028728740600635, 0.028361917179365006, -0.018795254653191155, -0.006160659556324092, 0.025910999840442654, 0.03637135277894955, 0.007790416444261793, -0.06523421638077402, -0.311208735910797, -0.4072686724337696, -0.6979692486278578, 0.06212743443411214, -0.5705139193844584, -0.3305366947334655, 0.5643566092196078, 0.3309772784524856, 0.14105661677804118, -0.45112419259169445, -0.8197495684326015, -0.5776236190585486, 0.1590162066060294, -0.015669980522690516, 0.36761376707581467, 0.1431064472630894, -0.1581097640007206, 0.06435524073245065, 0.08509233212911879, 0.07234209526738578, 0.047108724635250294, 0.0032716189827828347, -0.04277526482274697, -0.012740852875759143, -0.015802332322800466, 0.05939221832357688, -0.0556310612180142, -0.1966147545742734, -0.21918669944555774, -0.15459392421654644, -0.30904844856876457, -0.15834627113398578, -0.024644596453211688, 0.5407098386445828, 0.2674401984852576, 0.39391810402607236, 0.7744885618148982, -0.3110445935267149, -1.1527352045493622, -0.24693607625754213, -0.16709756211409268, -0.011927718130815676, 0.5914409652513003, -0.12046632784631336, -0.013185593364306839, -0.05722505176781268, -0.027106683009877914, 0.11647834607351125, 0.07379851349422277, 0.002301539510022709, 0.00372739525473643, 0.03476794327031419, 0.043459451367283485, -0.01646502794514017, -0.08700770021833117, 0.032132290038650785, -0.3619586282727936, -0.0425564372973509, -0.30636711882414397, -0.18600637487971863, -0.23370447311789186, 0.15261811481339274, 0.30357215277422717, 0.47697246229153345, 0.16518562174490053, -0.6196787073275197, -0.7508369827321093, -0.014392803836535292, 0.42377353819018343, 0.4927219679800463, 0.25388063935930055, 0.10632259148870225, -0.31160127127860776, -0.05744747745058167, -0.136988836970545, 0.0538164679799905, 0.03830825694965133, -0.013006787440409529, 0.03476025092715454, 0.03464821530435293, -0.010951050026139712, -0.07061817502493292, -0.002777395242505539, -0.09607738219798535, -0.31976340628460775, -0.23898537945509365, 0.07539494139377832, 0.2399457024004332, -0.10052480950449783, -0.1338327792613261, 0.6531197307062522, 0.6437934686338066, -0.27223625575912036, -0.6974756030567687, -0.5734042011498068, 0.17503537541174766, 0.3991680306487424, 0.0516040527306351, 0.10725548645166756, -0.11280485363790069, -0.06477491398185714, -0.21016965823033126, -0.27444106623562814, 0.034540768825162965, -0.013303009846966302, -0.004284550591072089, -0.04594312986622513, 0.015029544345088422, 0.04029163063955988, -0.04422169392861651, 0.14514513900954584, 0.27487617858129215, 0.43464351602787155, 0.028741193690085935, 0.057897057364716606, -0.07785053320403135, -0.017306877819953506, 0.1809797461978572, 1.2023298647757252, 0.21381232978603515, -0.6528447437254202, -0.709843668786144, -0.22287291450357277, 0.14716043873959367, 0.05038322227876084, -0.31232643840435187, -0.07842986484039308, -0.0689532924103256, -0.16467834081219682, -0.1983774567777634, -0.28828427645774757, 0.0015036103752653833, -0.005262519207967222, 0.004724342036534468, 0.017194792185607922, 0.01887319182972655, 0.025494378440334413, 0.09687022508474197, 0.24074666899175148, 0.7826504882442997, 0.7322042712269718, 0.7452143608929858, 0.6329946150545953, 0.5838546665735613, 0.9727616641702557, 0.8727422979917598, 0.9657462578203815, 0.04546249940081457, -0.2805407292833619, -0.18531123543310013, -0.4619191556262866, 0.2910841105413364, 0.2802712782727226, 0.044957670453341286, -0.12286236023629585, -0.4741281445790114, -0.1469739885628379, -0.5343137506104915, -0.26393924398211294, -0.03461717359856071, -0.037950712126782166, 0.01765247715737239, -0.0010786637817604293, 0.04264329362052689, 0.022854069171924018, 0.1567033192458966, 0.40420045945690464, 0.8977691861649648, 0.7570240124531451, 0.3550499813570702, 1.1280898257538876, 1.0543266621859435, 0.8347427276734907, 0.1889894190540774, -0.5393556718804472, -0.7038247879427459, -0.5100097989930581, -0.32114456819587395, -0.25194616367869077, 1.085192110118551, 0.28775799228927607, -0.5859788209828786, 0.05841345026134654, -0.6343322766535774, -0.2632206970079512, -0.22752163436623826, -0.2668006432005504, -0.0365694019465347, 0.012701599924554243, -0.012773595737384826, 0.02413756823601132, 0.023378461047425157, 0.03160757167221473, 0.07479193901436569, 0.22122814159800072, 0.6452063000787996, 0.3460405430333322, 0.2238907175600406, 0.7083870351389892, 0.2727371285475912, 0.06228324415913542, -1.0793251845654832, -1.3373228630809486, -0.87452352894189, 0.0031098269486882395, -0.12255981217353873, -0.04560281717637769, 0.5557312032208003, -0.17445572637410708, -0.16856716167024743, -0.048112548149284784, -0.6178169577717207, -0.012715295011791928, 0.08803861130607597, -0.09082920231701415, -0.11924498920672034, -0.002850370770121411, -0.03218869203223197, -0.04285405590531764, -0.05791744990812732, 0.028849090888218885, 0.025590954782531893, 0.12996482820706373, 0.07240035016914974, 0.23274013202240978, -0.20957783920238415, -0.5255612364711749, -0.2358410049878579, -0.5377839962519495, -1.012996580388451, -0.9443479020753579, -0.49682330730242114, -0.044578556289331474, -0.017261999493692528, -0.3709538612696727, -0.05321353979994787, -0.3525716191323697, -0.5705694539685832, -0.14708073343040154, -0.2071358679218307, 0.24830714010210397, 0.0589836383477704, -0.15419785489102047, -0.08168959588900561, 0.11400199990573698, 0.03780742453942032, -0.02464398980443124, 0.0038067056191052884, -0.02739708537166661, -0.06943401918633879, 0.2186062294116015, -0.12117408726951351, -0.1607881070336405, -0.3287750726850473, -0.3366311254462672, -0.9750666681706647, -0.9931651784057224, -1.0830595458906782, -0.6503409151768516, -0.04563965134079513, -0.22378405364528892, 0.3390398926372229, 0.1835546446839217, -0.126990702608937, -0.3616226676223042, 0.10331311896291871, -0.0559831563886196, 0.21877875355449392, 0.09843606469994529, -0.0290101186160069, -0.002222548896109643, 0.03711894321448594, 0.05473357697455419, 0.016102755371552376, -0.0270188271192232, 0.03373201648431974, -0.013420728203798369, -0.11008785102116078, -0.003851575796199268, -0.29889199017168716, -0.7566809110272238, -0.9446498668309568, -0.5243779743073068, -0.8973180877946317, -1.0455418737120634, -0.5208262902137074, -0.42609815009901625, 0.15737245027731459, -0.33280740824466376, -0.23081700163840985, 0.2510879853702972, 0.24387002142487008, 0.37783594318892805, 0.4971557898439368, 0.22700539934836403, 0.15919554468421276, -0.055089679225685556, -0.07095564748796446, -0.08987113726165469, 0.1438447845854539, 0.056035468113426815, 0.042315977125587705, -0.021328433470048796, 0.06959255230845143, 0.05638596590851827, -0.015484894471673586, -0.04003359777945317, -0.34257314956132456, -0.8757863198622996, -1.0110637653431216, -0.6071552803202587, -0.3931917920243723, -0.6877748742253611, -0.09181021080027008, 0.034964350157887986, 0.12522779863730643, -0.22246522192713702, 0.053431068583654144, 0.12223071293926083, 0.19137408266569234, 0.12426381351805553, 0.09011808507195421, 0.11666813228108308, 0.07605738305534626, -0.2480559525893889, -0.05605923047963062, -0.051505035129487675, 0.15396926017655413, 0.03190733370754583, 0.010705137657235225, -0.07330693585764401, 0.030930130725136253, -0.03498843888773798, -0.08103268526343306, -0.1440692116504333, -0.39876178885248803, -0.5697251873776928, -0.6348964378990498, -0.3346594958788165, -0.12471085903936768, -0.03173264228990804, -0.008716909780449492, -0.5083609208844092, -0.2733325951509252, 0.15873322527354564, 0.6085781750170174, -0.18680976663838583, -0.15832958531899652, -0.023527985679200596, -0.13862884412343585, 0.242414167719441, 0.2504303442100599, -0.20305691933677425, -0.08788683584350038, -0.06715035631478801, 0.055591918040426166, 0.03155076581257118, -0.010450915662062854, 0.013334305052309535, -0.02806805330617685, 0.004051698448072224, -0.029152397304412134, -0.2712759670602382, -0.503144046461406, -0.2590622117441049, -0.2005371658706618, -0.019438612132397278, 0.007460031551555334, -0.0771606474069795, 0.10450197145833838, 0.20766647203004612, 0.29459997719332365, 0.14000151456564894, 0.239644995987487, -0.25057733208992444, -0.22964430041716138, -0.24458932956095433, 0.08312854870132057, 0.25236416042765425, 0.4719230756812655, 0.06550106037486232, 0.07616669112774348, -0.08807101574081203, 0.0050683091729784024, -0.050180148450631595, -0.03638398781936143, 0.04015763100566603, -0.03849522182117177, 0.05748433725890552, -0.0028016686415624084, -0.1792254918949769, -0.2514137913362578, -0.22993864457739777, -0.2771991216471444, 0.2514811427402304, 0.05391655731743767, 0.04468147903837314, 0.24104241058826717, -0.16894225798294304, -0.1963929741229202, -0.002117410058624746, 0.29610721875151214, 0.013247435295499363, -0.2493477609156365, 0.2792819408697866, 0.422681090381264, 0.6855462705425692, 0.6227582077725904, 0.2037856998022185, 